svm_type c_svc
kernel_type rbf
gamma 0.000488281
nr_class 5
total_sv 113
rho 0.65545 1.79077 0.441858 -0.225196 2.02098 0.107161 -0.347528 -0.0562877 -7.87224 -0.606409
label 0 1 2 3 4
nr_sv 10 24 45 17 17
SV
0 243.4642473235451 0 995.0736882237926 1:0.445256 2:0.619812 3:0.454692 4:0.459169 5:0.445256 6:0.619812 7:0.454692 8:0.459169 9:0.445256 10:0.619812 11:0.454692 12:0.459169 13:-1.24876e-05 14:0.707109 15:1.29091e-05 16:0.707104 17:-0.00198253 18:0.707622 19:0.00372357 20:0.706578 21:0.5 22:0.500002 23:0.5 24:0.499998 25:0.707108 26:-2.43607e-06 27:0.707105 28:2.68897e-06 29:0.708266 30:-0.000552104 31:0.705944 32:0.0013767 33:0.5 34:0.500002 35:0.5 36:0.499998 37:0.622688 38:0.233571 39:0.42169 40:0.616345 41:0.673521 42:0.430466 43:0.28357 44:0.52977 45:0.5 46:0.500002 47:0.5 48:0.499998 49:0.689513 50:-0.38228 51:-0.31408 52:0.528949 53:0.526866 54:-0.286651 55:-0.403256 56:0.691106 57:0.5 58:0.500002 59:0.5 60:0.499998 
223.9472356317651 2048 143.4307773432208 0 1:0.440216 2:0.621761 3:0.46065 4:0.455438 5:0.440216 6:0.621761 7:0.46065 8:0.455438 9:0.440216 10:0.621761 11:0.46065 12:0.455438 13:-1.03341e-05 14:0.707109 15:1.05027e-05 16:0.707105 17:-0.00178445 18:0.707572 19:0.00335131 20:0.706632 21:0.5 22:0.500002 23:0.5 24:0.499998 25:0.707108 26:-1.95886e-06 27:0.707105 28:1.62171e-06 29:0.70815 30:-0.000496667 31:0.70606 32:0.001239 33:0.5 34:0.500002 35:0.5 36:0.499998 37:0.617007 38:0.240177 39:0.424415 40:0.617648 41:0.671969 42:0.434425 43:0.286883 44:0.526716 45:0.5 46:0.500002 47:0.5 48:0.499998 49:0.686499 50:-0.381629 51:-0.315508 52:0.532479 53:0.52501 54:-0.286802 55:-0.403647 56:0.692227 57:0.5 58:0.500002 59:0.5 60:0.499998 
0 1158.889281156054 0 0 1:0.549966 2:0.51232 3:0.415996 4:0.511872 5:0.549966 6:0.51232 7:0.415996 8:0.511872 9:0.549839 10:0.512026 11:0.416325 12:0.512035 13:-1.55156e-06 14:0.707108 15:1.04579e-06 16:0.707105 17:6.01375e-06 18:0.707108 19:8.61107e-06 20:0.707105 21:0.5 22:0.500002 23:0.5 24:0.499998 25:0.707108 26:2.45002e-07 27:0.707105 28:-2.35234e-06 29:0.707108 30:8.6111e-06 31:0.707105 32:6.01372e-06 33:0.5 34:0.500002 35:0.5 36:0.499998 37:-0.465142 38:0.595867 39:0.541876 40:-0.367363 41:-0.362757 42:0.479627 43:0.640938 44:-0.477037 45:0.5 46:0.500002 47:0.5 48:0.499998 49:0.649563 50:-0.461979 51:-0.332864 52:0.50383 53:0.487849 54:-0.3539 55:-0.44607 56:0.661649 57:0.5 58:0.500002 59:0.5 60:0.499998 
7.928960259936834 0 0 0 1:0.539547 2:0.539527 3:0.455208 4:0.458896 5:0.539547 6:0.539527 7:0.455208 8:0.458896 9:0.539262 10:0.539662 11:0.455118 12:0.459161 13:-1.55156e-06 14:0.707108 15:1.04579e-06 16:0.707105 17:6.01375e-06 18:0.707108 19:8.61107e-06 20:0.707105 21:0.5 22:0.500002 23:0.5 24:0.499998 25:0.707108 26:2.45002e-07 27:0.707105 28:-2.35234e-06 29:0.707108 30:8.6111e-06 31:0.707105 32:6.01372e-06 33:0.5 34:0.500002 35:0.5 36:0.499998 37:-0.482575 38:0.587557 39:0.503015 40:-0.410943 41:-0.392443 42:0.467022 43:0.618692 44:-0.495075 45:0.5 46:0.500002 47:0.5 48:0.499998 49:0.621483 50:-0.451874 51:-0.329868 52:0.548412 53:0.499661 54:-0.349777 55:-0.446224 56:0.654889 57:0.5 58:0.500002 59:0.5 60:0.499998 
0 0 0 197.9897566061786 1:0.376412 2:0.555408 3:0.645216 4:0.365421 5:0.376412 6:0.555408 7:0.645216 8:0.365421 9:0.377404 10:0.57659 11:0.625929 12:0.365133 13:-0.159439 14:0.696347 15:0.189083 16:0.673742 17:-0.143109 18:0.707756 19:0.203295 20:0.661266 21:0.5 22:0.500002 23:0.5 24:0.499998 25:0.707108 26:2.45002e-07 27:0.707105 28:-2.35234e-06 29:0.707108 30:8.6111e-06 31:0.707105 32:6.01372e-06 33:0.5 34:0.500002 35:0.5 36:0.499998 37:0.556387 38:-0.452342 39:-0.395019 40:0.574265 41:0.482501 42:-0.388286 43:-0.462027 44:0.63479 45:0.5 46:0.500002 47:0.5 48:0.499998 49:0.608151 50:-0.226006 51:-0.23667 52:0.72323 53:0.564169 54:-0.172966 55:-0.30004 56:0.749515 57:0.5 58:0.500002 59:0.5 60:0.499998 
0 0 65.70436426931001 0 1:0.374719 2:0.550806 3:0.652985 4:0.36029 5:0.374719 6:0.550806 7:0.652985 8:0.36029 9:0.375402 10:0.569492 11:0.636312 12:0.36036 13:-0.128034 14:0.702037 15:0.151839 16:0.683883 17:-0.129061 18:0.709749 19:0.18334 20:0.667822 21:0.5 22:0.500002 23:0.5 24:0.499998 25:0.707108 26:2.45002e-07 27:0.707105 28:-2.35234e-06 29:0.707108 30:8.6111e-06 31:0.707105 32:6.01372e-06 33:0.5 34:0.500002 35:0.5 36:0.499998 37:0.553301 38:-0.450951 39:-0.391658 40:0.580609 41:0.485758 42:-0.386134 43:-0.461318 44:0.634133 45:0.5 46:0.500002 47:0.5 48:0.499998 49:0.611137 50:-0.224204 51:-0.231362 52:0.722991 53:0.562546 54:-0.168863 55:-0.297821 56:0.752549 57:0.5 58:0.500002 59:0.5 60:0.499998 
242.562045819523 0 58.5688851039539 0 1:0.522159 2:0.495245 3:0.499867 4:0.481888 5:0.522159 6:0.495245 7:0.499867 8:0.481888 9:0.534112 10:0.500614 11:0.494123 12:0.468991 13:-1.55183e-06 14:0.707108 15:1.04606e-06 16:0.707105 17:-4.72441e-06 18:0.70711 19:2.1878e-05 20:0.707104 21:0.5 22:0.500002 23:0.5 24:0.499998 25:0.707108 26:2.45002e-07 27:0.707105 28:-2.35234e-06 29:0.707108 30:8.6111e-06 31:0.707105 32:6.01372e-06 33:0.5 34:0.500002 35:0.5 36:0.499998 37:-0.438847 38:0.569603 39:0.501683 40:-0.480915 41:-0.413765 42:0.507155 43:0.569778 44:-0.496937 45:0.5 46:0.500002 47:0.5 48:0.499998 49:0.551564 50:-0.382654 51:-0.347772 52:0.654528 53:0.571907 54:-0.358806 55:-0.375058 56:0.635227 57:0.5 58:0.500002 59:0.5 60:0.499998 
0 487.8795332248949 0 0 1:0.539288 2:0.464283 3:0.464305 4:0.527286 5:0.539288 6:0.464283 7:0.464305 8:0.527286 9:0.554268 10:0.46876 11:0.459482 12:0.511788 13:-1.55159e-06 14:0.707108 15:1.04583e-06 16:0.707105 17:1.42698e-06 18:0.707109 19:1.33243e-05 20:0.707105 21:0.5 22:0.500002 23:0.5 24:0.499998 25:0.707108 26:2.45002e-07 27:0.707105 28:-2.35234e-06 29:0.707108 30:8.6111e-06 31:0.707105 32:6.01372e-06 33:0.5 34:0.500002 35:0.5 36:0.499998 37:-0.41309 38:0.56918 39:0.561631 40:-0.435845 41:-0.378338 42:0.510116 43:0.617767 44:-0.463688 45:0.5 46:0.500002 47:0.5 48:0.499998 49:0.575867 50:-0.42597 51:-0.378832 52:0.586015 53:0.543732 54:-0.368987 55:-0.441135 56:0.611232 57:0.5 58:0.500002 59:0.5 60:0.499998 
0 1300.215364518397 0 0 1:0.564374 2:0.410472 3:0.44057 4:0.564705 5:0.564374 6:0.410472 7:0.44057 8:0.564705 9:0.575213 10:0.411965 11:0.439385 12:0.553495 13:-1.55156e-06 14:0.707108 15:1.04579e-06 16:0.707105 17:5.15211e-06 18:0.707108 19:9.47271e-06 20:0.707105 21:0.5 22:0.500002 23:0.5 24:0.499998 25:0.707108 26:2.45002e-07 27:0.707105 28:-2.35234e-06 29:0.707108 30:8.6111e-06 31:0.707105 32:6.01372e-06 33:0.5 34:0.500002 35:0.5 36:0.499998 37:-0.330682 38:0.545651 39:0.63853 40:-0.430342 41:-0.356307 42:0.508725 43:0.678264 44:-0.392685 45:0.5 46:0.500002 47:0.5 48:0.499998 49:0.557469 50:-0.443391 51:-0.443355 52:0.544123 53:0.522808 54:-0.388068 55:-0.497797 56:0.572951 57:0.5 58:0.500002 59:0.5 60:0.499998 
0 217.5998623685282 0 0 1:0.519846 2:0.494261 3:0.500108 4:0.485138 5:0.519846 6:0.494261 7:0.500108 8:0.485138 9:0.530265 10:0.504433 11:0.489817 12:0.473757 13:-1.55156e-06 14:0.707108 15:1.04579e-06 16:0.707105 17:6.01374e-06 18:0.707108 19:8.61107e-06 20:0.707105 21:0.5 22:0.500002 23:0.5 24:0.499998 25:0.707108 26:2.45002e-07 27:0.707105 28:-2.35234e-06 29:0.707108 30:8.6111e-06 31:0.707105 32:6.01372e-06 33:0.5 34:0.500002 35:0.5 36:0.499998 37:-0.416685 38:0.547912 39:0.533774 40:-0.491173 41:-0.41126 42:0.519424 43:0.564186 44:-0.492705 45:0.5 46:0.500002 47:0.5 48:0.499998 49:0.553181 50:-0.365927 51:-0.373136 52:0.648735 53:0.556395 54:-0.350995 55:-0.390137 56:0.64422 57:0.5 58:0.500002 59:0.5 60:0.499998 
-14.79010623791631 0 0 0 1:0.572188 2:0.53128 3:0.449776 4:0.433641 5:0.572188 6:0.53128 7:0.449776 8:0.433641 9:0.559454 10:0.522489 11:0.460786 12:0.449103 13:0.711385 14:0.264041 15:0.646826 16:0.076354 17:0.613265 18:0.232537 19:0.754671 20:-0.0174277 21:0.5 22:0.500002 23:0.5 24:0.499998 25:0.259747 26:0.670481 27:0.0972146 28:0.688139 29:0.228891 30:0.58772 31:0.00497661 32:0.775995 33:0.5 34:0.500002 35:0.5 36:0.499998 37:-0.317315 38:0.724804 39:0.575444 40:-0.206964 41:-0.267621 42:0.546717 43:0.748707 44:-0.262522 45:0.5 46:0.500002 47:0.5 48:0.499998 49:0.673962 50:-0.449037 51:-0.293976 52:0.507661 53:0.480365 54:-0.333954 55:-0.420156 56:0.693681 57:0.5 58:0.500002 59:0.5 60:0.499998 
-91.94370106829425 0 0 0 1:0.599638 2:0.518877 3:0.416056 4:0.445083 5:0.599638 6:0.518877 7:0.416056 8:0.445083 9:0.582852 10:0.50477 11:0.433424 12:0.466513 13:0.603032 14:0.473637 15:0.602174 16:-0.222277 17:0.606348 18:0.493841 19:0.591628 20:-0.196062 21:0.5 22:0.500002 23:0.5 24:0.499998 25:0.577317 26:0.580205 27:-0.275512 28:0.504144 29:0.618365 30:0.531023 31:-0.239109 32:0.527699 33:0.5 34:0.500002 35:0.5 36:0.499998 37:-0.284845 38:0.74178 39:0.577207 40:-0.188302 41:-0.241551 42:0.570029 43:0.74882 44:-0.236619 45:0.5 46:0.500002 47:0.5 48:0.499998 49:0.675463 50:-0.472417 51:-0.277193 52:0.493697 53:0.455472 54:-0.342796 55:-0.427205 56:0.701806 57:0.5 58:0.500002 59:0.5 60:0.499998 
-0 371.7254042477355 0 0 1:0.2763 2:0.695992 3:0.654904 4:0.101756 5:0.2763 6:0.695992 7:0.654904 8:0.101756 9:0.259842 10:0.695597 11:0.659163 12:0.118875 13:0.296814 14:0.811873 15:0.294279 16:-0.407632 17:0.0115897 18:-0.258087 19:-0.417809 20:0.87103 21:0.5 22:0.500002 23:0.5 24:0.499998 25:0.119037 26:0.896525 27:0.0474745 28:0.42405 29:0.11635 30:0.309058 31:-0.0537259 32:0.942369 33:0.5 34:0.500002 35:0.5 36:0.499998 37:-0.579721 38:0.58347 39:0.400195 40:-0.404141 41:-0.559931 42:0.412894 43:0.579214 44:-0.424861 45:0.5 46:0.500002 47:0.5 48:0.499998 49:0.666141 50:-0.402885 51:-0.320533 52:0.539629 53:0.485696 54:-0.295406 55:-0.421654 56:0.706429 57:0.5 58:0.500002 59:0.5 60:0.499998 
-31.77786554314424 0 131.5387662239369 0 1:0.276504 2:0.695027 3:0.657416 4:0.0910375 5:0.276504 6:0.695027 7:0.657416 8:0.0910375 9:0.259577 10:0.695236 11:0.661407 12:0.108664 13:0.29593 14:0.820405 15:0.2836 16:-0.398663 17:0.00512522 18:-0.268937 19:-0.40985 20:0.87159 21:0.5 22:0.500002 23:0.5 24:0.499998 25:0.12111 26:0.90609 27:0.0609849 28:0.400767 29:0.127677 30:0.334502 31:-0.0456661 32:0.932589 33:0.5 34:0.500002 35:0.5 36:0.499998 37:0.585584 38:-0.575212 39:-0.402415 40:0.405322 41:-0.567219 42:0.415437 43:0.567931 44:-0.427936 45:0.5 46:0.500002 47:0.5 48:0.499998 49:0.669618 50:-0.415115 51:-0.318643 52:0.527027 53:0.470553 54:-0.294242 55:-0.432754 56:0.710441 57:0.5 58:0.500002 59:0.5 60:0.499998 
-8.355002929790711 0 2.060132306905856 0 1:0.28938 2:0.719967 3:0.623335 4:0.0967499 5:0.28938 6:0.719967 7:0.623335 8:0.0967499 9:0.276286 10:0.709701 11:0.638196 12:0.11268 13:0.275368 14:0.782078 15:0.335853 16:-0.446912 17:-0.0555807 18:-0.426468 19:-0.430738 20:0.793411 21:0.5 22:0.500002 23:0.5 24:0.499998 25:0.119265 26:0.910228 27:0.0725611 28:0.389865 29:0.138754 30:0.482647 31:-0.0153828 32:0.864617 33:0.5 34:0.500002 35:0.5 36:0.499998 37:-0.571983 38:0.594627 39:0.388749 40:-0.410035 41:0.575213 42:-0.416159 43:-0.574654 44:0.40708 45:0.5 46:0.500002 47:0.5 48:0.499998 49:0.67026 50:-0.474096 51:-0.317481 52:0.474541 53:0.436872 54:-0.315987 55:-0.475093 56:0.6954 57:0.5 58:0.500002 59:0.5 60:0.499998 
-108.8703261570803 696.942058688034 0 36.63350521096591 1:0.362289 2:0.693803 3:0.575841 4:0.236202 5:0.362289 6:0.693803 7:0.575841 8:0.236202 9:0.349071 10:0.680369 11:0.593218 12:0.251674 13:0.37511 14:0.704187 15:0.47075 16:-0.376575 17:0.280427 18:0.625686 19:0.533508 20:-0.495224 21:0.5 22:0.500002 23:0.5 24:0.499998 25:0.0922428 26:0.770234 27:0.198473 28:0.599032 29:0.111578 30:0.640318 31:0.155513 32:0.743881 33:0.5 34:0.500002 35:0.5 36:0.499998 37:-0.423476 38:0.673569 39:0.565729 40:-0.216619 41:-0.369635 42:0.507701 43:0.719366 44:-0.296853 45:0.5 46:0.500002 47:0.5 48:0.499998 49:0.598499 50:-0.436052 51:-0.441207 52:0.506946 53:0.538501 54:-0.424535 55:-0.44883 56:0.573008 57:0.5 58:0.500002 59:0.5 60:0.499998 
-0 0 58.15000838882986 0 1:0.488434 2:0.633142 3:0.471262 4:0.372124 5:0.488434 6:0.633142 7:0.471262 8:0.372124 9:0.471476 10:0.616885 11:0.493301 12:0.392194 13:0.597972 14:0.532856 15:0.561251 16:-0.208547 17:0.427326 18:0.458278 19:0.699975 20:-0.342649 21:0.5 22:0.500002 23:0.5 24:0.499998 25:0.259718 26:0.678156 27:0.0420572 28:0.686208 29:0.211694 30:0.595318 31:-0.0632585 32:0.772515 33:0.5 34:0.500002 35:0.5 36:0.499998 37:-0.30138 38:0.700103 39:0.640589 40:-0.0931262 41:-0.232969 42:0.563183 43:0.763508 44:-0.213554 45:0.5 46:0.500002 47:0.5 48:0.499998 49:-0.525228 50:0.533703 51:0.5501 52:-0.369712 53:-0.444692 54:0.546595 55:0.537801 56:-0.462875 57:0.5 58:0.500002 59:0.5 60:0.499998 
-0 680.3430360301551 0 0 1:0.70242 2:0.300777 3:0.204118 4:0.611943 5:0.70242 6:0.300777 7:0.204118 8:0.611943 9:0.687539 10:0.297059 11:0.210088 12:0.628419 13:0.883967 14:0.240615 15:0.400804 16:-0.00791553 17:0.536912 18:0.199801 19:0.808559 20:-0.134303 21:0.5 22:0.500002 23:0.5 24:0.499998 25:0.711955 26:0.371249 27:-0.402017 28:0.440087 29:0.491203 30:0.163792 31:-0.653618 32:0.551973 33:0.5 34:0.500002 35:0.5 36:0.499998 37:0.00764768 38:0.726183 39:0.686641 40:0.0335227 41:0.0574632 42:0.604372 43:0.793642 44:-0.0395582 45:0.5 46:0.500002 47:0.5 48:0.499998 49:-0.212146 50:0.713103 51:0.668016 52:-0.0152477 53:-0.0855283 54:0.739793 55:0.654566 56:-0.130134 57:0.5 58:0.500002 59:0.5 60:0.499998 
-0 0 106.3073154552249 0 1:0.517231 2:0.586679 3:0.489798 4:0.385198 5:0.517231 6:0.586679 7:0.489798 8:0.385198 9:0.52198 10:0.596326 11:0.478736 12:0.377814 13:0.734331 14:0.672554 15:0.012193 16:-0.0910003 17:0.629741 18:0.536825 19:0.377912 20:-0.415244 21:0.5 22:0.500002 23:0.5 24:0.499998 25:0.872125 26:0.48681 27:0.048873 28:0.00507371 29:0.698974 30:0.369337 31:-0.523856 32:0.317174 33:0.5 34:0.500002 35:0.5 36:0.499998 37:0.399005 38:0.603694 39:0.573793 40:0.383549 41:0.358435 42:0.573579 43:0.601989 44:0.42443 45:0.5 46:0.500002 47:0.5 48:0.499998 49:0.470934 50:0.530997 51:0.554635 52:0.43433 53:0.472179 54:0.584118 55:0.503744 56:0.426726 57:0.5 58:0.500002 59:0.5 60:0.499998 
-0 0 0 224.3458505140273 1:0.5236 2:0.588084 3:0.483623 4:0.382242 5:0.5236 6:0.588084 7:0.483623 8:0.382242 9:0.526001 10:0.598755 11:0.472007 12:0.376862 13:0.728133 14:0.679201 15:0.0103224 16:-0.0916598 17:0.627516 18:0.544732 19:0.36947 20:-0.415912 21:0.5 22:0.500002 23:0.5 24:0.499998 25:0.875652 26:0.480704 27:0.0352924 28:0.0302122 29:0.701386 30:0.353734 31:-0.525422 32:0.326896 33:0.5 34:0.500002 35:0.5 36:0.499998 37:0.393218 38:0.602051 39:0.573247 40:0.392814 41:0.39032 42:0.584015 43:0.591755 44:0.395478 45:0.5 46:0.500002 47:0.5 48:0.499998 49:0.47921 50:0.534475 51:0.547891 52:0.429545 53:0.469076 54:0.580201 55:0.504681 56:0.434317 57:0.5 58:0.500002 59:0.5 60:0.499998 
-0 89.33712202832724 0 0 1:0.516914 2:0.579947 3:0.480758 4:0.406612 5:0.516914 6:0.579947 7:0.480758 8:0.406612 9:0.524296 10:0.588769 11:0.46993 12:0.397026 13:0.708244 14:0.686733 15:0.0546697 16:-0.15427 17:0.584649 18:0.515962 19:0.403465 20:-0.478732 21:0.5 22:0.500002 23:0.5 24:0.499998 25:0.879484 26:0.464059 27:-0.0708118 28:0.078374 29:0.651693 30:0.318739 31:-0.594813 32:0.346264 33:0.5 34:0.500002 35:0.5 36:0.499998 37:0.392465 38:0.591348 39:0.572239 40:0.410879 41:0.43479 42:0.591427 43:0.569043 44:0.370623 45:0.5 46:0.500002 47:0.5 48:0.499998 49:0.488798 50:0.527624 51:0.541966 52:0.434698 53:0.475206 54:0.57303 55:0.499451 56:0.44313 57:0.5 58:0.500002 59:0.5 60:0.499998 
-0 0 0 252.6063116799867 1:0.526689 2:0.603169 3:0.449109 4:0.396342 5:0.526689 6:0.603169 7:0.449109 8:0.396342 9:0.529161 10:0.607443 11:0.443705 12:0.392591 13:0.156519 14:0.889043 15:0.139686 16:-0.40693 17:-0.0558644 18:-0.526742 19:-0.20221 20:0.823731 21:0.5 22:0.500002 23:0.5 24:0.499998 25:0.974074 26:0.117722 27:-0.181249 28:0.0668617 29:-0.636137 30:-0.0482775 31:0.759605 32:-0.126486 33:0.5 34:0.500002 35:0.5 36:0.499998 37:0.409356 38:0.590869 39:0.570922 40:0.396673 41:0.41933 42:0.584772 43:0.576624 44:0.386922 45:0.5 46:0.500002 47:0.5 48:0.499998 49:0.5004 50:0.522765 51:0.54181 52:0.427504 53:0.475423 54:0.569886 55:0.498895 56:0.447556 57:0.5 58:0.500002 59:0.5 60:0.499998 
-81.97697821701429 0 0 0 1:0.511298 2:0.598725 3:0.46624 4:0.403389 5:0.511298 6:0.598725 7:0.46624 8:0.403389 9:0.514088 10:0.605414 11:0.458296 12:0.398939 13:0.343421 14:0.859723 15:0.149865 16:-0.347101 17:-0.194746 18:-0.503672 19:-0.320112 20:0.778406 21:0.5 22:0.500002 23:0.5 24:0.499998 25:0.956251 26:0.225206 27:-0.169217 28:0.078937 29:-0.602031 30:-0.115808 31:0.761978 32:-0.208657 33:0.5 34:0.500002 35:0.5 36:0.499998 37:0.406206 38:0.600093 39:0.569755 40:0.387639 41:0.402422 42:0.583997 43:0.586181 44:0.391657 45:0.5 46:0.500002 47:0.5 48:0.499998 49:0.49367 50:0.536277 51:0.540408 52:0.420305 53:0.475909 54:0.572455 55:0.507302 56:0.43411 57:0.5 58:0.500002 59:0.5 60:0.499998 
-12.15785680687669 0 0 0 1:0.515034 2:0.594268 3:0.467417 4:0.403865 5:0.515034 6:0.594268 7:0.467417 8:0.403865 9:0.514298 10:0.603642 11:0.457517 12:0.402234 13:0.468037 14:0.820608 15:0.126246 16:-0.302663 17:-0.298279 18:-0.474114 19:-0.382134 20:0.734996 21:0.5 22:0.500002 23:0.5 24:0.499998 25:0.923296 26:0.34235 27:-0.159606 28:0.0696143 29:-0.597548 30:-0.21478 31:0.721725 32:-0.275535 33:0.5 34:0.500002 35:0.5 36:0.499998 37:0.391868 38:0.597112 39:0.570819 40:0.405046 41:0.447481 42:0.592538 43:0.569601 44:0.352439 45:0.5 46:0.500002 47:0.5 48:0.499998 49:0.497061 50:0.537531 51:0.536623 52:0.419554 53:0.47192 54:0.569457 55:0.507742 56:0.441824 57:0.5 58:0.500002 59:0.5 60:0.499998 
-0 0 59.97905696656655 0 1:0.506313 2:0.593472 3:0.489176 4:0.390059 5:0.506313 6:0.593472 7:0.489176 8:0.390059 9:0.512972 10:0.603543 11:0.477035 12:0.380832 13:0.774958 14:0.615806 15:0.118852 16:-0.0780849 17:0.451121 18:0.370272 19:0.64123 20:-0.498209 21:0.5 22:0.500002 23:0.5 24:0.499998 25:0.826888 26:0.548575 27:-0.0913734 28:0.0835086 29:-0.552982 30:-0.351533 31:0.621533 32:-0.429339 33:0.5 34:0.500002 35:0.5 36:0.499998 37:0.374008 38:0.601708 39:0.580748 40:0.400995 41:0.441839 42:0.601993 43:0.572981 44:0.33775 45:0.5 46:0.500002 47:0.5 48:0.499998 49:0.482008 50:0.540479 51:0.551535 52:0.413957 53:0.464794 54:0.587876 55:0.507697 56:0.424985 57:0.5 58:0.500002 59:0.5 60:0.499998 
-0 995.4526907580228 0 16.88704897815596 1:0.504996 2:0.596828 3:0.492171 4:0.382809 5:0.504996 6:0.596828 7:0.492171 8:0.382809 9:0.510991 10:0.606657 11:0.480424 12:0.37423 13:0.771445 14:0.612715 15:0.150302 16:-0.0828426 17:0.42801 18:0.366216 19:0.659185 20:-0.498165 21:0.5 22:0.500002 23:0.5 24:0.499998 25:0.830401 26:0.542682 27:-0.084078 28:0.0941352 29:-0.566278 30:-0.344108 31:0.613159 32:-0.430064 33:0.5 34:0.500002 35:0.5 36:0.499998 37:0.3949 38:0.614984 39:0.572197 40:0.372075 41:0.377484 42:0.584309 43:0.603545 44:0.389644 45:0.5 46:0.500002 47:0.5 48:0.499998 49:0.483836 50:0.550196 51:0.548285 52:0.4032 53:0.455015 54:0.587667 55:0.514344 56:0.427854 57:0.5 58:0.500002 59:0.5 60:0.499998 
-0 0 2.500489973066292 0 1:0.510294 2:0.594099 3:0.49148 4:0.380912 5:0.510294 6:0.594099 7:0.49148 8:0.380912 9:0.515654 10:0.604201 11:0.479652 12:0.372796 13:0.760716 14:0.618583 15:0.175382 16:-0.0889226 17:-0.400893 18:-0.364689 19:-0.669875 20:0.507498 21:0.5 22:0.500002 23:0.5 24:0.499998 25:0.833866 26:0.536868 27:-0.0982158 28:0.0824236 29:-0.569128 30:-0.353932 31:0.617311 32:-0.412011 33:0.5 34:0.500002 35:0.5 36:0.499998 37:0.39955 38:0.614875 39:0.569487 40:0.371447 41:0.361861 42:0.573935 43:0.609814 44:0.409611 45:0.5 46:0.500002 47:0.5 48:0.499998 49:0.487968 50:0.550082 51:0.545129 52:0.402657 53:0.454078 54:0.58357 55:0.515137 56:0.433467 57:0.5 58:0.500002 59:0.5 60:0.499998 
-0 664.9320372430633 0 0 1:0.560358 2:0.560516 3:0.437527 4:0.424724 5:0.560358 6:0.560516 7:0.437527 8:0.424724 9:0.562924 10:0.566054 11:0.431123 12:0.420515 13:0.598139 14:0.689058 15:0.173026 16:-0.370797 17:0.584127 18:0.594243 19:0.252326 20:-0.491938 21:0.5 22:0.500002 23:0.5 24:0.499998 25:0.753476 26:0.49895 27:-0.33455 28:0.267208 29:-0.572568 30:-0.361994 31:0.59314 32:-0.435099 33:0.5 34:0.500002 35:0.5 36:0.499998 37:0.439403 38:0.581411 39:0.529055 40:0.434727 41:0.467878 42:0.558559 43:0.550299 44:0.407766 45:0.5 46:0.500002 47:0.5 48:0.499998 49:0.51772 50:0.4961 51:0.514568 52:0.470181 53:0.501709 54:0.542041 55:0.471472 56:0.481866 57:0.5 58:0.500002 59:0.5 60:0.499998 
-0 0 0 102.3861007552187 1:0.598546 2:0.54157 3:0.382672 4:0.449453 5:0.598546 6:0.54157 7:0.382672 8:0.449453 9:0.59615 10:0.546049 11:0.378754 12:0.450533 13:0.607663 14:0.69398 15:0.186929 16:-0.337929 17:0.631612 18:0.57883 19:0.231617 20:-0.460843 21:0.5 22:0.500002 23:0.5 24:0.499998 25:0.675956 26:0.365954 27:-0.51827 28:0.37491 29:-0.511884 30:-0.251788 31:0.680805 32:-0.459437 33:0.5 34:0.500002 35:0.5 36:0.499998 37:0.505874 38:0.562128 39:0.484883 40:0.439308 41:0.447301 42:0.492641 43:0.555779 44:0.498333 45:0.5 46:0.500002 47:0.5 48:0.499998 49:0.553948 50:0.45322 51:0.489895 52:0.497732 53:0.527838 54:0.500427 55:0.445977 56:0.521598 57:0.5 58:0.500002 59:0.5 60:0.499998 
-0 127.6711174637993 0 0 1:0.587422 2:0.535772 3:0.389603 4:0.464859 5:0.587422 6:0.535772 7:0.389603 8:0.464859 9:0.587756 10:0.540357 11:0.384696 12:0.463214 13:0.61204 14:0.661951 15:0.22195 16:-0.371438 17:0.60238 18:0.561038 19:0.288531 20:-0.489004 21:0.5 22:0.500002 23:0.5 24:0.499998 25:0.674335 26:0.378567 27:-0.503709 28:0.385015 29:-0.534734 30:-0.264223 31:0.64598 32:-0.476398 33:0.5 34:0.500002 35:0.5 36:0.499998 37:0.48413 38:0.543142 39:0.504951 40:0.464369 41:0.501694 42:0.52937 43:0.51746 44:0.447556 45:0.5 46:0.500002 47:0.5 48:0.499998 49:0.552154 50:0.450168 51:0.493339 52:0.49909 53:0.528621 54:0.499517 55:0.447606 56:0.520281 57:0.5 58:0.500002 59:0.5 60:0.499998 
-87.14903776599682 88.24017405708688 0 267.8818743467967 1:0.528457 2:0.53857 3:0.421368 4:0.503115 5:0.528457 6:0.53857 7:0.421368 8:0.503115 9:0.545605 10:0.541311 11:0.415485 12:0.486487 13:-0.476397 14:-0.552102 15:-0.434058 16:0.528983 17:-0.340258 18:-0.387266 19:-0.547343 20:0.659291 21:0.5 22:0.500002 23:0.5 24:0.499998 25:0.718148 26:0.617542 27:-0.214361 28:0.23865 29:0.712871 30:0.528252 31:-0.299578 32:0.350739 33:0.5 34:0.500002 35:0.5 36:0.499998 37:0.492258 38:0.580414 39:0.4882 40:0.427157 41:0.476902 42:0.537243 43:0.534591 44:0.445137 45:0.5 46:0.500002 47:0.5 48:0.499998 49:0.552271 50:0.491786 51:0.486336 52:0.465425 53:0.51577 54:0.528875 55:0.452864 56:0.499187 57:0.5 58:0.500002 59:0.5 60:0.499998 
-0 0 73.63388864893504 0 1:0.528972 2:0.537707 3:0.423045 4:0.502089 5:0.528972 6:0.537707 7:0.423045 8:0.502089 9:0.546673 10:0.539945 11:0.417652 12:0.484948 13:-0.454736 14:-0.565035 15:-0.42584 16:0.540935 17:-0.323824 18:-0.399204 19:-0.532224 20:0.67269 21:0.5 22:0.500002 23:0.5 24:0.499998 25:0.719641 26:0.614482 27:-0.21532 28:0.241176 29:0.709841 30:0.539517 31:-0.29814 32:0.340821 33:0.5 34:0.500002 35:0.5 36:0.499998 37:0.496838 38:0.58402 39:0.484376 40:0.421251 41:0.45139 42:0.524293 43:0.548693 44:0.46936 45:0.5 46:0.500002 47:0.5 48:0.499998 49:0.549745 50:0.495742 51:0.483549 52:0.46712 53:0.518245 54:0.526967 55:0.455438 56:0.49629 57:0.5 58:0.500002 59:0.5 60:0.499998 
-0 2048 0 0 1:0.533603 2:0.536363 3:0.422663 4:0.498937 5:0.533603 6:0.536363 7:0.422663 8:0.498937 9:0.548819 10:0.540292 11:0.415775 12:0.48375 13:-0.47418 14:-0.555956 15:-0.437679 16:0.523932 17:-0.330401 18:-0.384322 19:-0.554297 20:0.660217 21:0.5 22:0.500002 23:0.5 24:0.499998 25:0.730774 26:0.60274 27:-0.211459 28:0.240747 29:0.68975 30:0.536603 31:-0.334741 32:0.352492 33:0.5 34:0.500002 35:0.5 36:0.499998 37:0.496715 38:0.579991 39:0.487638 40:0.423194 41:0.46908 42:0.536961 43:0.534461 44:0.453859 45:0.5 46:0.500002 47:0.5 48:0.499998 49:0.545163 50:0.49409 51:0.483958 52:0.473768 53:0.525568 54:0.530702 55:0.45029 56:0.489257 57:0.5 58:0.500002 59:0.5 60:0.499998 
-37.41736698511146 0 0 0 1:0.512125 2:0.487634 3:0.506241 4:0.493621 5:0.512125 6:0.487634 7:0.506241 8:0.493621 9:0.508437 10:0.490579 11:0.50338 12:0.497426 13:0.523037 14:0.805297 15:0.232019 16:-0.15523 17:-0.26674 18:-0.53586 19:-0.506212 20:0.620849 21:0.5 22:0.500002 23:0.5 24:0.499998 25:0.67453 26:0.644704 27:-0.0663356 28:0.353504 29:0.499065 30:0.302553 31:-0.458612 32:0.670127 33:0.5 34:0.500002 35:0.5 36:0.499998 37:0.271518 38:0.593284 39:0.671288 40:0.351659 41:0.289209 42:0.636815 43:0.629563 44:0.338343 45:0.5 46:0.500002 47:0.5 48:0.499998 49:0.700949 50:-0.421099 51:-0.263047 52:0.512007 53:0.47417 54:-0.300637 55:-0.395141 56:0.727079 57:0.5 58:0.500002 59:0.5 60:0.499998 
-79.33441238786989 -0 0 0 1:0.638936 2:0.310807 3:0.68923 4:0.141849 5:0.638936 6:0.310807 7:0.68923 8:0.141849 9:0.446332 10:0.532285 11:0.574122 12:0.43341 13:2.08064e-05 14:0.707079 15:7.23321e-05 16:0.707134 17:-0.00369891 18:0.710961 19:0.00766409 20:0.70318 21:0.5 22:0.500002 23:0.5 24:0.499998 25:0.734249 26:0.404683 27:0.0425082 28:0.543417 29:0.283664 30:-0.378408 31:-0.678575 32:0.56203 33:0.5 34:0.500002 35:0.5 36:0.499998 37:-0.35604 38:0.652231 39:0.611277 40:-0.272343 41:-0.294526 42:0.527861 43:0.720399 44:-0.340062 45:0.5 46:0.500002 47:0.5 48:0.499998 49:0.699993 50:-0.275208 51:-0.252408 52:0.608736 53:0.589753 54:-0.200744 55:-0.328356 56:0.709983 57:0.5 58:0.500002 59:0.5 60:0.499998 
-0 -0 12.84025806272252 0 1:0.505437 2:0.444024 3:0.676637 4:0.29923 5:0.505437 6:0.444024 7:0.676637 8:0.29923 9:0.483267 10:0.468423 11:0.661056 12:0.33172 13:-2.62447e-06 14:0.707108 15:8.54304e-07 16:0.707106 17:-0.000555474 18:0.707691 19:0.0011523 20:0.706521 21:0.5 22:0.500002 23:0.5 24:0.499998 25:0.639524 26:0.423505 27:-0.196548 28:0.610755 29:0.108515 30:-0.358547 31:-0.660187 32:0.651016 33:0.5 34:0.500002 35:0.5 36:0.499998 37:-0.293058 38:0.726841 39:0.582993 40:-0.214332 41:-0.227596 42:0.551177 43:0.751254 44:-0.282881 45:0.5 46:0.500002 47:0.5 48:0.499998 49:0.664535 50:-0.285249 51:-0.20512 52:0.659509 53:0.594239 54:-0.194058 55:-0.317945 56:0.712834 57:0.5 58:0.500002 59:0.5 60:0.499998 
-70.27482987479617 -0 0 521.8760168123006 1:0.534157 2:0.45757 3:0.327165 4:0.631086 5:0.534157 6:0.45757 7:0.327165 8:0.631086 9:0.537403 10:0.447838 11:0.338943 12:0.629092 13:0.304485 14:0.544052 15:0.781828 16:0.00647529 17:-0.385148 18:0.364619 19:0.745404 20:-0.403841 21:0.5 22:0.500002 23:0.5 24:0.499998 25:0.390795 26:-0.26542 27:0.586156 28:0.658219 29:0.571597 30:-0.479472 31:0.411797 32:0.523265 33:0.5 34:0.500002 35:0.5 36:0.499998 37:-0.0493237 38:0.68017 39:0.730841 40:0.0284322 41:0.0419883 42:0.617062 43:0.780157 44:-0.0939486 45:0.5 46:0.500002 47:0.5 48:0.499998 49:0.56553 50:-0.531414 51:-0.516088 52:0.362531 53:0.426769 54:-0.50713 55:-0.524051 56:0.534843 57:0.5 58:0.500002 59:0.5 60:0.499998 
-157.0474226843638 -0 0 0 1:0.536532 2:0.44318 3:0.301204 4:0.651921 5:0.536532 6:0.44318 7:0.301204 8:0.651921 9:0.541845 10:0.432508 11:0.314322 12:0.648493 13:0.327515 14:0.543864 15:0.76436 16:-0.112691 17:-0.404599 18:0.243353 19:0.726507 20:-0.499266 21:0.5 22:0.500002 23:0.5 24:0.499998 25:0.394631 26:-0.253704 27:0.622092 28:0.626818 29:0.569219 30:-0.436822 31:0.467677 32:0.516192 33:0.5 34:0.500002 35:0.5 36:0.499998 37:-0.0158526 38:0.679944 39:0.732127 40:0.0376251 41:0.0667141 42:0.617544 43:0.780476 44:-0.0710317 45:0.5 46:0.500002 47:0.5 48:0.499998 49:0.547299 50:-0.546514 51:-0.52772 52:0.351138 53:0.408868 54:-0.527284 55:-0.53242 56:0.52089 57:0.5 58:0.500002 59:0.5 60:0.499998 
-0 -0 71.59337996004491 0 1:0.428258 2:0.53907 3:0.287216 4:0.665962 5:0.428258 6:0.53907 7:0.287216 8:0.665962 9:0.53124 10:0.428234 11:0.43235 12:0.589468 13:0.451456 14:0.556645 15:0.685845 16:-0.126295 17:0.398748 18:-0.145885 19:-0.717772 20:0.551835 21:0.5 22:0.500002 23:0.5 24:0.499998 25:0.451545 26:-0.27659 27:0.590198 28:0.609321 29:0.599957 30:-0.437542 31:0.438495 32:0.506291 33:0.5 34:0.500002 35:0.5 36:0.499998 37:-0.080089 38:0.70201 39:0.707153 40:-0.0265101 41:-0.00158306 42:0.604168 43:0.785583 44:-0.13356 45:0.5 46:0.500002 47:0.5 48:0.499998 49:0.573583 50:-0.522619 51:-0.479362 52:0.409981 53:0.42977 54:-0.46795 55:-0.512453 56:0.577679 57:0.5 58:0.500002 59:0.5 60:0.499998 
-0 -0 5.224350402126851 0 1:0.488758 2:0.454573 3:0.328816 4:0.668101 5:0.488758 6:0.454573 7:0.328816 8:0.668101 9:0.539436 10:0.420285 11:0.372121 12:0.627611 13:0.404946 14:0.544821 15:0.720635 16:-0.140973 17:0.436682 18:-0.138726 19:-0.701858 20:0.545398 21:0.5 22:0.500002 23:0.5 24:0.499998 25:0.43811 26:-0.253033 27:0.612244 28:0.607611 29:0.615951 30:-0.439758 31:0.432883 32:0.489724 33:0.5 34:0.500002 35:0.5 36:0.499998 37:-0.0302199 38:0.708159 39:0.705385 40:0.00537617 41:0.0406012 42:0.614041 43:0.78324 44:-0.0885501 45:0.5 46:0.500002 47:0.5 48:0.499998 49:-0.53707 50:0.54055 51:0.513827 52:-0.394137 53:0.407226 54:-0.501376 55:-0.534269 56:0.545294 57:0.5 58:0.500002 59:0.5 60:0.499998 
-0 -0 12.25311474939406 0 1:0.36079 2:0.482513 3:0.510929 4:0.613158 5:0.36079 6:0.482513 7:0.510929 8:0.613158 9:0.395328 10:0.49448 11:0.50457 12:0.587039 13:0.387082 14:0.608555 15:0.57895 16:-0.380322 17:0.233969 18:-0.0575433 19:-0.655953 20:0.715313 21:0.5 22:0.500002 23:0.5 24:0.499998 25:0.524007 26:-0.0653489 27:0.75406 28:0.390563 29:0.767216 30:-0.206153 31:0.504549 32:0.338099 33:0.5 34:0.500002 35:0.5 36:0.499998 37:-0.148614 38:0.664812 39:0.718603 40:-0.139816 41:-0.0981467 42:0.580099 43:0.783489 44:-0.199996 45:0.5 46:0.500002 47:0.5 48:0.499998 49:0.741974 50:-0.205255 51:-0.208274 52:0.603296 53:0.630586 54:-0.146736 55:-0.262425 56:0.715516 57:0.5 58:0.500002 59:0.5 60:0.499998 
-704.5142822962677 -0 0 0 1:0.428274 2:0.35598 3:0.564685 4:0.60909 5:0.428274 6:0.35598 7:0.564685 8:0.60909 9:0.441938 10:0.375846 11:0.5486 12:0.602053 13:0.0422585 14:0.794734 15:0.124154 16:0.592619 17:0.124297 18:0.42861 19:-0.292663 20:0.84569 21:0.5 22:0.500002 23:0.5 24:0.499998 25:0.377728 26:0.0693203 27:0.922393 28:0.0413189 29:0.803391 30:0.0375918 31:0.589958 32:0.0714101 33:0.5 34:0.500002 35:0.5 36:0.499998 37:-0.0755583 38:0.686355 39:0.704251 40:-0.165037 41:-0.0963335 42:0.607319 43:0.779004 44:-0.122622 45:0.5 46:0.500002 47:0.5 48:0.499998 49:0.720389 50:-0.21841 51:-0.239799 52:0.613052 53:0.624665 54:-0.187846 55:-0.261799 56:0.711315 57:0.5 58:0.500002 59:0.5 60:0.499998 
-483.606085865759 -0 0 0 1:0.32418 2:0.48159 3:0.637326 4:0.506749 5:0.32418 6:0.48159 7:0.637326 8:0.506749 9:0.333717 10:0.490773 11:0.631042 12:0.499561 13:-2.35513e-06 14:0.707108 15:2.47779e-07 16:0.707105 17:5.62485e-05 18:0.707019 19:-0.000118439 20:0.707194 21:0.5 22:0.500002 23:0.5 24:0.499998 25:0.707107 26:1.04748e-06 27:0.707107 28:-1.55324e-06 29:0.707551 30:2.93875e-05 31:0.706662 32:9.23871e-05 33:0.5 34:0.500002 35:0.5 36:0.499998 37:-0.247479 38:0.649231 39:0.669039 40:-0.263893 41:-0.242357 42:0.561694 43:0.7487 44:-0.255365 45:0.5 46:0.500002 47:0.5 48:0.499998 49:0.733928 50:-0.0455168 51:-0.138971 52:0.663299 53:0.680445 54:-0.0497385 55:-0.126304 56:0.720117 57:0.5 58:0.500002 59:0.5 60:0.499998 
-505.5481689002947 -0 0 0 1:0.437355 2:0.383567 3:0.224516 4:0.781786 5:0.437355 6:0.383567 7:0.224516 8:0.781786 9:0.447243 10:0.380581 11:0.229911 12:0.776062 13:-2.35235e-06 14:0.707108 15:2.45001e-07 16:0.707105 17:5.08114e-06 18:0.707108 19:7.6471e-06 20:0.707105 21:0.5 22:0.500002 23:0.5 24:0.499998 25:0.707108 26:1.04579e-06 27:0.707105 28:-1.55155e-06 29:0.707108 30:8.6053e-06 31:0.707105 32:6.01953e-06 33:0.5 34:0.500002 35:0.5 36:0.499998 37:0.0119455 38:0.540563 39:0.840045 40:0.0444177 41:0.0853133 42:0.606115 43:0.789351 44:-0.047667 45:0.5 46:0.500002 47:0.5 48:0.499998 49:0.808556 50:-0.288201 51:-0.1992 52:0.472754 53:0.611239 54:-0.207904 55:-0.281986 56:0.70968 57:0.5 58:0.500002 59:0.5 60:0.499998 
-2048 -544.5985558039476 0 0 1:0.451843 2:0.418538 3:0.260038 4:0.743669 5:0.451843 6:0.418538 7:0.260038 8:0.743669 9:0.462457 10:0.412652 11:0.269642 12:0.736984 13:-2.35235e-06 14:0.707108 15:2.45001e-07 16:0.707105 17:5.06737e-06 18:0.707108 19:7.66088e-06 20:0.707105 21:0.5 22:0.500002 23:0.5 24:0.499998 25:0.707108 26:1.04579e-06 27:0.707105 28:-1.55155e-06 29:0.707108 30:8.61039e-06 31:0.707105 32:6.01443e-06 33:0.5 34:0.500002 35:0.5 36:0.499998 37:-0.0165747 38:0.572353 39:0.819276 40:0.0303965 41:0.0662151 42:0.606146 43:0.789039 44:-0.0749658 45:0.5 46:0.500002 47:0.5 48:0.499998 49:0.801936 50:-0.295624 51:-0.207815 52:0.475729 53:0.588763 54:-0.205855 55:-0.296992 56:0.723033 57:0.5 58:0.500002 59:0.5 60:0.499998 
-648.8310041348532 -0 0 0 1:0.398824 2:0.467977 3:0.492845 4:0.615664 5:0.398824 6:0.467977 7:0.492845 8:0.615664 9:0.426346 10:0.481416 11:0.481989 12:0.595109 13:-2.35235e-06 14:0.707108 15:2.45001e-07 16:0.707105 17:5.06561e-06 18:0.707108 19:7.66263e-06 20:0.707105 21:0.5 22:0.500002 23:0.5 24:0.499998 25:0.50386 26:-0.107895 27:0.78518 28:0.343477 29:0.751555 30:-0.223706 31:0.552763 32:0.282088 33:0.5 34:0.500002 35:0.5 36:0.499998 37:-0.17381 38:0.644355 39:0.733834 40:-0.126826 41:-0.117711 42:0.605791 43:0.761506 44:-0.198166 45:0.5 46:0.500002 47:0.5 48:0.499998 49:0.738583 50:-0.28439 51:-0.277977 52:0.544378 53:0.577905 54:-0.226825 55:-0.3163 56:0.717308 57:0.5 58:0.500002 59:0.5 60:0.499998 
-0 -0 0 1522.825320527142 1:0.441379 2:0.309502 3:0.669576 4:0.510941 5:0.441379 6:0.309502 7:0.669576 8:0.510941 9:0.456194 10:0.332401 11:0.657361 12:0.499272 13:-0.274815 14:0.43697 15:0.399755 16:0.757449 17:-0.467853 18:0.822484 19:0.128223 20:0.296971 21:0.5 22:0.500002 23:0.5 24:0.499998 25:0.754128 26:0.116215 27:-0.222995 28:0.606678 29:0.373017 30:-0.348693 31:-0.69231 32:0.50988 33:0.5 34:0.500002 35:0.5 36:0.499998 37:0.486334 38:0.689156 39:0.413297 40:0.343116 41:0.456529 42:0.592908 43:0.537632 44:0.388578 45:0.5 46:0.500002 47:0.5 48:0.499998 49:0.53148 50:0.654326 51:0.370602 52:0.389924 53:0.501866 54:0.563781 55:0.490602 56:0.435421 57:0.5 58:0.500002 59:0.5 60:0.499998 
-0 -0 0 971.8111972120049 1:0.417175 2:0.30124 3:0.682028 4:0.519671 5:0.417175 6:0.30124 7:0.682028 8:0.519671 9:0.434056 10:0.326445 11:0.669193 12:0.507157 13:-0.409347 14:0.571046 15:0.377649 16:0.603094 17:-0.509965 18:0.73623 19:0.223874 20:0.384423 21:0.5 22:0.500002 23:0.5 24:0.499998 25:0.758842 26:0.114928 27:-0.198883 28:0.609423 29:0.391051 30:-0.35335 31:-0.680054 32:0.509656 33:0.5 34:0.500002 35:0.5 36:0.499998 37:0.488935 38:0.689108 39:0.410179 40:0.343258 41:0.45929 42:0.586429 43:0.542075 44:0.388983 45:0.5 46:0.500002 47:0.5 48:0.499998 49:0.54476 50:0.656244 51:0.359894 52:0.378228 53:0.503015 54:0.561566 55:0.488914 56:0.438842 57:0.5 58:0.500002 59:0.5 60:0.499998 
-0 -0 60.52458903318668 0 1:0.423584 2:0.383369 3:0.759746 4:0.310469 5:0.423584 6:0.383369 7:0.759746 8:0.310469 9:0.42693 10:0.406381 11:0.746757 12:0.308123 13:-0.527762 14:0.532984 15:0.500645 16:0.432144 17:0.617346 18:-0.566715 19:-0.40472 20:-0.365951 21:0.5 22:0.500002 23:0.5 24:0.499998 25:0.704793 26:0.320206 27:-0.0937782 28:0.626051 29:0.432271 30:-0.216006 31:-0.564508 32:0.669189 33:0.5 34:0.500002 35:0.5 36:0.499998 37:0.207159 38:0.8192 39:0.524865 40:0.102537 41:0.181202 42:0.677619 43:0.698022 44:0.144098 45:0.5 46:0.500002 47:0.5 48:0.499998 49:0.345098 50:0.780678 51:0.444077 52:0.272478 53:0.366812 54:0.661729 55:0.598534 56:0.26329 57:0.5 58:0.500002 59:0.5 60:0.499998 
-0 -2032.389516663167 51.25631234985424 0 1:0.413874 2:0.37966 3:0.767532 4:0.308968 5:0.413874 6:0.37966 7:0.767532 8:0.308968 9:0.414227 10:0.405992 11:0.752123 12:0.312885 13:0.553947 14:-0.540959 15:-0.47465 16:-0.418585 17:0.600759 18:-0.554937 19:-0.423904 20:-0.389152 21:0.5 22:0.500002 23:0.5 24:0.499998 25:0.691309 26:0.322684 27:-0.126334 28:0.634041 29:0.421655 30:-0.193717 31:-0.562205 32:0.684548 33:0.5 34:0.500002 35:0.5 36:0.499998 37:0.193504 38:0.810971 39:0.539493 40:0.117596 41:0.183296 42:0.684557 43:0.692193 44:0.136579 45:0.5 46:0.500002 47:0.5 48:0.499998 49:0.352982 50:0.78299 51:0.435666 52:0.269305 53:0.3696 54:0.663671 55:0.593053 56:0.266879 57:0.5 58:0.500002 59:0.5 60:0.499998 
-0 -0 0 310.1830430494973 1:0.358505 2:0.313267 3:0.548849 4:0.687097 5:0.358505 6:0.313267 7:0.548849 8:0.687097 9:0.379951 10:0.331801 11:0.536761 12:0.676339 13:-0.421915 14:0.796923 15:0.0880211 16:0.423265 17:-0.37578 18:0.71211 19:0.184671 20:0.563547 21:0.5 22:0.500002 23:0.5 24:0.499998 25:0.730013 26:-0.276745 27:-0.29306 28:0.551914 29:-0.194673 30:0.608818 31:0.762172 32:-0.10265 33:0.5 34:0.500002 35:0.5 36:0.499998 37:0.613039 38:0.638873 39:0.358084 40:0.296312 41:0.507816 42:0.53341 43:0.503239 44:0.452048 45:0.5 46:0.500002 47:0.5 48:0.499998 49:0.64412 50:0.606323 51:0.327856 52:0.331651 53:0.52469 54:0.489491 55:0.4853 56:0.499583 57:0.5 58:0.500002 59:0.5 60:0.499998 
-0 -0 0 619.6917185598305 1:0.533163 2:0.198575 3:0.442013 4:0.693491 5:0.533163 6:0.198575 7:0.442013 8:0.693491 9:0.542817 10:0.208924 11:0.434413 12:0.68774 13:-0.0186033 14:0.717109 15:0.00664209 16:0.696681 17:-0.0935442 18:0.720039 19:0.0474975 20:0.685957 21:0.5 22:0.500002 23:0.5 24:0.499998 25:0.741987 26:-0.0190382 27:0.669179 28:0.0359466 29:0.533093 30:0.177886 31:0.82714 32:-0.00283729 33:0.5 34:0.500002 35:0.5 36:0.499998 37:0.595309 38:0.577861 39:0.3036 40:0.46852 41:0.578362 42:0.490348 43:0.414495 44:0.50324 45:0.5 46:0.500002 47:0.5 48:0.499998 49:0.562404 50:0.466608 51:0.334602 52:0.594996 53:0.625665 54:0.451315 55:0.336414 56:0.540077 57:0.5 58:0.500002 59:0.5 60:0.499998 
-0 -0 0 2048 1:0.493483 2:0.250842 3:0.479837 4:0.680668 5:0.493483 6:0.250842 7:0.479837 8:0.680668 9:0.504817 10:0.259304 11:0.475037 12:0.672504 13:-0.0148835 14:0.715143 15:0.00531397 16:0.6988 17:-0.0842196 18:0.719121 19:0.0427648 20:0.688436 21:0.5 22:0.500002 23:0.5 24:0.499998 25:0.735262 26:-0.0152342 27:0.677001 28:0.0287645 29:0.552573 30:0.160489 31:0.817863 32:-0.00255996 33:0.5 34:0.500002 35:0.5 36:0.499998 37:0.58293 38:0.581936 39:0.355728 40:0.441589 41:0.561423 42:0.515316 43:0.43749 44:0.477343 45:0.5 46:0.500002 47:0.5 48:0.499998 49:0.550736 50:0.483924 51:0.392759 52:0.5552 53:0.604964 54:0.496971 55:0.367712 56:0.501823 57:0.5 58:0.500002 59:0.5 60:0.499998 
-0 -0 0 2048 1:0.475051 2:0.270629 3:0.488114 4:0.680317 5:0.475051 6:0.270629 7:0.488114 8:0.680317 9:0.490359 10:0.279881 11:0.483922 12:0.668606 13:-0.0119073 14:0.713558 15:0.00425141 16:0.700482 17:-0.0758193 18:0.718223 19:0.0385009 20:0.690598 21:0.5 22:0.500002 23:0.5 24:0.499998 25:0.729791 26:-0.0121891 27:0.683174 28:0.0230151 29:0.569743 30:0.144726 31:0.808976 32:-0.00230871 33:0.5 34:0.500002 35:0.5 36:0.499998 37:0.562665 38:0.58942 39:0.369367 40:0.446722 41:0.55715 42:0.525666 43:0.443942 44:0.464946 45:0.5 46:0.500002 47:0.5 48:0.499998 49:0.551608 50:0.507529 51:0.389 52:0.535558 53:0.597224 54:0.498426 55:0.388309 56:0.494075 57:0.5 58:0.500002 59:0.5 60:0.499998 
-0 -0 0 2048 1:0.470772 2:0.281308 3:0.499664 4:0.670504 5:0.470772 6:0.281308 7:0.499664 8:0.670504 9:0.487368 10:0.290399 11:0.496329 12:0.657114 13:-0.00952643 14:0.712282 15:0.00340137 16:0.701821 17:-0.0682529 18:0.717357 19:0.0346602 20:0.692488 21:0.5 22:0.500002 23:0.5 24:0.499998 25:0.725356 26:-0.00975203 27:0.688058 28:0.0184138 29:0.584892 30:0.130463 31:0.800547 32:-0.00208126 33:0.5 34:0.500002 35:0.5 36:0.499998 37:0.550687 38:0.589093 39:0.392263 40:0.442542 41:0.56002 42:0.542476 43:0.44184 44:0.443707 45:0.5 46:0.500002 47:0.5 48:0.499998 49:0.550189 50:0.51318 51:0.404522 52:0.519904 53:0.587467 54:0.512819 55:0.396714 56:0.48427 57:0.5 58:0.500002 59:0.5 60:0.499998 
-0 -0 0 2048 1:0.464584 2:0.248654 3:0.509835 4:0.680001 5:0.464584 6:0.248654 7:0.509835 8:0.680001 9:0.479728 10:0.263363 11:0.500151 12:0.671082 13:-0.00487831 14:0.709771 15:0.00174219 16:0.704414 17:-0.0497781 18:0.715015 19:0.0252822 20:0.696876 21:0.5 22:0.500002 23:0.5 24:0.499998 25:0.716552 26:-0.00499294 27:0.697452 28:0.00942876 29:0.620591 30:0.0954122 31:0.778306 32:-0.00152215 33:0.5 34:0.500002 35:0.5 36:0.499998 37:0.560428 38:0.581086 39:0.384172 40:0.447963 41:0.568809 42:0.530222 43:0.438378 44:0.450718 45:0.5 46:0.500002 47:0.5 48:0.499998 49:0.563617 50:0.494635 51:0.40604 52:0.522307 53:0.601697 54:0.52599 55:0.365244 56:0.47738 57:0.5 58:0.500002 59:0.5 60:0.499998 
-0 -0 0 720.7162219626188 1:0.538478 2:0.129639 3:0.454849 4:0.697386 5:0.538478 6:0.129639 7:0.454849 8:0.697386 9:0.552783 10:0.142808 11:0.447668 12:0.688208 13:-0.00249837 14:0.708475 15:0.000892619 16:0.705731 17:-0.0362961 18:0.713103 19:0.0184375 20:0.699876 21:0.5 22:0.500002 23:0.5 24:0.499998 25:0.71197 26:-0.00255564 27:0.702189 28:0.00482741 29:0.645449 30:0.069674 31:0.760618 32:-0.00111181 33:0.5 34:0.500002 35:0.5 36:0.499998 37:0.619615 38:0.538579 39:0.323883 40:0.470223 41:0.601073 42:0.497692 43:0.374816 44:0.500527 45:0.5 46:0.500002 47:0.5 48:0.499998 49:0.594951 50:0.432269 51:0.34301 52:0.584398 53:0.62845 54:0.469173 55:0.298923 56:0.543666 57:0.5 58:0.500002 59:0.5 60:0.499998 
-0 -0 0 1916.400739643536 1:0.594225 2:0.287556 3:0.382983 4:0.646167 5:0.594225 6:0.287556 7:0.382983 8:0.646167 9:0.606583 10:0.297433 11:0.37477 12:0.634931 13:-2.60523e-06 14:0.707108 15:-7.87969e-09 16:0.707105 17:4.25764e-06 18:0.707108 19:8.47061e-06 20:0.707105 21:0.5 22:0.500002 23:0.5 24:0.499998 25:0.707108 26:1.04579e-06 27:0.707105 28:-1.55155e-06 29:0.707106 30:1.00158e-05 31:0.707107 32:5.32548e-06 33:0.5 34:0.500002 35:0.5 36:0.499998 37:0.455995 38:0.677852 39:0.480331 40:0.319169 41:0.446674 42:0.587247 43:0.582473 44:0.341098 45:0.5 46:0.500002 47:0.5 48:0.499998 49:0.528778 50:0.533713 51:0.427047 52:0.503165 53:0.548945 54:0.522703 55:0.435503 56:0.48557 57:0.5 58:0.500002 59:0.5 60:0.499998 
-0 -0 49.55613316955152 0 1:0.24809 2:0.694176 3:0.479638 4:0.475939 5:0.213796 6:0.756659 7:0.384873 8:-0.483354 9:0.138532 10:-0.156492 11:-0.417905 12:0.884124 13:0.5 14:0.500002 15:0.5 16:0.499998 17:0.707108 18:1.04579e-06 19:0.707105 20:-1.55155e-06 21:0.707108 22:8.6111e-06 23:0.707105 24:6.01372e-06 25:0.5 26:0.500002 27:0.5 28:0.499998 29:0.0890653 30:0.585936 31:0.800967 32:0.0848419 33:0.200033 34:0.676307 35:0.708236 36:-0.0315718 37:0.5 38:0.500002 39:0.5 40:0.499998 41:0.788583 42:0.300737 43:0.155612 44:0.513302 45:0.653484 46:0.26098 47:0.216121 48:0.67686 49:0.5 50:0.500002 51:0.5 52:0.499998 53:0.183734 54:0.718043 55:0.496441 56:0.451887 57:0.183734 58:0.718043 59:0.496441 60:0.451887 
-0 -0 0 214.0840543013115 1:0.0548029 2:0.65768 3:0.572658 4:0.48633 5:8.03084e-05 6:0.707288 7:0.000137957 8:0.706926 9:0.00223989 10:0.695712 11:-0.0115731 12:0.718224 13:0.5 14:0.500002 15:0.5 16:0.499998 17:0.707108 18:1.04579e-06 19:0.707105 20:-1.55155e-06 21:0.707108 22:8.6111e-06 23:0.707105 24:6.01372e-06 25:0.5 26:0.500002 27:0.5 28:0.499998 29:-0.0251346 30:0.56669 31:0.815199 32:-0.116964 33:-0.0204411 34:0.686926 35:0.71374 36:-0.135237 37:0.5 38:0.500002 39:0.5 40:0.499998 41:0.714716 42:0.480487 43:0.257704 44:0.438066 45:0.620465 46:0.408441 47:0.3584 48:0.565463 49:0.5 50:0.500002 51:0.5 52:0.499998 53:0.0640271 54:0.641886 55:0.571765 56:0.50692 57:0.0640271 58:0.641886 59:0.571765 60:0.50692 
-0 -733.0803299275125 0 0 1:0.285448 2:0.683122 3:0.486578 4:0.463795 5:-2.26696e-06 6:0.707109 7:4.9678e-07 8:0.707105 9:0.000142831 10:0.70638 11:-0.000747285 12:0.707832 13:0.5 14:0.500002 15:0.5 16:0.499998 17:0.707108 18:1.04579e-06 19:0.707105 20:-1.55155e-06 21:0.707108 22:8.6111e-06 23:0.707105 24:6.01372e-06 25:0.5 26:0.500002 27:0.5 28:0.499998 29:0.0987979 30:0.602244 31:0.790265 32:0.054972 33:0.126086 34:0.674137 35:0.727467 36:0.0208426 37:0.5 38:0.500002 39:0.5 40:0.499998 41:0.782515 42:0.33091 43:0.177775 44:0.496553 45:0.635427 46:0.264015 47:0.267638 48:0.674462 49:0.5 50:0.500002 51:0.5 52:0.499998 53:0.253288 54:0.691616 55:0.497133 56:0.458663 57:0.253288 58:0.691616 59:0.497133 60:0.458663 
-0 -0 82.60287671135237 0 1:0.356681 2:0.543231 3:0.466387 4:0.600135 5:-2.35245e-06 6:0.707108 7:2.45104e-07 8:0.707105 9:1.06893e-05 10:0.707077 11:-2.45557e-05 12:0.707136 13:0.5 14:0.500002 15:0.5 16:0.499998 17:0.707108 18:1.04579e-06 19:0.707105 20:-1.55155e-06 21:0.707108 22:8.6111e-06 23:0.707105 24:6.01372e-06 25:0.5 26:0.500002 27:0.5 28:0.499998 29:0.219702 30:0.60185 31:0.759629 32:0.111672 33:0.260118 34:0.665425 35:0.697321 36:0.0573712 37:0.5 38:0.500002 39:0.5 40:0.499998 41:0.805621 42:0.207523 43:0.0993661 44:0.545927 45:0.672849 46:0.195736 47:0.126433 48:0.702123 49:0.5 50:0.500002 51:0.5 52:0.499998 53:0.287837 54:0.578839 55:0.505737 56:0.571249 57:0.287837 58:0.578839 59:0.505737 60:0.571249 
-0 -246.8919794238412 0 0 1:0.598562 2:0.255317 3:0.553123 4:0.520183 5:0.598562 6:0.255317 7:0.553123 8:0.520183 9:0.590103 10:0.399737 11:0.433217 12:0.551645 13:-0.36403 14:0.624299 15:0.493414 16:0.484021 17:-0.544239 18:0.773723 19:0.282451 20:0.159303 21:0.5 22:0.500002 23:0.5 24:0.499998 25:0.730833 26:0.350848 27:-0.325112 28:0.48692 29:0.225513 30:-0.14385 31:-0.767437 32:0.582659 33:0.5 34:0.500002 35:0.5 36:0.499998 37:0.184555 38:0.718155 39:0.623849 40:0.246995 41:0.0546402 42:0.0184701 43:0.988151 44:0.142238 45:0.5 46:0.500002 47:0.5 48:0.499998 49:0.732803 50:-0.290658 51:-0.157324 52:0.594783 53:0.725088 54:-0.17607 55:-0.267687 56:0.609582 57:0.5 58:0.500002 59:0.5 60:0.499998 
-0 -356.6026054213942 0 0 1:0.607012 2:0.31299 3:0.512028 4:0.520961 5:0.607012 6:0.31299 7:0.512028 8:0.520961 9:0.597483 10:0.423415 11:0.417855 12:0.537709 13:-0.359531 14:0.63629 15:0.482303 16:0.482966 17:-0.547313 18:0.79021 19:0.249654 20:0.117 21:0.5 22:0.500002 23:0.5 24:0.499998 25:0.727274 26:0.342314 27:-0.321177 28:0.500738 29:0.206164 30:-0.175176 31:-0.76784 32:0.580716 33:0.5 34:0.500002 35:0.5 36:0.499998 37:-0.101826 38:0.736104 39:0.669128 40:-0.0070719 41:0.0338652 42:0.731397 43:0.667744 44:-0.134273 45:0.5 46:0.500002 47:0.5 48:0.499998 49:0.766693 50:-0.0609274 51:-0.0653352 52:0.635768 53:0.714956 54:-0.121838 55:-0.15609 56:0.670544 57:0.5 58:0.500002 59:0.5 60:0.499998 
-104.0196003231291 -0 0 0 1:0.622858 2:0.295913 3:0.49726 4:0.526513 5:0.622858 6:0.295913 7:0.49726 8:0.526513 9:0.602818 10:0.418802 11:0.391035 12:0.555254 13:-0.364763 14:0.650748 15:0.488784 16:0.452289 17:-0.563232 18:0.790471 19:0.233947 20:0.0565161 21:0.5 22:0.500002 23:0.5 24:0.499998 25:0.731395 26:0.351769 27:-0.314392 28:0.492421 29:0.216211 30:-0.161111 31:-0.766181 32:0.58332 33:0.5 34:0.500002 35:0.5 36:0.499998 37:0.599512 38:-0.475366 39:-0.29592 40:0.571878 41:0.402739 42:-0.366102 43:-0.423687 44:0.724058 45:0.5 46:0.500002 47:0.5 48:0.499998 49:0.757329 50:0.0623866 51:0.058685 52:0.647392 53:0.723775 54:-0.0543024 55:-0.0861513 56:0.68248 57:0.5 58:0.500002 59:0.5 60:0.499998 
-0 -321.0656374793712 0 0 1:0.632449 2:0.3134 3:0.47468 4:0.525802 5:0.632449 6:0.3134 7:0.47468 8:0.525802 9:0.601777 10:0.426016 11:0.375698 12:0.561449 13:-0.370191 14:0.650137 15:0.498242 16:0.438219 17:-0.576604 18:0.783392 19:0.229814 20:0.0317963 21:0.5 22:0.500002 23:0.5 24:0.499998 25:0.73036 26:0.346122 27:-0.322786 28:0.492527 29:0.208154 30:-0.165412 31:-0.770901 32:0.578811 33:0.5 34:0.500002 35:0.5 36:0.499998 37:0.77254 38:-0.261819 39:-0.0966317 40:0.570347 41:0.244587 42:-0.14347 43:-0.239381 44:0.928596 45:0.5 46:0.500002 47:0.5 48:0.499998 49:0.703087 50:0.235613 51:0.233122 52:0.629134 53:0.722623 54:0.0620391 55:0.0349991 56:0.687563 57:0.5 58:0.500002 59:0.5 60:0.499998 
-0 -1080.800640998393 0 0 1:0.592546 2:0.172876 3:0.603776 4:0.504438 5:0.592546 6:0.172876 7:0.603776 8:0.504438 9:0.596974 10:0.473467 11:0.361918 12:0.53709 13:-0.327099 14:0.626799 15:0.56415 16:0.426454 17:-0.52601 18:0.745255 19:0.385451 20:0.139053 21:0.5 22:0.500002 23:0.5 24:0.499998 25:0.777165 26:0.256984 27:-0.315578 28:0.479983 29:-0.208383 30:0.233107 31:0.812497 32:-0.492022 33:0.5 34:0.500002 35:0.5 36:0.499998 37:-0.0542945 38:0.814194 39:0.578046 40:0.00179826 41:-0.0508184 42:0.529623 43:0.846491 44:-0.0191994 45:0.5 46:0.500002 47:0.5 48:0.499998 49:0.511406 50:0.490139 51:0.490024 52:0.50804 53:0.579223 54:0.415063 55:0.408342 56:0.570509 57:0.5 58:0.500002 59:0.5 60:0.499998 
-0 -24.56465982090802 0 0 1:0.360671 2:0.471368 3:0.668389 4:0.448312 5:0.360671 6:0.471368 7:0.668389 8:0.448312 9:0.427583 10:0.635985 11:0.510882 12:0.389481 13:-0.200515 14:0.419492 15:0.816758 16:0.341653 17:0.73073 18:-0.403483 19:-0.546423 20:-0.0682348 21:0.5 22:0.500002 23:0.5 24:0.499998 25:0.772592 26:0.154085 27:-0.25454 28:0.560864 29:-0.249581 30:0.362363 31:0.774208 32:-0.454976 33:0.5 34:0.500002 35:0.5 36:0.499998 37:-0.248622 38:0.752259 39:0.6062 40:-0.0693904 41:-0.196562 42:0.62453 43:0.739202 44:-0.157817 45:0.5 46:0.500002 47:0.5 48:0.499998 49:0.712328 50:0.00871689 51:-0.00100779 52:0.701792 53:0.739416 54:0.0610762 55:-0.0494511 56:0.668646 57:0.5 58:0.500002 59:0.5 60:0.499998 
-169.4498032537016 -0 0 722.7444600708229 1:-0.0587217 2:0.674638 3:0.735061 4:0.0331913 5:-0.0587217 6:0.674638 7:0.735061 8:0.0331913 9:-0.0585043 10:0.668635 11:0.740587 12:0.032178 13:-0.00176095 14:0.70743 15:0.00716995 16:0.706745 17:-0.0937493 18:0.723418 19:0.0700546 20:0.680418 21:0.5 22:0.500002 23:0.5 24:0.499998 25:0.71195 26:0.00146228 27:0.702208 28:0.00531687 29:0.637763 30:0.0456545 31:0.766739 32:-0.0573173 33:0.5 34:0.500002 35:0.5 36:0.499998 37:0.567787 38:-0.436569 39:-0.502322 40:0.484456 41:0.541196 42:-0.479732 43:-0.46401 44:0.511525 45:0.5 46:0.500002 47:0.5 48:0.499998 49:0.580398 50:0.626066 51:0.32374 52:0.407887 53:0.50075 54:0.545759 55:0.444191 56:0.504075 57:0.5 58:0.500002 59:0.5 60:0.499998 
-0 -0 36.70049549625747 0 1:-0.244108 2:0.648561 3:0.720228 4:-0.0324374 5:-0.244108 6:0.648561 7:0.720228 8:-0.0324374 9:-0.236091 10:0.652431 11:0.718963 12:-0.0410577 13:0.184307 14:0.597435 15:-0.273536 16:0.730945 17:0.247677 18:0.674989 19:-0.130726 20:0.682611 21:0.5 22:0.500002 23:0.5 24:0.499998 25:0.708459 26:-0.0417484 27:0.661915 28:0.241271 29:0.774544 30:-0.170447 31:0.586672 32:0.163849 33:0.5 34:0.500002 35:0.5 36:0.499998 37:0.6286 38:-0.34448 39:-0.394424 40:0.575001 41:0.610276 42:-0.317002 43:-0.419019 44:0.592871 45:0.5 46:0.500002 47:0.5 48:0.499998 49:0.507002 50:0.757348 51:0.313656 52:0.266445 53:0.408474 54:0.634526 55:0.518973 56:0.401487 57:0.5 58:0.500002 59:0.5 60:0.499998 
-453.6548504495397 -0 0 0 1:-0.38475 2:0.638921 3:0.65483 4:-0.122254 5:-0.38475 6:0.638921 7:0.65483 8:-0.122254 9:-0.366256 10:0.643398 11:0.656792 12:-0.143247 13:0.294078 14:0.508118 15:-0.329293 16:0.739527 17:0.347047 18:0.575413 19:-0.272969 20:0.688438 21:0.5 22:0.500002 23:0.5 24:0.499998 25:0.731933 26:-0.344272 27:0.495877 28:0.316 29:0.709545 30:-0.440367 31:0.483362 32:0.262647 33:0.5 34:0.500002 35:0.5 36:0.499998 37:0.78958 38:-0.105558 39:-0.188748 40:0.574279 41:0.597552 42:-0.048583 43:-0.210732 44:0.772116 45:0.5 46:0.500002 47:0.5 48:0.499998 49:0.78958 50:-0.105558 51:-0.188748 52:0.574279 53:0.597552 54:-0.048583 55:-0.210732 56:0.772116 57:0.5 58:0.500002 59:0.5 60:0.499998 
-0 -0 0 628.790487993114 1:-0.45594 2:0.622272 3:0.613198 4:-0.16995 5:-0.45594 6:0.622272 7:0.613198 8:-0.16995 9:-0.43749 10:0.62143 11:0.62054 12:-0.193281 13:0.447425 14:0.315048 15:-0.374207 16:0.748682 17:0.45272 18:0.351473 19:-0.423316 20:0.701652 21:0.5 22:0.500002 23:0.5 24:0.499998 25:0.69362 26:-0.529413 27:0.415318 28:0.257146 29:0.625762 30:-0.57946 31:0.455183 32:0.255845 33:0.5 34:0.500002 35:0.5 36:0.499998 37:0.882967 38:0.0186407 39:-0.102418 40:0.457748 41:0.400812 42:0.0787395 43:-0.0680952 44:0.910227 45:0.5 46:0.500002 47:0.5 48:0.499998 49:0.882967 50:0.0186407 51:-0.102418 52:0.457748 53:0.400812 54:0.0787395 55:-0.0680952 56:0.910227 57:0.5 58:0.500002 59:0.5 60:0.499998 
-0 -134.2533529771688 42.57065907881122 0 1:-0.47788 2:0.614994 3:0.604133 4:-0.168628 5:-0.47788 6:0.614994 7:0.604133 8:-0.168628 9:-0.464244 10:0.611241 11:0.612863 12:-0.187779 13:0.514894 14:0.197606 15:-0.361908 16:0.751571 17:0.500989 18:0.224334 19:-0.451215 20:0.703626 21:0.5 22:0.500002 23:0.5 24:0.499998 25:-0.62706 26:0.670652 27:-0.356126 28:-0.17377 29:-0.510278 30:0.678876 31:-0.47072 32:-0.239095 33:0.5 34:0.500002 35:0.5 36:0.499998 37:0.739004 38:0.150599 39:0.0110306 40:0.65656 41:0.587309 42:0.151618 43:0.0328974 44:0.794354 45:0.5 46:0.500002 47:0.5 48:0.499998 49:0.361627 50:0.749984 51:0.508427 52:0.219663 53:0.369602 54:0.654995 55:0.618124 56:0.228688 57:0.5 58:0.500002 59:0.5 60:0.499998 
-0 -257.446485836642 0 0 1:-0.481967 2:0.613257 3:0.603394 4:-0.165949 5:-0.481967 6:0.613257 7:0.603394 8:-0.165949 9:-0.469911 10:0.608549 11:0.612468 12:-0.183669 13:0.587306 14:0.116447 15:-0.336334 16:0.726906 17:0.553594 18:0.147583 19:-0.458162 20:0.679588 21:0.5 22:0.500002 23:0.5 24:0.499998 25:-0.639151 26:0.645198 27:-0.369071 28:-0.197465 29:-0.522179 30:0.642135 31:-0.492737 32:-0.268705 33:0.5 34:0.500002 35:0.5 36:0.499998 37:0.715514 38:0.144756 39:0.025837 40:0.682948 41:0.615705 42:0.177162 43:-0.00180524 44:0.767801 45:0.5 46:0.500002 47:0.5 48:0.499998 49:0.395711 50:0.727008 51:0.526188 52:0.19493 53:0.394402 54:0.628741 55:0.633398 56:0.218948 57:0.5 58:0.500002 59:0.5 60:0.499998 
-0 -0 0 525.2779051856641 1:-0.538781 2:0.548168 3:0.540678 4:-0.341898 5:-0.538781 6:0.548168 7:0.540678 8:-0.341898 9:-0.532028 10:0.548753 11:0.541659 12:-0.349888 13:-0.422979 14:-0.0217882 15:0.888843 16:0.174848 17:-0.677433 18:0.0334275 19:0.714169 20:0.173 21:0.5 22:0.500002 23:0.5 24:0.499998 25:0.640923 26:0.175597 27:0.671036 28:-0.328776 29:0.578763 30:0.455747 31:0.510907 32:-0.443059 33:0.5 34:0.500002 35:0.5 36:0.499998 37:0.703616 38:0.236103 39:0.160973 40:0.65059 41:0.66404 42:0.325984 43:0.0742356 44:0.668785 45:0.5 46:0.500002 47:0.5 48:0.499998 49:0.48838 50:0.663304 51:0.489103 52:0.286863 53:0.404888 54:0.534012 55:0.627391 56:0.396583 57:0.5 58:0.500002 59:0.5 60:0.499998 
-0 -0 12.03395403183777 0 1:0.540707 2:-0.532831 3:-0.5297 4:0.378345 5:0.540707 6:-0.532831 7:-0.5297 8:0.378345 9:-0.532838 10:0.533298 11:0.530629 12:-0.387441 13:-0.342569 14:0.33975 15:0.71987 16:0.499003 17:-0.626057 18:0.221968 19:0.660009 20:0.350956 21:0.5 22:0.500002 23:0.5 24:0.499998 25:0.676237 26:0.114025 27:0.69579 28:-0.213491 29:0.627429 30:0.379687 31:0.570897 32:-0.369117 33:0.5 34:0.500002 35:0.5 36:0.499998 37:0.709604 38:0.22545 39:0.208877 40:0.634038 41:0.649238 42:0.372886 43:0.0692545 44:0.65928 45:0.5 46:0.500002 47:0.5 48:0.499998 49:0.453859 50:0.638807 51:0.542875 52:0.302035 53:0.405023 54:0.56741 55:0.617229 56:0.364734 57:0.5 58:0.500002 59:0.5 60:0.499998 
-0 -0 171.8380822741954 0 1:-0.515517 2:0.549316 3:0.537637 4:-0.378737 5:-0.515517 6:0.549316 7:0.537637 8:-0.378737 9:-0.510174 10:0.548524 11:0.539183 12:-0.384871 13:-0.103345 14:0.661912 15:0.217167 16:0.709952 17:-0.394029 18:0.537723 19:0.415397 20:0.618903 21:0.5 22:0.500002 23:0.5 24:0.499998 25:0.703065 26:0.0301721 27:0.708236 28:-0.0564905 29:0.691645 30:0.209596 31:0.660437 32:-0.203762 33:0.5 34:0.500002 35:0.5 36:0.499998 37:0.72178 38:0.216734 39:0.183222 40:0.631261 41:0.644318 42:0.320284 43:0.0788412 44:0.689968 45:0.5 46:0.500002 47:0.5 48:0.499998 49:0.439165 50:0.625375 51:0.540937 52:0.351324 53:0.444536 54:0.53887 55:0.626072 56:0.34647 57:0.5 58:0.500002 59:0.5 60:0.499998 
-0 -30.94987616387897 0 0 1:0.763965 2:-0.125487 3:-0.050253 4:0.63094 5:0.763965 6:-0.125487 7:-0.050253 8:0.63094 9:0.755135 10:-0.127184 11:-0.0499511 12:0.641171 13:-0.0036742 14:0.706228 15:0.00771927 16:0.707933 17:-0.0862134 18:0.6926 19:0.0908889 20:0.71036 21:0.5 22:0.500002 23:0.5 24:0.499998 25:0.707015 26:0.00106349 27:0.707195 28:-0.00199034 29:0.70904 30:0.0437715 31:0.702521 32:-0.0425518 33:0.5 34:0.500002 35:0.5 36:0.499998 37:0.415745 38:0.687403 39:0.506237 40:0.313619 41:0.406843 42:0.699256 43:0.494297 44:0.318103 45:0.5 46:0.500002 47:0.5 48:0.499998 49:-0.137269 50:0.698388 51:0.701481 52:-0.0365381 53:-0.0697197 54:0.641504 55:0.7537 56:-0.124693 57:0.5 58:0.500002 59:0.5 60:0.499998 
-31.76782842084439 -0 0 70.67466187486058 1:0.760392 2:-0.0184249 3:0.19864 4:0.618067 5:0.760392 6:-0.0184249 7:0.19864 8:0.618067 9:0.755293 10:-0.0186626 11:0.197341 12:0.624692 13:-0.000617498 14:0.706964 15:0.0012962 16:0.707248 17:-0.0371933 18:0.702233 19:0.0392103 20:0.709893 21:0.5 22:0.500002 23:0.5 24:0.499998 25:0.707093 26:0.000179285 27:0.707121 28:-0.000335226 29:0.708266 30:0.0188528 31:0.705456 32:-0.0183269 33:0.5 34:0.500002 35:0.5 36:0.499998 37:0.693269 38:0.299344 39:-0.0131093 40:0.655438 41:0.488548 42:0.291598 43:0.0689146 44:0.819477 45:0.5 46:0.500002 47:0.5 48:0.499998 49:0.543561 50:0.660509 51:0.339284 52:0.391351 53:-0.430643 54:-0.527625 55:0.513812 56:0.521685 57:0.5 58:0.500002 59:0.5 60:0.499998 
-3.010922658996157 -0 -0 32.51738304284283 1:0.5 2:0.500002 3:0.5 4:0.499998 5:-0.0743997 6:0.727779 7:0.681437 8:0.0211225 9:-0.0293486 10:0.627145 11:0.775191 12:-0.0700458 13:0.5 14:0.500002 15:0.5 16:0.499998 17:0.539838 18:-0.534128 19:-0.449333 20:0.470514 21:0.509421 22:-0.521624 23:-0.461257 24:0.505608 25:0.5 26:0.500002 27:0.5 28:0.499998 29:0.624249 30:0.398129 31:0.399759 32:0.540369 33:0.624249 34:0.398129 35:0.399759 36:0.540369 37:0.617997 38:0.399257 39:0.39911 40:0.54716 41:0.634179 42:0.525089 43:0.566937 44:-0.0261002 45:0.114145 46:0.382376 47:0.842954 48:-0.360816 49:0.5 50:0.500002 51:0.5 52:0.499998 53:0.725251 54:-0.295234 55:-0.123969 56:0.609492 57:-0.454096 58:0.628075 59:0.578925 60:-0.253307 
-0 -0.2627853378320189 -32.16397218158627 0 1:0.5 2:0.500002 3:0.5 4:0.499998 5:-0.0678025 6:0.721543 7:0.688717 8:0.0211499 9:-0.0175758 10:0.632832 11:0.770856 12:-0.0706841 13:0.5 14:0.500002 15:0.5 16:0.499998 17:0.539705 18:-0.533935 19:-0.454686 20:0.465717 21:-0.510574 22:0.529116 23:0.45934 24:-0.498355 25:0.5 26:0.500002 27:0.5 28:0.499998 29:0.616853 30:0.394947 31:0.399784 32:0.551074 33:0.616853 34:0.394947 35:0.399784 36:0.551074 37:0.612343 38:0.396783 39:0.39828 40:0.555853 41:0.631372 42:0.524092 43:0.571253 44:-0.0191545 45:0.110698 46:0.386754 47:0.84422 48:-0.354204 49:0.5 50:0.500002 51:0.5 52:0.499998 53:0.722667 54:-0.303697 55:-0.110271 56:0.611033 57:-0.472772 58:0.630211 59:0.557578 60:-0.261585 
-0 -2.005323679943328 -0 0 1:0.5 2:0.500002 3:0.5 4:0.499998 5:-0.0757685 6:0.717099 7:0.6926 8:0.0182618 9:-0.0294954 10:0.631081 11:0.771963 12:-0.0702858 13:0.5 14:0.500002 15:0.5 16:0.499998 17:0.54738 18:-0.528978 19:-0.451692 20:0.465329 21:0.514934 22:-0.523096 23:-0.456911 24:0.50244 25:0.5 26:0.500002 27:0.5 28:0.499998 29:0.61459 30:0.404013 31:0.391051 32:0.553291 33:0.61459 34:0.404013 35:0.391051 36:0.553291 37:0.611638 38:0.403442 39:0.391771 40:0.556461 41:0.59314 42:0.50775 43:0.619578 44:-0.0806125 45:0.17499 46:0.388001 47:0.839685 48:-0.337289 49:0.5 50:0.500002 51:0.5 52:0.499998 53:0.760293 54:-0.257261 55:-0.0742165 56:0.59183 57:-0.513754 58:0.587947 59:0.565341 60:-0.266016 
-148.0696480228493 -98.75051444322406 -0 0 1:0.5 2:0.500002 3:0.5 4:0.499998 5:0.0601143 6:0.717363 7:0.684397 8:0.115664 9:0.0941749 10:0.630951 11:0.768598 12:0.0478398 13:0.5 14:0.500002 15:0.5 16:0.499998 17:-0.453444 18:0.641621 19:0.492333 20:-0.374591 21:-0.445032 22:0.604395 23:0.531517 24:-0.39261 25:0.5 26:0.500002 27:0.5 28:0.499998 29:0.676318 30:0.298763 31:0.284772 32:0.610114 33:0.676318 34:0.298763 35:0.284772 36:0.610114 37:0.681359 38:0.292956 39:0.289836 40:0.604915 41:0.60621 42:0.462027 43:0.619034 44:-0.189311 45:-0.0668598 46:0.161676 47:0.863842 48:-0.472406 49:0.5 50:0.500002 51:0.5 52:0.499998 53:0.706764 54:-0.289521 55:-0.476301 56:0.43566 57:-0.263973 58:0.496309 59:0.810368 60:-0.165227 
-0 -0 -7.948016884047155 61.81172172115433 1:0.5 2:0.500002 3:0.5 4:0.499998 5:0.0615365 6:0.715016 7:0.686631 8:0.116205 9:0.0949236 10:0.629888 11:0.769256 12:0.0497638 13:0.5 14:0.500002 15:0.5 16:0.499998 17:-0.45299 18:0.640577 19:0.494584 20:-0.373961 21:-0.44786 22:0.606487 23:0.530093 24:-0.388067 25:0.5 26:0.500002 27:0.5 28:0.499998 29:0.675274 30:0.323225 31:0.314252 32:0.583761 33:0.675274 34:0.323225 35:0.314252 36:0.583761 37:0.678775 38:0.31938 39:0.317443 40:0.580079 41:0.632624 42:0.445869 43:0.601974 44:-0.196508 45:-0.0310447 46:0.148595 47:0.872709 48:-0.464041 49:0.5 50:0.500002 51:0.5 52:0.499998 53:0.756255 54:-0.133122 55:-0.435768 56:0.469536 57:-0.266144 58:0.414442 59:0.831254 60:-0.257726 
-0 -0 -59.74134543836253 0 1:0.5 2:0.500002 3:0.5 4:0.499998 5:-0.201667 6:0.69326 7:0.673056 8:-0.160367 9:-0.174194 10:0.60108 11:0.757099 12:-0.187512 13:0.5 14:0.500002 15:0.5 16:0.499998 17:-0.445264 18:0.617583 19:0.51639 20:-0.392012 21:-0.462288 22:0.612719 23:0.5192 24:-0.375895 25:0.5 26:0.500002 27:0.5 28:0.499998 29:0.675976 30:0.323504 31:0.29011 32:0.595179 33:0.675976 34:0.323504 35:0.29011 36:0.595179 37:0.673561 38:0.327955 39:0.286202 40:0.597369 41:0.779644 42:0.461846 43:0.41908 44:0.0567821 45:0.222056 46:0.355399 47:0.856834 48:-0.300363 49:0.5 50:0.500002 51:0.5 52:0.499998 53:0.634342 54:-0.446971 55:-0.0525147 56:0.628545 57:-0.431393 58:0.754461 59:0.468025 60:-0.160129 
-0 -115.947985351334 -179.655412430458 92.93838649257184 1:0.5 2:0.500002 3:0.5 4:0.499998 5:-0.0677332 6:0.684289 7:0.723404 8:-0.0620301 9:-0.0549031 10:0.63384 11:0.767877 12:-0.0748161 13:0.5 14:0.500002 15:0.5 16:0.499998 17:-0.348103 18:0.698711 19:0.555645 20:-0.286157 21:-0.385802 22:0.67167 23:0.578086 24:-0.25658 25:0.5 26:0.500002 27:0.5 28:0.499998 29:0.68832 30:0.252984 31:0.177523 32:0.656278 33:0.68832 34:0.252984 35:0.177523 36:0.656278 37:0.70849 38:0.24543 39:0.182479 40:0.636009 41:0.422855 42:0.601996 43:0.659276 44:0.1554 45:-0.265021 46:0.490071 47:0.737031 48:-0.382595 49:0.5 50:0.500002 51:0.5 52:0.499998 53:-0.571421 54:0.769991 55:0.140509 56:-0.246675 57:-0.466518 58:0.804148 59:0.358645 60:0.0841495 
-0 -0 -6.294856924104411 29.4267651932154 1:0.5 2:0.500002 3:0.5 4:0.499998 5:-0.257884 6:0.685564 7:0.658211 8:-0.173942 9:-0.225297 10:0.598679 11:0.738995 12:-0.211452 13:0.5 14:0.500002 15:0.5 16:0.499998 17:-0.481438 18:0.587347 19:0.495459 20:-0.421617 21:-0.50302 22:0.603561 23:0.476394 24:-0.394631 25:0.5 26:0.500002 27:0.5 28:0.499998 29:0.655708 30:0.38044 31:0.279244 32:0.589352 33:0.655708 34:0.38044 35:0.279244 36:0.589352 37:0.665486 38:0.380482 39:0.277439 40:0.579129 41:0.478028 42:0.601467 43:0.600651 44:0.221236 45:-0.232019 46:0.519048 47:0.731751 48:-0.375895 49:0.5 50:0.500002 51:0.5 52:0.499998 53:0.78022 54:-0.211335 55:0.584817 56:0.0677027 57:0.805251 58:-0.528623 59:0.26281 60:-0.0553179 
-0 -92.38749404339016 -0.393526169673586 0 1:0.5 2:0.500002 3:0.5 4:0.499998 5:-0.34423 6:0.676833 7:0.611472 8:-0.222495 9:-0.287724 10:0.563295 11:0.716134 12:-0.295069 13:0.5 14:0.500002 15:0.5 16:0.499998 17:0.588095 18:-0.483516 19:-0.41977 20:0.494114 21:0.53902 22:-0.48775 23:-0.411706 24:0.549595 25:0.5 26:0.500002 27:0.5 28:0.499998 29:0.563825 30:0.456961 31:0.41839 32:0.546112 33:0.563825 34:0.456961 35:0.41839 36:0.546112 37:0.564903 38:0.451374 39:0.423973 40:0.545338 41:-0.122381 42:0.762662 43:0.629749 44:0.0823743 45:0.543674 46:-0.580908 47:-0.340557 48:0.500985 49:0.5 50:0.500002 51:0.5 52:0.499998 53:0.720093 54:0.374267 55:-0.191899 56:0.551874 57:0.439081 58:-0.0561926 59:-0.602135 60:0.664442 
-0 -0 -0 74.82887406383703 1:0.5 2:0.500002 3:0.5 4:0.499998 5:-0.33344 6:0.68067 7:0.613848 8:-0.220672 9:-0.276655 10:0.564444 11:0.721157 12:-0.291201 13:0.5 14:0.500002 15:0.5 16:0.499998 17:0.576466 18:-0.484657 19:-0.428817 20:0.49891 21:0.539417 22:-0.494026 23:-0.417668 24:0.539001 25:0.5 26:0.500002 27:0.5 28:0.499998 29:0.569404 30:0.421657 31:0.416461 32:0.569689 33:0.569404 34:0.421657 35:0.416461 36:0.569689 37:0.575042 38:0.42375 39:0.414295 40:0.564023 41:-0.0672129 42:0.771751 43:0.630922 44:0.0426636 45:0.501084 46:-0.566055 47:-0.389223 48:0.52631 49:0.5 50:0.500002 51:0.5 52:0.499998 53:0.710995 54:0.378892 55:-0.195446 56:0.559221 57:0.441749 58:-0.0436608 59:-0.590399 60:0.674078 
-49.48856062018865 -0 -0 0 1:0.5 2:0.500002 3:0.5 4:0.499998 5:-0.329738 6:0.684339 7:0.607027 8:-0.23339 9:-0.270335 10:0.55385 11:0.728011 12:-0.30028 13:0.5 14:0.500002 15:0.5 16:0.499998 17:0.569657 18:-0.482491 19:-0.423645 20:0.513048 21:0.541686 22:-0.487067 23:-0.417467 24:0.543197 25:0.5 26:0.500002 27:0.5 28:0.499998 29:0.551325 30:0.42988 31:0.44623 32:0.558679 33:0.551325 34:0.42988 35:0.44623 36:0.558679 37:0.561147 38:0.439226 39:0.437023 40:0.548822 41:-0.0508314 42:0.78726 43:0.611856 44:-0.0571885 45:0.447086 46:-0.546918 47:-0.420792 48:0.569148 49:0.5 50:0.500002 51:0.5 52:0.499998 53:0.698359 54:0.365542 55:-0.201705 56:0.581368 57:0.430098 58:-0.0652605 59:-0.586008 60:0.683631 
-0 -0 -19.41279991157866 0 1:0.5 2:0.500002 3:0.5 4:0.499998 5:-0.492356 6:0.66631 7:0.494675 8:-0.262514 9:-0.403397 10:0.508353 11:0.655934 12:-0.385485 13:0.5 14:0.500002 15:0.5 16:0.499998 17:0.628511 18:-0.450161 19:-0.328926 20:0.542344 21:0.601596 22:-0.437294 23:-0.341138 24:0.574875 25:0.5 26:0.500002 27:0.5 28:0.499998 29:0.481268 30:0.478538 31:0.503444 32:0.534721 33:0.481268 34:0.478538 35:0.503444 36:0.534721 37:0.553387 38:0.557338 39:0.415681 40:0.458636 41:0.175732 42:0.771865 43:0.557397 44:-0.250302 45:0.309228 46:-0.311698 47:-0.495934 48:0.749181 49:0.5 50:0.500002 51:0.5 52:0.499998 53:0.542936 54:0.491927 55:-0.290834 56:0.61534 57:0.107501 58:-0.17898 59:-0.606472 60:0.767204 
-0 -44.23497143008075 -0 0 1:0.5 2:0.500002 3:0.5 4:0.499998 5:-0.522144 6:0.599726 7:0.468911 8:-0.38447 9:-0.465228 10:0.468457 11:0.604684 12:-0.445499 13:0.5 14:0.500002 15:0.5 16:0.499998 17:0.626269 18:-0.374949 19:-0.343335 20:0.591035 21:0.599073 22:-0.411008 23:-0.307216 24:0.614655 25:0.5 26:0.500002 27:0.5 28:0.499998 29:0.531077 30:0.568193 31:0.460098 32:0.42828 33:0.531077 34:0.568193 35:0.460098 36:0.42828 37:0.530942 38:0.570067 39:0.458182 40:0.428011 41:0.120542 42:0.527985 43:0.678695 44:-0.496059 45:0.384308 46:-0.0357687 47:-0.572245 48:0.723577 49:0.5 50:0.500002 51:0.5 52:0.499998 53:0.812847 54:0.041028 55:0.577872 56:0.060508 57:0.44148 58:0.0566503 59:0.880314 60:-0.164115 
-60.0486036039202 -44.71555025244869 -183.9811961437513 61.21689098551381 1:0.5 2:0.500002 3:0.5 4:0.499998 5:-0.527134 6:0.6011 7:0.464185 8:-0.381236 9:-0.462577 10:0.464046 11:0.606088 12:-0.450933 13:0.5 14:0.500002 15:0.5 16:0.499998 17:0.62812 18:-0.371222 19:-0.34461 20:0.59068 21:0.596279 22:-0.41166 23:-0.303633 24:0.618704 25:0.5 26:0.500002 27:0.5 28:0.499998 29:0.511906 30:0.58717 31:0.463747 32:0.422046 33:0.511906 34:0.58717 35:0.463747 36:0.422046 37:0.51325 38:0.588246 39:0.462301 40:0.420498 41:-0.109636 42:-0.524362 43:-0.676762 44:0.504993 45:0.393266 46:-0.0237912 47:-0.561577 48:0.727604 49:0.5 50:0.500002 51:0.5 52:0.499998 53:0.79376 54:0.0328883 55:0.605402 56:0.0485031 57:0.471288 58:0.0511997 59:0.867908 60:-0.14833 
-0 -0 -84.5093832179537 0 1:0.5 2:0.500002 3:0.5 4:0.499998 5:-0.432264 6:0.624645 7:0.535486 8:-0.369082 9:-0.394834 10:0.510739 11:0.649397 12:-0.401914 13:0.5 14:0.500002 15:0.5 16:0.499998 17:0.557587 18:-0.420105 19:-0.424134 20:0.576818 21:0.567414 22:-0.487118 23:-0.366349 24:0.553666 25:0.5 26:0.500002 27:0.5 28:0.499998 29:0.548586 30:0.492791 31:0.408252 32:0.53809 33:0.548586 34:0.492791 35:0.408252 36:0.53809 37:0.562119 38:0.49765 39:0.401444 40:0.524604 41:0.0591905 42:0.784244 43:0.615128 44:-0.0554543 45:0.375607 46:-0.536467 47:-0.490719 48:0.574732 49:0.5 50:0.500002 51:0.5 52:0.499998 53:0.736229 54:0.461459 55:-0.0319174 56:0.493967 57:0.559285 58:0.0578013 59:-0.479847 60:0.673503 
-7.08629181053039 -35.86503342521238 -29.47413757804654 2.214309699758192 1:0.5 2:0.500002 3:0.5 4:0.499998 5:-0.391164 6:0.634793 7:0.581554 8:-0.325305 9:-0.353072 10:0.528037 11:0.683616 12:-0.359425 13:0.5 14:0.500002 15:0.5 16:0.499998 17:0.545236 18:-0.461629 19:-0.458059 20:0.528959 21:0.549845 22:-0.508037 23:-0.418637 24:0.514113 25:0.5 26:0.500002 27:0.5 28:0.499998 29:0.601077 30:0.410852 31:0.407062 32:0.551551 33:0.601077 34:0.410852 35:0.407062 36:0.551551 37:0.609006 38:0.415322 39:0.402392 40:0.542863 41:-0.0774164 42:0.797653 43:0.596132 44:0.048816 45:-0.347237 46:0.727867 47:0.490707 48:-0.329913 49:0.5 50:0.500002 51:0.5 52:0.499998 53:0.772941 54:0.343618 55:0.0444096 56:0.531524 57:0.725076 58:0.0997769 59:-0.271429 60:0.625008 
-0 -0 -5.419558439772771 0 1:0.5 2:0.500002 3:0.5 4:0.499998 5:-0.477282 6:0.612348 7:0.523954 8:-0.350292 9:-0.420933 10:0.515041 11:0.622038 12:-0.413058 13:0.5 14:0.500002 15:0.5 16:0.499998 17:0.600762 18:-0.428769 19:-0.377236 20:0.559406 21:0.590358 22:-0.421225 23:-0.382398 24:0.572555 25:0.5 26:0.500002 27:0.5 28:0.499998 29:0.547717 30:0.488286 31:0.468569 32:0.491961 33:0.547717 34:0.488286 35:0.468569 36:0.491961 37:0.548438 38:0.50205 39:0.455058 40:0.489983 41:0.318295 42:0.67186 43:0.660874 44:0.102657 45:-0.31158 46:0.503769 47:0.664066 48:-0.456236 49:0.5 50:0.500002 51:0.5 52:0.499998 53:0.762176 54:0.347639 55:-0.0793733 56:0.54031 57:0.533632 58:-0.0800813 59:-0.549954 60:0.637475 
-0 -0 -0 -44.66722816657185 1:0.332715 2:0.36731 3:0.641301 4:0.585762 5:0.332715 6:0.36731 7:0.641301 8:0.585762 9:0.350646 10:0.386477 11:0.630176 12:0.574944 13:-0.252146 14:0.561132 15:0.411247 16:0.672628 17:-0.371842 18:0.675637 19:0.317816 20:0.551581 21:0.5 22:0.500002 23:0.5 24:0.499998 25:0.535832 26:0.0274462 27:0.797091 28:0.277086 29:0.92833 30:-0.161979 31:0.246318 32:0.226479 33:0.5 34:0.500002 35:0.5 36:0.499998 37:0.491561 38:0.590336 39:0.457991 40:0.447342 41:0.438023 42:0.520776 43:0.536864 44:0.498704 45:0.5 46:0.500002 47:0.5 48:0.499998 49:0.533963 50:0.701279 51:0.389242 52:0.267549 53:0.382142 54:0.486726 55:0.637494 56:0.458984 57:0.5 58:0.500002 59:0.5 60:0.499998 
-0 -0 -0 -129.2304282256003 1:0.358729 2:0.577006 3:0.47938 4:0.555493 5:0.358729 6:0.577006 7:0.47938 8:0.555493 9:0.383739 10:0.611646 11:0.433246 12:0.539381 13:-0.193647 14:0.66221 15:0.312117 16:0.653117 17:-0.336838 18:0.721657 19:0.205521 20:0.568781 21:0.5 22:0.500002 23:0.5 24:0.499998 25:0.707078 26:-0.0282149 27:0.705988 28:0.0287414 29:0.737908 30:-0.164313 31:0.648321 32:0.090405 33:0.5 34:0.500002 35:0.5 36:0.499998 37:0.683458 38:0.355455 39:0.420838 40:0.478991 41:0.622215 42:0.471959 43:0.331764 44:0.529185 45:0.5 46:0.500002 47:0.5 48:0.499998 49:0.715577 50:0.393263 51:0.319185 52:0.481056 53:0.617039 54:0.373216 55:0.34404 56:0.601339 57:0.5 58:0.500002 59:0.5 60:0.499998 
-0 -0 -35.07863429998216 -0 1:0.4345 2:0.554306 3:0.393633 4:0.590769 5:0.4345 6:0.554306 7:0.393633 8:0.590769 9:0.438834 10:0.56338 11:0.380855 12:0.587347 13:-0.125399 14:0.716121 15:0.252897 16:0.638348 17:-0.227621 18:0.776787 19:0.185361 20:0.557164 21:0.5 22:0.500002 23:0.5 24:0.499998 25:0.707221 26:-0.0180598 27:0.706522 28:0.018397 29:0.734282 30:-0.133393 31:0.661551 32:0.0733984 33:0.5 34:0.500002 35:0.5 36:0.499998 37:0.748386 38:0.313934 39:0.35063 40:0.467358 41:0.645193 42:0.394919 43:0.2825 44:0.589881 45:0.5 46:0.500002 47:0.5 48:0.499998 49:0.744682 50:0.269921 51:0.31064 52:0.525447 53:0.652553 54:0.326437 55:0.254683 56:0.634626 57:0.5 58:0.500002 59:0.5 60:0.499998 
-0 -0 -2048 -0 1:0.454238 2:0.542671 3:0.364713 4:0.605111 5:0.454238 6:0.542671 7:0.364713 8:0.605111 9:0.455877 10:0.547349 11:0.358046 12:0.603645 13:-0.111971 14:0.734644 15:0.220258 16:0.63186 17:-0.182844 18:0.80574 19:0.175512 20:0.5353 21:0.5 22:0.500002 23:0.5 24:0.499998 25:0.707236 26:-0.0144481 27:0.706677 28:0.0147179 29:0.732415 30:-0.12015 31:0.666904 32:0.0661149 33:0.5 34:0.500002 35:0.5 36:0.499998 37:0.774878 38:0.308233 39:0.316424 40:0.452142 41:0.647489 42:0.364577 43:0.264898 44:0.614549 45:0.5 46:0.500002 47:0.5 48:0.499998 49:0.755101 50:0.227663 51:0.302779 52:0.535086 53:0.662097 54:0.314124 55:0.217865 56:0.644584 57:0.5 58:0.500002 59:0.5 60:0.499998 
-1193.063444829971 -213.925005648329 -2048 -0 1:0.474683 2:0.531065 3:0.329554 4:0.61971 5:0.474683 6:0.531065 7:0.329554 8:0.61971 9:0.474775 10:0.533628 11:0.325894 12:0.619373 13:-0.0770192 14:0.759232 15:0.197039 16:0.615475 17:-0.160726 18:0.816078 19:0.147252 20:0.535257 21:0.5 22:0.500002 23:0.5 24:0.499998 25:0.707235 26:-0.0115584 27:0.706786 28:0.0117744 29:0.730573 30:-0.108205 31:0.671573 32:0.0595449 33:0.5 34:0.500002 35:0.5 36:0.499998 37:0.791655 38:0.291609 39:0.28231 40:0.45667 41:0.651744 42:0.334433 43:0.239804 44:0.637085 45:0.5 46:0.500002 47:0.5 48:0.499998 49:0.763599 50:0.180215 51:0.289832 52:0.548121 53:0.669383 54:0.300047 55:0.172071 56:0.657488 57:0.5 58:0.500002 59:0.5 60:0.499998 
-0 -0 -67.57262353460598 -0 1:0.301915 2:0.28245 3:0.641592 4:0.646088 5:0.301915 6:0.28245 7:0.641592 8:0.646088 9:0.329642 10:0.305562 11:0.634693 12:0.628596 13:-0.378654 14:0.66987 15:0.166424 16:0.616602 17:-0.323454 18:0.753418 19:0.184033 20:0.542098 21:0.5 22:0.500002 23:0.5 24:0.499998 25:0.707116 26:-0.000405055 27:0.707098 28:0.000413444 29:0.712942 30:-0.0223341 31:0.700759 32:0.0122959 33:0.5 34:0.500002 35:0.5 36:0.499998 37:0.653082 38:0.63074 39:0.285623 40:0.30671 41:0.511859 42:0.497911 43:0.481142 44:0.508515 45:0.5 46:0.500002 47:0.5 48:0.499998 49:0.672109 50:0.571853 51:0.277907 52:0.3795 53:0.531625 54:0.465489 55:0.433092 56:0.559577 57:0.5 58:0.500002 59:0.5 60:0.499998 
-0 -0 -2048 -0 1:0.342849 2:0.273337 3:0.637967 4:0.63304 5:0.342849 6:0.273337 7:0.637967 8:0.63304 9:0.372702 10:0.300147 11:0.628326 12:0.613361 13:-0.04553 14:0.574967 15:0.148041 16:0.803383 17:-0.0844121 18:0.757933 19:0.171808 20:0.623613 21:0.5 22:0.500002 23:0.5 24:0.499998 25:0.707109 26:-2.68296e-05 27:0.707105 28:2.69983e-05 29:0.708808 30:-0.00630777 31:0.705365 32:0.00347216 33:0.5 34:0.500002 35:0.5 36:0.499998 37:0.66476 38:0.637504 39:0.269883 40:0.280794 41:0.499382 42:0.478668 43:0.500125 44:0.520931 45:0.5 46:0.500002 47:0.5 48:0.499998 49:0.637026 50:0.587062 51:0.330941 52:0.374211 53:0.516008 54:0.479201 55:0.473846 56:0.528745 57:0.5 58:0.500002 59:0.5 60:0.499998 
-0 -0 -2048 -0 1:0.351751 2:0.292347 3:0.63459 4:0.622976 5:0.351751 6:0.292347 7:0.63459 8:0.622976 9:0.383848 10:0.319327 11:0.625355 12:0.599685 13:-0.000641379 14:0.540527 15:0.157317 16:0.826488 17:-0.0493966 18:0.752893 19:0.181235 20:0.630766 21:0.5 22:0.500002 23:0.5 24:0.499998 25:0.707109 26:-2.12925e-05 27:0.707105 28:2.12504e-05 29:0.70864 30:-0.00567694 31:0.705541 32:0.00312476 33:0.5 34:0.500002 35:0.5 36:0.499998 37:0.652853 38:0.627867 39:0.290393 40:0.308606 41:0.505127 42:0.488018 43:0.49029 44:0.516044 45:0.5 46:0.500002 47:0.5 48:0.499998 49:0.634189 50:0.590095 51:0.33512 52:0.370522 53:0.510216 54:0.477351 55:0.482342 56:0.528358 57:0.5 58:0.500002 59:0.5 60:0.499998 
-0 -0 -2048 -0 1:0.345514 2:0.293432 3:0.637521 4:0.622965 5:0.345514 6:0.293432 7:0.637521 8:0.622965 9:0.378796 10:0.321835 11:0.627572 12:0.599241 13:0.0241515 14:0.517252 15:0.170731 16:0.838283 17:-0.0323765 18:0.746133 19:0.192046 20:0.636675 21:0.5 22:0.500002 23:0.5 24:0.499998 25:0.707108 26:-1.68417e-05 27:0.707105 28:1.66732e-05 29:0.708488 30:-0.00510915 31:0.705699 32:0.00281214 33:0.5 34:0.500002 35:0.5 36:0.499998 37:0.621156 38:0.637824 39:0.324689 40:0.319252 41:0.490556 42:0.504695 43:0.50747 44:0.497104 45:0.5 46:0.500002 47:0.5 48:0.499998 49:0.619452 50:0.590118 51:0.344864 52:0.386147 53:0.510116 54:0.481668 55:0.485095 56:0.521978 57:0.5 58:0.500002 59:0.5 60:0.499998 
-0 -0 -2048 -5.657799947401471 1:0.340214 2:0.303743 3:0.643159 4:0.615094 5:0.340214 6:0.303743 7:0.643159 8:0.615094 9:0.369337 10:0.332884 11:0.629472 12:0.597112 13:0.027506 14:0.515594 15:0.186008 16:0.835947 17:-0.0326255 18:0.743715 19:0.20099 20:0.636731 21:0.5 22:0.500002 23:0.5 24:0.499998 25:0.707108 26:-1.33148e-05 27:0.707105 28:1.29777e-05 29:0.708351 30:-0.00459812 31:0.705841 32:0.00253079 33:0.5 34:0.500002 35:0.5 36:0.499998 37:0.603723 38:0.628681 39:0.348998 40:0.344209 41:0.49415 42:0.518997 43:0.497726 44:0.488596 45:0.5 46:0.500002 47:0.5 48:0.499998 49:0.605898 50:0.625312 51:0.353913 52:0.341493 53:0.482501 54:0.497537 55:0.518388 56:0.500922 57:0.5 58:0.500002 59:0.5 60:0.499998 
-0 -0 -103.0265122226723 -0 1:0.442303 2:0.270359 3:0.58097 4:0.627493 5:0.442303 6:0.270359 7:0.58097 8:0.627493 9:0.469637 10:0.295718 11:0.56853 12:0.607261 13:-0.000218428 14:0.707037 15:0.00045319 16:0.707177 17:-0.0209891 18:0.718845 19:0.00880743 20:0.694798 21:0.5 22:0.500002 23:0.5 24:0.499998 25:0.540356 26:-0.558435 27:0.376662 28:0.504272 29:-0.568951 30:0.628462 31:-0.316937 32:-0.425301 33:0.5 34:0.500002 35:0.5 36:0.499998 37:0.617751 38:0.580932 39:0.351225 40:0.396917 41:0.533349 42:0.516425 43:0.441905 44:0.503552 45:0.5 46:0.500002 47:0.5 48:0.499998 49:0.587479 50:0.61354 51:0.397009 52:0.347594 53:0.473292 54:0.526339 55:0.507079 56:0.491765 57:0.5 58:0.500002 59:0.5 60:0.499998 
-0 -337.2521477757267 -2048 -0 1:0.402104 2:0.328365 3:0.607908 4:0.60078 5:0.402104 6:0.328365 7:0.607908 8:0.60078 9:0.427235 10:0.350849 11:0.596696 12:0.581661 13:-0.000175131 14:0.707051 15:0.000362682 16:0.707163 17:-0.018891 18:0.717697 19:0.00792678 20:0.696054 21:0.5 22:0.500002 23:0.5 24:0.499998 25:0.5746 26:-0.503798 27:0.413019 28:0.495416 29:-0.612667 30:0.647642 31:-0.292282 32:-0.346078 33:0.5 34:0.500002 35:0.5 36:0.499998 37:0.584186 38:0.585145 39:0.404033 40:0.391267 41:0.518414 42:0.554051 43:0.451386 44:0.469601 45:0.5 46:0.500002 47:0.5 48:0.499998 49:0.561212 50:0.654212 51:0.397514 52:0.31469 53:0.450351 54:0.540414 55:0.542054 56:0.459689 57:0.5 58:0.500002 59:0.5 60:0.499998 
-0 -0 -0 -41.33851778469134 1:0.328954 2:0.372237 3:0.644889 4:0.580815 5:0.328954 6:0.372237 7:0.644889 8:0.580815 9:0.355573 10:0.396952 11:0.632386 12:0.562214 13:-0.104082 14:0.685962 15:0.163868 16:0.701263 17:-0.209641 18:0.803986 19:0.065399 20:0.552613 21:0.5 22:0.500002 23:0.5 24:0.499998 25:0.518325 26:-0.519825 27:0.375836 28:0.56557 29:-0.609929 30:0.670751 31:-0.194678 32:-0.374405 33:0.5 34:0.500002 35:0.5 36:0.499998 37:0.535138 38:0.604437 39:0.447311 40:0.384962 41:0.499681 42:0.585354 43:0.475608 44:0.426001 45:0.5 46:0.500002 47:0.5 48:0.499998 49:0.549167 50:0.686071 51:0.378457 52:0.290675 53:0.443886 54:0.55019 55:0.557866 56:0.434789 57:0.5 58:0.500002 59:0.5 60:0.499998 
-0 -0 -1759.981066308768 -0 1:0.485064 2:0.335986 3:0.522729 4:0.615289 5:0.485064 6:0.335986 7:0.522729 8:0.615289 9:0.501305 10:0.346978 11:0.516549 12:0.601229 13:-0.418596 14:0.676919 15:0.350892 16:0.493389 17:-0.482239 18:0.717245 19:0.283259 20:0.415656 21:0.5 22:0.500002 23:0.5 24:0.499998 25:0.611644 26:-0.366982 27:0.432222 28:0.551724 29:0.705964 30:-0.502896 31:0.25008 32:0.431475 33:0.5 34:0.500002 35:0.5 36:0.499998 37:0.597652 38:0.605838 39:0.382869 40:0.359422 41:0.511268 42:0.521978 43:0.491578 44:0.47381 45:0.5 46:0.500002 47:0.5 48:0.499998 49:0.596275 50:0.517247 51:0.388831 52:0.475103 53:0.538791 54:0.487494 55:0.426909 56:0.538333 57:0.5 58:0.500002 59:0.5 60:0.499998 
-0 -349.5635380610956 -635.4169908266747 -0 1:0.277434 2:0.464968 3:0.625643 4:0.561611 5:0.277434 6:0.464968 7:0.625643 8:0.561611 9:0.304385 10:0.49048 11:0.607678 12:0.545442 13:-0.499698 14:0.577799 15:0.48272 16:0.428289 17:0.58527 18:-0.542839 19:-0.410699 20:-0.440582 21:0.5 22:0.500002 23:0.5 24:0.499998 25:0.606156 26:-0.266162 27:0.527278 28:0.532645 29:0.730646 30:-0.406085 31:0.334071 32:0.435485 33:0.5 34:0.500002 35:0.5 36:0.499998 37:0.471917 38:0.634731 39:0.527732 40:0.309693 41:0.452671 42:0.641465 43:0.525545 44:0.327741 45:0.5 46:0.500002 47:0.5 48:0.499998 49:0.596805 50:0.699753 51:0.300433 52:0.252803 53:0.438233 54:0.51216 55:0.563566 56:0.477533 57:0.5 58:0.500002 59:0.5 60:0.499998 
-0 -0 -0 -93.35368668880935 1:0.2771 2:0.461001 3:0.623111 4:0.567826 5:0.2771 6:0.461001 7:0.623111 8:0.567826 9:0.307084 10:0.488848 11:0.603619 12:0.549882 13:-0.470109 14:0.614488 15:0.495145 16:0.395265 17:0.612848 18:-0.509958 19:-0.38567 20:-0.464348 21:0.5 22:0.500002 23:0.5 24:0.499998 25:0.581909 26:-0.255648 27:0.550412 28:0.541362 29:0.703342 30:-0.375347 31:0.385256 32:0.464761 33:0.5 34:0.500002 35:0.5 36:0.499998 37:0.481133 38:0.626238 39:0.529502 40:0.30978 41:0.449993 42:0.639771 43:0.522984 44:0.338654 45:0.5 46:0.500002 47:0.5 48:0.499998 49:0.609961 50:0.686356 51:0.296866 52:0.26217 53:0.451457 54:0.507248 55:0.549467 56:0.486797 57:0.5 58:0.500002 59:0.5 60:0.499998 
-0 -0 -0 -40.70667038581916 1:0.28894 2:0.449891 3:0.613344 4:0.581309 5:0.28894 6:0.449891 7:0.613344 8:0.581309 9:0.320901 10:0.477885 11:0.594288 12:0.561668 13:-0.452426 14:0.644477 15:0.486325 16:0.378746 17:0.602653 18:-0.50964 19:-0.373695 20:-0.487267 21:0.5 22:0.500002 23:0.5 24:0.499998 25:0.568567 26:-0.266171 27:0.549369 28:0.551434 29:0.663727 30:-0.357188 31:0.430134 32:0.496858 33:0.5 34:0.500002 35:0.5 36:0.499998 37:0.505855 38:0.630967 39:0.504238 40:0.302879 41:0.447071 42:0.619816 43:0.528019 44:0.370339 45:0.5 46:0.500002 47:0.5 48:0.499998 49:0.616467 50:0.660457 51:0.312297 52:0.29366 53:0.466287 54:0.500408 55:0.532282 56:0.498843 57:0.5 58:0.500002 59:0.5 60:0.499998 
