svm_type c_svc
kernel_type linear
nr_class 5
total_sv 137
rho 0.656644 2.25606 4.22098 -0.224971 2.04719 6.85265 -0.347448 -0.634426 -8.4889 -3.74184
label 0 1 2 3 4
nr_sv 15 27 37 47 11
SV
0 0 25.33593063003161 0 1:0.464699 2:0.600414 3:0.446723 4:0.473283 5:0.464699 6:0.600414 7:0.446723 8:0.473283 9:0.464699 10:0.600414 11:0.446723 12:0.473283 13:-2.82658e-05 14:0.707111 15:2.99939e-05 16:0.707102 17:-0.0030207 18:0.707887 19:0.00567489 20:0.706297 21:0.5 22:0.500002 23:0.5 24:0.499998 25:0.707109 26:-6.14715e-06 27:0.707105 28:1.0109e-05 29:0.708872 30:-0.000842297 31:0.705334 32:0.00209886 33:0.5 34:0.500002 35:0.5 36:0.499998 37:0.636869 38:0.229214 39:0.389688 40:0.624501 41:0.679127 42:0.406478 43:0.260389 44:0.552956 45:0.5 46:0.500002 47:0.5 48:0.499998 49:0.678207 50:-0.406773 51:-0.323789 52:0.519357 53:0.51411 54:-0.305055 55:-0.421004 56:0.682193 57:0.5 58:0.500002 59:0.5 60:0.499998 
0 0 0 0.9713456130902873 1:0.445256 2:0.619812 3:0.454692 4:0.459169 5:0.445256 6:0.619812 7:0.454692 8:0.459169 9:0.445256 10:0.619812 11:0.454692 12:0.459169 13:-1.24876e-05 14:0.707109 15:1.29091e-05 16:0.707104 17:-0.00198253 18:0.707622 19:0.00372357 20:0.706578 21:0.5 22:0.500002 23:0.5 24:0.499998 25:0.707108 26:-2.43607e-06 27:0.707105 28:2.68897e-06 29:0.708266 30:-0.000552104 31:0.705944 32:0.0013767 33:0.5 34:0.500002 35:0.5 36:0.499998 37:0.622688 38:0.233571 39:0.42169 40:0.616345 41:0.673521 42:0.430466 43:0.28357 44:0.52977 45:0.5 46:0.500002 47:0.5 48:0.499998 49:0.689513 50:-0.38228 51:-0.31408 52:0.528949 53:0.526866 54:-0.286651 55:-0.403256 56:0.691106 57:0.5 58:0.500002 59:0.5 60:0.499998 
0.217755423045648 2.555214795864946 0 0 1:0.440216 2:0.621761 3:0.46065 4:0.455438 5:0.440216 6:0.621761 7:0.46065 8:0.455438 9:0.440216 10:0.621761 11:0.46065 12:0.455438 13:-1.03341e-05 14:0.707109 15:1.05027e-05 16:0.707105 17:-0.00178445 18:0.707572 19:0.00335131 20:0.706632 21:0.5 22:0.500002 23:0.5 24:0.499998 25:0.707108 26:-1.95886e-06 27:0.707105 28:1.62171e-06 29:0.70815 30:-0.000496667 31:0.70606 32:0.001239 33:0.5 34:0.500002 35:0.5 36:0.499998 37:0.617007 38:0.240177 39:0.424415 40:0.617648 41:0.671969 42:0.434425 43:0.286883 44:0.526716 45:0.5 46:0.500002 47:0.5 48:0.499998 49:0.686499 50:-0.381629 51:-0.315508 52:0.532479 53:0.52501 54:-0.286802 55:-0.403647 56:0.692227 57:0.5 58:0.500002 59:0.5 60:0.499998 
0 0 8.740110296301662 0 1:0.456042 2:0.609727 3:0.470031 4:0.446463 5:0.456042 6:0.609727 7:0.470031 8:0.446463 9:0.456042 10:0.609727 11:0.470031 12:0.446463 13:-7.2196e-06 14:0.707109 15:7.05102e-06 16:0.707105 17:-0.00144564 18:0.707484 19:0.00271482 20:0.706722 21:0.5 22:0.500002 23:0.5 24:0.499998 25:0.707108 26:-1.26831e-06 27:0.707105 28:8.82126e-08 29:0.707953 30:-0.000402052 31:0.706259 32:0.00100334 33:0.5 34:0.500002 35:0.5 36:0.499998 37:0.597729 38:-0.51971 39:-0.44275 40:0.42023 41:0.461905 42:-0.380704 43:-0.566738 44:0.566142 45:0.5 46:0.500002 47:0.5 48:0.499998 49:0.677682 50:-0.391682 51:-0.320477 52:0.533504 53:0.520914 54:-0.29603 55:-0.411351 56:0.68688 57:0.5 58:0.500002 59:0.5 60:0.499998 
0 0 3.822081910112162 0 1:0.493155 2:0.551086 3:0.514154 4:0.434452 5:0.493155 6:0.551086 7:0.514154 8:0.434452 9:0.46507 10:0.594351 11:0.471311 12:0.456424 13:-3.94224e-06 14:0.707108 15:3.43648e-06 16:0.707105 17:-0.00094914 18:0.707356 19:0.00178144 20:0.706855 21:0.5 22:0.500002 23:0.5 24:0.499998 25:0.707108 26:-4.80456e-07 27:0.707105 28:-1.45829e-06 29:0.707662 30:-0.000263926 31:0.70655 32:0.000657261 33:0.5 34:0.500002 35:0.5 36:0.499998 37:0.560361 38:-0.524274 39:-0.471757 40:0.434255 41:0.455903 42:-0.413401 43:-0.571108 44:0.54322 45:0.5 46:0.500002 47:0.5 48:0.499998 49:0.65517 50:-0.41792 51:-0.346476 52:0.525404 53:0.504684 54:-0.327039 55:-0.430071 56:0.673334 57:0.5 58:0.500002 59:0.5 60:0.499998 
0 1.731403948156861 8.461022110879011 0 1:0.549966 2:0.51232 3:0.415996 4:0.511872 5:0.549966 6:0.51232 7:0.415996 8:0.511872 9:0.549839 10:0.512026 11:0.416325 12:0.512035 13:-1.55156e-06 14:0.707108 15:1.04579e-06 16:0.707105 17:6.01375e-06 18:0.707108 19:8.61107e-06 20:0.707105 21:0.5 22:0.500002 23:0.5 24:0.499998 25:0.707108 26:2.45002e-07 27:0.707105 28:-2.35234e-06 29:0.707108 30:8.6111e-06 31:0.707105 32:6.01372e-06 33:0.5 34:0.500002 35:0.5 36:0.499998 37:-0.465142 38:0.595867 39:0.541876 40:-0.367363 41:-0.362757 42:0.479627 43:0.640938 44:-0.477037 45:0.5 46:0.500002 47:0.5 48:0.499998 49:0.649563 50:-0.461979 51:-0.332864 52:0.50383 53:0.487849 54:-0.3539 55:-0.44607 56:0.661649 57:0.5 58:0.500002 59:0.5 60:0.499998 
0.007819887824907513 0 0 0 1:0.539547 2:0.539527 3:0.455208 4:0.458896 5:0.539547 6:0.539527 7:0.455208 8:0.458896 9:0.539262 10:0.539662 11:0.455118 12:0.459161 13:-1.55156e-06 14:0.707108 15:1.04579e-06 16:0.707105 17:6.01375e-06 18:0.707108 19:8.61107e-06 20:0.707105 21:0.5 22:0.500002 23:0.5 24:0.499998 25:0.707108 26:2.45002e-07 27:0.707105 28:-2.35234e-06 29:0.707108 30:8.6111e-06 31:0.707105 32:6.01372e-06 33:0.5 34:0.500002 35:0.5 36:0.499998 37:-0.482575 38:0.587557 39:0.503015 40:-0.410943 41:-0.392443 42:0.467022 43:0.618692 44:-0.495075 45:0.5 46:0.500002 47:0.5 48:0.499998 49:0.621483 50:-0.451874 51:-0.329868 52:0.548412 53:0.499661 54:-0.349777 55:-0.446224 56:0.654889 57:0.5 58:0.500002 59:0.5 60:0.499998 
0 0 0.5647549564315272 0 1:0.478838 2:0.509107 3:0.523773 4:0.487017 5:0.478838 6:0.509107 7:0.523773 8:0.487017 9:0.492856 10:0.534245 11:0.498269 12:0.472655 13:-1.55156e-06 14:0.707108 15:1.04579e-06 16:0.707105 17:6.01375e-06 18:0.707108 19:8.61107e-06 20:0.707105 21:0.5 22:0.500002 23:0.5 24:0.499998 25:0.707108 26:2.45002e-07 27:0.707105 28:-2.35234e-06 29:0.707108 30:8.6111e-06 31:0.707105 32:6.01372e-06 33:0.5 34:0.500002 35:0.5 36:0.499998 37:-0.503239 38:0.551362 39:0.505362 40:-0.432851 41:0.407843 42:-0.44653 43:-0.598588 44:0.525326 45:0.5 46:0.500002 47:0.5 48:0.499998 49:0.646019 50:-0.400423 51:-0.333832 52:0.557564 53:0.502309 54:-0.305313 55:-0.426678 56:0.687325 57:0.5 58:0.500002 59:0.5 60:0.499998 
0 0 16.30730620942945 0 1:0.408795 2:0.530011 3:0.583785 4:0.459532 5:0.408795 6:0.530011 7:0.583785 8:0.459532 9:0.414874 10:0.549869 11:0.564323 12:0.455043 13:-1.55156e-06 14:0.707108 15:1.04579e-06 16:0.707105 17:6.01375e-06 18:0.707108 19:8.61107e-06 20:0.707105 21:0.5 22:0.500002 23:0.5 24:0.499998 25:0.707108 26:2.45002e-07 27:0.707105 28:-2.35234e-06 29:0.707108 30:8.6111e-06 31:0.707105 32:6.01372e-06 33:0.5 34:0.500002 35:0.5 36:0.499998 37:0.528798 38:-0.473511 39:-0.494576 40:0.501552 41:0.449738 42:-0.422673 43:-0.531758 44:0.579927 45:0.5 46:0.500002 47:0.5 48:0.499998 49:0.625247 50:-0.286558 51:-0.334963 52:0.644011 53:0.559073 54:-0.263769 55:-0.348265 56:0.704681 57:0.5 58:0.500002 59:0.5 60:0.499998 
0 0 12.44688091007603 0 1:0.376143 2:0.55575 3:0.633581 4:0.385011 5:0.376143 6:0.55575 7:0.633581 8:0.385011 9:0.378473 10:0.575416 11:0.615247 12:0.38357 13:-1.55156e-06 14:0.707108 15:1.04579e-06 16:0.707105 17:6.01375e-06 18:0.707108 19:8.61107e-06 20:0.707105 21:0.5 22:0.500002 23:0.5 24:0.499998 25:0.707108 26:2.45002e-07 27:0.707105 28:-2.35234e-06 29:0.707108 30:8.6111e-06 31:0.707105 32:6.01372e-06 33:0.5 34:0.500002 35:0.5 36:0.499998 37:0.559442 38:-0.449344 39:-0.416715 40:0.558089 41:0.473244 42:-0.387394 43:-0.473988 44:0.633484 45:0.5 46:0.500002 47:0.5 48:0.499998 49:0.61645 50:-0.224962 51:-0.26565 52:0.706266 53:0.56006 54:-0.18832 55:-0.301907 56:0.748144 57:0.5 58:0.500002 59:0.5 60:0.499998 
0 0 32 0 1:0.367617 2:0.556083 3:0.646228 4:0.371508 5:0.367617 6:0.556083 7:0.646228 8:0.371508 9:0.369012 10:0.577816 11:0.626239 12:0.371192 13:-1.55156e-06 14:0.707108 15:1.04579e-06 16:0.707105 17:6.01375e-06 18:0.707108 19:8.61107e-06 20:0.707105 21:0.5 22:0.500002 23:0.5 24:0.499998 25:0.707108 26:2.45002e-07 27:0.707105 28:-2.35234e-06 29:0.707108 30:8.6111e-06 31:0.707105 32:6.01372e-06 33:0.5 34:0.500002 35:0.5 36:0.499998 37:0.561381 38:-0.442791 39:-0.403288 40:0.571093 41:0.480331 42:-0.382716 43:-0.461502 44:0.640177 45:0.5 46:0.500002 47:0.5 48:0.499998 49:0.610983 50:-0.215629 51:-0.249103 52:0.719828 53:0.558589 54:-0.169842 55:-0.299847 56:0.754469 57:0.5 58:0.500002 59:0.5 60:0.499998 
0 0 0 0.1928068086923061 1:0.376412 2:0.555408 3:0.645216 4:0.365421 5:0.376412 6:0.555408 7:0.645216 8:0.365421 9:0.377404 10:0.57659 11:0.625929 12:0.365133 13:-0.159439 14:0.696347 15:0.189083 16:0.673742 17:-0.143109 18:0.707756 19:0.203295 20:0.661266 21:0.5 22:0.500002 23:0.5 24:0.499998 25:0.707108 26:2.45002e-07 27:0.707105 28:-2.35234e-06 29:0.707108 30:8.6111e-06 31:0.707105 32:6.01372e-06 33:0.5 34:0.500002 35:0.5 36:0.499998 37:0.556387 38:-0.452342 39:-0.395019 40:0.574265 41:0.482501 42:-0.388286 43:-0.462027 44:0.63479 45:0.5 46:0.500002 47:0.5 48:0.499998 49:0.608151 50:-0.226006 51:-0.23667 52:0.72323 53:0.564169 54:-0.172966 55:-0.30004 56:0.749515 57:0.5 58:0.500002 59:0.5 60:0.499998 
0.2367153906370313 0 0 0 1:0.522159 2:0.495245 3:0.499867 4:0.481888 5:0.522159 6:0.495245 7:0.499867 8:0.481888 9:0.534112 10:0.500614 11:0.494123 12:0.468991 13:-1.55183e-06 14:0.707108 15:1.04606e-06 16:0.707105 17:-4.72441e-06 18:0.70711 19:2.1878e-05 20:0.707104 21:0.5 22:0.500002 23:0.5 24:0.499998 25:0.707108 26:2.45002e-07 27:0.707105 28:-2.35234e-06 29:0.707108 30:8.6111e-06 31:0.707105 32:6.01372e-06 33:0.5 34:0.500002 35:0.5 36:0.499998 37:-0.438847 38:0.569603 39:0.501683 40:-0.480915 41:-0.413765 42:0.507155 43:0.569778 44:-0.496937 45:0.5 46:0.500002 47:0.5 48:0.499998 49:0.551564 50:-0.382654 51:-0.347772 52:0.654528 53:0.571907 54:-0.358806 55:-0.375058 56:0.635227 57:0.5 58:0.500002 59:0.5 60:0.499998 
0 0 12.77193983269939 0 1:0.562503 2:0.41944 3:0.450797 4:0.551763 5:0.562503 6:0.41944 7:0.450797 8:0.551763 9:0.576883 10:0.421076 11:0.449406 12:0.536596 13:-1.55156e-06 14:0.707108 15:1.0458e-06 16:0.707105 17:4.21226e-06 18:0.707108 19:1.04126e-05 20:0.707105 21:0.5 22:0.500002 23:0.5 24:0.499998 25:0.707108 26:2.45002e-07 27:0.707105 28:-2.35234e-06 29:0.707108 30:8.6111e-06 31:0.707105 32:6.01372e-06 33:0.5 34:0.500002 35:0.5 36:0.499998 37:-0.342523 38:0.552001 39:0.617526 40:-0.443435 41:-0.393767 42:0.548466 43:0.624981 44:-0.391831 45:0.5 46:0.500002 47:0.5 48:0.499998 49:0.557887 50:-0.454772 51:-0.412439 52:0.558426 53:0.527368 54:-0.383967 55:-0.48827 56:0.579694 57:0.5 58:0.500002 59:0.5 60:0.499998 
0 1.46716382169998 0 0 1:0.564374 2:0.410472 3:0.44057 4:0.564705 5:0.564374 6:0.410472 7:0.44057 8:0.564705 9:0.575213 10:0.411965 11:0.439385 12:0.553495 13:-1.55156e-06 14:0.707108 15:1.04579e-06 16:0.707105 17:5.15211e-06 18:0.707108 19:9.47271e-06 20:0.707105 21:0.5 22:0.500002 23:0.5 24:0.499998 25:0.707108 26:2.45002e-07 27:0.707105 28:-2.35234e-06 29:0.707108 30:8.6111e-06 31:0.707105 32:6.01372e-06 33:0.5 34:0.500002 35:0.5 36:0.499998 37:-0.330682 38:0.545651 39:0.63853 40:-0.430342 41:-0.356307 42:0.508725 43:0.678264 44:-0.392685 45:0.5 46:0.500002 47:0.5 48:0.499998 49:0.557469 50:-0.443391 51:-0.443355 52:0.544123 53:0.522808 54:-0.388068 55:-0.497797 56:0.572951 57:0.5 58:0.500002 59:0.5 60:0.499998 
-0 0 1.399257368192124 0 1:0.574223 2:0.530271 3:0.448902 4:0.433091 5:0.574223 6:0.530271 7:0.448902 8:0.433091 9:0.55964 10:0.520605 11:0.461091 12:0.450741 13:0.709702 14:0.259727 15:0.65066 16:0.0741984 17:0.617084 18:0.228922 19:0.752729 20:-0.0142084 21:0.5 22:0.500002 23:0.5 24:0.499998 25:0.258967 26:0.67397 27:0.0970387 28:0.685043 29:0.219909 30:0.59053 31:-0.00788629 32:0.776435 33:0.5 34:0.500002 35:0.5 36:0.499998 37:-0.319538 38:0.71968 39:0.580264 40:-0.207967 41:-0.26332 42:0.549447 43:0.744427 44:-0.273128 45:0.5 46:0.500002 47:0.5 48:0.499998 49:0.66639 50:-0.41586 51:-0.29826 52:0.542242 53:0.554061 54:-0.364974 55:-0.357169 56:0.65745 57:0.5 58:0.500002 59:0.5 60:0.499998 
-0.01402140249203183 0 0 0 1:0.572188 2:0.53128 3:0.449776 4:0.433641 5:0.572188 6:0.53128 7:0.449776 8:0.433641 9:0.559454 10:0.522489 11:0.460786 12:0.449103 13:0.711385 14:0.264041 15:0.646826 16:0.076354 17:0.613265 18:0.232537 19:0.754671 20:-0.0174277 21:0.5 22:0.500002 23:0.5 24:0.499998 25:0.259747 26:0.670481 27:0.0972146 28:0.688139 29:0.228891 30:0.58772 31:0.00497661 32:0.775995 33:0.5 34:0.500002 35:0.5 36:0.499998 37:-0.317315 38:0.724804 39:0.575444 40:-0.206964 41:-0.267621 42:0.546717 43:0.748707 44:-0.262522 45:0.5 46:0.500002 47:0.5 48:0.499998 49:0.673962 50:-0.449037 51:-0.293976 52:0.507661 53:0.480365 54:-0.333954 55:-0.420156 56:0.693681 57:0.5 58:0.500002 59:0.5 60:0.499998 
-0 0 1.112719696066771 0 1:0.569978 2:0.524354 3:0.448103 4:0.446522 5:0.569978 6:0.524354 7:0.448103 8:0.446522 9:0.557887 10:0.516893 11:0.457509 12:0.460726 13:0.708751 14:0.25664 15:0.651761 16:0.0837583 17:0.598351 18:0.216874 19:0.770727 20:-0.0303638 21:0.5 22:0.500002 23:0.5 24:0.499998 25:0.259187 26:0.674714 27:0.0929769 28:0.68479 29:0.226779 30:0.572237 31:-0.0123944 32:0.788011 33:0.5 34:0.500002 35:0.5 36:0.499998 37:-0.307405 38:0.717184 39:0.590017 40:-0.207436 41:-0.26102 42:0.553737 43:0.746861 44:-0.259696 45:0.5 46:0.500002 47:0.5 48:0.499998 49:0.685531 50:-0.444091 51:-0.28785 52:0.499973 53:0.456211 54:-0.308667 55:-0.429883 56:0.7154 57:0.5 58:0.500002 59:0.5 60:0.499998 
-0 0 4.226303937678097 0 1:0.608923 2:0.517682 3:0.40822 4:0.441105 5:0.608923 6:0.517682 7:0.40822 8:0.441105 9:0.590765 10:0.503474 11:0.426269 12:0.464548 13:0.596401 14:0.467935 15:0.612067 16:-0.225203 17:0.618101 18:0.480196 19:0.588462 20:-0.202671 21:0.5 22:0.500002 23:0.5 24:0.499998 25:0.580012 26:0.571728 27:-0.286664 28:0.504516 29:0.625406 30:0.53278 31:-0.241058 32:0.516628 33:0.5 34:0.500002 35:0.5 36:0.499998 37:-0.282759 38:0.744228 39:0.576954 40:-0.182474 41:-0.23426 42:0.569506 43:0.750825 44:-0.238846 45:0.5 46:0.500002 47:0.5 48:0.499998 49:0.672785 50:-0.478799 51:-0.278595 52:0.490405 53:0.441336 54:-0.340345 55:-0.437068 56:0.705946 57:0.5 58:0.500002 59:0.5 60:0.499998 
-0.09014904472045343 0 0 0 1:0.599638 2:0.518877 3:0.416056 4:0.445083 5:0.599638 6:0.518877 7:0.416056 8:0.445083 9:0.582852 10:0.50477 11:0.433424 12:0.466513 13:0.603032 14:0.473637 15:0.602174 16:-0.222277 17:0.606348 18:0.493841 19:0.591628 20:-0.196062 21:0.5 22:0.500002 23:0.5 24:0.499998 25:0.577317 26:0.580205 27:-0.275512 28:0.504144 29:0.618365 30:0.531023 31:-0.239109 32:0.527699 33:0.5 34:0.500002 35:0.5 36:0.499998 37:-0.284845 38:0.74178 39:0.577207 40:-0.188302 41:-0.241551 42:0.570029 43:0.74882 44:-0.236619 45:0.5 46:0.500002 47:0.5 48:0.499998 49:0.675463 50:-0.472417 51:-0.277193 52:0.493697 53:0.455472 54:-0.342796 55:-0.427205 56:0.701806 57:0.5 58:0.500002 59:0.5 60:0.499998 
-0 0 15.23156172675798 0 1:0.539651 2:0.555518 3:0.477253 4:0.415218 5:0.539651 6:0.555518 7:0.477253 8:0.415218 9:0.527322 10:0.550887 11:0.484134 12:0.429033 13:0.663981 14:0.531269 15:0.461922 16:-0.252013 17:-0.292175 18:-0.299528 19:-0.754239 20:0.506004 21:0.5 22:0.500002 23:0.5 24:0.499998 25:0.483645 26:0.734955 27:-0.0782424 28:0.468835 29:0.367857 30:0.372797 31:-0.323598 32:0.788028 33:0.5 34:0.500002 35:0.5 36:0.499998 37:-0.293078 38:0.731005 39:0.587501 40:-0.185956 41:-0.249955 42:0.560384 43:0.753038 44:-0.237543 45:0.5 46:0.500002 47:0.5 48:0.499998 49:0.694789 50:-0.399803 51:-0.26928 52:0.533774 53:0.481365 54:-0.289409 55:-0.385482 56:0.732075 57:0.5 58:0.500002 59:0.5 60:0.499998 
-0 0.3611424641619936 0 0 1:0.2763 2:0.695992 3:0.654904 4:0.101756 5:0.2763 6:0.695992 7:0.654904 8:0.101756 9:0.259842 10:0.695597 11:0.659163 12:0.118875 13:0.296814 14:0.811873 15:0.294279 16:-0.407632 17:0.0115897 18:-0.258087 19:-0.417809 20:0.87103 21:0.5 22:0.500002 23:0.5 24:0.499998 25:0.119037 26:0.896525 27:0.0474745 28:0.42405 29:0.11635 30:0.309058 31:-0.0537259 32:0.942369 33:0.5 34:0.500002 35:0.5 36:0.499998 37:-0.579721 38:0.58347 39:0.400195 40:-0.404141 41:-0.559931 42:0.412894 43:0.579214 44:-0.424861 45:0.5 46:0.500002 47:0.5 48:0.499998 49:0.666141 50:-0.402885 51:-0.320533 52:0.539629 53:0.485696 54:-0.295406 55:-0.421654 56:0.706429 57:0.5 58:0.500002 59:0.5 60:0.499998 
-0.03082502894581174 0 0.1594050390698019 0 1:0.276504 2:0.695027 3:0.657416 4:0.0910375 5:0.276504 6:0.695027 7:0.657416 8:0.0910375 9:0.259577 10:0.695236 11:0.661407 12:0.108664 13:0.29593 14:0.820405 15:0.2836 16:-0.398663 17:0.00512522 18:-0.268937 19:-0.40985 20:0.87159 21:0.5 22:0.500002 23:0.5 24:0.499998 25:0.12111 26:0.90609 27:0.0609849 28:0.400767 29:0.127677 30:0.334502 31:-0.0456661 32:0.932589 33:0.5 34:0.500002 35:0.5 36:0.499998 37:0.585584 38:-0.575212 39:-0.402415 40:0.405322 41:-0.567219 42:0.415437 43:0.567931 44:-0.427936 45:0.5 46:0.500002 47:0.5 48:0.499998 49:0.669618 50:-0.415115 51:-0.318643 52:0.527027 53:0.470553 54:-0.294242 55:-0.432754 56:0.710441 57:0.5 58:0.500002 59:0.5 60:0.499998 
-0.008225430922865122 0 0.5156771423131739 0 1:0.28938 2:0.719967 3:0.623335 4:0.0967499 5:0.28938 6:0.719967 7:0.623335 8:0.0967499 9:0.276286 10:0.709701 11:0.638196 12:0.11268 13:0.275368 14:0.782078 15:0.335853 16:-0.446912 17:-0.0555807 18:-0.426468 19:-0.430738 20:0.793411 21:0.5 22:0.500002 23:0.5 24:0.499998 25:0.119265 26:0.910228 27:0.0725611 28:0.389865 29:0.138754 30:0.482647 31:-0.0153828 32:0.864617 33:0.5 34:0.500002 35:0.5 36:0.499998 37:-0.571983 38:0.594627 39:0.388749 40:-0.410035 41:0.575213 42:-0.416159 43:-0.574654 44:0.40708 45:0.5 46:0.500002 47:0.5 48:0.499998 49:0.67026 50:-0.474096 51:-0.317481 52:0.474541 53:0.436872 54:-0.315987 55:-0.475093 56:0.6954 57:0.5 58:0.500002 59:0.5 60:0.499998 
-0.106329976124623 0.7008129807006276 0 0.0355126845471172 1:0.362289 2:0.693803 3:0.575841 4:0.236202 5:0.362289 6:0.693803 7:0.575841 8:0.236202 9:0.349071 10:0.680369 11:0.593218 12:0.251674 13:0.37511 14:0.704187 15:0.47075 16:-0.376575 17:0.280427 18:0.625686 19:0.533508 20:-0.495224 21:0.5 22:0.500002 23:0.5 24:0.499998 25:0.0922428 26:0.770234 27:0.198473 28:0.599032 29:0.111578 30:0.640318 31:0.155513 32:0.743881 33:0.5 34:0.500002 35:0.5 36:0.499998 37:-0.423476 38:0.673569 39:0.565729 40:-0.216619 41:-0.369635 42:0.507701 43:0.719366 44:-0.296853 45:0.5 46:0.500002 47:0.5 48:0.499998 49:0.598499 50:-0.436052 51:-0.441207 52:0.506946 53:0.538501 54:-0.424535 55:-0.44883 56:0.573008 57:0.5 58:0.500002 59:0.5 60:0.499998 
-0 0.6633529758317533 0 0 1:0.70242 2:0.300777 3:0.204118 4:0.611943 5:0.70242 6:0.300777 7:0.204118 8:0.611943 9:0.687539 10:0.297059 11:0.210088 12:0.628419 13:0.883967 14:0.240615 15:0.400804 16:-0.00791553 17:0.536912 18:0.199801 19:0.808559 20:-0.134303 21:0.5 22:0.500002 23:0.5 24:0.499998 25:0.711955 26:0.371249 27:-0.402017 28:0.440087 29:0.491203 30:0.163792 31:-0.653618 32:0.551973 33:0.5 34:0.500002 35:0.5 36:0.499998 37:0.00764768 38:0.726183 39:0.686641 40:0.0335227 41:0.0574632 42:0.604372 43:0.793642 44:-0.0395582 45:0.5 46:0.500002 47:0.5 48:0.499998 49:-0.212146 50:0.713103 51:0.668016 52:-0.0152477 53:-0.0855283 54:0.739793 55:0.654566 56:-0.130134 57:0.5 58:0.500002 59:0.5 60:0.499998 
-0 0 1.555580886942971 0 1:0.589664 2:0.418397 3:0.378099 4:0.57817 5:0.589664 6:0.418397 7:0.378099 8:0.57817 9:0.634122 10:0.458365 11:0.331308 12:0.527281 13:0.647579 14:0.644011 15:0.271319 16:-0.303771 17:-0.49654 18:-0.480945 19:-0.496407 20:0.52509 21:0.5 22:0.500002 23:0.5 24:0.499998 25:0.707717 26:0.56913 27:-0.332809 28:0.2539 29:-0.514638 30:-0.419374 31:0.588875 32:-0.460977 33:0.5 34:0.500002 35:0.5 36:0.499998 37:0.571022 38:0.509317 39:0.405327 40:0.50024 41:0.439214 42:0.402271 43:0.51139 44:0.619475 45:0.5 46:0.500002 47:0.5 48:0.499998 49:0.582443 50:0.416822 51:0.384839 52:0.582168 53:0.537139 54:0.328805 55:0.479403 56:0.61118 57:0.5 58:0.500002 59:0.5 60:0.499998 
-0 0 0 0.2187671686523056 1:0.5236 2:0.588084 3:0.483623 4:0.382242 5:0.5236 6:0.588084 7:0.483623 8:0.382242 9:0.526001 10:0.598755 11:0.472007 12:0.376862 13:0.728133 14:0.679201 15:0.0103224 16:-0.0916598 17:0.627516 18:0.544732 19:0.36947 20:-0.415912 21:0.5 22:0.500002 23:0.5 24:0.499998 25:0.875652 26:0.480704 27:0.0352924 28:0.0302122 29:0.701386 30:0.353734 31:-0.525422 32:0.326896 33:0.5 34:0.500002 35:0.5 36:0.499998 37:0.393218 38:0.602051 39:0.573247 40:0.392814 41:0.39032 42:0.584015 43:0.591755 44:0.395478 45:0.5 46:0.500002 47:0.5 48:0.499998 49:0.47921 50:0.534475 51:0.547891 52:0.429545 53:0.469076 54:0.580201 55:0.504681 56:0.434317 57:0.5 58:0.500002 59:0.5 60:0.499998 
-0 0.07949688980284574 0 0 1:0.516914 2:0.579947 3:0.480758 4:0.406612 5:0.516914 6:0.579947 7:0.480758 8:0.406612 9:0.524296 10:0.588769 11:0.46993 12:0.397026 13:0.708244 14:0.686733 15:0.0546697 16:-0.15427 17:0.584649 18:0.515962 19:0.403465 20:-0.478732 21:0.5 22:0.500002 23:0.5 24:0.499998 25:0.879484 26:0.464059 27:-0.0708118 28:0.078374 29:0.651693 30:0.318739 31:-0.594813 32:0.346264 33:0.5 34:0.500002 35:0.5 36:0.499998 37:0.392465 38:0.591348 39:0.572239 40:0.410879 41:0.43479 42:0.591427 43:0.569043 44:0.370623 45:0.5 46:0.500002 47:0.5 48:0.499998 49:0.488798 50:0.527624 51:0.541966 52:0.434698 53:0.475206 54:0.57303 55:0.499451 56:0.44313 57:0.5 58:0.500002 59:0.5 60:0.499998 
-0 0 0.4704997464398163 0 1:0.52623 2:0.604088 3:0.439799 4:0.405876 5:0.52623 6:0.604088 7:0.439799 8:0.405876 9:0.531488 10:0.605954 11:0.43616 12:0.400131 13:0.222223 14:0.838445 15:0.242487 16:-0.434541 17:-0.0607078 18:-0.482654 19:-0.323261 20:0.811703 21:0.5 22:0.500002 23:0.5 24:0.499998 25:0.955285 26:0.151839 27:-0.236937 28:0.0907546 29:-0.60098 30:-0.0625178 31:0.779443 32:-0.165478 33:0.5 34:0.500002 35:0.5 36:0.499998 37:0.405306 38:0.580765 39:0.574705 40:0.410065 41:0.446834 42:0.595956 43:0.555608 44:0.369425 45:0.5 46:0.500002 47:0.5 48:0.499998 49:0.508136 50:0.52162 51:0.53456 52:0.428901 53:0.476513 54:0.563266 55:0.496815 56:0.456991 57:0.5 58:0.500002 59:0.5 60:0.499998 
-0 0 0 0.2463055009175024 1:0.526689 2:0.603169 3:0.449109 4:0.396342 5:0.526689 6:0.603169 7:0.449109 8:0.396342 9:0.529161 10:0.607443 11:0.443705 12:0.392591 13:0.156519 14:0.889043 15:0.139686 16:-0.40693 17:-0.0558644 18:-0.526742 19:-0.20221 20:0.823731 21:0.5 22:0.500002 23:0.5 24:0.499998 25:0.974074 26:0.117722 27:-0.181249 28:0.0668617 29:-0.636137 30:-0.0482775 31:0.759605 32:-0.126486 33:0.5 34:0.500002 35:0.5 36:0.499998 37:0.409356 38:0.590869 39:0.570922 40:0.396673 41:0.41933 42:0.584772 43:0.576624 44:0.386922 45:0.5 46:0.500002 47:0.5 48:0.499998 49:0.5004 50:0.522765 51:0.54181 52:0.427504 53:0.475423 54:0.569886 55:0.498895 56:0.447556 57:0.5 58:0.500002 59:0.5 60:0.499998 
-0.0867464201064638 0 0 0 1:0.511298 2:0.598725 3:0.46624 4:0.403389 5:0.511298 6:0.598725 7:0.46624 8:0.403389 9:0.514088 10:0.605414 11:0.458296 12:0.398939 13:0.343421 14:0.859723 15:0.149865 16:-0.347101 17:-0.194746 18:-0.503672 19:-0.320112 20:0.778406 21:0.5 22:0.500002 23:0.5 24:0.499998 25:0.956251 26:0.225206 27:-0.169217 28:0.078937 29:-0.602031 30:-0.115808 31:0.761978 32:-0.208657 33:0.5 34:0.500002 35:0.5 36:0.499998 37:0.406206 38:0.600093 39:0.569755 40:0.387639 41:0.402422 42:0.583997 43:0.586181 44:0.391657 45:0.5 46:0.500002 47:0.5 48:0.499998 49:0.49367 50:0.536277 51:0.540408 52:0.420305 53:0.475909 54:0.572455 55:0.507302 56:0.43411 57:0.5 58:0.500002 59:0.5 60:0.499998 
-0.005075291830680546 0 0 0 1:0.515034 2:0.594268 3:0.467417 4:0.403865 5:0.515034 6:0.594268 7:0.467417 8:0.403865 9:0.514298 10:0.603642 11:0.457517 12:0.402234 13:0.468037 14:0.820608 15:0.126246 16:-0.302663 17:-0.298279 18:-0.474114 19:-0.382134 20:0.734996 21:0.5 22:0.500002 23:0.5 24:0.499998 25:0.923296 26:0.34235 27:-0.159606 28:0.0696143 29:-0.597548 30:-0.21478 31:0.721725 32:-0.275535 33:0.5 34:0.500002 35:0.5 36:0.499998 37:0.391868 38:0.597112 39:0.570819 40:0.405046 41:0.447481 42:0.592538 43:0.569601 44:0.352439 45:0.5 46:0.500002 47:0.5 48:0.499998 49:0.497061 50:0.537531 51:0.536623 52:0.419554 53:0.47192 54:0.569457 55:0.507742 56:0.441824 57:0.5 58:0.500002 59:0.5 60:0.499998 
-0 1.003405042813278 0 0.0166428240129225 1:0.504996 2:0.596828 3:0.492171 4:0.382809 5:0.504996 6:0.596828 7:0.492171 8:0.382809 9:0.510991 10:0.606657 11:0.480424 12:0.37423 13:0.771445 14:0.612715 15:0.150302 16:-0.0828426 17:0.42801 18:0.366216 19:0.659185 20:-0.498165 21:0.5 22:0.500002 23:0.5 24:0.499998 25:0.830401 26:0.542682 27:-0.084078 28:0.0941352 29:-0.566278 30:-0.344108 31:0.613159 32:-0.430064 33:0.5 34:0.500002 35:0.5 36:0.499998 37:0.3949 38:0.614984 39:0.572197 40:0.372075 41:0.377484 42:0.584309 43:0.603545 44:0.389644 45:0.5 46:0.500002 47:0.5 48:0.499998 49:0.483836 50:0.550196 51:0.548285 52:0.4032 53:0.455015 54:0.587667 55:0.514344 56:0.427854 57:0.5 58:0.500002 59:0.5 60:0.499998 
-0 0.6574647174073435 0 0 1:0.560358 2:0.560516 3:0.437527 4:0.424724 5:0.560358 6:0.560516 7:0.437527 8:0.424724 9:0.562924 10:0.566054 11:0.431123 12:0.420515 13:0.598139 14:0.689058 15:0.173026 16:-0.370797 17:0.584127 18:0.594243 19:0.252326 20:-0.491938 21:0.5 22:0.500002 23:0.5 24:0.499998 25:0.753476 26:0.49895 27:-0.33455 28:0.267208 29:-0.572568 30:-0.361994 31:0.59314 32:-0.435099 33:0.5 34:0.500002 35:0.5 36:0.499998 37:0.439403 38:0.581411 39:0.529055 40:0.434727 41:0.467878 42:0.558559 43:0.550299 44:0.407766 45:0.5 46:0.500002 47:0.5 48:0.499998 49:0.51772 50:0.4961 51:0.514568 52:0.470181 53:0.501709 54:0.542041 55:0.471472 56:0.481866 57:0.5 58:0.500002 59:0.5 60:0.499998 
-0 0 0 0.0996863484397609 1:0.598546 2:0.54157 3:0.382672 4:0.449453 5:0.598546 6:0.54157 7:0.382672 8:0.449453 9:0.59615 10:0.546049 11:0.378754 12:0.450533 13:0.607663 14:0.69398 15:0.186929 16:-0.337929 17:0.631612 18:0.57883 19:0.231617 20:-0.460843 21:0.5 22:0.500002 23:0.5 24:0.499998 25:0.675956 26:0.365954 27:-0.51827 28:0.37491 29:-0.511884 30:-0.251788 31:0.680805 32:-0.459437 33:0.5 34:0.500002 35:0.5 36:0.499998 37:0.505874 38:0.562128 39:0.484883 40:0.439308 41:0.447301 42:0.492641 43:0.555779 44:0.498333 45:0.5 46:0.500002 47:0.5 48:0.499998 49:0.553948 50:0.45322 51:0.489895 52:0.497732 53:0.527838 54:0.500427 55:0.445977 56:0.521598 57:0.5 58:0.500002 59:0.5 60:0.499998 
-0 0.120358867932388 1.406171467287299 0 1:0.587422 2:0.535772 3:0.389603 4:0.464859 5:0.587422 6:0.535772 7:0.389603 8:0.464859 9:0.587756 10:0.540357 11:0.384696 12:0.463214 13:0.61204 14:0.661951 15:0.22195 16:-0.371438 17:0.60238 18:0.561038 19:0.288531 20:-0.489004 21:0.5 22:0.500002 23:0.5 24:0.499998 25:0.674335 26:0.378567 27:-0.503709 28:0.385015 29:-0.534734 30:-0.264223 31:0.64598 32:-0.476398 33:0.5 34:0.500002 35:0.5 36:0.499998 37:0.48413 38:0.543142 39:0.504951 40:0.464369 41:0.501694 42:0.52937 43:0.51746 44:0.447556 45:0.5 46:0.500002 47:0.5 48:0.499998 49:0.552154 50:0.450168 51:0.493339 52:0.49909 53:0.528621 54:0.499517 55:0.447606 56:0.520281 57:0.5 58:0.500002 59:0.5 60:0.499998 
-0 0 0.08616074038508884 0 1:0.548384 2:0.544134 3:0.400652 4:0.492616 5:0.548384 6:0.544134 7:0.400652 8:0.492616 9:0.561222 10:0.544347 11:0.397577 12:0.480258 13:-0.496718 14:-0.587183 15:-0.389181 16:0.506977 17:-0.403594 18:-0.475813 19:-0.486978 20:0.611201 21:0.5 22:0.500002 23:0.5 24:0.499998 25:0.736331 26:0.555358 27:-0.271896 28:0.274712 29:0.654009 30:0.493871 31:-0.428504 32:0.380457 33:0.5 34:0.500002 35:0.5 36:0.499998 37:0.492045 38:0.565958 39:0.492489 40:0.441631 41:0.490344 42:0.53409 43:0.525491 44:0.445164 45:0.5 46:0.500002 47:0.5 48:0.499998 49:0.551077 50:0.476985 51:0.486031 52:0.482258 53:0.524894 54:0.5198 55:0.446627 56:0.504795 57:0.5 58:0.500002 59:0.5 60:0.499998 
-0.08508800281277842 0 0 0.2611983567069256 1:0.528457 2:0.53857 3:0.421368 4:0.503115 5:0.528457 6:0.53857 7:0.421368 8:0.503115 9:0.545605 10:0.541311 11:0.415485 12:0.486487 13:-0.476397 14:-0.552102 15:-0.434058 16:0.528983 17:-0.340258 18:-0.387266 19:-0.547343 20:0.659291 21:0.5 22:0.500002 23:0.5 24:0.499998 25:0.718148 26:0.617542 27:-0.214361 28:0.23865 29:0.712871 30:0.528252 31:-0.299578 32:0.350739 33:0.5 34:0.500002 35:0.5 36:0.499998 37:0.492258 38:0.580414 39:0.4882 40:0.427157 41:0.476902 42:0.537243 43:0.534591 44:0.445137 45:0.5 46:0.500002 47:0.5 48:0.499998 49:0.552271 50:0.491786 51:0.486336 52:0.465425 53:0.51577 54:0.528875 55:0.452864 56:0.499187 57:0.5 58:0.500002 59:0.5 60:0.499998 
-0 2.125952543618513 0 0 1:0.533603 2:0.536363 3:0.422663 4:0.498937 5:0.533603 6:0.536363 7:0.422663 8:0.498937 9:0.548819 10:0.540292 11:0.415775 12:0.48375 13:-0.47418 14:-0.555956 15:-0.437679 16:0.523932 17:-0.330401 18:-0.384322 19:-0.554297 20:0.660217 21:0.5 22:0.500002 23:0.5 24:0.499998 25:0.730774 26:0.60274 27:-0.211459 28:0.240747 29:0.68975 30:0.536603 31:-0.334741 32:0.352492 33:0.5 34:0.500002 35:0.5 36:0.499998 37:0.496715 38:0.579991 39:0.487638 40:0.423194 41:0.46908 42:0.536961 43:0.534461 44:0.453859 45:0.5 46:0.500002 47:0.5 48:0.499998 49:0.545163 50:0.49409 51:0.483958 52:0.473768 53:0.525568 54:0.530702 55:0.45029 56:0.489257 57:0.5 58:0.500002 59:0.5 60:0.499998 
-0 0 0.8169133649219934 0 1:0.495664 2:0.507053 3:0.514166 4:0.482542 5:0.495664 6:0.507053 7:0.514166 8:0.482542 9:0.495983 10:0.509145 11:0.51211 12:0.4822 13:0.52804 14:0.796872 15:0.244738 16:-0.162088 17:-0.277672 18:-0.542713 19:-0.511489 20:0.605591 21:0.5 22:0.500002 23:0.5 24:0.499998 25:0.700895 26:0.610069 27:-0.0775869 28:0.361306 29:0.520548 30:0.279974 31:-0.475714 32:0.651414 33:0.5 34:0.500002 35:0.5 36:0.499998 37:0.240174 38:0.587366 39:0.69089 40:0.346394 41:0.286149 42:0.648142 43:0.6342 44:0.30955 45:0.5 46:0.500002 47:0.5 48:0.499998 49:0.725716 50:-0.41351 51:-0.245741 52:0.491892 53:0.462871 54:-0.277791 55:-0.392697 56:0.744561 57:0.5 58:0.500002 59:0.5 60:0.499998 
-0.03583010355187908 0 0 0 1:0.512125 2:0.487634 3:0.506241 4:0.493621 5:0.512125 6:0.487634 7:0.506241 8:0.493621 9:0.508437 10:0.490579 11:0.50338 12:0.497426 13:0.523037 14:0.805297 15:0.232019 16:-0.15523 17:-0.26674 18:-0.53586 19:-0.506212 20:0.620849 21:0.5 22:0.500002 23:0.5 24:0.499998 25:0.67453 26:0.644704 27:-0.0663356 28:0.353504 29:0.499065 30:0.302553 31:-0.458612 32:0.670127 33:0.5 34:0.500002 35:0.5 36:0.499998 37:0.271518 38:0.593284 39:0.671288 40:0.351659 41:0.289209 42:0.636815 43:0.629563 44:0.338343 45:0.5 46:0.500002 47:0.5 48:0.499998 49:0.700949 50:-0.421099 51:-0.263047 52:0.512007 53:0.47417 54:-0.300637 55:-0.395141 56:0.727079 57:0.5 58:0.500002 59:0.5 60:0.499998 
-0.2372359543096452 -0 0 0 1:0.638936 2:0.310807 3:0.68923 4:0.141849 5:0.638936 6:0.310807 7:0.68923 8:0.141849 9:0.446332 10:0.532285 11:0.574122 12:0.43341 13:2.08064e-05 14:0.707079 15:7.23321e-05 16:0.707134 17:-0.00369891 18:0.710961 19:0.00766409 20:0.70318 21:0.5 22:0.500002 23:0.5 24:0.499998 25:0.734249 26:0.404683 27:0.0425082 28:0.543417 29:0.283664 30:-0.378408 31:-0.678575 32:0.56203 33:0.5 34:0.500002 35:0.5 36:0.499998 37:-0.35604 38:0.652231 39:0.611277 40:-0.272343 41:-0.294526 42:0.527861 43:0.720399 44:-0.340062 45:0.5 46:0.500002 47:0.5 48:0.499998 49:0.699993 50:-0.275208 51:-0.252408 52:0.608736 53:0.589753 54:-0.200744 55:-0.328356 56:0.709983 57:0.5 58:0.500002 59:0.5 60:0.499998 
-0 -0 6.737495732110865 0 1:0.505021 2:0.471278 3:0.607057 4:0.392852 5:0.505021 6:0.471278 7:0.607057 8:0.392852 9:0.460056 10:0.51959 11:0.565123 12:0.446107 13:-2.13837e-06 14:0.707107 15:2.18051e-06 16:0.707106 17:-0.00076188 18:0.707907 19:0.00157978 20:0.706303 21:0.5 22:0.500002 23:0.5 24:0.499998 25:0.700322 26:0.460284 27:-0.0579988 28:0.542516 29:0.185479 30:-0.351956 31:-0.6778 32:0.618314 33:0.5 34:0.500002 35:0.5 36:0.499998 37:-0.346227 38:0.659678 39:0.618057 40:-0.250914 41:-0.287279 42:0.546341 43:0.718659 44:-0.320174 45:0.5 46:0.500002 47:0.5 48:0.499998 49:0.699139 50:-0.304869 51:-0.255613 52:0.594072 53:0.58311 54:-0.226298 55:-0.338897 56:0.702795 57:0.5 58:0.500002 59:0.5 60:0.499998 
-0 -0 32 0 1:0.522996 2:0.445579 3:0.645462 4:0.333636 5:0.522996 6:0.445579 7:0.645462 8:0.333636 9:0.482755 10:0.477531 11:0.622575 12:0.388989 13:-2.48177e-06 14:0.707107 15:1.21736e-06 16:0.707106 17:-0.000617202 18:0.707756 19:0.00128003 20:0.706456 21:0.5 22:0.500002 23:0.5 24:0.499998 25:0.633481 26:0.449351 27:-0.173757 28:0.60547 29:0.0995164 30:-0.369758 31:-0.649297 32:0.657106 33:0.5 34:0.500002 35:0.5 36:0.499998 37:-0.342144 38:0.67356 39:0.596555 40:-0.270882 41:-0.2841 42:0.536742 43:0.723192 44:-0.32892 45:0.5 46:0.500002 47:0.5 48:0.499998 49:0.682877 50:-0.301222 51:-0.238718 52:0.621256 53:0.58332 54:-0.213643 55:-0.339568 56:0.70625 57:0.5 58:0.500002 59:0.5 60:0.499998 
-0 -0 8.321905415778669 0 1:0.505437 2:0.444024 3:0.676637 4:0.29923 5:0.505437 6:0.444024 7:0.676637 8:0.29923 9:0.483267 10:0.468423 11:0.661056 12:0.33172 13:-2.62447e-06 14:0.707108 15:8.54304e-07 16:0.707106 17:-0.000555474 18:0.707691 19:0.0011523 20:0.706521 21:0.5 22:0.500002 23:0.5 24:0.499998 25:0.639524 26:0.423505 27:-0.196548 28:0.610755 29:0.108515 30:-0.358547 31:-0.660187 32:0.651016 33:0.5 34:0.500002 35:0.5 36:0.499998 37:-0.293058 38:0.726841 39:0.582993 40:-0.214332 41:-0.227596 42:0.551177 43:0.751254 44:-0.282881 45:0.5 46:0.500002 47:0.5 48:0.499998 49:0.664535 50:-0.285249 51:-0.20512 52:0.659509 53:0.594239 54:-0.194058 55:-0.317945 56:0.712834 57:0.5 58:0.500002 59:0.5 60:0.499998 
-0.284373394320423 -0 0 0.7045038905051674 1:0.534157 2:0.45757 3:0.327165 4:0.631086 5:0.534157 6:0.45757 7:0.327165 8:0.631086 9:0.537403 10:0.447838 11:0.338943 12:0.629092 13:0.304485 14:0.544052 15:0.781828 16:0.00647529 17:-0.385148 18:0.364619 19:0.745404 20:-0.403841 21:0.5 22:0.500002 23:0.5 24:0.499998 25:0.390795 26:-0.26542 27:0.586156 28:0.658219 29:0.571597 30:-0.479472 31:0.411797 32:0.523265 33:0.5 34:0.500002 35:0.5 36:0.499998 37:-0.0493237 38:0.68017 39:0.730841 40:0.0284322 41:0.0419883 42:0.617062 43:0.780157 44:-0.0939486 45:0.5 46:0.500002 47:0.5 48:0.499998 49:0.56553 50:-0.531414 51:-0.516088 52:0.362531 53:0.426769 54:-0.50713 55:-0.524051 56:0.534843 57:0.5 58:0.500002 59:0.5 60:0.499998 
-0 -0 7.049196911043335 0 1:0.428258 2:0.53907 3:0.287216 4:0.665962 5:0.428258 6:0.53907 7:0.287216 8:0.665962 9:0.53124 10:0.428234 11:0.43235 12:0.589468 13:0.451456 14:0.556645 15:0.685845 16:-0.126295 17:0.398748 18:-0.145885 19:-0.717772 20:0.551835 21:0.5 22:0.500002 23:0.5 24:0.499998 25:0.451545 26:-0.27659 27:0.590198 28:0.609321 29:0.599957 30:-0.437542 31:0.438495 32:0.506291 33:0.5 34:0.500002 35:0.5 36:0.499998 37:-0.080089 38:0.70201 39:0.707153 40:-0.0265101 41:-0.00158306 42:0.604168 43:0.785583 44:-0.13356 45:0.5 46:0.500002 47:0.5 48:0.499998 49:0.573583 50:-0.522619 51:-0.479362 52:0.409981 53:0.42977 54:-0.46795 55:-0.512453 56:0.577679 57:0.5 58:0.500002 59:0.5 60:0.499998 
-0 -0 0.3203392110188461 0 1:0.488758 2:0.454573 3:0.328816 4:0.668101 5:0.488758 6:0.454573 7:0.328816 8:0.668101 9:0.539436 10:0.420285 11:0.372121 12:0.627611 13:0.404946 14:0.544821 15:0.720635 16:-0.140973 17:0.436682 18:-0.138726 19:-0.701858 20:0.545398 21:0.5 22:0.500002 23:0.5 24:0.499998 25:0.43811 26:-0.253033 27:0.612244 28:0.607611 29:0.615951 30:-0.439758 31:0.432883 32:0.489724 33:0.5 34:0.500002 35:0.5 36:0.499998 37:-0.0302199 38:0.708159 39:0.705385 40:0.00537617 41:0.0406012 42:0.614041 43:0.78324 44:-0.0885501 45:0.5 46:0.500002 47:0.5 48:0.499998 49:-0.53707 50:0.54055 51:0.513827 52:-0.394137 53:0.407226 54:-0.501376 55:-0.534269 56:0.545294 57:0.5 58:0.500002 59:0.5 60:0.499998 
-0 -0 9.401203128452181 0 1:0.549314 2:0.499407 3:0.0794277 4:0.665235 5:0.549314 6:0.499407 7:0.0794277 8:0.665235 9:0.621656 10:0.252984 11:0.368376 12:0.643305 13:0.735455 14:0.341047 15:0.559573 16:0.172253 17:-0.352274 18:0.256603 19:0.850419 20:-0.294694 21:0.5 22:0.500002 23:0.5 24:0.499998 25:0.369794 26:-0.414615 27:0.354908 28:0.751922 29:0.470508 30:-0.651247 31:0.203298 32:0.559616 33:0.5 34:0.500002 35:0.5 36:0.499998 37:0.114773 38:0.737551 39:0.662046 40:0.067388 41:0.157119 42:0.623662 43:0.765472 44:0.0203153 45:0.5 46:0.500002 47:0.5 48:0.499998 49:0.567927 50:-0.491683 51:-0.381918 52:0.538373 53:0.489537 54:-0.435671 55:-0.444813 56:0.61048 57:0.5 58:0.500002 59:0.5 60:0.499998 
-0.701200116100394 -0 0 0 1:0.428274 2:0.35598 3:0.564685 4:0.60909 5:0.428274 6:0.35598 7:0.564685 8:0.60909 9:0.441938 10:0.375846 11:0.5486 12:0.602053 13:0.0422585 14:0.794734 15:0.124154 16:0.592619 17:0.124297 18:0.42861 19:-0.292663 20:0.84569 21:0.5 22:0.500002 23:0.5 24:0.499998 25:0.377728 26:0.0693203 27:0.922393 28:0.0413189 29:0.803391 30:0.0375918 31:0.589958 32:0.0714101 33:0.5 34:0.500002 35:0.5 36:0.499998 37:-0.0755583 38:0.686355 39:0.704251 40:-0.165037 41:-0.0963335 42:0.607319 43:0.779004 44:-0.122622 45:0.5 46:0.500002 47:0.5 48:0.499998 49:0.720389 50:-0.21841 51:-0.239799 52:0.613052 53:0.624665 54:-0.187846 55:-0.261799 56:0.711315 57:0.5 58:0.500002 59:0.5 60:0.499998 
-0 -0 20.14394660162926 0 1:0.437355 2:0.383567 3:0.224516 4:0.781786 5:0.437355 6:0.383567 7:0.224516 8:0.781786 9:0.447243 10:0.380581 11:0.229911 12:0.776062 13:-2.35235e-06 14:0.707108 15:2.45001e-07 16:0.707105 17:5.08114e-06 18:0.707108 19:7.6471e-06 20:0.707105 21:0.5 22:0.500002 23:0.5 24:0.499998 25:0.707108 26:1.04579e-06 27:0.707105 28:-1.55155e-06 29:0.707108 30:8.6053e-06 31:0.707105 32:6.01953e-06 33:0.5 34:0.500002 35:0.5 36:0.499998 37:0.0119455 38:0.540563 39:0.840045 40:0.0444177 41:0.0853133 42:0.606115 43:0.789351 44:-0.047667 45:0.5 46:0.500002 47:0.5 48:0.499998 49:0.808556 50:-0.288201 51:-0.1992 52:0.472754 53:0.611239 54:-0.207904 55:-0.281986 56:0.70968 57:0.5 58:0.500002 59:0.5 60:0.499998 
-3.528536836583547 -0.5588374786979717 32 0 1:0.451843 2:0.418538 3:0.260038 4:0.743669 5:0.451843 6:0.418538 7:0.260038 8:0.743669 9:0.462457 10:0.412652 11:0.269642 12:0.736984 13:-2.35235e-06 14:0.707108 15:2.45001e-07 16:0.707105 17:5.06737e-06 18:0.707108 19:7.66088e-06 20:0.707105 21:0.5 22:0.500002 23:0.5 24:0.499998 25:0.707108 26:1.04579e-06 27:0.707105 28:-1.55155e-06 29:0.707108 30:8.61039e-06 31:0.707105 32:6.01443e-06 33:0.5 34:0.500002 35:0.5 36:0.499998 37:-0.0165747 38:0.572353 39:0.819276 40:0.0303965 41:0.0662151 42:0.606146 43:0.789039 44:-0.0749658 45:0.5 46:0.500002 47:0.5 48:0.499998 49:0.801936 50:-0.295624 51:-0.207815 52:0.475729 53:0.588763 54:-0.205855 55:-0.296992 56:0.723033 57:0.5 58:0.500002 59:0.5 60:0.499998 
-0.1777383564507013 -0 0 0 1:0.398824 2:0.467977 3:0.492845 4:0.615664 5:0.398824 6:0.467977 7:0.492845 8:0.615664 9:0.426346 10:0.481416 11:0.481989 12:0.595109 13:-2.35235e-06 14:0.707108 15:2.45001e-07 16:0.707105 17:5.06561e-06 18:0.707108 19:7.66263e-06 20:0.707105 21:0.5 22:0.500002 23:0.5 24:0.499998 25:0.50386 26:-0.107895 27:0.78518 28:0.343477 29:0.751555 30:-0.223706 31:0.552763 32:0.282088 33:0.5 34:0.500002 35:0.5 36:0.499998 37:-0.17381 38:0.644355 39:0.733834 40:-0.126826 41:-0.117711 42:0.605791 43:0.761506 44:-0.198166 45:0.5 46:0.500002 47:0.5 48:0.499998 49:0.738583 50:-0.28439 51:-0.277977 52:0.544378 53:0.577905 54:-0.226825 55:-0.3163 56:0.717308 57:0.5 58:0.500002 59:0.5 60:0.499998 
-0 -0 0 2.70790113058509 1:0.441379 2:0.309502 3:0.669576 4:0.510941 5:0.441379 6:0.309502 7:0.669576 8:0.510941 9:0.456194 10:0.332401 11:0.657361 12:0.499272 13:-0.274815 14:0.43697 15:0.399755 16:0.757449 17:-0.467853 18:0.822484 19:0.128223 20:0.296971 21:0.5 22:0.500002 23:0.5 24:0.499998 25:0.754128 26:0.116215 27:-0.222995 28:0.606678 29:0.373017 30:-0.348693 31:-0.69231 32:0.50988 33:0.5 34:0.500002 35:0.5 36:0.499998 37:0.486334 38:0.689156 39:0.413297 40:0.343116 41:0.456529 42:0.592908 43:0.537632 44:0.388578 45:0.5 46:0.500002 47:0.5 48:0.499998 49:0.53148 50:0.654326 51:0.370602 52:0.389924 53:0.501866 54:0.563781 55:0.490602 56:0.435421 57:0.5 58:0.500002 59:0.5 60:0.499998 
-0 -2.01920760888838 0 0 1:0.413874 2:0.37966 3:0.767532 4:0.308968 5:0.413874 6:0.37966 7:0.767532 8:0.308968 9:0.414227 10:0.405992 11:0.752123 12:0.312885 13:0.553947 14:-0.540959 15:-0.47465 16:-0.418585 17:0.600759 18:-0.554937 19:-0.423904 20:-0.389152 21:0.5 22:0.500002 23:0.5 24:0.499998 25:0.691309 26:0.322684 27:-0.126334 28:0.634041 29:0.421655 30:-0.193717 31:-0.562205 32:0.684548 33:0.5 34:0.500002 35:0.5 36:0.499998 37:0.193504 38:0.810971 39:0.539493 40:0.117596 41:0.183296 42:0.684557 43:0.692193 44:0.136579 45:0.5 46:0.500002 47:0.5 48:0.499998 49:0.352982 50:0.78299 51:0.435666 52:0.269305 53:0.3696 54:0.663671 55:0.593053 56:0.266879 57:0.5 58:0.500002 59:0.5 60:0.499998 
-0 -0 0 5.562282619152945 1:0.475051 2:0.270629 3:0.488114 4:0.680317 5:0.475051 6:0.270629 7:0.488114 8:0.680317 9:0.490359 10:0.279881 11:0.483922 12:0.668606 13:-0.0119073 14:0.713558 15:0.00425141 16:0.700482 17:-0.0758193 18:0.718223 19:0.0385009 20:0.690598 21:0.5 22:0.500002 23:0.5 24:0.499998 25:0.729791 26:-0.0121891 27:0.683174 28:0.0230151 29:0.569743 30:0.144726 31:0.808976 32:-0.00230871 33:0.5 34:0.500002 35:0.5 36:0.499998 37:0.562665 38:0.58942 39:0.369367 40:0.446722 41:0.55715 42:0.525666 43:0.443942 44:0.464946 45:0.5 46:0.500002 47:0.5 48:0.499998 49:0.551608 50:0.507529 51:0.389 52:0.535558 53:0.597224 54:0.498426 55:0.388309 56:0.494075 57:0.5 58:0.500002 59:0.5 60:0.499998 
-0 -0 0 7.113287625626657 1:0.470772 2:0.281308 3:0.499664 4:0.670504 5:0.470772 6:0.281308 7:0.499664 8:0.670504 9:0.487368 10:0.290399 11:0.496329 12:0.657114 13:-0.00952643 14:0.712282 15:0.00340137 16:0.701821 17:-0.0682529 18:0.717357 19:0.0346602 20:0.692488 21:0.5 22:0.500002 23:0.5 24:0.499998 25:0.725356 26:-0.00975203 27:0.688058 28:0.0184138 29:0.584892 30:0.130463 31:0.800547 32:-0.00208126 33:0.5 34:0.500002 35:0.5 36:0.499998 37:0.550687 38:0.589093 39:0.392263 40:0.442542 41:0.56002 42:0.542476 43:0.44184 44:0.443707 45:0.5 46:0.500002 47:0.5 48:0.499998 49:0.550189 50:0.51318 51:0.404522 52:0.519904 53:0.587467 54:0.512819 55:0.396714 56:0.48427 57:0.5 58:0.500002 59:0.5 60:0.499998 
-0 -0 0 2.203024758014878 1:0.464584 2:0.248654 3:0.509835 4:0.680001 5:0.464584 6:0.248654 7:0.509835 8:0.680001 9:0.479728 10:0.263363 11:0.500151 12:0.671082 13:-0.00487831 14:0.709771 15:0.00174219 16:0.704414 17:-0.0497781 18:0.715015 19:0.0252822 20:0.696876 21:0.5 22:0.500002 23:0.5 24:0.499998 25:0.716552 26:-0.00499294 27:0.697452 28:0.00942876 29:0.620591 30:0.0954122 31:0.778306 32:-0.00152215 33:0.5 34:0.500002 35:0.5 36:0.499998 37:0.560428 38:0.581086 39:0.384172 40:0.447963 41:0.568809 42:0.530222 43:0.438378 44:0.450718 45:0.5 46:0.500002 47:0.5 48:0.499998 49:0.563617 50:0.494635 51:0.40604 52:0.522307 53:0.601697 54:0.52599 55:0.365244 56:0.47738 57:0.5 58:0.500002 59:0.5 60:0.499998 
-0 -0 0 0.1501647653499721 1:0.0548029 2:0.65768 3:0.572658 4:0.48633 5:8.03084e-05 6:0.707288 7:0.000137957 8:0.706926 9:0.00223989 10:0.695712 11:-0.0115731 12:0.718224 13:0.5 14:0.500002 15:0.5 16:0.499998 17:0.707108 18:1.04579e-06 19:0.707105 20:-1.55155e-06 21:0.707108 22:8.6111e-06 23:0.707105 24:6.01372e-06 25:0.5 26:0.500002 27:0.5 28:0.499998 29:-0.0251346 30:0.56669 31:0.815199 32:-0.116964 33:-0.0204411 34:0.686926 35:0.71374 36:-0.135237 37:0.5 38:0.500002 39:0.5 40:0.499998 41:0.714716 42:0.480487 43:0.257704 44:0.438066 45:0.620465 46:0.408441 47:0.3584 48:0.565463 49:0.5 50:0.500002 51:0.5 52:0.499998 53:0.0640271 54:0.641886 55:0.571765 56:0.50692 57:0.0640271 58:0.641886 59:0.571765 60:0.50692 
-0 -0.7242999776388702 0 0 1:0.285448 2:0.683122 3:0.486578 4:0.463795 5:-2.26696e-06 6:0.707109 7:4.9678e-07 8:0.707105 9:0.000142831 10:0.70638 11:-0.000747285 12:0.707832 13:0.5 14:0.500002 15:0.5 16:0.499998 17:0.707108 18:1.04579e-06 19:0.707105 20:-1.55155e-06 21:0.707108 22:8.6111e-06 23:0.707105 24:6.01372e-06 25:0.5 26:0.500002 27:0.5 28:0.499998 29:0.0987979 30:0.602244 31:0.790265 32:0.054972 33:0.126086 34:0.674137 35:0.727467 36:0.0208426 37:0.5 38:0.500002 39:0.5 40:0.499998 41:0.782515 42:0.33091 43:0.177775 44:0.496553 45:0.635427 46:0.264015 47:0.267638 48:0.674462 49:0.5 50:0.500002 51:0.5 52:0.499998 53:0.253288 54:0.691616 55:0.497133 56:0.458663 57:0.253288 58:0.691616 59:0.497133 60:0.458663 
-0 -0 0.6955545164131685 0 1:0.330444 2:0.635614 3:0.488412 4:0.498253 5:-2.35692e-06 6:0.707108 7:2.49575e-07 8:0.707105 9:3.84467e-05 10:0.706923 11:-0.000185871 12:0.70729 13:0.5 14:0.500002 15:0.5 16:0.499998 17:0.707108 18:1.04579e-06 19:0.707105 20:-1.55155e-06 21:0.707108 22:8.6111e-06 23:0.707105 24:6.01372e-06 25:0.5 26:0.500002 27:0.5 28:0.499998 29:0.123607 30:0.59591 31:0.786127 32:0.10778 33:0.21058 34:0.669807 35:0.711916 36:0.0137962 37:0.5 38:0.500002 39:0.5 40:0.499998 41:0.796019 42:0.247369 43:0.149963 44:0.53167 45:0.665973 46:0.23445 47:0.173929 48:0.686485 49:0.5 50:0.500002 51:0.5 52:0.499998 53:0.319864 54:0.614755 55:0.494581 56:0.52455 57:0.319864 58:0.614755 59:0.494581 60:0.52455 
-0 -0 0 0.1269038531284267 1:0.284589 2:0.61282 3:0.517333 4:0.525193 5:-2.35251e-06 6:0.707108 7:2.45162e-07 8:0.707105 9:1.19876e-05 10:0.70707 11:-3.21341e-05 12:0.707144 13:0.5 14:0.500002 15:0.5 16:0.499998 17:0.707108 18:1.04579e-06 19:0.707105 20:-1.55155e-06 21:0.707108 22:8.6111e-06 23:0.707105 24:6.01372e-06 25:0.5 26:0.500002 27:0.5 28:0.499998 29:0.124347 30:0.627605 31:0.767187 32:0.0455455 33:0.179492 34:0.65826 35:0.730816 36:-0.0196112 37:0.5 38:0.500002 39:0.5 40:0.499998 41:0.785821 42:0.277208 43:0.174344 44:0.524639 45:0.655463 46:0.263586 47:0.198926 48:0.679204 49:0.5 50:0.500002 51:0.5 52:0.499998 53:0.299584 54:0.557345 55:0.496831 56:0.593948 57:0.299584 58:0.557345 59:0.496831 60:0.593948 
-0 -0.2423347900456713 0 0 1:0.598562 2:0.255317 3:0.553123 4:0.520183 5:0.598562 6:0.255317 7:0.553123 8:0.520183 9:0.590103 10:0.399737 11:0.433217 12:0.551645 13:-0.36403 14:0.624299 15:0.493414 16:0.484021 17:-0.544239 18:0.773723 19:0.282451 20:0.159303 21:0.5 22:0.500002 23:0.5 24:0.499998 25:0.730833 26:0.350848 27:-0.325112 28:0.48692 29:0.225513 30:-0.14385 31:-0.767437 32:0.582659 33:0.5 34:0.500002 35:0.5 36:0.499998 37:0.184555 38:0.718155 39:0.623849 40:0.246995 41:0.0546402 42:0.0184701 43:0.988151 44:0.142238 45:0.5 46:0.500002 47:0.5 48:0.499998 49:0.732803 50:-0.290658 51:-0.157324 52:0.594783 53:0.725088 54:-0.17607 55:-0.267687 56:0.609582 57:0.5 58:0.500002 59:0.5 60:0.499998 
-0 -0.3389398722559372 0 0 1:0.607012 2:0.31299 3:0.512028 4:0.520961 5:0.607012 6:0.31299 7:0.512028 8:0.520961 9:0.597483 10:0.423415 11:0.417855 12:0.537709 13:-0.359531 14:0.63629 15:0.482303 16:0.482966 17:-0.547313 18:0.79021 19:0.249654 20:0.117 21:0.5 22:0.500002 23:0.5 24:0.499998 25:0.727274 26:0.342314 27:-0.321177 28:0.500738 29:0.206164 30:-0.175176 31:-0.76784 32:0.580716 33:0.5 34:0.500002 35:0.5 36:0.499998 37:-0.101826 38:0.736104 39:0.669128 40:-0.0070719 41:0.0338652 42:0.731397 43:0.667744 44:-0.134273 45:0.5 46:0.500002 47:0.5 48:0.499998 49:0.766693 50:-0.0609274 51:-0.0653352 52:0.635768 53:0.714956 54:-0.121838 55:-0.15609 56:0.670544 57:0.5 58:0.500002 59:0.5 60:0.499998 
-0 -0.3219619427301433 13.27978129850478 0 1:0.632449 2:0.3134 3:0.47468 4:0.525802 5:0.632449 6:0.3134 7:0.47468 8:0.525802 9:0.601777 10:0.426016 11:0.375698 12:0.561449 13:-0.370191 14:0.650137 15:0.498242 16:0.438219 17:-0.576604 18:0.783392 19:0.229814 20:0.0317963 21:0.5 22:0.500002 23:0.5 24:0.499998 25:0.73036 26:0.346122 27:-0.322786 28:0.492527 29:0.208154 30:-0.165412 31:-0.770901 32:0.578811 33:0.5 34:0.500002 35:0.5 36:0.499998 37:0.77254 38:-0.261819 39:-0.0966317 40:0.570347 41:0.244587 42:-0.14347 43:-0.239381 44:0.928596 45:0.5 46:0.500002 47:0.5 48:0.499998 49:0.703087 50:0.235613 51:0.233122 52:0.629134 53:0.722623 54:0.0620391 55:0.0349991 56:0.687563 57:0.5 58:0.500002 59:0.5 60:0.499998 
-0 -1.091791345677815 0 0 1:0.592546 2:0.172876 3:0.603776 4:0.504438 5:0.592546 6:0.172876 7:0.603776 8:0.504438 9:0.596974 10:0.473467 11:0.361918 12:0.53709 13:-0.327099 14:0.626799 15:0.56415 16:0.426454 17:-0.52601 18:0.745255 19:0.385451 20:0.139053 21:0.5 22:0.500002 23:0.5 24:0.499998 25:0.777165 26:0.256984 27:-0.315578 28:0.479983 29:-0.208383 30:0.233107 31:0.812497 32:-0.492022 33:0.5 34:0.500002 35:0.5 36:0.499998 37:-0.0542945 38:0.814194 39:0.578046 40:0.00179826 41:-0.0508184 42:0.529623 43:0.846491 44:-0.0191994 45:0.5 46:0.500002 47:0.5 48:0.499998 49:0.511406 50:0.490139 51:0.490024 52:0.50804 53:0.579223 54:0.415063 55:0.408342 56:0.570509 57:0.5 58:0.500002 59:0.5 60:0.499998 
-0 -0.01170380097744256 4.911167428817701 0 1:0.360671 2:0.471368 3:0.668389 4:0.448312 5:0.360671 6:0.471368 7:0.668389 8:0.448312 9:0.427583 10:0.635985 11:0.510882 12:0.389481 13:-0.200515 14:0.419492 15:0.816758 16:0.341653 17:0.73073 18:-0.403483 19:-0.546423 20:-0.0682348 21:0.5 22:0.500002 23:0.5 24:0.499998 25:0.772592 26:0.154085 27:-0.25454 28:0.560864 29:-0.249581 30:0.362363 31:0.774208 32:-0.454976 33:0.5 34:0.500002 35:0.5 36:0.499998 37:-0.248622 38:0.752259 39:0.6062 40:-0.0693904 41:-0.196562 42:0.62453 43:0.739202 44:-0.157817 45:0.5 46:0.500002 47:0.5 48:0.499998 49:0.712328 50:0.00871689 51:-0.00100779 52:0.701792 53:0.739416 54:0.0610762 55:-0.0494511 56:0.668646 57:0.5 58:0.500002 59:0.5 60:0.499998 
-0 -0 2.438646855645182 0 1:0.00311811 2:0.634122 3:0.735272 4:0.23928 5:0.00311811 6:0.634122 7:0.735272 8:0.23928 9:0.0142507 10:0.649319 11:0.724109 12:0.232051 13:-0.0949694 14:0.666762 15:0.386837 16:0.629894 17:-0.560061 18:0.617313 19:0.418801 20:0.360364 21:0.5 22:0.500002 23:0.5 24:0.499998 25:0.883623 26:0.0779022 27:0.364331 28:0.283556 29:0.113916 30:0.27477 31:0.890226 32:-0.344996 33:0.5 34:0.500002 35:0.5 36:0.499998 37:-0.459363 38:0.558113 39:0.564343 40:-0.398763 41:-0.486844 42:0.546836 43:0.571845 44:-0.370063 45:0.5 46:0.500002 47:0.5 48:0.499998 49:0.679604 50:0.411326 51:0.190771 52:0.576677 53:0.626717 54:0.400322 55:0.218964 56:0.631683 57:0.5 58:0.500002 59:0.5 60:0.499998 
-0 -0 2.032410077782134 0 1:-0.0349548 2:0.661907 3:0.734192 4:0.147038 5:-0.0349548 6:0.661907 7:0.734192 8:0.147038 9:-0.031678 10:0.658168 11:0.738614 12:0.142339 13:-0.0104871 14:0.708456 15:0.0427144 16:0.704383 17:-0.215383 18:0.728668 19:0.161035 20:0.629858 21:0.5 22:0.500002 23:0.5 24:0.499998 25:0.735143 26:0.00870614 27:0.677115 28:0.0316833 29:0.532728 30:0.104986 31:0.829339 32:-0.131816 33:0.5 34:0.500002 35:0.5 36:0.499998 37:-0.505474 38:0.481449 39:0.550203 40:-0.458235 41:0.550461 42:-0.500232 43:-0.529782 44:0.407543 45:0.5 46:0.500002 47:0.5 48:0.499998 49:0.630643 50:0.570841 51:0.280123 52:0.444929 53:0.520263 54:0.519546 55:0.370526 56:0.567547 57:0.5 58:0.500002 59:0.5 60:0.499998 
-0.3152253052819942 -0 0.8800451713674456 0.5878970278770423 1:-0.0587217 2:0.674638 3:0.735061 4:0.0331913 5:-0.0587217 6:0.674638 7:0.735061 8:0.0331913 9:-0.0585043 10:0.668635 11:0.740587 12:0.032178 13:-0.00176095 14:0.70743 15:0.00716995 16:0.706745 17:-0.0937493 18:0.723418 19:0.0700546 20:0.680418 21:0.5 22:0.500002 23:0.5 24:0.499998 25:0.71195 26:0.00146228 27:0.702208 28:0.00531687 29:0.637763 30:0.0456545 31:0.766739 32:-0.0573173 33:0.5 34:0.500002 35:0.5 36:0.499998 37:0.567787 38:-0.436569 39:-0.502322 40:0.484456 41:0.541196 42:-0.479732 43:-0.46401 44:0.511525 45:0.5 46:0.500002 47:0.5 48:0.499998 49:0.580398 50:0.626066 51:0.32374 52:0.407887 53:0.50075 54:0.545759 55:0.444191 56:0.504075 57:0.5 58:0.500002 59:0.5 60:0.499998 
-0.5094726026750822 -0 0 0 1:-0.38475 2:0.638921 3:0.65483 4:-0.122254 5:-0.38475 6:0.638921 7:0.65483 8:-0.122254 9:-0.366256 10:0.643398 11:0.656792 12:-0.143247 13:0.294078 14:0.508118 15:-0.329293 16:0.739527 17:0.347047 18:0.575413 19:-0.272969 20:0.688438 21:0.5 22:0.500002 23:0.5 24:0.499998 25:0.731933 26:-0.344272 27:0.495877 28:0.316 29:0.709545 30:-0.440367 31:0.483362 32:0.262647 33:0.5 34:0.500002 35:0.5 36:0.499998 37:0.78958 38:-0.105558 39:-0.188748 40:0.574279 41:0.597552 42:-0.048583 43:-0.210732 44:0.772116 45:0.5 46:0.500002 47:0.5 48:0.499998 49:0.78958 50:-0.105558 51:-0.188748 52:0.574279 53:0.597552 54:-0.048583 55:-0.210732 56:0.772116 57:0.5 58:0.500002 59:0.5 60:0.499998 
-0 -0 9.494912025481034 0 1:-0.431959 2:0.631317 3:0.627352 4:-0.145876 5:-0.431959 6:0.631317 7:0.627352 8:-0.145876 9:-0.410856 10:0.632575 11:0.633744 12:-0.17151 13:0.389151 14:0.402419 15:-0.365792 16:0.743517 17:0.413034 18:0.453726 19:-0.375265 20:0.694774 21:0.5 22:0.500002 23:0.5 24:0.499998 25:0.713922 26:-0.453718 27:0.447896 28:0.28956 29:0.665016 30:-0.519883 31:0.465093 32:0.266765 33:0.5 34:0.500002 35:0.5 36:0.499998 37:0.857671 38:-0.0512264 39:-0.129194 40:0.495061 41:0.449809 42:0.0273814 43:-0.136256 44:0.882245 45:0.5 46:0.500002 47:0.5 48:0.499998 49:0.857671 50:-0.0512264 51:-0.129194 52:0.495061 53:0.449809 54:0.0273814 55:-0.136256 56:0.882245 57:0.5 58:0.500002 59:0.5 60:0.499998 
-0 -0 1.433804736651667 0.8224928059302916 1:-0.45594 2:0.622272 3:0.613198 4:-0.16995 5:-0.45594 6:0.622272 7:0.613198 8:-0.16995 9:-0.43749 10:0.62143 11:0.62054 12:-0.193281 13:0.447425 14:0.315048 15:-0.374207 16:0.748682 17:0.45272 18:0.351473 19:-0.423316 20:0.701652 21:0.5 22:0.500002 23:0.5 24:0.499998 25:0.69362 26:-0.529413 27:0.415318 28:0.257146 29:0.625762 30:-0.57946 31:0.455183 32:0.255845 33:0.5 34:0.500002 35:0.5 36:0.499998 37:0.882967 38:0.0186407 39:-0.102418 40:0.457748 41:0.400812 42:0.0787395 43:-0.0680952 44:0.910227 45:0.5 46:0.500002 47:0.5 48:0.499998 49:0.882967 50:0.0186407 51:-0.102418 52:0.457748 53:0.400812 54:0.0787395 55:-0.0680952 56:0.910227 57:0.5 58:0.500002 59:0.5 60:0.499998 
-0 -0.1020795815706269 8.103454328363698 0 1:-0.47788 2:0.614994 3:0.604133 4:-0.168628 5:-0.47788 6:0.614994 7:0.604133 8:-0.168628 9:-0.464244 10:0.611241 11:0.612863 12:-0.187779 13:0.514894 14:0.197606 15:-0.361908 16:0.751571 17:0.500989 18:0.224334 19:-0.451215 20:0.703626 21:0.5 22:0.500002 23:0.5 24:0.499998 25:-0.62706 26:0.670652 27:-0.356126 28:-0.17377 29:-0.510278 30:0.678876 31:-0.47072 32:-0.239095 33:0.5 34:0.500002 35:0.5 36:0.499998 37:0.739004 38:0.150599 39:0.0110306 40:0.65656 41:0.587309 42:0.151618 43:0.0328974 44:0.794354 45:0.5 46:0.500002 47:0.5 48:0.499998 49:0.361627 50:0.749984 51:0.508427 52:0.219663 53:0.369602 54:0.654995 55:0.618124 56:0.228688 57:0.5 58:0.500002 59:0.5 60:0.499998 
-0 -0.2877852748980238 0 0 1:-0.481967 2:0.613257 3:0.603394 4:-0.165949 5:-0.481967 6:0.613257 7:0.603394 8:-0.165949 9:-0.469911 10:0.608549 11:0.612468 12:-0.183669 13:0.587306 14:0.116447 15:-0.336334 16:0.726906 17:0.553594 18:0.147583 19:-0.458162 20:0.679588 21:0.5 22:0.500002 23:0.5 24:0.499998 25:-0.639151 26:0.645198 27:-0.369071 28:-0.197465 29:-0.522179 30:0.642135 31:-0.492737 32:-0.268705 33:0.5 34:0.500002 35:0.5 36:0.499998 37:0.715514 38:0.144756 39:0.025837 40:0.682948 41:0.615705 42:0.177162 43:-0.00180524 44:0.767801 45:0.5 46:0.500002 47:0.5 48:0.499998 49:0.395711 50:0.727008 51:0.526188 52:0.19493 53:0.394402 54:0.628741 55:0.633398 56:0.218948 57:0.5 58:0.500002 59:0.5 60:0.499998 
-0 -0 0 0.5848808324615605 1:-0.538781 2:0.548168 3:0.540678 4:-0.341898 5:-0.538781 6:0.548168 7:0.540678 8:-0.341898 9:-0.532028 10:0.548753 11:0.541659 12:-0.349888 13:-0.422979 14:-0.0217882 15:0.888843 16:0.174848 17:-0.677433 18:0.0334275 19:0.714169 20:0.173 21:0.5 22:0.500002 23:0.5 24:0.499998 25:0.640923 26:0.175597 27:0.671036 28:-0.328776 29:0.578763 30:0.455747 31:0.510907 32:-0.443059 33:0.5 34:0.500002 35:0.5 36:0.499998 37:0.703616 38:0.236103 39:0.160973 40:0.65059 41:0.66404 42:0.325984 43:0.0742356 44:0.668785 45:0.5 46:0.500002 47:0.5 48:0.499998 49:0.48838 50:0.663304 51:0.489103 52:0.286863 53:0.404888 54:0.534012 55:0.627391 56:0.396583 57:0.5 58:0.500002 59:0.5 60:0.499998 
-0 -0.0130448088878613 0 0 1:0.763965 2:-0.125487 3:-0.050253 4:0.63094 5:0.763965 6:-0.125487 7:-0.050253 8:0.63094 9:0.755135 10:-0.127184 11:-0.0499511 12:0.641171 13:-0.0036742 14:0.706228 15:0.00771927 16:0.707933 17:-0.0862134 18:0.6926 19:0.0908889 20:0.71036 21:0.5 22:0.500002 23:0.5 24:0.499998 25:0.707015 26:0.00106349 27:0.707195 28:-0.00199034 29:0.70904 30:0.0437715 31:0.702521 32:-0.0425518 33:0.5 34:0.500002 35:0.5 36:0.499998 37:0.415745 38:0.687403 39:0.506237 40:0.313619 41:0.406843 42:0.699256 43:0.494297 44:0.318103 45:0.5 46:0.500002 47:0.5 48:0.499998 49:-0.137269 50:0.698388 51:0.701481 52:-0.0365381 53:-0.0697197 54:0.641504 55:0.7537 56:-0.124693 57:0.5 58:0.500002 59:0.5 60:0.499998 
-0 -0 1.072425277689808 0.1568037531000022 1:0.760392 2:-0.0184249 3:0.19864 4:0.618067 5:0.760392 6:-0.0184249 7:0.19864 8:0.618067 9:0.755293 10:-0.0186626 11:0.197341 12:0.624692 13:-0.000617498 14:0.706964 15:0.0012962 16:0.707248 17:-0.0371933 18:0.702233 19:0.0392103 20:0.709893 21:0.5 22:0.500002 23:0.5 24:0.499998 25:0.707093 26:0.000179285 27:0.707121 28:-0.000335226 29:0.708266 30:0.0188528 31:0.705456 32:-0.0183269 33:0.5 34:0.500002 35:0.5 36:0.499998 37:0.693269 38:0.299344 39:-0.0131093 40:0.655438 41:0.488548 42:0.291598 43:0.0689146 44:0.819477 45:0.5 46:0.500002 47:0.5 48:0.499998 49:0.543561 50:0.660509 51:0.339284 52:0.391351 53:-0.430643 54:-0.527625 55:0.513812 56:0.521685 57:0.5 58:0.500002 59:0.5 60:0.499998 
-0 -0 -4.296861950749755 0 1:0.356312 2:0.569029 3:0.363927 4:0.645605 5:0.356312 6:0.569029 7:0.363927 8:0.645605 9:0.601757 10:0.532942 11:0.379944 12:0.457715 13:-2.35235e-06 14:0.707108 15:2.45001e-07 16:0.707105 17:5.06546e-06 18:0.707108 19:7.66278e-06 20:0.707105 21:0.5 22:0.500002 23:0.5 24:0.499998 25:0.797802 26:0.465586 27:-0.161735 28:0.347251 29:0.229759 30:-0.0894833 31:-0.780934 32:0.573887 33:0.5 34:0.500002 35:0.5 36:0.499998 37:-0.153832 38:0.722393 39:0.667941 40:-0.0913184 41:-0.156386 42:0.621012 43:0.762656 44:-0.090791 45:0.5 46:0.500002 47:0.5 48:0.499998 49:0.717916 50:-0.350875 51:-0.208277 52:0.564007 53:0.570788 54:-0.276057 55:-0.304955 56:0.71063 57:0.5 58:0.500002 59:0.5 60:0.499998 
-0 -2.059745861002928 -0 0 1:0.561028 2:0.45545 3:0.29057 4:0.627201 5:0.561028 6:0.45545 7:0.29057 8:0.627201 9:0.54806 10:0.456095 11:0.291601 12:0.637633 13:0.568934 14:0.715565 15:0.403886 16:0.0340364 17:0.0279458 18:-0.419035 19:-0.697157 20:0.581034 21:0.5 22:0.500002 23:0.5 24:0.499998 25:0.54814 26:0.226092 27:-0.623862 28:0.509138 29:0.201521 30:0.290266 31:0.805636 32:-0.475484 33:0.5 34:0.500002 35:0.5 36:0.499998 37:-0.176722 38:0.663313 39:0.726527 40:-0.0307273 41:-0.0947036 42:0.563009 43:0.803796 44:-0.167226 45:0.5 46:0.500002 47:0.5 48:0.499998 49:0.732369 50:-0.418025 51:-0.253796 52:0.473791 53:0.523754 54:-0.304694 55:-0.382516 56:0.697514 57:0.5 58:0.500002 59:0.5 60:0.499998 
-0 -0 -0.01365716726865903 0 1:0.58344 2:0.374801 3:0.241484 4:0.678829 5:0.58344 6:0.374801 7:0.241484 8:0.678829 9:0.567157 10:0.39472 11:0.218196 12:0.689144 13:0.770392 14:0.534644 15:0.345017 16:0.0401886 17:0.104433 18:0.311578 19:0.837636 20:-0.436324 21:0.5 22:0.500002 23:0.5 24:0.499998 25:-0.563912 26:-0.104459 27:0.694897 28:-0.433833 29:0.232735 30:0.290367 31:0.864125 32:-0.338835 33:0.5 34:0.500002 35:0.5 36:0.499998 37:-0.0938196 38:0.643577 39:0.759479 40:0.0140765 41:-0.0144914 42:0.563421 43:0.818153 44:-0.113897 45:0.5 46:0.500002 47:0.5 48:0.499998 49:0.706481 50:-0.442256 51:-0.282551 52:0.474826 53:0.586738 54:-0.376761 55:-0.365248 56:0.616752 57:0.5 58:0.500002 59:0.5 60:0.499998 
-0 -2.619659258883741 -0 0 1:0.518813 2:0.568846 3:0.408676 4:0.490134 5:0.518813 6:0.568846 7:0.408676 8:0.490134 9:0.519307 10:0.569517 11:0.407802 12:0.48956 13:0.57547 14:0.31937 15:0.659325 16:-0.363494 17:-0.00235188 18:0.000287002 19:0.87514 20:-0.483865 21:0.5 22:0.500002 23:0.5 24:0.499998 25:0.623628 26:0.47769 27:-0.52116 28:0.333605 29:0.0102501 30:0.0576514 31:-0.812659 32:0.57979 33:0.5 34:0.500002 35:0.5 36:0.499998 37:-0.301801 38:0.679555 39:0.649121 40:-0.160512 41:-0.246711 42:0.558354 43:0.754493 44:-0.241068 45:0.5 46:0.500002 47:0.5 48:0.499998 49:0.699924 50:-0.442454 51:-0.289819 52:0.479943 53:0.497512 54:-0.319069 55:-0.421848 56:0.687547 57:0.5 58:0.500002 59:0.5 60:0.499998 
-0 -0 -3.446628942782687 0 1:0.531823 2:0.55945 3:0.400584 4:0.493673 5:0.531823 6:0.55945 7:0.400584 8:0.493673 9:0.532147 10:0.560216 11:0.39964 12:0.493219 13:0.563893 14:0.354774 15:0.657339 16:-0.352229 17:-0.0203285 18:0.0282283 19:0.865827 20:-0.499132 21:0.5 22:0.500002 23:0.5 24:0.499998 25:0.635119 26:0.418844 27:-0.566435 28:0.316772 29:-0.00263212 30:0.0407533 31:-0.85101 32:0.523558 33:0.5 34:0.500002 35:0.5 36:0.499998 37:-0.283502 38:0.673748 39:0.664163 40:-0.156775 41:-0.238201 42:0.583793 43:0.743969 44:-0.221262 45:0.5 46:0.500002 47:0.5 48:0.499998 49:0.680749 50:-0.435316 51:-0.321505 52:0.493675 53:0.538086 54:-0.362578 55:-0.39733 56:0.648945 57:0.5 58:0.500002 59:0.5 60:0.499998 
-0 -6.983075607072544 -0 0 1:0.617304 2:0.431693 3:0.284817 4:0.592837 5:0.617304 6:0.431693 7:0.284817 8:0.592837 9:0.617795 10:0.430815 11:0.285685 12:0.592547 13:0.491507 14:0.658703 15:0.538887 16:-0.184747 17:0.0999864 18:-0.279197 19:-0.722483 20:0.624556 21:0.5 22:0.500002 23:0.5 24:0.499998 25:0.412123 26:0.69991 27:-0.336405 28:0.476563 29:0.167516 30:0.335298 31:-0.504928 32:0.777536 33:0.5 34:0.500002 35:0.5 36:0.499998 37:-0.106179 38:0.701173 39:0.703283 40:-0.0497459 41:-0.0648505 42:0.591897 43:0.796031 44:-0.108569 45:0.5 46:0.500002 47:0.5 48:0.499998 49:0.680072 50:-0.460271 51:-0.284459 52:0.494708 53:0.47211 54:-0.336594 55:-0.42364 56:0.695949 57:0.5 58:0.500002 59:0.5 60:0.499998 
-0 -0 -2.341383820066628 0 1:0.568798 2:0.417168 3:0.292364 4:0.645727 5:0.568798 6:0.417168 7:0.292364 8:0.645727 9:0.568519 10:0.414756 11:0.295298 12:0.646191 13:0.172028 14:0.785748 15:0.144273 16:0.576361 17:0.0821303 18:0.183436 19:-0.491432 20:0.847408 21:0.5 22:0.500002 23:0.5 24:0.499998 25:0.51231 26:-0.18291 27:0.798232 28:-0.258666 29:-0.32175 30:0.160446 31:-0.767036 32:0.531403 33:0.5 34:0.500002 35:0.5 36:0.499998 37:-0.0977501 38:0.657477 39:0.744711 40:-0.0597872 41:-0.0367787 42:0.562523 43:0.812544 44:-0.148283 45:0.5 46:0.500002 47:0.5 48:0.499998 49:0.711874 50:-0.415118 51:-0.293177 52:0.484726 53:0.491669 54:-0.282951 55:-0.422155 56:0.707097 57:0.5 58:0.500002 59:0.5 60:0.499998 
-0 -0 -32 0.09934718626301617 1:0.511244 2:0.359416 3:0.26223 4:0.735313 5:0.511244 6:0.359416 7:0.26223 8:0.735313 9:0.497881 10:0.371562 11:0.244388 12:0.744534 13:0.0149589 14:0.716019 15:0.0125476 16:0.697808 17:0.0281119 18:0.573717 19:-0.168295 20:0.801084 21:0.5 22:0.500002 23:0.5 24:0.499998 25:0.694134 26:-0.0161035 27:0.719305 28:-0.0227759 29:0.615314 30:-0.0541794 31:0.765672 32:-0.179443 33:0.5 34:0.500002 35:0.5 36:0.499998 37:-0.0314471 38:0.611421 39:0.78798 40:-0.0652966 41:0.00201905 42:0.57559 43:0.810364 44:-0.109553 45:0.5 46:0.500002 47:0.5 48:0.499998 49:0.756622 50:-0.278121 51:-0.249414 52:0.536622 53:0.585281 54:-0.20117 55:-0.314785 56:0.719644 57:0.5 58:0.500002 59:0.5 60:0.499998 
-0 -0 -0 0.3215946996462692 1:0.531434 2:0.351899 3:0.191792 4:0.746298 5:0.531434 6:0.351899 7:0.191792 8:0.746298 9:0.523346 10:0.352794 11:0.191208 12:0.751721 13:0.00957363 14:0.712856 15:0.00803127 16:0.701199 17:0.0228311 18:0.601773 19:-0.136774 20:0.786537 21:0.5 22:0.500002 23:0.5 24:0.499998 25:0.698893 26:-0.0103069 27:0.715004 28:-0.0145787 29:0.63513 30:-0.0440089 31:0.757252 32:-0.145749 33:0.5 34:0.500002 35:0.5 36:0.499998 37:0.0217812 38:0.617513 39:0.785573 40:-0.0328467 41:0.0401468 42:0.583722 43:0.80907 44:-0.0553383 45:0.5 46:0.500002 47:0.5 48:0.499998 49:0.728244 50:-0.347654 51:-0.274059 52:0.523152 53:0.570672 54:-0.266162 55:-0.353821 56:0.691594 57:0.5 58:0.500002 59:0.5 60:0.499998 
-28.97626863709635 -0 -0 0 1:0.619351 2:0.446946 3:0.392938 4:0.512097 5:0.619351 6:0.446946 7:0.392938 8:0.512097 9:0.598227 10:0.475829 11:0.368104 12:0.529349 13:5.10851e-06 14:0.707113 15:6.48175e-06 16:0.707101 17:0.000767948 18:0.7039 19:-0.00474498 20:0.710283 21:0.5 22:0.500002 23:0.5 24:0.499998 25:0.707102 26:-8.09477e-06 27:0.707112 28:-1.40748e-05 29:0.704987 30:-0.00154747 31:0.709201 32:-0.00506249 33:0.5 34:0.500002 35:0.5 36:0.499998 37:-0.189221 38:0.714209 39:0.663556 40:-0.117444 41:-0.151964 42:0.567456 43:0.792199 44:-0.165292 45:0.5 46:0.500002 47:0.5 48:0.499998 49:0.687987 50:-0.474173 51:-0.286591 52:0.468721 53:0.472367 54:-0.338726 55:-0.438451 56:0.685489 57:0.5 58:0.500002 59:0.5 60:0.499998 
-0 -0 -3.171199100338993 0.00258539724516259 1:0.563014 2:0.421766 3:0.296798 4:0.645786 5:0.563014 6:0.421766 7:0.296798 8:0.645786 9:0.563854 10:0.419817 11:0.299087 12:0.645267 13:-2.35235e-06 14:0.707108 15:2.45001e-07 16:0.707105 17:5.57999e-06 18:0.707106 19:5.37811e-06 20:0.707107 21:0.5 22:0.500002 23:0.5 24:0.499998 25:0.487774 26:0.0877338 27:-0.546991 28:0.67467 29:-0.102089 30:-0.458084 31:-0.725741 32:0.503027 33:0.5 34:0.500002 35:0.5 36:0.499998 37:-0.138332 38:0.647595 39:0.742377 40:-0.101788 41:-0.0925448 42:0.563433 43:0.804536 44:-0.163404 45:0.5 46:0.500002 47:0.5 48:0.499998 49:0.711786 50:-0.396841 51:-0.282261 52:0.506168 53:0.527678 54:-0.294178 55:-0.38809 56:0.695989 57:0.5 58:0.500002 59:0.5 60:0.499998 
-0 -0 -32 0 1:0.511532 2:0.441086 3:0.411312 4:0.612046 5:0.511532 6:0.441086 7:0.411312 8:0.612046 9:0.511871 10:0.440057 11:0.412514 12:0.611694 13:-2.35235e-06 14:0.707108 15:2.45001e-07 16:0.707105 17:5.16593e-06 18:0.707108 19:7.56231e-06 20:0.707106 21:0.5 22:0.500002 23:0.5 24:0.499998 25:0.422471 26:0.283727 27:-0.40697 28:0.758546 29:-0.0629461 30:-0.42584 31:-0.583219 32:0.688879 33:0.5 34:0.500002 35:0.5 36:0.499998 37:-0.185377 38:0.675247 39:0.683409 40:-0.206468 41:-0.168455 42:0.550906 43:0.791398 44:-0.204486 45:0.5 46:0.500002 47:0.5 48:0.499998 49:0.669069 50:-0.395494 51:-0.322066 52:0.540559 53:0.520293 54:-0.303126 55:-0.411799 56:0.683982 57:0.5 58:0.500002 59:0.5 60:0.499998 
-0 -0 -22.73289466991524 0 1:0.522547 2:0.456122 3:0.40544 4:0.595412 5:0.522547 6:0.456122 7:0.40544 8:0.595412 9:0.523322 10:0.454736 11:0.407014 12:0.594717 13:-2.35235e-06 14:0.707108 15:2.45001e-07 16:0.707105 17:5.15589e-06 18:0.707108 19:7.57236e-06 20:0.707106 21:0.5 22:0.500002 23:0.5 24:0.499998 25:0.433494 26:0.287329 27:-0.389158 28:0.760317 29:-0.0424296 30:-0.425408 31:-0.581 32:0.69258 33:0.5 34:0.500002 35:0.5 36:0.499998 37:-0.179262 38:0.66779 39:0.687838 40:-0.220909 41:-0.179746 42:0.557154 43:0.786629 44:-0.196176 45:0.5 46:0.500002 47:0.5 48:0.499998 49:0.669244 50:-0.380402 51:-0.333335 52:0.544329 53:0.525392 54:-0.301193 55:-0.402951 56:0.686205 57:0.5 58:0.500002 59:0.5 60:0.499998 
-0.3640027359195636 -0 -0 0 1:0.432415 2:0.585768 3:0.495127 4:0.474069 5:0.432415 6:0.585768 7:0.495127 8:0.474069 9:0.433712 10:0.585805 11:0.495034 12:0.472934 13:-2.35235e-06 14:0.707108 15:2.45001e-07 16:0.707105 17:5.08614e-06 18:0.707108 19:7.6421e-06 20:0.707106 21:0.5 22:0.500002 23:0.5 24:0.499998 25:0.354863 26:0.554801 27:-0.262432 28:0.705264 29:-0.0402745 30:-0.315146 31:-0.439519 32:0.840169 33:0.5 34:0.500002 35:0.5 36:0.499998 37:-0.388773 38:0.644403 39:0.587201 40:-0.297985 41:-0.346182 42:0.486155 43:0.731973 44:-0.328674 45:0.5 46:0.500002 47:0.5 48:0.499998 49:0.653815 50:-0.376227 51:-0.329023 52:0.568087 53:0.544502 54:-0.296355 55:-0.408556 56:0.669906 57:0.5 58:0.500002 59:0.5 60:0.499998 
-0 -0 -0 0.319356403316685 1:0.62507 2:0.462735 3:0.256714 4:0.573813 5:0.00061631 6:0.707077 7:0.000234797 8:0.707136 9:-0.00109569 10:0.708779 11:0.0214968 12:0.705102 13:0.5 14:0.500002 15:0.5 16:0.499998 17:-0.575903 18:0.026401 19:0.706242 20:-0.410927 21:-0.0041282 22:0.278783 23:0.911276 24:-0.303048 25:0.5 26:0.500002 27:0.5 28:0.499998 29:0.29281 30:0.631372 31:0.591755 32:0.406766 33:0.390983 34:0.631397 35:0.586011 36:0.324131 37:0.5 38:0.500002 39:0.5 40:0.499998 41:0.644813 42:0.260587 43:0.196565 44:0.691139 45:0.638787 46:0.290442 47:0.164186 48:0.693281 49:0.5 50:0.500002 51:0.5 52:0.499998 53:0.640226 54:0.43677 55:0.246183 56:0.58201 57:0.640226 58:0.43677 59:0.246183 60:0.58201 
-0 -0 -0 0.01307343718230099 1:0.64047 2:0.436942 3:0.245925 4:0.581722 5:0.382125 6:0.628529 7:0.149124 8:0.660828 9:-0.0438456 10:0.678019 11:0.435317 12:0.590649 13:0.5 14:0.500002 15:0.5 16:0.499998 17:-0.584758 18:-0.00438606 19:0.698038 20:-0.413257 21:0.0199161 22:0.268945 23:0.910386 24:-0.313798 25:0.5 26:0.500002 27:0.5 28:0.499998 29:0.310603 30:0.613959 31:0.586075 32:0.427898 33:0.411514 34:0.618722 35:0.574559 36:0.343105 37:0.5 38:0.500002 39:0.5 40:0.499998 41:0.656208 42:0.2411 43:0.173059 44:0.693767 45:0.640005 46:0.258641 47:0.154477 48:0.706849 49:0.5 50:0.500002 51:0.5 52:0.499998 53:0.641718 54:0.432035 55:0.233812 56:0.588962 57:0.641718 58:0.432035 59:0.233812 60:0.588962 
-0 -0.06427547986520962 -0 0.2304301938813744 1:0.61269 2:0.492354 3:0.277555 4:0.552415 5:0.36177 6:0.640845 7:0.147106 8:0.660909 9:-0.0440791 10:0.696557 11:0.448963 12:0.557941 13:0.5 14:0.500002 15:0.5 16:0.499998 17:0.572036 18:0.525045 19:-0.50218 20:0.380681 21:0.144802 22:0.18204 23:-0.74729 24:0.622457 25:0.5 26:0.500002 27:0.5 28:0.499998 29:0.25057 30:0.668559 31:0.586504 32:0.382436 33:0.367479 34:0.662719 35:0.584798 36:0.289437 37:0.5 38:0.500002 39:0.5 40:0.499998 41:0.615774 42:0.311804 43:0.202766 44:0.694612 45:0.634516 46:0.343007 47:0.16512 48:0.67266 49:0.5 50:0.500002 51:0.5 52:0.499998 53:0.609548 54:0.49536 55:0.280422 56:0.551754 57:0.609548 58:0.49536 59:0.280422 60:0.551754 
-0 -0 -1.748438911484077 0 1:0.61782 2:0.484037 3:0.242784 4:0.570143 5:0.805675 6:0.00708386 7:0.592315 8:-0.000336269 9:-0.104844 10:0.00328417 11:0.994463 12:-0.00628559 13:0.5 14:0.500002 15:0.5 16:0.499998 17:0.613509 18:0.59051 19:-0.454303 20:0.26175 21:0.0509184 22:0.182786 23:-0.761704 24:0.619519 25:0.5 26:0.500002 27:0.5 28:0.499998 29:0.305221 30:0.681809 31:0.551663 32:0.371004 33:0.260712 34:0.599794 35:0.642094 36:0.39999 37:0.5 38:0.500002 39:0.5 40:0.499998 41:0.61459 42:0.29187 43:0.180017 44:0.710412 45:0.627668 46:0.291354 47:0.17903 48:0.699353 49:0.5 50:0.500002 51:0.5 52:0.499998 53:0.621183 54:0.480877 55:0.237596 56:0.571347 57:0.621183 58:0.480877 59:0.237596 60:0.571347 
-0 -0.7047977995922319 -0 0 1:0.613002 2:0.527867 3:0.296286 4:0.507739 5:0.513505 6:0.519426 7:0.39564 8:0.556757 9:-0.119495 10:0.387535 11:0.820546 12:0.402793 13:0.5 14:0.500002 15:0.5 16:0.499998 17:-0.624912 18:-0.249788 19:0.646814 20:-0.35878 21:-0.0235602 22:0.0583177 23:0.899071 24:-0.433262 25:0.5 26:0.500002 27:0.5 28:0.499998 29:0.221873 30:0.678893 31:0.603623 32:0.354283 33:0.310826 34:0.660075 35:0.625453 36:0.276582 37:0.5 38:0.500002 39:0.5 40:0.499998 41:0.643564 42:0.365236 43:0.20496 44:0.64064 45:0.538816 46:0.298378 47:0.301108 48:0.727999 49:0.5 50:0.500002 51:0.5 52:0.499998 53:0.605235 54:0.54123 55:0.308617 56:0.495497 57:0.605235 58:0.54123 59:0.308617 60:0.495497 
-0 -0 -1.579974875293163 0 1:0.605059 2:0.541319 3:0.308579 4:0.495637 5:0.631974 6:0.481745 7:0.496277 8:0.349628 9:-0.215016 10:0.25463 11:0.92242 12:0.195122 13:0.5 14:0.500002 15:0.5 16:0.499998 17:0.649919 18:0.21889 19:-0.635016 20:0.355594 21:-0.0291897 22:0.088304 23:0.908178 24:-0.40812 25:0.5 26:0.500002 27:0.5 28:0.499998 29:0.195365 30:0.678558 31:0.615521 32:0.350037 33:0.320569 34:0.665576 35:0.627965 36:0.244754 37:0.5 38:0.500002 39:0.5 40:0.499998 41:0.656993 42:0.382534 43:0.212814 44:0.61379 45:0.508501 46:0.305933 47:0.320992 48:0.738103 49:0.5 50:0.500002 51:0.5 52:0.499998 53:0.602869 54:0.551104 55:0.323413 56:0.477742 57:0.602869 58:0.551104 59:0.323413 60:0.477742 
-0 -0.5827912947124188 -0 0 1:0.602779 2:0.550928 3:0.323648 4:0.4779 5:0.693277 6:0.439974 7:0.539983 8:0.184956 9:-0.303109 10:0.128623 11:0.943127 12:0.0457554 13:0.5 14:0.500002 15:0.5 16:0.499998 17:-0.635579 18:-0.209762 19:0.644413 20:-0.369826 21:-0.0328177 22:0.0953912 23:0.904517 24:-0.414333 25:0.5 26:0.500002 27:0.5 28:0.499998 29:0.180196 30:0.677981 31:0.625985 32:0.340608 33:0.310846 34:0.671908 35:0.630933 36:0.232029 37:0.5 38:0.500002 39:0.5 40:0.499998 41:0.660747 42:0.393566 43:0.229004 44:0.596722 45:0.489799 46:0.314699 47:0.333107 48:0.741688 49:0.5 50:0.500002 51:0.5 52:0.499998 53:0.604231 54:0.545953 55:0.319729 56:0.48437 57:0.604231 58:0.545953 59:0.319729 60:0.48437 
-0 -0.2140732139186326 -0 0 1:0.644925 2:0.43358 3:0.200661 4:0.596503 5:-2.23749e-06 6:0.707108 7:2.98729e-07 8:0.707105 9:-0.000382088 10:0.707159 11:0.0011826 12:0.707053 13:0.5 14:0.500002 15:0.5 16:0.499998 17:-0.595519 18:-0.295268 19:0.604858 20:-0.438544 21:-0.0526324 22:-0.129307 23:-0.847187 24:0.512624 25:0.5 26:0.500002 27:0.5 28:0.499998 29:0.317765 30:0.621593 31:0.568673 32:0.435038 33:0.390669 34:0.612483 35:0.577518 36:0.372446 37:0.5 38:0.500002 39:0.5 40:0.499998 41:0.638081 42:0.147728 43:0.131708 44:0.744098 45:0.656004 46:0.215072 47:0.0584657 48:0.721099 49:0.5 50:0.500002 51:0.5 52:0.499998 53:0.644261 54:0.435051 55:0.192335 56:0.598887 57:0.644261 58:0.435051 59:0.192335 60:0.598887 
-0.05078340441295769 -0 -0 0 1:0.561395 2:0.570366 3:0.490914 4:0.34427 5:0.561395 6:0.570366 7:0.490914 8:0.34427 9:0.561699 10:0.570139 11:0.49103 12:0.343985 13:0.587469 14:0.53916 15:0.485355 16:-0.358632 17:0.0497878 18:-0.0247009 19:-0.760402 20:0.647071 21:0.5 22:0.500002 23:0.5 24:0.499998 25:0.827143 26:0.201845 27:-0.311075 28:0.422286 29:-0.48033 30:0.0886454 31:0.741765 32:-0.459575 33:0.5 34:0.500002 35:0.5 36:0.499998 37:-0.405361 38:0.611099 39:0.597732 40:-0.323972 41:-0.321102 42:0.520245 43:0.670796 44:-0.419848 45:0.5 46:0.500002 47:0.5 48:0.499998 49:0.64802 50:-0.318964 51:-0.275984 52:0.634165 53:0.62846 54:-0.294364 55:-0.302501 56:0.653362 57:0.5 58:0.500002 59:0.5 60:0.499998 
-0 -0.1039521207434815 -0 0 1:0.506009 2:0.618136 3:0.521722 4:0.299449 5:0.506009 6:0.618136 7:0.521722 8:0.299449 9:0.506478 10:0.618052 11:0.52165 12:0.298954 13:0.555151 14:0.560374 15:0.477936 16:-0.38648 17:0.0475996 18:-0.0285838 19:-0.730993 20:0.680123 21:0.5 22:0.500002 23:0.5 24:0.499998 25:0.826836 26:0.254712 27:-0.272152 28:0.421187 29:-0.482546 30:0.0595757 31:0.724481 32:-0.488597 33:0.5 34:0.500002 35:0.5 36:0.499998 37:-0.459695 38:0.579651 39:0.5579 40:-0.376076 41:-0.37628 42:0.484981 43:0.637791 44:-0.46522 45:0.5 46:0.500002 47:0.5 48:0.499998 49:0.680575 50:-0.280007 51:-0.195152 52:0.648328 53:0.604391 54:-0.188338 55:-0.307607 56:0.710365 57:0.5 58:0.500002 59:0.5 60:0.499998 
-0 -0 -7.000708553708088 0 1:0.513443 2:0.599076 3:0.532558 4:0.306376 5:0.513443 6:0.599076 7:0.532558 8:0.306376 9:0.513298 10:0.599477 11:0.532221 12:0.306422 13:-0.37022 14:-0.628423 15:-0.44835 16:0.516725 17:0.146076 18:0.0500513 19:-0.562799 20:0.812043 21:0.5 22:0.500002 23:0.5 24:0.499998 25:0.800435 26:0.326571 27:-0.23469 28:0.444496 29:0.497615 30:-0.00702336 31:-0.669443 32:0.551521 33:0.5 34:0.500002 35:0.5 36:0.499998 37:-0.429791 38:0.582493 39:0.56782 40:-0.39187 41:-0.362825 42:0.482901 43:0.655412 44:-0.453432 45:0.5 46:0.500002 47:0.5 48:0.499998 49:0.640382 50:-0.259254 51:-0.234363 52:0.683939 53:0.670623 54:-0.247994 55:-0.244282 56:0.655049 57:0.5 58:0.500002 59:0.5 60:0.499998 
-0 -9.780405069289017 -0 0 1:0.567321 2:0.553565 3:0.502327 4:0.345516 5:0.567321 6:0.553565 7:0.502327 8:0.345516 9:0.567639 10:0.553478 11:0.50231 12:0.345156 13:0.596445 14:0.407838 15:0.564938 16:-0.398455 17:0.0541864 18:0.0464129 19:-0.819735 20:0.568282 21:0.5 22:0.500002 23:0.5 24:0.499998 25:0.436591 26:0.629034 27:-0.173673 28:0.619308 29:0.286719 30:0.224653 31:-0.372245 32:0.853672 33:0.5 34:0.500002 35:0.5 36:0.499998 37:-0.389569 38:0.603225 39:0.609915 40:-0.3352 41:-0.318212 42:0.500519 43:0.693303 44:-0.409331 45:0.5 46:0.500002 47:0.5 48:0.499998 49:0.690099 50:-0.354529 51:-0.234395 52:0.585774 53:0.569404 54:-0.244189 55:-0.370289 56:0.692125 57:0.5 58:0.500002 59:0.5 60:0.499998 
-0 -0.3582987675337132 -0 0 1:0.557747 2:0.574595 3:0.486536 4:0.349344 5:0.557747 6:0.574595 7:0.486536 8:0.349344 9:0.558037 10:0.574791 11:0.486258 12:0.348947 13:0.541087 14:0.484019 15:0.536899 16:-0.429757 17:0.0487241 18:0.00552561 19:-0.760698 20:0.647251 21:0.5 22:0.500002 23:0.5 24:0.499998 25:0.124007 26:0.827718 27:0.0996143 28:0.538129 29:0.149985 30:-0.0216097 31:-0.0529651 32:0.987032 33:0.5 34:0.500002 35:0.5 36:0.499998 37:-0.40228 38:0.593867 39:0.610751 40:-0.335375 41:-0.323942 42:0.492368 43:0.689606 44:-0.420807 45:0.5 46:0.500002 47:0.5 48:0.499998 49:0.699873 50:-0.338289 51:-0.23095 52:0.58515 53:0.576757 54:-0.233175 55:-0.357482 56:0.696554 57:0.5 58:0.500002 59:0.5 60:0.499998 
-0 -1.681424407189748 -0 0 1:0.639448 2:0.442014 3:0.441603 4:0.448013 5:0.639448 6:0.442014 7:0.441603 8:0.448013 9:0.644335 10:0.447613 11:0.436075 12:0.440809 13:0.691682 14:0.298747 15:0.627445 16:-0.196568 17:-0.367816 18:-0.088492 19:0.858384 20:-0.346493 21:0.5 22:0.500002 23:0.5 24:0.499998 25:0.638273 26:0.374163 27:0.627245 28:0.243255 29:0.525557 30:-0.0167901 31:0.367861 32:0.766933 33:0.5 34:0.500002 35:0.5 36:0.499998 37:-0.232748 38:0.649634 39:0.668393 40:-0.277586 41:-0.208782 42:0.57924 43:0.731322 44:-0.293359 45:0.5 46:0.500002 47:0.5 48:0.499998 49:0.624614 50:-0.424226 51:-0.370013 52:0.541276 53:0.528722 54:-0.358809 55:-0.433627 56:0.635355 57:0.5 58:0.500002 59:0.5 60:0.499998 
-0.7107375754288463 -0 -0 0 1:0.673568 2:0.41751 3:0.437214 4:0.425247 5:0.673568 6:0.41751 7:0.437214 8:0.425247 9:0.656882 10:0.441484 11:0.421835 12:0.442327 13:0.399424 14:0.721059 15:0.362331 16:0.435028 17:0.284066 18:0.379941 19:-0.662935 20:0.579196 21:0.5 22:0.500002 23:0.5 24:0.499998 25:0.696774 26:0.157916 27:0.692118 28:0.102665 29:0.646618 30:-0.0119051 31:0.534799 32:0.543814 33:0.5 34:0.500002 35:0.5 36:0.499998 37:-0.162586 38:0.649915 39:0.668238 40:-0.323471 41:-0.254556 42:0.607533 43:0.720375 44:-0.217177 45:0.5 46:0.500002 47:0.5 48:0.499998 49:0.582989 50:-0.436704 51:-0.379977 52:0.570116 53:0.574604 54:-0.417993 55:-0.400028 56:0.57887 57:0.5 58:0.500002 59:0.5 60:0.499998 
-0 -0 -0 0.40583427299872 1:0.712943 2:0.252882 3:0.373075 4:0.537194 5:0.712943 6:0.252882 7:0.373075 8:0.537194 9:0.71528 10:0.254067 11:0.372294 12:0.534062 13:0.00613338 14:0.709277 15:0.00556628 16:0.704881 17:0.0429079 18:0.68762 19:-0.100525 20:0.717797 21:0.5 22:0.500002 23:0.5 24:0.499998 25:0.707139 26:0.00229104 27:0.707069 28:0.00148742 29:0.712912 30:-0.00169926 31:0.696934 32:0.077697 33:0.5 34:0.500002 35:0.5 36:0.499998 37:0.506589 38:0.697402 39:0.437625 40:0.255895 41:0.402634 42:0.527902 43:0.631827 44:0.4 45:0.5 46:0.500002 47:0.5 48:0.499998 49:0.433527 50:-0.547286 51:-0.510441 52:0.501978 53:-0.48121 54:0.567566 55:0.485153 56:-0.459273 57:0.5 58:0.500002 59:0.5 60:0.499998 
-0.2845303152891013 -0 -0 0 1:0.526408 2:0.580853 3:0.52504 4:0.331417 5:0.526408 6:0.580853 7:0.52504 8:0.331417 9:0.526029 10:0.580828 11:0.525167 12:0.331861 13:-0.47613 14:-0.402652 15:-0.596324 16:0.505539 17:0.198823 18:0.169141 19:-0.73673 20:0.62377 21:0.5 22:0.500002 23:0.5 24:0.499998 25:0.707108 26:2.46875e-07 27:0.707105 28:-2.35422e-06 29:0.707132 30:-7.02867e-07 31:0.707081 32:0.000238583 33:0.5 34:0.500002 35:0.5 36:0.499998 37:0.101068 38:0.677386 39:0.706591 40:0.177942 41:0.203533 42:0.668295 43:0.711723 44:0.0735218 45:0.5 46:0.500002 47:0.5 48:0.499998 49:0.664032 50:-0.315197 51:-0.210901 52:0.644385 53:0.653384 54:-0.277483 55:-0.252828 56:0.657397 57:0.5 58:0.500002 59:0.5 60:0.499998 
-0.6752655215464347 -0 -0 0 1:0.517035 2:0.593877 3:0.526683 4:0.320296 5:0.517035 6:0.593877 7:0.526683 8:0.320296 9:0.517434 10:0.593503 11:0.526924 12:0.319949 13:-0.35715 14:-0.395405 15:-0.636644 16:0.557479 17:0.304744 18:0.218222 19:-0.663327 20:0.647694 21:0.5 22:0.500002 23:0.5 24:0.499998 25:0.707108 26:2.45616e-07 27:0.707105 28:-2.35296e-06 29:0.707122 30:2.62251e-06 31:0.707091 32:0.000142854 33:0.5 34:0.500002 35:0.5 36:0.499998 37:0.0892899 38:0.675317 39:0.713548 40:0.16378 41:0.193253 42:0.66526 43:0.71901 44:0.0557368 45:0.5 46:0.500002 47:0.5 48:0.499998 49:0.678928 50:-0.300709 51:-0.199369 52:0.63944 53:0.643375 54:-0.258145 55:-0.249774 56:0.676049 57:0.5 58:0.500002 59:0.5 60:0.499998 
-31.56216284860612 -0 -0 0 1:0.34118 2:0.528653 3:0.612502 4:0.478502 5:0.34118 6:0.528653 7:0.612502 8:0.478502 9:0.399064 10:0.554183 11:0.595267 12:0.423422 13:-2.35235e-06 14:0.707108 15:2.45001e-07 16:0.707105 17:5.57218e-06 18:0.707109 19:9.76911e-06 20:0.707105 21:0.5 22:0.500002 23:0.5 24:0.499998 25:0.707108 26:1.04349e-06 27:0.707105 28:-1.54925e-06 29:0.707034 30:7.94258e-05 31:0.707179 32:-9.47891e-05 33:0.5 34:0.500002 35:0.5 36:0.499998 37:0.626357 38:-0.45777 39:-0.392683 40:0.493886 41:0.44283 42:-0.313824 43:-0.515042 44:0.663437 45:0.5 46:0.500002 47:0.5 48:0.499998 49:0.672307 50:-0.307476 51:-0.255479 52:0.623051 53:0.543833 54:-0.247752 55:-0.316688 56:0.736596 57:0.5 58:0.500002 59:0.5 60:0.499998 
-7.328860135614571 -0 -0 0 1:0.380323 2:0.535023 3:0.615936 4:0.435577 5:0.380323 6:0.535023 7:0.615936 8:0.435577 9:0.395065 10:0.541349 11:0.611515 12:0.420612 13:-2.35235e-06 14:0.707108 15:2.45001e-07 16:0.707105 17:5.55556e-06 18:0.707109 19:9.44857e-06 20:0.707105 21:0.5 22:0.500002 23:0.5 24:0.499998 25:0.707108 26:1.04432e-06 27:0.707105 28:-1.55008e-06 29:0.707048 30:6.55245e-05 31:0.707165 32:-7.60829e-05 33:0.5 34:0.500002 35:0.5 36:0.499998 37:0.671539 38:-0.353927 39:-0.333895 40:0.558825 41:0.606814 42:-0.316965 43:-0.368971 44:0.628626 45:0.5 46:0.500002 47:0.5 48:0.499998 49:0.690544 50:-0.324185 51:-0.267179 52:0.588786 53:0.509539 54:-0.24166 55:-0.343629 56:0.750926 57:0.5 58:0.500002 59:0.5 60:0.499998 
-32 -0 -0 0 1:0.383277 2:0.549126 3:0.610108 4:0.423471 5:0.383277 6:0.549126 7:0.610108 8:0.423471 9:0.390822 10:0.55221 11:0.607781 12:0.415842 13:-2.35235e-06 14:0.707108 15:2.45001e-07 16:0.707105 17:5.49391e-06 18:0.707108 19:9.25734e-06 20:0.707105 21:0.5 22:0.500002 23:0.5 24:0.499998 25:0.707108 26:1.04461e-06 27:0.707105 28:-1.55037e-06 29:0.707054 30:5.96382e-05 31:0.707159 32:-6.80681e-05 33:0.5 34:0.500002 35:0.5 36:0.499998 37:0.684459 38:-0.370387 39:-0.308229 40:0.547104 41:0.584234 42:-0.286047 43:-0.395417 44:0.648454 45:0.5 46:0.500002 47:0.5 48:0.499998 49:0.691306 50:-0.321193 51:-0.263503 52:0.591182 53:0.497804 54:-0.23442 55:-0.342995 56:0.76131 57:0.5 58:0.500002 59:0.5 60:0.499998 
-17.88388252402937 -0 -0 0 1:0.358845 2:0.583089 3:0.599258 4:0.414882 5:0.358845 6:0.583089 7:0.599258 8:0.414882 9:0.360301 10:0.583323 11:0.59913 12:0.413474 13:-2.35235e-06 14:0.707108 15:2.45001e-07 16:0.707105 17:5.5887e-06 18:0.707108 19:9.03612e-06 20:0.707105 21:0.5 22:0.500002 23:0.5 24:0.499998 25:0.707108 26:1.04519e-06 27:0.707105 28:-1.55095e-06 29:0.707069 30:4.52358e-05 31:0.707145 32:-4.85657e-05 33:0.5 34:0.500002 35:0.5 36:0.499998 37:0.659112 38:-0.416139 39:-0.382051 40:0.496424 41:0.494371 42:-0.292974 43:-0.483013 44:0.660653 45:0.5 46:0.500002 47:0.5 48:0.499998 49:0.701585 50:-0.277656 51:-0.250259 52:0.606676 53:0.493616 54:-0.19238 55:-0.320487 56:0.785253 57:0.5 58:0.500002 59:0.5 60:0.499998 
-0 -0 -0 0.1417090061225735 1:0.679079 2:0.144705 3:0.211992 4:0.687729 5:0.679079 6:0.144705 7:0.211992 8:0.687729 9:0.678501 10:0.145904 11:0.210746 12:0.688429 13:0.003846 14:0.707847 15:0.00367638 16:0.706346 17:0.00228604 18:0.699102 19:-0.0679125 20:0.711786 21:0.5 22:0.500002 23:0.5 24:0.499998 25:0.707108 26:1.04579e-06 27:0.707105 28:-1.55155e-06 29:0.707107 30:9.22859e-06 31:0.707107 32:3.49965e-06 33:0.5 34:0.500002 35:0.5 36:0.499998 37:-0.167823 38:0.651789 39:0.712022 40:-0.200079 41:-0.0498056 42:0.652466 43:0.681342 44:-0.327995 45:0.5 46:0.500002 47:0.5 48:0.499998 49:-0.562877 50:0.593796 51:0.299964 52:-0.490507 53:0.339276 54:-0.439041 55:-0.499815 56:0.665071 57:0.5 58:0.500002 59:0.5 60:0.499998 
-0 -0 -6.812217955361323 0 1:0.679092 2:0.147532 3:0.213112 4:0.686769 5:0.679092 6:0.147532 7:0.213112 8:0.686769 9:0.678729 10:0.148337 11:0.21228 12:0.687212 13:0.00307653 14:0.707701 15:0.00294135 16:0.7065 17:0.00205598 18:0.700051 19:-0.0611321 20:0.711469 21:0.5 22:0.500002 23:0.5 24:0.499998 25:0.707108 26:1.04579e-06 27:0.707105 28:-1.55155e-06 29:0.707107 30:9.07201e-06 31:0.707107 32:3.65623e-06 33:0.5 34:0.500002 35:0.5 36:0.499998 37:-0.174405 38:0.647546 39:0.715206 40:-0.196845 41:-0.0522467 42:0.661168 43:0.673026 44:-0.327357 45:0.5 46:0.500002 47:0.5 48:0.499998 49:0.573539 50:-0.574957 51:-0.292548 52:0.504869 53:0.360407 54:-0.436092 55:-0.475378 56:0.673756 57:0.5 58:0.500002 59:0.5 60:0.499998 
-0.05833495667527103 -0 -0 0 1:0.756298 2:0.171387 3:0.179287 4:0.605389 5:0.756298 6:0.171387 7:0.179287 8:0.605389 9:0.746061 10:0.165965 11:0.184066 12:0.618036 13:0.32991 14:0.632516 15:0.350309 16:0.606932 17:0.00651974 18:0.687749 19:0.532641 20:0.493206 21:0.5 22:0.500002 23:0.5 24:0.499998 25:0.707108 26:1.04579e-06 27:0.707105 28:-1.55155e-06 29:0.707107 30:8.33682e-06 31:0.707106 32:4.39142e-06 33:0.5 34:0.500002 35:0.5 36:0.499998 37:-0.192968 38:0.680909 39:0.683 40:-0.18066 41:-0.071813 42:0.659447 43:0.680679 44:-0.310884 45:0.5 46:0.500002 47:0.5 48:0.499998 49:-0.540286 50:0.636557 51:0.303266 52:-0.459255 53:0.37829 54:-0.516794 55:-0.479692 56:0.599764 57:0.5 58:0.500002 59:0.5 60:0.499998 
-0.5551982013422462 -0 -1.86389331200647 0 1:0.708943 2:0.296822 3:0.289332 4:0.5706 5:0.708943 6:0.296822 7:0.289332 8:0.5706 9:0.682838 10:0.299499 11:0.28901 12:0.600422 13:0.346868 14:0.612322 15:0.702569 16:0.105552 17:-0.262623 18:0.502181 19:0.738207 20:-0.365916 21:0.5 22:0.500002 23:0.5 24:0.499998 25:0.707108 26:1.04579e-06 27:0.707105 28:-1.55155e-06 29:0.707108 30:8.20876e-06 31:0.707106 32:4.51949e-06 33:0.5 34:0.500002 35:0.5 36:0.499998 37:-0.319286 38:0.628338 39:0.646691 40:-0.291614 41:-0.206525 42:0.585596 43:0.66187 44:-0.419942 45:0.5 46:0.500002 47:0.5 48:0.499998 49:-0.584273 50:0.587717 51:0.287946 52:-0.479897 53:0.406518 54:-0.469355 55:-0.456103 56:0.63751 57:0.5 58:0.500002 59:0.5 60:0.499998 
-0 -1.632847996364177 -16.81931511569051 0.2892234407478194 1:0.207494 2:0.687695 3:0.667504 4:0.196113 5:0.207494 6:0.687695 7:0.667504 8:0.196113 9:0.209424 10:0.689349 11:0.665757 12:0.194185 13:0.564266 14:0.573174 15:0.482116 16:0.347332 17:-0.312488 18:0.488761 19:0.673189 20:-0.458564 21:0.5 22:0.500002 23:0.5 24:0.499998 25:0.707108 26:1.04579e-06 27:0.707105 28:-1.55155e-06 29:0.707108 30:7.83413e-06 31:0.707106 32:4.89412e-06 33:0.5 34:0.500002 35:0.5 36:0.499998 37:0.65512 38:0.299819 39:0.344007 40:0.602151 41:0.637598 42:0.108874 43:-0.00517169 44:0.762619 45:0.5 46:0.500002 47:0.5 48:0.499998 49:0.861099 50:0.065121 51:0.11865 52:0.490091 53:0.510975 54:0.00957169 55:0.0324441 56:0.85893 57:0.5 58:0.500002 59:0.5 60:0.499998 
-0 -0 -1.821610190487845 0 1:0.245256 2:0.694303 3:0.659183 4:0.15255 5:0.245256 6:0.694303 7:0.659183 8:0.15255 9:0.158666 10:0.676661 11:0.678558 12:0.237728 13:0.604743 14:0.475716 15:0.529208 16:0.357657 17:-0.319426 18:0.498562 19:0.66056 20:-0.461588 21:0.5 22:0.500002 23:0.5 24:0.499998 25:0.707108 26:1.04579e-06 27:0.707105 28:-1.55155e-06 29:0.707108 30:7.817e-06 31:0.707106 32:4.91125e-06 33:0.5 34:0.500002 35:0.5 36:0.499998 37:0.792303 38:-0.10936 39:-0.0463767 40:0.598453 41:0.697414 42:-0.0939799 43:-0.0693979 44:0.707082 45:0.5 46:0.500002 47:0.5 48:0.499998 49:0.826769 50:0.0543178 51:0.00423568 52:0.559897 53:0.573286 54:0.0492515 55:0.023295 56:0.817542 57:0.5 58:0.500002 59:0.5 60:0.499998 
-0 -0 -12.80261237382451 0 1:-0.196703 2:0.678597 3:0.685964 4:-0.173976 5:-0.196703 6:0.678597 7:0.685964 8:-0.173976 9:-0.195976 10:0.681526 11:0.683096 12:-0.174631 13:0.161118 14:0.745818 15:0.0971684 16:0.639026 17:0.127489 18:0.266024 19:-0.47267 20:0.830398 21:0.5 22:0.500002 23:0.5 24:0.499998 25:0.707108 26:1.04579e-06 27:0.707105 28:-1.55155e-06 29:0.707108 30:7.72918e-06 31:0.707106 32:4.99907e-06 33:0.5 34:0.500002 35:0.5 36:0.499998 37:0.888301 38:-0.0787767 39:-0.0410445 40:0.450589 41:0.551218 42:-0.048349 43:-0.0745171 44:0.829619 45:0.5 46:0.500002 47:0.5 48:0.499998 49:0.599998 50:0.401148 51:0.383892 52:0.575942 53:0.599452 54:0.477763 55:0.310196 56:0.562297 57:0.5 58:0.500002 59:0.5 60:0.499998 
-0 -0.1949042398872645 -0 0.01493881222527866 1:-0.22128 2:0.666877 3:0.681916 4:-0.203228 5:-0.22128 6:0.666877 7:0.681916 8:-0.203228 9:-0.222797 10:0.671136 11:0.677719 12:-0.201581 13:0.10354 14:0.735394 15:0.0624444 16:0.666765 17:0.106146 18:0.366495 19:-0.393539 20:0.836386 21:0.5 22:0.500002 23:0.5 24:0.499998 25:0.707108 26:1.04579e-06 27:0.707105 28:-1.55155e-06 29:0.707108 30:7.71657e-06 31:0.707106 32:5.01168e-06 33:0.5 34:0.500002 35:0.5 36:0.499998 37:0.866224 38:0.0711716 39:0.0694107 40:0.489665 41:0.229103 42:0.0699285 43:-0.00913434 44:0.970844 45:0.5 46:0.500002 47:0.5 48:0.499998 49:0.611734 50:0.416746 51:0.44764 52:0.501719 53:0.578811 54:0.48618 55:0.372208 56:0.53858 57:0.5 58:0.500002 59:0.5 60:0.499998 
-0 -0 -6.951165282283998 0 1:-0.316375 2:0.673229 3:0.66005 4:-0.104899 5:-0.316375 6:0.673229 7:0.66005 8:-0.104899 9:-0.306905 10:0.67302 11:0.662955 12:-0.115517 13:0.0111475 14:0.710733 15:0.00672471 16:0.703341 17:0.0387285 18:0.608242 19:-0.143595 20:0.779694 21:0.5 22:0.500002 23:0.5 24:0.499998 25:0.707108 26:1.04579e-06 27:0.707105 28:-1.55155e-06 29:0.707108 30:7.68156e-06 31:0.707105 32:5.04669e-06 33:0.5 34:0.500002 35:0.5 36:0.499998 37:0.666711 38:-0.106159 39:-0.085929 40:0.732695 41:-0.678349 42:0.00074558 43:-0.193602 44:0.708774 45:0.5 46:0.500002 47:0.5 48:0.499998 49:0.652964 50:0.482985 51:0.393173 52:0.43102 53:0.569476 54:0.522261 55:0.369183 56:0.516376 57:0.5 58:0.500002 59:0.5 60:0.499998 
-0 -0 -2.913726495487807 0 1:-0.0374703 2:0.699235 3:0.713318 4:0.0290384 5:-0.0374703 6:0.699235 7:0.713318 8:0.0290384 9:-0.0282839 10:0.701114 11:0.712213 12:0.0198042 13:0.00292126 14:0.708072 15:0.00176373 16:0.706132 17:0.0206714 18:0.657626 19:-0.0766555 20:0.749149 21:0.5 22:0.500002 23:0.5 24:0.499998 25:0.707108 26:1.04579e-06 27:0.707105 28:-1.55155e-06 29:0.707108 30:7.67277e-06 31:0.707105 32:5.05548e-06 33:0.5 34:0.500002 35:0.5 36:0.499998 37:0.545234 38:-0.53783 39:-0.501708 40:0.402178 41:0.0917519 42:-0.0152303 43:-0.73535 44:0.671275 45:0.5 46:0.500002 47:0.5 48:0.499998 49:0.730208 50:0.32636 51:0.198249 52:0.566554 53:0.63217 54:0.328972 55:0.206935 56:0.67031 57:0.5 58:0.500002 59:0.5 60:0.499998 
-0 -0 -0 0.7466847721186212 1:0.128241 2:0.702694 3:0.679413 4:0.167849 5:0.128241 6:0.702694 7:0.679413 8:0.167849 9:0.133566 10:0.702372 11:0.679966 12:0.162725 13:0.00119616 14:0.707504 15:0.00072357 16:0.706708 17:0.0135737 18:0.675451 19:-0.0503456 20:0.735559 21:0.5 22:0.500002 23:0.5 24:0.499998 25:0.707108 26:1.04579e-06 27:0.707105 28:-1.55155e-06 29:0.707108 30:7.66935e-06 31:0.707105 32:5.0589e-06 33:0.5 34:0.500002 35:0.5 36:0.499998 37:0.773436 38:-0.333729 39:-0.295586 40:0.450613 41:0.620958 42:-0.24031 43:-0.375496 44:0.644721 45:0.5 46:0.500002 47:0.5 48:0.499998 49:0.740415 50:0.138718 51:0.100092 52:0.650019 53:0.622846 54:0.194873 55:0.0334014 56:0.756949 57:0.5 58:0.500002 59:0.5 60:0.499998 
-1.164152421782594 -0.2084884507075149 -5.027216546854579 -1.969039471095265 1:0.474683 2:0.531065 3:0.329554 4:0.61971 5:0.474683 6:0.531065 7:0.329554 8:0.61971 9:0.474775 10:0.533628 11:0.325894 12:0.619373 13:-0.0770192 14:0.759232 15:0.197039 16:0.615475 17:-0.160726 18:0.816078 19:0.147252 20:0.535257 21:0.5 22:0.500002 23:0.5 24:0.499998 25:0.707235 26:-0.0115584 27:0.706786 28:0.0117744 29:0.730573 30:-0.108205 31:0.671573 32:0.0595449 33:0.5 34:0.500002 35:0.5 36:0.499998 37:0.791655 38:0.291609 39:0.28231 40:0.45667 41:0.651744 42:0.334433 43:0.239804 44:0.637085 45:0.5 46:0.500002 47:0.5 48:0.499998 49:0.763599 50:0.180215 51:0.289832 52:0.548121 53:0.669383 54:0.300047 55:0.172071 56:0.657488 57:0.5 58:0.500002 59:0.5 60:0.499998 
-0 -0 -0.2404341795596114 -0 1:0.274844 2:0.323077 3:0.647555 4:0.633052 5:0.274844 6:0.323077 7:0.647555 8:0.633052 9:0.301333 10:0.345838 11:0.639102 12:0.617368 13:-0.342343 14:0.644485 15:0.25306 16:0.635138 17:-0.387461 18:0.68603 19:0.201452 20:0.581939 21:0.5 22:0.500002 23:0.5 24:0.499998 25:0.707131 26:-0.00123974 27:0.70708 28:0.00126345 29:0.716685 30:-0.0378157 31:0.69606 32:0.020819 33:0.5 34:0.500002 35:0.5 36:0.499998 37:0.650484 38:0.584122 39:0.308327 40:0.374975 41:0.541331 42:0.511658 43:0.420367 44:0.518131 45:0.5 46:0.500002 47:0.5 48:0.499998 49:0.612587 50:0.635269 51:0.338679 52:0.326294 53:0.498421 54:0.516792 55:0.501194 56:0.483018 57:0.5 58:0.500002 59:0.5 60:0.499998 
-0 -0 -10.60182071485751 -0.1986362567365438 1:0.345514 2:0.293432 3:0.637521 4:0.622965 5:0.345514 6:0.293432 7:0.637521 8:0.622965 9:0.378796 10:0.321835 11:0.627572 12:0.599241 13:0.0241515 14:0.517252 15:0.170731 16:0.838283 17:-0.0323765 18:0.746133 19:0.192046 20:0.636675 21:0.5 22:0.500002 23:0.5 24:0.499998 25:0.707108 26:-1.68417e-05 27:0.707105 28:1.66732e-05 29:0.708488 30:-0.00510915 31:0.705699 32:0.00281214 33:0.5 34:0.500002 35:0.5 36:0.499998 37:0.621156 38:0.637824 39:0.324689 40:0.319252 41:0.490556 42:0.504695 43:0.50747 44:0.497104 45:0.5 46:0.500002 47:0.5 48:0.499998 49:0.619452 50:0.590118 51:0.344864 52:0.386147 53:0.510116 54:0.481668 55:0.485095 56:0.521978 57:0.5 58:0.500002 59:0.5 60:0.499998 
-0 -0 -0.07344811414399116 -0 1:0.281724 2:0.348663 3:0.667679 4:0.594366 5:0.281724 6:0.348663 7:0.667679 8:0.594366 9:0.308372 10:0.379101 11:0.650535 12:0.581372 13:-0.101985 14:0.65307 15:0.253526 16:0.706275 17:-0.189797 18:0.777075 19:0.199981 20:0.565808 21:0.5 22:0.500002 23:0.5 24:0.499998 25:0.707108 26:-6.34997e-06 27:0.707105 28:5.84424e-06 29:0.708017 30:-0.00335176 31:0.706186 32:0.00184454 33:0.5 34:0.500002 35:0.5 36:0.499998 37:0.544051 38:0.623586 39:0.409236 40:0.384286 41:0.497903 42:0.571192 43:0.47925 44:0.44289 45:0.5 46:0.500002 47:0.5 48:0.499998 49:0.591166 50:0.723467 51:0.279124 52:0.22183 53:0.421245 54:0.511977 55:0.582403 56:0.47036 57:0.5 58:0.500002 59:0.5 60:0.499998 
-0 -0 -0 -0.07078449947491645 1:0.401515 2:0.25085 3:0.578891 4:0.663886 5:0.401515 6:0.25085 7:0.578891 8:0.663886 9:0.419583 10:0.265322 11:0.573416 12:0.651727 13:-0.0120585 14:0.702859 15:0.0250762 16:0.710784 17:-0.13895 18:0.774108 19:0.0583886 20:0.61485 21:0.5 22:0.500002 23:0.5 24:0.499998 25:0.45782 26:-0.496612 27:0.441201 28:0.590862 29:-0.620395 30:0.731288 31:-0.139168 32:-0.246899 33:0.5 34:0.500002 35:0.5 36:0.499998 37:0.69487 38:0.610291 39:0.228424 40:0.304177 41:0.547133 42:0.493906 43:0.425074 44:0.52537 45:0.5 46:0.500002 47:0.5 48:0.499998 49:0.690617 50:0.545199 51:0.282685 52:0.381963 53:0.55875 54:0.446288 55:0.421876 56:0.557356 57:0.5 58:0.500002 59:0.5 60:0.499998 
-0 -0.3287582435692945 -2.463600071223211 -0 1:0.402104 2:0.328365 3:0.607908 4:0.60078 5:0.402104 6:0.328365 7:0.607908 8:0.60078 9:0.427235 10:0.350849 11:0.596696 12:0.581661 13:-0.000175131 14:0.707051 15:0.000362682 16:0.707163 17:-0.018891 18:0.717697 19:0.00792678 20:0.696054 21:0.5 22:0.500002 23:0.5 24:0.499998 25:0.5746 26:-0.503798 27:0.413019 28:0.495416 29:-0.612667 30:0.647642 31:-0.292282 32:-0.346078 33:0.5 34:0.500002 35:0.5 36:0.499998 37:0.584186 38:0.585145 39:0.404033 40:0.391267 41:0.518414 42:0.554051 43:0.451386 44:0.469601 45:0.5 46:0.500002 47:0.5 48:0.499998 49:0.561212 50:0.654212 51:0.397514 52:0.31469 53:0.450351 54:0.540414 55:0.542054 56:0.459689 57:0.5 58:0.500002 59:0.5 60:0.499998 
-0 -0 -0 -0.089140474645217 1:0.328954 2:0.372237 3:0.644889 4:0.580815 5:0.328954 6:0.372237 7:0.644889 8:0.580815 9:0.355573 10:0.396952 11:0.632386 12:0.562214 13:-0.104082 14:0.685962 15:0.163868 16:0.701263 17:-0.209641 18:0.803986 19:0.065399 20:0.552613 21:0.5 22:0.500002 23:0.5 24:0.499998 25:0.518325 26:-0.519825 27:0.375836 28:0.56557 29:-0.609929 30:0.670751 31:-0.194678 32:-0.374405 33:0.5 34:0.500002 35:0.5 36:0.499998 37:0.535138 38:0.604437 39:0.447311 40:0.384962 41:0.499681 42:0.585354 43:0.475608 44:0.426001 45:0.5 46:0.500002 47:0.5 48:0.499998 49:0.549167 50:0.686071 51:0.378457 52:0.290675 53:0.443886 54:0.55019 55:0.557866 56:0.434789 57:0.5 58:0.500002 59:0.5 60:0.499998 
-0 -0 -1.523765739147106 -0 1:0.485064 2:0.335986 3:0.522729 4:0.615289 5:0.485064 6:0.335986 7:0.522729 8:0.615289 9:0.501305 10:0.346978 11:0.516549 12:0.601229 13:-0.418596 14:0.676919 15:0.350892 16:0.493389 17:-0.482239 18:0.717245 19:0.283259 20:0.415656 21:0.5 22:0.500002 23:0.5 24:0.499998 25:0.611644 26:-0.366982 27:0.432222 28:0.551724 29:0.705964 30:-0.502896 31:0.25008 32:0.431475 33:0.5 34:0.500002 35:0.5 36:0.499998 37:0.597652 38:0.605838 39:0.382869 40:0.359422 41:0.511268 42:0.521978 43:0.491578 44:0.47381 45:0.5 46:0.500002 47:0.5 48:0.499998 49:0.596275 50:0.517247 51:0.388831 52:0.475103 53:0.538791 54:0.487494 55:0.426909 56:0.538333 57:0.5 58:0.500002 59:0.5 60:0.499998 
-0 -0.3408661889997248 -0 -0 1:0.277434 2:0.464968 3:0.625643 4:0.561611 5:0.277434 6:0.464968 7:0.625643 8:0.561611 9:0.304385 10:0.49048 11:0.607678 12:0.545442 13:-0.499698 14:0.577799 15:0.48272 16:0.428289 17:0.58527 18:-0.542839 19:-0.410699 20:-0.440582 21:0.5 22:0.500002 23:0.5 24:0.499998 25:0.606156 26:-0.266162 27:0.527278 28:0.532645 29:0.730646 30:-0.406085 31:0.334071 32:0.435485 33:0.5 34:0.500002 35:0.5 36:0.499998 37:0.471917 38:0.634731 39:0.527732 40:0.309693 41:0.452671 42:0.641465 43:0.525545 44:0.327741 45:0.5 46:0.500002 47:0.5 48:0.499998 49:0.596805 50:0.699753 51:0.300433 52:0.252803 53:0.438233 54:0.51216 55:0.563566 56:0.477533 57:0.5 58:0.500002 59:0.5 60:0.499998 
-0 -0 -0 -0.2571769197958789 1:0.2771 2:0.461001 3:0.623111 4:0.567826 5:0.2771 6:0.461001 7:0.623111 8:0.567826 9:0.307084 10:0.488848 11:0.603619 12:0.549882 13:-0.470109 14:0.614488 15:0.495145 16:0.395265 17:0.612848 18:-0.509958 19:-0.38567 20:-0.464348 21:0.5 22:0.500002 23:0.5 24:0.499998 25:0.581909 26:-0.255648 27:0.550412 28:0.541362 29:0.703342 30:-0.375347 31:0.385256 32:0.464761 33:0.5 34:0.500002 35:0.5 36:0.499998 37:0.481133 38:0.626238 39:0.529502 40:0.30978 41:0.449993 42:0.639771 43:0.522984 44:0.338654 45:0.5 46:0.500002 47:0.5 48:0.499998 49:0.609961 50:0.686356 51:0.296866 52:0.26217 53:0.451457 54:0.507248 55:0.549467 56:0.486797 57:0.5 58:0.500002 59:0.5 60:0.499998 
-0 -0 -0.7898576959460241 -0 1:0.28894 2:0.449891 3:0.613344 4:0.581309 5:0.28894 6:0.449891 7:0.613344 8:0.581309 9:0.320901 10:0.477885 11:0.594288 12:0.561668 13:-0.452426 14:0.644477 15:0.486325 16:0.378746 17:0.602653 18:-0.50964 19:-0.373695 20:-0.487267 21:0.5 22:0.500002 23:0.5 24:0.499998 25:0.568567 26:-0.266171 27:0.549369 28:0.551434 29:0.663727 30:-0.357188 31:0.430134 32:0.496858 33:0.5 34:0.500002 35:0.5 36:0.499998 37:0.505855 38:0.630967 39:0.504238 40:0.302879 41:0.447071 42:0.619816 43:0.528019 44:0.370339 45:0.5 46:0.500002 47:0.5 48:0.499998 49:0.616467 50:0.660457 51:0.312297 52:0.29366 53:0.466287 54:0.500408 55:0.532282 56:0.498843 57:0.5 58:0.500002 59:0.5 60:0.499998 
