svm_type c_svc
kernel_type rbf
gamma 0.125
nr_class 4
total_sv 236
rho 0.482111 0.480757 -0.56418 -0.0546183 -1.06293 -0.825652
label 1 2 3 4
nr_sv 45 89 80 22
SV
0 1.738513307555244 0 1:0.694346 2:0.69368 3:0.5056 4:0.374834 5:0.552774 6:0.508045 7:0.5056 8:0.428542 9:0.678775 10:0.681215 11:0.297645 12:0.304833 13:0.726211 14:0.171325 15:0.654519 16:-0.165214 17:0.702371 18:0.121557 19:0.773151 20:-0.292329 21:0.514051 22:1 23:0.519158 24:0.745525 25:0.11335 26:0.675113 27:0.0569158 28:0.808554 29:0.0999663 30:0.797433 31:-0.036457 32:0.716019 33:1 34:-1 35:-1 36:1 37:-0.644608 38:0.787568 39:0.612951 40:-0.588498 41:-0.444107 42:0.62643 43:0.710289 44:-0.707072 45:-0.75249 46:1 47:1 48:-1 49:0.69488 50:-0.741035 51:-0.631217 52:0.732366 53:0.702392 54:-0.744293 55:-0.727915 56:0.611159 57:0.473491 58:-0.274194 59:0.666 60:-0.116195 
0.1823186719837765 0 0 1:0.69297 2:0.692981 3:0.504483 4:0.379051 5:0.551512 6:0.507496 7:0.504483 8:0.432397 9:0.679517 10:0.679156 11:0.297348 12:0.306515 13:0.72574 14:0.168167 15:0.656258 16:-0.165572 17:0.708643 18:0.1215 19:0.768897 20:-0.282689 21:0.514051 22:1 23:0.519158 24:0.745525 25:0.112085 26:0.677355 27:0.054758 28:0.807006 29:0.110915 30:0.790903 31:-0.0248429 32:0.717344 33:1 34:-1 35:-1 36:1 37:-0.646425 38:0.793811 39:0.607824 40:-0.574642 41:-0.434765 42:0.619513 43:0.714969 44:-0.713087 45:-0.75249 46:1 47:1 48:-1 49:0.696302 50:-0.752833 51:-0.620861 52:0.725497 53:0.688133 54:-0.730683 55:-0.749948 56:0.617073 57:0.473491 58:-0.274194 59:0.666 60:-0.116195 
0.3111820931601638 0 0.1518106999208958 1:0.67917 2:0.675801 3:0.515791 4:0.407731 5:0.538866 6:0.494008 7:0.515791 8:0.458612 9:0.67 10:0.669093 11:0.299981 12:0.325653 13:0.735674 14:0.159958 15:0.647034 16:-0.146836 17:0.684056 18:0.109957 19:0.788703 20:-0.295246 21:0.514051 22:1 23:0.519158 24:0.745525 25:0.110289 26:0.679302 27:0.0583196 28:0.804944 29:0.112744 30:0.781608 31:-0.0221143 32:0.723252 33:1 34:-1 35:-1 36:1 37:-0.633646 38:0.788364 39:0.621211 40:-0.579678 41:-0.439071 42:0.628758 43:0.714698 44:-0.693589 45:-0.75249 46:1 47:1 48:-1 49:0.718514 50:-0.774184 51:-0.612909 52:0.674164 53:0.562261 54:-0.662442 55:-0.82529 56:0.688127 57:0.473491 58:-0.274194 59:0.666 60:-0.116195 
0.4758053265243722 0 0 1:0.696822 2:0.683518 3:0.490082 4:0.401514 5:0.555042 6:0.500067 7:0.490082 8:0.452929 9:0.686466 10:0.670422 11:0.283808 12:0.323025 13:0.737391 14:0.167066 15:0.640492 16:-0.130982 17:0.702846 18:0.0445826 19:0.78561 20:-0.401449 21:0.514051 22:1 23:0.519158 24:0.745525 25:0.517661 26:0.621965 27:-0.338217 28:0.433543 29:0.444594 30:0.644204 31:-0.488843 32:0.480436 33:1 34:-1 35:-1 36:1 37:-0.610646 38:0.805545 39:0.623702 40:-0.536952 41:-0.417829 42:0.634197 43:0.726719 44:-0.662692 45:-0.75249 46:1 47:1 48:-1 49:0.711118 50:-0.815996 51:-0.621123 52:0.637458 53:0.547374 54:-0.690682 55:-0.856683 56:0.667616 57:0.473491 58:-0.274194 59:0.666 60:-0.116195 
0 5.930013140970226 0 1:0.709851 2:0.679455 3:0.483633 4:0.394721 5:0.566983 6:0.496876 7:0.483633 8:0.44672 9:0.695624 10:0.6662 11:0.279092 12:0.321594 13:0.722484 14:0.503698 15:0.37898 16:-0.593443 17:0.486411 18:0.29031 19:0.709919 20:-0.881204 21:0.514051 22:1 23:0.519158 24:0.745525 25:0.554727 26:0.612103 27:-0.395324 28:0.332143 29:0.333529 30:0.492653 31:-0.658058 32:0.510738 33:1 34:-1 35:-1 36:1 37:-0.596549 38:0.8073 39:0.627957 40:-0.540525 41:-0.40993 42:0.652829 43:0.72018 44:-0.656805 45:-0.75249 46:1 47:1 48:-1 49:0.723485 50:-0.807914 51:-0.598044 52:0.639101 53:0.524073 54:-0.669036 55:-0.848805 56:0.693912 57:0.473491 58:-0.274194 59:0.666 60:-0.116195 
0.2897119418444689 0 0 1:0.747076 2:0.67376 3:0.44333 4:0.388406 5:0.601098 6:0.492405 7:0.44333 8:0.440948 9:0.726532 10:0.653574 11:0.251941 12:0.325891 13:0.572559 14:0.44549 15:0.605124 16:-0.601083 17:0.703708 18:0.424518 19:0.590443 20:-0.567285 21:0.514051 22:1 23:0.519158 24:0.745525 25:0.511332 26:0.53915 27:-0.381519 28:0.53203 29:0.615142 30:0.714324 31:-0.302932 32:0.366736 33:1 34:-1 35:-1 36:1 37:-0.594694 38:0.821309 39:0.608019 40:-0.546581 41:-0.405184 42:0.65751 43:0.717684 44:-0.66102 45:-0.75249 46:1 47:1 48:-1 49:0.703546 50:-0.832102 51:-0.599795 52:0.645413 53:0.5214 54:-0.705573 55:-0.850667 56:0.67924 57:0.473491 58:-0.274194 59:0.666 60:-0.116195 
0.4498687230801255 0 0 1:0.650295 2:0.706082 3:0.546184 4:0.373993 5:0.512403 6:0.517783 7:0.546184 8:0.427773 9:0.639966 10:0.701716 11:0.324863 12:0.295852 13:0.752277 14:0.537406 15:0.298436 16:-0.567269 17:-0.529655 18:-0.495217 19:-0.902193 20:0.457987 21:0.514051 22:1 23:0.519158 24:0.745525 25:0.420905 26:0.787242 27:-0.133169 28:0.3778 29:0.268582 30:0.436611 31:-0.451331 32:0.732988 33:1 34:-1 35:-1 36:1 37:-0.594519 38:0.804428 39:0.638017 40:-0.521003 41:-0.400031 42:0.661641 43:0.717919 44:-0.656596 45:-0.75249 46:1 47:1 48:-1 49:0.733115 50:-0.751252 51:-0.587022 52:0.687016 53:0.558528 54:-0.639319 55:-0.799762 56:0.712326 57:0.473491 58:-0.274194 59:0.666 60:-0.116195 
0 13.90081768127649 0 1:0.641811 2:0.733629 3:0.548996 4:0.344566 5:0.504628 6:0.539411 7:0.548996 8:0.400874 9:0.629187 10:0.730075 11:0.327889 12:0.271724 13:0.664207 14:0.528888 15:0.412958 16:-0.640114 17:-0.493362 18:-0.515595 19:-0.902996 20:0.466631 21:0.514051 22:1 23:0.519158 24:0.745525 25:0.391871 26:0.756212 27:-0.143368 28:0.477376 29:0.287931 30:0.484089 31:-0.39726 32:0.731605 33:1 34:-1 35:-1 36:1 37:-0.608698 38:0.803134 39:0.623733 40:-0.552306 41:-0.426206 42:0.643376 43:0.720241 44:-0.65927 45:-0.75249 46:1 47:1 48:-1 49:0.733366 50:-0.717802 51:-0.584912 52:0.718161 53:0.585671 54:-0.625496 55:-0.771413 56:0.715922 57:0.473491 58:-0.274194 59:0.666 60:-0.116195 
0.4295625313522797 1.210972828436817 0.0005623478560262362 1:0.241625 2:0.955905 3:0.820918 4:-0.186283 5:0.13788 6:0.713929 7:0.820918 8:-0.08437 9:0.218773 10:0.963564 11:0.557615 12:-0.201326 13:0.166276 14:0.898384 15:0.198396 16:-0.866664 17:-0.0938919 18:-0.46563 19:-0.528797 20:0.999183 21:0.514051 22:1 23:0.519158 24:0.745525 25:-0.0601142 26:0.97107 27:0.000281661 28:0.408776 29:-0.0316032 30:0.392361 31:-0.0888437 32:0.9391 33:1 34:-1 35:-1 36:1 37:-0.997709 38:0.600344 39:0.344665 40:-0.911056 41:-0.84139 42:0.414847 43:0.51934 44:-0.910899 45:-0.75249 46:1 47:1 48:-1 49:0.694543 50:-0.722262 51:-0.666805 52:0.727983 53:0.592624 54:-0.634924 55:-0.826986 56:0.679918 57:0.473491 58:-0.274194 59:0.666 60:-0.116195 
0.9892636040194182 1.028375601818331 0.3046604393387488 1:0.241935 2:0.954378 3:0.824763 4:-0.204435 5:0.138164 6:0.71273 7:0.824763 8:-0.100962 9:0.218366 10:0.962982 11:0.56056 12:-0.216899 13:0.165077 14:0.909618 15:0.184728 16:-0.853607 17:-0.102393 18:-0.478712 19:-0.519944 20:1 21:0.514051 22:1 23:0.519158 24:0.745525 25:-0.0575444 26:0.98379 27:0.0157192 28:0.373112 29:-0.0172124 30:0.428978 31:-0.0796327 32:0.925952 33:1 34:-1 35:-1 36:1 37:0.583758 38:-0.992289 39:-0.851148 40:0.4199 41:-0.851152 42:0.418787 43:0.506299 44:-0.915029 45:-0.75249 46:1 47:1 48:-1 49:0.699255 50:-0.739957 51:-0.663786 52:0.706844 53:0.568311 54:-0.633094 55:-0.844039 56:0.685551 57:0.473491 58:-0.274194 59:0.666 60:-0.116195 
0.923244166522028 0.8454776367364635 0.2825258561203007 1:0.261501 2:0.993842 3:0.772597 4:-0.194761 5:0.156095 6:0.743715 7:0.772597 8:-0.0921195 9:0.244004 10:0.986321 11:0.530096 12:-0.210774 13:0.137192 14:0.85915 15:0.251605 16:-0.923848 17:-0.182225 18:-0.668647 19:-0.543177 20:0.885941 21:0.514051 22:1 23:0.519158 24:0.745525 25:-0.0598316 26:0.989292 27:0.0289467 28:0.356412 29:-0.00313935 30:0.642176 31:-0.0450242 32:0.834571 33:1 34:-1 35:-1 36:1 37:-0.987208 38:0.61568 39:0.327612 40:-0.920747 41:0.67903 42:-0.869733 43:-0.814272 44:0.206669 45:-0.75249 46:1 47:1 48:-1 49:0.700125 50:-0.825297 51:-0.661929 52:0.618802 53:0.514232 54:-0.66728 55:-0.909086 56:0.664435 57:0.473491 58:-0.274194 59:0.666 60:-0.116195 
0.4655872478567573 0 0.1232516643068444 1:0.372293 2:0.952442 3:0.6999 4:0.041402 5:0.25763 6:0.71121 7:0.6999 8:0.123755 9:0.355684 10:0.938994 11:0.471062 12:0.00121786 13:0.272457 14:0.756584 15:0.424256 16:-0.821451 17:0.259646 18:0.599935 19:0.52932 20:-0.994103 21:0.514051 22:1 23:0.519158 24:0.745525 25:-0.0933296 26:0.803126 27:0.172819 28:0.676806 29:-0.0376659 30:0.869083 31:0.15028 32:0.672254 33:1 34:-1 35:-1 36:1 37:-0.785665 38:0.724187 39:0.591295 40:-0.602724 41:-0.586506 42:0.561746 43:0.681324 44:-0.738942 45:-0.75249 46:1 47:1 48:-1 49:0.602875 50:-0.770251 51:-0.859622 52:0.673159 53:0.677409 54:-0.83793 55:-0.868737 56:0.492615 57:0.473491 58:-0.274194 59:0.666 60:-0.116195 
0.6967346921296795 0.6312751727162462 0.2010815710738917 1:0.528863 2:0.876635 3:0.575806 4:0.231691 5:0.401117 6:0.651691 7:0.575806 8:0.297696 9:0.50778 10:0.858764 11:0.369019 12:0.1792 13:0.483939 14:0.651569 15:0.450624 16:-0.701729 17:0.396582 18:0.511438 19:0.619645 20:-0.871755 21:0.514051 22:1 23:0.519158 24:0.745525 25:0.0630113 26:0.72361 27:0.0222829 28:0.77891 29:0.0567624 30:0.838909 31:-0.0451787 32:0.697459 33:1 34:-1 35:-1 36:1 37:-0.657513 38:0.751892 39:0.687506 40:-0.435384 41:-0.438869 42:0.627449 43:0.725806 44:-0.65735 45:-0.75249 46:1 47:1 48:-1 49:0.526047 50:-0.891096 51:-1 52:0.486562 53:-0.929433 54:0.642358 55:0.63313 56:-0.9987 57:0.473491 58:-0.274194 59:0.666 60:-0.116195 
0.5353574048440257 0.4706912580367106 0.1632551282869579 1:0.548364 2:0.866429 3:0.554996 4:0.254221 5:0.418989 6:0.643678 7:0.554996 8:0.318291 9:0.528217 10:0.846892 11:0.352578 12:0.199267 13:0.508396 14:0.634765 15:0.453741 16:-0.686356 17:0.415602 18:0.500605 19:0.628916 20:-0.850438 21:0.514051 22:1 23:0.519158 24:0.745525 25:0.0865894 26:0.715505 27:0.00654425 28:0.780753 29:0.0808545 30:0.816736 31:-0.0668972 32:0.706661 33:1 34:-1 35:-1 36:1 37:-0.631556 38:0.759956 39:0.694577 40:-0.420803 41:-0.420684 42:0.635004 43:0.732999 44:-0.633714 45:-0.75249 46:1 47:1 48:-1 49:-0.930108 50:0.625092 51:0.708737 52:-0.816264 53:-0.916253 54:0.669136 55:0.641089 56:-0.975515 57:0.473491 58:-0.274194 59:0.666 60:-0.116195 
0.3910137402556675 0 0.1134295139308411 1:0.689254 2:0.709364 3:0.472241 4:0.398535 5:0.548107 6:0.520359 7:0.472241 8:0.450207 9:0.678155 10:0.696208 11:0.269945 12:0.321065 13:0.733134 14:0.692452 15:0.133363 16:-0.288902 17:-0.468886 18:-0.653043 19:-0.846937 20:0.470559 21:0.514051 22:1 23:0.519158 24:0.745525 25:0.665272 26:0.63746 27:-0.094497 28:0.208392 29:0.429161 30:0.317514 31:-0.618723 32:0.560687 33:1 34:-1 35:-1 36:1 37:-0.611225 38:0.767151 39:0.668571 40:-0.553308 41:-0.426332 42:0.63486 43:0.722791 44:-0.666967 45:-0.75249 46:1 47:1 48:-1 49:-0.7897 50:0.748934 51:0.805253 52:-0.645985 53:-0.726115 54:0.801015 55:0.738966 56:-0.852434 57:0.473491 58:-0.274194 59:0.666 60:-0.116195 
0.6545282100477799 0.7637463883953306 0.09620766400515121 1:0.670891 2:0.705973 3:0.502082 4:0.396501 5:0.531279 6:0.517697 7:0.502082 8:0.448347 9:0.660764 10:0.69968 11:0.28917 12:0.316355 13:0.596012 14:0.592523 15:0.451511 16:-0.583221 17:-0.415949 18:-0.58998 19:-0.899613 20:0.459021 21:0.514051 22:1 23:0.519158 24:0.745525 25:0.632957 26:0.481246 27:-0.362516 28:0.42383 29:0.395654 30:0.2943 31:-0.681837 32:0.532164 33:1 34:-1 35:-1 36:1 37:-0.607011 38:0.786456 39:0.637852 40:-0.582215 41:-0.439011 42:0.639406 43:0.718739 44:-0.659129 45:-0.75249 46:1 47:1 48:-1 49:-0.792333 50:0.763403 51:0.774904 52:-0.670583 53:-0.728371 54:0.795846 55:0.728063 56:-0.873076 57:0.473491 58:-0.274194 59:0.666 60:-0.116195 
0 0 0.1209369057630806 1:0.874313 2:0.357304 3:0.1488 4:0.675313 5:0.717703 6:0.243942 7:0.1488 8:0.703207 9:0.864771 10:0.345713 11:-0.0153379 12:0.568751 13:0.926356 14:0.129834 15:0.412232 16:-0.256688 17:0.516465 18:0.08507 19:0.880675 20:-0.436317 21:0.514051 22:1 23:0.519158 24:0.745525 25:0.67316 26:0.279063 27:-0.516611 28:0.426363 29:0.438995 30:0.189969 31:-0.778491 32:0.411978 33:1 34:-1 35:-1 36:1 37:-0.227585 38:0.792218 39:0.776906 40:-0.209572 41:-0.0433187 42:0.722792 43:0.761691 44:-0.40383 45:-0.75249 46:1 47:1 48:-1 49:-0.52257 50:0.876436 51:0.920311 52:-0.222851 53:-0.337454 54:1 55:0.810814 56:-0.518432 57:0.473491 58:-0.274194 59:0.666 60:-0.116195 
0.8207961953349616 0.6258237676715646 0 1:0.90925 2:0.343831 3:0.0881214 4:0.659233 5:0.749721 6:0.233363 7:0.0881214 8:0.688508 9:0.891371 10:0.325362 11:-0.0600117 12:0.566081 13:0.950916 14:0.164837 15:0.347435 16:-0.28476 17:0.587357 18:0.102046 19:0.835761 20:-0.476515 21:0.514051 22:1 23:0.519158 24:0.745525 25:0.69224 26:0.257024 27:-0.505985 28:0.422001 29:0.425063 30:0.135912 31:-0.80011 32:0.407783 33:1 34:-1 35:-1 36:1 37:-0.186803 38:0.798305 39:0.768524 40:-0.179774 41:-0.00449693 42:0.707502 43:0.769305 44:-0.379566 45:-0.75249 46:1 47:1 48:-1 49:-0.505023 50:0.893109 51:0.908537 52:-0.158194 53:-0.2666 54:0.998425 55:0.821607 56:-0.512131 57:0.473491 58:-0.274194 59:0.666 60:-0.116195 
0 0 0.01890140527249742 1:0.898955 2:0.350946 3:0.0987181 4:0.665362 5:0.740286 6:0.23895 7:0.0987181 8:0.69411 9:0.879883 10:0.332784 11:-0.0509094 12:0.572134 13:0.931226 14:0.17245 15:0.381049 16:-0.265716 17:0.546314 18:0.115272 19:0.855575 20:-0.466705 21:0.514051 22:1 23:0.519158 24:0.745525 25:0.680569 26:0.270222 27:-0.504548 28:0.434865 29:0.431275 30:0.158759 31:-0.783664 32:0.420169 33:1 34:-1 35:-1 36:1 37:-0.207636 38:0.790416 39:0.777703 40:-0.176716 41:-0.00812471 42:0.704844 43:0.770076 44:-0.403207 45:-0.75249 46:1 47:1 48:-1 49:-0.515975 50:0.885478 51:0.913343 52:-0.172022 53:-0.275652 54:0.993523 55:0.822222 56:-0.528733 57:0.473491 58:-0.274194 59:0.666 60:-0.116195 
0.05912006819098553 0 0.2438030778314993 1:0.685195 2:0.512754 3:0.434926 4:0.631709 5:0.544387 6:0.365992 7:0.434926 8:0.663348 9:0.783715 10:0.590961 11:0.14768 12:0.408945 13:0.668327 14:0.661745 15:0.176456 16:-0.681505 17:-0.769792 18:-0.720012 19:-0.641321 20:0.469814 21:0.514051 22:1 23:0.519158 24:0.745525 25:0.704642 26:0.47187 27:-0.465091 28:0.126017 29:-0.85777 30:-0.605228 31:0.68258 32:-0.900341 33:1 34:-1 35:-1 36:1 37:0.566409 38:0.53273 39:0.341021 40:0.538985 41:0.48024 42:0.411446 43:0.455976 44:0.48155 45:-0.75249 46:1 47:1 48:-1 49:0.579962 50:0.485131 51:0.469284 52:0.776142 53:0.663114 54:0.365824 55:0.569221 56:0.537311 57:0.473491 58:-0.274194 59:0.666 60:-0.116195 
0.5444449632551549 0.8193985715885154 0 1:0.71781 2:0.516659 3:0.397225 4:0.620526 5:0.574277 6:0.369058 7:0.397225 8:0.653127 9:0.793058 10:0.580791 11:0.127304 12:0.421571 13:0.641963 14:0.677345 15:0.16901 16:-0.715463 17:-0.762114 18:-0.73433 19:-0.616219 20:0.494476 21:0.514051 22:1 23:0.519158 24:0.745525 25:0.669641 26:0.535696 27:-0.434246 28:0.148147 29:-0.83326 30:-0.655939 31:0.645537 32:-0.947551 33:1 34:-1 35:-1 36:1 37:0.563996 38:0.498419 39:0.352311 40:0.575969 41:0.496872 42:0.398387 43:0.440951 44:0.491984 45:-0.75249 46:1 47:1 48:-1 49:0.581116 50:0.463773 51:0.460261 52:0.799339 53:0.675222 54:0.346411 55:0.557339 56:0.546203 57:0.473491 58:-0.274194 59:0.666 60:-0.116195 
0 0.06635449036076585 0 1:0.698205 2:0.55256 3:0.443039 4:0.578651 5:0.55631 6:0.397246 7:0.443039 8:0.614849 9:0.781547 10:0.63275 11:0.152245 12:0.370713 13:0.635358 14:0.644237 15:0.261247 16:-0.700195 17:0.554475 18:0.445363 19:0.520618 20:-0.958267 21:0.514051 22:1 23:0.519158 24:0.745525 25:0.609202 26:0.635315 27:-0.350857 28:0.201769 29:0.469387 30:0.646753 31:-0.588415 32:0.360627 33:1 34:-1 35:-1 36:1 37:0.521775 38:0.520462 39:0.40624 40:0.554852 41:0.470611 42:0.432938 43:0.469599 44:0.461539 45:-0.75249 46:1 47:1 48:-1 49:0.552039 50:0.501825 51:0.502684 52:0.77124 53:0.635106 54:0.397065 55:0.586196 56:0.529536 57:0.473491 58:-0.274194 59:0.666 60:-0.116195 
0.2497973997098085 0 0.2733396517095841 1:0.653656 2:0.547808 3:0.511279 4:0.574404 5:0.515484 6:0.393515 7:0.511279 8:0.610966 9:0.760492 10:0.665512 11:0.180843 12:0.340676 13:0.606179 14:0.687591 15:0.227434 16:-0.707099 17:0.630557 18:0.484409 19:0.410239 20:-0.957463 21:0.514051 22:1 23:0.519158 24:0.745525 25:0.655832 26:0.585642 27:-0.324783 28:0.220125 29:0.554345 30:0.626136 31:-0.548434 32:0.325696 33:1 34:-1 35:-1 36:1 37:0.505084 38:0.554247 39:0.425415 40:0.511812 41:0.447022 42:0.465556 43:0.486701 44:0.438782 45:-0.75249 46:1 47:1 48:-1 49:0.542811 50:0.534931 51:0.53134 52:0.728311 53:0.611638 54:0.427309 55:0.616288 56:0.506495 57:0.473491 58:-0.274194 59:0.666 60:-0.116195 
0.09658701969146531 0 0.1035745882403172 1:0.66073 2:0.745085 3:0.475763 4:0.387488 5:0.521966 6:0.548406 7:0.475763 8:0.440109 9:0.669367 10:0.758718 11:0.247399 12:0.284816 13:0.306009 14:0.809558 15:0.262187 16:-0.869122 17:-0.465463 18:-0.850621 19:-0.567535 20:0.637539 21:0.514051 22:1 23:0.519158 24:0.745525 25:0.777798 26:0.243307 27:-0.474154 28:0.269149 29:0.610991 30:0.256943 31:-0.732061 32:0.252914 33:1 34:-1 35:-1 36:1 37:0.382996 38:0.580345 39:0.550819 40:0.479049 41:0.528376 42:0.651593 43:0.474209 44:0.220326 45:-0.75249 46:1 47:1 48:-1 49:0.487279 50:0.554528 51:0.684569 52:0.628667 53:0.615272 54:0.679151 55:0.540507 56:0.374025 57:0.473491 58:-0.274194 59:0.666 60:-0.116195 
0.6128240350438978 0 0 1:0.616704 2:0.786628 3:0.56239 4:0.282247 5:0.481619 6:0.581022 7:0.56239 8:0.343909 9:0.6261 10:0.807137 11:0.316623 12:0.187067 13:0.753437 14:0.719489 15:-0.180212 16:-0.42187 17:0.720357 18:0.487025 19:0.344163 20:-0.898023 21:0.514051 22:1 23:0.519158 24:0.745525 25:0.872096 26:0.425954 27:0.0209976 28:-0.263082 29:0.704811 30:0.486089 31:-0.630665 32:0.0908529 33:1 34:-1 35:-1 36:1 37:0.325907 38:0.628494 39:0.603417 40:0.389064 41:0.416207 42:0.678851 43:0.537296 44:0.201213 45:-0.75249 46:1 47:1 48:-1 49:0.432404 50:0.632127 51:0.7278 52:0.548677 53:0.567291 54:0.74349 55:0.598573 56:0.291842 57:0.473491 58:-0.274194 59:0.666 60:-0.116195 
0.06953304101233485 0 0.4023949522729267 1:0.61742 2:0.785159 3:0.558746 4:0.288721 5:0.482275 6:0.579869 7:0.558746 8:0.349827 9:0.62716 10:0.80731 11:0.311972 12:0.192153 13:0.751206 14:0.723683 15:-0.165033 16:-0.406671 17:0.71609 18:0.502329 19:0.346866 20:-0.878391 21:0.514051 22:1 23:0.519158 24:0.745525 25:0.877822 26:0.418105 27:-0.0136381 28:-0.19449 29:0.711673 30:0.456655 31:-0.62791 32:0.111661 33:1 34:-1 35:-1 36:1 37:0.322693 38:0.625884 39:0.602496 40:0.399334 41:0.431383 42:0.679991 43:0.533834 44:0.191083 45:-0.75249 46:1 47:1 48:-1 49:0.441216 50:0.634005 51:0.720791 52:0.543324 53:0.565939 54:0.741636 55:0.596175 56:0.297913 57:0.473491 58:-0.274194 59:0.666 60:-0.116195 
0.1500166977098655 0 0 1:0.589481 2:0.818412 3:0.534277 4:0.308283 5:0.45667 6:0.605977 7:0.534277 8:0.367708 9:0.602395 10:0.828025 11:0.30106 12:0.210006 13:-0.0327732 14:0.957036 15:0.0654463 16:-0.936844 17:-0.154593 18:-0.773202 19:-0.330955 20:0.929596 21:0.514051 22:1 23:0.519158 24:0.745525 25:0.996367 26:-0.0827583 27:-0.287981 28:-0.145819 29:-0.994382 30:-0.115967 31:0.838286 32:-0.479448 33:1 34:-1 35:-1 36:1 37:0.344556 38:0.631408 39:0.603155 40:0.359842 41:0.387774 42:0.664913 43:0.54661 44:0.227889 45:-0.75249 46:1 47:1 48:-1 49:0.455626 50:0.637777 51:0.7248 52:0.511678 53:0.55667 54:0.745625 55:0.602873 56:0.294694 57:0.473491 58:-0.274194 59:0.666 60:-0.116195 
0.9348386929788514 0.7115263877090499 0 1:0.606333 2:0.816467 3:0.517717 4:0.308645 5:0.472115 6:0.604451 7:0.517717 8:0.368039 9:0.617785 10:0.827198 11:0.286077 12:0.211483 13:-0.0379564 14:0.97725 15:0.0469854 16:-0.903911 17:-0.150437 18:-0.771967 19:-0.316154 20:0.936193 21:0.514051 22:1 23:0.519158 24:0.745525 25:1 26:-0.0890842 27:-0.276247 28:-0.154017 29:-0.998211 30:-0.114152 31:0.83657 32:-0.470275 33:1 34:-1 35:-1 36:1 37:0.329552 38:0.610483 39:0.613828 40:0.400562 41:0.459733 42:0.694586 43:0.517604 44:0.170933 45:-0.75249 46:1 47:1 48:-1 49:0.458621 50:0.630456 51:0.715643 52:0.530844 53:0.577822 54:0.738407 55:0.592386 56:0.294452 57:0.473491 58:-0.274194 59:0.666 60:-0.116195 
0 0 0.2497204898674755 1:0.61745 2:0.811133 3:0.50573 4:0.316276 5:0.482303 6:0.600263 7:0.50573 8:0.375015 9:0.629825 10:0.821931 11:0.275391 12:0.217436 13:-0.0314578 14:0.990706 15:0.0216094 16:-0.882091 17:-0.164594 18:-0.77436 19:-0.301096 20:0.938943 21:0.514051 22:1 23:0.519158 24:0.745525 25:0.997962 26:-0.0817476 27:-0.281799 28:-0.151871 29:-0.974907 30:-0.11621 31:0.853054 32:-0.477467 33:1 34:-1 35:-1 36:1 37:0.354496 38:0.613812 39:0.595911 40:0.392109 41:0.43031 42:0.665685 43:0.528314 44:0.219136 45:-0.75249 46:1 47:1 48:-1 49:0.465836 50:0.619219 51:0.710404 52:0.543635 53:0.581754 54:0.729155 55:0.584841 56:0.309445 57:0.473491 58:-0.274194 59:0.666 60:-0.116195 
0 0 0.370410816792752 1:0.622114 2:0.809029 3:0.505917 4:0.3126 5:0.486577 6:0.59861 7:0.505917 8:0.371654 9:0.632009 10:0.821328 11:0.274825 12:0.216143 13:-0.0239841 14:1 15:0.000536267 16:-0.865642 17:-0.182598 18:-0.789547 19:-0.288994 20:0.930176 21:0.514051 22:1 23:0.519158 24:0.745525 25:0.99983 26:-0.064593 27:-0.261067 28:-0.138351 29:-0.987622 30:-0.121887 31:0.840651 32:-0.497863 33:1 34:-1 35:-1 36:1 37:0.344594 38:0.610514 39:0.599032 40:0.405679 41:0.470239 42:0.681164 43:0.516346 44:0.17959 45:-0.75249 46:1 47:1 48:-1 49:0.469933 50:0.617062 51:0.711075 52:0.539901 53:0.57613 54:0.72542 55:0.587285 56:0.316498 57:0.473491 58:-0.274194 59:0.666 60:-0.116195 
0 0 0.0454144866093143 1:0.594787 2:0.786083 3:0.561221 4:0.317164 5:0.461533 6:0.580595 7:0.561221 8:0.375826 9:0.609499 10:0.809898 11:0.311473 12:0.212847 13:0.818838 14:0.633978 15:-0.0259712 16:-0.396241 17:0.496469 18:0.289352 19:0.64583 20:-0.993835 21:0.514051 22:1 23:0.519158 24:0.745525 25:0.810274 26:0.520432 27:-0.149908 28:-0.106655 29:-0.882435 30:-0.563756 31:0.672547 32:-0.917499 33:1 34:-1 35:-1 36:1 37:0.317969 38:0.625837 39:0.602107 40:0.405717 41:0.498572 42:0.699998 43:0.512001 44:0.12803 45:-0.75249 46:1 47:1 48:-1 49:0.456258 50:0.638404 51:0.717711 52:0.519683 53:0.566101 54:0.748766 55:0.593156 56:0.292396 57:0.473491 58:-0.274194 59:0.666 60:-0.116195 
0 0.4701416121152203 0 1:0.591151 2:0.793685 3:0.567246 4:0.301959 5:0.458201 6:0.586563 7:0.567246 8:0.361928 9:0.607169 10:0.815035 11:0.318571 12:0.198208 13:0.814708 14:0.640205 15:-0.0261286 16:-0.386908 17:0.484119 18:0.291983 19:0.649135 20:-0.998458 21:0.514051 22:1 23:0.519158 24:0.745525 25:0.817371 26:0.508361 27:-0.158372 28:-0.112852 29:-0.881975 30:-0.558307 31:0.682859 32:-0.905017 33:1 34:-1 35:-1 36:1 37:0.296623 38:0.625413 39:0.613672 40:0.412785 41:0.500388 42:0.707847 43:0.512136 44:0.113536 45:-0.75249 46:1 47:1 48:-1 49:0.445008 50:0.642692 51:0.726614 52:0.517176 53:0.559064 54:0.753702 55:0.600808 56:0.284812 57:0.473491 58:-0.274194 59:0.666 60:-0.116195 
0.53969555280194 0 0.1939573352753876 1:0.58915 2:0.798995 3:0.57183 4:0.289682 5:0.456367 6:0.590733 7:0.57183 8:0.350705 9:0.604129 10:0.82006 11:0.323019 12:0.188139 13:0.809943 14:0.636135 15:0.0141234 16:-0.393835 17:0.453727 18:0.287092 19:0.669106 20:-0.998394 21:0.514051 22:1 23:0.519158 24:0.745525 25:0.821726 26:0.500525 27:-0.150036 28:-0.0965749 29:-0.898867 30:-0.547622 31:0.673289 32:-0.905992 33:1 34:-1 35:-1 36:1 37:0.324976 38:0.643661 39:0.600932 40:0.365234 41:0.41419 42:0.680447 43:0.547461 44:0.183246 45:-0.75249 46:1 47:1 48:-1 49:0.447486 50:0.656752 51:0.721421 52:0.499132 53:0.543363 54:0.753374 55:0.61102 56:0.28884 57:0.473491 58:-0.274194 59:0.666 60:-0.116195 
0.08815380814717322 0 0 1:0.5972 2:0.794677 3:0.570772 4:0.286469 5:0.463745 6:0.587342 7:0.570772 8:0.347768 9:0.611284 10:0.816097 11:0.322006 12:0.185952 13:0.795393 14:0.643862 15:0.0462226 16:-0.402686 17:-0.636333 18:-0.59416 19:-0.809161 20:0.468811 21:0.514051 22:1 23:0.519158 24:0.745525 25:0.826022 26:0.492793 27:-0.16619 28:-0.114514 29:-0.902488 30:-0.56176 31:0.678034 32:-0.881721 33:1 34:-1 35:-1 36:1 37:0.331286 38:0.643511 39:0.596894 40:0.364201 41:0.393265 42:0.664373 43:0.554707 44:0.210068 45:-0.75249 46:1 47:1 48:-1 49:0.453085 50:0.656587 51:0.716378 52:0.498222 53:0.541858 54:0.746933 55:0.612238 56:0.296719 57:0.473491 58:-0.274194 59:0.666 60:-0.116195 
0.09551599493170848 0.1648867651555857 0 1:0.725079 2:0.72707 3:0.429173 4:0.366724 5:0.580938 6:0.534261 7:0.429173 8:0.421129 9:0.728266 10:0.735732 11:0.21313 12:0.273267 13:0.574836 14:0.746888 15:0.0530021 16:-0.786062 17:0.729868 18:0.543888 19:0.164629 20:-0.948413 21:0.514051 22:1 23:0.519158 24:0.745525 25:0.653289 26:0.328378 27:-0.60696 28:0.273356 29:0.598907 30:0.389494 31:-0.688486 32:0.267098 33:1 34:-1 35:-1 36:1 37:0.448845 38:0.587102 39:0.488715 40:0.465352 41:0.471865 42:0.557318 43:0.504054 44:0.32871 45:-0.75249 46:1 47:1 48:-1 49:0.514383 50:0.530419 51:0.650086 52:0.657784 53:0.648315 54:0.652154 55:0.508135 56:0.397429 57:0.473491 58:-0.274194 59:0.666 60:-0.116195 
0.6721220131690405 0 0.2702513318970174 1:0.731307 2:0.711559 3:0.404225 4:0.402543 5:0.586646 6:0.522083 7:0.404225 8:0.453871 9:0.734795 10:0.722269 11:0.189577 12:0.304515 13:0.587832 14:0.743143 15:0.0610013 16:-0.76519 17:0.721476 18:0.543441 19:0.193537 20:-0.943943 21:0.514051 22:1 23:0.519158 24:0.745525 25:0.630269 26:0.265509 27:-0.646162 28:0.333505 29:-0.829761 30:-0.414762 31:0.750597 32:-0.945481 33:1 34:-1 35:-1 36:1 37:0.475582 38:0.571009 39:0.470842 40:0.475781 41:0.507704 42:0.538411 43:0.492254 44:0.329251 45:-0.75249 46:1 47:1 48:-1 49:0.5425 50:0.516437 51:0.628123 52:0.657703 53:0.660288 54:0.616222 55:0.505986 56:0.420443 57:0.473491 58:-0.274194 59:0.666 60:-0.116195 
0 0.5699218286032287 0 1:0.730386 2:0.715409 3:0.399222 4:0.403624 5:0.585803 6:0.525105 7:0.399222 8:0.454858 9:0.734399 10:0.723058 11:0.187801 12:0.305864 13:0.583944 14:0.71935 15:0.088662 16:-0.805899 17:0.697929 18:0.543582 19:0.219672 20:-0.960712 21:0.514051 22:1 23:0.519158 24:0.745525 25:0.626896 26:0.273168 27:-0.634216 28:0.353877 29:-0.830901 30:-0.418327 31:0.737632 32:-0.964422 33:1 34:-1 35:-1 36:1 37:0.465095 38:0.559165 39:0.484674 40:0.491119 41:0.531955 42:0.559186 43:0.477697 44:0.307223 45:-0.75249 46:1 47:1 48:-1 49:0.543824 50:0.511225 51:0.632438 52:0.656885 53:0.660604 54:0.61345 55:0.507755 56:0.421147 57:0.473491 58:-0.274194 59:0.666 60:-0.116195 
0 0.01301555783562398 0 1:0.714403 2:0.702385 3:0.414834 4:0.428634 5:0.571155 6:0.514879 7:0.414834 8:0.477719 9:0.721915 10:0.713085 11:0.197376 12:0.323856 13:0.593767 14:0.700968 15:0.105824 16:-0.813973 17:0.683034 18:0.521989 19:0.25684 20:-0.985028 21:0.514051 22:1 23:0.519158 24:0.745525 25:0.628259 26:0.282282 27:-0.629524 28:0.348983 29:-0.858791 30:-0.432658 31:0.710798 32:-0.968283 33:1 34:-1 35:-1 36:1 37:0.446072 38:0.544912 39:0.500742 40:0.516988 41:0.580558 42:0.595321 43:0.447966 44:0.261041 45:-0.75249 46:1 47:1 48:-1 49:0.540069 50:0.512021 51:0.633626 52:0.659981 53:0.661545 54:0.614791 55:0.508488 56:0.418594 57:0.473491 58:-0.274194 59:0.666 60:-0.116195 
0.1451453950818038 0.165846614222957 0 1:0.655082 2:0.715616 3:0.431746 4:0.47564 5:0.51679 6:0.525268 7:0.431746 8:0.520688 9:0.681202 10:0.719523 11:0.214282 12:0.349852 13:-0.909867 14:-0.943876 15:-0.676347 16:0.464827 17:-0.639885 18:-0.728142 19:-0.605731 20:0.620107 21:0.514051 22:1 23:0.519158 24:0.745525 25:0.705113 26:0.517381 27:-0.364644 28:0.180026 29:0.651481 30:0.658329 31:-0.51715 32:0.183669 33:1 34:-1 35:-1 36:1 37:0.456814 38:0.576274 39:0.482174 40:0.479601 41:0.565356 42:0.602635 43:0.457248 44:0.257828 45:-0.75249 46:1 47:1 48:-1 49:0.53861 50:0.550823 51:0.621949 52:0.631747 53:0.655561 54:0.646678 55:0.506984 56:0.396854 57:0.473491 58:-0.274194 59:0.666 60:-0.116195 
1.182099331969897 0 0.8796790979715122 1:0.624801 2:0.706812 3:0.463455 4:0.49342 5:0.489039 6:0.518355 7:0.463455 8:0.53694 9:0.65724 10:0.714624 11:0.237786 12:0.359352 13:-0.882309 14:-0.897682 15:-0.733784 16:0.496864 17:-0.556594 18:-0.621381 19:-0.672873 20:0.690268 21:0.514051 22:1 23:0.519158 24:0.745525 25:0.682572 26:0.600074 27:-0.298902 28:0.124787 29:0.726264 30:0.707807 31:-0.36981 32:0.143716 33:1 34:-1 35:-1 36:1 37:0.457103 38:0.596144 39:0.475784 40:0.455802 41:0.547351 42:0.60752 43:0.467766 44:0.257791 45:-0.75249 46:1 47:1 48:-1 49:0.540228 50:0.572238 51:0.622437 52:0.603511 53:0.640912 54:0.660945 55:0.516566 56:0.388981 57:0.473491 58:-0.274194 59:0.666 60:-0.116195 
0 0.3748335611753128 0 1:0.636827 2:0.708627 3:0.457216 4:0.482843 5:0.50006 6:0.51978 7:0.457216 8:0.527271 9:0.665872 10:0.71524 11:0.23373 12:0.353015 13:-0.849697 14:-0.924079 15:-0.725412 16:0.5043 17:-0.523513 18:-0.637228 19:-0.661092 20:0.709567 21:0.514051 22:1 23:0.519158 24:0.745525 25:0.695286 26:0.585697 27:-0.298777 28:0.119774 29:0.715442 30:0.718009 31:-0.389374 32:0.132038 33:1 34:-1 35:-1 36:1 37:0.472179 38:0.607116 39:0.458032 40:0.438459 41:0.4863 42:0.559427 43:0.500318 44:0.319324 45:-0.75249 46:1 47:1 48:-1 49:0.533736 50:0.56934 51:0.62197 52:0.616943 53:0.653776 54:0.66865 55:0.505612 56:0.37888 57:0.473491 58:-0.274194 59:0.666 60:-0.116195 
0.5277957249659873 0.6663519812620486 0 1:0.63262 2:0.70332 3:0.465437 4:0.486345 5:0.496205 6:0.515614 7:0.465437 8:0.530473 9:0.662171 10:0.71298 11:0.238167 12:0.355178 13:-0.879302 14:-0.902757 15:-0.738418 16:0.489511 17:-0.543631 18:-0.617832 19:-0.680608 20:0.691619 21:0.514051 22:1 23:0.519158 24:0.745525 25:0.698224 26:0.580391 27:-0.295587 28:0.127999 29:0.696889 30:0.719825 31:-0.409995 32:0.146073 33:1 34:-1 35:-1 36:1 37:0.463152 38:0.595562 39:0.474947 40:0.449286 41:0.536875 42:0.607083 43:0.467615 44:0.269508 45:-0.75249 46:1 47:1 48:-1 49:0.530595 50:0.575572 51:0.618637 52:0.617505 53:0.656643 54:0.663818 55:0.512612 56:0.37504 57:0.473491 58:-0.274194 59:0.666 60:-0.116195 
0.8080345409311548 0 0 1:0.574969 2:0.656942 3:0.605497 4:0.45858 5:0.443371 6:0.4792 7:0.605497 8:0.505093 9:0.581101 10:0.662724 11:0.364607 12:0.352814 13:0.479851 14:0.87863 15:0.13499 16:-0.5092 17:-0.474289 18:-0.808804 19:-0.632994 20:0.611923 21:0.514051 22:1 23:0.519158 24:0.745525 25:0.661185 26:0.590137 27:-0.142619 28:0.312667 29:0.481922 30:0.350506 31:-0.571102 32:0.547942 33:1 34:-1 35:-1 36:1 37:0.114993 38:0.605699 39:0.777773 40:0.323008 41:0.291855 42:0.779353 43:0.582891 44:0.075654 45:-0.75249 46:1 47:1 48:-1 49:0.775278 50:-0.737635 51:-0.5473 52:0.647907 53:0.555976 54:-0.607231 55:-0.782498 56:0.73345 57:0.473491 58:-0.274194 59:0.666 60:-0.116195 
0 0 0.1945896244498893 1:0.600387 2:0.630015 3:0.586086 4:0.481059 5:0.466665 6:0.458059 7:0.586086 8:0.525641 9:0.603462 10:0.63186 11:0.350695 12:0.376452 13:0.476632 14:0.879287 15:0.1438 16:-0.501387 17:-0.465169 18:-0.811849 19:-0.638101 20:0.607498 21:0.514051 22:1 23:0.519158 24:0.745525 25:0.632727 26:0.622914 27:-0.137525 28:0.316139 29:0.455769 30:0.3675 31:-0.557332 32:0.573945 33:1 34:-1 35:-1 36:1 37:0.15741 38:0.614034 39:0.745688 40:0.337405 41:0.296829 42:0.742975 43:0.58978 44:0.117288 45:-0.75249 46:1 47:1 48:-1 49:0.75005 50:-0.744573 51:-0.567617 52:0.675204 53:0.566188 54:-0.631407 55:-0.785657 56:0.717943 57:0.473491 58:-0.274194 59:0.666 60:-0.116195 
0 0.8122950733936876 0 1:0.605979 2:0.623881 3:0.585339 4:0.481894 5:0.47179 6:0.453242 7:0.585339 8:0.526405 9:0.606262 10:0.627031 11:0.348928 12:0.38013 13:0.462059 14:0.892177 15:0.127504 16:-0.509247 17:-0.461119 18:-0.814328 19:-0.620849 20:0.625689 21:0.514051 22:1 23:0.519158 24:0.745525 25:0.620776 26:0.639542 27:-0.129757 28:0.311691 29:0.448171 30:0.379468 31:-0.547402 32:0.582924 33:1 34:-1 35:-1 36:1 37:0.161867 38:0.610164 39:0.745907 40:0.340506 41:0.304143 42:0.752126 43:0.579944 44:0.117711 45:-0.75249 46:1 47:1 48:-1 49:0.746517 50:-0.746413 51:-0.57164 52:0.677356 53:0.5688 54:-0.635656 55:-0.787178 56:0.7142 57:0.473491 58:-0.274194 59:0.666 60:-0.116195 
-0.4529154524085963 18.71082762708782 0 1:0.589187 2:0.600334 3:0.747681 4:0.306689 5:0.456402 6:0.434755 7:0.747681 8:0.366251 9:0.525976 10:0.679577 11:0.434187 12:0.297765 13:-0.236249 14:0.760429 15:-0.178241 16:0.756176 17:-0.110135 18:0.699069 19:-0.0623254 20:0.758856 21:0.514051 22:1 23:0.519158 24:0.745525 25:0.660474 26:0.390951 27:-0.120237 28:0.590237 29:0.0562238 30:-0.558916 31:-0.802051 32:0.503442 33:1 34:-1 35:-1 36:1 37:-0.680828 38:0.705094 39:0.669259 40:-0.659113 41:-0.476198 42:0.621617 43:0.680507 44:-0.77027 45:-0.75249 46:1 47:1 48:-1 49:0.739261 50:-0.580442 51:-0.563074 52:0.819307 53:0.749033 54:-0.526278 55:-0.699843 56:0.674817 57:0.473491 58:-0.274194 59:0.666 60:-0.116195 
-0.6063355752522558 0 0 1:0.616502 2:0.55967 3:0.806465 4:0.206407 5:0.481434 6:0.402828 7:0.806465 8:0.274584 9:0.560804 10:0.611715 11:0.509593 12:0.210649 13:-0.23625 14:0.760429 15:-0.178243 16:0.756176 17:-0.109945 18:0.698887 19:-0.0626588 20:0.759079 21:0.514051 22:1 23:0.519158 24:0.745525 25:0.577615 26:0.376412 27:-0.252507 28:0.686668 29:-0.0529899 30:-0.584535 31:-0.769477 32:0.555594 33:1 34:-1 35:-1 36:1 37:-0.675287 38:0.724175 39:0.637223 40:-0.691946 41:-0.47194 42:0.606744 43:0.685746 44:-0.782019 45:-0.75249 46:1 47:1 48:-1 49:0.717223 50:-0.575165 51:-0.536079 52:0.864906 53:0.749371 54:-0.506382 55:-0.700874 56:0.679667 57:0.473491 58:-0.274194 59:0.666 60:-0.116195 
-0.3475591467824063 1.153711767458279 0 1:0.637071 2:0.555874 3:0.279525 4:0.745424 5:0.500284 6:0.399847 7:0.279525 8:0.767294 9:0.651471 10:0.539071 11:0.10501 12:0.606442 13:0.207911 14:0.545473 15:0.80004 16:-0.437288 17:-0.641206 18:0.138956 19:0.743986 20:-1 21:0.514051 22:1 23:0.519158 24:0.745525 25:0.281525 26:-0.55852 27:0.656864 28:0.719368 29:0.543757 30:-0.681048 31:0.507029 32:0.36615 33:1 34:-1 35:-1 36:1 37:-0.232468 38:0.73295 39:0.839212 40:-0.184684 41:-0.0020572 42:0.731943 43:0.751953 44:-0.435591 45:-0.75249 46:1 47:1 48:-1 49:0.53349 50:-0.930079 51:-0.997856 52:0.411802 53:0.469269 54:-0.999464 55:-0.997159 56:0.419449 57:0.473491 58:-0.274194 59:0.666 60:-0.116195 
-0.125237869785379 0 0 1:0.556729 2:0.632881 3:0.259556 4:0.766169 5:0.426655 6:0.460309 7:0.259556 8:0.786258 9:0.655537 10:0.548734 11:0.157086 12:0.564865 13:0.26967 14:0.556659 15:0.766378 16:-0.425915 17:0.42653 18:-0.418521 19:-0.86459 20:0.483867 21:0.514051 22:1 23:0.519158 24:0.745525 25:0.315143 26:-0.580593 27:0.642623 28:0.700259 29:0.552694 30:-0.67447 31:0.505474 32:0.362474 33:1 34:-1 35:-1 36:1 37:-0.267109 38:0.732328 39:0.839565 40:-0.222052 41:-0.0379664 42:0.734887 43:0.749835 44:-0.463378 45:-0.75249 46:1 47:1 48:-1 49:0.564002 50:-0.922436 51:-0.963191 52:0.418973 53:0.481821 54:-0.967155 55:-0.979195 56:0.455114 57:0.473491 58:-0.274194 59:0.666 60:-0.116195 
-0 2.132973908797853 0 1:0.497734 2:0.681553 3:0.260266 4:0.771988 5:0.372589 6:0.498524 7:0.260266 8:0.791577 9:0.65637 10:0.523634 11:0.237684 12:0.521602 13:0.358764 14:0.56255 15:0.713889 16:-0.429741 17:0.427841 18:-0.356248 19:-0.859682 20:0.518939 21:0.514051 22:1 23:0.519158 24:0.745525 25:0.351894 26:-0.580727 27:0.631941 28:0.681838 29:0.589108 30:-0.674323 31:0.481304 32:0.34324 33:1 34:-1 35:-1 36:1 37:-0.301938 38:0.750586 39:0.818077 40:-0.265202 41:-0.0750277 42:0.710986 43:0.760355 44:-0.501758 45:-0.75249 46:1 47:1 48:-1 49:0.562046 50:-0.900818 51:-0.945129 52:0.483673 53:0.506626 54:-0.938445 55:-0.969974 56:0.469468 57:0.473491 58:-0.274194 59:0.666 60:-0.116195 
-0.4951707381904001 0.8951093044313403 0.04710769497496309 1:0.564474 2:0.573901 3:0.32179 4:0.772825 5:0.433753 6:0.414001 7:0.32179 8:0.792341 9:0.647774 10:0.519349 11:0.180871 12:0.574593 13:0.312918 14:0.546733 15:0.744078 16:-0.478461 17:0.465131 18:-0.321716 19:-0.844735 20:0.524105 21:0.514051 22:1 23:0.519158 24:0.745525 25:0.335424 26:-0.557628 27:0.645611 28:0.689947 29:0.603129 30:-0.685274 31:0.467265 32:0.330567 33:1 34:-1 35:-1 36:1 37:-0.251966 38:0.771732 39:0.799369 40:-0.237709 41:-0.037033 42:0.726515 43:0.755148 44:-0.459124 45:-0.75249 46:1 47:1 48:-1 49:-0.936031 50:0.642795 51:0.666363 52:-0.838346 53:0.466632 54:-0.958733 55:-1 56:0.453708 57:0.473491 58:-0.274194 59:0.666 60:-0.116195 
-0 0.3157227411848885 0 1:0.613779 2:0.548995 3:0.415357 4:0.690429 5:0.478938 6:0.394447 7:0.415357 8:0.717024 9:0.638873 10:0.532528 11:0.220271 12:0.545036 13:0.357687 14:0.534005 15:0.727661 16:-0.483245 17:0.46038 18:-0.291272 19:-0.85469 20:0.519901 21:0.514051 22:1 23:0.519158 24:0.745525 25:0.352915 26:-0.59729 27:0.638231 28:0.663507 29:0.596092 30:-0.691384 31:0.482204 32:0.318868 33:1 34:-1 35:-1 36:1 37:-0.27868 38:0.746017 39:0.824558 40:-0.281909 41:-0.0748028 42:0.727948 43:0.753502 44:-0.477346 45:-0.75249 46:1 47:1 48:-1 49:0.561842 50:-0.905357 51:-0.944424 52:0.477891 53:0.498717 54:-0.928726 55:-0.979892 56:0.473928 57:0.473491 58:-0.274194 59:0.666 60:-0.116195 
-0 0 0.005258022985622486 1:0.449715 2:0.629488 3:0.258921 4:0.846794 5:0.328583 6:0.457645 7:0.258921 8:0.859956 9:0.650096 10:0.49864 11:0.222404 12:0.555493 13:0.420912 14:0.517548 15:0.710729 16:-0.415672 17:0.438656 18:-0.320741 19:-0.884254 20:0.477624 21:0.514051 22:1 23:0.519158 24:0.745525 25:0.346226 26:-0.633308 27:0.596411 28:0.703859 29:0.568434 30:-0.729662 31:0.453527 32:0.350949 33:1 34:-1 35:-1 36:1 37:-0.280451 38:0.734386 39:0.836785 40:-0.250153 41:-0.0461821 42:0.715381 43:0.757791 44:-0.496448 45:-0.75249 46:1 47:1 48:-1 49:0.755213 50:-0.694302 51:-0.611444 52:0.687535 53:0.652295 54:-0.610342 55:-0.77535 56:0.678652 57:0.473491 58:-0.274194 59:0.666 60:-0.116195 
-0.06985810457783746 0 0 1:0.520116 2:0.629952 3:0.291255 4:0.781594 5:0.393101 6:0.458009 7:0.291255 8:0.800357 9:0.655072 10:0.488686 11:0.246175 12:0.538623 13:0.527498 14:0.482267 15:0.663209 16:-0.373191 17:-0.628334 18:-0.00436042 19:0.792814 20:-0.978999 21:0.514051 22:1 23:0.519158 24:0.745525 25:0.363418 26:-0.674975 27:0.536543 28:0.7331 29:0.562069 30:-0.773384 31:0.398148 32:0.370371 33:1 34:-1 35:-1 36:1 37:-0.291207 38:0.761082 39:0.808112 40:-0.257867 41:-0.0522842 42:0.715153 43:0.756341 44:-0.509924 45:-0.75249 46:1 47:1 48:-1 49:0.732781 50:-0.718738 51:-0.634397 52:0.690136 53:0.594235 54:-0.610733 55:-0.816531 56:0.693314 57:0.473491 58:-0.274194 59:0.666 60:-0.116195 
-0 0 0.381262708246325 1:0.590148 2:0.561 3:0.25736 4:0.793492 5:0.457282 6:0.403873 7:0.25736 8:0.811233 9:0.669005 10:0.483352 11:0.147986 12:0.599961 13:0.46382 14:0.476013 15:0.714779 16:-0.380984 17:-0.634135 18:0.0261064 19:0.79312 20:-0.962475 21:0.514051 22:1 23:0.519158 24:0.745525 25:0.298904 26:-0.662625 27:0.52567 28:0.804272 29:0.535258 30:-0.848553 31:0.347926 32:0.370272 33:1 34:-1 35:-1 36:1 37:-0.229112 38:0.763247 39:0.80774 40:-0.182646 41:0.0142071 42:0.716995 43:0.757567 44:-0.456466 45:-0.75249 46:1 47:1 48:-1 49:0.729393 50:-0.739493 51:-0.64251 52:0.671604 53:0.576384 54:-0.617712 55:-0.838848 56:0.689314 57:0.473491 58:-0.274194 59:0.666 60:-0.116195 
-0 0 0.01562821693375749 1:0.480315 2:0.647657 3:0.0666677 4:0.879749 5:0.356626 6:0.47191 7:0.0666677 8:0.89008 9:0.750439 10:0.365647 11:0.201501 12:0.55295 13:0.496973 14:0.472791 15:0.697719 16:-0.241921 17:-0.648147 18:0.105766 19:0.792247 20:-0.912005 21:0.514051 22:1 23:0.519158 24:0.745525 25:0.325342 26:-0.675826 27:0.498629 28:0.803005 29:0.556044 30:-0.873621 31:0.303081 32:0.35189 33:1 34:-1 35:-1 36:1 37:-0.155386 38:0.810327 39:0.753604 40:-0.19201 41:0.0408145 42:0.743699 43:0.74372 44:-0.390281 45:-0.75249 46:1 47:1 48:-1 49:0.624416 50:-0.789719 51:-0.691038 52:0.753381 53:0.639487 54:-0.753968 55:-0.83222 56:0.594178 57:0.473491 58:-0.274194 59:0.666 60:-0.116195 
-0.4542380036880995 0 0 1:0.549669 2:0.701701 3:-0.0319469 4:0.807833 5:0.420185 6:0.514343 7:-0.0319469 8:0.824342 9:0.742167 10:0.328311 11:0.205462 12:0.575872 13:0.681675 14:0.388558 15:0.588403 16:-0.197787 17:-0.547254 18:0.0784218 19:0.870453 20:-0.828582 21:0.514051 22:1 23:0.519158 24:0.745525 25:0.290862 26:-0.727004 27:0.407202 28:0.875074 29:0.456938 30:-0.877095 31:0.282896 32:0.464111 33:1 34:-1 35:-1 36:1 37:-0.120318 38:0.806445 39:0.754952 40:-0.188532 41:0.0623253 42:0.740056 43:0.744084 44:-0.367364 45:-0.75249 46:1 47:1 48:-1 49:0.626155 50:-0.809614 51:-0.695894 52:0.728592 53:0.589604 54:-0.746434 55:-0.86469 56:0.611576 57:0.473491 58:-0.274194 59:0.666 60:-0.116195 
-0 0.7923429991259355 0 1:0.656495 2:0.644843 3:-0.0599379 4:0.767971 5:0.518085 6:0.469701 7:-0.0599379 8:0.787905 9:0.77393 10:0.249409 11:0.175956 12:0.598529 13:0.761136 14:0.278406 15:0.537939 16:-0.0224652 17:-0.572396 18:0.154932 19:0.881809 20:-0.701541 21:0.514051 22:1 23:0.519158 24:0.745525 25:0.250736 26:-0.772502 27:0.351568 28:0.910997 29:0.418347 30:-0.989631 31:0.20489 32:0.424529 33:1 34:-1 35:-1 36:1 37:-0.0551923 38:0.812132 39:0.734798 40:-0.135746 41:0.119032 42:0.741422 43:0.734612 44:-0.312882 45:-0.75249 46:1 47:1 48:-1 49:0.561444 50:-0.850744 51:-0.764888 52:0.725876 53:0.598792 54:-0.855437 55:-0.862566 56:0.54522 57:0.473491 58:-0.274194 59:0.666 60:-0.116195 
-1.077861982040372 0 0 1:0.363519 2:0.580829 3:0.636039 4:0.681177 5:0.249589 6:0.41944 7:0.636039 8:0.708567 9:0.421421 10:0.615142 11:0.373891 12:0.515525 13:0.261331 14:0.635532 15:0.583048 16:-0.81151 17:0.197349 18:-0.270365 19:-0.796924 20:0.762429 21:0.514051 22:1 23:0.519158 24:0.745525 25:0.468827 26:-0.26689 27:0.839895 28:0.216321 29:0.818258 30:-0.249288 31:0.591272 32:0.0317049 33:1 34:-1 35:-1 36:1 37:-0.410924 38:0.708911 39:0.820016 40:-0.491163 41:-0.225634 42:0.668863 43:0.757053 44:-0.612749 45:-0.75249 46:1 47:1 48:-1 49:0.791488 50:-0.408462 51:-0.500388 52:0.849199 53:0.832581 54:-0.382212 55:-0.577915 56:0.691829 57:0.473491 58:-0.274194 59:0.666 60:-0.116195 
-0 1.565035389656849 0 1:0.35784 2:0.581694 3:0.68845 4:0.63086 5:0.244385 6:0.42012 7:0.68845 8:0.662573 9:0.411753 10:0.624081 11:0.412516 12:0.473259 13:0.0572109 14:0.618831 15:0.635409 16:-0.907024 17:0.236095 18:-0.343358 19:-0.751586 20:0.784978 21:0.514051 22:1 23:0.519158 24:0.745525 25:0.450598 26:-0.253939 27:0.878252 28:0.107893 29:0.830829 30:-0.206577 31:0.614246 32:-0.055783 33:1 34:-1 35:-1 36:1 37:-0.431794 38:0.715963 39:0.794545 40:-0.553451 41:-0.283483 42:0.681756 43:0.743153 44:-0.607882 45:-0.75249 46:1 47:1 48:-1 49:0.79114 50:-0.355086 51:-0.475767 52:0.87515 53:0.854838 54:-0.370042 55:-0.505981 56:0.698029 57:0.473491 58:-0.274194 59:0.666 60:-0.116195 
-0 7.294095232447154 0 1:0.472563 2:0.417895 3:0.682824 4:0.672889 5:0.349522 6:0.291514 7:0.682824 8:0.700991 9:0.498176 10:0.447647 11:0.412501 12:0.535612 13:-0.178938 14:0.875815 15:-0.0193427 16:0.589505 17:0.0543252 18:0.362321 19:-0.389601 20:0.962213 21:0.514051 22:1 23:0.519158 24:0.745525 25:0.260571 26:-0.128958 27:1 28:-0.177477 29:0.841268 30:0.00168924 31:0.646774 32:-0.231813 33:1 34:-1 35:-1 36:1 37:-0.313496 38:0.741762 39:0.79768 40:-0.51791 41:-0.220444 42:0.7161 43:0.750252 44:-0.504893 45:-0.75249 46:1 47:1 48:-1 49:0.768059 50:-0.455345 51:-0.537806 52:0.851145 53:0.815755 54:-0.465826 55:-0.581395 56:0.686778 57:0.473491 58:-0.274194 59:0.666 60:-0.116195 
-0 5.813427892025034 0 1:0.486363 2:0.461546 3:0.162142 4:0.965351 5:0.362168 6:0.325787 7:0.162142 8:0.968328 9:0.506316 10:0.455287 11:-0.00578027 12:0.801009 13:-0.236249 14:0.76043 15:-0.178244 16:0.756175 17:-0.109126 18:0.698106 19:-0.0640741 20:0.760026 21:0.514051 22:1 23:0.519158 24:0.745525 25:0.668886 26:-0.22114 27:0.754003 28:-0.24077 29:0.718942 30:-0.0523974 31:0.780653 32:-0.327808 33:1 34:-1 35:-1 36:1 37:-0.194742 38:0.541368 39:1 40:-0.173515 41:0.0228547 42:0.714234 43:0.762211 44:-0.404204 45:-0.75249 46:1 47:1 48:-1 49:0.887541 50:-0.556325 51:-0.472935 52:0.615804 53:0.794198 54:-0.49736 55:-0.612409 56:0.684482 57:0.473491 58:-0.274194 59:0.666 60:-0.116195 
-0 32 0 1:0.508379 2:0.516882 3:0.216514 4:0.9008 5:0.382345 6:0.369233 7:0.216514 8:0.909322 9:0.52966 10:0.507033 11:0.0463669 12:0.741407 13:-0.236249 14:0.76043 15:-0.178244 16:0.756175 17:-0.109126 18:0.698106 19:-0.0640741 20:0.760026 21:0.514051 22:1 23:0.519158 24:0.745525 25:0.668886 26:-0.22114 27:0.754003 28:-0.24077 29:0.718942 30:-0.0523974 31:0.780653 32:-0.327808 33:1 34:-1 35:-1 36:1 37:-0.233448 38:0.585064 39:0.969056 40:-0.19657 41:-0.00272556 42:0.714282 43:0.76185 44:-0.440876 45:-0.75249 46:1 47:1 48:-1 49:0.87857 50:-0.567066 51:-0.486701 52:0.620795 53:0.75811 54:-0.494139 55:-0.635463 56:0.703228 57:0.473491 58:-0.274194 59:0.666 60:-0.116195 
-0 0 0.0387416437851454 1:0.439562 2:0.593631 3:0.497801 4:0.738411 5:0.319279 6:0.429492 7:0.497801 8:0.760884 9:0.483926 10:0.6098 11:0.264753 12:0.576888 13:-0.236249 14:0.76043 15:-0.178244 16:0.756175 17:-0.109126 18:0.698106 19:-0.0640741 20:0.760026 21:0.514051 22:1 23:0.519158 24:0.745525 25:0.514743 26:-0.301773 27:0.830687 28:0.125899 29:0.782278 30:-0.264793 31:0.664092 32:-0.0620707 33:1 34:-1 35:-1 36:1 37:-0.403933 38:0.651913 39:0.888375 40:-0.400259 41:-0.200576 42:0.696318 43:0.752089 44:-0.574932 45:-0.75249 46:1 47:1 48:-1 49:0.858531 50:-0.459344 51:-0.485627 52:0.723888 53:0.761719 54:-0.405218 55:-0.584316 56:0.737693 57:0.473491 58:-0.274194 59:0.666 60:-0.116195 
-0 0 0.3478929742961054 1:0.427811 2:0.595111 3:0.572861 4:0.684023 5:0.308509 6:0.430654 7:0.572861 8:0.711168 9:0.474252 10:0.617984 11:0.325073 12:0.525021 13:-0.236249 14:0.76043 15:-0.178244 16:0.756175 17:-0.109126 18:0.698106 19:-0.0640741 20:0.760026 21:0.514051 22:1 23:0.519158 24:0.745525 25:0.416931 26:-0.364622 27:0.843215 28:0.285357 29:0.775411 30:-0.374349 31:0.604267 32:0.0514218 33:1 34:-1 35:-1 36:1 37:-0.446836 38:0.684032 39:0.841756 40:-0.455082 41:-0.249077 42:0.713732 43:0.730028 44:-0.606374 45:-0.75249 46:1 47:1 48:-1 49:0.792715 50:-0.550811 51:-0.598808 52:0.735949 53:0.740676 54:-0.527106 55:-0.665127 56:0.695191 57:0.473491 58:-0.274194 59:0.666 60:-0.116195 
-0 0.07048354581430413 0 1:0.623307 2:0.189454 3:0.708014 4:0.6278 5:0.48767 6:0.112155 7:0.708014 8:0.659775 9:0.648617 10:0.22603 11:0.431981 12:0.498907 13:-0.511711 14:0.435849 15:0.271317 16:0.876021 17:-0.602847 18:0.866785 19:0.107115 20:0.22943 21:0.514051 22:1 23:0.519158 24:0.745525 25:0.750553 26:-0.0957623 27:-0.295925 28:0.663831 29:-0.661932 30:0.46942 31:0.779128 32:-0.967174 33:1 34:-1 35:-1 36:1 37:0.574042 38:0.665968 39:0.252643 40:0.395463 41:0.606796 42:0.638408 43:0.365687 44:0.287981 45:-0.75249 46:1 47:1 48:-1 49:0.591156 50:0.706786 51:0.331297 52:0.605309 53:0.702082 54:0.638832 55:0.438814 56:0.41277 57:0.473491 58:-0.274194 59:0.666 60:-0.116195 
-0 0 1.390171520398654 1:0.564529 2:0.240177 3:0.760365 4:0.603952 5:0.433804 6:0.15198 7:0.760365 8:0.637976 9:0.591401 10:0.273857 11:0.480828 12:0.472846 13:-0.52894 14:0.420721 15:0.256789 16:0.887923 17:-0.605227 18:0.857744 19:0.0924476 20:0.260677 21:0.514051 22:1 23:0.519158 24:0.745525 25:0.751102 26:-0.0878422 27:-0.27429 28:0.671342 29:-0.651717 30:0.490297 31:0.778372 32:-0.961843 33:1 34:-1 35:-1 36:1 37:0.559026 38:0.697494 39:0.266466 40:0.344671 41:0.559493 42:0.64894 43:0.40457 44:0.283355 45:-0.75249 46:1 47:1 48:-1 49:0.567913 50:0.750931 51:0.347018 52:0.563267 53:0.671062 54:0.649549 55:0.503065 56:0.383012 57:0.473491 58:-0.274194 59:0.666 60:-0.116195 
-0.17498038255197 0 0 1:0.566284 2:0.325725 3:0.782857 4:0.528439 5:0.435412 6:0.219148 7:0.782857 8:0.56895 9:0.593657 10:0.364331 11:0.498166 12:0.400831 13:-0.468307 14:0.300882 15:0.281673 16:0.956335 17:-0.602901 18:0.872102 19:0.082772 20:0.226743 21:0.514051 22:1 23:0.519158 24:0.745525 25:0.737191 26:-0.0801891 27:-0.338646 28:0.659892 29:-0.615136 30:0.457345 31:0.80094 32:-0.974665 33:1 34:-1 35:-1 36:1 37:0.465874 38:0.709828 39:0.370315 40:0.362743 41:0.544418 42:0.682814 43:0.445434 44:0.207043 45:-0.75249 46:1 47:1 48:-1 49:0.524395 50:0.770397 51:0.437345 52:0.524878 53:0.640077 54:0.699261 55:0.541303 56:0.329231 57:0.473491 58:-0.274194 59:0.666 60:-0.116195 
-0 0 2.037090402617788 1:0.492478 2:0.344351 3:0.843376 4:0.506674 5:0.367772 6:0.233772 7:0.843376 8:0.549055 9:0.52005 10:0.377549 11:0.55525 12:0.378852 13:-0.608935 14:0.404716 15:0.333392 16:0.829466 17:-0.724389 18:0.837215 19:0.0785353 20:0.161664 21:0.514051 22:1 23:0.519158 24:0.745525 25:0.727175 26:-0.0665971 27:-0.308768 28:0.688518 29:0.294487 30:-0.55422 31:-0.818634 32:0.357664 33:1 34:-1 35:-1 36:1 37:0.449063 38:0.745612 39:0.364186 40:0.317618 41:0.520064 42:0.69377 43:0.47128 44:0.181814 45:-0.75249 46:1 47:1 48:-1 49:0.512052 50:0.807418 51:0.437513 52:0.476863 53:0.618587 54:0.715822 55:0.574544 56:0.299463 57:0.473491 58:-0.274194 59:0.666 60:-0.116195 
-0 0 1.363730920389751 1:0.464601 2:0.309885 3:0.862509 4:0.52629 5:0.342225 6:0.206711 7:0.862509 8:0.566986 9:0.488121 10:0.339146 11:0.573088 12:0.402548 13:-0.815293 14:0.706252 15:0.247176 16:0.474341 17:-0.760588 18:0.648747 19:0.236367 20:0.439925 21:0.514051 22:1 23:0.519158 24:0.745525 25:0.735618 26:-0.0552418 27:-0.252493 28:0.697517 29:0.298458 30:-0.591515 31:-0.809033 32:0.344991 33:1 34:-1 35:-1 36:1 37:0.484796 38:0.744828 39:0.333705 40:0.295561 41:0.516812 42:0.669794 43:0.475499 44:0.209404 45:-0.75249 46:1 47:1 48:-1 49:0.550408 50:0.812268 51:0.39349 52:0.442351 53:0.612916 54:0.699316 55:0.574462 56:0.323671 57:0.473491 58:-0.274194 59:0.666 60:-0.116195 
-0.1484345684836194 0 0 1:0.496268 2:0.31195 3:0.838834 4:0.529594 5:0.371246 6:0.208332 7:0.838834 8:0.570006 9:0.521772 10:0.335464 11:0.557133 12:0.399565 13:-0.816062 14:0.717216 15:0.236129 16:0.465814 17:-0.744525 18:0.647999 19:0.242087 20:0.454688 21:0.514051 22:1 23:0.519158 24:0.745525 25:0.723991 26:-0.0297439 27:-0.281274 28:0.697076 29:-0.568279 30:0.514277 31:0.789286 32:-0.987153 33:1 34:-1 35:-1 36:1 37:0.470639 38:0.758513 39:0.318148 40:0.307578 41:0.511332 42:0.670555 43:0.480218 44:0.207258 45:-0.75249 46:1 47:1 48:-1 49:0.531479 50:0.8175 51:0.394893 52:0.46481 53:0.601627 54:0.698642 55:0.582991 56:0.326693 57:0.473491 58:-0.274194 59:0.666 60:-0.116195 
-0.4408855106126159 0 0 1:0.540249 2:0.436607 3:0.929089 4:0.214954 5:0.411552 6:0.306206 7:0.929089 8:0.282397 9:0.548094 10:0.460398 11:0.632701 12:0.133292 13:-0.896732 14:0.58636 15:0.439534 16:0.376658 17:-0.880218 18:0.562788 19:0.368031 20:0.296052 21:0.514051 22:1 23:0.519158 24:0.745525 25:0.654772 26:0.227437 27:-0.179546 28:0.715946 29:0.34713 30:-0.344356 31:-0.678289 32:0.586707 33:1 34:-1 35:-1 36:1 37:0.13062 38:0.932451 39:0.481601 40:-0.0539666 41:0.196072 42:0.820087 43:0.640603 44:-0.10352 45:-0.75249 46:1 47:1 48:-1 49:0.289934 50:0.978663 51:0.519746 52:0.32522 53:0.432849 54:0.856412 55:0.713836 56:0.100625 57:0.473491 58:-0.274194 59:0.666 60:-0.116195 
-0.519555801108033 0 0 1:0.495648 2:0.454802 3:0.960299 4:0.184911 5:0.370677 6:0.320492 7:0.960299 8:0.254935 9:0.50499 10:0.485564 11:0.656595 12:0.103679 13:-0.927502 14:0.548466 15:0.458538 16:0.368605 17:0.683718 18:-0.856114 19:-0.509656 20:-0.81232 21:0.514051 22:1 23:0.519158 24:0.745525 25:0.664939 26:0.212516 27:-0.169475 28:0.713273 29:0.360604 30:-0.356419 31:-0.679009 32:0.573678 33:1 34:-1 35:-1 36:1 37:0.0923125 38:0.92455 39:0.518233 40:-0.0680874 41:0.169068 42:0.828813 43:0.647039 44:-0.132047 45:-0.75249 46:1 47:1 48:-1 49:0.272171 50:0.983335 51:0.546901 52:0.295881 53:0.409148 54:0.866566 55:0.729674 56:0.0775524 57:0.473491 58:-0.274194 59:0.666 60:-0.116195 
-0 0 0.6779627956871023 1:0.465437 2:0.461233 3:0.981395 4:0.167173 5:0.342991 6:0.325541 7:0.981395 8:0.238721 9:0.475148 10:0.496915 11:0.672583 12:0.0873133 13:-0.951967 14:0.531146 15:0.462518 16:0.355885 17:0.702716 18:-0.837743 19:-0.514238 20:-0.805501 21:0.514051 22:1 23:0.519158 24:0.745525 25:0.666017 26:0.204673 27:-0.16112 28:0.718193 29:0.369768 30:-0.363268 31:-0.672578 32:0.571838 33:1 34:-1 35:-1 36:1 37:0.0701872 38:0.92436 39:0.530412 40:-0.0779529 41:0.151289 42:0.825026 43:0.656655 44:-0.146602 45:-0.75249 46:1 47:1 48:-1 49:0.25947 50:0.990236 51:0.554914 52:0.279855 53:0.401743 54:0.869808 55:0.740364 56:0.0578156 57:0.473491 58:-0.274194 59:0.666 60:-0.116195 
-0 0.2236235079503972 0 1:0.453603 2:0.478099 3:0.989261 4:0.140345 5:0.332146 6:0.338783 7:0.989261 8:0.214197 9:0.459498 10:0.508927 11:0.681396 12:0.0681767 13:0.494632 14:-0.860398 15:-0.827099 16:-0.887736 17:0.712083 18:-0.824938 19:-0.524844 20:-0.795987 21:0.514051 22:1 23:0.519158 24:0.745525 25:0.66556 26:0.18907 27:-0.15561 28:0.728871 29:0.387514 30:-0.363615 31:-0.658589 32:0.573138 33:1 34:-1 35:-1 36:1 37:0.0499579 38:0.924333 39:0.541032 40:-0.0908584 41:0.138248 42:0.828277 43:0.660369 44:-0.165779 45:-0.75249 46:1 47:1 48:-1 49:0.252766 50:0.999094 51:0.557021 52:0.256549 53:0.389064 54:0.876227 55:0.747488 56:0.043509 57:0.473491 58:-0.274194 59:0.666 60:-0.116195 
-1.483776992436807 0.2249678979625838 0 1:0.450681 2:0.455364 3:0.993313 4:0.164631 5:0.329468 6:0.320933 7:0.993313 8:0.236398 9:0.455657 10:0.496287 11:0.679625 12:0.0945762 13:0.514985 14:-0.883009 15:-0.785736 16:-0.88261 17:0.680903 18:-0.823542 19:-0.535576 20:-0.83935 21:0.514051 22:1 23:0.519158 24:0.745525 25:0.649301 26:0.207968 27:-0.198319 28:0.730432 29:0.35628 30:-0.331191 31:-0.669946 32:0.592487 33:1 34:-1 35:-1 36:1 37:0.0516557 38:0.913049 39:0.552206 40:-0.0531922 41:0.154093 42:0.835776 43:0.649918 44:-0.156702 45:-0.75249 46:1 47:1 48:-1 49:0.270154 50:0.993582 51:0.541475 52:0.274533 53:0.406219 54:0.872861 55:0.731943 56:0.0628541 57:0.473491 58:-0.274194 59:0.666 60:-0.116195 
-0 0.3505389982774042 0 1:0.46612 2:0.43647 3:0.98582 4:0.185856 5:0.343617 6:0.306098 7:0.98582 8:0.255799 9:0.473729 10:0.475346 11:0.67448 12:0.109824 13:0.524414 14:-0.905497 15:-0.752716 16:-0.877908 17:0.634406 18:-0.819679 19:-0.560031 20:-0.885558 21:0.514051 22:1 23:0.519158 24:0.745525 25:0.632464 26:0.187843 27:-0.25567 28:0.745927 29:0.291243 30:-0.368866 31:-0.706663 32:0.585157 33:1 34:-1 35:-1 36:1 37:0.0495535 38:0.907335 39:0.555411 40:-0.0209387 41:0.189497 42:0.846511 43:0.635613 44:-0.171778 45:-0.75249 46:1 47:1 48:-1 49:0.264832 50:0.979034 51:0.554879 52:0.307642 53:0.446369 54:0.87343 55:0.710447 56:0.0543706 57:0.473491 58:-0.274194 59:0.666 60:-0.116195 
-0 0 1.350483943181206 1:0.366543 2:0.350309 3:0.658584 4:0.804995 5:0.25236 6:0.238449 7:0.658584 8:0.821747 9:0.403065 10:0.37658 11:0.396962 12:0.648912 13:-0.808423 14:0.878698 15:-0.0655883 16:0.342959 17:-0.603307 18:0.704137 19:0.14132 20:0.550583 21:0.514051 22:1 23:0.519158 24:0.745525 25:0.697281 26:-0.589161 27:-0.388827 28:0.604633 29:-0.426751 30:0.823751 31:0.843585 32:-0.465818 33:1 34:-1 35:-1 36:1 37:0.621018 38:0.676497 39:0.281924 40:0.240661 41:0.588758 42:0.601581 43:0.43153 44:0.267075 45:-0.75249 46:1 47:1 48:-1 49:0.6647 50:0.737962 51:0.369212 52:0.379114 53:0.655234 54:0.599029 55:0.566399 56:0.389537 57:0.473491 58:-0.274194 59:0.666 60:-0.116195 
-0.3194974078452168 0 0 1:0.334542 2:0.283786 3:0.662454 4:0.849077 5:0.223033 6:0.18622 7:0.662454 8:0.862042 9:0.531935 10:0.437348 11:0.336218 12:0.591205 13:-0.780748 14:0.910237 15:0.00521933 16:0.27999 17:-0.628216 18:0.691778 19:0.158785 20:0.542587 21:0.514051 22:1 23:0.519158 24:0.745525 25:0.71272 26:-0.574707 27:-0.372687 28:0.598558 29:-0.420594 30:0.814329 31:0.852627 32:-0.449609 33:1 34:-1 35:-1 36:1 37:0.603462 38:0.660031 39:0.312923 40:0.281978 41:0.586538 42:0.603986 43:0.429699 44:0.269468 45:-0.75249 46:1 47:1 48:-1 49:0.646439 50:0.716817 51:0.401038 52:0.430433 53:0.655791 54:0.592401 55:0.566304 56:0.394863 57:0.473491 58:-0.274194 59:0.666 60:-0.116195 
-0.1302962085344704 0 0 1:0.438737 2:0.27955 3:0.604672 4:0.837949 5:0.318522 6:0.182894 7:0.604672 8:0.85187 9:0.600922 10:0.42746 11:0.267974 12:0.601958 13:-0.59567 14:0.893614 15:-0.0571402 16:0.479764 17:-0.535049 18:0.707815 19:0.118785 20:0.599646 21:0.514051 22:1 23:0.519158 24:0.745525 25:0.859914 26:-0.536257 27:-0.105267 28:0.444524 29:-0.24752 30:0.725259 31:0.932149 32:-0.339401 33:1 34:-1 35:-1 36:1 37:0.547218 38:0.593094 39:0.363569 40:0.457063 41:0.62392 42:0.583826 43:0.402682 44:0.280651 45:-0.75249 46:1 47:1 48:-1 49:0.567657 50:0.599876 51:0.499098 52:0.651088 53:0.708882 54:0.584064 55:0.501576 56:0.406504 57:0.473491 58:-0.274194 59:0.666 60:-0.116195 
-0.1159418704708376 0 0 1:0.515952 2:0.289454 3:0.544434 4:0.827879 5:0.389286 6:0.19067 7:0.544434 8:0.842666 9:0.612668 10:0.367277 11:0.262668 12:0.626913 13:-0.525997 14:0.87736 15:-0.0806154 16:0.543918 17:-0.494247 18:0.712556 19:0.101267 20:0.621871 21:0.514051 22:1 23:0.519158 24:0.745525 25:0.901033 26:-0.488213 27:0.0904847 28:0.340044 29:-0.136839 30:0.670567 31:0.959914 32:-0.338586 33:1 34:-1 35:-1 36:1 37:0.551407 38:0.563113 39:0.358831 40:0.50158 41:0.659331 42:0.573711 43:0.373901 44:0.282154 45:-0.75249 46:1 47:1 48:-1 49:0.572873 50:0.557292 51:0.497643 52:0.693369 53:0.743213 54:0.57623 55:0.457376 56:0.413468 57:0.473491 58:-0.274194 59:0.666 60:-0.116195 
-0 0 5.608841641764698 1:0.537143 2:0.299739 3:0.583299 4:0.776894 5:0.408706 6:0.198745 7:0.583299 8:0.796061 9:0.567883 10:0.309778 11:0.343895 12:0.61959 13:-0.249165 14:0.767243 15:-0.173891 16:0.748482 17:-0.19889 18:0.710463 19:-0.0255313 20:0.7387 21:0.514051 22:1 23:0.519158 24:0.745525 25:0.691508 26:-0.23411 27:0.732239 28:-0.212562 29:0.563669 30:0.135342 31:0.887441 32:-0.330614 33:1 34:-1 35:-1 36:1 37:0.536398 38:0.608073 39:0.332847 40:0.481099 41:0.65868 42:0.615628 43:0.360566 44:0.25587 45:-0.75249 46:1 47:1 48:-1 49:0.537406 50:0.603193 51:0.491712 52:0.694895 53:0.756029 54:0.635703 55:0.430301 56:0.368039 57:0.473491 58:-0.274194 59:0.666 60:-0.116195 
-0 0 10.59064662889468 1:0.52774 2:0.24807 3:0.598867 4:0.792978 5:0.400088 6:0.158177 7:0.598867 8:0.810763 9:0.55616 10:0.266156 11:0.348911 12:0.640894 13:-0.242862 14:0.763937 15:-0.176014 16:0.752257 17:-0.174594 18:0.707639 19:-0.0359621 20:0.745102 21:0.514051 22:1 23:0.519158 24:0.745525 25:0.680594 26:-0.227781 27:0.742973 28:-0.226325 29:0.609024 30:0.0848996 31:0.862023 32:-0.329862 33:1 34:-1 35:-1 36:1 37:0.549618 38:0.597067 39:0.320792 40:0.490012 41:0.670452 42:0.596641 43:0.356565 44:0.265289 45:-0.75249 46:1 47:1 48:-1 49:0.555604 50:0.576361 51:0.494137 52:0.698926 53:0.778877 54:0.65641 55:0.381953 56:0.358367 57:0.473491 58:-0.274194 59:0.666 60:-0.116195 
-0 0 0.1885535685909346 1:0.569869 2:0.610284 3:0.802841 4:0.218161 5:0.438697 6:0.442567 7:0.802841 8:0.285329 9:0.574729 10:0.638249 11:0.520664 12:0.136642 13:-0.23625 14:0.76043 15:-0.178244 16:0.756175 17:-0.109214 18:0.69812 19:-0.0640383 20:0.76001 21:0.514051 22:1 23:0.519158 24:0.745525 25:0.668886 26:-0.22114 27:0.754003 28:-0.24077 29:0.71881 30:-0.0522219 31:0.780772 32:-0.327815 33:1 34:-1 35:-1 36:1 37:-0.123293 38:0.879186 39:0.653125 40:-0.092486 41:0.0183633 42:0.863414 43:0.662892 44:-0.243975 45:-0.75249 46:1 47:1 48:-1 49:0.104549 50:0.892899 51:0.769508 52:0.361845 53:0.41226 54:0.914821 55:0.716324 56:-0.0165058 57:0.473491 58:-0.274194 59:0.666 60:-0.116195 
-0.01079591548487666 0 0 1:0.593175 2:0.620828 3:0.796591 4:0.175539 5:0.460056 6:0.450846 7:0.796591 8:0.246368 9:0.595794 10:0.6434 11:0.51917 12:0.100866 13:-0.23625 14:0.76043 15:-0.178244 16:0.756175 17:-0.10919 18:0.698117 19:-0.0640482 20:0.760014 21:0.514051 22:1 23:0.519158 24:0.745525 25:0.668886 26:-0.22114 27:0.754003 28:-0.24077 29:0.718846 30:-0.0522697 31:0.78074 32:-0.327813 33:1 34:-1 35:-1 36:1 37:-0.156814 38:0.883487 39:0.649866 40:-0.0898689 41:0.0633285 42:0.851209 43:0.670574 44:-0.326349 45:-0.75249 46:1 47:1 48:-1 49:0.100264 50:0.898875 51:0.774934 52:0.339459 53:0.447309 54:0.936378 55:0.682426 56:-0.0545362 57:0.473491 58:-0.274194 59:0.666 60:-0.116195 
-0.4013619345866647 0 0 1:0.681307 2:0.584063 3:0.715411 4:0.238136 5:0.540824 6:0.42198 7:0.715411 8:0.303588 9:0.682466 10:0.602317 11:0.451891 12:0.160484 13:-0.23625 14:0.76043 15:-0.178244 16:0.756175 17:-0.109161 18:0.698112 19:-0.0640608 20:0.76002 21:0.514051 22:1 23:0.519158 24:0.745525 25:0.668886 26:-0.22114 27:0.754003 28:-0.24077 29:0.718891 30:-0.05233 31:0.7807 32:-0.327811 33:1 34:-1 35:-1 36:1 37:-0.0806929 38:0.889381 39:0.619332 40:-0.0196101 41:0.124022 42:0.841835 43:0.663853 44:-0.253386 45:-0.75249 46:1 47:1 48:-1 49:0.141061 50:0.863 51:0.748552 52:0.437208 53:0.495043 54:0.904789 55:0.651344 56:0.0302734 57:0.473491 58:-0.274194 59:0.666 60:-0.116195 
-0.00279566089698067 0 0 1:0.832182 2:0.203464 3:0.286337 4:0.733461 5:0.679093 6:0.123155 7:0.286337 8:0.756359 9:0.846029 10:0.20614 11:0.0870978 12:0.595579 13:-0.23625 14:0.76043 15:-0.178244 16:0.756175 17:-0.109129 18:0.698106 19:-0.0640726 20:0.760026 21:0.514051 22:1 23:0.519158 24:0.745525 25:0.668886 26:-0.22114 27:0.754003 28:-0.24077 29:0.718938 30:-0.0523928 31:0.780658 32:-0.327809 33:1 34:-1 35:-1 36:1 37:0.48765 38:0.713577 39:0.369223 40:0.318358 41:0.552292 42:0.652987 43:0.473153 44:0.192467 45:-0.75249 46:1 47:1 48:-1 49:0.492979 50:0.531818 51:0.468903 52:0.835996 53:0.781229 54:0.60128 55:0.351642 56:0.425466 57:0.473491 58:-0.274194 59:0.666 60:-0.116195 
-0.04752315557544667 0.260828176560077 0 1:0.226873 2:0.957788 3:0.493459 4:0.485451 5:0.149512 6:0.818856 7:0.440279 8:-0.831053 9:0.0423187 10:-0.450207 11:-0.93021 12:0.912727 13:0.441825 14:0.487716 15:0.461693 16:0.454667 17:0.820758 18:-0.154453 19:0.722405 20:-0.271602 21:1 22:-0.554157 23:0.751509 24:-0.128554 25:0.412146 26:0.443768 27:0.517356 28:0.52511 29:-0.0111256 30:0.759856 31:0.896988 32:-0.196351 33:-0.0548245 34:0.73706 35:0.619568 36:-0.412462 37:0.46761 38:0.485616 39:0.493365 40:0.575571 41:1 42:0.179541 43:-0.0100269 44:0.33577 45:0.877888 46:-0.436987 47:-0.316012 48:0.327278 49:0.469391 50:0.584126 51:0.64427 52:0.661504 53:0.231659 54:0.90453 55:0.49442 56:0.420493 57:-0.260617 58:0.764967 59:0.392316 60:0.0665411 
-0.1728064489459732 0.2557163906460382 0 1:0.223066 2:0.948835 3:0.515661 4:0.478943 5:0.12304 6:0.821336 7:0.43056 8:-0.855869 9:0.0507701 10:-0.435441 11:-0.905937 12:0.929501 13:0.441825 14:0.487716 15:0.461693 16:0.454667 17:0.820758 18:-0.154453 19:0.722405 20:-0.271602 21:1 22:-0.554157 23:0.751509 24:-0.128554 25:0.412146 26:0.443768 27:0.517356 28:0.52511 29:-0.0295272 30:0.783536 31:0.885851 32:-0.193281 33:-0.0542211 34:0.71467 35:0.635343 36:-0.437137 37:0.46761 38:0.485616 39:0.493365 40:0.575571 41:0.980613 42:0.196276 43:0.00436016 44:0.354793 45:0.871571 46:-0.387405 47:-0.267201 48:0.28774 49:0.469391 50:0.584126 51:0.64427 52:0.661504 53:0.168185 54:0.968301 55:0.526328 56:0.339741 57:-0.381986 58:0.99429 59:0.484664 60:-0.419285 
-0.07574620462127163 0.07007865076676195 0 1:0.0555662 2:0.980599 3:0.593147 4:0.424481 5:0.213807 6:0.723341 7:0.457326 8:-0.970212 9:-0.0683604 10:-0.395455 11:-1 12:0.888728 13:0.441825 14:0.487716 15:0.461693 16:0.454667 17:0.820758 18:-0.154453 19:0.722405 20:-0.271602 21:1 22:-0.554157 23:0.751509 24:-0.128554 25:0.412146 26:0.443768 27:0.517356 28:0.52511 29:-0.156051 30:0.759238 31:0.915977 32:-0.314525 33:-0.489452 34:0.690295 35:0.820284 36:-0.654433 37:0.46761 38:0.485616 39:0.493365 40:0.575571 41:0.9601 42:0.36056 43:0.0709524 44:0.267039 45:0.546753 46:-0.00529729 47:0.14022 48:0.0510428 49:0.469391 50:0.584126 51:0.64427 52:0.661504 53:0.0217817 54:0.942015 55:0.612186 56:0.342072 57:-0.66192 58:0.899766 59:0.733155 60:-0.405256 
-0.2267826396228474 0.4155360488376282 0 1:0.0393825 2:0.977987 3:0.607655 4:0.416801 5:-0.694168 6:-0.99863 7:-0.827249 8:0.536885 9:-0.0821388 10:-0.382678 11:-0.998397 12:0.893087 13:0.441825 14:0.487716 15:0.461693 16:0.454667 17:0.820758 18:-0.154453 19:0.722405 20:-0.271602 21:1 22:-0.554157 23:0.751509 24:-0.128554 25:0.412146 26:0.443768 27:0.517356 28:0.52511 29:-0.149842 30:0.739573 31:0.926015 32:-0.359181 33:-0.792444 34:0.959915 35:0.716198 36:-0.513546 37:0.46761 38:0.485616 39:0.493365 40:0.575571 41:0.961362 42:0.36229 43:0.0766204 44:0.260729 45:0.549308 46:-0.0115452 47:0.164471 48:0.0348795 49:0.469391 50:0.584126 51:0.64427 52:0.661504 53:0.0622736 54:0.912831 55:0.61363 56:0.368309 57:-0.584496 58:0.794817 59:0.737334 60:-0.24741 
-0.008763604248251134 0 0 1:0.0808719 2:0.951301 3:0.605599 4:0.446702 5:-0.622994 6:-1 7:-0.873525 8:0.540397 9:-0.0267321 10:-0.438003 11:-0.986196 12:0.886782 13:0.441825 14:0.487716 15:0.461693 16:0.454667 17:0.820758 18:-0.154453 19:0.722405 20:-0.271602 21:1 22:-0.554157 23:0.751509 24:-0.128554 25:0.412146 26:0.443768 27:0.517356 28:0.52511 29:-0.128941 30:0.746522 31:0.92201 32:-0.330457 33:-0.607621 34:0.819066 35:0.788388 36:-0.544521 37:0.46761 38:0.485616 39:0.493365 40:0.575571 41:0.95189 42:0.391951 43:0.09185 44:0.246827 45:0.491618 46:0.0611961 47:0.24164 48:-0.0349552 49:0.469391 50:0.584126 51:0.64427 52:0.661504 53:0.0926534 54:0.879815 55:0.617866 56:0.395875 57:-0.526408 58:0.676091 59:0.749593 60:-0.0815664 
-0.1940451208085508 0.1390481861313093 0 1:-0.12585 2:0.898593 3:0.690163 4:0.469662 5:-0.246725 6:0.728088 7:-0.181185 8:0.852287 9:-0.175678 10:0.959372 11:-0.326293 12:0.716711 13:0.441825 14:0.487716 15:0.461693 16:0.454667 17:0.820758 18:-0.154453 19:0.722405 20:-0.271602 21:1 22:-0.554157 23:0.751509 24:-0.128554 25:0.412146 26:0.443768 27:0.517356 28:0.52511 29:-0.24422 30:0.774728 31:0.898661 32:-0.464696 33:-0.766653 34:0.322443 35:0.938105 36:-0.99463 37:0.46761 38:0.485616 39:0.493365 40:0.575571 41:0.86426 42:0.511919 43:0.159597 44:0.249924 45:0.514096 46:0.560684 47:0.395117 48:-0.595841 49:0.469391 50:0.584126 51:0.64427 52:0.661504 53:-0.152725 54:0.854071 55:0.699673 56:0.386691 57:-0.995591 58:0.583517 59:0.986358 60:-0.13682 
-0.09913719613603295 0.3251004237677073 0 1:0.154539 2:0.997177 3:0.629817 4:0.296611 5:-0.246901 6:0.727746 7:-0.181508 8:0.852712 9:-0.179286 10:0.978763 11:-0.310353 12:0.699012 13:0.441825 14:0.487716 15:0.461693 16:0.454667 17:0.820758 18:-0.154453 19:0.722405 20:-0.271602 21:1 22:-0.554157 23:0.751509 24:-0.128554 25:0.412146 26:0.443768 27:0.517356 28:0.52511 29:-0.150032 30:0.817192 31:0.882604 32:-0.347623 33:-0.866043 34:0.959468 35:0.731333 36:-0.423511 37:0.46761 38:0.485616 39:0.493365 40:0.575571 41:0.916236 42:0.407424 43:0.122253 44:0.27827 45:0.211775 46:0.0848993 47:0.346643 48:0.0388842 49:0.469391 50:0.584126 51:0.64427 52:0.661504 53:0.151451 54:0.948489 55:0.642157 56:0.255108 57:-0.413982 58:0.923046 59:0.819896 60:-0.928455 
-0.2814115280861141 0.9784990265187162 0 1:0.326859 2:0.758693 3:0.560076 4:0.611778 5:-0.246905 6:0.727739 7:-0.181514 8:0.85272 9:-0.179904 10:0.982082 11:-0.307576 12:0.69589 13:0.441825 14:0.487716 15:0.461693 16:0.454667 17:0.820758 18:-0.154453 19:0.722405 20:-0.271602 21:1 22:-0.554157 23:0.751509 24:-0.128554 25:0.412146 26:0.443768 27:0.517356 28:0.52511 29:0.0451223 30:0.825409 31:0.847745 32:-0.191826 33:-0.0107657 34:0.604141 35:0.686102 36:-0.310932 37:0.46761 38:0.485616 39:0.493365 40:0.575571 41:0.975844 42:0.152977 43:-0.0140097 44:0.385401 45:0.955764 46:-0.456175 47:-0.404471 48:0.320542 49:0.469391 50:0.584126 51:0.64427 52:0.661504 53:0.321088 54:0.650294 55:0.568756 56:0.565107 57:-0.0896214 58:-0.149266 59:0.607458 60:0.936571 
-0.1708364739122466 0 0 1:0.713929 2:0.226722 3:0.670479 4:0.553648 5:0.57072 6:0.141417 7:0.670479 8:0.591994 9:0.723713 10:0.471104 11:0.252084 12:0.478748 13:-0.746641 14:0.620735 15:0.491036 16:0.415283 17:-0.843924 18:0.741026 19:0.292703 20:-0.00540684 21:0.514051 22:1 23:0.519158 24:0.745525 25:0.705799 26:0.20477 27:-0.412222 28:0.534427 29:0.145603 30:-0.289874 31:-0.894678 32:0.446197 33:1 34:-1 35:-1 36:1 37:-0.324678 38:0.978858 39:0.490945 40:-0.383892 41:-0.0802751 42:0.0621122 43:0.977408 44:-0.498719 45:-0.75249 46:1 47:1 48:-1 49:0.470323 50:0.583366 51:0.643626 52:0.661905 53:0.609779 54:0.594382 55:0.559008 56:0.438989 57:0.473491 58:-0.274194 59:0.666 60:-0.116195 
-0 0.4675256646629987 0 1:0.720755 2:0.232749 3:0.662855 4:0.551159 5:0.576976 6:0.146149 7:0.662855 8:0.589718 9:0.736225 10:0.47259 11:0.251514 12:0.465112 13:-0.745927 14:0.623981 15:0.489682 16:0.413021 17:-0.836137 18:0.739502 19:0.301407 20:0.00777033 21:0.514051 22:1 23:0.519158 24:0.745525 25:0.699759 26:0.21905 27:-0.421636 28:0.526717 29:0.133 30:-0.274765 31:-0.896974 32:0.452336 33:1 34:-1 35:-1 36:1 37:-0.233252 38:0.85829 39:0.689946 40:-0.122034 41:-0.188605 42:-0.401167 43:0.994674 44:-0.303647 45:-0.75249 46:1 47:1 48:-1 49:0.869703 50:-0.540343 51:-0.423321 52:0.681828 53:0.711016 54:-0.482763 55:-0.572796 56:0.759132 57:0.473491 58:-0.274194 59:0.666 60:-0.116195 
-0.3246227959719733 0 0 1:0.731332 2:0.258613 3:0.665126 4:0.522325 5:0.586669 6:0.166455 7:0.665126 8:0.563362 9:0.725516 10:0.486195 11:0.26106 12:0.45873 13:-0.729923 14:0.651388 15:0.453263 16:0.431408 17:-0.824842 18:0.778424 19:0.250078 20:-0.0391857 21:0.514051 22:1 23:0.519158 24:0.745525 25:0.698297 26:0.245421 27:-0.425451 28:0.505077 29:0.107086 30:-0.259427 31:-0.904491 32:0.455508 33:1 34:-1 35:-1 36:1 37:0.0395107 38:0.785472 39:0.677888 40:0.159572 41:-0.0182291 42:-0.196295 43:0.991979 44:-0.1491 45:-0.75249 46:1 47:1 48:-1 49:0.784882 50:-0.55988 51:-0.406025 52:0.8205 53:0.976995 54:-0.447313 55:-0.590441 56:0.543959 57:0.473491 58:-0.274194 59:0.666 60:-0.116195 
-0.2043750339729923 1.096337326038546 0 1:0.768252 2:0.322849 3:0.579619 4:0.533045 5:0.620504 6:0.21689 7:0.579619 8:0.573161 9:0.745026 10:0.516956 11:0.205696 12:0.464235 13:-0.730917 14:0.686216 15:0.447338 16:0.385212 17:-0.849819 18:0.798617 19:0.196128 20:-0.189146 21:0.514051 22:1 23:0.519158 24:0.745525 25:0.698994 26:0.246646 27:-0.413202 28:0.513504 29:0.0952681 30:-0.284268 31:-0.903055 32:0.456397 33:1 34:-1 35:-1 36:1 37:0.60266 38:-0.855048 39:-0.692481 40:0.693759 41:0.448017 42:-0.792172 43:-0.639788 44:0.632473 45:-0.75249 46:1 47:1 48:-1 49:0.818119 50:-0.0490599 51:-0.0608782 52:0.908748 53:0.974887 54:-0.25588 55:-0.311541 56:0.646297 57:0.473491 58:-0.274194 59:0.666 60:-0.116195 
-0.0851013573494637 0.09748473329269929 0.5380117184602932 1:0.782826 2:0.350519 3:0.545057 4:0.531841 5:0.63386 6:0.238615 7:0.545057 8:0.57206 9:0.743428 10:0.528596 11:0.185566 12:0.473683 13:-0.738278 14:0.685412 15:0.459443 16:0.364729 17:-0.867404 18:0.790082 19:0.191531 20:-0.225211 21:0.514051 22:1 23:0.519158 24:0.745525 25:0.697711 26:0.239136 27:-0.422793 28:0.513666 29:0.0850319 30:-0.290457 31:-0.908449 32:0.450335 33:1 34:-1 35:-1 36:1 37:0.837481 38:-0.561524 39:-0.39556 40:0.691242 41:0.236187 42:-0.447214 43:-0.426772 44:0.907234 45:-0.75249 46:1 47:1 48:-1 49:0.744611 50:0.201581 51:0.217843 52:0.878121 53:0.973037 54:-0.0729769 55:-0.125414 56:0.653433 57:0.473491 58:-0.274194 59:0.666 60:-0.116195 
-0.3209644634364215 0 0 1:0.80078 2:0.316423 3:0.610571 4:0.457022 5:0.650314 6:0.211844 7:0.610571 8:0.503669 9:0.721884 10:0.566408 11:0.198763 12:0.45796 13:-0.717544 14:0.692262 15:0.428585 16:0.409251 17:-0.856311 18:0.816829 19:0.121837 20:-0.296465 21:0.514051 22:1 23:0.519158 24:0.745525 25:0.677947 26:0.216413 27:-0.450586 28:0.541572 29:0.0441275 30:-0.3298 31:-0.91261 32:0.446783 33:1 34:-1 35:-1 36:1 37:0.656605 38:-0.546167 39:-0.436628 40:0.931238 41:0.443547 42:-0.539194 43:-0.372741 44:0.832628 45:-0.75249 46:1 47:1 48:-1 49:0.54061 50:0.513632 51:0.56556 52:0.722784 53:0.85295 54:0.316516 55:0.275495 56:0.572466 57:0.473491 58:-0.274194 59:0.666 60:-0.116195 
-0.05966571620035017 0 0 1:0.793184 2:0.17965 3:0.652119 4:0.492416 5:0.643353 6:0.104458 7:0.652119 8:0.536022 9:0.756639 10:0.527481 11:0.172103 12:0.470627 13:-0.681631 14:0.693512 15:0.423689 16:0.440316 17:-0.824483 18:0.833149 19:0.138427 20:-0.267711 21:0.514051 22:1 23:0.519158 24:0.745525 25:0.707702 26:0.217069 27:-0.437521 28:0.499359 29:0.0150463 30:-0.345564 31:-0.937777 32:0.40923 33:1 34:-1 35:-1 36:1 37:0.562575 38:-0.582284 39:-0.480881 40:1 41:0.835655 42:-0.554017 43:-0.379552 44:0.547239 45:-0.75249 46:1 47:1 48:-1 49:0.515707 50:0.539712 51:0.594671 52:0.701618 53:0.816516 54:0.378883 55:0.340366 56:0.545256 57:0.473491 58:-0.274194 59:0.666 60:-0.116195 
-0.03348270285526288 0.4170359324985715 0 1:0.72219 2:0.128164 3:0.742659 4:0.495661 5:0.578291 6:0.064034 7:0.742659 8:0.538988 9:0.736059 10:0.605158 11:0.16748 12:0.436531 13:-0.679839 14:0.65468 15:0.543797 16:0.347602 17:-0.800869 18:0.7441 19:0.364641 20:-0.0687293 21:0.514051 22:1 23:0.519158 24:0.745525 25:0.755732 26:0.120599 27:-0.414557 28:0.494452 29:-0.444169 30:0.283059 31:0.901098 32:-0.989288 33:1 34:-1 35:-1 36:1 37:-0.284638 38:0.917479 39:0.609646 40:-0.243592 41:-0.159481 42:0.595713 43:0.828252 44:-0.365963 45:-0.75249 46:1 47:1 48:-1 49:0.484848 50:0.569855 51:0.62833 52:0.674994 53:0.742792 54:0.482019 55:0.448166 56:0.489106 57:0.473491 58:-0.274194 59:0.666 60:-0.116195 
-0.3709292788209896 0 0 1:0.673306 2:0.155625 3:0.762551 4:0.520357 5:0.533491 6:0.0855951 7:0.762551 8:0.561563 9:0.731781 10:0.63493 11:0.182439 12:0.403387 13:-0.728331 14:0.504901 15:0.739771 16:0.165051 17:0.693993 18:-0.86505 19:-0.645414 20:-0.389321 21:0.514051 22:1 23:0.519158 24:0.745525 25:0.768802 26:0.0887478 27:-0.398632 28:0.500556 29:-0.476391 30:0.301502 31:0.898762 32:-0.969828 33:1 34:-1 35:-1 36:1 37:-0.369694 38:0.922832 39:0.586067 40:-0.297476 41:-0.221628 42:0.630584 43:0.803336 44:-0.436944 45:-0.75249 46:1 47:1 48:-1 49:0.481779 50:0.572732 51:0.631543 52:0.672322 53:0.731145 54:0.496225 55:0.463073 56:0.480136 57:0.473491 58:-0.274194 59:0.666 60:-0.116195 
-0.3010936810905108 0 0 1:0.598232 2:0.230411 3:0.826662 4:0.485896 5:0.46469 6:0.144312 7:0.826662 8:0.530062 9:0.679198 10:0.72107 11:0.228797 12:0.336233 13:-0.734871 14:0.331254 15:0.882162 16:-0.00853029 17:0.771621 18:-0.663403 19:-0.743462 20:-0.290919 21:0.514051 22:1 23:0.519158 24:0.745525 25:0.76423 26:0.0799391 27:-0.378852 28:0.530011 29:-0.502872 30:0.321215 31:0.88016 32:-0.982394 33:1 34:-1 35:-1 36:1 37:-0.348073 38:0.997212 39:0.461338 40:-0.262078 41:-0.194582 42:0.450092 43:0.883603 44:-0.42892 45:-0.75249 46:1 47:1 48:-1 49:0.479315 50:0.575025 51:0.634104 52:0.670175 53:0.72045 54:0.508857 55:0.47634 56:0.471881 57:0.473491 58:-0.274194 59:0.666 60:-0.116195 
-0.004160907221190193 1.522649103843825 0 1:0.446372 2:0.344756 3:0.923322 4:0.424981 5:0.325519 6:0.23409 7:0.923322 8:0.47438 9:0.585841 10:0.823814 11:0.324097 12:0.20505 13:-0.542744 14:0.177939 15:1 16:-0.0155312 17:0.889202 18:-0.536576 19:-0.69549 20:-0.225848 21:0.514051 22:1 23:0.519158 24:0.745525 25:0.763764 26:0.0514771 27:-0.350927 28:0.564438 29:-0.500058 30:0.384452 31:0.870927 32:-0.96723 33:1 34:-1 35:-1 36:1 37:-0.433762 38:0.886297 39:0.621846 40:-0.334966 41:-0.275434 42:0.634913 43:0.79043 44:-0.480865 45:-0.75249 46:1 47:1 48:-1 49:0.764926 50:-0.0938794 51:-0.337271 52:0.973168 53:0.902148 54:-0.166694 55:-0.291512 56:0.714377 57:0.473491 58:-0.274194 59:0.666 60:-0.116195 
-0.4468579433609811 0.1846385244478652 0 1:0.369834 2:0.600476 3:0.841559 4:0.400611 5:0.255377 6:0.434867 7:0.841559 8:0.452104 9:0.47615 10:0.86738 11:0.362996 12:0.2114 13:-0.508173 14:0.381701 15:0.867103 16:0.224148 17:0.851823 18:-0.640934 19:-0.67185 20:-0.37115 21:0.514051 22:1 23:0.519158 24:0.745525 25:0.750064 26:-0.016237 27:-0.344813 28:0.618342 29:-0.496511 30:0.469073 31:0.85734 32:-0.939483 33:1 34:-1 35:-1 36:1 37:-0.548366 38:0.832348 39:0.651593 40:-0.360644 41:-0.354691 42:0.742767 43:0.70425 44:-0.552172 45:-0.75249 46:1 47:1 48:-1 49:0.757135 50:-0.126715 51:-0.156257 52:1 53:1 54:-0.0744907 55:-0.255158 56:0.626877 57:0.473491 58:-0.274194 59:0.666 60:-0.116195 
-0 0.1152984986217363 0 1:-0.065318 2:0.826919 3:0.945377 4:0.104822 5:-0.143416 6:0.612656 7:0.945377 8:0.181726 9:-0.0400333 10:0.877465 11:0.629757 12:0.0187103 13:-0.394675 14:0.670307 15:0.430786 16:0.590519 17:0.68756 18:-0.85384 19:-0.56796 20:-0.71238 21:0.514051 22:1 23:0.519158 24:0.745525 25:0.90288 26:-0.0945874 27:0.244822 28:0.289833 29:-0.133195 30:0.376096 31:0.975542 32:-0.830426 33:1 34:-1 35:-1 36:1 37:-0.796142 38:0.628964 39:0.613644 40:-0.79597 41:-0.656259 42:0.66597 43:0.554159 44:-0.806051 45:-0.75249 46:1 47:1 48:-1 49:0.729024 50:0.362765 51:0.118133 52:0.846092 53:0.843292 54:0.377992 55:0.0977984 56:0.612867 57:0.473491 58:-0.274194 59:0.666 60:-0.116195 
-0.02938532260591769 0 0 1:-0.1735 2:0.858007 3:0.943934 4:0.0466146 5:-0.242559 6:0.637065 7:0.943934 8:0.128519 9:-0.158055 10:0.888895 11:0.642857 12:-0.0287109 13:-0.365038 14:0.707303 15:0.316858 16:0.643771 17:-0.845648 18:0.58984 19:0.401735 20:0.254151 21:0.514051 22:1 23:0.519158 24:0.745525 25:0.887703 26:-0.117546 27:0.362335 28:0.193572 29:-0.0346955 30:0.343017 31:0.989928 32:-0.791627 33:1 34:-1 35:-1 36:1 37:-0.834368 38:0.56549 39:0.58923 40:-0.902213 41:-0.743497 42:0.622384 43:0.510823 44:-0.837287 45:-0.75249 46:1 47:1 48:-1 49:0.712787 50:0.455821 51:0.150173 52:0.790128 53:0.819049 54:0.458845 55:0.157218 56:0.574986 57:0.473491 58:-0.274194 59:0.666 60:-0.116195 
-0.2799559057419058 0.3893159455600658 0.2971363264923635 1:-0.231355 2:0.901972 3:0.942281 4:-0.109598 5:-0.29558 6:0.671584 7:0.942281 8:-0.0142727 9:-0.228527 10:0.903172 11:0.661895 12:-0.165539 13:-0.250468 14:0.762205 15:-0.123575 16:0.752212 17:-0.392375 18:0.724101 19:0.115031 20:0.647327 21:0.514051 22:1 23:0.519158 24:0.745525 25:0.70364 26:-0.209564 27:0.719735 28:-0.192236 29:0.497396 30:0.0986775 31:0.920345 32:-0.505029 33:1 34:-1 35:-1 36:1 37:-0.896947 38:0.460114 39:0.568163 40:-1 41:0.645877 42:-1 43:-0.76241 44:0.20729 45:-0.75249 46:1 47:1 48:-1 49:0.646436 50:0.686623 51:0.292943 52:0.56913 53:0.648126 54:0.646279 55:0.390068 56:0.484948 57:0.473491 58:-0.274194 59:0.666 60:-0.116195 
-0.02008812001182708 0 0 1:-0.251869 2:0.905141 3:0.941126 4:-0.125513 5:-0.314379 6:0.674072 7:0.941126 8:-0.028821 9:-0.247405 10:0.907656 11:0.660379 12:-0.181626 13:-0.247625 14:0.761996 15:-0.134503 16:0.753164 17:-0.364702 18:0.724624 19:0.0975228 20:0.662046 21:0.514051 22:1 23:0.519158 24:0.745525 25:0.696888 26:-0.211878 27:0.726764 28:-0.201937 29:0.522101 30:0.0838908 31:0.90939 32:-0.487683 33:1 34:-1 35:-1 36:1 37:-0.925832 38:0.465416 39:0.541319 40:-0.988798 41:-0.790761 42:0.503445 43:0.48067 44:-0.953646 45:-0.75249 46:1 47:1 48:-1 49:0.636916 50:0.719058 51:0.273363 52:0.54893 53:0.633258 54:0.644778 55:0.425247 56:0.476302 57:0.473491 58:-0.274194 59:0.666 60:-0.116195 
-0 0 0.7131960399179224 1:-0.198146 2:0.907198 3:0.93467 4:-0.0878497 5:-0.265145 6:0.675687 7:0.93467 8:0.00560692 9:-0.194986 10:0.911027 11:0.653411 12:-0.145159 13:-0.242074 14:0.761377 15:-0.155844 16:0.754793 17:-0.296402 18:0.722977 19:0.0543113 20:0.694823 21:0.514051 22:1 23:0.519158 24:0.745525 25:0.68342 26:-0.216397 27:0.740232 28:-0.220883 29:0.580134 30:0.0474244 31:0.879771 32:-0.444908 33:1 34:-1 35:-1 36:1 37:-0.447417 38:0.733702 39:0.79773 40:-0.41548 41:-0.517777 42:0.656074 43:0.650153 44:-0.756334 45:-0.75249 46:1 47:1 48:-1 49:0.624845 50:0.672714 51:0.330118 52:0.600781 53:0.647793 54:0.611804 55:0.420273 56:0.494249 57:0.473491 58:-0.274194 59:0.666 60:-0.116195 
-0.1021510598091545 5.787612967729119 0.6777410022792223 1:-0.267471 2:0.922116 3:0.943611 4:-0.302398 5:-0.328678 6:0.6874 7:0.943611 8:-0.190509 9:-0.269689 10:0.920061 11:0.664484 12:-0.333555 13:-0.238634 14:0.760854 15:-0.169068 16:0.755651 17:-0.232419 18:0.717771 19:0.0138367 20:0.721091 21:0.514051 22:1 23:0.519158 24:0.745525 25:0.674889 26:-0.219197 27:0.748407 28:-0.232623 29:0.630841 30:0.0132924 31:0.848804 32:-0.404873 33:1 34:-1 35:-1 36:1 37:0.559605 38:-0.801721 39:-1 40:0.550016 41:0.633467 42:-0.968236 43:-0.686392 44:0.346972 45:-0.75249 46:1 47:1 48:-1 49:0.578345 50:0.766528 51:0.362635 52:0.506994 53:0.616795 54:0.687489 55:0.503242 56:0.395843 57:0.473491 58:-0.274194 59:0.666 60:-0.116195 
-0.2811448019215952 3.036766662571278 0.1002715681285788 1:-0.762901 2:0.8656 3:0.820805 4:-0.565645 5:-0.782712 6:0.643027 7:0.820805 8:-0.431141 9:-0.741894 10:0.879341 11:0.554503 12:-0.601111 13:0.162566 14:0.498403 15:-0.599698 16:0.803375 17:0.347255 18:0.539321 19:-0.367696 20:0.732792 21:0.514051 22:1 23:0.519158 24:0.745525 25:0.699661 26:-0.678959 27:0.512645 28:0.243269 29:0.722038 30:-0.68615 31:0.524954 32:0.0252854 33:1 34:-1 35:-1 36:1 37:0.860607 38:-0.346739 39:-0.532804 40:0.697707 41:0.708951 42:-0.300191 43:-0.39366 44:0.697031 45:-0.75249 46:1 47:1 48:-1 49:0.861825 50:-0.292059 51:-0.456235 52:0.786106 53:0.772222 54:-0.246888 55:-0.502939 56:0.772133 57:0.473491 58:-0.274194 59:0.666 60:-0.116195 
-0.06131934270883546 0.3621848444979678 0.1768140934610955 1:-0.871081 2:0.839256 3:0.75708 4:-0.646418 5:-0.881853 6:0.622343 7:0.75708 8:-0.504975 9:-0.851194 10:0.843896 11:0.506922 12:-0.677423 13:0.370526 14:0.244171 15:-0.657182 16:0.816703 17:0.486222 18:0.269317 19:-0.534922 20:0.75207 21:0.514051 22:1 23:0.519158 24:0.745525 25:0.652166 26:-0.925162 27:0.420595 28:0.153119 29:0.615594 30:-0.886321 31:0.49275 32:0.0161408 33:1 34:-1 35:-1 36:1 37:0.987345 38:-0.176026 39:-0.404181 40:0.506101 41:0.445436 42:-0.10291 43:-0.228804 44:0.882558 45:-0.75249 46:1 47:1 48:-1 49:0.988382 50:-0.112356 51:-0.318294 52:0.590633 53:0.456334 54:-0.0467219 55:-0.283801 56:0.966021 57:0.473491 58:-0.274194 59:0.666 60:-0.116195 
-0.0599696878197105 0.3185882807165395 0.2293418205399183 1:-0.887263 2:0.828778 3:0.752409 4:-0.65674 5:-0.896683 6:0.614116 7:0.752409 8:-0.51441 9:-0.870683 10:0.833079 11:0.50215 12:-0.683327 13:0.423383 14:0.153476 15:-0.650342 16:0.822743 17:0.520828 18:0.171835 19:-0.559701 20:0.758723 21:0.514051 22:1 23:0.519158 24:0.745525 25:0.629859 26:-0.991843 27:0.395435 28:0.111743 29:-0.931188 30:0.841372 31:-0.544304 32:-0.656045 33:1 34:-1 35:-1 36:1 37:0.884088 38:-0.0142909 39:-0.258786 40:0.698485 41:0.631867 42:-0.0256721 43:-0.0975422 44:0.775513 45:-0.75249 46:1 47:1 48:-1 49:0.244518 50:0.991207 51:0.600446 52:0.214642 53:0.293703 54:0.926046 55:0.725406 56:0.077989 57:0.473491 58:-0.274194 59:0.666 60:-0.116195 
-0.001623556928486239 0.1931744934735387 0 1:-0.904421 2:0.82774 3:0.743205 4:-0.644179 5:-0.912407 6:0.613301 7:0.743205 8:-0.502929 9:-0.892244 10:0.827456 11:0.496846 12:-0.669031 13:0.462024 14:0.0895244 15:-0.641441 16:0.820908 17:0.549699 18:0.116025 19:-0.565953 20:0.75495 21:0.514051 22:1 23:0.519158 24:0.745525 25:-0.985011 26:0.670701 27:-0.460889 28:-0.506942 29:-0.827721 30:0.924573 31:-0.565395 32:-0.649254 33:1 34:-1 35:-1 36:1 37:0.791969 38:0.00535376 39:-0.235153 40:0.832997 41:0.695231 42:0.0100118 43:-0.112079 44:0.726903 45:-0.75249 46:1 47:1 48:-1 49:0.28187 50:0.945825 51:0.657735 52:0.191262 53:0.406223 54:0.859221 55:0.770461 56:0.00923947 57:0.473491 58:-0.274194 59:0.666 60:-0.116195 
-0.3777204235900514 0.3761990898161071 0 1:-0.910631 2:0.824991 3:0.742074 4:-0.639643 5:-0.918099 6:0.611143 7:0.742074 8:-0.498782 9:-0.900939 10:0.823112 11:0.496328 12:-0.662762 13:0.560225 14:-0.0173447 15:-0.608709 16:0.785001 17:0.618878 18:0.0234864 19:-0.57368 20:0.71988 21:0.514051 22:1 23:0.519158 24:0.745525 25:-1 26:0.636852 27:-0.475681 28:-0.543237 29:-0.842841 30:0.871698 31:-0.590557 32:-0.689062 33:1 34:-1 35:-1 36:1 37:0.76009 38:-0.00267757 39:-0.213093 40:0.876386 41:0.733265 42:0.0495911 43:-0.152187 44:0.691234 45:-0.75249 46:1 47:1 48:-1 49:0.32806 50:0.912581 51:0.686114 52:0.149774 53:0.446042 54:0.817947 55:0.793927 56:-0.00443407 57:0.473491 58:-0.274194 59:0.666 60:-0.116195 
-0.08796938099250708 0 0 1:-0.926724 2:0.821241 3:0.73413 4:-0.633541 5:-0.932846 6:0.608199 7:0.73413 8:-0.493204 9:-0.917564 10:0.816826 11:0.491473 12:-0.658345 13:0.565206 14:0.0646951 15:-0.640103 16:0.744343 17:0.608301 18:0.156763 19:-0.609586 20:0.645578 21:0.514051 22:1 23:0.519158 24:0.745525 25:0.628545 26:-1 27:0.382037 28:0.122784 29:-0.862652 30:0.759312 31:-0.645621 32:-0.753086 33:1 34:-1 35:-1 36:1 37:0.742263 38:0.00622108 39:-0.203022 40:0.895855 41:0.758204 42:0.0729011 43:-0.158297 44:0.665654 45:-0.75249 46:1 47:1 48:-1 49:0.359197 50:0.90249 51:0.688124 52:0.103745 53:0.447627 54:0.785189 55:0.820544 56:0.00423473 57:0.473491 58:-0.274194 59:0.666 60:-0.116195 
-0 0.05737582243763103 0 1:-0.952133 2:0.812564 3:0.716025 4:-0.653326 5:-0.956132 6:0.601386 7:0.716025 8:-0.51129 9:-0.940615 10:0.807983 11:0.476941 12:-0.679809 13:0.537195 14:0.198503 15:-0.693077 16:0.686182 17:0.572886 18:0.314693 19:-0.618149 20:0.568378 21:0.514051 22:1 23:0.519158 24:0.745525 25:0.661312 26:-0.913125 27:0.40794 28:0.177081 29:0.548613 30:-0.738161 31:0.619029 32:0.14668 33:1 34:-1 35:-1 36:1 37:0.734056 38:0.028043 39:-0.182533 40:0.898594 41:0.777324 42:0.111591 43:-0.154934 44:0.639752 45:-0.75249 46:1 47:1 48:-1 49:0.367078 50:0.877974 51:0.724983 52:0.0738313 53:0.440101 54:0.800224 55:0.814551 56:-0.00518093 57:0.473491 58:-0.274194 59:0.666 60:-0.116195 
-0.1213070784996685 0.1037428485345066 0 1:-0.94875 2:0.805937 3:0.70822 4:-0.712038 5:-0.953032 6:0.596183 7:0.70822 8:-0.564958 9:-0.945103 10:0.807618 11:0.462254 12:-0.718787 13:0.425139 14:0.5969 15:-0.80771 16:0.345223 17:0.599104 18:0.472636 19:-0.56481 20:0.438317 21:0.514051 22:1 23:0.519158 24:0.745525 25:-0.688637 26:-0.724054 27:-0.571397 28:0.843851 29:-0.682528 30:-0.946686 31:-0.374264 32:0.484341 33:1 34:-1 35:-1 36:1 37:0.748805 38:0.0516243 39:-0.179915 40:0.872992 41:0.805438 42:0.12901 43:-0.142588 44:0.609164 45:-0.75249 46:1 47:1 48:-1 49:0.402641 50:0.869656 51:0.717885 52:0.00920491 53:0.365522 54:0.775858 55:0.833231 56:0.0971643 57:0.473491 58:-0.274194 59:0.666 60:-0.116195 
-0.1361886917548127 0.146168805208699 0 1:-0.964625 2:0.768592 3:0.698412 4:-0.800485 5:-0.967581 6:0.566862 7:0.698412 8:-0.645806 9:-0.964329 10:0.767819 11:0.453243 12:-0.794344 13:0.359412 14:0.705127 15:-0.791974 16:0.261198 17:0.582653 18:0.49869 19:-0.524805 20:0.469798 21:0.514051 22:1 23:0.519158 24:0.745525 25:-0.816696 26:-0.646235 27:-0.677967 28:0.67602 29:-0.758319 30:-0.888218 31:-0.449354 32:0.431242 33:1 34:-1 35:-1 36:1 37:0.756503 38:0.0861124 39:-0.12326 40:0.844823 41:0.801347 42:0.179596 43:-0.106613 44:0.596462 45:-0.75249 46:1 47:1 48:-1 49:0.591913 50:0.783298 51:0.475746 52:0.32366 53:0.583489 54:0.61203 55:0.682387 56:0.327427 57:0.473491 58:-0.274194 59:0.666 60:-0.116195 
-0.2599627372346193 0.5005321124320127 0.00711926144549005 1:-0.983368 2:0.749111 3:0.679963 4:-0.846352 5:-0.984758 6:0.551566 7:0.679963 8:-0.687733 9:-0.984745 10:0.750481 11:0.435103 12:-0.832873 13:-0.901221 14:-0.193113 15:0.920155 16:-0.0536413 17:0.830507 18:-0.186578 19:-0.8237 20:-0.489624 21:0.514051 22:1 23:0.519158 24:0.745525 25:0.488717 26:0.130898 27:0.639813 28:-1 29:-0.821067 30:-0.827654 31:-0.512958 32:0.376238 33:1 34:-1 35:-1 36:1 37:0.744499 38:0.0892655 39:-0.0656877 40:0.849048 41:0.801758 42:0.219148 43:-0.0911837 44:0.581341 45:-0.75249 46:1 47:1 48:-1 49:0.524859 50:0.804894 51:0.543063 52:0.328422 53:0.520232 54:0.634458 55:0.735371 56:0.29904 57:0.473491 58:-0.274194 59:0.666 60:-0.116195 
-0.1490349119693564 0.7564878788506201 0.02065687737793986 1:-1 2:0.729146 3:0.658907 4:-0.895829 5:-1 6:0.535891 7:0.658907 8:-0.732959 9:-1 10:0.734115 11:0.414409 12:-0.878118 13:-0.82657 14:-0.198509 15:0.953986 16:-0.0319032 17:0.820339 18:-0.197486 19:-0.828657 20:-0.509782 21:0.514051 22:1 23:0.519158 24:0.745525 25:0.547524 26:0.0667194 27:0.684559 28:-0.861587 29:0.513782 30:0.662356 31:0.511599 32:-0.976945 33:1 34:-1 35:-1 36:1 37:0.740732 38:0.108182 39:-0.0255541 40:0.837187 41:0.801832 42:0.267341 43:-0.0784275 44:0.56143 45:-0.75249 46:1 47:1 48:-1 49:0.472538 50:0.83399 51:0.58986 52:0.291429 53:0.472294 54:0.656152 55:0.784096 56:0.252647 57:0.473491 58:-0.274194 59:0.666 60:-0.116195 
-0.2706071335371711 0 0.04380234490975263 1:-0.996965 2:0.721999 3:0.646077 4:-0.937613 5:-0.997219 6:0.53028 7:0.646077 8:-0.771154 9:-0.99625 10:0.726632 11:0.40339 12:-0.916278 13:-0.809866 14:-0.199371 15:0.959363 16:-0.0186874 17:-1 18:-0.114151 19:0.730262 20:-0.0192026 21:0.514051 22:1 23:0.519158 24:0.745525 25:0.58684 26:0.0123699 27:0.712789 28:-0.744374 29:0.555883 30:0.603464 31:0.556433 32:-0.923462 33:1 34:-1 35:-1 36:1 37:0.743943 38:0.122881 39:-0.0117531 40:0.823181 41:0.798005 42:0.280184 43:-0.0643014 44:0.558223 45:-0.75249 46:1 47:1 48:-1 49:0.453644 50:0.820408 51:0.626858 52:0.303985 53:0.462878 54:0.669021 55:0.784698 56:0.24494 57:0.473491 58:-0.274194 59:0.666 60:-0.116195 
-0.3388408647792984 0.5923348617864193 0.05714529683237723 1:0.643303 2:-1 3:-1 4:0.252164 5:0.505996 6:-0.821736 7:-1 8:0.31641 9:-0.999267 10:0.713169 11:0.395649 12:-0.944614 13:-0.767502 14:0.0727907 15:0.875345 16:0.261064 17:-0.972319 18:0.00692856 19:0.705582 20:0.12098 21:0.514051 22:1 23:0.519158 24:0.745525 25:0.613079 26:-0.0326695 27:0.730337 28:-0.647236 29:0.590076 30:0.547147 31:0.593849 32:-0.872316 33:1 34:-1 35:-1 36:1 37:0.752153 38:0.108905 39:0.0330275 40:0.804785 41:0.787709 42:0.327808 43:-0.0729419 44:0.548349 45:-0.75249 46:1 47:1 48:-1 49:0.430223 50:0.797231 51:0.678679 52:0.317814 53:0.465237 54:0.696642 55:0.775953 56:0.221149 57:0.473491 58:-0.274194 59:0.666 60:-0.116195 
-0.2141860070306215 0.3439122445476568 0 1:0.659956 2:-0.964252 3:-0.974208 4:0.318229 5:0.521257 6:-0.793669 7:-0.974208 8:0.3768 9:0.654501 10:-0.993406 11:-0.989063 12:0.240756 13:-0.62902 14:0.422763 15:0.600708 16:0.578874 17:-0.88497 18:0.205087 19:0.627697 20:0.340793 21:0.514051 22:1 23:0.519158 24:0.745525 25:0.642389 26:-0.0993967 27:0.747521 28:-0.503327 29:0.63995 30:0.444365 31:0.650865 32:-0.778972 33:1 34:-1 35:-1 36:1 37:0.744388 38:0.129162 39:0.094498 40:0.783676 41:0.7778 42:0.377775 43:-0.040529 44:0.528921 45:-0.75249 46:1 47:1 48:-1 49:0.372102 50:0.779168 51:0.756637 52:0.321507 53:0.437632 54:0.742705 55:0.78167 56:0.174459 57:0.473491 58:-0.274194 59:0.666 60:-0.116195 
-0.0548518457641923 0.0609114485182003 0 1:0.634461 2:-0.990732 3:-0.974948 4:0.318495 5:0.497892 6:-0.814459 7:-0.974948 8:0.377043 9:-0.994387 10:0.698475 11:0.377113 12:-1 13:-0.410443 14:0.67767 15:0.167222 16:0.751611 17:-0.676238 18:0.454245 19:0.44158 20:0.594572 21:0.514051 22:1 23:0.519158 24:0.745525 25:0.662058 26:-0.171007 27:0.755098 28:-0.348888 29:0.692249 30:0.281574 31:0.717155 32:-0.63113 33:1 34:-1 35:-1 36:1 37:0.762051 38:0.131359 39:0.0581041 40:0.772443 41:0.763 42:0.327958 43:-0.0403273 44:0.567679 45:-0.75249 46:1 47:1 48:-1 49:0.356332 50:0.781621 51:0.737618 52:0.377876 53:0.479037 54:0.696156 55:0.80798 56:0.156018 57:0.473491 58:-0.274194 59:0.666 60:-0.116195 
-0 2.862126977880427 0.329470367932654 1:-0.802894 2:0.857439 3:0.727197 4:-0.828285 5:-0.819363 6:0.636619 7:0.727197 8:-0.671218 9:-0.801291 10:0.865649 11:0.471691 12:-0.815133 13:-0.265923 14:0.752501 15:-0.119391 16:0.762218 17:-0.369442 18:0.637123 19:0.168024 20:0.745734 21:0.514051 22:1 23:0.519158 24:0.745525 25:0.668134 26:-0.21272 27:0.75455 28:-0.258928 29:0.719452 30:0.0935182 31:0.763859 32:-0.460344 33:1 34:-1 35:-1 36:1 37:0.820605 38:-0.0899131 39:-0.148377 40:0.807352 41:0.771078 42:0.0580108 43:-0.203977 44:0.655913 45:-0.75249 46:1 47:1 48:-1 49:0.59951 50:0.639131 51:0.56596 52:0.476581 53:0.658524 54:0.618045 55:0.578817 56:0.357835 57:0.473491 58:-0.274194 59:0.666 60:-0.116195 
-0.03066177077371291 0.03012003485593887 0 1:0.67571 2:-0.954749 3:-0.930026 4:0.366702 5:0.535695 6:-0.786207 7:-0.930026 8:0.421108 9:0.667835 10:-1 11:-0.939387 12:0.284208 13:-0.255245 14:0.755638 15:-0.140568 16:0.760357 17:-0.32103 18:0.654153 19:0.124858 20:0.755277 21:0.514051 22:1 23:0.519158 24:0.745525 25:0.668423 26:-0.215751 27:0.754371 28:-0.252391 29:0.720758 30:0.06593 31:0.768296 32:-0.435289 33:1 34:-1 35:-1 36:1 37:0.753462 38:0.141616 39:0.135709 40:0.746916 41:0.758145 42:0.369653 43:0.00220926 44:0.543851 45:-0.75249 46:1 47:1 48:-1 49:0.376332 50:0.745632 51:0.801329 52:0.302878 53:0.452016 54:0.798795 55:0.739372 56:0.14067 57:0.473491 58:-0.274194 59:0.666 60:-0.116195 
-0 0.5380576408152022 0 1:0.988981 2:-0.350242 3:-0.177206 4:0.703359 5:0.82279 6:-0.311583 7:-0.177206 8:0.728843 9:0.979476 10:-0.371387 11:-0.304655 12:0.595958 13:-0.240233 14:0.759509 15:-0.17034 16:0.757146 17:-0.211223 18:0.682967 19:0.0269467 20:0.765043 21:0.514051 22:1 23:0.519158 24:0.745525 25:0.668795 26:-0.22001 27:0.754085 28:-0.243207 29:0.721304 30:0.00429015 31:0.776074 32:-0.379308 33:1 34:-1 35:-1 36:1 37:0.345409 38:0.768089 39:0.491571 40:0.233942 41:0.437015 42:0.888704 43:0.412521 44:0.0646804 45:-0.75249 46:1 47:1 48:-1 49:-0.410527 50:0.871411 51:0.958148 52:-0.292248 53:-0.303008 54:0.793263 55:1 56:-0.55446 57:0.473491 58:-0.274194 59:0.666 60:-0.116195 
-0.4320006125721753 0 0 1:0.991309 2:-0.33367 3:-0.181073 4:0.703701 5:0.824924 6:-0.298572 7:-0.181073 8:0.729156 9:0.985657 10:-0.347331 11:-0.311979 12:0.593098 13:-0.239436 14:0.759697 15:-0.17192 16:0.756955 17:-0.201052 18:0.684971 19:0.0178772 20:0.765144 21:0.514051 22:1 23:0.519158 24:0.745525 25:0.668813 26:-0.220236 27:0.754069 28:-0.24272 29:0.721191 30:-0.00137479 31:0.776642 32:-0.374164 33:1 34:-1 35:-1 36:1 37:0.343642 38:0.785212 39:0.479327 40:0.209295 41:0.421497 42:0.894763 43:0.418774 44:0.0603697 45:-0.75249 46:1 47:1 48:-1 49:-0.335414 50:0.836698 51:0.994572 52:-0.407533 53:-0.470262 54:0.84558 55:0.959439 56:-0.373357 57:0.473491 58:-0.274194 59:0.666 60:-0.116195 
-0 0.9407833490429656 0 1:0.987895 2:-0.249029 3:-0.0398697 4:0.710106 5:0.821795 6:-0.232116 7:-0.0398697 8:0.735011 9:0.989092 10:-0.260959 11:-0.19012 12:0.591005 13:-0.23788 14:0.760058 15:-0.175005 16:0.756578 17:-0.176198 18:0.689404 19:-0.00428467 20:0.764826 21:0.514051 22:1 23:0.519158 24:0.745525 25:0.668849 26:-0.220677 27:0.754037 28:-0.241768 29:0.7208 30:-0.0151977 31:0.777925 32:-0.36161 33:1 34:-1 35:-1 36:1 37:0.264753 38:0.833881 39:0.505979 40:0.124852 41:0.365329 42:0.871739 43:0.506403 44:-0.0107553 45:-0.75249 46:1 47:1 48:-1 49:0.636776 50:0.588332 51:0.472661 52:0.580756 53:-0.870543 54:-0.874707 55:0.484108 56:0.610729 57:0.473491 58:-0.274194 59:0.666 60:-0.116195 
-0.2759241945266446 0.4325255611668141 0.3069240112263064 1:0.977247 2:-0.174537 3:0.122535 4:0.688092 5:0.812037 6:-0.173629 7:0.122535 8:0.714888 9:0.978979 10:-0.188891 11:-0.0485286 12:0.570141 13:-0.237084 14:0.760241 15:-0.176585 16:0.756383 17:-0.158045 18:0.692228 19:-0.0204703 20:0.764093 21:0.514051 22:1 23:0.519158 24:0.745525 25:0.668868 26:-0.220903 27:0.754021 28:-0.241281 29:0.720413 30:-0.0252784 31:0.778768 32:-0.352455 33:1 34:-1 35:-1 36:1 37:0.7299 38:0.209807 39:-0.271119 40:0.831152 41:0.56295 42:0.226904 43:-0.0704513 44:0.760652 45:-0.75249 46:1 47:1 48:-1 49:0.528424 50:0.816364 51:0.387472 52:0.479256 53:-0.878659 54:-1 55:0.610203 56:0.420565 57:0.473491 58:-0.274194 59:0.666 60:-0.116195 
-0.1028773542487054 -0 0 1:0.444457 2:0.83324 3:0.471834 4:0.517089 5:0.323764 6:0.61762 7:0.471834 8:0.558575 9:0.466008 10:0.836671 11:0.254236 12:0.393496 13:-0.236249 14:0.76043 15:-0.178244 16:0.756175 17:-0.109126 18:0.698106 19:-0.0640741 20:0.760026 21:0.514051 22:1 23:0.519158 24:0.745525 25:0.80142 26:0.454206 27:-0.366975 28:-0.138957 29:-0.276966 30:-0.258935 31:0.950173 32:-0.988809 33:1 34:-1 35:-1 36:1 37:-0.60896 38:0.6749 39:0.784262 40:-0.501021 41:-0.426754 42:0.653375 43:0.721298 44:-0.633161 45:-0.75249 46:1 47:1 48:-1 49:0.85904 50:-0.454772 51:-0.413004 52:0.750898 53:0.785757 54:-0.430575 55:-0.509797 56:0.73791 57:0.473491 58:-0.274194 59:0.666 60:-0.116195 
-0 -8.117702556695946 0.1444370670229726 1:0.363211 2:0.755008 3:0.375532 4:0.734728 5:0.249306 6:0.556196 7:0.375532 8:0.757517 9:0.743398 10:0.701121 11:0.191139 12:0.315469 13:-0.236249 14:0.76043 15:-0.178244 16:0.756175 17:-0.109126 18:0.698106 19:-0.0640741 20:0.760026 21:0.514051 22:1 23:0.519158 24:0.745525 25:0.781315 26:0.398001 27:-0.23877 28:0.291138 29:0.112481 30:-0.181187 31:-0.919915 32:0.443715 33:1 34:-1 35:-1 36:1 37:-0.419724 38:0.791297 39:0.743581 40:-0.396699 41:-0.300879 42:0.737316 43:0.731357 44:-0.462134 45:-0.75249 46:1 47:1 48:-1 49:0.764707 50:-0.647008 51:-0.487439 52:0.768875 53:0.729249 54:-0.604505 55:-0.647697 56:0.685816 57:0.473491 58:-0.274194 59:0.666 60:-0.116195 
-0.6065955149029493 -0 0.003965762907447992 1:0.525184 2:0.692892 3:0.367549 4:0.680366 5:0.397746 6:0.507426 7:0.367549 8:0.707826 9:0.639716 10:0.68282 11:0.167163 12:0.46898 13:-0.236249 14:0.76043 15:-0.178244 16:0.756175 17:-0.109126 18:0.698106 19:-0.0640741 20:0.760026 21:0.514051 22:1 23:0.519158 24:0.745525 25:0.763382 26:0.512464 27:-0.351111 28:-0.056777 29:-0.040856 30:0.139675 31:-0.962431 32:0.409696 33:1 34:-1 35:-1 36:1 37:-0.41335 38:0.743466 39:0.799252 40:-0.389085 41:-0.284822 42:0.730322 43:0.737726 44:-0.467619 45:-0.75249 46:1 47:1 48:-1 49:0.803036 50:-0.598643 51:-0.490015 52:0.739045 53:0.734817 54:-0.563971 55:-0.619631 56:0.705775 57:0.473491 58:-0.274194 59:0.666 60:-0.116195 
-0 -0 0.02847132085566786 1:0.470276 2:0.782151 3:0.403879 4:0.611275 5:0.347426 6:0.577508 7:0.403879 8:0.64467 9:0.501334 10:0.782809 11:0.197461 12:0.472388 13:-0.236249 14:0.76043 15:-0.178244 16:0.756175 17:-0.109126 18:0.698106 19:-0.0640741 20:0.760026 21:0.514051 22:1 23:0.519158 24:0.745525 25:0.784966 26:0.461146 27:-0.39219 28:-0.10423 29:-0.296205 30:-0.26667 31:0.94252 32:-0.998696 33:1 34:-1 35:-1 36:1 37:-0.57376 38:0.675474 39:0.812932 40:-0.417667 41:-0.364848 42:0.674695 43:0.73113 44:-0.608462 45:-0.75249 46:1 47:1 48:-1 49:0.873205 50:-0.441592 51:-0.410511 52:0.732247 53:0.792764 54:-0.413557 55:-0.506474 56:0.737048 57:0.473491 58:-0.274194 59:0.666 60:-0.116195 
-0.5805724551979153 -0 0 1:0.674295 2:0.575289 3:0.263248 4:0.703561 5:0.534398 6:0.415091 7:0.263248 8:0.729027 9:0.661007 10:0.577128 11:0.0751881 12:0.589878 13:0.53531 14:0.771566 15:0.338679 16:-0.223682 17:-0.0723826 18:-0.659685 19:-0.839506 20:0.576096 21:0.514051 22:1 23:0.519158 24:0.745525 25:0.471822 26:0.0795189 27:-0.766815 28:0.53911 29:0.0766048 30:0.365317 31:0.893257 32:-0.967054 33:1 34:-1 35:-1 36:1 37:-0.450788 38:0.71009 39:0.830869 40:-0.297072 41:-0.218261 42:0.647443 43:0.778906 44:-0.564811 45:-0.75249 46:1 47:1 48:-1 49:0.784294 50:-0.744168 51:-0.560171 52:0.617544 53:0.653731 54:-0.649526 55:-0.766857 56:0.667403 57:0.473491 58:-0.274194 59:0.666 60:-0.116195 
-0 -0.4327359702762458 0 1:0.657905 2:0.514613 3:0.189388 4:0.795638 5:0.519377 6:0.367452 7:0.189388 8:0.813195 9:0.662682 10:0.513999 11:0.0109305 12:0.658182 13:0.809621 14:0.535061 15:0.260559 16:-0.242549 17:0.0112218 18:0.192499 19:0.869113 20:-0.931984 21:0.514051 22:1 23:0.519158 24:0.745525 25:-0.906986 26:-0.401972 27:0.724345 28:-0.924617 29:0.0982614 30:0.351778 31:0.951938 32:-0.828908 33:1 34:-1 35:-1 36:1 37:-0.379021 38:0.688483 39:0.868547 40:-0.259218 41:-0.15346 42:0.641281 43:0.793857 44:-0.521826 45:-0.75249 46:1 47:1 48:-1 49:0.788229 50:-0.748799 51:-0.558623 52:0.606028 53:0.657825 54:-0.652563 55:-0.768892 56:0.662485 57:0.473491 58:-0.274194 59:0.666 60:-0.116195 
-0 -0.1853201525190932 0 1:0.675123 2:0.494938 3:0.156379 4:0.805049 5:0.535157 6:0.352004 7:0.156379 8:0.821797 9:0.680139 10:0.494943 11:-0.0184433 12:0.666469 13:0.786532 14:0.5576 15:0.27171 16:-0.212801 17:0.00465953 18:0.231528 19:0.856412 20:-0.932374 21:0.514051 22:1 23:0.519158 24:0.745525 25:-0.910132 26:-0.391868 27:0.728615 28:-0.914306 29:0.0986908 30:0.349661 31:0.957144 32:-0.815841 33:1 34:-1 35:-1 36:1 37:-0.344311 38:0.685536 39:0.876932 40:-0.239435 41:-0.12524 42:0.647484 43:0.79553 44:-0.492957 45:-0.75249 46:1 47:1 48:-1 49:0.749612 50:-0.749838 51:-0.617896 52:0.641774 53:0.787192 54:-0.784513 55:-0.691817 56:0.539617 57:0.473491 58:-0.274194 59:0.666 60:-0.116195 
-0.4058641903778364 -0 0 1:0.735425 2:0.480332 3:0.0718918 4:0.783362 5:0.59042 6:0.340536 7:0.0718918 8:0.801973 9:0.735006 10:0.460398 11:-0.068854 12:0.656407 13:0.839811 14:0.50611 15:0.139528 16:0.0342019 17:0.00112583 18:0.323396 19:0.855947 20:-0.839817 21:0.514051 22:1 23:0.519158 24:0.745525 25:-0.869211 26:-0.270144 27:0.754358 28:-0.948412 29:0.162279 30:0.459541 31:0.937467 32:-0.727158 33:1 34:-1 35:-1 36:1 37:-0.282636 38:0.715416 39:0.853936 40:-0.183024 41:-0.0712881 42:0.677839 43:0.785864 44:-0.430482 45:-0.75249 46:1 47:1 48:-1 49:0.746485 50:-0.795295 51:-0.57705 52:0.624282 53:0.670986 54:-0.731059 55:-0.770802 56:0.618227 57:0.473491 58:-0.274194 59:0.666 60:-0.116195 
