svm_type c_svc
kernel_type rbf
gamma 0.125
nr_class 4
total_sv 621
rho 0.161014 0.901935 0.392532 -0.449095 -0.372592 -0.00438797
label 1 2 3 4
nr_sv 149 177 167 128
SV
3.384408950571769 14.60249889925415 0.1106999345839171 1:0.489958 2:0.241334 3:-0.149077 4:0.924215 5:0.434382 6:0.285556 7:-0.12935 8:0.924221 9:0.761592 10:0.171956 11:-0.102782 12:0.835005 13:0.380251 14:0.511742 15:-0.520244 16:0.638982 17:0.379127 18:0.872988 19:0.133321 20:-0.361307 25:0.256589 26:-0.0564362 27:0.879859 28:0.316465 29:0.500893 30:-0.182617 31:0.74674 32:0.305359 33:0.192583 34:0.195799 35:0.274593 36:-0.0340858 37:0.655244 38:0.146972 39:0.327925 40:0.567755 41:0.488488 42:0.0727426 43:0.399294 44:0.704706 45:0.601928 46:-0.21523 47:-0.336549 48:0.411451 49:0.219319 50:0.646891 51:0.584159 52:0.216611 53:0.212452 54:0.496389 55:0.67373 56:0.0582424 
0 3.539100937156279 0 1:0.49305 2:0.26217 3:-0.136092 4:0.914175 5:0.437065 6:0.305177 7:-0.116588 8:0.914182 9:0.759584 10:0.212028 11:-0.1163 12:0.825505 13:0.234597 14:0.51168 15:-0.434907 16:0.741152 17:0.262156 18:0.913451 19:-0.00627636 20:-0.020206 25:0.253734 26:-0.0394657 27:0.886006 28:0.304676 29:0.494656 30:-0.162274 31:0.756835 32:0.30112 33:0.192583 34:0.195799 35:0.274593 36:-0.0340858 37:0.645542 38:0.110889 39:0.348757 40:0.586534 41:0.499726 42:0.0509943 43:0.399161 44:0.703753 45:0.601928 46:-0.21523 47:-0.336549 48:0.411451 49:0.203059 50:0.659509 51:0.580181 52:0.217663 53:0.196209 54:0.491423 55:0.685881 56:0.0538059 
65.8079575463542 0 0 1:0.599158 2:0.529105 3:0.321507 4:0.515867 5:0.529166 6:0.556553 7:0.333155 8:0.515905 9:0.706177 10:0.563961 11:0.317041 12:0.49947 13:-0.36856 14:0.671483 15:0.292583 16:0.471851 17:-0.449558 18:0.757262 19:0.337703 20:0.306529 25:0.626699 26:-0.247021 27:0.559341 28:0.369245 29:0.759351 30:-0.358174 31:0.381387 32:0.296348 33:0.192583 34:0.195799 35:0.274593 36:-0.0340858 37:0.568354 38:0.291425 39:0.363624 40:0.541594 41:0.776489 42:0.336754 43:0.343013 44:0.360335 45:0.601928 46:-0.21523 47:-0.336549 48:0.411451 49:0.512722 50:0.391687 51:0.36583 52:0.525012 53:0.438283 54:0.461242 55:0.325183 56:0.402107 
40.07771637187528 9.143541487168889 5.421649720174764 1:0.502794 2:0.289709 3:-0.112076 4:0.895684 5:0.445523 6:0.331111 7:-0.0929846 8:0.895693 9:0.745933 10:0.277472 11:-0.140269 12:0.815433 13:-0.0517078 14:0.550985 15:-0.29988 16:0.800567 17:-0.0137382 18:0.912675 19:-0.100931 20:0.233011 25:0.283554 26:0.0325239 27:0.881506 28:0.278901 29:0.524933 30:-0.0931666 31:0.743034 32:0.30094 33:0.192583 34:0.195799 35:0.274593 36:-0.0340858 37:0.584748 38:0.292074 39:0.419114 40:0.482962 41:0.390534 42:0.125037 43:0.522432 44:0.639718 45:0.601928 46:-0.21523 47:-0.336549 48:0.411451 49:0.185587 50:0.667983 51:0.58581 52:0.206456 53:0.177471 54:0.496046 55:0.693648 56:0.0441637 
0 8.010022499838522 0 1:0.594568 2:0.522781 3:0.336896 4:0.51437 5:0.525181 6:0.550598 7:0.34828 8:0.514408 9:0.70259 10:0.559221 11:0.331564 12:0.496195 13:-0.378383 14:0.665762 15:0.296813 16:0.473279 17:-0.460542 18:0.763812 19:0.338243 20:0.281695 25:0.657334 26:-0.225137 27:0.561343 28:0.314726 29:0.798144 30:-0.333557 31:0.358505 32:0.242867 33:0.192583 34:0.195799 35:0.274593 36:-0.0340858 37:0.558322 38:0.289189 39:0.376395 40:0.545825 41:0.778664 42:0.343746 43:0.342219 44:0.351577 45:0.601928 46:-0.21523 47:-0.336549 48:0.411451 49:0.511508 50:0.399929 51:0.366514 52:0.518417 53:0.434205 54:0.458501 55:0.333873 56:0.401853 
0 26.30718693885515 0 1:0.521389 2:0.264981 3:-0.204868 4:0.896076 5:0.461664 6:0.307824 7:-0.184184 8:0.896084 9:0.73034 10:0.220718 11:-0.192469 12:0.853562 13:0.745061 14:0.368499 15:-0.716625 16:0.281605 17:0.778334 18:0.572892 19:0.0753147 20:-0.234405 25:0.313057 26:-0.00852983 27:0.854967 28:0.315685 29:0.490335 30:-0.145569 31:0.770995 32:0.278236 33:0.192583 34:0.195799 35:0.274593 36:-0.0340858 37:0.669579 38:0.151238 39:0.345401 40:0.537227 41:0.524006 42:0.0793634 43:0.409836 44:0.674339 45:0.601928 46:-0.21523 47:-0.336549 48:0.411451 49:0.371485 50:0.568212 51:0.440376 52:0.412717 53:-0.485787 54:-0.406356 55:0.713272 56:0.49779 
118.4566955820727 0 0 1:0.580174 2:0.516378 3:0.355425 4:0.520577 5:0.512688 6:0.544567 7:0.36649 8:0.520614 9:0.687135 10:0.553459 11:0.350582 12:0.502766 13:-0.406209 14:0.629232 15:0.283727 16:0.523376 17:-0.425289 18:0.696265 19:0.356573 20:0.427842 25:0.62381 26:-0.235016 27:0.596524 28:0.314627 29:0.719815 30:-0.31547 31:0.489523 32:0.270264 33:0.192583 34:0.195799 35:0.274593 36:-0.0340858 37:0.559603 38:0.303579 39:0.37247 40:0.535049 41:0.772279 42:0.34441 43:0.351374 44:0.350741 45:0.601928 46:-0.21523 47:-0.336549 48:0.411451 49:0.506639 50:0.40744 51:0.371745 52:0.512206 53:0.434079 54:0.472042 55:0.332889 56:0.388112 
47.53125688075885 0 18.20008594270974 1:0.527977 2:0.300322 3:-0.174036 4:0.877587 5:0.467382 6:0.341105 7:-0.153881 8:0.877596 9:0.734271 10:0.260886 11:-0.162772 12:0.833804 13:0.795713 14:0.420412 15:-0.613616 16:0.222607 17:0.779879 18:0.573474 19:0.0346439 20:-0.183463 25:0.334113 26:0.0020415 27:0.856103 28:0.284058 29:0.508576 30:-0.0960162 31:0.755888 32:0.299687 33:0.192583 34:0.195799 35:0.274593 36:-0.0340858 37:0.710521 38:0.0724054 39:0.290857 40:0.562226 41:0.523848 42:0.0148427 43:0.353902 44:0.727081 45:0.601928 46:-0.21523 47:-0.336549 48:0.411451 49:0.394638 50:0.547889 51:0.431642 52:0.424067 53:-0.555162 54:-0.486301 55:0.670966 56:0.495235 
0 1.945963715905306 0 1:0.530732 2:0.3178 3:-0.161519 4:0.868002 5:0.469773 6:0.357565 7:-0.141578 8:0.868013 9:0.739068 10:0.28038 11:-0.152125 12:0.82121 13:0.79443 14:0.478238 15:-0.404124 16:0.277235 17:0.619879 18:0.648849 19:0.340676 20:-0.333963 25:0.344599 26:-0.00516138 27:0.865122 28:0.242986 29:0.506245 30:-0.0690445 31:0.763586 32:0.289401 33:0.192583 34:0.195799 35:0.274593 36:-0.0340858 37:0.693287 38:0.133334 39:0.325578 40:0.530797 41:0.483704 42:0.0369648 43:0.401975 44:0.713913 45:0.601928 46:-0.21523 47:-0.336549 48:0.411451 49:0.561205 50:-0.657708 51:-0.684547 52:0.664112 53:-0.78451 54:0.141447 55:-0.560478 56:0.680118 
5.457416338518349 0 0 1:0.51445 2:0.350771 3:-0.149698 4:0.864238 5:0.455641 6:0.388613 7:-0.129961 8:0.864248 9:0.7505 10:0.298362 11:-0.123971 12:0.800974 13:0.864968 14:0.477838 15:-0.304102 16:0.163254 17:0.670863 18:0.596053 19:0.347582 20:-0.300953 25:0.360499 26:-0.0255549 27:0.875255 28:0.183885 29:0.526925 30:-0.0602718 31:0.760989 32:0.253232 33:0.192583 34:0.195799 35:0.274593 36:-0.0340858 37:0.606374 38:0.236333 39:0.405985 40:0.513321 41:0.461664 42:0.125329 43:0.479425 44:0.64099 45:0.601928 46:-0.21523 47:-0.336549 48:0.411451 49:0.546132 50:-0.667328 51:-0.687699 52:0.672545 53:-0.787915 54:0.137821 55:-0.570861 56:0.671762 
128 0 0 1:0.564268 2:0.512337 3:0.382295 4:0.518337 5:0.498882 6:0.540762 7:0.392899 8:0.518375 9:0.67007 10:0.5488 11:0.379964 12:0.500327 13:-0.405104 14:0.578084 15:0.30197 16:0.571897 17:-0.430591 18:0.664601 19:0.37049 20:0.46612 25:0.617023 26:-0.19629 27:0.604174 28:0.333181 29:0.676238 30:-0.265799 31:0.551548 32:0.308363 33:0.192583 34:0.195799 35:0.274593 36:-0.0340858 37:0.556475 38:0.322897 39:0.3752 40:0.519725 41:0.765834 42:0.354457 43:0.359736 44:0.341316 45:0.601928 46:-0.21523 47:-0.336549 48:0.411451 49:0.50282 50:0.42919 51:0.373758 52:0.494104 53:0.427269 54:0.483991 55:0.340566 56:0.375112 
4.18735042535007 0 0 1:0.529529 2:0.272874 3:-0.182131 4:0.887528 5:0.468729 6:0.315257 7:-0.161837 8:0.887537 9:0.725791 10:0.222834 11:-0.15314 12:0.853737 13:0.868026 14:0.44953 15:-0.161033 16:0.209366 17:0.721816 18:0.551623 19:0.230825 20:0.00274205 25:0.424991 26:-0.0654057 27:0.804375 28:0.279312 29:0.473922 30:-0.105958 31:0.783209 32:0.291238 33:0.192583 34:0.195799 35:0.274593 36:-0.0340858 37:0.540806 38:0.331851 39:0.436842 40:0.483448 41:0.468816 42:0.235722 43:0.507352 44:0.560606 45:0.601928 46:-0.21523 47:-0.336549 48:0.411451 49:0.426241 50:-0.630392 51:-0.786967 52:0.73838 53:-0.921202 54:0.298566 55:-0.512497 56:0.525506 
20.91833542978041 1.092010136979581 0 1:0.467743 2:0.288164 3:-0.26762 4:0.919236 5:0.4151 6:0.329656 7:-0.245859 8:0.919242 9:0.726181 10:0.181913 11:-0.178158 12:0.868673 13:-0.541237 14:-0.17159 15:0.31629 16:0.859591 17:-0.715048 18:0.496669 19:0.066011 20:0.609745 25:0.357178 26:-0.0902563 27:0.850711 28:0.257565 29:0.472035 30:-0.126099 31:0.779019 32:0.300091 33:0.192583 34:0.195799 35:0.274593 36:-0.0340858 37:0.606156 38:0.291919 39:0.372604 40:0.491685 41:0.529605 42:0.219059 43:0.450558 44:0.582729 45:0.601928 46:-0.21523 47:-0.336549 48:0.411451 49:0.4963 50:-0.758404 51:-0.715773 52:0.64395 53:-0.9015 54:0.186878 55:-0.640492 56:0.499368 
128 128 0 1:0.576824 2:0.529101 3:0.363984 4:0.505854 5:0.50978 6:0.556549 7:0.374903 8:0.505893 9:0.683817 10:0.565163 11:0.361521 12:0.486702 13:-0.411619 14:0.633085 15:0.301016 16:0.502851 17:-0.465304 18:0.724025 19:0.35067 20:0.353102 25:0.641679 26:-0.216068 27:0.582229 28:0.314204 29:0.722403 30:-0.304566 31:0.49179 32:0.269531 33:0.192583 34:0.195799 35:0.274593 36:-0.0340858 37:0.541835 38:0.310167 39:0.389348 40:0.536989 41:0.766036 42:0.354743 43:0.358021 44:0.342462 45:0.601928 46:-0.21523 47:-0.336549 48:0.411451 49:0.500652 50:0.420217 51:0.378561 52:0.500479 53:0.423515 54:0.47662 55:0.343939 56:0.384542 
2.369558951617991 0 0 1:0.471329 2:0.410772 3:-0.214608 4:0.86481 5:0.418212 6:0.445117 7:-0.193757 8:0.864821 9:0.723681 10:0.313528 11:-0.125385 12:0.81722 13:-0.539141 14:-0.205316 15:0.322935 16:0.854419 17:-0.725655 18:0.515159 19:0.0334896 20:0.58581 25:0.3955 26:-0.00724908 27:0.847583 28:0.210793 29:0.522226 30:-0.0554593 31:0.764026 32:0.255681 33:0.192583 34:0.195799 35:0.274593 36:-0.0340858 37:0.561884 38:0.331993 39:0.390955 40:0.494189 41:0.499374 42:0.255316 43:0.46875 44:0.566602 45:0.601928 46:-0.21523 47:-0.336549 48:0.411451 49:-0.797143 50:0.584163 51:0.448326 52:-0.910762 53:-0.531711 54:0.179095 55:-0.885888 56:0.456509 
128 128 65.60773153856101 1:0.579008 2:0.535505 3:0.36573 4:0.496155 5:0.511676 6:0.562579 7:0.376619 8:0.496195 9:0.684553 10:0.572272 11:0.363274 12:0.477823 13:-0.422949 14:0.635026 15:0.299539 16:0.497049 17:-0.47612 18:0.723502 19:0.346834 20:0.349148 25:0.646882 26:-0.212577 27:0.581131 28:0.306811 29:0.721426 30:-0.298658 31:0.499188 32:0.263659 33:0.192583 34:0.195799 35:0.274593 36:-0.0340858 37:0.547523 38:0.321536 39:0.384809 40:0.52409 41:0.759261 42:0.348694 43:0.372022 44:0.343395 45:0.601928 46:-0.21523 47:-0.336549 48:0.411451 49:0.498495 50:0.421966 51:0.383758 52:0.49599 53:0.42349 54:0.484043 55:0.343851 56:0.376192 
57.91820833168867 128 0 1:0.585403 2:0.533575 3:0.365158 4:0.491279 5:0.517227 6:0.560762 7:0.376057 8:0.491319 9:0.689879 10:0.571293 11:0.361826 12:0.474047 13:-0.428952 14:0.632223 15:0.292098 16:0.504306 17:-0.462579 18:0.733995 19:0.349349 20:0.335897 25:0.641748 26:-0.212539 27:0.587612 28:0.305508 29:0.709554 30:-0.281654 31:0.517825 32:0.275521 33:0.192583 34:0.195799 35:0.274593 36:-0.0340858 37:0.543523 38:0.311211 39:0.39503 40:0.530359 41:0.758632 42:0.355901 43:0.364001 44:0.345185 45:0.601928 46:-0.21523 47:-0.336549 48:0.411451 49:0.495628 50:0.419779 51:0.383517 52:0.501854 53:0.428755 54:0.483455 55:0.342384 56:0.372336 
0 0 1.487734440910316 1:0.42595 2:0.536811 3:-0.250989 4:0.819766 5:0.378824 6:0.563809 7:-0.229512 8:0.81978 9:0.721403 10:0.374864 11:-0.0642112 12:0.780925 13:-0.528746 14:-0.251321 15:0.326919 16:0.850943 17:-0.730095 18:0.549105 19:-0.0160884 20:0.5485 25:0.453965 26:0.0289639 27:0.811615 28:0.206579 29:0.504696 30:-0.0232004 31:0.792041 32:0.211489 33:0.192583 34:0.195799 35:0.274593 36:-0.0340858 37:0.49831 38:0.323724 39:0.491883 40:0.492286 41:0.475953 42:0.350913 43:0.417412 44:0.563401 45:0.601928 46:-0.21523 47:-0.336549 48:0.411451 49:-0.752239 50:0.568493 51:0.553347 52:-0.822251 53:-0.117903 54:-0.233019 55:-0.994589 56:0.42097 
5.553340001864177 1.987568141896883 4.340745447478263 1:0.388465 2:0.626765 3:-0.271744 4:0.778852 5:0.346288 6:0.64852 7:-0.249911 8:0.778869 9:0.761885 10:0.325554 11:0.100294 12:0.722929 13:-0.689627 14:-0.51675 15:0.209161 16:0.755557 17:-0.714155 18:-0.128247 19:0.132196 20:0.861812 25:0.264716 26:0.258369 27:0.945753 28:-0.158284 29:0.603206 30:0.193629 31:0.742077 32:-0.0211257 33:0.192583 34:0.195799 35:0.274593 36:-0.0340858 37:0.597909 38:0.463746 39:0.301095 40:0.363473 41:0.335991 42:0.216909 43:0.548773 44:0.599627 45:0.601928 46:-0.21523 47:-0.336549 48:0.411451 49:0.329656 50:0.578428 51:0.52693 52:0.318575 53:0.235959 54:0.310701 55:0.723441 56:0.188619 
4.814982737616308 17.38648368867918 0 1:0.605618 2:0.520365 3:0.357001 4:0.487314 5:0.534773 6:0.548322 7:0.36804 8:0.487354 9:0.710728 10:0.551053 11:0.358863 12:0.471581 13:0.292762 14:0.725786 15:0.284821 16:0.272767 17:-0.384818 18:0.6663 19:0.479045 20:-0.993531 25:0.743452 26:0.362531 27:0.28971 28:0.395611 29:0.567451 30:-0.337927 31:-0.660196 32:0.450773 33:0.192583 34:0.195799 35:0.274593 36:-0.0340858 37:0.562782 38:0.321816 39:0.358114 40:0.525242 41:0.745811 42:0.336496 43:0.370343 44:0.373843 45:0.601928 46:-0.21523 47:-0.336549 48:0.411451 49:0.500145 50:0.418267 51:0.365121 52:0.51665 53:0.435761 54:0.467407 55:0.338067 56:0.386642 
0 0.8199243702154086 0 1:0.422485 2:0.671229 3:-0.269534 4:0.721399 5:0.375817 6:0.690393 7:-0.24774 8:0.721421 9:0.699734 10:0.393593 11:0.120104 12:0.736133 13:-0.798708 14:-0.450537 15:0.18762 16:0.725711 17:-0.788676 18:-0.124752 19:0.115441 20:0.80505 25:0.258404 26:0.27376 27:0.942285 28:-0.128259 29:0.649232 30:0.185471 31:0.692188 32:0.0313238 33:0.192583 34:0.195799 35:0.274593 36:-0.0340858 37:0.617597 38:0.440019 39:0.299648 40:0.368208 41:0.362607 42:0.209412 43:0.532698 44:0.607422 45:0.601928 46:-0.21523 47:-0.336549 48:0.411451 49:-0.16428 50:0.785682 51:0.6508 52:-0.110814 53:-0.248377 54:0.285612 55:0.916913 56:-0.179834 
0 8.082367273606806 0 1:0.615549 2:0.549411 3:0.342405 4:0.460825 5:0.543393 6:0.575675 7:0.353694 8:0.460868 9:0.715021 10:0.576215 11:0.349615 12:0.450981 13:0.5478 14:0.722987 15:0.237014 16:-0.030089 17:-0.0838631 18:-0.697497 19:-0.83124 20:0.415918 25:0.743999 26:0.572499 27:0.0259333 28:0.359225 29:0.449504 30:-0.110879 31:-0.663003 32:0.706218 33:0.192583 34:0.195799 35:0.274593 36:-0.0340858 37:0.559603 38:0.330875 39:0.365235 40:0.515824 41:0.741981 42:0.345061 43:0.374849 44:0.366247 45:0.601928 46:-0.21523 47:-0.336549 48:0.411451 49:0.498317 50:0.429756 51:0.367316 52:0.505711 53:0.430325 54:0.469984 55:0.346448 56:0.38206 
0.2678770345756493 0 0 1:0.430569 2:0.689143 3:-0.277561 4:0.699541 5:0.382833 6:0.707262 7:-0.255629 8:0.699564 9:0.678976 10:0.414454 11:0.127192 12:0.73946 13:-0.852968 14:-0.356777 15:0.217281 16:0.703466 17:-0.798578 18:-0.213508 19:0.163999 20:0.771383 25:0.267923 26:0.23815 27:0.944856 28:-0.104696 29:0.608761 30:0.159943 31:0.737702 32:0.0211409 33:0.192583 34:0.195799 35:0.274593 36:-0.0340858 37:0.60456 38:0.454325 39:0.315093 40:0.356251 41:0.359633 42:0.215927 43:0.547843 44:0.590301 45:0.601928 46:-0.21523 47:-0.336549 48:0.411451 49:-0.154943 50:0.789806 51:0.651045 52:-0.153655 53:0.0764354 54:0.732152 55:-0.764568 56:-0.18758 
0 0.2431233284889233 1.35425048020518 1:0.46779 2:0.732649 3:-0.23839 4:0.633848 5:0.415141 6:0.748232 7:-0.21713 8:0.633877 9:0.620456 10:0.49607 11:0.158484 12:0.724793 13:-0.914044 14:-0.285143 15:0.13092 16:0.712858 17:-0.785509 18:-0.290394 19:0.182636 20:0.757822 25:0.328872 26:0.199939 27:0.911286 28:0.0037502 29:0.583234 30:0.117112 31:0.752453 32:0.0930222 33:0.192583 34:0.195799 35:0.274593 36:-0.0340858 37:0.648307 38:0.0738868 39:0.339774 40:0.606993 41:0.522728 42:0.0355903 43:0.379079 44:0.707434 45:0.601928 46:-0.21523 47:-0.336549 48:0.411451 49:0.535195 50:-0.769461 51:-0.661371 52:0.630845 53:-0.799152 54:0.0697699 55:-0.688611 56:0.586538 
0 0 0.7228358742280989 1:0.471532 2:0.747957 3:-0.237643 4:0.615387 5:0.418388 6:0.762649 7:-0.216396 8:0.615417 9:0.631854 10:0.481917 11:0.191696 12:0.709295 13:-0.911455 14:-0.267086 15:0.0957838 16:0.732686 17:-0.765784 18:-0.306452 19:0.234899 20:0.750617 25:-0.145096 26:0.985046 27:-0.684259 28:-0.868902 29:-0.614354 30:0.944498 31:-0.374401 32:0.311831 33:0.192583 34:0.195799 35:0.274593 36:-0.0340858 37:0.653181 38:0.0789414 39:0.343059 40:0.597257 41:0.520203 42:0.0344128 43:0.384095 44:0.705801 45:0.601928 46:-0.21523 47:-0.336549 48:0.411451 49:0.467322 50:-0.867003 51:-0.705986 52:0.589224 53:-0.744861 54:0.107752 55:-0.729819 56:0.569137 
0.78297506754514 0.6981997841279114 0 1:0.46955 2:0.717633 3:-0.241757 4:0.646859 5:0.416669 6:0.734092 7:-0.22044 8:0.646886 9:0.641746 10:0.463016 11:0.161894 12:0.726994 13:-0.911035 14:-0.265019 15:0.128065 16:0.72048 17:-0.726982 18:-0.37853 19:0.186344 20:0.774463 25:-0.203867 26:0.976944 27:-0.656784 28:-0.920326 29:-0.604763 30:1 31:-0.345935 32:0.161531 33:0.192583 34:0.195799 35:0.274593 36:-0.0340858 37:0.652894 38:0.0678037 39:0.3078 40:0.622559 41:0.636155 42:0.142675 43:0.271542 44:0.665302 45:0.601928 46:-0.21523 47:-0.336549 48:0.411451 49:0.439071 50:-0.888801 51:-0.794632 52:0.523082 53:-0.706562 54:0.189158 55:-0.76429 56:0.519206 
0 1.436842573154753 0.07335657512870039 1:0.426655 2:0.529753 3:-0.231045 4:0.824863 5:0.379436 6:0.557163 7:-0.209911 8:0.824877 9:0.727442 10:0.365921 11:-0.0430361 12:0.776021 13:0.910282 14:0.398757 15:-0.547631 16:-0.653056 17:0.857984 18:0.32001 19:-0.120278 20:-0.81098 25:-0.106523 26:1 27:-0.583683 28:-0.938964 29:-0.126134 30:-0.962394 31:0.24703 32:0.519611 33:0.192583 34:0.195799 35:0.274593 36:-0.0340858 37:0.585636 38:0.533257 39:0.305184 40:0.27024 41:0.336867 42:0.239874 43:0.596113 44:0.534872 45:0.601928 46:-0.21523 47:-0.336549 48:0.411451 49:0.443075 50:-0.833862 51:-0.841418 52:0.528506 53:-0.705929 54:0.240545 55:-0.733632 56:0.52723 
0.4512276208003532 0 0 1:0.420679 2:0.534421 3:-0.230773 4:0.825644 5:0.374249 6:0.561559 7:-0.209644 8:0.825658 9:0.722041 10:0.374143 11:-0.0454819 12:0.777029 13:0.904165 14:0.410558 15:-0.529699 16:-0.668969 17:0.847492 18:0.337278 19:-0.132083 20:-0.815863 25:-0.102653 26:0.978257 27:-0.583459 28:-0.983704 29:-0.162096 30:-0.936649 31:0.249832 32:0.575756 33:0.192583 34:0.195799 35:0.274593 36:-0.0340858 37:0.625805 38:0.443407 39:0.334627 40:0.323481 41:0.388818 42:0.198742 43:0.556384 44:0.575629 45:0.601928 46:-0.21523 47:-0.336549 48:0.411451 49:0.454932 50:-0.855633 51:-0.815442 52:0.519871 53:-0.795316 54:0.230117 55:-0.763902 56:0.427429 
0 0.5135789574659022 1.185053090386362 1:0.416584 2:0.545668 3:-0.238447 4:0.820593 5:0.370695 6:0.57215 7:-0.217186 8:0.820608 9:0.721903 10:0.373676 11:-0.0347844 12:0.77509 13:0.894227 14:0.431688 15:-0.494681 16:-0.691184 17:0.881781 18:0.269628 19:-0.248685 20:-0.762865 25:-0.129039 26:0.990757 27:-0.574208 28:-0.969814 29:-0.318413 30:-0.818224 31:0.269024 32:0.754195 33:0.192583 34:0.195799 35:0.274593 36:-0.0340858 37:0.732356 38:0.0507236 39:0.221627 40:0.580456 41:0.614897 42:0.0466614 43:0.288214 44:0.700285 45:0.601928 46:-0.21523 47:-0.336549 48:0.411451 49:0.462112 50:-0.870278 51:-0.793629 52:0.517894 53:-0.838494 54:0.182847 55:-0.803675 56:0.357692 
0 0 0.8988328311656392 1:0.426849 2:0.549639 3:-0.2317 4:0.811828 5:0.379604 6:0.57589 7:-0.210555 8:0.811843 9:0.711171 10:0.386065 11:-0.0317373 12:0.777184 13:-0.307386 14:-0.204955 15:0.425201 16:0.853065 17:-0.464894 18:0.167809 19:0.445472 20:0.825868 25:-0.155742 26:-0.968333 27:0.198128 28:0.579499 29:-0.314748 30:-0.838892 31:0.341927 32:0.67567 33:0.192583 34:0.195799 35:0.274593 36:-0.0340858 37:0.719141 38:0.117178 39:0.241598 40:0.554334 41:0.580936 42:0.0851066 43:0.324336 44:0.693201 45:0.601928 46:-0.21523 47:-0.336549 48:0.411451 49:-0.518141 50:0.764623 51:0.605233 52:-0.501374 53:-0.13858 54:-0.637254 55:0.861456 56:-0.702983 
0 0.7204174442314393 1.606744803588586 1:0.455093 2:0.58166 3:-0.214192 4:0.771629 5:0.40412 6:0.606044 7:-0.193347 8:0.771647 9:0.681782 10:0.421595 11:0.00755581 12:0.773037 13:-0.103708 14:-0.101855 15:0.320151 16:0.932614 17:-0.276731 18:0.307342 19:0.41045 20:0.84391 25:-0.226696 26:0.979537 27:-0.570547 28:-0.995438 29:-0.295352 30:-0.802916 31:0.353005 32:0.722442 33:0.192583 34:0.195799 35:0.274593 36:-0.0340858 37:0.530044 38:0.426374 39:0.534045 40:0.291127 41:0.393322 42:0.177831 43:0.65357 44:0.466228 45:0.601928 46:-0.21523 47:-0.336549 48:0.411451 49:-0.289958 50:0.79744 51:0.647013 52:-0.254932 53:-0.277258 54:-0.494692 55:0.956012 56:-0.399284 
0 0 0.1561392399292153 1:0.462604 2:0.609427 3:-0.203317 4:0.746027 5:0.41064 6:0.632193 7:-0.182659 8:0.746047 9:0.677139 10:0.431222 11:0.0516736 12:0.758661 13:-0.00924424 14:-0.0938199 15:0.253656 16:0.958711 17:-0.199465 18:0.368891 19:0.380102 20:0.83594 25:0.233855 26:0.427456 27:0.897614 28:-0.432266 29:0.571545 30:0.418929 31:0.698243 32:-0.192929 33:0.192583 34:0.195799 35:0.274593 36:-0.0340858 37:0.588487 38:0.397556 39:0.454348 40:0.332867 41:0.323972 42:0.0925713 43:0.620874 44:0.578691 45:0.601928 46:-0.21523 47:-0.336549 48:0.411451 49:-0.0757585 50:0.737908 51:0.685491 52:-0.0920788 53:-0.283478 54:-0.406268 55:0.964194 56:-0.122871 
11.50417652150649 0 0 1:0.46117 2:0.570776 3:-0.201856 4:0.775351 5:0.409394 6:0.595795 7:-0.181224 8:0.775369 9:0.686305 10:0.415132 11:0.0101283 12:0.772182 13:0.0652125 14:-0.109933 15:0.293626 16:0.928203 17:-0.165716 18:0.362973 19:0.441915 20:0.804533 25:0.207477 26:0.319679 27:0.952624 28:-0.185314 29:0.572303 30:0.250639 31:0.750792 32:-0.0107228 33:0.192583 34:0.195799 35:0.274593 36:-0.0340858 37:0.629664 38:0.116459 39:0.311503 40:0.622396 41:0.566691 42:0.0687814 43:0.410488 44:0.648899 45:0.601928 46:-0.21523 47:-0.336549 48:0.411451 49:-0.224715 50:0.780474 51:0.66438 52:-0.179843 53:-0.301684 54:-0.352751 55:0.985392 56:-0.296637 
8.007141186887214 0 0 1:0.504298 2:0.492765 3:-0.188985 4:0.796345 5:0.446829 6:0.522331 7:-0.168573 8:0.796361 9:0.659155 10:0.393879 11:-0.0462957 12:0.818072 13:-0.00958897 14:-0.249056 15:0.306354 16:0.926181 17:-0.308884 18:0.391776 19:0.3981 20:0.790198 25:0.300589 26:0.255691 27:0.919687 28:-0.0453686 29:0.601636 30:0.166322 31:0.731061 32:0.0774331 33:0.192583 34:0.195799 35:0.274593 36:-0.0340858 37:0.620415 38:0.260217 39:0.359657 40:0.510174 41:0.545157 42:0.199748 43:0.431408 44:0.598077 45:0.601928 46:-0.21523 47:-0.336549 48:0.411451 49:-0.406912 50:0.837384 51:0.583451 52:-0.220993 53:-0.391908 54:-0.0724544 55:0.985612 56:-0.449827 
12.52862707963382 0 0 1:0.56485 2:0.650952 3:0.441535 4:0.303218 5:0.499387 6:0.671297 7:0.451122 8:0.303273 9:0.652831 10:0.681293 11:0.461201 12:0.290913 13:0.303713 14:0.711548 15:0.244186 16:-0.951754 17:-0.44417 18:-0.767107 19:-0.565481 20:0.525745 25:0.409751 26:0.157326 27:0.509181 28:0.733824 29:0.663737 30:-0.575353 31:-0.169313 32:0.48619 33:0.192583 34:0.195799 35:0.274593 36:-0.0340858 37:0.410374 38:0.399238 39:0.514787 40:0.484626 41:0.66263 42:0.430084 43:0.455946 44:0.280249 45:0.601928 46:-0.21523 47:-0.336549 48:0.411451 49:0.394549 50:0.522839 51:0.457968 52:0.422076 53:0.348629 54:0.568004 55:0.406738 56:0.281872 
8.400200253537752 0 0 1:0.498149 2:0.424079 3:-0.187869 4:0.840156 5:0.441491 6:0.457649 7:-0.167477 8:0.840169 9:0.661479 10:0.321476 11:-0.0489031 12:0.850651 13:1 14:0.288143 15:0.0670318 16:-0.0325208 17:0.161783 18:0.301796 19:0.948755 20:-0.599879 25:0.275628 26:0.276089 27:0.927259 28:-0.0588404 29:0.605242 30:0.180769 31:0.723853 32:0.0805843 33:0.192583 34:0.195799 35:0.274593 36:-0.0340858 37:0.634696 38:0.354968 39:0.383952 40:0.381916 41:0.478987 42:0.193516 43:0.516595 44:0.567198 45:0.601928 46:-0.21523 47:-0.336549 48:0.411451 49:-0.00371096 50:0.753335 51:0.656003 52:-0.0852618 53:-0.122118 54:0.235031 55:0.917338 56:-0.0849913 
0 8.295434095785392 0 1:0.554443 2:0.655485 3:0.45218 4:0.297691 5:0.490354 6:0.675566 7:0.461584 8:0.297746 9:0.643403 10:0.685233 11:0.472948 12:0.283004 13:0.294422 14:0.72063 15:0.239085 16:-0.946681 17:-0.417089 18:-0.792501 19:-0.579269 20:0.493538 25:0.393872 26:0.166686 27:0.55572 28:0.696986 29:0.690818 30:-0.563261 31:-0.15966 32:0.453431 33:0.192583 34:0.195799 35:0.274593 36:-0.0340858 37:0.391051 38:0.396419 39:0.532834 40:0.489196 41:0.659769 42:0.434429 43:0.461475 44:0.270914 45:0.601928 46:-0.21523 47:-0.336549 48:0.411451 49:0.387605 50:0.527969 51:0.465638 52:0.4135 53:0.340164 54:0.571874 55:0.413989 56:0.276493 
11.66642400230944 0 0 1:0.504028 2:0.457891 3:-0.146465 4:0.81613 5:0.446595 6:0.48949 7:-0.126783 8:0.816145 9:0.680093 10:0.37256 11:-0.0366653 12:0.810409 13:0.920516 14:0.251679 15:0.179375 16:0.160308 17:-0.119295 18:0.390488 19:0.953266 20:-0.560939 25:0.281391 26:0.255898 27:0.925737 28:-0.0283461 29:0.595652 30:0.15889 31:0.733451 32:0.0965328 33:0.192583 34:0.195799 35:0.274593 36:-0.0340858 37:0.65213 38:0.18166 39:0.365709 40:0.525789 41:0.536625 42:0.113554 43:0.426577 44:0.64303 45:0.601928 46:-0.21523 47:-0.336549 48:0.411451 49:-0.0836809 50:0.764827 51:0.670857 52:-0.181604 53:-0.15511 54:0.243944 55:0.930881 56:-0.20149 
24.25769207776376 0 0 1:0.495479 2:0.433008 3:-0.0844219 4:0.830805 5:0.439174 6:0.466057 7:-0.0658053 8:0.830818 9:0.685554 10:0.381003 11:-0.0248104 12:0.799278 13:0.565305 14:0.189207 15:0.242116 16:0.654484 17:-0.301793 18:0.730885 19:0.673956 20:-0.326319 25:0.398236 26:0.270423 27:0.837173 28:0.101671 29:0.528707 30:0.146274 31:0.792201 32:0.0865833 33:0.192583 34:0.195799 35:0.274593 36:-0.0340858 37:0.585546 38:0.152062 39:0.397182 40:0.598657 41:0.629694 42:0.188198 43:0.386582 44:0.575787 45:0.601928 46:-0.21523 47:-0.336549 48:0.411451 49:0.0349585 50:0.768216 51:0.632297 52:-0.0930418 53:-0.0672817 54:0.344793 55:0.87037 56:-0.0876402 
0 0 4.616335950040171 1:0.488754 2:0.446978 3:-0.0913559 4:0.828514 5:0.433337 6:0.479213 7:-0.0726202 8:0.828527 9:0.686367 10:0.377131 11:-0.00647412 12:0.796245 13:0.543921 14:0.134518 15:0.177676 16:0.72878 17:-0.296257 18:0.769301 19:0.624445 20:-0.308436 25:0.339717 26:0.285062 27:0.869182 28:0.0855518 29:0.544469 30:0.132382 31:0.781747 32:0.0906656 33:0.192583 34:0.195799 35:0.274593 36:-0.0340858 37:0.534725 38:0.549334 39:0.368041 40:0.264647 41:0.34417 42:0.267564 43:0.622024 44:0.481878 45:0.601928 46:-0.21523 47:-0.336549 48:0.411451 49:0.0353694 50:0.758992 51:0.631053 52:-0.0346257 53:-0.0943051 54:0.299665 55:0.882143 56:-0.032111 
12.32230507050289 0 0 1:0.51439 2:0.322246 3:-0.103042 4:0.873684 5:0.455589 6:0.361751 7:-0.0841061 8:0.873694 9:0.691415 10:0.307374 11:-0.10468 12:0.843042 13:0.719364 14:0.271553 15:0.447106 16:0.220071 17:-0.21838 18:0.470818 19:0.919384 20:-0.416784 25:0.400451 26:0.136468 27:0.801794 28:0.29912 29:0.502319 30:-0.0246725 31:0.79388 32:0.211007 33:0.192583 34:0.195799 35:0.274593 36:-0.0340858 37:0.68498 38:0.310561 39:0.289868 40:0.426459 41:0.458095 42:0.156678 43:0.453044 44:0.653505 45:0.601928 46:-0.21523 47:-0.336549 48:0.411451 49:0.479689 50:-0.882495 51:-0.770011 52:0.506834 53:-0.689235 54:0.1704 55:-0.755517 56:0.550023 
2.607417869402847 0 0.4881340082694554 1:0.519815 2:0.299312 3:-0.105418 4:0.879807 5:0.460297 6:0.340154 7:-0.0864407 8:0.879817 9:0.690063 10:0.29965 11:-0.129856 12:0.850464 13:0.685377 14:0.340675 15:0.483041 16:0.135884 17:-0.173419 18:0.464936 19:0.921688 20:-0.468417 25:0.378687 26:0.144477 27:0.810882 28:0.30599 29:0.507416 30:-0.028337 31:0.784074 32:0.230865 33:0.192583 34:0.195799 35:0.274593 36:-0.0340858 37:0.657349 38:0.350408 39:0.329234 40:0.397205 41:0.437238 42:0.168465 43:0.496966 44:0.622175 45:0.601928 46:-0.21523 47:-0.336549 48:0.411451 49:-0.840673 50:0.528325 51:0.394478 52:-1 53:-0.663805 54:0.230594 55:-0.794851 56:0.485115 
9.345923707299873 0 0 1:0.515668 2:0.302467 3:-0.0876254 4:0.879564 5:0.456698 6:0.343125 7:-0.0689538 8:0.879574 9:0.679456 10:0.338082 11:-0.161908 12:0.84526 13:0.682268 14:0.243158 15:0.468893 16:0.278435 17:-0.393631 18:0.482359 19:0.872063 20:-0.465463 25:0.437208 26:0.157229 27:0.762543 28:0.327914 29:0.503395 30:-0.0152511 31:0.797497 32:0.196165 33:0.192583 34:0.195799 35:0.274593 36:-0.0340858 37:0.636432 38:0.304315 39:0.400294 40:0.419926 41:0.475458 42:0.153914 43:0.508302 44:0.595484 45:0.601928 46:-0.21523 47:-0.336549 48:0.411451 49:0.0255491 50:0.750217 51:0.64518 52:-0.0479455 53:-0.0977552 54:0.290504 55:0.889092 56:-0.0478391 
43.7659915817059 0 0 1:0.512913 2:0.312469 3:-0.0823379 4:0.876686 5:0.454307 6:0.352544 7:-0.0637571 8:0.876695 9:0.681883 10:0.345153 11:-0.152245 12:0.839373 13:0.712385 14:0.295139 15:0.379618 16:0.301631 17:-0.260535 18:0.526701 19:0.869463 20:-0.472567 25:0.435116 26:0.159977 27:0.768822 28:0.315389 29:0.53544 30:-0.0161111 31:0.764344 32:0.226707 33:0.192583 34:0.195799 35:0.274593 36:-0.0340858 37:0.494599 38:0.462686 39:0.491171 40:0.336251 41:0.411803 42:0.282962 43:0.607013 44:0.452073 45:0.601928 46:-0.21523 47:-0.336549 48:0.411451 49:-0.0341444 50:0.798324 51:0.618305 52:-0.0943027 53:-0.149537 54:0.262359 55:0.913256 56:-0.104389 
0 0 1.177711552650528 1:0.443064 2:0.598721 3:-0.0839894 4:0.760839 5:0.393678 6:0.622111 7:-0.0653802 8:0.760858 9:0.697764 10:0.477653 11:0.0711076 12:0.706601 13:0.851519 14:0.189541 15:0.165539 16:0.366825 17:-0.432704 18:0.453541 19:0.865947 20:-0.551591 25:0.325663 26:0.217 27:0.922398 28:-0.0908682 29:0.588201 30:0.15305 31:0.759058 32:0.00828134 33:0.192583 34:0.195799 35:0.274593 36:-0.0340858 37:0.605992 38:0.282334 39:0.42882 40:0.457896 41:0.27423 42:0.014846 43:0.553162 44:0.687737 45:0.601928 46:-0.21523 47:-0.336549 48:0.411451 49:-0.525542 50:0.63823 51:0.674722 52:-0.668866 53:-0.286142 54:-0.0434697 55:0.920931 56:-0.820929 
0 0 8.472357963786136 1:0.548837 2:0.557186 3:0.359396 4:0.514086 5:0.485488 6:0.582997 7:0.370393 8:0.514124 9:0.655007 10:0.59147 11:0.359962 12:0.494667 13:-0.0259555 14:0.84184 15:-0.164341 16:0.434142 17:-0.131339 18:0.844299 19:-0.0908737 20:0.418566 25:0.802148 26:0.215306 27:0.524713 28:-0.236623 29:0.902287 30:0.0854002 31:0.395128 32:-0.226406 33:0.192583 34:0.195799 35:0.274593 36:-0.0340858 37:0.532101 38:0.324909 39:0.403353 40:0.524554 41:0.780304 42:0.376223 43:0.352235 44:0.306084 45:0.601928 46:-0.21523 47:-0.336549 48:0.411451 49:0.489281 50:0.434125 51:0.395385 52:0.482848 53:0.439972 54:0.514527 55:0.338146 56:0.325073 
20.47015701789985 64.90855052205841 0 1:0.561177 2:0.537737 3:0.329799 4:0.542366 5:0.496199 6:0.564681 7:0.341305 8:0.542402 9:0.664097 10:0.572908 11:0.326363 12:0.529127 13:-0.0314502 14:0.805815 15:-0.224951 16:0.499703 17:-0.219719 18:0.803461 19:-0.217889 20:0.47143 25:0.797972 26:0.107665 27:0.557184 28:-0.236439 29:0.730212 30:-0.130898 31:0.63282 32:-0.464638 33:0.192583 34:0.195799 35:0.274593 36:-0.0340858 37:0.573269 38:0.304736 39:0.371822 40:0.519409 41:0.789432 42:0.356417 43:0.336993 44:0.329279 45:0.601928 46:-0.21523 47:-0.336549 48:0.411451 49:0.513878 50:0.409824 51:0.37593 52:0.496712 53:0.458938 54:0.492087 55:0.324256 56:0.343548 
1.728755641393546 1.439281032162813 0.4104170009511093 1:0.45714 2:0.505763 3:-0.10106 4:0.81629 5:0.405897 6:0.534571 7:-0.0821579 8:0.816304 9:0.727152 10:0.412325 11:-0.00379974 12:0.742554 13:0.221044 14:0.0243078 15:0.0583263 16:0.96704 17:-0.172065 18:0.848428 19:0.33952 20:0.206682 25:0.294376 26:0.138891 27:0.919363 28:0.0963022 29:0.58218 30:0.0307399 31:0.744278 32:0.163237 33:0.192583 34:0.195799 35:0.274593 36:-0.0340858 37:0.673883 38:0.149275 39:0.338388 40:0.537551 41:0.429268 42:0.0271428 43:0.421389 44:0.730391 45:0.601928 46:-0.21523 47:-0.336549 48:0.411451 49:-0.895624 50:0.553015 51:0.308057 52:-0.995225 53:-0.528808 54:0.034054 55:-0.827141 56:0.594985 
4.81223439609871 0 0 1:0.465207 2:0.44675 3:-0.132041 4:0.847977 5:0.412898 6:0.478998 7:-0.112606 8:0.847989 9:0.717442 10:0.353766 11:-0.0335061 12:0.788428 13:0.316501 14:-0.0160991 15:0.149105 16:0.908291 17:-0.268125 18:0.835276 19:0.442652 20:0.0643369 25:0.30982 26:0.186042 27:0.904694 28:0.0960714 29:0.608951 30:0.0660296 31:0.711934 32:0.184081 33:0.192583 34:0.195799 35:0.274593 36:-0.0340858 37:0.694761 38:0.188775 39:0.314799 40:0.49955 41:0.419722 42:0.0437624 43:0.426797 44:0.727681 45:0.601928 46:-0.21523 47:-0.336549 48:0.411451 49:-0.84315 50:0.659017 51:0.338035 52:-0.878954 53:-0.492766 54:0.0611254 55:-0.908137 56:0.490441 
1.350573470868901 0.574774282045755 0.7383326189607267 1:0.462798 2:0.470668 3:-0.119044 4:0.835146 5:0.410808 6:0.501522 7:-0.0998328 8:0.835159 9:0.715554 10:0.38045 11:-0.0223675 12:0.774229 13:0.193776 14:-0.00286176 15:-0.0319485 16:1 17:-0.143312 18:0.891852 19:0.273039 20:0.143114 25:-0.421428 26:-0.649929 27:0.00811188 28:0.962745 29:-0.0969952 30:0.972719 31:-0.293839 32:-0.947002 33:0.192583 34:0.195799 35:0.274593 36:-0.0340858 37:0.680338 38:0.23516 39:0.324703 40:0.477422 41:0.440155 42:0.0895682 43:0.446596 44:0.691141 45:0.601928 46:-0.21523 47:-0.336549 48:0.411451 49:0.773946 50:-0.131641 51:-0.3389 52:0.676122 53:-0.645803 54:-0.042343 55:-0.079832 56:0.939807 
0 0 7.166669199134208 1:0.471159 2:0.451063 3:-0.125808 4:0.84125 5:0.418065 6:0.483059 7:-0.106481 8:0.841263 9:0.706673 10:0.367677 11:-0.0353318 12:0.791021 13:0.342152 14:-0.0619309 15:0.0218895 16:0.941547 17:-0.127135 18:0.824181 19:0.415684 20:0.185796 25:-0.435187 26:-0.697672 27:0.0284864 28:0.916017 29:-0.39651 30:-0.957439 31:0.205214 32:0.539893 33:0.192583 34:0.195799 35:0.274593 36:-0.0340858 37:0.693436 38:0.269534 39:0.307947 40:0.441101 41:0.430959 42:0.10195 43:0.456323 44:0.684497 45:0.601928 46:-0.21523 47:-0.336549 48:0.411451 49:0.363043 50:0.598558 51:0.570101 52:0.142199 53:0.156135 54:0.228611 55:0.769815 56:0.236862 
0 0 128 1:0.546088 2:0.572246 3:0.430725 4:0.435515 5:0.483102 6:0.597179 7:0.440498 8:0.435559 9:0.643955 10:0.612388 11:0.432921 12:0.417499 13:-0.214744 14:0.7261 15:0.0825616 16:0.556465 17:-0.334268 18:0.792686 19:0.124083 20:0.438614 25:0.628262 26:-0.253 27:0.580041 28:0.326304 29:0.686109 30:-0.352779 31:0.520911 32:0.26081 33:0.192583 34:0.195799 35:0.274593 36:-0.0340858 37:0.440564 38:0.436132 39:0.499762 40:0.426404 41:0.662641 42:0.434851 43:0.4726 44:0.25106 45:0.601928 46:-0.21523 47:-0.336549 48:0.411451 49:0.667367 50:-0.425891 51:-0.503691 52:0.735955 53:0.539478 54:-0.33588 55:-0.352277 56:0.655688 
0 0 4.302294505545358 1:0.57985 2:0.693241 3:0.140741 4:0.490501 5:0.512407 6:0.711121 7:0.155492 8:0.490541 9:0.451019 10:0.579128 11:0.356724 12:0.677513 13:-0.192944 14:0.714123 15:0.498908 16:0.189661 17:-0.384226 18:0.676531 19:0.485507 20:0.357796 25:0.285374 26:0.287872 27:0.92523 28:-0.106424 29:0.616182 30:0.204041 31:0.716546 32:0.0417024 33:0.192583 34:0.195799 35:0.274593 36:-0.0340858 37:0.635632 38:0.0244466 39:0.369972 40:0.623879 41:-0.427025 42:-0.42186 43:0.297807 44:0.780408 45:0.601928 46:-0.21523 47:-0.336549 48:0.411451 49:0.242257 50:0.680371 51:0.540968 52:0.210731 53:-0.35252 54:-0.374074 55:0.848695 56:0.303293 
0 0 10.37001185979559 1:0.548584 2:0.570546 3:0.429412 4:0.435775 5:0.485269 6:0.595578 7:0.439208 8:0.43582 9:0.647449 10:0.608423 11:0.433411 12:0.417177 13:-0.213399 14:0.727425 15:0.0814325 16:0.555236 17:-0.329112 18:0.791904 19:0.124922 20:0.441973 25:0.624738 26:-0.259067 27:0.584101 28:0.322398 29:0.688817 30:-0.362582 31:0.516198 32:0.251467 33:0.192583 34:0.195799 35:0.274593 36:-0.0340858 37:0.443337 38:0.434121 39:0.498937 40:0.426675 41:0.661702 42:0.433462 43:0.47223 44:0.254706 45:0.601928 46:-0.21523 47:-0.336549 48:0.411451 49:0.666233 50:-0.424606 51:-0.508499 52:0.735863 53:0.545137 54:-0.344477 55:-0.346687 56:0.650551 
2.260573103075382 0 0 1:0.61072 2:0.57104 3:0.127715 4:0.584097 5:0.539201 6:0.596043 7:0.14269 8:0.58413 9:0.511269 10:0.501711 11:0.264986 12:0.748155 13:-0.457078 14:-0.163833 15:0.969605 16:-0.161447 17:-0.746308 18:-0.073189 19:0.895704 20:-0.152209 25:0.239754 26:0.285595 27:0.942893 28:-0.0892991 29:0.624072 30:0.184889 31:0.707887 32:0.0708153 33:0.192583 34:0.195799 35:0.274593 36:-0.0340858 37:0.680172 38:-0.0619206 39:0.277919 40:0.653449 41:-0.586142 42:-0.453595 43:0.121078 44:0.759106 45:0.601928 46:-0.21523 47:-0.336549 48:0.411451 49:0.298524 50:0.629166 51:0.524958 52:0.274263 53:-0.306429 54:-0.287965 55:0.821798 56:0.394952 
0 5.023350884216203 0 1:0.612637 2:0.579532 3:0.116128 4:0.579818 5:0.540865 6:0.60404 7:0.131302 8:0.579851 9:0.512984 10:0.49782 11:0.270217 12:0.746591 13:-0.44898 14:-0.0785271 15:0.963363 16:-0.10271 17:-0.707283 18:0.0127141 19:0.91192 20:-0.125378 25:0.218863 26:0.279545 27:0.951049 28:-0.0774098 29:0.615723 30:0.173668 31:0.715961 32:0.0808966 33:0.192583 34:0.195799 35:0.274593 36:-0.0340858 37:0.7422 38:-0.179106 39:0.0873409 40:0.679379 41:-0.548789 42:-0.312542 43:0.0366006 44:0.845615 45:0.601928 46:-0.21523 47:-0.336549 48:0.411451 49:0.369134 50:0.524834 51:0.529236 52:0.34587 53:-0.363777 54:-0.407837 55:0.742832 56:0.485958 
0 94.97702371345636 0 1:0.535945 2:0.541409 3:0.43812 4:0.470059 5:0.474298 6:0.568139 7:0.447766 8:0.470101 9:0.636673 10:0.583134 11:0.437212 12:0.450924 13:-0.208473 14:0.72656 15:0.0697734 16:0.561856 17:-0.327439 18:0.783612 19:0.108228 20:0.464394 25:0.60806 26:-0.277036 27:0.589215 28:0.335475 29:0.683473 30:-0.402335 31:0.503789 32:0.240835 33:0.192583 34:0.195799 35:0.274593 36:-0.0340858 37:0.47083 38:0.423242 39:0.486924 40:0.421042 41:0.672146 42:0.424341 43:0.46393 44:0.264426 45:0.601928 46:-0.21523 47:-0.336549 48:0.411451 49:0.665451 50:-0.430168 51:-0.527594 52:0.72784 53:0.545718 54:-0.347784 55:-0.363522 56:0.64226 
0 0 74.79986759994097 1:0.535059 2:0.541722 3:0.436211 4:0.472646 5:0.473529 6:0.568435 7:0.44589 8:0.472688 9:0.636084 10:0.582946 11:0.4356 12:0.45336 13:-0.210629 14:0.734108 15:0.0677221 16:0.551944 17:-0.340256 18:0.783358 19:0.0988277 20:0.462719 25:0.618545 26:-0.287445 27:0.576997 28:0.330174 29:0.682449 30:-0.390562 31:0.507327 32:0.252221 33:0.192583 34:0.195799 35:0.274593 36:-0.0340858 37:0.474301 38:0.417536 39:0.491493 40:0.419723 41:0.680247 42:0.422358 43:0.462835 44:0.257625 45:0.601928 46:-0.21523 47:-0.336549 48:0.411451 49:0.667881 50:-0.426672 51:-0.533162 52:0.723753 53:0.550705 54:-0.35096 55:-0.361971 56:0.637305 
5.036711566475243 0.1335717856524244 0 1:0.625645 2:0.528594 3:0.0371323 4:0.637129 5:0.552156 6:0.556071 7:0.0536622 8:0.637158 9:0.570815 10:0.403096 11:0.231248 12:0.782229 13:-0.403679 14:0.281978 15:0.821214 16:0.169211 17:-0.63325 18:0.398229 19:0.793138 20:0.00632555 25:0.201509 26:0.256314 27:0.959076 28:-0.0452331 29:0.684194 30:0.116542 31:0.650198 32:0.117105 33:0.192583 34:0.195799 35:0.274593 36:-0.0340858 37:0.78891 38:-0.0852735 39:0.0807333 40:0.60936 41:0.0229024 42:-0.18343 43:0.160044 44:0.963893 45:0.601928 46:-0.21523 47:-0.336549 48:0.411451 49:0.427273 50:0.524332 51:0.444017 52:0.398869 53:-0.599633 54:-0.767279 55:0.441502 56:0.545843 
0 2.21717053027139 1.428868495061884 1:0.578394 2:0.638241 3:0.083342 4:0.574747 5:0.511143 6:0.659328 7:0.0990785 8:0.57478 9:0.526234 10:0.502935 11:0.307582 12:0.712293 13:-0.455663 14:0.150454 15:0.887153 16:0.0737833 17:-0.65678 18:0.240087 19:0.862185 20:0.000844243 25:0.231009 26:0.238987 27:0.952823 28:-0.0483625 29:0.568374 30:0.146609 31:0.76422 32:0.0727594 33:0.192583 34:0.195799 35:0.274593 36:-0.0340858 37:0.787598 38:-0.327204 39:-0.139725 40:0.668363 41:-0.303169 42:-0.195501 43:-0.120184 44:0.965168 45:0.601928 46:-0.21523 47:-0.336549 48:0.411451 49:0.350856 50:0.593855 51:0.482399 52:0.340583 53:-0.619404 54:-0.856595 55:0.486414 56:0.394553 
8.716597172757247 0 0.9753311394508324 1:0.558482 2:0.456992 3:-0.0663268 4:0.767869 5:0.49386 6:0.488643 7:-0.0480208 8:0.767887 9:0.627849 10:0.296794 11:0.158758 12:0.824094 13:-0.302373 14:-0.00160985 15:0.969621 16:-0.0233382 17:-0.704907 18:0.120072 19:0.891513 20:-0.106913 25:0.227565 26:0.293221 27:0.952366 28:-0.176215 29:0.576802 30:0.227887 31:0.755278 32:-0.0200141 33:0.192583 34:0.195799 35:0.274593 36:-0.0340858 37:0.195962 38:0.502366 39:0.739162 40:0.274796 41:0.0289871 42:0.0303441 43:0.849886 44:0.32686 45:0.601928 46:-0.21523 47:-0.336549 48:0.411451 49:0.436912 50:0.439706 51:0.402243 52:0.530444 53:-0.858799 54:-0.794017 55:0.375796 56:0.389773 
4.759128238778614 0 2.802959726054405 1:0.546974 2:0.497963 3:-0.0718989 4:0.752226 5:0.483871 6:0.527226 7:-0.0534973 8:0.752245 9:0.622989 10:0.313006 11:0.189904 12:0.807493 13:-0.300638 14:-0.0412895 15:0.978059 16:-0.0450243 17:-0.727052 18:0.0825844 19:0.886448 20:-0.111986 25:0.256061 26:0.302366 27:0.939885 28:-0.201035 29:0.581363 30:0.246195 31:0.749824 32:-0.0460471 33:0.192583 34:0.195799 35:0.274593 36:-0.0340858 37:0.00372304 38:0.610044 39:0.799679 40:0.0673723 41:-0.0750097 42:-0.0813042 43:0.95586 44:0.0570383 45:0.601928 46:-0.21523 47:-0.336549 48:0.411451 49:0.443298 50:0.473931 51:0.403189 52:0.487933 53:0.436682 54:0.459753 55:-0.602015 56:-0.97158 
1.758886476974112 0.2917915932907109 2.121288711923973 1:0.553458 2:0.524216 3:-0.028382 4:0.721948 5:0.489499 6:0.551949 7:-0.0107274 8:0.72197 9:0.6121 10:0.362755 11:0.205974 12:0.785102 13:-0.31665 14:-0.0547613 15:0.979859 16:-0.0610545 17:-0.722815 18:0.0630747 19:0.893482 20:-0.116031 25:0.2474 26:0.282793 27:0.947089 28:-0.167668 29:0.585151 30:0.217986 31:0.750994 32:-0.0196608 33:0.192583 34:0.195799 35:0.274593 36:-0.0340858 37:-0.70335 38:0.605144 39:0.674672 40:-0.670992 41:0.0421524 42:-0.31275 43:0.87097 44:-0.926127 45:0.601928 46:-0.21523 47:-0.336549 48:0.411451 49:0.426329 50:0.485114 51:0.432664 52:0.461459 53:0.377112 54:0.493018 55:-0.607452 56:-0.994259 
0 0.3439554484955334 0 1:0.544584 2:0.757962 3:0.121529 4:0.462772 5:0.481797 6:0.77207 7:0.13661 8:0.462814 9:0.490682 10:0.606601 11:0.386048 12:0.606312 13:-0.221761 14:-0.0475569 15:0.966874 16:0.0463487 17:-0.651052 18:0.106341 19:0.912284 20:-0.023322 25:0.355875 26:0.256328 27:0.907447 28:-0.232848 29:0.848121 30:-0.227492 31:-0.437566 32:0.202152 33:0.192583 34:0.195799 35:0.274593 36:-0.0340858 37:0.687074 38:0.0372502 39:0.286571 40:0.608402 41:-0.367701 42:-0.350019 43:0.289258 44:0.831204 45:0.601928 46:-0.21523 47:-0.336549 48:0.411451 49:0.04875 50:0.732662 51:0.547876 52:0.265689 53:-0.585464 54:-0.668027 55:0.784472 56:0.0930219 
0 15.37247311649914 0 1:0.553011 2:0.527668 3:0.452003 4:0.449827 5:0.489111 6:0.555199 7:0.461411 8:0.449871 9:0.652858 10:0.565001 11:0.455605 12:0.431738 13:-0.181431 14:0.709415 15:0.0985451 16:0.574663 17:-0.247509 18:0.794102 19:0.182385 20:0.439743 25:0.630229 26:-0.289959 27:0.569355 28:0.318472 29:0.669241 30:-0.411428 31:0.525656 32:0.221619 33:0.192583 34:0.195799 35:0.274593 36:-0.0340858 37:0.553989 38:0.391273 39:0.507096 40:0.335998 41:0.657967 42:0.40281 43:0.477669 44:0.290569 45:0.601928 46:-0.21523 47:-0.336549 48:0.411451 49:0.732226 50:-0.44304 51:-0.517109 52:0.643778 53:0.604147 54:-0.320112 55:-0.389683 56:0.576289 
0 0.6663818002263581 0 1:0.587282 2:0.715413 3:0.0321848 4:0.504162 5:0.518857 6:0.732001 7:0.0487995 8:0.504201 9:0.510512 10:0.538953 11:0.334805 12:0.681306 13:-0.404245 14:0.196691 15:0.879727 16:0.092067 17:-0.745164 18:0.324487 19:0.781805 20:-0.0932701 25:0.305979 26:0.220422 27:0.927701 28:-0.0637251 29:0.625322 30:0.136103 31:0.722037 32:0.0487479 33:0.192583 34:0.195799 35:0.274593 36:-0.0340858 37:0.716894 38:0.0670643 39:0.296574 40:0.553541 41:-0.23618 42:-0.316419 43:0.329975 44:0.85512 45:0.601928 46:-0.21523 47:-0.336549 48:0.411451 49:0.204004 50:0.668677 51:0.502988 52:0.342664 53:0.141093 54:0.578558 55:-0.730729 56:-0.923648 
0 0 82.5942725558521 1:0.584945 2:0.525923 3:0.42018 4:0.447283 5:0.516829 6:0.553556 7:0.430134 8:0.447326 9:0.690783 10:0.565488 11:0.419103 12:0.424877 13:-0.185375 14:0.732361 15:0.0547095 16:0.561578 17:-0.28988 18:0.774139 19:0.100272 20:0.497452 25:0.601927 26:-0.307885 27:0.57475 28:0.353004 29:0.731653 30:-0.403474 31:0.414781 32:0.267807 33:0.192583 34:0.195799 35:0.274593 36:-0.0340858 37:0.466724 38:0.378002 39:0.494432 40:0.469453 41:0.721799 42:0.426272 43:0.418717 44:0.253331 45:0.601928 46:-0.21523 47:-0.336549 48:0.411451 49:0.718782 50:-0.468715 51:-0.538791 52:0.643639 53:0.553605 54:-0.381673 55:-0.368911 56:0.623026 
0 0 1.051785123647311 1:0.532387 2:0.79404 3:0.105177 4:0.437772 5:0.471209 6:0.806045 7:0.120539 8:0.437816 9:0.469644 10:0.640092 11:0.390092 12:0.589613 13:-0.338676 14:0.377269 15:0.784849 16:0.17259 17:-0.715516 18:0.514371 19:0.678559 20:-0.16488 25:0.348241 26:0.239664 27:0.908255 28:-0.109905 29:0.631864 30:0.172027 31:0.716944 32:0.0056321 33:0.192583 34:0.195799 35:0.274593 36:-0.0340858 37:0.630763 38:0.133454 39:0.384105 40:0.568704 41:-0.0181956 42:-0.211579 43:0.45062 44:0.822493 45:0.601928 46:-0.21523 47:-0.336549 48:0.411451 49:0.115029 50:0.711374 51:0.543808 52:0.269154 53:0.0788471 54:0.63674 55:-0.756781 56:-0.818663 
0 1.49003419173438 0 1:0.55461 2:0.77592 3:0.0866565 4:0.445421 5:0.490499 6:0.788981 7:0.102336 8:0.445465 9:0.477407 10:0.61988 11:0.37505 12:0.613299 13:-0.572435 14:-0.221575 15:0.91301 16:-0.0277194 17:0.997681 18:-0.259632 19:-0.13793 20:-0.510896 25:0.314043 26:0.216179 27:0.924819 28:-0.0631712 29:0.625548 30:0.133921 31:0.722806 32:0.04595 33:0.192583 34:0.195799 35:0.274593 36:-0.0340858 37:0.60896 38:0.175155 39:0.42583 40:0.539347 41:-0.138609 42:-0.280606 43:0.482523 44:0.781232 45:0.601928 46:-0.21523 47:-0.336549 48:0.411451 49:0.128109 50:0.696685 51:0.540726 52:0.293238 53:0.0958169 54:0.629766 55:-0.747932 56:-0.837529 
1.39493483802646 6.409125911389097 88.31506962880545 1:0.587847 2:0.530213 3:0.411449 4:0.448459 5:0.519348 6:0.557596 7:0.421553 8:0.448502 9:0.692849 10:0.564583 11:0.414574 12:0.427851 13:-0.403172 14:0.557888 15:0.384231 16:0.528212 17:-0.538606 18:0.753973 19:0.372357 20:0.186936 25:0.625384 26:-0.175534 27:0.653487 28:0.21741 29:0.858866 30:-0.307188 31:0.31645 32:0.116871 33:0.192583 34:0.195799 35:0.274593 36:-0.0340858 37:0.459851 38:0.384888 39:0.481088 40:0.480817 41:0.712642 42:0.431871 43:0.410219 44:0.269751 45:0.601928 46:-0.21523 47:-0.336549 48:0.411451 49:0.69964 50:-0.474041 51:-0.539969 52:0.666445 53:0.541696 54:-0.39248 55:-0.365245 56:0.633034 
0 0 58.2480397143125 1:0.573341 2:0.54135 3:0.424309 4:0.441767 5:0.506757 6:0.568084 7:0.434192 8:0.44181 9:0.678676 10:0.576605 11:0.428155 12:0.418969 13:-0.107394 14:0.62349 15:0.353287 16:0.521828 17:-0.361599 18:0.854242 19:0.408187 20:-0.0334865 25:0.585459 26:0.0553222 27:0.635079 28:0.369038 29:0.875195 30:-0.257249 31:0.108358 32:0.321324 33:0.192583 34:0.195799 35:0.274593 36:-0.0340858 37:0.4438 38:0.411947 39:0.472445 40:0.475293 41:0.699908 42:0.433685 43:0.425122 44:0.266293 45:0.601928 46:-0.21523 47:-0.336549 48:0.411451 49:0.690239 50:-0.464068 51:-0.521786 52:0.689617 53:0.544896 54:-0.381954 55:-0.354204 56:0.637774 
0 6.174079949430118 0 1:0.561714 2:0.819441 3:0.0210521 4:0.40466 5:0.496665 6:0.829965 7:0.037858 8:0.404706 9:0.483814 10:0.599977 11:0.404377 12:0.60248 13:-0.15532 14:-0.114734 15:0.978912 16:0.0192985 17:-0.808841 18:0.0867425 19:0.81693 20:-0.0564638 25:0.315149 26:0.174522 27:0.934971 28:-0.0870674 29:0.679455 30:0.0925345 31:0.683445 32:0.0138725 33:0.192583 34:0.195799 35:0.274593 36:-0.0340858 37:0.709024 38:0.231866 39:0.377712 40:0.400161 41:0.126615 42:-0.156115 43:0.507887 44:0.773048 45:0.601928 46:-0.21523 47:-0.336549 48:0.411451 49:0.168161 50:0.673146 51:0.554798 52:0.277648 53:-0.486464 54:-0.482993 55:0.826436 56:0.244912 
0 0 2.100854283600517 1:0.560014 2:0.675838 3:-0.0678869 4:0.598892 5:0.495189 6:0.694733 7:-0.0495542 8:0.598923 9:0.64864 10:0.472856 11:0.230082 12:0.681342 13:-0.363016 14:-0.0401708 15:0.956612 16:0.0166925 17:-0.865322 18:0.124961 19:0.764038 20:-0.0853342 25:0.304328 26:0.215635 27:0.932416 28:-0.0893467 29:0.611516 30:0.142358 31:0.739134 32:0.0190042 33:0.192583 34:0.195799 35:0.274593 36:-0.0340858 37:0.576587 38:0.157783 39:0.48062 40:0.545337 41:0.180458 42:-0.115854 43:0.5283 44:0.747241 45:0.601928 46:-0.21523 47:-0.336549 48:0.411451 49:0.173516 50:0.652868 51:0.55334 52:0.312606 53:-0.555021 54:-0.571698 55:0.782683 56:0.236363 
1.959741133701596 0 0 1:0.494613 2:0.49523 3:-0.0165336 4:0.784282 5:0.438422 6:0.524652 7:0.000917528 8:0.784299 9:0.787806 10:0.413728 11:0.0515862 12:0.667683 13:-0.0840366 14:-0.369329 15:0.903923 16:0.187911 17:0.867276 18:-0.401423 19:-0.424441 20:-0.71421 25:0.382164 26:0.234303 27:0.889999 28:-0.0933053 29:0.630389 30:0.169743 31:0.717783 32:0.0114431 33:0.192583 34:0.195799 35:0.274593 36:-0.0340858 37:0.624927 38:0.0766251 39:0.408216 40:0.588937 41:0.463922 42:-0.000753859 43:0.433593 44:0.708732 45:0.601928 46:-0.21523 47:-0.336549 48:0.411451 49:0.296277 50:0.569295 51:0.503739 52:0.404928 53:0.203001 54:0.557301 55:-0.667401 56:-1 
0 0 0.728362327587225 1:0.488405 2:0.516122 3:0.0025397 4:0.771346 5:0.433034 6:0.544326 7:0.0196634 8:0.771364 9:0.779396 10:0.436695 11:0.0724877 12:0.65461 13:-0.171503 14:-0.343405 15:0.892598 16:0.23618 17:0.856951 18:-0.421316 19:-0.419404 20:-0.730692 25:0.399831 26:0.216737 27:0.88056 28:-0.0634467 29:0.63535 30:0.149536 31:0.713609 32:0.0316984 33:0.192583 34:0.195799 35:0.274593 36:-0.0340858 37:0.682553 38:0.0504255 39:0.3605 40:0.565482 41:0.50576 42:-0.0179412 43:0.394577 44:0.716065 45:0.601928 46:-0.21523 47:-0.336549 48:0.411451 49:0.28956 50:0.623589 51:0.47305 52:0.377568 53:0.19853 54:0.549189 55:-0.695022 56:-0.976828 
4.961500739892557 0 0 1:0.484862 2:0.518884 3:0.00413105 4:0.771734 5:0.429958 6:0.546928 7:0.0212274 8:0.771752 9:0.785888 10:0.44298 11:0.0657923 12:0.646437 13:-0.254431 14:-0.336461 15:0.908182 16:0.18474 17:0.884984 18:-0.373391 19:-0.394311 20:-0.719185 25:0.36872 26:0.177098 27:0.902909 28:-0.0448937 29:0.619669 30:0.107821 31:0.734115 32:0.0374457 33:0.192583 34:0.195799 35:0.274593 36:-0.0340858 37:0.620986 38:0.175318 39:0.434568 40:0.518713 41:0.465376 42:0.0635609 43:0.482939 44:0.654838 45:0.601928 46:-0.21523 47:-0.336549 48:0.411451 49:-0.15901 50:0.808394 51:0.63538 52:-0.195311 53:-0.263003 54:-0.439061 55:0.969331 56:-0.250596 
2.633955511043613 0 0 1:0.483387 2:0.485315 3:0.00279663 4:0.794386 5:0.428679 6:0.515315 7:0.0199159 8:0.794402 9:0.804458 10:0.434002 11:0.0228931 12:0.647495 13:-0.272422 14:-0.360809 15:0.877667 16:0.247224 17:0.86891 18:-0.415087 19:-0.353918 20:-0.764526 25:0.347988 26:0.201914 27:0.907658 28:-0.035973 29:0.690681 30:0.10233 31:0.657104 32:0.0734873 33:0.192583 34:0.195799 35:0.274593 36:-0.0340858 37:0.671283 38:0.17356 39:0.388782 40:0.490977 41:-0.843321 42:-0.552249 43:0.26577 44:0.411596 45:0.601928 46:-0.21523 47:-0.336549 48:0.411451 49:-0.0356232 50:0.789774 51:0.621357 52:-0.0573509 53:-0.315849 54:-0.477426 55:0.94044 56:-0.0794511 
0 0.2756739399539041 0 1:0.47804 2:0.479367 3:0.0142226 4:0.799179 5:0.424037 6:0.509714 7:0.0311457 8:0.799195 9:0.805649 10:0.450229 11:0.00311986 12:0.641861 13:-0.370775 14:-0.289219 15:0.881196 16:0.236096 17:0.871603 18:-0.391812 19:-0.404057 20:-0.734193 25:0.402343 26:0.146629 27:0.874852 28:0.0417137 29:0.655189 30:0.0570028 31:0.689489 32:0.112004 33:0.192583 34:0.195799 35:0.274593 36:-0.0340858 37:0.672089 38:0.178674 39:0.375923 40:0.495597 41:-0.820432 42:-0.507589 43:0.317892 44:0.435088 45:0.601928 46:-0.21523 47:-0.336549 48:0.411451 49:0.00617892 50:0.781837 51:0.608073 52:-0.00166091 53:-0.342606 54:-0.481559 55:0.926552 56:-0.0186689 
0 0 2.423838687437404 1:0.501432 2:0.405078 3:-0.00538879 4:0.828899 5:0.444341 6:0.439755 7:0.011871 8:0.828912 9:0.799212 10:0.426682 11:-0.0844256 12:0.684077 13:-0.618844 14:-0.102717 15:0.847365 16:0.160988 17:0.851692 18:-0.354294 19:-0.550758 20:-0.636074 25:0.472629 26:0.152413 27:0.799978 28:0.161193 29:0.591748 30:0.0122804 31:0.749801 32:0.11448 33:0.192583 34:0.195799 35:0.274593 36:-0.0340858 37:0.575931 38:0.337422 39:0.556185 40:0.316038 41:0.0644289 42:-0.220094 43:0.660001 44:0.627384 45:0.601928 46:-0.21523 47:-0.336549 48:0.411451 49:0.118501 50:0.747133 51:0.560611 52:0.146084 53:-0.463686 54:-0.597438 55:0.838302 56:0.116675 
0.3034194202194021 0 0 1:0.510753 2:0.28175 3:-0.0696831 4:0.889068 5:0.452432 6:0.323615 7:-0.0513196 8:0.889077 9:0.796753 10:0.323264 11:-0.185783 12:0.753907 13:-0.766559 14:0.0688347 15:0.713975 16:0.250586 17:0.727687 18:-0.434121 19:-0.670102 20:-0.730695 25:0.443939 26:0.10026 27:0.804684 28:0.229896 29:0.564993 30:-0.0412845 31:0.754664 32:0.179427 33:0.192583 34:0.195799 35:0.274593 36:-0.0340858 37:0.621544 38:0.263776 39:0.498297 40:0.392311 41:-0.649979 42:-0.537472 43:0.491195 44:0.427281 45:0.601928 46:-0.21523 47:-0.336549 48:0.411451 49:0.24104 50:0.615778 51:0.527328 52:0.355595 53:-0.610882 54:-0.632052 55:0.715398 56:0.286172 
0 0.4761383330817967 1.88545288950988 1:0.504404 2:0.301532 3:-0.054773 4:0.883408 5:0.446921 6:0.342245 7:-0.0366654 8:0.883417 9:0.794637 10:0.349517 11:-0.179492 12:0.742794 13:-0.870276 14:0.113229 15:0.65127 16:0.207783 17:0.697893 18:-0.418753 19:-0.720985 20:-0.731653 25:0.458504 26:0.113727 27:0.796738 28:0.21978 29:0.55896 30:-0.029317 31:0.767715 32:0.151084 33:0.192583 34:0.195799 35:0.274593 36:-0.0340858 37:0.570321 38:0.225671 39:0.549758 40:0.443436 41:-0.732364 42:-0.557922 43:0.460747 44:0.358548 45:0.601928 46:-0.21523 47:-0.336549 48:0.411451 49:0.245321 50:0.620461 51:0.527752 52:0.343335 53:-0.575124 54:-0.592129 55:0.737009 56:0.304121 
0 0 0.4573663472018034 1:0.583772 2:0.629996 3:0.35078 4:0.406164 5:0.515811 6:0.651563 7:0.361925 8:0.406211 9:0.682572 10:0.655273 11:0.365736 12:0.391924 13:0.674352 14:0.580508 15:0.319524 16:-0.580522 17:0.586391 18:0.582911 19:0.448778 20:-0.587487 25:0.568054 26:0.743033 27:-0.319371 28:0.453159 29:0.559827 30:0.523609 31:-0.232358 32:0.654877 33:0.192583 34:0.195799 35:0.274593 36:-0.0340858 37:0.412466 38:0.419246 39:0.499272 40:0.474617 41:0.661983 42:0.444275 43:0.446944 44:0.274596 45:0.601928 46:-0.21523 47:-0.336549 48:0.411451 49:0.693351 50:-0.472648 51:-0.48972 52:0.69507 53:0.555187 54:-0.385321 55:-0.336192 56:0.633968 
0 2.81216774890818 2.634211474419557 1:0.501373 2:0.293204 3:-0.0531454 4:0.88856 5:0.44429 6:0.334402 7:-0.0350657 8:0.888568 9:0.796153 10:0.344457 11:-0.183212 12:0.744114 13:-0.967694 14:0.188634 15:0.572173 16:0.137241 17:0.635898 18:-0.396573 19:-0.799906 20:-0.747712 25:0.467603 26:0.0837964 27:0.806669 28:0.180971 29:0.585083 30:-0.000262188 31:0.733204 32:0.195933 33:0.192583 34:0.195799 35:0.274593 36:-0.0340858 37:0.579979 38:0.20983 39:0.532236 40:0.461052 41:0.482349 42:0.0931824 43:0.552725 44:0.569147 45:0.601928 46:-0.21523 47:-0.336549 48:0.411451 49:0.170802 50:0.677192 51:0.566954 52:0.243146 53:-0.535744 54:-0.643949 55:0.776447 56:0.189255 
2.437432948547113 0.6986926307619814 1.648271255788873 1:0.501358 2:0.275741 3:-0.0545565 4:0.895608 5:0.444277 6:0.317957 7:-0.0364526 8:0.895616 9:0.793751 10:0.334045 11:-0.194025 12:0.752097 13:0.708731 14:-0.51629 15:-0.979623 16:-0.707382 17:-0.842929 18:0.206923 19:0.673301 20:0.179019 25:0.469587 26:0.0720662 27:0.806889 28:0.179435 29:0.571387 30:-0.00581576 31:0.747134 32:0.188513 33:0.192583 34:0.195799 35:0.274593 36:-0.0340858 37:0.582402 38:0.206818 39:0.522748 40:0.469204 41:0.549839 42:0.144747 43:0.526766 44:0.52996 45:0.601928 46:-0.21523 47:-0.336549 48:0.411451 49:0.173985 50:0.676074 51:0.566974 52:0.242227 53:-0.523497 54:-0.62302 55:0.785143 56:0.199355 
0 0.1705189465623995 0 1:0.494947 2:0.257252 3:-0.0452936 4:0.905354 5:0.438712 6:0.300546 7:-0.0273487 8:0.905361 9:0.805679 10:0.317127 11:-0.187026 12:0.748376 13:-0.754593 14:-0.106826 15:0.857174 16:-0.145772 17:0.735233 18:-0.156492 19:-0.841566 20:-0.448366 25:0.440015 26:0.0683271 27:0.826265 28:0.181195 29:0.598572 30:-0.00511095 31:0.710942 32:0.228017 33:0.192583 34:0.195799 35:0.274593 36:-0.0340858 37:0.576696 38:0.236334 39:0.485626 40:0.485662 41:0.572805 42:0.196975 43:0.49709 44:0.518063 45:0.601928 46:-0.21523 47:-0.336549 48:0.411451 49:0.234768 50:0.664987 51:0.514559 52:0.300255 53:-0.467241 54:-0.438012 55:0.809443 56:0.32073 
16.92406367723079 0 7.613697535409352 1:0.494935 2:0.249736 3:-0.0556689 4:0.909567 5:0.438702 6:0.293468 7:-0.0375459 8:0.909574 9:0.814309 10:0.301222 11:-0.189353 12:0.747518 13:-0.690341 14:-0.236019 15:0.891075 16:-0.232777 17:0.754264 18:-0.0271571 19:-0.822748 20:-0.425766 25:0.422719 26:0.0553977 27:0.839575 28:0.176292 29:0.603137 30:-0.0143891 31:0.705606 32:0.231606 33:0.192583 34:0.195799 35:0.274593 36:-0.0340858 37:0.581099 38:0.220531 39:0.487623 40:0.491137 41:0.580963 42:0.201861 43:0.478461 44:0.527668 45:0.601928 46:-0.21523 47:-0.336549 48:0.411451 49:0.239059 50:0.665599 51:0.506246 52:0.308865 53:-0.464383 54:-0.418582 55:0.809731 56:0.331445 
13.15682189527297 4.999139292876767 0 1:0.495994 2:0.24095 3:-0.0658752 4:0.913343 5:0.439622 6:0.285194 7:-0.047577 8:0.91335 9:0.818089 10:0.288522 11:-0.19697 12:0.749933 13:0.068087 14:0.892508 15:-0.46415 16:0.241501 17:-0.412205 18:-0.959418 19:-0.113434 20:0.448692 25:0.431497 26:0.0429252 27:0.832143 28:0.185426 29:0.604831 30:-0.0286288 31:0.703561 32:0.23261 33:0.192583 34:0.195799 35:0.274593 36:-0.0340858 37:0.558033 38:0.107837 39:0.577289 40:0.513044 41:0.636364 42:0.31988 43:0.370712 44:0.502898 45:0.601928 46:-0.21523 47:-0.336549 48:0.411451 49:0.310529 50:0.618135 51:0.46649 52:0.37319 53:-0.479409 54:-0.403036 55:0.76054 56:0.425684 
33.59833537220928 18.9691846236232 10.70770236334672 1:0.497578 2:0.223682 3:-0.0637777 4:0.917935 5:0.440996 6:0.268932 7:-0.0455155 8:0.917941 9:0.823225 10:0.280693 11:-0.208157 12:0.748857 13:-0.114887 14:0.869487 15:-0.205591 16:0.393244 17:-0.110885 18:0.983481 19:-0.0515729 20:-0.560416 25:0.426984 26:0.0360129 27:0.834399 28:0.188469 29:0.57 30:-0.0422199 31:0.741542 32:0.209037 33:0.192583 34:0.195799 35:0.274593 36:-0.0340858 37:0.574249 38:0.10958 39:0.563646 40:0.506357 41:0.631032 42:0.295436 43:0.371545 44:0.524424 45:0.601928 46:-0.21523 47:-0.336549 48:0.411451 49:0.305417 50:0.618938 51:0.465597 52:0.378703 53:-0.406518 54:-0.294553 55:0.780281 56:0.449489 
0 5.269611998658581 2.817528173457577 1:0.495091 2:0.247337 3:-0.0512056 4:0.909691 5:0.438837 6:0.291209 7:-0.0331593 8:0.909698 9:0.818831 10:0.304149 11:-0.192808 12:0.742001 13:-0.115636 14:0.81171 15:-0.277255 16:0.495302 17:-0.0642608 18:0.970594 19:-0.0953938 20:-0.630576 25:0.431518 26:0.052903 27:0.833596 28:0.178576 29:0.572216 30:-0.0346624 31:0.746193 32:0.188574 33:0.192583 34:0.195799 35:0.274593 36:-0.0340858 37:-0.814647 38:0.491297 39:0.756846 40:-0.599962 41:0.0976385 42:-0.647849 43:0.710259 44:-0.976196 45:0.601928 46:-0.21523 47:-0.336549 48:0.411451 49:0.275783 50:0.646667 51:0.501285 52:0.311178 53:-0.393473 54:-0.335836 55:0.811726 56:0.384761 
0 6.554138327968226 0 1:0.493445 2:0.259548 3:-0.0419414 4:0.90498 5:0.437409 6:0.302707 7:-0.024054 8:0.904988 9:0.819134 10:0.321706 11:-0.190912 12:0.733407 13:-0.107748 14:0.825818 15:-0.339874 16:0.462001 17:-0.0202723 18:0.979056 19:-0.137498 20:-0.552926 25:0.433111 26:0.064318 27:0.833599 28:0.172463 29:0.591556 30:-0.0308035 31:0.730629 32:0.185753 33:0.192583 34:0.195799 35:0.274593 36:-0.0340858 37:-0.86298 38:0.475902 39:0.71288 40:-0.655921 41:-0.14701 42:0.348151 43:-0.896629 44:0.375979 45:0.601928 46:-0.21523 47:-0.336549 48:0.411451 49:0.292487 50:0.640047 51:0.497141 52:0.310622 53:-0.380193 54:-0.329273 55:0.806342 56:0.400406 
0 5.914571184928338 0 1:0.593842 2:0.581466 3:0.378133 4:0.421678 5:0.524552 6:0.605862 7:0.388809 8:0.421723 9:0.693762 10:0.614197 11:0.384254 12:0.40581 13:0.623552 14:0.562622 15:0.348307 16:-0.709913 17:-0.463738 18:-0.508781 19:-0.876682 20:0.447826 25:0.562959 26:0.71932 27:-0.481724 28:0.416309 29:0.276303 30:0.332412 31:-0.635833 32:0.796322 33:0.192583 34:0.195799 35:0.274593 36:-0.0340858 37:0.415397 38:0.411597 39:0.479746 40:0.496853 41:0.687808 42:0.434454 43:0.430339 44:0.275043 45:0.601928 46:-0.21523 47:-0.336549 48:0.411451 49:0.683716 50:-0.494019 51:-0.496664 52:0.696651 53:0.547274 54:-0.391759 55:-0.355943 56:0.631804 
0 11.87843481184285 2.089086873045507 1:0.493942 2:0.272619 3:-0.0296599 4:0.897822 5:0.43784 6:0.315016 7:-0.0119834 8:0.89783 9:0.819776 10:0.342744 11:-0.188646 12:0.722354 13:-0.15827 14:0.779484 15:-0.377248 16:0.529956 17:-0.0298057 18:0.987616 19:-0.196283 20:-0.442299 25:0.42241 26:0.0788131 27:0.843398 28:0.157368 29:0.596982 30:-0.016256 31:0.727579 32:0.180684 33:0.192583 34:0.195799 35:0.274593 36:-0.0340858 37:-0.946796 38:0.449395 39:0.611719 40:-0.75433 41:-0.00595612 42:0.075073 43:-0.926566 44:0.505727 45:0.601928 46:-0.21523 47:-0.336549 48:0.411451 49:0.310618 50:0.607936 51:0.471149 52:0.381773 53:-0.477355 54:-0.399815 55:0.757715 56:0.43263 
0 6.466191933035592 0 1:0.592773 2:0.578047 3:0.382944 4:0.421961 5:0.523624 6:0.602642 7:0.393538 8:0.422006 9:0.690907 10:0.613174 11:0.387271 12:0.407445 13:0.61099 14:0.553482 15:0.367698 16:-0.723843 17:0.302853 18:0.394658 19:0.687479 20:-0.992018 25:0.561206 26:0.705338 27:-0.495478 28:0.430967 29:0.326754 30:0.387758 31:-0.601726 32:0.756825 33:0.192583 34:0.195799 35:0.274593 36:-0.0340858 37:0.415427 38:0.413718 39:0.478231 40:0.495818 41:0.685335 42:0.433529 43:0.432742 44:0.276462 45:0.601928 46:-0.21523 47:-0.336549 48:0.411451 49:0.680137 50:-0.488274 51:-0.499859 52:0.701987 53:0.549073 54:-0.393223 55:-0.351594 56:0.631407 
4.416809336318223 0 0 1:0.494921 2:0.262273 3:-0.0305719 4:0.901211 5:0.43869 6:0.305274 7:-0.0128798 8:0.901219 9:0.816607 10:0.337544 11:-0.195661 12:0.728475 13:-0.13786 14:0.816916 15:-0.292242 16:0.485506 17:-0.0796947 18:1 19:-0.132632 20:-0.277983 25:0.340442 26:-0.130894 27:0.84121 28:0.297753 29:0.547351 30:-0.233738 31:0.711018 32:0.269061 33:0.192583 34:0.195799 35:0.274593 36:-0.0340858 37:-0.870641 38:0.484469 39:0.682269 40:-0.688259 41:-0.0614859 42:0.187896 43:-0.955271 44:0.408618 45:0.601928 46:-0.21523 47:-0.336549 48:0.411451 49:0.294115 50:0.610324 51:0.476085 52:0.388433 53:-0.525565 54:-0.452187 55:0.748456 56:0.404322 
5.055249160629795 0 0 1:0.488622 2:0.221984 3:-0.0800124 4:0.926166 5:0.433222 6:0.267333 7:-0.0614715 8:0.926172 9:0.810281 10:0.271126 11:-0.217026 12:0.76563 13:-0.0181713 14:0.874049 15:-0.224716 16:0.372281 17:-0.0269456 18:0.99448 19:-0.0194637 20:-0.404849 25:0.446663 26:0.152184 27:0.84869 28:0.0344723 29:0.654367 30:0.0756489 31:0.690966 32:0.102179 33:0.192583 34:0.195799 35:0.274593 36:-0.0340858 37:-0.883347 38:0.470774 39:0.686701 40:-0.686676 41:0.19692 42:-0.132761 43:-1 44:0.3825 45:0.601928 46:-0.21523 47:-0.336549 48:0.411451 49:0.180964 50:0.687862 51:0.552069 52:0.241252 53:-0.457018 54:-0.481363 55:0.834375 56:0.241138 
22.20101843451088 5.362625910780845 2.008657179453231 1:0.490414 2:0.249704 3:-0.0567397 4:0.912631 5:0.434778 6:0.293437 7:-0.0385983 8:0.912638 9:0.809261 10:0.308845 11:-0.20363 12:0.749641 13:-0.008547 14:0.855878 15:-0.364955 16:0.387573 17:0.0488734 18:0.988553 19:-0.137676 20:-0.280889 25:0.453536 26:0.183755 27:0.837415 28:0.0405405 29:0.641613 30:0.0781055 31:0.709789 32:0.0745321 33:0.192583 34:0.195799 35:0.274593 36:-0.0340858 37:-0.8963 38:0.480984 39:0.649539 40:-0.71417 41:-0.442573 42:0.207946 43:0.741637 44:-0.967736 45:0.601928 46:-0.21523 47:-0.336549 48:0.411451 49:0.195126 50:0.664052 51:0.55691 52:0.26505 53:-0.452676 54:-0.464111 55:0.827493 56:0.27139 
0 0 81.68721873159728 1:0.535007 2:0.566854 3:0.431773 4:0.452529 5:0.473484 6:0.592101 7:0.441528 8:0.452571 9:0.635229 10:0.607351 11:0.433034 12:0.43245 13:-0.499406 14:0.593223 15:0.273544 16:0.536404 17:-0.473063 18:0.713939 19:0.35446 20:0.3637 25:0.463821 26:-0.487076 27:0.465541 28:0.571124 29:0.540684 30:-0.538564 31:0.399004 32:0.513486 33:0.192583 34:0.195799 35:0.274593 36:-0.0340858 37:0.484381 38:0.405914 39:0.484349 40:0.428658 41:0.609185 42:0.452543 43:0.425723 44:0.351468 45:0.601928 46:-0.21523 47:-0.336549 48:0.411451 49:0.36534 50:0.52867 51:0.502282 52:0.386961 53:0.346687 54:0.570167 55:0.449014 56:0.222952 
128 0 0 1:0.52012 2:0.576797 3:0.437844 4:0.452518 5:0.460562 6:0.601465 7:0.447495 8:0.452561 9:0.626121 10:0.619912 11:0.437189 12:0.425141 13:-0.511156 14:0.593114 15:0.278546 16:0.52705 17:-0.477874 18:0.705179 19:0.364129 20:0.36808 25:0.474124 26:-0.476444 27:0.465406 28:0.56785 29:0.546578 30:-0.539009 31:0.39955 32:0.503245 33:0.192583 34:0.195799 35:0.274593 36:-0.0340858 37:0.474116 38:0.399839 39:0.507917 40:0.425183 41:0.604522 42:0.467233 43:0.424021 44:0.340536 45:0.601928 46:-0.21523 47:-0.336549 48:0.411451 49:0.355889 50:0.5328 51:0.510498 52:0.380199 53:0.341538 54:0.572305 55:0.457221 56:0.213354 
128 0 0 1:0.493589 2:0.595822 3:0.44002 4:0.458867 5:0.437534 6:0.619381 7:0.449634 8:0.458909 9:0.599742 10:0.636675 11:0.442664 12:0.430203 13:-0.521267 14:0.57567 15:0.288798 16:0.535148 17:-0.485993 18:0.701469 19:0.371939 20:0.361413 25:0.487145 26:-0.481224 27:0.465259 28:0.548349 29:0.555177 30:-0.528798 31:0.405401 32:0.49547 33:0.192583 34:0.195799 35:0.274593 36:-0.0340858 37:0.46668 38:0.40722 39:0.520173 40:0.413009 41:0.599823 42:0.475549 43:0.431454 44:0.326511 45:0.601928 46:-0.21523 47:-0.336549 48:0.411451 49:0.346602 50:0.53882 51:0.522069 52:0.365004 53:0.329806 54:0.582561 55:0.463623 56:0.200389 
0 0 62.46388707449684 1:0.49314 2:0.595161 3:0.445933 4:0.453888 5:0.437144 6:0.618759 7:0.455444 8:0.453931 9:0.600075 10:0.63929 11:0.445801 12:0.423747 13:-0.529933 14:0.576905 15:0.286781 16:0.530702 17:-0.481114 18:0.701194 19:0.378529 20:0.359528 25:0.489676 26:-0.47408 27:0.467082 28:0.549052 29:0.559171 30:-0.528352 31:0.404154 32:0.490982 33:0.192583 34:0.195799 35:0.274593 36:-0.0340858 37:0.471874 38:0.395987 39:0.538069 40:0.402463 41:0.599326 42:0.481204 43:0.430914 44:0.320378 45:0.601928 46:-0.21523 47:-0.336549 48:0.411451 49:0.353219 50:0.530646 51:0.533383 52:0.35053 53:0.32744 54:0.58488 55:0.467601 56:0.192828 
128 70.03926453560433 0 1:0.508531 2:0.585442 3:0.437724 4:0.456246 5:0.450503 6:0.609605 7:0.447377 8:0.456289 9:0.61469 10:0.628576 11:0.437433 12:0.428223 13:-0.525515 14:0.591788 15:0.273689 16:0.524893 17:-0.471864 18:0.702566 19:0.372018 20:0.370397 25:0.47453 26:-0.480833 27:0.4715 28:0.556942 29:0.555256 30:-0.534874 31:0.398452 32:0.495727 33:0.192583 34:0.195799 35:0.274593 36:-0.0340858 37:0.479297 38:0.387531 39:0.529191 40:0.412797 41:0.607564 42:0.478785 43:0.419936 44:0.327363 45:0.601928 46:-0.21523 47:-0.336549 48:0.411451 49:0.366275 50:0.530688 51:0.519619 52:0.356652 53:0.33046 54:0.571858 55:0.467336 56:0.212253 
12.36949004029078 0 0 1:0.51067 2:0.581397 3:0.438081 4:0.457755 5:0.45236 6:0.605796 7:0.447727 8:0.457797 9:0.616812 10:0.625355 11:0.436827 12:0.42996 13:-0.520835 14:0.591482 15:0.274248 16:0.527291 17:-0.471805 18:0.699927 19:0.370972 20:0.376459 25:0.471412 26:-0.485104 27:0.472723 28:0.555747 29:0.557657 30:-0.530958 31:0.395304 32:0.500038 33:0.192583 34:0.195799 35:0.274593 36:-0.0340858 37:0.477939 38:0.396541 39:0.515563 40:0.417345 41:0.608354 42:0.46955 43:0.425138 44:0.332256 45:0.601928 46:-0.21523 47:-0.336549 48:0.411451 49:0.355521 50:0.527822 51:0.519245 52:0.374036 53:0.337045 54:0.572911 55:0.462173 56:0.210302 
86.67458507965887 0 0 1:0.510232 2:0.57031 3:0.441241 4:0.466197 5:0.45198 6:0.595356 7:0.450833 8:0.466239 9:0.616034 10:0.613613 11:0.440316 12:0.439466 13:-0.513454 14:0.591273 15:0.274563 16:0.531082 17:-0.479808 18:0.702614 19:0.360362 20:0.374964 25:0.463785 26:-0.500918 27:0.476001 28:0.547632 29:0.556069 30:-0.523444 31:0.396645 32:0.509949 33:0.192583 34:0.195799 35:0.274593 36:-0.0340858 37:0.486847 38:0.403118 39:0.500431 40:0.414064 41:0.60798 42:0.467913 43:0.420724 44:0.339738 45:0.601928 46:-0.21523 47:-0.336549 48:0.411451 49:0.369411 50:0.533187 51:0.509537 52:0.365088 53:0.334174 54:0.579343 55:0.453107 56:0.216944 
0 97.10901527361264 0 1:0.439426 2:0.555942 3:0.46348 4:0.526004 5:0.390521 6:0.581826 7:0.472691 8:0.526041 9:0.534067 10:0.590946 11:0.471642 12:0.50989 13:-0.566314 14:0.565832 15:0.246622 16:0.552529 17:-0.471186 18:0.66843 19:0.378547 20:0.426499 25:0.434406 26:-0.508553 27:0.503898 28:0.542187 29:0.513451 30:-0.489037 31:0.443265 32:0.559316 33:0.192583 34:0.195799 35:0.274593 36:-0.0340858 37:0.483011 38:0.395092 39:0.521688 40:0.407203 41:0.606361 42:0.508014 43:0.393806 44:0.319383 45:0.601928 46:-0.21523 47:-0.336549 48:0.411451 49:0.403571 50:0.600212 51:0.450592 52:0.310317 53:0.313208 54:0.554102 55:0.478513 56:0.244605 
77.82437872034826 0 0 1:0.441742 2:0.55466 3:0.459733 4:0.528768 5:0.392531 6:0.580618 7:0.469008 8:0.528805 9:0.535644 10:0.588164 11:0.468984 12:0.513648 13:-0.539682 14:0.596122 15:0.267727 16:0.516363 17:-0.485014 18:0.694628 19:0.36645 20:0.38039 25:0.421382 26:-0.473081 27:0.506219 28:0.583485 29:0.511871 30:-0.473269 31:0.431022 32:0.590139 33:0.192583 34:0.195799 35:0.274593 36:-0.0340858 37:0.481009 38:0.409235 39:0.500731 40:0.413251 41:0.607942 42:0.500151 43:0.39584 44:0.326025 45:0.601928 46:-0.21523 47:-0.336549 48:0.411451 49:0.402439 50:0.615797 51:0.431993 52:0.314359 53:0.318657 54:0.554178 55:0.475525 56:0.242756 
0 34.85468140423716 40.97328770233504 1:0.461471 2:0.571252 3:0.442139 4:0.512643 5:0.409656 6:0.596243 7:0.451716 8:0.512681 9:0.55831 10:0.603986 11:0.451914 12:0.495037 13:-0.505302 14:0.63699 15:0.292538 16:0.461675 17:-0.472509 18:0.714803 19:0.381786 20:0.336024 25:0.437189 26:-0.419682 27:0.476812 28:0.637537 29:0.513955 30:-0.449805 31:0.408759 32:0.630715 33:0.192583 34:0.195799 35:0.274593 36:-0.0340858 37:0.483897 38:0.415581 39:0.488893 40:0.413598 41:0.607329 42:0.492705 43:0.399143 44:0.3329 45:0.601928 46:-0.21523 47:-0.336549 48:0.411451 49:0.398996 50:0.621556 51:0.424795 52:0.320181 53:0.317886 54:0.544492 55:0.482987 56:0.247396 
8.408386110594181 1.873795746626447 14.55293758191165 1:0.504454 2:0.645133 3:0.418681 4:0.414678 5:0.446964 6:0.665818 7:0.42866 8:0.414723 9:0.593246 10:0.676553 11:0.433843 12:0.401898 13:-0.135712 14:0.702631 15:0.528604 16:0.164621 17:-0.161292 18:0.757725 19:0.640751 20:-0.0980341 25:0.834951 26:0.178986 27:0.260267 28:0.33397 29:0.878486 30:0.0393916 31:0.0788838 32:0.404859 33:0.192583 34:0.195799 35:0.274593 36:-0.0340858 37:0.470676 38:0.432829 39:0.516623 40:0.380269 41:0.568737 42:0.479191 43:0.445284 44:0.337929 45:0.601928 46:-0.21523 47:-0.336549 48:0.411451 49:0.339345 50:0.600152 51:0.490017 52:0.33283 53:0.309135 54:0.560464 55:0.50257 56:0.200111 
3.109850555122881 3.220402411182705 0.7646304073636911 1:0.569878 2:0.696095 3:0.360473 4:0.329099 5:0.503751 6:0.713809 7:0.371452 8:0.329151 9:0.654774 10:0.705926 11:0.399955 12:0.3288 13:-0.689914 14:-0.962013 15:-0.319671 16:0.4634 17:-0.554778 18:-0.635239 19:-0.318327 20:0.739076 25:0.671866 26:0.634201 27:-0.700388 28:0.0439841 29:-0.890776 30:-0.520169 31:0.660228 32:-0.780295 33:0.192583 34:0.195799 35:0.274593 36:-0.0340858 37:0.419024 38:0.38468 39:0.57241 40:0.437263 41:0.578459 42:0.455157 43:0.471512 44:0.325882 45:0.601928 46:-0.21523 47:-0.336549 48:0.411451 49:0.266537 50:0.515928 51:0.562035 52:0.416763 53:0.322845 54:0.555259 55:0.503407 56:0.190426 
0 1.133893419304081 0 1:0.557239 2:0.697293 3:0.367359 4:0.337306 5:0.492781 6:0.714937 7:0.37822 8:0.337358 9:0.646587 10:0.71798 11:0.395396 12:0.328328 13:-0.660274 14:-0.936508 15:-0.326925 16:0.52094 17:-0.51943 18:-0.569484 19:-0.330778 20:0.806899 25:0.682616 26:0.554398 27:-0.791711 28:-0.0390696 29:-0.867062 30:-0.466074 31:0.747219 32:-0.674489 33:0.192583 34:0.195799 35:0.274593 36:-0.0340858 37:0.421654 38:0.378815 39:0.58875 40:0.424127 41:0.556804 42:0.452954 43:0.479037 44:0.340989 45:0.601928 46:-0.21523 47:-0.336549 48:0.411451 49:0.283715 50:0.519642 51:0.569831 52:0.3832 53:0.28634 54:0.55548 55:0.516596 56:0.211579 
0.8263886200249093 0 0 1:0.591434 2:0.72437 3:0.295517 4:0.324319 5:0.522462 6:0.740436 7:0.307611 8:0.324372 9:0.678411 10:0.746598 11:0.323393 12:0.322542 13:0.359056 14:0.65389 15:0.288541 16:-0.966209 17:-0.410049 18:-0.645079 19:-0.664789 20:0.598853 25:0.720836 26:0.414602 27:-0.751541 28:0.209413 29:-0.900355 30:-0.272912 31:0.734935 32:-0.868874 33:0.192583 34:0.195799 35:0.274593 36:-0.0340858 37:0.474236 38:0.376788 39:0.559652 40:0.399726 41:0.536876 42:0.426923 43:0.46818 44:0.401662 45:0.601928 46:-0.21523 47:-0.336549 48:0.411451 49:0.369485 50:0.532125 51:0.540362 52:0.316138 53:0.23907 54:0.532625 55:0.512758 56:0.300468 
0 0.9199368026251281 0.3915936496928054 1:0.587003 2:0.725161 3:0.303257 4:0.321939 5:0.518616 6:0.741181 7:0.315219 8:0.321992 9:0.671985 10:0.747818 11:0.331665 12:0.321203 13:0.331625 14:0.687436 15:0.240322 16:-0.976074 17:-0.3885 18:-0.657697 19:-0.619703 20:0.635258 25:0.685228 26:0.479517 27:-0.722298 28:0.266636 29:-0.877564 30:-0.316999 31:0.697505 32:-0.949056 33:0.192583 34:0.195799 35:0.274593 36:-0.0340858 37:0.466143 38:0.379284 39:0.565471 40:0.399971 41:0.535682 42:0.438991 43:0.46522 44:0.393109 45:0.601928 46:-0.21523 47:-0.336549 48:0.411451 49:0.366035 50:0.543074 51:0.537283 52:0.309496 53:0.235057 54:0.535596 55:0.515809 56:0.295418 
0.5367412737398443 0 0.7011944003432911 1:0.559527 2:0.657886 3:0.384972 4:0.368334 5:0.494767 6:0.677828 7:0.39553 8:0.368383 9:0.652426 10:0.695618 11:0.393235 12:0.352598 13:0.605451 14:0.679087 15:-0.0194894 16:-0.855819 17:-0.639782 18:-0.591884 19:-0.532037 20:0.607368 25:0.658375 26:0.796276 27:-0.456981 28:0.0276583 29:-0.858672 30:-0.591498 31:0.540373 32:-0.950867 33:0.192583 34:0.195799 35:0.274593 36:-0.0340858 37:0.436747 38:0.386983 39:0.560814 40:0.42824 41:0.576097 42:0.461016 43:0.458257 44:0.337554 45:0.601928 46:-0.21523 47:-0.336549 48:0.411451 49:0.317884 50:0.519991 51:0.559832 52:0.362912 53:0.292822 54:0.578911 55:0.488317 56:0.211831 
1.3010589310367 0 0 1:-0.81663 2:0.626227 3:0.57728 4:-0.933223 5:-0.670024 6:0.625111 7:0.603596 8:-0.964835 9:0.587265 10:0.600013 11:0.48387 12:0.43762 13:0.556536 14:0.437498 15:0.339912 16:0.401642 17:0.500533 18:0.42783 19:0.475305 20:0.409044 25:0.419873 26:0.632685 27:0.443475 28:0.468532 29:0.380263 30:0.591996 31:0.506532 32:0.50103 33:0.171379 34:0.295146 35:0.25347 36:-0.0766067 37:-0.66942 38:0.569946 39:0.429498 40:0.498575 41:-0.589355 42:0.758588 43:0.236255 44:0.0722997 45:0.601928 46:-0.21523 47:-0.336549 48:0.411451 49:0.629077 50:-0.592018 51:0.48195 52:0.368079 53:0.701494 54:-0.622556 55:0.335941 56:0.148309 
0 1.23141055870527 0 1:-0.818306 2:0.634631 3:0.57101 4:-0.930187 5:-0.666781 6:0.62327 7:0.606864 8:-0.965623 9:0.587265 10:0.600013 11:0.48387 12:0.43762 13:0.55549 14:0.433692 15:0.342623 16:0.404404 17:0.500004 18:0.434445 19:0.466582 20:0.411353 25:0.429067 26:0.620748 27:0.440488 28:0.475863 29:0.38963 30:0.580826 31:0.503798 32:0.508497 33:0.204249 34:0.24466 35:0.251155 36:-0.0551068 37:-0.661909 38:0.583161 39:0.389961 40:0.515145 41:-0.561418 42:0.762873 43:0.22496 44:0.113845 45:0.601928 46:-0.21523 47:-0.336549 48:0.411451 49:0.613149 50:-0.599777 51:0.489398 52:0.37862 53:0.685659 54:-0.62799 55:0.34946 56:0.15948 
0 2.815725001715293 2.754172624969428 1:-0.760805 2:0.687911 3:0.590463 4:-0.886619 5:-0.628434 6:0.66985 7:0.63205 8:-0.907193 9:0.587265 10:0.600013 11:0.48387 12:0.43762 13:0.559756 14:0.388156 15:0.308362 16:0.477542 17:0.52817 18:0.387606 19:0.437809 20:0.456652 25:0.48666 26:0.60902 27:0.380835 28:0.483571 29:0.448308 30:0.569851 31:0.449191 32:0.516349 33:0.421616 34:0.191458 35:0.104697 36:-0.0156226 37:-0.584192 38:0.592311 39:0.369921 40:0.559997 41:-0.412003 42:0.731974 43:0.292862 44:0.270054 45:0.601928 46:-0.21523 47:-0.336549 48:0.411451 49:0.56866 50:-0.628176 51:0.484983 52:0.433492 53:0.651307 54:-0.603062 55:0.356726 56:0.246983 
0 0 0.4177519408050143 1:0.447642 2:-0.924908 3:-0.891927 4:0.465596 5:0.381872 6:-0.797382 7:-0.873323 8:0.482733 9:0.587265 10:0.600013 11:0.48387 12:0.43762 13:0.482984 14:0.48711 15:0.414193 16:0.340083 17:0.444599 18:0.496168 19:0.520885 20:0.335583 25:0.365907 26:0.705694 27:0.496959 28:0.356619 29:0.32528 30:0.660315 31:0.555492 32:0.387035 33:-0.105536 34:0.555272 35:0.39752 36:-0.308164 37:-0.731989 38:0.454068 39:0.516733 40:0.524886 41:-0.517981 42:0.634037 43:0.413738 44:0.232798 45:0.601928 46:-0.21523 47:-0.336549 48:0.411451 49:0.643256 50:-0.472813 51:0.567453 52:0.280312 53:0.685039 54:-0.452915 55:0.472864 56:0.138954 
35.69540307323663 0 0 1:0.528515 2:-0.885282 3:-0.839819 4:0.477407 5:0.400897 6:-0.749734 7:-0.8262 8:0.556959 9:0.587265 10:0.600013 11:0.48387 12:0.43762 13:0.466692 14:0.547725 15:0.420641 16:0.259333 17:0.389301 18:0.519707 19:0.566049 20:0.305463 25:0.307903 26:0.744022 27:0.51917 28:0.327 29:0.266183 30:0.696181 31:0.575823 32:0.356865 33:-0.383182 34:0.660822 35:0.480806 36:-0.359715 37:-0.79561 38:0.427195 39:0.548767 40:0.476295 41:-0.590601 42:0.632427 43:0.40981 44:0.158063 45:0.601928 46:-0.21523 47:-0.336549 48:0.411451 49:0.636733 50:-0.450915 51:0.620082 52:0.196021 53:0.631334 54:-0.387659 55:0.574947 56:0.100672 
5.0892348031214 0 0 1:0.523067 2:-0.765891 3:-0.80434 4:0.608313 5:0.560055 6:-0.717266 7:-0.719554 8:0.496738 9:0.587265 10:0.600013 11:0.48387 12:0.43762 13:0.39308 14:0.529362 15:0.53375 16:0.196537 17:0.356791 18:0.54606 19:0.62462 20:0.199511 25:0.285268 26:0.828966 27:0.534079 28:0.128192 29:0.243122 30:0.775669 31:0.589472 32:0.15436 33:-0.463704 34:0.969622 35:0.523103 36:-0.827848 37:-0.431996 38:0.801884 39:0.432776 40:0.206752 41:-0.387031 42:0.874983 43:0.298671 44:-0.27333 45:0.601928 46:-0.21523 47:-0.336549 48:0.411451 49:0.803994 50:0.375772 51:0.332029 52:-0.443001 53:0.85122 54:0.366355 55:0.121424 56:-0.325172 
0 0.3028578305106586 0.7253766956265978 1:0.581646 2:-0.681091 3:-0.737402 4:0.655898 5:0.594998 6:-0.568217 7:-0.72064 8:0.55885 9:0.587265 10:0.600013 11:0.48387 12:0.43762 13:0.348452 14:0.580043 15:0.55878 16:0.0928606 17:0.287742 18:0.568753 19:0.67428 20:0.135913 25:0.250151 26:0.82921 27:0.569941 28:0.0895105 29:0.207342 30:0.775897 31:0.6223 32:0.114959 33:-0.608571 34:0.960143 35:0.622195 36:-0.920709 37:0.199425 38:0.920182 39:0.147812 40:-0.447665 41:0.204466 42:0.755373 43:0.2926 44:-0.983032 45:0.601928 46:-0.21523 47:-0.336549 48:0.411451 49:0.506544 50:0.873549 51:0.00675998 52:0.00740073 53:0.482593 54:0.592921 55:-0.18496 56:0.368135 
0 0 0.1194350173450101 1:0.59373 2:-0.717182 3:-0.761337 4:0.606475 5:0.566025 6:-0.617969 7:-0.730832 8:0.556057 9:0.587265 10:0.600013 11:0.48387 12:0.43762 13:0.368346 14:0.576019 15:0.53737 16:0.124765 17:0.298843 18:0.530057 19:0.687764 20:0.177308 25:0.26781 26:0.812248 27:0.565998 28:0.124998 29:0.225335 30:0.760024 31:0.61869 32:0.151107 33:-0.551439 34:0.928615 35:0.591021 36:-0.830204 37:0.277605 38:0.819275 39:-0.2542 40:-0.873356 41:-0.439549 42:-0.695757 43:-0.269952 44:0.697871 45:0.601928 46:-0.21523 47:-0.336549 48:0.411451 49:0.320183 50:0.993694 51:-0.423621 52:0.0140429 53:0.129153 54:0.669073 55:-0.450615 56:0.450958 
0 0 0.3377324240866352 1:0.604187 2:-0.737662 3:-0.761338 4:0.583221 5:0.54865 6:-0.627779 7:-0.739244 8:0.564198 9:0.587265 10:0.600013 11:0.48387 12:0.43762 13:0.373222 14:0.573848 15:0.530263 16:0.138459 17:0.304985 18:0.52047 19:0.688656 20:0.187214 25:0.280116 26:0.81859 27:0.550294 28:0.126605 29:0.237872 30:0.765959 31:0.604315 32:0.152743 33:-0.504194 34:0.949049 35:0.553565 36:-0.822444 37:0.27969 38:0.812089 39:-0.266709 40:-0.886513 41:-0.443522 42:-0.672184 43:-0.268366 44:0.71476 45:0.601928 46:-0.21523 47:-0.336549 48:0.411451 49:0.4095 50:0.914287 51:-0.563239 52:-0.0149215 53:0.138674 54:0.612946 55:-0.593162 56:0.396519 
0 0.8379557435268167 0 1:0.612979 2:-0.757078 3:-0.75953 4:0.562648 5:0.535423 6:-0.63303 7:-0.749096 8:0.568487 9:0.587265 10:0.600013 11:0.48387 12:0.43762 13:0.376116 14:0.571109 15:0.524621 16:0.152324 17:0.310069 18:0.511966 19:0.689413 20:0.196033 25:0.295263 26:0.820601 27:0.533199 28:0.138332 29:0.253304 30:0.767841 31:0.588666 32:0.164688 33:-0.436096 34:0.951134 35:0.513413 36:-0.796162 37:0.27309 38:0.813163 39:-0.249232 40:-0.891501 41:-0.43285 42:-0.679818 43:-0.273067 44:0.712615 45:0.601928 46:-0.21523 47:-0.336549 48:0.411451 49:0.469602 50:0.851841 51:-0.621736 52:-0.0118501 53:0.162543 54:0.56225 55:-0.661315 56:0.370056 
0 1.016489179631076 0 1:0.508131 2:-0.907626 3:-0.830517 4:0.487211 5:0.413194 6:-0.728295 7:-0.864813 8:0.523388 9:0.587265 10:0.600013 11:0.48387 12:0.43762 13:0.435248 14:0.53061 15:0.42189 16:0.319962 17:0.394888 18:0.45959 19:0.615963 20:0.314047 25:0.368664 26:0.779114 27:0.460382 28:0.273004 29:0.328089 30:0.729019 31:0.522008 32:0.301865 33:-0.110834 34:0.782644 35:0.336752 36:-0.486379 37:0.316342 38:0.763384 39:-0.165635 40:-0.9523 41:-0.438098 42:-0.637802 43:-0.336201 44:0.722298 45:0.601928 46:-0.21523 47:-0.336549 48:0.411451 49:0.625442 50:0.779022 51:-0.276547 52:0.0953576 53:0.519785 54:0.582113 55:-0.340451 56:0.271 
0.7996282295626654 0 0 1:0.512799 2:-0.848002 3:-0.871461 4:0.494184 5:0.439181 6:-0.730876 7:-0.846715 8:0.512043 9:0.587265 10:0.600013 11:0.48387 12:0.43762 13:0.444564 14:0.489371 15:0.476652 16:0.296004 17:0.399152 18:0.48562 19:0.59409 20:0.304324 25:0.369682 26:0.772316 27:0.480697 28:0.250188 29:0.329126 30:0.722658 31:0.540605 32:0.278625 33:-0.124056 34:0.773689 35:0.378918 36:-0.529736 37:0.42172 38:0.750575 39:0.211342 40:-0.698441 41:-0.475933 42:-0.845072 43:-0.554337 44:0.359606 45:0.601928 46:-0.21523 47:-0.336549 48:0.411451 49:0.622075 50:0.753196 51:-0.500484 52:0.0535238 53:0.166167 54:0.273335 55:-0.747888 56:0.533957 
0 0 0.85162666698445 1:0.534105 2:-0.894629 3:-0.822434 4:0.480285 5:0.382961 6:-0.709208 7:-0.853008 8:0.581225 9:0.587265 10:0.600013 11:0.48387 12:0.43762 13:0.449125 14:0.586556 15:0.371881 16:0.279008 17:0.366237 18:0.46334 19:0.632523 20:0.316244 25:0.331892 26:0.776658 27:0.458485 28:0.332833 29:0.290624 30:0.72672 31:0.520273 32:0.362807 33:-0.238972 34:0.786206 35:0.318784 36:-0.370186 37:-0.117936 38:0.991506 39:0.0403972 40:-0.0319 41:0.0670563 42:-1 43:-0.28291 44:0.4492 45:0.601928 46:-0.21523 47:-0.336549 48:0.411451 49:0.74835 50:0.498427 51:0.314726 52:-0.141606 53:0.795252 54:0.397011 55:0.152579 56:-0.0507169 
0 0 0.3839617006255749 1:0.512035 2:-0.898392 3:-0.836803 4:0.485559 5:0.376104 6:-0.719304 7:-0.862166 8:0.570603 9:0.587265 10:0.600013 11:0.48387 12:0.43762 13:0.465907 14:0.585276 15:0.356167 16:0.281343 17:0.369333 18:0.455225 19:0.627324 20:0.332557 25:0.343651 26:0.769562 27:0.448284 28:0.346419 29:0.302605 30:0.72008 31:0.510934 32:0.376646 33:-0.186282 34:0.763888 35:0.289332 36:-0.339926 37:-0.143812 38:0.918502 39:0.125573 40:0.208277 41:-0.168183 42:0.880337 43:0.131083 44:-0.85213 45:0.601928 46:-0.21523 47:-0.336549 48:0.411451 49:0.759286 50:0.427027 51:0.379187 52:-0.216557 53:0.82596 54:0.335291 55:0.21125 56:-0.146054 
0 0.4480610346317438 0 1:0.50985 2:-0.899952 3:-0.877002 4:0.443346 5:0.350331 6:-0.70444 7:-0.90441 8:0.562171 9:0.587265 10:0.600013 11:0.48387 12:0.43762 13:0.495248 14:0.499627 15:0.413146 16:0.310176 17:0.427218 18:0.461846 19:0.570373 20:0.339337 25:0.353525 26:0.754649 27:0.431273 28:0.384606 29:0.312665 30:0.706125 31:0.495362 32:0.415543 33:-0.149503 34:0.70566 35:0.249049 36:-0.247707 37:-0.332505 38:0.676129 39:-0.00223684 40:0.68437 41:-0.207314 42:0.976115 43:-0.0161794 44:-0.148411 45:0.601928 46:-0.21523 47:-0.336549 48:0.411451 49:0.734843 50:0.188124 51:0.555949 52:-0.432321 53:0.757135 54:0.0616956 55:0.502019 56:-0.556461 
0 0 0.2960303381580457 1:-0.945877 2:0.542062 3:0.506597 4:-0.98518 5:0.340455 6:-0.710492 7:-0.91617 8:0.553402 9:0.587265 10:0.600013 11:0.48387 12:0.43762 13:0.503462 14:0.481118 15:0.416961 16:0.321713 17:0.442063 18:0.466852 19:0.549602 20:0.342555 25:0.370044 26:0.753752 27:0.420917 28:0.379199 29:0.329495 30:0.705286 31:0.485882 32:0.410035 33:-0.0900065 34:0.699766 35:0.225383 36:-0.252504 37:-0.328195 38:0.686877 39:0.000335302 40:0.671336 41:-0.2031 42:0.974381 43:-0.00889795 44:-0.134275 45:0.601928 46:-0.21523 47:-0.336549 48:0.411451 49:0.740791 50:0.171626 51:0.555597 52:-0.433956 53:0.751188 54:0.0487506 55:0.511811 56:-0.563327 
0 1.035853299170474 0.6955030182125865 1:-0.846024 2:0.530158 3:0.590837 4:-0.991347 5:0.297928 6:-0.718323 7:-0.986104 8:0.500961 9:0.587265 10:0.600013 11:0.48387 12:0.43762 13:0.556235 14:0.417276 15:0.398549 16:0.362449 17:0.517747 18:0.462618 19:0.474266 20:0.341997 25:0.412611 26:0.623919 27:0.488213 28:0.431145 29:0.372864 30:0.583793 31:0.547485 32:0.462947 33:0.0924547 34:0.25536 35:0.376128 36:-0.131729 37:-0.350283 38:0.669973 39:0.123245 40:0.65562 41:-0.320474 42:0.785236 43:0.0605844 44:0.365628 45:0.601928 46:-0.21523 47:-0.336549 48:0.411451 49:0.748775 50:0.0562928 51:0.587694 52:-0.424401 53:0.775941 54:-0.0716137 55:0.504083 56:-0.563079 
4.214682721780365 0 0 1:-0.863759 2:0.533211 3:0.583435 4:-0.981597 5:0.304998 6:-0.725933 7:-0.972403 8:0.505569 9:0.587265 10:0.600013 11:0.48387 12:0.43762 13:0.549094 14:0.410378 15:0.410681 16:0.364596 17:0.515723 18:0.469195 19:0.473245 20:0.336933 25:0.407402 26:0.625532 27:0.496096 28:0.424688 29:0.367557 30:0.585302 31:0.554701 32:0.45637 33:0.0644186 34:0.264978 35:0.393955 36:-0.142863 37:-0.35739 38:0.657111 39:0.130732 40:0.66756 41:-0.326244 42:0.767422 43:0.06172 44:0.394293 45:0.601928 46:-0.21523 47:-0.336549 48:0.411451 49:0.736989 50:0.05903 51:0.598564 52:-0.438291 53:0.761219 54:-0.0784772 55:0.516947 56:-0.589765 
0 0 0.06301896844867833 1:-0.944384 2:0.522194 3:0.511745 4:-1 5:0.355901 6:-0.715918 7:-0.901296 8:0.55124 9:0.587265 10:0.600013 11:0.48387 12:0.43762 13:0.521791 14:0.473567 15:0.424335 16:0.300681 17:0.444163 18:0.485237 19:0.530556 20:0.339393 25:0.380903 26:0.711008 27:0.477606 28:0.357353 29:0.340558 30:0.665288 31:0.537776 32:0.387783 33:-0.0428083 34:0.561873 35:0.357025 36:-0.304315 37:-0.417029 38:0.672617 39:0.171952 40:0.621229 41:-0.315466 42:0.810098 43:0.125289 44:0.292341 45:0.601928 46:-0.21523 47:-0.336549 48:0.411451 49:0.77341 50:0.108535 51:0.525421 52:-0.50345 53:0.78249 54:0.0349129 55:0.467214 56:-0.58649 
2.638644908363482 0 0 1:0.501333 2:-0.908864 3:-0.877157 4:0.443507 5:0.336927 6:-0.71432 7:-0.900685 8:0.57026 9:0.587265 10:0.600013 11:0.48387 12:0.43762 13:0.516012 14:0.488756 15:0.407766 16:0.30788 17:0.435188 18:0.477327 19:0.538012 20:0.352213 25:0.387548 26:0.715314 27:0.46546 28:0.3592 29:0.347329 30:0.669317 31:0.526657 32:0.389664 33:-0.0204306 34:0.574932 35:0.328086 36:-0.295764 37:-0.407402 38:0.654632 39:0.162995 40:0.649374 41:-0.31284 42:0.798492 43:0.114997 44:0.322568 45:0.601928 46:-0.21523 47:-0.336549 48:0.411451 49:0.774461 50:0.12086 51:0.524587 52:-0.480828 53:0.773695 54:0.00576759 55:0.482413 56:-0.602015 
0.746080499433597 0 0.5052869632582099 1:0.560359 2:-0.856057 3:-0.854364 4:0.453825 5:0.362978 6:-0.699457 7:-0.832609 8:0.625701 9:0.587265 10:0.600013 11:0.48387 12:0.43762 13:0.516292 14:0.556606 15:0.382875 16:0.23272 17:0.37146 18:0.475492 19:0.586002 20:0.363545 25:0.31847 26:0.754992 27:0.481504 28:0.354716 29:0.276949 30:0.706446 31:0.541344 32:0.385097 33:-0.333499 34:0.706823 35:0.37979 36:-0.298922 37:-0.463378 38:0.584242 39:0.210061 40:0.697052 41:-0.365808 42:0.752066 43:0.138096 44:0.37018 45:0.601928 46:-0.21523 47:-0.336549 48:0.411451 49:0.776195 50:0.146647 51:0.499137 52:-0.532923 53:0.69048 54:-0.0205965 55:0.544175 56:-0.73326 
0 0 1.639321827494532 1:0.435001 2:0.426323 3:0.648303 4:0.424164 5:0.38668 6:0.459762 7:0.65434 8:0.424209 9:0.630216 10:0.643233 11:0.526086 12:0.284725 13:-0.267109 14:0.733005 15:-0.0100405 16:0.573914 17:-0.274101 18:0.782921 19:0.0924241 20:0.488952 25:0.0419537 26:0.828505 27:0.658568 28:0.0934319 29:0.626454 30:-0.0541722 31:-0.0292884 32:0.849962 33:0.192583 34:0.195799 35:0.274593 36:-0.0340858 37:0.410366 38:0.364641 39:0.116453 40:0.735723 41:0.673667 42:0.291337 43:0.32138 44:0.526917 45:0.601928 46:-0.21523 47:-0.336549 48:0.411451 49:0.586998 50:0.464736 51:0.416177 52:0.268333 53:0.375392 54:0.397391 55:0.462336 56:0.393632 
0 0.2906028767753194 0 1:0.561206 2:0.425512 3:0.505835 4:0.471754 5:0.496224 6:0.458998 7:0.514318 8:0.471796 9:0.692454 10:0.485957 11:0.491254 12:0.420196 13:-0.136263 14:0.734202 15:-0.0950102 16:0.602128 17:-0.220771 18:0.811719 19:-0.0198958 20:0.47128 25:0.217505 26:0.24549 27:0.9618 28:-0.0957216 29:0.962722 30:-0.0880448 31:0.00239087 32:0.141882 33:0.192583 34:0.195799 35:0.274593 36:-0.0340858 37:0.465132 38:0.259282 39:-0.0256335 40:0.800294 41:0.73857 42:0.178997 43:0.224471 44:0.588489 45:0.601928 46:-0.21523 47:-0.336549 48:0.411451 49:0.633528 50:0.422542 51:0.325338 52:0.360214 53:0.430074 54:0.333538 55:0.411998 56:0.448791 
0 12.02703565358033 33.98221396592164 1:0.447799 2:0.550745 3:0.590699 4:0.371783 5:0.397788 6:0.576932 7:0.597726 8:0.371833 9:0.582625 10:0.617125 11:0.582943 12:0.296916 13:-0.287559 14:0.680518 15:0.0139335 16:0.631073 17:-0.323936 18:0.781384 19:0.0909963 20:0.475428 25:0.644433 26:-0.0234672 27:0.736351 28:-0.152148 29:0.81195 30:-0.0726695 31:0.553027 32:-0.161835 33:0.192583 34:0.195799 35:0.274593 36:-0.0340858 37:0.382717 38:0.344613 39:0.150027 40:0.758774 41:0.681185 42:0.294506 43:0.307111 44:0.527769 45:0.601928 46:-0.21523 47:-0.336549 48:0.411451 49:0.534113 50:0.506866 51:0.432821 52:0.278186 53:0.338104 54:0.42205 55:0.489955 56:0.372078 
15.99773409232145 63.25838313731435 0 1:0.445342 2:0.573789 3:0.583994 4:0.357913 5:0.395656 6:0.598632 7:0.591135 8:0.357963 9:0.575633 10:0.639468 11:0.576258 12:0.287046 13:-0.278597 14:0.682902 15:0.0382452 16:0.621734 17:-0.3183 18:0.773158 19:0.115893 20:0.484343 25:0.617745 26:-0.174477 27:0.715532 28:0.0452644 29:0.809021 30:-0.228009 31:0.498023 32:-0.0031982 33:0.192583 34:0.195799 35:0.274593 36:-0.0340858 37:0.382326 38:0.353679 39:0.164884 40:0.747474 41:0.672247 42:0.303607 43:0.319713 44:0.520963 45:0.601928 46:-0.21523 47:-0.336549 48:0.411451 49:0.531854 50:0.499495 51:0.445995 52:0.27227 53:0.335227 54:0.429113 55:0.489071 56:0.36855 
0 0 0.9135200244697109 1:0.56548 2:0.742448 3:0.403662 4:0.205043 5:0.499934 6:0.757461 7:0.413899 8:0.205105 9:0.650039 10:0.77932 11:0.425029 12:0.190441 13:-0.244655 14:0.765502 15:-0.100842 16:0.552399 17:-0.148336 18:0.711635 19:0.168726 20:0.597596 25:1 26:-0.0884455 27:-0.0148097 28:-0.55689 29:-0.0314727 30:-0.201687 31:0.949309 32:0.366711 33:0.192583 34:0.195799 35:0.274593 36:-0.0340858 37:0.300376 38:0.332261 39:0.350526 40:0.734439 41:0.665208 42:0.359731 43:0.352883 44:0.458472 45:0.601928 46:-0.21523 47:-0.336549 48:0.411451 49:0.875108 50:-0.28227 51:-0.269632 52:0.520935 53:0.595788 54:-0.226086 55:-0.146991 56:0.667975 
0 3.58982683549578 0 1:0.602412 2:0.762861 3:0.331929 4:0.199787 5:0.53199 6:0.776683 7:0.343397 8:0.19985 9:0.689584 10:0.799549 11:0.35245 12:0.187565 13:-0.544772 14:0.787395 15:-0.768824 16:-0.696875 17:-0.399236 18:0.805721 19:-0.486969 20:-0.837174 25:0.833157 26:-0.122342 27:-0.785983 28:-0.557349 29:-0.729492 30:-0.0273525 31:0.93282 32:0.173026 33:0.192583 34:0.195799 35:0.274593 36:-0.0340858 37:0.464878 38:0.255595 39:0.474348 40:0.59437 41:0.628648 42:0.369052 43:0.372517 44:0.468929 45:0.601928 46:-0.21523 47:-0.336549 48:0.411451 49:0.713219 50:-0.351275 51:-0.283431 52:0.747325 53:0.593121 54:-0.280634 55:-0.165849 56:0.66222 
0.7816774573506532 0 1.392823106214882 1:0.613238 2:0.748407 3:0.316127 4:0.227535 5:0.541387 6:0.763072 7:0.327867 8:0.227596 9:0.704656 10:0.782879 11:0.334833 12:0.214227 13:-0.581104 14:0.703165 15:-0.770595 16:-0.875893 17:-0.467759 18:0.711083 19:-0.501217 20:-0.987193 25:0.662249 26:-0.133871 27:-1 28:-0.578191 29:-0.9153 30:0.0319771 31:0.843101 32:0.135665 33:0.192583 34:0.195799 35:0.274593 36:-0.0340858 37:0.482776 38:0.233255 39:0.465225 40:0.60074 41:0.640964 42:0.361057 43:0.354727 44:0.47917 45:0.601928 46:-0.21523 47:-0.336549 48:0.411451 49:0.704918 50:-0.368099 51:-0.307757 52:0.75175 53:0.587128 54:-0.300898 55:-0.180377 56:0.662975 
1.270952355985971 2.440199148866522 1.572857897794306 1:0.622649 2:0.732928 3:0.305722 4:0.250722 5:0.549555 6:0.748495 7:0.317641 8:0.250781 9:0.71596 10:0.768121 11:0.320922 12:0.23696 13:-0.596551 14:0.634993 15:-0.759068 16:-0.998535 17:0.26104 18:-0.806435 19:0.354867 20:0.48052 25:-1 26:0.116809 27:0.687962 28:0.0738918 29:-0.91264 30:0.0484022 31:0.840509 32:0.149727 33:0.192583 34:0.195799 35:0.274593 36:-0.0340858 37:0.500365 38:0.227958 39:0.441555 40:0.604929 41:0.648707 42:0.350079 43:0.342335 44:0.490892 45:0.601928 46:-0.21523 47:-0.336549 48:0.411451 49:0.696083 50:-0.383712 51:-0.326347 52:0.756628 53:0.584812 54:-0.316686 55:-0.193518 56:0.660333 
0.2965285039073774 2.411292908922973 0 1:0.610745 2:0.672538 3:0.291696 4:0.372771 5:0.539223 6:0.691626 7:0.303855 8:0.37282 9:0.713594 10:0.703841 11:0.299852 12:0.354882 13:0.204904 14:-0.728981 15:0.291175 16:0.667864 17:0.329754 18:-0.654599 19:0.249643 20:0.678377 25:-0.948104 26:0.0535892 27:0.694903 28:0.225874 29:-0.907741 30:0.126077 31:0.856462 32:0.0493438 33:0.192583 34:0.195799 35:0.274593 36:-0.0340858 37:0.529772 38:0.240768 39:0.319261 40:0.643952 41:0.6723 42:0.287888 43:0.328852 44:0.525128 45:0.601928 46:-0.21523 47:-0.336549 48:0.411451 49:0.676098 50:-0.387856 51:-0.423692 52:0.760256 53:0.560439 54:-0.397792 55:-0.192676 56:0.663695 
0 0 0.845119927455687 1:0.46597 2:0.605571 3:0.429067 4:0.487497 5:0.413561 6:0.628562 7:0.438868 8:0.487537 9:0.581721 10:0.655798 11:0.42133 12:0.449972 13:0.300857 14:0.667295 15:-0.207781 16:0.576577 17:0.0695073 18:0.771738 19:0.615952 20:-0.255699 25:0.819341 26:0.312922 27:0.442849 28:-0.100472 29:-0.263929 30:-0.290613 31:0.902851 32:-0.965975 33:0.192583 34:0.195799 35:0.274593 36:-0.0340858 37:0.550472 38:0.314072 39:0.278539 40:0.591693 41:0.693203 42:0.324078 43:0.330076 44:0.477866 45:0.601928 46:-0.21523 47:-0.336549 48:0.411451 49:0.675949 50:0.297505 51:0.105741 52:0.580896 53:0.451044 54:0.204428 55:0.264365 56:0.622475 
8.416284605119747 0 0 1:0.416744 2:0.612344 3:0.51822 4:0.431192 5:0.370833 6:0.634939 7:0.526491 8:0.431237 9:0.52831 10:0.670279 11:0.512107 12:0.388954 13:-0.0157181 14:0.615336 15:-0.0602518 16:0.725386 17:-0.11873 18:0.879833 19:0.324979 20:0.124581 25:0.740216 26:0.0952062 27:0.632135 28:-0.207982 29:0.156274 30:-0.194931 31:0.945891 32:-0.716427 33:0.192583 34:0.195799 35:0.274593 36:-0.0340858 37:0.532168 38:0.370124 39:0.337789 40:0.526697 41:0.653224 42:0.369485 43:0.378154 44:0.439924 45:0.601928 46:-0.21523 47:-0.336549 48:0.411451 49:0.617859 50:0.295382 51:0.228818 52:0.584534 53:0.48125 54:0.312418 55:0.256721 56:0.536343 
0 82.78242282359459 0 1:0.432599 2:0.583719 3:0.552529 4:0.403967 5:0.384595 6:0.607983 7:0.56021 8:0.404014 9:0.549439 10:0.657684 11:0.53419 12:0.353954 13:-0.305442 14:0.731863 15:-0.0161647 16:0.570073 17:-0.239681 18:0.755869 19:0.136569 20:0.529532 25:0.679825 26:-0.0143487 27:0.706556 28:-0.262083 29:0.644572 30:-0.0137475 31:0.747852 32:-0.243894 33:0.192583 34:0.195799 35:0.274593 36:-0.0340858 37:0.535104 38:0.369169 39:0.359882 40:0.510008 41:0.656138 42:0.351793 43:0.411111 44:0.421605 45:0.601928 46:-0.21523 47:-0.336549 48:0.411451 49:0.644459 50:0.323883 51:0.221821 52:0.532877 53:0.466239 54:0.269598 55:0.310968 56:0.543114 
0.2154542041575532 0 0 1:0.591676 2:0.589167 3:0.428514 4:0.361915 5:0.522671 6:0.613114 7:0.438325 8:0.361965 9:0.699309 10:0.638165 11:0.423239 12:0.329548 13:0.416303 14:0.692274 15:0.141045 16:-0.969832 17:-0.486414 18:-0.660981 19:-0.554562 20:0.633548 25:0.796996 26:0.376413 27:-0.766371 28:-0.0987914 29:-1 30:-0.325756 31:0.74666 32:-0.542691 33:0.192583 34:0.195799 35:0.274593 36:-0.0340858 37:0.563971 38:0.280863 39:0.345365 40:0.566359 41:0.681499 42:0.316492 43:0.352894 44:0.477315 45:0.601928 46:-0.21523 47:-0.336549 48:0.411451 49:0.620553 50:0.214247 51:0.19055 52:0.655232 53:0.520183 54:0.19939 55:0.262323 56:0.561406 
0.4882621513855686 0 0 1:0.433581 2:0.622829 3:0.526755 4:0.391542 5:0.385448 6:0.644814 7:0.534879 8:0.39159 9:0.529025 10:0.669815 11:0.532546 12:0.363309 13:0.550215 14:0.76875 15:0.121925 16:-0.586518 17:-0.443891 18:-0.656862 19:-0.695214 20:0.538804 25:0.599686 26:0.781013 27:-0.304756 28:0.337997 29:0.342355 30:0.335148 31:-0.563801 32:0.812786 33:0.192583 34:0.195799 35:0.274593 36:-0.0340858 37:0.0216493 38:0.512081 39:0.846833 40:0.187321 41:0.313635 42:0.661383 43:0.580076 44:0.0162264 45:0.601928 46:-0.21523 47:-0.336549 48:0.411451 49:0.71687 50:-0.72758 51:-0.544822 52:0.49171 53:0.307542 54:-0.467262 55:-0.520002 56:0.709425 
0 2.917426580716388 0 1:0.458125 2:0.59371 3:0.510181 4:0.419766 5:0.406751 6:0.617392 7:0.51859 8:0.419812 9:0.56063 10:0.639855 11:0.513742 12:0.388492 13:0.580331 14:0.760738 15:0.112078 16:-0.547925 17:-0.440239 18:-0.636223 19:-0.719842 20:0.537105 25:0.663651 26:0.771225 27:-0.282527 28:0.222805 29:0.354935 30:0.313167 31:-0.629377 32:0.750604 33:0.192583 34:0.195799 35:0.274593 36:-0.0340858 37:0.0778322 38:0.517525 39:0.820199 40:0.194666 41:0.320225 42:0.616545 43:0.611603 44:0.0532383 45:0.601928 46:-0.21523 47:-0.336549 48:0.411451 49:0.707629 50:-0.725166 51:-0.558628 52:0.500774 53:0.357255 54:-0.490582 55:-0.511033 56:0.672748 
0 0 4.727297782734768 1:0.48275 2:0.583554 3:0.490442 4:0.428097 5:0.428126 6:0.607828 7:0.49919 8:0.428142 9:0.583398 10:0.626977 11:0.494399 12:0.401394 13:0.537795 14:0.795718 15:0.0923791 16:-0.53497 17:-0.432057 18:-0.680169 19:-0.676091 20:0.538676 25:0.652111 26:0.757186 27:-0.238296 28:0.293459 29:0.405722 30:0.310583 31:-0.560835 32:0.773648 33:0.192583 34:0.195799 35:0.274593 36:-0.0340858 37:0.106853 38:0.525625 39:0.794104 40:0.20844 41:0.308192 42:0.564065 43:0.649646 44:0.0945047 45:0.601928 46:-0.21523 47:-0.336549 48:0.411451 49:0.709297 50:-0.757972 51:-0.559957 52:0.468411 53:0.348696 54:-0.50691 55:-0.528753 56:0.660108 
-128 128 128 1:0.582984 2:0.539775 3:0.358106 4:0.49437 5:0.515127 6:0.5666 7:0.369125 8:0.494409 9:0.68272 10:0.573409 11:0.358959 12:0.482515 13:-0.507445 14:0.538462 15:0.378123 16:0.511185 17:-0.536454 18:0.618866 19:0.424358 20:0.414482 25:0.478992 26:-0.387103 27:0.586765 28:0.473953 29:0.560115 30:-0.442842 31:0.524982 32:0.427642 33:0.192583 34:0.195799 35:0.274593 36:-0.0340858 37:0.515896 38:0.335194 39:0.415752 40:0.523308 41:0.744405 42:0.356327 43:0.398731 44:0.32713 45:0.601928 46:-0.21523 47:-0.336549 48:0.411451 49:0.476314 50:0.428548 51:0.394195 52:0.505268 53:0.415031 54:0.479111 55:0.361484 56:0.374227 
-0.6939267480890148 0 0 1:0.480061 2:0.395524 3:-0.145377 4:0.865798 5:0.425792 6:0.430758 7:-0.125714 8:0.865808 9:0.743544 10:0.308829 11:-0.0692892 12:0.794105 13:0.604886 14:0.813199 15:-0.291266 16:-0.411722 17:-0.678695 18:-0.728281 19:-0.440798 20:0.482417 25:0.318102 26:0.211201 27:0.910524 28:0.0245661 29:0.661069 30:0.0926163 31:0.673405 32:0.134103 33:0.192583 34:0.195799 35:0.274593 36:-0.0340858 37:0.57992 38:0.292386 39:0.397592 40:0.504447 41:0.544446 42:0.209194 43:0.490267 44:0.540312 45:0.601928 46:-0.21523 47:-0.336549 48:0.411451 49:-0.0738315 50:0.759012 51:0.664518 52:-0.0877672 53:-0.184725 54:0.218139 55:0.931463 56:-0.118559 
-128 0 0 1:0.57813 2:0.541141 3:0.357229 4:0.499246 5:0.510914 6:0.567887 7:0.368263 8:0.499285 9:0.679869 10:0.574748 11:0.357867 12:0.485335 13:-0.502806 14:0.559321 15:0.387428 16:0.48 17:-0.529707 18:0.635748 19:0.437537 20:0.378571 25:0.507819 26:-0.367412 27:0.546329 28:0.506488 29:0.569997 30:-0.4536 31:0.497548 32:0.439566 33:0.192583 34:0.195799 35:0.274593 36:-0.0340858 37:0.519253 38:0.334142 39:0.417144 40:0.519751 41:0.74391 42:0.360338 43:0.395374 44:0.327356 45:0.601928 46:-0.21523 47:-0.336549 48:0.411451 49:0.475521 50:0.429364 51:0.39383 52:0.505798 53:0.418275 54:0.477522 55:0.363296 56:0.370649 
