Language model created by QuickLM on Sat Sep  7 04:39:37 EDT 2013
Copyright (c) 1996-2010 Carnegie Mellon University and Alexander I. Rudnicky

The model is in standard ARPA format, designed by Doug Paul while he was at MITRE.

The code that was used to produce this language model is available in Open Source.
Please visit http://www.speech.cs.cmu.edu/tools/ for more information

The (fixed) discount mass is 0.5. The backoffs are computed using the ratio method.
This model based on a corpus of 6 sentences and 8 words

\data\
ngram 1=8
ngram 2=12
ngram 3=6

\1-grams:
-0.7782 </s> -0.3010
-0.7782 <s> -0.2218
-1.5563 ANGRY -0.2218
-1.5563 HAPPY -0.2218
-1.5563 NO -0.2218
-1.5563 SAD -0.2218
-1.5563 SCARED -0.2218
-1.5563 YES -0.2218

\2-grams:
-1.0792 <s> ANGRY 0.0000
-1.0792 <s> HAPPY 0.0000
-1.0792 <s> NO 0.0000
-1.0792 <s> SAD 0.0000
-1.0792 <s> SCARED 0.0000
-1.0792 <s> YES 0.0000
-0.3010 ANGRY </s> -0.3010
-0.3010 HAPPY </s> -0.3010
-0.3010 NO </s> -0.3010
-0.3010 SAD </s> -0.3010
-0.3010 SCARED </s> -0.3010
-0.3010 YES </s> -0.3010

\3-grams:
-0.3010 <s> ANGRY </s>
-0.3010 <s> HAPPY </s>
-0.3010 <s> NO </s>
-0.3010 <s> SAD </s>
-0.3010 <s> SCARED </s>
-0.3010 <s> YES </s>

\end\
