svm_type c_svc
kernel_type rbf
gamma 0.5
nr_class 5
total_sv 98
rho -0.413254 0.361977 -0.206557 -0.265803 0.0886182 -0.36302 -0.404928 -0.515855 -0.544188 -0.0893664
label 5 6 7 8 9
nr_sv 22 35 29 8 4
SV
5.583448750239025 0 0 0 1:0.5 2:0.500002 3:0.5 4:0.499998 5:0.453959 6:0.467845 7:0.488001 8:0.580429 9:0.581869 10:0.495967 11:0.445661 12:0.465651 13:0.5 14:0.500002 15:0.5 16:0.499998 17:0.586136 18:-0.406436 19:-0.371061 20:0.594616 21:0.503587 22:-0.386077 23:-0.384696 24:0.670339 25:0.5 26:0.500002 27:0.5 28:0.499998 29:0.565808 30:0.436235 31:0.444244 32:0.540563 33:0.565808 34:0.436235 35:0.444244 36:0.540563 
0 0 0.01359521146988987 0 1:0.5 2:0.500002 3:0.5 4:0.499998 5:0.418941 6:0.51896 7:0.545543 8:0.507496 9:0.506871 10:0.507267 11:0.554092 12:0.422782 13:0.5 14:0.500002 15:0.5 16:0.499998 17:0.647485 18:-0.35475 19:-0.287177 20:0.610283 21:0.593455 22:-0.314521 23:-0.332618 24:0.662007 25:0.5 26:0.500002 27:0.5 28:0.499998 29:0.517766 30:0.506837 31:0.478841 32:0.495728 33:0.517766 34:0.506837 35:0.478841 36:0.495728 
0 0 0.008790392431724869 0 1:0.5 2:0.500002 3:0.5 4:0.499998 5:0.426055 6:0.515553 7:0.547149 8:0.503299 9:0.507315 10:0.502347 11:0.557732 12:0.423337 13:0.5 14:0.500002 15:0.5 16:0.499998 17:0.660645 18:-0.364218 19:-0.279101 20:0.594134 21:0.562834 22:-0.28449 23:-0.370681 24:0.68182 25:0.5 26:0.500002 27:0.5 28:0.499998 29:0.511996 30:0.497524 31:0.481465 32:0.50845 33:0.511996 34:0.497524 35:0.481465 36:0.50845 
0 0 0.6384348302582279 0 1:0.5 2:0.500002 3:0.5 4:0.499998 5:0.430894 6:0.509515 7:0.550306 8:0.501885 9:0.515319 10:0.502401 11:0.553914 12:0.418591 13:0.5 14:0.500002 15:0.5 16:0.499998 17:0.668447 18:-0.366536 19:-0.279162 20:0.583865 21:0.548538 22:-0.272215 23:-0.386417 24:0.6897 25:0.5 26:0.500002 27:0.5 28:0.499998 29:0.512244 30:0.492235 31:0.48109 32:0.513676 33:0.512244 34:0.492235 35:0.48109 36:0.513676 
4.653695125466859 0 0 0 1:0.5 2:0.500002 3:0.5 4:0.499998 5:0.508214 6:0.416456 7:0.445432 8:0.608172 9:0.643843 10:0.43353 11:0.410919 12:0.478187 13:0.5 14:0.500002 15:0.5 16:0.499998 17:0.558765 18:-0.528037 19:-0.403922 20:0.495788 21:0.482681 22:-0.474022 23:-0.465301 24:0.570804 25:0.5 26:0.500002 27:0.5 28:0.499998 29:0.623191 30:0.38819 31:0.353224 32:0.579805 33:0.623191 34:0.38819 35:0.353224 36:0.579805 
0.5610202211343034 1.656485522797946 0.1246340381976545 0.1915745241374389 1:0.5 2:0.500002 3:0.5 4:0.499998 5:0.530624 6:0.3927 7:0.420492 8:0.622424 9:0.66165 10:0.41415 11:0.38313 12:0.493873 13:0.5 14:0.500002 15:0.5 16:0.499998 17:-0.553562 18:0.558075 19:0.41347 20:-0.459527 21:0.431987 22:-0.469878 23:-0.50666 24:0.579566 25:0.5 26:0.500002 27:0.5 28:0.499998 29:0.632972 30:0.36738 31:0.326891 32:0.59793 33:0.632972 34:0.36738 35:0.326891 36:0.59793 
0 0 0.7161886104653555 0.5255092266690914 1:0.5 2:0.500002 3:0.5 4:0.499998 5:0.552775 6:0.385397 7:0.407732 8:0.616169 9:0.663571 10:0.400988 11:0.379747 12:0.504653 13:0.5 14:0.500002 15:0.5 16:0.499998 17:-0.554634 18:0.566469 19:0.42036 20:-0.441351 21:0.41311 22:-0.464841 23:-0.521812 24:0.583931 25:0.5 26:0.500002 27:0.5 28:0.499998 29:0.638125 30:0.359698 31:0.31564 32:0.603146 33:0.638125 34:0.359698 35:0.31564 36:0.603146 
0 0.1239693305330014 0.09817430778076409 0.2343188891324365 1:0.5 2:0.500002 3:0.5 4:0.499998 5:0.579896 6:0.369536 7:0.377368 8:0.620288 9:0.673741 10:0.374125 11:0.361754 12:0.524631 13:0.5 14:0.500002 15:0.5 16:0.499998 17:0.585194 18:-0.542723 19:-0.371963 20:0.473965 21:0.430059 22:-0.417671 23:-0.508385 24:0.618179 25:0.5 26:0.500002 27:0.5 28:0.499998 29:0.64265 30:0.320786 31:0.322827 32:0.616344 33:0.64265 34:0.320786 35:0.322827 36:0.616344 
20.77719343318973 0 0 0 1:0.5 2:0.500002 3:0.5 4:0.499998 5:0.585108 6:0.376609 7:0.365759 8:0.618089 9:0.680662 10:0.371283 11:0.356397 12:0.521372 13:0.5 14:0.500002 15:0.5 16:0.499998 17:0.561191 18:-0.530662 19:-0.394965 20:0.497459 21:0.476519 22:-0.465083 23:-0.4701 24:0.579339 25:0.5 26:0.500002 27:0.5 28:0.499998 29:0.644521 30:0.321576 31:0.32326 32:0.613747 33:0.644521 34:0.321576 35:0.32326 36:0.613747 
10.98748694371654 0 0 0 1:0.5 2:0.500002 3:0.5 4:0.499998 5:0.583917 6:0.387453 7:0.365753 8:0.612492 9:0.67386 10:0.372184 11:0.366482 12:0.522572 13:0.5 14:0.500002 15:0.5 16:0.499998 17:0.567797 18:-0.527236 19:-0.389436 20:0.497965 21:0.457429 22:-0.441483 23:-0.484022 24:0.60131 25:0.5 26:0.500002 27:0.5 28:0.499998 29:0.638753 30:0.323021 31:0.336822 32:0.611722 33:0.638753 34:0.323021 35:0.336822 36:0.611722 
4.779986695537191 0 0 0 1:0.5 2:0.500002 3:0.5 4:0.499998 5:0.575837 6:0.392242 7:0.364527 8:0.617801 9:0.677594 10:0.370613 11:0.367959 12:0.517801 13:0.5 14:0.500002 15:0.5 16:0.499998 17:0.565475 18:-0.527701 19:-0.386138 20:0.502661 21:0.461833 22:-0.442712 23:-0.482151 24:0.598538 25:0.5 26:0.500002 27:0.5 28:0.499998 29:0.647167 30:0.333791 31:0.326858 32:0.60243 33:0.647167 34:0.333791 35:0.326858 36:0.60243 
0 0 0 0.3438036718219922 1:0.5 2:0.500002 3:0.5 4:0.499998 5:0.350344 6:0.509715 7:0.598218 8:0.509495 9:0.513588 10:0.532322 11:0.565848 12:0.364249 13:0.5 14:0.500002 15:0.5 16:0.499998 17:0.671571 18:-0.388365 19:-0.277983 20:0.566472 21:0.529235 22:-0.286813 23:-0.394851 24:0.694076 25:0.5 26:0.500002 27:0.5 28:0.499998 29:0.490846 30:0.56556 31:0.483833 32:0.452899 33:0.490846 34:0.56556 35:0.483833 36:0.452899 
0 0.5532885509754741 0 0 1:0.5 2:0.500002 3:0.5 4:0.499998 5:0.341421 6:0.521936 7:0.607358 8:0.492068 9:0.498948 10:0.542605 11:0.577609 12:0.350711 13:0.5 14:0.500002 15:0.5 16:0.499998 17:0.631214 18:-0.40446 19:-0.354245 20:0.55901 21:0.547585 22:-0.374905 23:-0.38175 24:0.643323 25:0.5 26:0.500002 27:0.5 28:0.499998 29:0.479223 30:0.568709 31:0.49719 32:0.446897 33:0.479223 34:0.568709 35:0.49719 36:0.446897 
0 1.475442945472084 0 0 1:0.5 2:0.500002 3:0.5 4:0.499998 5:0.33251 6:0.516902 7:0.611854 8:0.49788 9:0.501098 10:0.542495 11:0.577013 12:0.348792 13:0.5 14:0.500002 15:0.5 16:0.499998 17:0.635778 18:-0.407183 19:-0.349365 20:0.554917 21:0.53822 22:-0.362773 23:-0.391637 24:0.652178 25:0.5 26:0.500002 27:0.5 28:0.499998 29:0.475371 30:0.558635 31:0.502598 32:0.457542 33:0.475371 34:0.558635 35:0.502598 36:0.457542 
32 0 0 0 1:0.5 2:0.500002 3:0.5 4:0.499998 5:0.42446 6:0.47382 7:0.531555 8:0.559265 9:0.583876 10:0.493095 11:0.494079 12:0.414527 13:0.5 14:0.500002 15:0.5 16:0.499998 17:0.61211 18:-0.427277 19:-0.348364 20:0.56692 21:0.577096 22:-0.421122 23:-0.356895 24:0.601866 25:0.5 26:0.500002 27:0.5 28:0.499998 29:0.534965 30:0.461129 31:0.463057 32:0.535492 33:0.534965 34:0.461129 35:0.463057 36:0.535492 
4.650219817339834 0 0 0 1:0.5 2:0.500002 3:0.5 4:0.499998 5:0.427844 6:0.467922 7:0.532882 8:0.560388 9:0.584854 10:0.494223 11:0.4899 12:0.416758 13:0.5 14:0.500002 15:0.5 16:0.499998 17:0.609496 18:-0.425806 19:-0.356052 20:0.566066 21:0.576206 22:-0.427294 23:-0.356191 24:0.598778 25:0.5 26:0.500002 27:0.5 28:0.499998 29:0.536151 30:0.457889 31:0.460068 32:0.539646 33:0.536151 34:0.457889 35:0.460068 36:0.539646 
32 0 0 0 1:0.5 2:0.500002 3:0.5 4:0.499998 5:0.429433 6:0.464331 7:0.527312 8:0.567385 9:0.592677 10:0.488515 11:0.484624 12:0.418601 13:0.5 14:0.500002 15:0.5 16:0.499998 17:0.608952 18:-0.43727 19:-0.354922 20:0.558572 21:0.57029 22:-0.430272 23:-0.364593 24:0.59725 25:0.5 26:0.500002 27:0.5 28:0.499998 29:0.544279 30:0.455058 31:0.457873 32:0.535757 33:0.544279 34:0.455058 35:0.457873 36:0.535757 
32 0 0 0 1:0.5 2:0.500002 3:0.5 4:0.499998 5:0.43317 6:0.465207 7:0.525201 8:0.565782 9:0.592125 10:0.489262 11:0.483068 12:0.420305 13:0.5 14:0.500002 15:0.5 16:0.499998 17:0.608547 18:-0.439026 19:-0.35468 20:0.55779 21:0.567888 22:-0.429994 23:-0.36657 24:0.598527 25:0.5 26:0.500002 27:0.5 28:0.499998 29:0.543814 30:0.453077 31:0.456105 32:0.539403 33:0.543814 34:0.453077 35:0.456105 36:0.539403 
6.567247977125043 0 0 0 1:0.5 2:0.500002 3:0.5 4:0.499998 5:0.545481 6:0.503826 7:0.471613 8:0.475596 9:0.550783 10:0.467999 11:0.505186 12:0.471596 13:0.5 14:0.500002 15:0.5 16:0.499998 17:0.547447 18:-0.361802 19:-0.449271 20:0.606264 21:0.604231 22:-0.478886 23:-0.344252 24:0.535783 25:0.5 26:0.500002 27:0.5 28:0.499998 29:0.519502 30:0.411162 31:0.461689 32:0.589837 33:0.519502 34:0.411162 35:0.461689 36:0.589837 
0 0 0.3784991506150999 0 1:0.5 2:0.500002 3:0.5 4:0.499998 5:0.526648 6:0.547286 7:0.48365 8:0.434974 9:0.491511 10:0.491873 11:0.539148 12:0.475181 13:0.5 14:0.500002 15:0.5 16:0.499998 17:0.549385 18:-0.305912 19:-0.434853 20:0.64459 21:0.612669 22:-0.463782 23:-0.301837 24:0.564303 25:0.5 26:0.500002 27:0.5 28:0.499998 29:0.475183 30:0.433988 31:0.513889 32:0.567251 33:0.475183 34:0.433988 35:0.513889 36:0.567251 
0 0 0 0.2829197081246893 1:0.5 2:0.500002 3:0.5 4:0.499998 5:0.529942 6:0.551988 7:0.478898 8:0.430264 9:0.489982 10:0.488814 11:0.542555 12:0.476038 13:0.5 14:0.500002 15:0.5 16:0.499998 17:0.539479 18:-0.296297 19:-0.440876 20:0.653298 21:0.622864 22:-0.469506 23:-0.298198 24:0.550166 25:0.5 26:0.500002 27:0.5 28:0.499998 29:0.494558 30:0.452255 31:0.502031 32:0.546665 33:0.494558 34:0.452255 35:0.502031 36:0.546665 
0 0.2401059260163819 0 0 1:0.5 2:0.500002 3:0.5 4:0.499998 5:0.61907 6:0.445684 7:0.413914 8:0.496783 9:0.590943 10:0.394368 11:0.46244 12:0.53048 13:0.5 14:0.500002 15:0.5 16:0.499998 17:0.50893 18:-0.416359 19:-0.507526 20:0.556824 21:0.592508 22:-0.5474 23:-0.383867 24:0.449371 25:0.5 26:0.500002 27:0.5 28:0.499998 29:0.591629 30:0.410964 31:0.367667 32:0.588137 33:0.591629 34:0.410964 35:0.367667 36:0.588137 
-32 0.6882752413926227 0 0 1:0.5 2:0.500002 3:0.5 4:0.499998 5:0.489051 6:0.47591 7:0.419884 8:0.598361 9:0.628383 10:0.426306 11:0.443917 12:0.475747 13:0.5 14:0.500002 15:0.5 16:0.499998 17:0.528197 18:-0.490007 19:-0.399251 20:0.56701 21:0.533489 22:-0.463754 23:-0.428761 24:0.562571 25:0.5 26:0.500002 27:0.5 28:0.499998 29:0.590425 30:0.308485 31:0.494189 32:0.558581 33:0.590425 34:0.308485 35:0.494189 36:0.558581 
-9.198487564363752 0 0 0 1:0.5 2:0.500002 3:0.5 4:0.499998 5:0.439009 6:0.516386 7:0.475364 8:0.560932 9:0.590177 10:0.478669 11:0.486455 12:0.431194 13:0.5 14:0.500002 15:0.5 16:0.499998 17:0.550481 18:-0.411836 19:-0.376862 20:0.620755 21:0.568371 22:-0.415217 23:-0.37284 24:0.604599 25:0.5 26:0.500002 27:0.5 28:0.499998 29:0.504263 30:0.331433 31:0.590192 32:0.536231 33:0.504263 34:0.331433 35:0.590192 36:0.536231 
-0 0 0.5004945558548665 0.2351213195613118 1:0.5 2:0.500002 3:0.5 4:0.499998 5:0.293314 6:0.568031 7:0.599313 8:0.4818 9:0.470353 10:0.555065 11:0.600903 12:0.331039 13:0.5 14:0.500002 15:0.5 16:0.499998 17:0.646408 18:-0.323899 19:-0.233471 20:0.650182 21:0.611555 22:-0.273399 23:-0.293847 24:0.681841 25:0.5 26:0.500002 27:0.5 28:0.499998 29:0.450404 30:0.275032 31:0.724082 32:0.44407 33:0.450404 34:0.275032 35:0.724082 36:0.44407 
-0 0 0.211015602562463 0 1:0.5 2:0.500002 3:0.5 4:0.499998 5:0.329975 6:0.569765 7:0.579592 8:0.480164 9:0.493437 10:0.543809 11:0.589708 12:0.336208 13:0.5 14:0.500002 15:0.5 16:0.499998 17:0.63233 18:-0.307205 19:-0.272851 20:0.656762 21:0.598584 22:-0.286203 23:-0.295656 24:0.687293 25:0.5 26:0.500002 27:0.5 28:0.499998 29:0.431584 30:0.316852 31:0.692762 32:0.483137 33:0.431584 34:0.316852 35:0.692762 36:0.483137 
-0 0 0.2753552852451941 0.3451537270191161 1:0.5 2:0.500002 3:0.5 4:0.499998 5:0.526521 6:0.548131 7:0.3348 8:0.556989 9:0.619301 10:0.425026 11:0.451558 12:0.481575 13:0.5 14:0.500002 15:0.5 16:0.499998 17:0.451106 18:-0.414312 19:-0.447063 20:0.651908 21:0.561197 22:-0.45108 23:-0.406289 24:0.562596 25:0.5 26:0.500002 27:0.5 28:0.499998 29:0.557108 30:0.189014 31:0.557103 32:0.586123 33:0.557108 34:0.189014 35:0.557103 36:0.586123 
-32 0 0 0 1:0.5 2:0.500002 3:0.5 4:0.499998 5:0.427631 6:0.478593 7:0.513424 8:0.569628 9:0.601789 10:0.479411 11:0.481532 12:0.419692 13:0.5 14:0.500002 15:0.5 16:0.499998 17:0.586331 18:-0.453516 19:-0.324889 20:0.587356 21:0.579862 22:-0.405713 23:-0.380442 24:0.595332 25:0.5 26:0.500002 27:0.5 28:0.499998 29:0.590824 30:0.398398 31:0.419168 32:0.562587 33:0.590824 34:0.398398 35:0.419168 36:0.562587 
-14.00697715926051 0 0 0 1:0.5 2:0.500002 3:0.5 4:0.499998 5:0.417417 6:0.477355 7:0.522487 8:0.570002 9:0.611212 10:0.487733 11:0.473757 12:0.405082 13:0.5 14:0.500002 15:0.5 16:0.499998 17:0.591018 18:-0.458839 19:-0.308454 20:0.587384 21:0.580679 22:-0.393062 23:-0.386952 24:0.598817 25:0.5 26:0.500002 27:0.5 28:0.499998 29:0.597016 30:0.396309 31:0.402668 32:0.569535 33:0.597016 34:0.396309 35:0.402668 36:0.569535 
-32 0 0 0 1:0.5 2:0.500002 3:0.5 4:0.499998 5:0.42856 6:0.470637 7:0.516477 8:0.57279 9:0.616687 10:0.4802 11:0.46994 12:0.410196 13:0.5 14:0.500002 15:0.5 16:0.499998 17:0.588679 18:-0.463907 19:-0.319349 20:0.579882 21:0.580212 22:-0.403075 23:-0.390814 24:0.590042 25:0.5 26:0.500002 27:0.5 28:0.499998 29:0.604927 30:0.389367 31:0.38559 32:0.577735 33:0.604927 34:0.389367 35:0.38559 36:0.577735 
-32 0.116245671605495 0 0.0369812010938022 1:0.5 2:0.500002 3:0.5 4:0.499998 5:0.44057 6:0.455417 7:0.514035 8:0.578153 9:0.624209 10:0.476839 11:0.457975 12:0.416229 13:0.5 14:0.500002 15:0.5 16:0.499998 17:0.588862 18:-0.474043 19:-0.329655 20:0.565554 21:0.567765 22:-0.419614 23:-0.395117 24:0.58775 25:0.5 26:0.500002 27:0.5 28:0.499998 29:0.600232 30:0.392439 31:0.387711 32:0.579131 33:0.600232 34:0.392439 35:0.387711 36:0.579131 
-0 0 0.2513957008130614 0.2056728958591768 1:0.5 2:0.500002 3:0.5 4:0.499998 5:-0.381633 6:0.67884 7:0.559431 8:-0.283848 9:-0.294064 10:0.508808 11:0.717566 12:-0.373817 13:0.5 14:0.500002 15:0.5 16:0.499998 17:0.590831 18:-0.478953 19:-0.31806 20:0.566004 21:0.572526 22:-0.409234 23:-0.402263 24:0.585599 25:0.5 26:0.500002 27:0.5 28:0.499998 29:0.606992 30:0.386789 31:0.384156 32:0.578255 33:0.606992 34:0.386789 35:0.384156 36:0.578255 
-0 4.243304314530296 0 0 1:0.5 2:0.500002 3:0.5 4:0.499998 5:-0.375268 6:0.679284 7:0.565033 8:-0.280152 9:-0.292417 10:0.512569 11:0.720463 12:-0.364278 13:0.5 14:0.500002 15:0.5 16:0.499998 17:0.590733 18:-0.486993 19:-0.318625 20:0.558883 21:0.565346 22:-0.407471 23:-0.416086 24:0.584144 25:0.5 26:0.500002 27:0.5 28:0.499998 29:0.601676 30:0.384201 31:0.391061 32:0.580902 33:0.601676 34:0.384201 35:0.391061 36:0.580902 
-0 32 0 0 1:0.5 2:0.500002 3:0.5 4:0.499998 5:-0.367213 6:0.68769 7:0.566995 8:-0.265996 9:-0.281216 10:0.507949 11:0.732385 12:-0.355692 13:0.5 14:0.500002 15:0.5 16:0.499998 17:0.576908 18:-0.503913 19:-0.33597 20:0.548063 21:0.561978 22:-0.433718 23:-0.420423 24:0.565079 25:0.5 26:0.500002 27:0.5 28:0.499998 29:0.620227 30:0.362924 31:0.356333 32:0.597186 33:0.620227 34:0.362924 35:0.356333 36:0.597186 
-0 24.83196050325344 0 0 1:0.5 2:0.500002 3:0.5 4:0.499998 5:-0.359535 6:0.686226 7:0.571919 8:-0.269699 9:-0.274508 10:0.508683 11:0.734329 12:-0.355877 13:0.5 14:0.500002 15:0.5 16:0.499998 17:0.57022 18:-0.514759 19:-0.337701 20:0.543903 21:0.55046 22:-0.429263 23:-0.442402 24:0.563034 25:0.5 26:0.500002 27:0.5 28:0.499998 29:0.615704 30:0.362364 31:0.368376 32:0.594895 33:0.615704 34:0.362364 35:0.368376 36:0.594895 
-0 6.430400215501617 0 0 1:0.5 2:0.500002 3:0.5 4:0.499998 5:0.0278906 6:0.815871 7:0.576793 8:-0.029777 9:0.0347728 10:0.63427 11:0.772035 12:-0.0213402 13:0.5 14:0.500002 15:0.5 16:0.499998 17:0.424933 18:-0.55929 19:-0.366484 20:0.610177 21:0.499326 22:-0.48571 23:-0.460861 24:0.549878 25:0.5 26:0.500002 27:0.5 28:0.499998 29:0.708614 30:0.159414 31:0.50325 32:0.468181 33:0.708614 34:0.159414 35:0.50325 36:0.468181 
-0 0 0 0.1389122778366061 1:0.5 2:0.500002 3:0.5 4:0.499998 5:-0.161759 6:0.826841 7:0.521039 8:-0.136699 9:-0.112859 10:0.630613 11:0.746643 12:-0.179208 13:0.5 14:0.500002 15:0.5 16:0.499998 17:0.434581 18:-0.489159 19:-0.290386 20:0.69824 21:0.540893 22:-0.401122 23:-0.401162 24:0.620971 25:0.5 26:0.500002 27:0.5 28:0.499998 29:0.585384 30:0.217101 31:0.699084 32:0.348531 33:0.585384 34:0.217101 35:0.699084 36:0.348531 
-0 0 0.005803614848890893 0 1:0.5 2:0.500002 3:0.5 4:0.499998 5:-0.167719 6:0.822189 7:0.525877 8:-0.139026 9:-0.118277 10:0.626518 11:0.748343 12:-0.182944 13:0.5 14:0.500002 15:0.5 16:0.499998 17:0.441642 18:-0.464274 19:-0.296504 20:0.708158 21:0.545175 22:-0.388649 23:-0.388956 24:0.632811 25:0.5 26:0.500002 27:0.5 28:0.499998 29:0.562812 30:0.209114 31:0.712944 32:0.36225 33:0.562812 34:0.209114 35:0.712944 36:0.36225 
-0 6.05713861364777 0 0 1:0.5 2:0.500002 3:0.5 4:0.499998 5:-0.0437398 6:0.79035 7:0.610272 8:-0.0316633 9:-0.0193604 10:0.628724 11:0.774847 12:-0.0627999 13:0.5 14:0.500002 15:0.5 16:0.499998 17:0.474627 18:-0.547321 19:-0.392892 20:0.566396 21:0.525203 22:-0.499878 23:-0.44455 24:0.525984 25:0.5 26:0.500002 27:0.5 28:0.499998 29:0.617918 30:0.228064 31:0.522211 32:0.54172 33:0.617918 34:0.228064 35:0.522211 36:0.54172 
-0 22.7206920318532 0 0 1:0.5 2:0.500002 3:0.5 4:0.499998 5:-0.121239 6:0.754771 7:0.642074 8:-0.0579838 9:-0.0701934 10:0.612815 11:0.776292 12:-0.130004 13:0.5 14:0.500002 15:0.5 16:0.499998 17:0.550228 18:-0.480639 19:-0.410167 20:0.545892 21:0.528529 22:-0.466533 23:-0.426301 24:0.566809 25:0.5 26:0.500002 27:0.5 28:0.499998 29:0.555768 30:0.363464 31:0.509103 32:0.547568 33:0.555768 34:0.363464 35:0.509103 36:0.547568 
-0 32 0 0 1:0.5 2:0.500002 3:0.5 4:0.499998 5:-0.126223 6:0.756445 7:0.637949 8:-0.0698526 9:-0.0798769 10:0.613777 11:0.774002 12:-0.133483 13:0.5 14:0.500002 15:0.5 16:0.499998 17:0.549372 18:-0.471958 19:-0.405133 20:0.557954 21:0.534496 22:-0.461387 23:-0.417258 24:0.57213 25:0.5 26:0.500002 27:0.5 28:0.499998 29:0.559059 30:0.374463 31:0.495972 32:0.548856 33:0.559059 34:0.374463 35:0.495972 36:0.548856 
-0 1.979510487068431 0.1586787058835148 0.2000428519433262 1:0.5 2:0.500002 3:0.5 4:0.499998 5:-0.0807054 6:0.650657 7:0.755057 8:-0.00453359 9:0.000785396 10:0.608704 11:0.784384 12:-0.119249 13:0.5 14:0.500002 15:0.5 16:0.499998 17:0.56414 18:-0.473199 19:-0.508109 20:0.446826 21:-0.515269 22:0.521489 23:0.465629 24:-0.495718 25:0.5 26:0.500002 27:0.5 28:0.499998 29:0.45768 30:0.419518 31:0.323663 32:0.713986 33:0.45768 34:0.419518 35:0.323663 36:0.713986 
-0 7.163129994518764 0 0 1:0.5 2:0.500002 3:0.5 4:0.499998 5:-0.087703 6:0.637977 7:0.764928 8:0.0133233 9:0.00435546 10:0.610816 11:0.783579 12:-0.113525 13:0.5 14:0.500002 15:0.5 16:0.499998 17:0.573103 18:-0.474252 19:-0.512297 20:0.429173 21:-0.511584 22:0.523248 23:0.469334 24:-0.494184 25:0.5 26:0.500002 27:0.5 28:0.499998 29:0.480611 30:0.432924 31:0.282819 32:0.70824 33:0.480611 34:0.432924 35:0.282819 36:0.70824 
-0 4.307493780639139 0 0 1:0.5 2:0.500002 3:0.5 4:0.499998 5:-0.0865878 6:0.631845 7:0.769692 8:0.0291175 9:0.0151264 10:0.612574 11:0.782792 12:-0.10845 13:0.5 14:0.500002 15:0.5 16:0.499998 17:0.576545 18:-0.488428 19:-0.509874 20:0.411171 21:-0.504985 22:0.526742 23:0.475812 24:-0.491057 25:0.5 26:0.500002 27:0.5 28:0.499998 29:0.4847 30:0.434609 31:0.275377 32:0.707353 33:0.4847 34:0.434609 35:0.275377 36:0.707353 
-0 0 0.2413885649129237 0 1:0.5 2:0.500002 3:0.5 4:0.499998 5:-0.174731 6:0.523357 7:0.813405 8:-0.184223 9:-0.143797 10:0.580287 11:0.769392 12:-0.225001 13:0.5 14:0.500002 15:0.5 16:0.499998 17:0.661316 18:-0.253964 19:-0.495538 20:0.502598 21:0.590215 22:-0.410976 23:-0.364387 24:0.59158 25:0.5 26:0.500002 27:0.5 28:0.499998 29:0.238764 30:0.433536 31:0.37731 32:0.782736 33:0.238764 34:0.433536 35:0.37731 36:0.782736 
-0 0 0 0.1394586481691787 1:0.5 2:0.500002 3:0.5 4:0.499998 5:-0.169521 6:0.51372 7:0.821298 8:-0.181174 9:-0.137243 10:0.58309 11:0.769015 12:-0.223129 13:0.5 14:0.500002 15:0.5 16:0.499998 17:0.661625 18:-0.247959 19:-0.505737 20:0.494974 21:0.5857 22:-0.40444 23:-0.372053 24:0.595785 25:0.5 26:0.500002 27:0.5 28:0.499998 29:0.247292 30:0.440891 31:0.36704 32:0.780861 33:0.247292 34:0.440891 35:0.36704 36:0.780861 
-0.06734957519603388 0 0 0 1:0.5 2:0.500002 3:0.5 4:0.499998 5:-0.164994 6:0.508748 7:0.830906 8:-0.153453 9:-0.130533 10:0.598452 11:0.766709 12:-0.192285 13:0.5 14:0.500002 15:0.5 16:0.499998 17:0.663784 18:-0.269556 19:-0.51031 20:0.475724 21:0.582211 22:-0.418295 23:-0.384345 24:0.581668 25:0.5 26:0.500002 27:0.5 28:0.499998 29:0.24339 30:0.460339 31:0.370185 32:0.769294 33:0.24339 34:0.460339 35:0.370185 36:0.769294 
-0 0 0.281238553577596 0 1:0.5 2:0.500002 3:0.5 4:0.499998 5:-0.0549777 6:0.512956 7:0.856049 8:0.0321621 9:0.0243505 10:0.623759 11:0.780063 12:-0.0428256 13:0.5 14:0.500002 15:0.5 16:0.499998 17:0.612442 18:-0.425498 19:-0.578714 20:0.330085 21:-0.496805 22:0.540631 23:0.493401 24:-0.466324 25:0.5 26:0.500002 27:0.5 28:0.499998 29:0.417105 30:0.432377 31:0.270419 32:0.752295 33:0.417105 34:0.432377 35:0.270419 36:0.752295 
-0 32 0 0 1:0.5 2:0.500002 3:0.5 4:0.499998 5:-0.141159 6:0.676682 7:0.722564 8:-0.00879693 9:-0.0537634 10:0.592636 11:0.78863 12:-0.154771 13:0.5 14:0.500002 15:0.5 16:0.499998 17:0.592159 18:-0.441969 19:-0.453507 20:0.49834 21:0.555234 22:-0.460499 23:-0.435628 24:0.538409 25:0.5 26:0.500002 27:0.5 28:0.499998 29:0.533597 30:0.455536 31:0.449119 32:0.553221 33:0.533597 34:0.455536 35:0.449119 36:0.553221 
-0 14.82778350665604 0 0 1:0.5 2:0.500002 3:0.5 4:0.499998 5:-0.153415 6:0.680735 7:0.716261 8:-0.00577208 9:-0.057548 10:0.593649 11:0.785149 12:-0.166762 13:0.5 14:0.500002 15:0.5 16:0.499998 17:0.598508 18:-0.445774 19:-0.439634 20:0.499795 21:0.554086 22:-0.448051 23:-0.435832 24:0.549809 25:0.5 26:0.500002 27:0.5 28:0.499998 29:0.544699 30:0.446058 31:0.456556 32:0.54396 33:0.544699 34:0.446058 35:0.456556 36:0.54396 
-0 32 0 0 1:0.5 2:0.500002 3:0.5 4:0.499998 5:-0.146765 6:0.687916 7:0.71069 8:-0.0122906 9:-0.0606621 10:0.596809 11:0.784486 12:-0.157232 13:0.5 14:0.500002 15:0.5 16:0.499998 17:0.591881 18:-0.449518 19:-0.43529 20:0.508067 21:0.558039 22:-0.452555 23:-0.431843 24:0.54525 25:0.5 26:0.500002 27:0.5 28:0.499998 29:0.532575 30:0.447319 31:0.467327 32:0.545779 33:0.532575 34:0.447319 35:0.467327 36:0.545779 
-0 24.24177525695484 0 0 1:0.5 2:0.500002 3:0.5 4:0.499998 5:-0.14291 6:0.627859 7:0.764655 8:-0.0259463 9:-0.0854702 10:0.627807 11:0.767188 12:-0.0998831 13:0.5 14:0.500002 15:0.5 16:0.499998 17:0.623507 18:-0.40365 19:-0.476149 20:0.470732 21:0.563133 22:-0.477051 23:-0.413202 24:0.533449 25:0.5 26:0.500002 27:0.5 28:0.499998 29:0.46644 30:0.503825 31:0.371147 32:0.625175 33:0.46644 34:0.503825 35:0.371147 36:0.625175 
-0 0 0 0.1399771572624187 1:0.5 2:0.500002 3:0.5 4:0.499998 5:-0.062457 6:0.507306 7:0.857317 8:0.061219 9:0.0516971 10:0.616879 11:0.783765 12:-0.049993 13:0.5 14:0.500002 15:0.5 16:0.499998 17:0.622593 18:-0.425755 19:-0.573046 20:0.320513 21:-0.498476 22:0.535485 23:0.489451 24:-0.474569 25:0.5 26:0.500002 27:0.5 28:0.499998 29:0.419517 30:0.498735 31:0.203411 32:0.73068 33:0.419517 34:0.498735 35:0.203411 36:0.73068 
-0.5628368646737455 0 0.2488326319494203 0.2097291843679495 1:0.5 2:0.500002 3:0.5 4:0.499998 5:-0.0543242 6:0.581265 7:0.809899 8:0.0569601 9:0.0445665 10:0.618141 11:0.7827 12:-0.057404 13:0.5 14:0.500002 15:0.5 16:0.499998 17:0.591003 18:-0.471441 19:-0.543979 20:0.364068 21:-0.497373 22:0.538095 23:0.489612 24:-0.472603 25:0.5 26:0.500002 27:0.5 28:0.499998 29:0.348465 30:0.532363 31:0.16003 32:0.754687 33:0.348465 34:0.532363 35:0.16003 36:0.754687 
-0.7307894584936452 0 0.001523965598409047 0.01407903242865194 1:0.5 2:0.500002 3:0.5 4:0.499998 5:-0.107069 6:0.5093 7:0.85088 8:0.0717852 9:0.0316978 10:0.622641 11:0.77947 12:-0.0611523 13:0.5 14:0.500002 15:0.5 16:0.499998 17:0.645709 18:-0.408368 19:-0.552881 20:0.332593 21:-0.517209 22:0.521667 23:0.463591 24:-0.495421 25:0.5 26:0.500002 27:0.5 28:0.499998 29:0.409027 30:0.515904 31:0.271654 32:0.701957 33:0.409027 34:0.515904 35:0.271654 36:0.701957 
-1.993858341760848 0 0 0 1:0.5 2:0.500002 3:0.5 4:0.499998 5:-0.127852 6:0.516729 7:0.844739 8:0.0553271 9:0.00660707 10:0.614739 11:0.784221 12:-0.083959 13:0.5 14:0.500002 15:0.5 16:0.499998 17:0.660973 18:-0.402449 19:-0.532079 20:0.343571 21:0.533668 22:-0.501369 23:-0.449008 24:0.512073 25:0.5 26:0.500002 27:0.5 28:0.499998 29:0.400532 30:0.513694 31:0.293906 32:0.699508 33:0.400532 34:0.513694 35:0.293906 36:0.699508 
-0 0 0 0.04486020392426579 1:0.5 2:0.500002 3:0.5 4:0.499998 5:-0.0691734 6:0.674967 7:0.734597 8:-0.00157601 9:0.0136313 10:0.602247 11:0.787962 12:-0.127388 13:0.5 14:0.500002 15:0.5 16:0.499998 17:0.567195 18:-0.501431 19:-0.460595 20:0.463366 21:0.511434 22:-0.469901 23:-0.486616 24:0.529937 25:0.5 26:0.500002 27:0.5 28:0.499998 29:0.144337 30:0.346692 31:0.321123 32:0.869397 33:0.144337 34:0.346692 35:0.321123 36:0.869397 
-1.132471296124117 -0.737895461957366 0.3881475564758394 0.2831423127184631 1:0.5 2:0.500002 3:0.5 4:0.499998 5:-0.0646915 6:0.72752 7:0.68258 8:0.02479 9:-0.0185664 10:0.625842 11:0.776662 12:-0.0690933 13:0.5 14:0.500002 15:0.5 16:0.499998 17:-0.533468 18:0.538828 19:0.454472 20:-0.467473 21:0.504854 22:-0.526752 23:-0.466153 24:0.500356 25:0.5 26:0.500002 27:0.5 28:0.499998 29:0.622358 30:0.394286 31:0.402917 32:0.543016 33:0.622358 34:0.394286 35:0.402917 36:0.543016 
-0 -0 0 0.2486953398493242 1:0.5 2:0.500002 3:0.5 4:0.499998 5:-0.0710222 6:0.726628 7:0.682843 8:0.0263388 9:-0.0242229 10:0.624868 11:0.777297 12:-0.0690134 13:0.5 14:0.500002 15:0.5 16:0.499998 17:0.54008 18:-0.539981 19:-0.449173 20:0.463657 21:0.505567 22:-0.522119 23:-0.46666 24:0.504007 25:0.5 26:0.500002 27:0.5 28:0.499998 29:0.625977 30:0.393374 31:0.394265 32:0.545861 33:0.625977 34:0.393374 35:0.394265 36:0.545861 
-0 -23.98216151301815 0 0 1:0.5 2:0.500002 3:0.5 4:0.499998 5:-0.0847649 6:0.723478 7:0.685077 8:0.00798838 9:-0.0386105 10:0.625678 11:0.774671 12:-0.0831935 13:0.5 14:0.500002 15:0.5 16:0.499998 17:0.550743 18:-0.527224 19:-0.439534 20:0.474897 21:0.516822 22:-0.508268 23:-0.457272 24:0.515229 25:0.5 26:0.500002 27:0.5 28:0.499998 29:0.61511 30:0.403329 31:0.402487 32:0.54495 33:0.61511 34:0.403329 35:0.402487 36:0.54495 
-0 -0 0.3163239983900619 0 1:0.5 2:0.500002 3:0.5 4:0.499998 5:-0.0741564 6:0.725665 7:0.683622 8:0.0239242 9:-0.0175264 10:0.627025 11:0.774473 12:-0.0820087 13:0.5 14:0.500002 15:0.5 16:0.499998 17:0.540887 18:-0.535505 19:-0.450544 20:0.466568 21:0.510343 22:-0.529432 23:-0.456488 24:0.50087 25:0.5 26:0.500002 27:0.5 28:0.499998 29:0.617522 30:0.386478 31:0.400707 32:0.555639 33:0.617522 34:0.386478 35:0.400707 36:0.555639 
-0.3674121130444296 -0 0.3939134067659715 0.2519291310369977 1:0.5 2:0.500002 3:0.5 4:0.499998 5:-0.0678025 6:0.721543 7:0.688717 8:0.0211499 9:-0.0175758 10:0.632832 11:0.770856 12:-0.0706841 13:0.5 14:0.500002 15:0.5 16:0.499998 17:0.539705 18:-0.533935 19:-0.454686 20:0.465717 21:-0.510574 22:0.529116 23:0.45934 24:-0.498355 25:0.5 26:0.500002 27:0.5 28:0.499998 29:0.616853 30:0.394947 31:0.399784 32:0.551074 33:0.616853 34:0.394947 35:0.399784 36:0.551074 
-0 -13.10048716829681 0 0 1:0.5 2:0.500002 3:0.5 4:0.499998 5:-0.0792454 6:0.723736 7:0.68504 8:0.0254214 9:-0.0260576 10:0.617932 11:0.781344 12:-0.0835627 13:0.5 14:0.500002 15:0.5 16:0.499998 17:0.54467 18:-0.530469 19:-0.452914 20:0.465625 21:-0.515641 22:0.523349 23:0.459357 24:-0.499211 25:0.5 26:0.500002 27:0.5 28:0.499998 29:0.61772 30:0.399674 31:0.387276 32:0.555608 33:0.61772 34:0.399674 35:0.387276 36:0.555608 
-1.772676323809978 -0 0 0 1:0.5 2:0.500002 3:0.5 4:0.499998 5:-0.0709021 6:0.72212 7:0.687702 8:0.0241168 9:-0.0239412 10:0.62279 11:0.778687 12:-0.0721512 13:0.5 14:0.500002 15:0.5 16:0.499998 17:0.544444 18:-0.531192 19:-0.456916 20:0.461133 21:0.509891 22:-0.527804 23:-0.459444 24:0.500346 25:0.5 26:0.500002 27:0.5 28:0.499998 29:0.61276 30:0.412409 31:0.395858 32:0.545656 33:0.61276 34:0.412409 35:0.395858 36:0.545656 
-0 -32 0 0 1:0.5 2:0.500002 3:0.5 4:0.499998 5:-0.113995 6:0.726307 7:0.677852 8:0.00105467 9:-0.0587601 10:0.623513 11:0.771859 12:-0.109599 13:0.5 14:0.500002 15:0.5 16:0.499998 17:0.560886 18:-0.512706 19:-0.427754 20:0.489455 21:0.531142 22:-0.501384 23:-0.437767 24:0.524273 25:0.5 26:0.500002 27:0.5 28:0.499998 29:0.599713 30:0.419036 31:0.426283 32:0.532011 33:0.599713 34:0.419036 35:0.426283 36:0.532011 
-0 -32 0 0 1:0.5 2:0.500002 3:0.5 4:0.499998 5:-0.117134 6:0.726506 7:0.677101 8:-0.00136569 9:-0.0630702 10:0.627262 11:0.768671 12:-0.108212 13:0.5 14:0.500002 15:0.5 16:0.499998 17:0.559436 18:-0.509679 19:-0.426714 20:0.495149 21:0.537296 22:-0.503319 23:-0.432459 24:0.52054 25:0.5 26:0.500002 27:0.5 28:0.499998 29:0.601807 30:0.422447 31:0.419301 32:0.532497 33:0.601807 34:0.422447 35:0.419301 36:0.532497 
-0 -25.96909452812225 0 0 1:0.5 2:0.500002 3:0.5 4:0.499998 5:-0.111741 6:0.730858 7:0.673312 8:-0.00339053 9:-0.0653622 10:0.621195 11:0.774052 12:-0.103383 13:0.5 14:0.500002 15:0.5 16:0.499998 17:0.556755 18:-0.51068 19:-0.428228 20:0.495832 21:0.536793 22:-0.501886 23:-0.436221 24:0.519302 25:0.5 26:0.500002 27:0.5 28:0.499998 29:0.604856 30:0.424875 31:0.414515 32:0.530856 33:0.604856 34:0.424875 35:0.414515 36:0.530856 
-0 -1.534797203268969 0 0 1:0.5 2:0.500002 3:0.5 4:0.499998 5:-0.112703 6:0.728196 7:0.676038 8:-0.000619605 9:-0.0642685 10:0.62221 11:0.773383 12:-0.10297 13:0.5 14:0.500002 15:0.5 16:0.499998 17:0.559471 18:-0.509575 19:-0.430763 20:0.4917 21:0.534936 22:-0.504994 23:-0.434597 24:0.519567 25:0.5 26:0.500002 27:0.5 28:0.499998 29:0.609743 30:0.418606 31:0.4093 32:0.53428 33:0.609743 34:0.418606 35:0.4093 36:0.53428 
-0 -32 0 0 1:0.5 2:0.500002 3:0.5 4:0.499998 5:-0.106646 6:0.72717 7:0.678122 8:-0.000954144 9:-0.0571725 10:0.626605 11:0.770663 12:-0.100879 13:0.5 14:0.500002 15:0.5 16:0.499998 17:0.557564 18:-0.511977 19:-0.432546 20:0.489801 21:0.528787 22:-0.508681 23:-0.434907 24:0.522 25:0.5 26:0.500002 27:0.5 28:0.499998 29:0.610126 30:0.416029 31:0.395564 32:0.546072 33:0.610126 34:0.416029 35:0.395564 36:0.546072 
-0.4087935893675068 -0 0 0 1:0.5 2:0.500002 3:0.5 4:0.499998 5:0.0601143 6:0.717363 7:0.684397 8:0.115664 9:0.0941749 10:0.630951 11:0.768598 12:0.0478398 13:0.5 14:0.500002 15:0.5 16:0.499998 17:-0.453444 18:0.641621 19:0.492333 20:-0.374591 21:-0.445032 22:0.604395 23:0.531517 24:-0.39261 25:0.5 26:0.500002 27:0.5 28:0.499998 29:0.676318 30:0.298763 31:0.284772 32:0.610114 33:0.676318 34:0.298763 35:0.284772 36:0.610114 
-0 -0 0.3283463882192911 0.2858813235329252 1:0.5 2:0.500002 3:0.5 4:0.499998 5:0.0615365 6:0.715016 7:0.686631 8:0.116205 9:0.0949236 10:0.629888 11:0.769256 12:0.0497638 13:0.5 14:0.500002 15:0.5 16:0.499998 17:-0.45299 18:0.640577 19:0.494584 20:-0.373961 21:-0.44786 22:0.606487 23:0.530093 24:-0.388067 25:0.5 26:0.500002 27:0.5 28:0.499998 29:0.675274 30:0.323225 31:0.314252 32:0.583761 33:0.675274 34:0.323225 35:0.314252 36:0.583761 
-0 -0 0.0009771543941483171 0.06811557240536037 1:0.5 2:0.500002 3:0.5 4:0.499998 5:-0.416565 6:0.673693 7:0.546888 8:-0.271154 9:-0.330914 10:0.506766 11:0.70437 12:-0.370873 13:0.5 14:0.500002 15:0.5 16:0.499998 17:-0.550885 18:0.563821 19:0.407548 20:-0.461018 21:0.514473 22:-0.519374 23:-0.454237 24:0.509154 25:0.5 26:0.500002 27:0.5 28:0.499998 29:0.625131 30:0.423598 31:0.342505 32:0.558987 33:0.625131 34:0.423598 35:0.342505 36:0.558987 
-0 -0.2936053892488365 0 0 1:0.5 2:0.500002 3:0.5 4:0.499998 5:-0.402037 6:0.674386 7:0.558576 8:-0.26751 9:-0.322386 10:0.517947 11:0.705664 12:-0.360329 13:0.5 14:0.500002 15:0.5 16:0.499998 17:-0.544382 18:0.57284 19:0.413824 20:-0.451943 21:0.5043 22:-0.527653 23:-0.461349 24:0.504401 25:0.5 26:0.500002 27:0.5 28:0.499998 29:0.64555 30:0.393246 31:0.332793 32:0.563801 33:0.64555 34:0.393246 35:0.332793 36:0.563801 
-0.1605696000079774 -0 0.1019792506179891 0.1603150245098752 1:0.5 2:0.500002 3:0.5 4:0.499998 5:-0.362562 6:0.676164 7:0.549828 8:-0.330213 9:-0.344963 10:0.553061 11:0.67982 12:-0.336109 13:0.5 14:0.500002 15:0.5 16:0.499998 17:0.487367 18:-0.559824 19:-0.427144 20:0.516351 21:-0.537635 22:0.554515 23:0.426736 24:-0.470487 25:0.5 26:0.500002 27:0.5 28:0.499998 29:0.63041 30:0.433443 31:0.393472 32:0.509794 33:0.63041 34:0.433443 35:0.393472 36:0.509794 
-0.2064675517577001 -0 0.0381297327099791 0.1227989562387098 1:0.5 2:0.500002 3:0.5 4:0.499998 5:-0.402168 6:0.690744 7:0.545838 8:-0.251384 9:-0.315944 10:0.531454 11:0.700151 12:-0.357106 13:0.5 14:0.500002 15:0.5 16:0.499998 17:-0.531494 18:0.533131 19:0.429306 20:-0.49898 21:-0.541773 22:0.572549 23:0.389113 24:-0.476718 25:0.5 26:0.500002 27:0.5 28:0.499998 29:0.634058 30:0.426723 31:0.361675 32:0.533919 33:0.634058 34:0.426723 35:0.361675 36:0.533919 
-0 -0.3323942979776073 0 0 1:0.5 2:0.500002 3:0.5 4:0.499998 5:-0.301985 6:0.664246 7:0.63468 8:-0.254484 9:-0.289848 10:0.590925 11:0.704788 12:-0.264708 13:0.5 14:0.500002 15:0.5 16:0.499998 17:0.514114 18:-0.512723 19:-0.484464 20:0.487952 21:-0.530278 22:0.564843 23:0.435336 24:-0.458519 25:0.5 26:0.500002 27:0.5 28:0.499998 29:0.629812 30:0.420485 31:0.353615 32:0.549077 33:0.629812 34:0.420485 35:0.353615 36:0.549077 
-0 -0.9988995343890026 0 0 1:0.5 2:0.500002 3:0.5 4:0.499998 5:-0.103446 6:0.700269 7:0.700655 8:-0.089468 9:-0.0749191 10:0.619448 11:0.772194 12:-0.119947 13:0.5 14:0.500002 15:0.5 16:0.499998 17:-0.361573 18:0.688077 19:0.54144 20:-0.320403 21:-0.407265 22:0.656957 23:0.567488 24:-0.283725 25:0.5 26:0.500002 27:0.5 28:0.499998 29:0.635069 30:0.25729 31:0.193069 32:0.702292 33:0.635069 34:0.25729 35:0.193069 36:0.702292 
-0 -0 0 0.09643445537835448 1:0.5 2:0.500002 3:0.5 4:0.499998 5:-0.091782 6:0.698898 7:0.707107 8:-0.0558374 9:-0.0633608 10:0.632894 11:0.766456 12:-0.0893021 13:0.5 14:0.500002 15:0.5 16:0.499998 17:-0.361087 18:0.703993 19:0.540472 20:-0.286184 21:-0.394057 22:0.66777 23:0.573684 24:-0.263988 25:0.5 26:0.500002 27:0.5 28:0.499998 29:0.685376 30:0.221254 31:0.149317 32:0.677503 33:0.685376 34:0.221254 35:0.149317 36:0.677503 
-0 -0 0.2759974857110303 0 1:0.5 2:0.500002 3:0.5 4:0.499998 5:-0.0677332 6:0.684289 7:0.723404 8:-0.0620301 9:-0.0549031 10:0.63384 11:0.767877 12:-0.0748161 13:0.5 14:0.500002 15:0.5 16:0.499998 17:-0.348103 18:0.698711 19:0.555645 20:-0.286157 21:-0.385802 22:0.67167 23:0.578086 24:-0.25658 25:0.5 26:0.500002 27:0.5 28:0.499998 29:0.68832 30:0.252984 31:0.177523 32:0.656278 33:0.68832 34:0.252984 35:0.177523 36:0.656278 
-0 -0.7658969900336107 0 0 1:0.5 2:0.500002 3:0.5 4:0.499998 5:-0.329738 6:0.684339 7:0.607027 8:-0.23339 9:-0.270335 10:0.55385 11:0.728011 12:-0.30028 13:0.5 14:0.500002 15:0.5 16:0.499998 17:0.569657 18:-0.482491 19:-0.423645 20:0.513048 21:0.541686 22:-0.487067 23:-0.417467 24:0.543197 25:0.5 26:0.500002 27:0.5 28:0.499998 29:0.551325 30:0.42988 31:0.44623 32:0.558679 33:0.551325 34:0.42988 35:0.44623 36:0.558679 
-0 -32 0 0 1:0.5 2:0.500002 3:0.5 4:0.499998 5:-0.340286 6:0.682272 7:0.601056 8:-0.23967 9:-0.278756 10:0.553868 11:0.720784 12:-0.309831 13:0.5 14:0.500002 15:0.5 16:0.499998 17:0.573262 18:-0.473677 19:-0.418416 20:0.521467 21:0.545316 22:-0.480961 23:-0.409525 24:0.550995 25:0.5 26:0.500002 27:0.5 28:0.499998 29:0.552238 30:0.432872 31:0.447122 32:0.55474 33:0.552238 34:0.432872 35:0.447122 36:0.55474 
-0 -32 0 0 1:0.5 2:0.500002 3:0.5 4:0.499998 5:-0.375942 6:0.677656 7:0.575285 8:-0.261719 9:-0.331439 10:0.552989 11:0.69831 12:-0.31099 13:0.5 14:0.500002 15:0.5 16:0.499998 17:0.592847 18:-0.448927 19:-0.393805 20:0.540291 21:0.570831 22:-0.468868 23:-0.374442 24:0.560453 25:0.5 26:0.500002 27:0.5 28:0.499998 29:0.47688 30:0.415129 31:0.505923 32:0.586767 33:0.47688 34:0.415129 35:0.505923 36:0.586767 
-0 -17.88606589027579 0 0 1:0.5 2:0.500002 3:0.5 4:0.499998 5:-0.385398 6:0.67869 7:0.57099 8:-0.254595 9:-0.331469 10:0.55036 11:0.697243 12:-0.317938 13:0.5 14:0.500002 15:0.5 16:0.499998 17:0.596361 18:-0.456272 19:-0.385407 20:0.536313 21:0.572207 22:-0.467918 23:-0.373603 24:0.560404 25:0.5 26:0.500002 27:0.5 28:0.499998 29:0.440108 30:0.438985 31:0.510221 32:0.594366 33:0.440108 34:0.438985 35:0.510221 36:0.594366 
-0 -0 0.2931174830327291 0.2571870006464311 1:0.5 2:0.500002 3:0.5 4:0.499998 5:-0.543094 6:0.58945 7:0.450204 8:-0.393592 9:-0.47672 10:0.456508 11:0.58903 12:-0.466243 13:0.5 14:0.500002 15:0.5 16:0.499998 17:0.636784 18:-0.355262 19:-0.329288 20:0.599887 21:0.604861 22:-0.399386 23:-0.284736 24:0.627343 25:0.5 26:0.500002 27:0.5 28:0.499998 29:0.509364 30:0.585787 31:0.460131 32:0.430908 33:0.509364 34:0.585787 35:0.460131 36:0.430908 
-0 -0 0.1099997105879396 0.07705149523720795 1:0.5 2:0.500002 3:0.5 4:0.499998 5:-0.395428 6:0.663685 7:0.575665 8:-0.267899 9:-0.36204 10:0.578372 11:0.661854 12:-0.310421 13:0.5 14:0.500002 15:0.5 16:0.499998 17:-0.543873 18:0.550072 19:0.406347 20:-0.486317 21:0.562885 22:-0.527186 23:-0.426429 24:0.472645 25:0.5 26:0.500002 27:0.5 28:0.499998 29:0.598886 30:0.489205 31:0.286845 32:0.56545 33:0.598886 34:0.489205 35:0.286845 36:0.56545 
-0.0009018016831779791 -0.006411641033259043 0 0 1:0.5 2:0.500002 3:0.5 4:0.499998 5:-0.38815 6:0.64613 7:0.614249 8:-0.233569 9:-0.353234 10:0.596626 11:0.663617 12:-0.280848 13:0.5 14:0.500002 15:0.5 16:0.499998 17:-0.542394 18:0.546217 19:0.446796 20:-0.455884 21:-0.559228 22:0.560462 23:0.433049 24:-0.43083 25:0.5 26:0.500002 27:0.5 28:0.499998 29:0.606907 30:0.485062 31:0.27341 32:0.56712 33:0.606907 34:0.485062 35:0.27341 36:0.56712 
-0 -0 -0 0.7758367194464806 1:0.5 2:0.500002 3:0.5 4:0.499998 5:0.259216 6:0.66717 7:0.63994 8:0.279587 9:0.334479 10:0.644156 11:0.656209 12:0.20634 13:0.5 14:0.500002 15:0.5 16:0.499998 17:0.558186 18:0.706303 19:0.327931 20:0.286401 21:0.340847 22:0.44849 23:0.6366 24:0.526707 25:0.5 26:0.500002 27:0.5 28:0.499998 29:0.261323 30:0.410613 31:0.618927 32:0.616471 33:0.261323 34:0.410613 35:0.618927 36:0.616471 
-0.7895446910595 -1.01014320504666 -1.179737185920775 0 1:0.5 2:0.500002 3:0.5 4:0.499998 5:0.251576 6:0.668893 7:0.643371 8:0.274527 9:0.334227 10:0.646187 11:0.658007 12:0.194322 13:0.5 14:0.500002 15:0.5 16:0.499998 17:0.563986 18:0.703339 19:0.326423 20:0.284046 21:0.342723 22:0.441475 23:0.637446 24:0.530381 25:0.5 26:0.500002 27:0.5 28:0.499998 29:0.246995 30:0.399972 31:0.624171 32:0.62404 33:0.246995 34:0.399972 35:0.624171 36:0.62404 
-0 -0 -0 0.3198509291610969 1:0.5 2:0.500002 3:0.5 4:0.499998 5:0.731157 6:0.441418 7:0.267803 8:0.445916 9:0.532 10:0.321668 11:0.403853 12:0.671124 13:0.5 14:0.500002 15:0.5 16:0.499998 17:0.559653 18:0.46526 19:0.447851 20:0.519376 21:0.502365 22:0.437652 23:0.471855 24:0.577445 25:0.5 26:0.500002 27:0.5 28:0.499998 29:0.453491 30:0.24964 31:0.525621 32:0.675092 33:0.453491 34:0.24964 35:0.525621 36:0.675092 
-0.3499919197822983 -0 -0 0.02274735311252138 1:0.5 2:0.500002 3:0.5 4:0.499998 5:0.715484 6:0.386218 7:0.243116 8:0.528973 9:0.547364 10:0.306847 11:0.337808 12:0.701515 13:0.5 14:0.500002 15:0.5 16:0.499998 17:0.511931 18:0.538394 19:0.484343 20:0.462029 21:0.440745 22:0.464432 23:0.555933 24:0.53008 25:0.5 26:0.500002 27:0.5 28:0.499998 29:0.428196 30:0.319662 31:0.537582 32:0.65228 33:0.428196 34:0.319662 35:0.537582 36:0.65228 
-0 -0 -0 0.04933067788719725 1:0.5 2:0.500002 3:0.5 4:0.499998 5:0.601081 6:0.396994 7:0.344232 8:0.602164 9:0.561201 10:0.358785 11:0.387253 12:0.637465 13:0.5 14:0.500002 15:0.5 16:0.499998 17:0.477077 18:0.632853 19:0.470891 20:0.3875 21:0.379593 22:0.507934 23:0.604506 24:0.482167 25:0.5 26:0.500002 27:0.5 28:0.499998 29:0.425202 30:0.345769 31:0.543113 32:0.636141 33:0.425202 34:0.345769 35:0.543113 36:0.636141 
-0.03211908703035329 -0 -0 0.4024405864499861 1:0.5 2:0.500002 3:0.5 4:0.499998 5:0.735621 6:0.358783 7:0.219034 8:0.531188 9:0.554444 10:0.281791 11:0.311921 12:0.718256 13:0.5 14:0.500002 15:0.5 16:0.499998 17:0.49015 18:0.579913 19:0.519124 20:0.392382 21:0.405757 22:0.511127 23:0.581805 24:0.4854 25:0.5 26:0.500002 27:0.5 28:0.499998 29:0.403973 30:0.268761 31:0.553975 32:0.676525 33:0.403973 34:0.268761 35:0.553975 36:0.676525 
-0 -0.2502083890869651 -0.6556419713322368 0 1:0.5 2:0.500002 3:0.5 4:0.499998 5:0.752064 6:0.361147 7:0.203058 8:0.512581 9:0.545138 10:0.275756 11:0.309222 12:0.72881 13:0.5 14:0.500002 15:0.5 16:0.499998 17:0.487783 18:0.583483 19:0.519821 20:0.389104 21:0.409983 22:0.508487 23:0.589889 24:0.474749 25:0.5 26:0.500002 27:0.5 28:0.499998 29:0.390476 30:0.256098 31:0.555255 32:0.688211 33:0.390476 34:0.256098 35:0.555255 36:0.688211 
-0.806660843346565 -0.9153755871127147 -0.411553009651967 0.13477895736619 1:0.5 2:0.500002 3:0.5 4:0.499998 5:0.749029 6:0.508725 7:0.263564 8:0.332699 9:0.528891 10:0.34281 11:0.459073 12:0.626105 13:0.5 14:0.500002 15:0.5 16:0.499998 17:0.678516 18:0.421311 19:0.34516 20:0.492928 21:0.561126 22:0.346468 23:0.419036 24:0.624105 25:0.5 26:0.500002 27:0.5 28:0.499998 29:0.349388 30:0.13156 31:0.584235 32:0.720617 33:0.349388 34:0.13156 35:0.584235 36:0.720617 
-0.2153945247146602 -0.3563837826924493 -0.2731009785755981 -0.2414882404910378 1:0.36673 2:0.565491 3:0.646868 4:0.356778 5:0.36673 6:0.565491 7:0.646868 8:0.356778 9:0.366402 10:0.584205 11:0.629637 12:0.357785 13:-1.55156e-06 14:0.707108 15:1.04579e-06 16:0.707105 17:6.01375e-06 18:0.707108 19:8.61107e-06 20:0.707105 21:0.5 22:0.500002 23:0.5 24:0.499998 25:0.707108 26:2.45002e-07 27:0.707105 28:-2.35234e-06 29:0.707108 30:8.6111e-06 31:0.707105 32:6.01372e-06 33:0.5 34:0.500002 35:0.5 36:0.499998 
-0.5883719379864698 -0.5611859332049419 -0.7574069599654687 -0.6176145203629935 1:0.376412 2:0.555408 3:0.645216 4:0.365421 5:0.376412 6:0.555408 7:0.645216 8:0.365421 9:0.377404 10:0.57659 11:0.625929 12:0.365133 13:-0.159439 14:0.696347 15:0.189083 16:0.673742 17:-0.143109 18:0.707756 19:0.203295 20:0.661266 21:0.5 22:0.500002 23:0.5 24:0.499998 25:0.707108 26:2.45002e-07 27:0.707105 28:-2.35234e-06 29:0.707108 30:8.6111e-06 31:0.707105 32:6.01372e-06 33:0.5 34:0.500002 35:0.5 36:0.499998 
-0.04211604348737912 -0.7924187835684124 -0.8210426730125824 -0.8458824625694411 1:0.604709 2:0.431229 3:0.382229 4:0.549791 5:0.604709 6:0.431229 7:0.382229 8:0.549791 9:0.616938 10:0.426632 11:0.385353 12:0.537472 13:-1.55156e-06 14:0.707108 15:1.04579e-06 16:0.707105 17:5.9289e-06 18:0.707108 19:8.69592e-06 20:0.707105 21:0.5 22:0.500002 23:0.5 24:0.499998 25:0.707108 26:2.45002e-07 27:0.707105 28:-2.35234e-06 29:0.707108 30:8.6111e-06 31:0.707105 32:6.01372e-06 33:0.5 34:0.500002 35:0.5 36:0.499998 
-0.7322435136971391 -0 -0 -0 1:0.598507 2:0.423698 3:0.387963 4:0.558349 5:0.598507 6:0.423698 7:0.387963 8:0.558349 9:0.61519 10:0.421033 11:0.389105 12:0.541175 13:-1.55156e-06 14:0.707108 15:1.04579e-06 16:0.707105 17:5.93738e-06 18:0.707108 19:8.68743e-06 20:0.707105 21:0.5 22:0.500002 23:0.5 24:0.499998 25:0.707108 26:2.45002e-07 27:0.707105 28:-2.35234e-06 29:0.707108 30:8.6111e-06 31:0.707105 32:6.01372e-06 33:0.5 34:0.500002 35:0.5 36:0.499998 
