svm_type c_svc
kernel_type rbf
gamma 0.5
nr_class 5
total_sv 217
rho 0.656032 0.569166 -0.0128915 -0.518981 -0.376779 -0.754654 -1.06766 -0.430139 -0.817363 -0.59772
label 1 2 3 4 0
nr_sv 31 95 52 24 15
SV
0 0 0 0.09308475284659833 1:0.570797 2:0.421056 3:0.416302 4:0.568854 5:0.570797 6:0.421056 7:0.416302 8:0.568854 9:0.576013 10:0.423426 11:0.413863 12:0.563592 13:0.726009 14:0.423464 15:0.535889 16:0.0800804 17:0.685229 18:0.351766 19:0.634981 20:-0.0593333 21:0.5 22:0.500002 23:0.5 24:0.499998 25:0.577701 26:0.643383 27:0.0666394 28:0.497876 29:0.520632 30:0.58533 31:-0.11727 32:0.610393 33:0.5 34:0.500002 35:0.5 36:0.499998 
0 0 0 0.04562377372704655 1:0.55194 2:0.44636 3:0.436872 4:0.552511 5:0.55194 6:0.44636 7:0.436872 8:0.552511 9:0.556584 10:0.447131 11:0.436028 12:0.547877 13:0.749272 14:0.423353 15:0.505613 16:0.0609895 17:0.679242 18:0.368119 19:0.63059 20:-0.0739907 21:0.5 22:0.500002 23:0.5 24:0.499998 25:0.569988 26:0.626718 27:0.0705491 28:0.526651 29:0.520361 30:0.5717 31:-0.0970381 32:0.62687 33:0.5 34:0.500002 35:0.5 36:0.499998 
0.7121367846972069 0.5353584503252772 0.3662855739234293 0.02200236810318935 1:0.563295 2:0.429629 3:0.390679 4:0.587781 5:0.563295 6:0.429629 7:0.390679 8:0.587781 9:0.567418 10:0.430523 11:0.389613 12:0.583857 13:0.786538 14:0.396004 15:0.45743 16:0.123678 17:0.768008 18:0.364549 19:0.522582 20:0.0646205 21:0.5 22:0.500002 23:0.5 24:0.499998 25:0.563372 26:0.567764 27:-0.0568587 28:0.597514 29:0.48413 30:0.479507 31:-0.262028 32:0.683398 33:0.5 34:0.500002 35:0.5 36:0.499998 
0 0.3546360409502501 0 0 1:0.517306 2:0.50619 3:0.475729 4:0.499848 5:0.517306 6:0.50619 7:0.475729 8:0.499848 9:0.518457 10:0.499037 11:0.482869 12:0.499 13:0.550105 14:0.360271 15:0.710344 16:-0.250999 17:0.504329 18:0.301053 19:0.736758 20:-0.334975 21:0.5 22:0.500002 23:0.5 24:0.499998 25:0.666345 26:0.643158 27:-0.00384563 28:0.377249 29:0.606185 30:0.638982 31:-0.136828 32:0.453343 33:0.5 34:0.500002 35:0.5 36:0.499998 
0.5414326161491549 0.2924002844146752 0.2886802213313126 0.03389507208501386 1:0.511996 2:0.497524 3:0.481465 4:0.50845 5:0.511996 6:0.497524 7:0.481465 8:0.50845 9:0.516118 10:0.491389 11:0.487541 12:0.504444 13:0.559131 14:0.350952 15:0.705756 16:-0.257127 17:0.505792 18:0.293641 19:0.738492 20:-0.335527 21:0.5 22:0.500002 23:0.5 24:0.499998 25:0.653863 26:0.649522 27:-0.0118718 28:0.387869 29:0.606962 30:0.633824 31:-0.127467 32:0.462185 33:0.5 34:0.500002 35:0.5 36:0.499998 
0 0.7226230110018319 0 0 1:0.565962 2:0.4598 3:0.420126 4:0.540152 5:0.565962 6:0.4598 7:0.420126 8:0.540152 9:0.568982 10:0.463301 11:0.416372 12:0.536886 13:0.685746 14:0.590708 15:0.404003 16:-0.13266 17:-0.21479 18:-0.334183 19:-0.766375 20:0.504832 21:0.5 22:0.500002 23:0.5 24:0.499998 25:0.825344 26:0.493357 27:-0.124066 28:0.244977 29:0.471639 30:0.156914 31:-0.68858 32:0.528008 33:0.5 34:0.500002 35:0.5 36:0.499998 
0.4066639948586152 2 0 0 1:0.562986 2:0.454784 3:0.425915 4:0.542969 5:0.562986 6:0.454784 7:0.425915 8:0.542969 9:0.567111 10:0.459377 11:0.42106 12:0.538579 13:0.688935 14:0.580744 15:0.410738 16:-0.139277 17:-0.21229 18:-0.322326 19:-0.77348 20:0.502761 21:0.5 22:0.500002 23:0.5 24:0.499998 25:0.817479 26:0.514115 27:-0.0955721 28:0.24141 29:0.463744 30:0.154741 31:-0.679962 32:0.546488 33:0.5 34:0.500002 35:0.5 36:0.499998 
0.026847349289263 0 0 0 1:0.560034 2:0.453214 3:0.430493 4:0.543723 5:0.560034 6:0.453214 7:0.430493 8:0.543723 9:0.565026 10:0.457808 11:0.425645 12:0.538501 13:0.700604 14:0.557665 15:0.423792 16:-0.136254 17:0.211191 18:0.307487 19:0.791103 20:-0.484775 21:0.5 22:0.500002 23:0.5 24:0.499998 25:0.804099 26:0.51885 27:-0.119987 28:0.264239 29:0.458443 30:0.158768 31:-0.671418 32:0.560197 33:0.5 34:0.500002 35:0.5 36:0.499998 
0 1.590096581327711 0 0 1:0.56424 2:0.461396 3:0.422929 4:0.538403 5:0.56424 6:0.461396 7:0.422929 8:0.538403 9:0.567542 10:0.463872 11:0.420201 12:0.53493 13:0.704782 14:0.562915 15:0.413083 16:-0.125584 17:0.216076 18:0.31527 19:0.787824 20:-0.482959 21:0.5 22:0.500002 23:0.5 24:0.499998 25:0.797126 26:0.516498 27:-0.126163 28:0.286186 29:0.464372 30:0.15413 31:-0.660065 32:0.570015 33:0.5 34:0.500002 35:0.5 36:0.499998 
0.1027885496470743 0 0.09878703045546086 0.06472185098935994 1:0.647636 2:0.329044 3:0.313448 4:0.611595 5:0.647636 6:0.329044 7:0.313448 8:0.611595 9:0.648589 10:0.326492 11:0.315868 12:0.610706 13:0.806707 14:0.469396 15:0.265103 16:-0.242097 17:0.558024 18:0.279816 19:0.640051 20:-0.447936 21:0.5 22:0.500002 23:0.5 24:0.499998 25:0.949418 26:0.222558 27:-0.108973 28:0.192866 29:0.909443 30:0.146502 31:-0.301567 32:0.245984 33:0.5 34:0.500002 35:0.5 36:0.499998 
0.08234177184354988 0 0.03389202950710209 0.08694737011464695 1:0.481955 2:0.560894 3:0.499199 4:0.451572 5:0.481955 6:0.560894 7:0.499199 8:0.451572 9:0.483994 10:0.556005 11:0.504079 12:0.450013 13:0.479259 14:0.751819 15:0.419081 16:-0.17161 17:0.417669 18:0.740186 19:0.470971 20:-0.236356 21:0.5 22:0.500002 23:0.5 24:0.499998 25:0.62721 26:0.715596 27:-0.108994 28:0.287489 29:0.548534 30:0.56833 31:-0.323083 32:0.521276 33:0.5 34:0.500002 35:0.5 36:0.499998 
0.157826792534102 0 0.1335827898937098 0.1503804658456684 1:0.546758 2:0.449058 3:0.429052 4:0.561531 5:0.546758 6:0.449058 7:0.429052 8:0.561531 9:0.553149 10:0.452632 11:0.425247 12:0.555261 13:0.843178 14:0.481206 15:0.239697 16:-0.00608524 17:0.852658 18:0.453868 19:0.257594 20:-0.0249638 21:0.5 22:0.500002 23:0.5 24:0.499998 25:0.685246 26:0.699593 27:-0.0688534 28:0.190438 29:0.663373 30:0.694137 31:-0.131602 32:0.24656 33:0.5 34:0.500002 35:0.5 36:0.499998 
0 0 0 0.0662404755099219 1:0.530815 2:0.533786 3:0.447392 4:0.482855 5:0.530815 6:0.533786 7:0.447392 8:0.482855 9:0.526401 10:0.533943 11:0.447807 12:0.48711 13:0.506089 14:0.700189 15:0.42399 16:-0.271739 17:-0.2452 18:-0.488239 19:-0.613001 20:0.570727 21:0.5 22:0.500002 23:0.5 24:0.499998 25:0.954745 26:0.28357 27:-0.00257375 28:0.0896845 29:0.790757 30:0.185233 31:-0.535022 32:0.232688 33:0.5 34:0.500002 35:0.5 36:0.499998 
0.8826340592370353 2 0.4849624663852239 0.2356187248972929 1:0.563108 2:0.483335 3:0.453541 4:0.493555 5:0.563108 6:0.483335 7:0.453541 8:0.493555 9:0.561018 10:0.487231 11:0.449988 12:0.495355 13:0.609191 14:0.766232 15:0.162167 16:-0.124405 17:0.577125 18:0.72154 19:0.270686 20:-0.270253 21:0.5 22:0.500002 23:0.5 24:0.499998 25:0.856086 26:0.293299 27:-0.285343 28:0.315707 29:-0.634276 30:-0.118674 31:0.641871 32:-0.414261 33:0.5 34:0.500002 35:0.5 36:0.499998 
0 0.09757022107834903 0 0 1:0.566927 2:0.482572 3:0.453029 4:0.49039 5:0.566927 6:0.482572 7:0.453029 8:0.49039 9:0.563823 10:0.4859 11:0.450161 12:0.493316 13:0.612876 14:0.765615 15:0.155969 16:-0.117861 17:0.59487 18:0.714557 19:0.257684 20:-0.262939 21:0.5 22:0.500002 23:0.5 24:0.499998 25:0.852607 26:0.295573 27:-0.288892 28:0.31975 29:-0.628566 30:-0.118222 31:0.644439 32:-0.419078 33:0.5 34:0.500002 35:0.5 36:0.499998 
0.8220111242019518 0 0.4348708332665923 0.2475689510369155 1:0.568784 2:0.480551 3:0.453164 4:0.4901 5:0.568784 6:0.480551 7:0.453164 8:0.4901 9:0.565224 10:0.485376 11:0.448922 12:0.493357 13:0.625605 14:0.758999 15:0.144446 16:-0.108048 17:0.614441 18:0.712656 19:0.239157 20:-0.239558 21:0.5 22:0.500002 23:0.5 24:0.499998 25:0.839506 26:0.304575 27:-0.302387 28:0.333205 29:-0.626946 30:-0.131048 31:0.634939 32:-0.431993 33:0.5 34:0.500002 35:0.5 36:0.499998 
0.5148608973281851 0 0.3746353747468135 0.1207444633739175 1:0.537948 2:0.46096 3:0.455807 4:0.538859 5:0.537948 6:0.46096 7:0.455807 8:0.538859 9:0.548998 10:0.470153 11:0.446313 12:0.5276 13:0.747754 14:0.512707 15:0.264084 16:-0.329022 17:-0.54552 18:-0.306682 19:-0.575573 20:0.526375 21:0.5 22:0.500002 23:0.5 24:0.499998 25:0.668354 26:0.681106 27:-0.207718 28:0.21506 29:0.449116 30:0.455853 31:-0.536786 32:0.549867 33:0.5 34:0.500002 35:0.5 36:0.499998 
0 0 0.06746792439278608 0 1:0.537566 2:0.464115 3:0.453201 4:0.53873 5:0.537566 6:0.464115 7:0.453201 8:0.53873 9:0.54985 10:0.47251 11:0.444368 12:0.526248 13:0.747473 14:0.514737 15:0.259175 16:-0.330391 17:-0.541251 18:-0.30209 19:-0.577005 20:0.531841 21:0.5 22:0.500002 23:0.5 24:0.499998 25:0.675006 26:0.677543 27:-0.217878 28:0.194506 29:0.447771 30:0.462617 31:-0.550094 32:0.531867 33:0.5 34:0.500002 35:0.5 36:0.499998 
0 0 0 0.08093322356583242 1:0.539625 2:0.460223 3:0.458849 4:0.535216 5:0.539625 6:0.460223 7:0.458849 8:0.535216 9:0.550918 10:0.470673 11:0.448149 12:0.523563 13:0.745765 14:0.520337 15:0.249713 16:-0.332758 17:-0.538445 18:-0.300579 19:-0.573235 20:0.539565 21:0.5 22:0.500002 23:0.5 24:0.499998 25:0.672331 26:0.681025 27:-0.212106 28:0.197954 29:0.448309 30:0.463309 31:-0.544094 32:0.53696 33:0.5 34:0.500002 35:0.5 36:0.499998 
0.3705894493665152 0 0.1365130498329142 0.03039996369265137 1:0.488495 2:0.413585 3:0.482051 4:0.598287 5:0.488495 6:0.413585 7:0.482051 8:0.598287 9:0.493966 10:0.414232 11:0.482291 12:0.593132 13:0.429457 14:0.818292 15:0.3557 16:-0.139436 17:0.230762 18:0.675014 19:0.507647 20:-0.483114 21:0.5 22:0.500002 23:0.5 24:0.499998 25:0.876477 26:0.296217 27:-0.145102 28:0.350697 29:0.70973 30:0.100215 31:-0.534369 32:0.447984 33:0.5 34:0.500002 35:0.5 36:0.499998 
0 1.168726321918742 0 0 1:0.485433 2:0.411727 3:0.483515 4:0.600873 5:0.485433 6:0.411727 7:0.483515 8:0.600873 9:0.493009 10:0.414917 11:0.481418 12:0.594157 13:0.452464 14:0.790408 15:0.393842 16:-0.124179 17:0.228253 18:0.651166 19:0.55474 20:-0.464917 21:0.5 22:0.500002 23:0.5 24:0.499998 25:0.864774 26:0.311053 27:-0.145316 28:0.366462 29:0.700493 30:0.107162 31:-0.527505 32:0.468577 33:0.5 34:0.500002 35:0.5 36:0.499998 
0 0 0.5049777007410948 0.2505817473324723 1:0.475183 2:0.433988 3:0.513889 4:0.567251 5:0.475183 6:0.433988 7:0.513889 8:0.567251 9:0.485703 10:0.435301 11:0.514255 12:0.55691 13:0.150677 14:0.918923 15:0.319869 16:-0.174816 17:0.0150804 18:-0.732676 19:-0.35326 20:0.581521 21:0.5 22:0.500002 23:0.5 24:0.499998 25:0.845539 26:0.415327 27:-0.0609241 28:0.329933 29:0.762551 30:0.26323 31:-0.370357 32:0.460503 33:0.5 34:0.500002 35:0.5 36:0.499998 
1.331302765787817 2 0 0 1:0.483479 2:0.438681 3:0.509018 4:0.560988 5:0.483479 6:0.438681 7:0.509018 8:0.560988 9:0.490298 10:0.438024 11:0.510661 12:0.554047 13:0.145222 14:0.921321 15:0.318102 16:-0.169966 17:0.0199649 18:-0.735603 19:-0.349113 20:0.580181 21:0.5 22:0.500002 23:0.5 24:0.499998 25:0.841152 26:0.422121 27:-0.0696231 28:0.330803 29:0.757214 30:0.271643 31:-0.372841 32:0.462413 33:0.5 34:0.500002 35:0.5 36:0.499998 
0 1.129503620586723 0 0 1:0.490523 2:0.45054 3:0.504946 4:0.549027 5:0.490523 6:0.45054 7:0.504946 8:0.549027 9:0.495823 10:0.447989 11:0.508101 12:0.543414 13:0.155745 14:0.918718 15:0.322312 16:-0.166779 17:0.0169514 18:-0.727757 19:-0.357567 20:0.585002 21:0.5 22:0.500002 23:0.5 24:0.499998 25:0.848951 26:0.410964 27:-0.0741147 28:0.32388 29:0.761109 30:0.26176 31:-0.383307 32:0.453068 33:0.5 34:0.500002 35:0.5 36:0.499998 
0 0.8137078995284364 0 0 1:0.525399 2:0.450523 3:0.442838 4:0.569982 5:0.525399 6:0.450523 7:0.442838 8:0.569982 9:0.535272 10:0.453607 11:0.439795 12:0.560629 13:0.519713 14:0.733223 15:0.41414 16:-0.144122 17:0.292459 18:0.600991 19:0.596725 20:-0.444068 21:0.5 22:0.500002 23:0.5 24:0.499998 25:0.93993 26:0.117162 27:-0.201746 28:0.249206 29:0.721239 30:-0.0196603 31:-0.635597 32:0.274671 33:0.5 34:0.500002 35:0.5 36:0.499998 
0 0.268862942721471 0 0.05165126549777475 1:0.550126 2:0.430266 3:0.41466 4:0.583344 5:0.550126 6:0.430266 7:0.41466 8:0.583344 9:0.560808 10:0.433725 11:0.411026 12:0.573092 13:0.51804 14:0.753466 15:0.368857 16:-0.166939 17:0.305373 18:0.605281 19:0.557825 20:-0.478763 21:0.5 22:0.500002 23:0.5 24:0.499998 25:0.939752 26:0.0930159 27:-0.216724 28:0.247476 29:0.714382 30:-0.0396255 31:-0.64789 32:0.261393 33:0.5 34:0.500002 35:0.5 36:0.499998 
0 0.2736201242989762 0 0 1:0.563272 2:0.418527 3:0.404244 4:0.586641 5:0.563272 6:0.418527 7:0.404244 8:0.586641 9:0.573935 10:0.422645 11:0.399885 12:0.576247 13:0.53238 14:0.751154 15:0.359061 16:-0.153017 17:0.315558 18:0.603388 19:0.559264 20:-0.472832 21:0.5 22:0.500002 23:0.5 24:0.499998 25:0.93854 26:0.0909801 27:-0.214186 28:0.254931 29:0.706251 30:-0.0484526 31:-0.654173 32:0.266307 33:0.5 34:0.500002 35:0.5 36:0.499998 
0.8255502334693856 0 0 0 1:0.573061 2:0.407789 3:0.382633 4:0.599084 5:0.573061 6:0.407789 7:0.382633 8:0.599084 9:0.584188 10:0.411051 11:0.378994 12:0.588324 13:0.533261 14:0.764521 15:0.320809 16:-0.167994 17:0.34179 18:0.616413 19:0.520063 20:-0.482441 21:0.5 22:0.500002 23:0.5 24:0.499998 25:0.939164 26:0.0893892 27:-0.193049 28:0.269654 29:0.687443 30:-0.0698722 31:-0.66837 32:0.275358 33:0.5 34:0.500002 35:0.5 36:0.499998 
0 0 0.378966615704578 0.1507158847188015 1:0.574229 2:0.409077 3:0.382268 4:0.597317 5:0.574229 6:0.409077 7:0.382268 8:0.597317 9:0.584778 10:0.412107 11:0.378852 12:0.587089 13:0.547531 14:0.761802 15:0.304248 16:-0.165229 17:0.351766 18:0.60569 19:0.518283 20:-0.490696 21:0.5 22:0.500002 23:0.5 24:0.499998 25:0.93861 26:0.0808366 27:-0.19489 28:0.272938 29:0.686049 30:-0.078821 31:-0.669557 32:0.273527 33:0.5 34:0.500002 35:0.5 36:0.499998 
0.5724071557373885 0 0.3432361795586683 0.0006711107756192103 1:0.583036 2:0.409965 3:0.374596 4:0.593023 5:0.583036 6:0.409965 7:0.374596 8:0.593023 9:0.592779 10:0.412356 11:0.371694 12:0.583454 13:0.541694 14:0.773438 15:0.279532 16:-0.173847 17:-0.356633 18:-0.611117 19:-0.494352 20:0.50494 21:0.5 22:0.500002 23:0.5 24:0.499998 25:0.93705 26:0.0835534 27:-0.1925 28:0.279106 29:0.685576 30:-0.0800391 31:-0.667162 32:0.280134 33:0.5 34:0.500002 35:0.5 36:0.499998 
0 0.7537793843477754 0 0.1403514133882931 1:0.600075 2:0.422437 3:0.359322 4:0.576493 5:0.600075 6:0.422437 7:0.359322 8:0.576493 9:0.606209 10:0.420832 11:0.360366 12:0.570568 13:0.521019 14:0.790018 15:0.262259 16:-0.188764 17:-0.353656 18:-0.627686 19:-0.463862 20:0.515529 21:0.5 22:0.500002 23:0.5 24:0.499998 25:0.936537 26:0.0837523 27:-0.201275 28:0.27454 29:0.68973 30:-0.0735577 31:-0.664745 32:0.277445 33:0.5 34:0.500002 35:0.5 36:0.499998 
-0 0.03718165817465666 0 0 1:0.522953 2:0.329297 3:0.574737 4:0.536433 5:0.522953 6:0.329297 7:0.574737 8:0.536433 9:0.539916 10:0.353758 11:0.558536 12:0.520945 13:-2.35235e-06 14:0.707108 15:2.45002e-07 16:0.707105 17:5.56951e-06 18:0.707108 19:9.0553e-06 20:0.707105 21:0.5 22:0.500002 23:0.5 24:0.499998 25:0.749593 26:0.206244 27:-0.102965 28:0.620462 29:0.313945 30:-0.413929 31:-0.688425 32:0.506134 33:0.5 34:0.500002 35:0.5 36:0.499998 
-0 0.03670584282557079 0 0 1:0.504263 2:0.331433 3:0.590192 4:0.536231 5:0.504263 6:0.331433 7:0.590192 8:0.536231 9:0.522268 10:0.356362 11:0.574185 12:0.520149 13:-2.35235e-06 14:0.707108 15:2.45001e-07 16:0.707105 17:5.72228e-06 18:0.707108 19:8.90253e-06 20:0.707105 21:0.5 22:0.500002 23:0.5 24:0.499998 25:0.743241 26:0.188677 27:-0.0783455 28:0.637068 29:0.345987 30:-0.426262 31:-0.662449 32:0.509662 33:0.5 34:0.500002 35:0.5 36:0.499998 
-0.2500969343674013 0.2794018032292354 0.2096812877338931 0.09351034986152384 1:0.485306 2:0.325534 3:0.605855 4:0.539857 5:0.485306 6:0.325534 7:0.605855 8:0.539857 9:0.507364 10:0.353317 11:0.589252 12:0.520126 13:-2.35235e-06 14:0.707108 15:2.45001e-07 16:0.707105 17:5.75143e-06 18:0.707108 19:8.87338e-06 20:0.707105 21:0.5 22:0.500002 23:0.5 24:0.499998 25:0.740773 26:0.161547 27:-0.0740363 28:0.647824 29:-0.351817 30:0.44752 31:0.656088 32:-0.495479 33:0.5 34:0.500002 35:0.5 36:0.499998 
-0.1490932237963407 0 0 0 1:0.450673 2:0.305203 3:0.700197 4:0.462027 5:0.450673 6:0.305203 7:0.700197 8:0.462027 9:0.484802 10:0.427834 11:0.617727 12:0.447592 13:-2.35235e-06 14:0.707108 15:2.45001e-07 16:0.707105 17:6.01265e-06 18:0.707108 19:8.61216e-06 20:0.707105 21:0.5 22:0.500002 23:0.5 24:0.499998 25:0.667131 26:0.400547 27:0.0757587 28:0.623505 29:0.427455 30:-0.304015 31:-0.51777 32:0.675849 33:0.5 34:0.500002 35:0.5 36:0.499998 
-0 0 0.413716281748158 0 1:0.455031 2:0.265669 3:0.725251 4:0.443145 5:0.455031 6:0.265669 7:0.725251 8:0.443145 9:0.492497 10:0.486411 11:0.569834 12:0.442877 13:-0.175196 14:0.463406 15:0.379754 16:0.781248 17:-0.297558 18:0.708557 19:0.293881 20:0.568367 21:0.5 22:0.500002 23:0.5 24:0.499998 25:0.680808 26:0.391087 27:0.152159 28:0.600332 29:0.472828 30:-0.323549 31:-0.512919 32:0.639268 33:0.5 34:0.500002 35:0.5 36:0.499998 
-0 0.350932242987528 0 0 1:0.5947 2:0.249447 3:0.521534 4:0.558668 5:0.5947 6:0.249447 7:0.521534 8:0.558668 9:0.598404 10:0.260199 11:0.513923 12:0.556859 13:-0.360637 14:0.772791 15:0.239549 16:0.464059 17:-0.397602 18:0.679638 19:0.225178 20:0.573846 21:0.5 22:0.500002 23:0.5 24:0.499998 25:0.786965 26:0.142955 27:-0.190822 28:0.569066 29:-0.316762 30:0.371166 31:0.745244 32:-0.454432 33:0.5 34:0.500002 35:0.5 36:0.499998 
-0 0 1.047730616607252 0 1:0.501938 2:0.271948 3:0.588614 4:0.572395 5:0.501938 6:0.271948 7:0.588614 8:0.572395 9:0.514453 10:0.289775 11:0.578013 12:0.563266 13:-0.417493 14:0.712183 15:0.248247 16:0.506822 17:-0.436663 18:0.666135 19:0.242443 20:0.553905 21:0.5 22:0.500002 23:0.5 24:0.499998 25:0.733535 26:0.105005 27:-0.027057 28:0.670946 29:-0.41769 30:0.474386 31:0.603606 32:-0.485955 33:0.5 34:0.500002 35:0.5 36:0.499998 
-0 0 0.0171302363919772 0 1:0.516059 2:0.242896 3:0.601982 4:0.55884 5:0.516059 6:0.242896 7:0.601982 8:0.55884 9:0.528941 10:0.261149 11:0.59245 12:0.548658 13:-0.412502 14:0.70844 15:0.253252 16:0.513633 17:-0.449931 18:0.664886 19:0.229046 20:0.550478 21:0.5 22:0.500002 23:0.5 24:0.499998 25:0.670854 26:0.279387 27:0.196395 28:0.658276 29:0.537749 30:-0.389781 31:-0.446589 32:0.599546 33:0.5 34:0.500002 35:0.5 36:0.499998 
-0 0 1.117555501135392 0 1:0.524028 2:0.282492 3:0.579349 4:0.556729 5:0.524028 6:0.282492 7:0.579349 8:0.556729 9:0.538064 10:0.292829 11:0.575712 12:0.541566 13:-0.38755 14:0.700636 15:0.294663 16:0.52162 17:-0.405166 18:0.666627 19:0.284363 20:0.557303 21:0.5 22:0.500002 23:0.5 24:0.499998 25:0.706481 26:0.23159 27:0.0750915 28:0.664539 29:0.635278 30:-0.163696 31:-0.318081 32:0.684434 33:0.5 34:0.500002 35:0.5 36:0.499998 
-0.2920790832483621 0 0 0 1:0.604927 2:0.389367 3:0.38559 4:0.577735 5:0.604927 6:0.389367 7:0.38559 8:0.577735 9:0.603482 10:0.389435 11:0.385559 12:0.579218 13:-0.48723 14:0.258929 15:0.822067 16:-0.140599 17:0.691038 18:-0.211366 19:-0.660041 20:0.205272 21:0.5 22:0.500002 23:0.5 24:0.499998 25:0.659234 26:0.436287 27:-0.0701451 28:0.608394 29:0.491605 30:-0.00547687 31:-0.444785 32:0.748639 33:0.5 34:0.500002 35:0.5 36:0.499998 
-0 0 0.001418872960558055 0 1:0.601676 2:0.384201 3:0.391061 4:0.580902 5:0.601676 6:0.384201 7:0.391061 8:0.580902 9:0.600315 10:0.384708 11:0.390578 12:0.582297 13:-0.527007 14:0.43573 15:0.729194 16:0.026048 17:0.720765 18:-0.423617 19:-0.538479 20:0.105299 21:0.5 22:0.500002 23:0.5 24:0.499998 25:0.66572 26:0.451356 27:-0.10246 28:0.585318 29:0.478782 30:0.0217797 31:-0.473761 32:0.738813 33:0.5 34:0.500002 35:0.5 36:0.499998 
-0 2 0 0 1:0.613437 2:0.381585 3:0.361608 4:0.589345 5:0.613437 6:0.381585 7:0.361608 8:0.589345 9:0.612368 10:0.3826 11:0.36065 12:0.590385 13:-0.495446 14:0.383786 15:0.778126 16:-0.0419743 17:0.707704 18:-0.353086 19:-0.591693 20:0.156155 21:0.5 22:0.500002 23:0.5 24:0.499998 25:0.674585 26:0.452247 27:-0.118116 28:0.571364 29:0.478364 30:0.0330609 31:-0.490086 32:0.727936 33:0.5 34:0.500002 35:0.5 36:0.499998 
-0.1846771624929256 0.2058080162055767 0 0 1:0.611418 2:0.373936 3:0.356985 4:0.599084 5:0.611418 6:0.373936 7:0.356985 8:0.599084 9:0.611991 10:0.372593 11:0.358308 12:0.598546 13:-0.487471 14:0.376286 15:0.786403 16:-0.048495 17:0.703172 18:-0.343813 19:-0.601337 20:0.160422 21:0.5 22:0.500002 23:0.5 24:0.499998 25:0.677924 26:0.460685 27:-0.108993 28:0.562413 29:0.478499 30:0.033391 31:-0.492443 32:0.72624 33:0.5 34:0.500002 35:0.5 36:0.499998 
-0.7726560673867778 2 0.20290023659241 0 1:0.610079 2:0.368005 3:0.381068 4:0.589205 5:0.610079 6:0.368005 7:0.381068 8:0.589205 9:0.60998 10:0.366528 11:0.382493 12:0.589306 13:-0.323131 14:0.688135 15:0.505361 16:0.408248 17:0.606198 18:-0.576574 19:-0.530855 20:-0.1352 21:0.5 22:0.500002 23:0.5 24:0.499998 25:0.661598 26:0.447811 27:-0.0928905 28:0.594243 29:0.463284 30:-0.0143238 31:-0.481361 32:0.743945 33:0.5 34:0.500002 35:0.5 36:0.499998 
-0.5849076883339194 2 0 0 1:0.610683 2:0.367579 3:0.378786 4:0.590317 5:0.610683 6:0.367579 7:0.378786 8:0.590317 9:0.609909 10:0.366323 11:0.380001 12:0.591116 13:-0.266055 14:0.719181 15:0.416097 16:0.48873 17:-0.566128 18:0.623689 19:0.495766 20:0.211489 21:0.5 22:0.500002 23:0.5 24:0.499998 25:0.673921 26:0.439702 27:-0.0792656 28:0.588396 29:0.469819 30:-0.0346454 31:-0.489615 32:0.733722 33:0.5 34:0.500002 35:0.5 36:0.499998 
-0 1.238667294897589 0 0 1:0.610909 2:0.36649 3:0.374093 4:0.593742 5:0.610909 6:0.36649 7:0.374093 8:0.593742 9:0.61073 10:0.365028 11:0.375517 12:0.593928 13:-0.216764 14:0.73437 15:0.339008 16:0.546614 17:-0.524787 18:0.660305 19:0.459563 20:0.278205 21:0.5 22:0.500002 23:0.5 24:0.499998 25:0.674429 26:0.438229 27:-0.0635734 28:0.590813 29:0.465987 30:-0.0588188 31:-0.491683 32:0.733242 33:0.5 34:0.500002 35:0.5 36:0.499998 
-0 0 0.8238974382354488 0.6311500701078372 1:0.571189 2:0.419773 3:0.413508 4:0.571441 5:0.571189 6:0.419773 7:0.413508 8:0.571441 9:0.576188 10:0.420592 11:0.412627 12:0.566435 13:-0.000178901 14:0.707185 15:0.000278404 16:0.707029 17:-0.020345 18:0.71422 19:0.0178347 20:0.699398 21:0.5 22:0.500002 23:0.5 24:0.499998 25:0.698106 26:0.119751 27:0.215783 28:0.67212 29:0.623097 30:-0.425574 31:-0.38166 32:0.533828 33:0.5 34:0.500002 35:0.5 36:0.499998 
-0.07746135929377607 0 0 0 1:0.579657 2:0.410698 3:0.414273 4:0.568948 5:0.579657 6:0.410698 7:0.414273 8:0.568948 9:0.585471 10:0.411311 11:0.413613 12:0.563002 13:-3.88842e-05 14:0.707124 15:5.90724e-05 16:0.707089 17:-0.00973226 18:0.710584 19:0.00853237 20:0.703493 21:0.5 22:0.500002 23:0.5 24:0.499998 25:0.718173 26:0.133351 27:0.14215 28:0.668011 29:0.579203 30:-0.415756 31:-0.447774 32:0.5396 33:0.5 34:0.500002 35:0.5 36:0.499998 
-0.1587129753067059 0.04662911499406744 0 0 1:0.700606 2:0.186574 3:0.50475 4:0.468582 5:0.700606 6:0.186574 7:0.50475 8:0.468582 9:0.697843 10:0.193309 11:0.499978 12:0.475046 13:-1.55363e-06 14:0.707108 15:1.04787e-06 16:0.707105 17:-8.1123e-05 18:0.707139 19:8.08702e-05 20:0.707075 21:0.5 22:0.500002 23:0.5 24:0.499998 25:0.780867 26:0.343727 27:-0.329226 28:0.404609 29:0.133252 30:-0.161793 31:-0.836892 32:0.505647 33:0.5 34:0.500002 35:0.5 36:0.499998 
-0.1914965804129361 0 0 0 1:0.696438 2:0.163086 3:0.517618 4:0.46952 5:0.696438 6:0.163086 7:0.517618 8:0.46952 9:0.694417 10:0.170186 11:0.512696 12:0.475357 13:-1.55262e-06 14:0.707108 15:1.04685e-06 16:0.707105 17:-5.77334e-05 18:0.707131 19:6.10632e-05 20:0.707083 21:0.5 22:0.500002 23:0.5 24:0.499998 25:0.807973 26:0.332906 27:-0.322788 28:0.36354 29:-0.170598 30:0.122874 31:0.853176 32:-0.477378 33:0.5 34:0.500002 35:0.5 36:0.499998 
-0.2199452396024489 0 0 0 1:0.700668 2:0.177308 3:0.525638 4:0.448699 5:0.700668 6:0.177308 7:0.525638 8:0.448699 9:0.696821 10:0.18555 11:0.519833 12:0.458023 13:-1.55191e-06 14:0.707108 15:1.04614e-06 16:0.707105 17:-3.19179e-05 18:0.707121 19:3.92936e-05 20:0.707092 21:0.5 22:0.500002 23:0.5 24:0.499998 25:0.812717 26:0.311507 27:-0.309906 28:0.382639 29:-0.195562 30:0.144133 31:0.847529 32:-0.471885 33:0.5 34:0.500002 35:0.5 36:0.499998 
-0 0.1596606056453162 0 0 1:0.698592 2:0.17854 3:0.487435 4:0.492442 5:0.698592 6:0.17854 7:0.487435 8:0.492442 9:0.696777 10:0.184286 11:0.483277 12:0.496975 13:-1.55156e-06 14:0.707108 15:1.04579e-06 16:0.707105 17:2.02492e-06 18:0.707109 19:1.07033e-05 20:0.707104 21:0.5 22:0.500002 23:0.5 24:0.499998 25:0.788503 26:0.249178 27:-0.374478 28:0.419451 29:-0.112657 30:0.217447 31:0.865609 32:-0.436744 33:0.5 34:0.500002 35:0.5 36:0.499998 
-0 0.3699976591772419 0 0 1:0.687565 2:0.179201 3:0.485541 4:0.509305 5:0.687565 6:0.179201 7:0.485541 8:0.509305 9:0.685142 10:0.187368 11:0.479377 12:0.515433 13:-1.55156e-06 14:0.707108 15:1.04579e-06 16:0.707105 17:2.84891e-06 18:0.707109 19:9.87933e-06 20:0.707105 21:0.5 22:0.500002 23:0.5 24:0.499998 25:0.810837 26:0.227186 27:-0.351741 28:0.408912 29:-0.118973 30:0.232171 31:0.875798 32:-0.406103 33:0.5 34:0.500002 35:0.5 36:0.499998 
-0.02437643809751824 0 0 0 1:0.66874 2:0.158377 3:0.54497 4:0.480324 5:0.66874 6:0.158377 7:0.54497 8:0.480324 9:0.669254 10:0.168881 11:0.538542 12:0.48327 13:-1.55156e-06 14:0.707108 15:1.04579e-06 16:0.707105 17:4.86901e-06 18:0.707108 19:7.85923e-06 20:0.707105 21:0.5 22:0.500002 23:0.5 24:0.499998 25:0.790612 26:0.338702 27:-0.311493 28:0.403962 29:0.167685 30:-0.155333 31:-0.833053 32:0.503762 33:0.5 34:0.500002 35:0.5 36:0.499998 
-0.0938259184617074 0 0 0 1:0.696882 2:0.166523 3:0.573771 4:0.396754 5:0.696882 6:0.166523 7:0.573771 8:0.396754 9:0.692869 10:0.173461 11:0.569069 12:0.407436 13:-1.55156e-06 14:0.707108 15:1.04579e-06 16:0.707105 17:4.98935e-06 18:0.707108 19:7.73889e-06 20:0.707105 21:0.5 22:0.500002 23:0.5 24:0.499998 25:0.767976 26:0.442697 27:-0.238618 28:0.396602 29:0.212957 30:-0.0954412 31:-0.775484 32:0.586656 33:0.5 34:0.500002 35:0.5 36:0.499998 
-0.110228328139758 0.3087506824351701 0 0 1:0.65553 2:0.19545 3:0.630659 4:0.366536 5:0.65553 6:0.19545 7:0.630659 8:0.366536 9:0.651323 10:0.20381 11:0.625431 12:0.378254 13:-1.55156e-06 14:0.707108 15:1.04579e-06 16:0.707105 17:5.00381e-06 18:0.707108 19:7.72443e-06 20:0.707105 21:0.5 22:0.500002 23:0.5 24:0.499998 25:0.886473 26:0.328814 27:0.138823 28:0.294576 29:0.0188416 30:-0.0840665 31:-0.851797 32:0.51674 33:0.5 34:0.500002 35:0.5 36:0.499998 
-0 0.3793529434467386 0 0 1:0.578475 2:0.227615 3:0.703208 4:0.345045 5:0.578475 6:0.227615 7:0.703208 8:0.345045 9:0.574677 10:0.237289 11:0.697354 12:0.356563 13:-1.55156e-06 14:0.707108 15:1.04579e-06 16:0.707105 17:5.02906e-06 18:0.707108 19:7.69918e-06 20:0.707105 21:0.5 22:0.500002 23:0.5 24:0.499998 25:0.81904 26:0.117632 27:0.551571 28:0.105382 29:0.316588 30:0.0548729 31:0.884872 32:-0.337287 33:0.5 34:0.500002 35:0.5 36:0.499998 
-0.04432678188723595 0 0 0 1:0.632426 2:0.0900165 3:0.616353 4:0.460482 5:0.632426 6:0.0900165 7:0.616353 8:0.460482 9:0.63137 10:0.0968646 11:0.611299 12:0.467229 13:-1.55156e-06 14:0.707108 15:1.04579e-06 16:0.707105 17:5.06187e-06 18:0.707108 19:7.66637e-06 20:0.707105 21:0.5 22:0.500002 23:0.5 24:0.499998 25:0.708104 26:0.000878624 27:0.706107 28:0.000784712 29:0.676595 30:0.00573901 31:0.735505 32:-0.0349172 33:0.5 34:0.500002 35:0.5 36:0.499998 
-0 0 0 1.522692326790791 1:0.615714 2:0.237156 3:0.522403 4:0.540137 5:0.615714 6:0.237156 7:0.522403 8:0.540137 9:0.615824 10:0.2453 11:0.516198 12:0.542336 13:-1.55156e-06 14:0.707108 15:1.04579e-06 16:0.707105 17:5.06525e-06 18:0.707108 19:7.66299e-06 20:0.707105 21:0.5 22:0.500002 23:0.5 24:0.499998 25:0.70711 26:2.31523e-06 27:0.707103 28:-5.02903e-07 29:0.705391 30:0.000337171 31:0.708816 32:-0.00203055 33:0.5 34:0.500002 35:0.5 36:0.499998 
-0 0 0 2 1:0.608696 2:0.242894 3:0.527414 4:0.540672 5:0.608696 6:0.242894 7:0.527414 8:0.540672 9:0.609207 10:0.251839 11:0.52066 12:0.542546 13:-1.55156e-06 14:0.707108 15:1.04579e-06 16:0.707105 17:5.06527e-06 18:0.707108 19:7.66297e-06 20:0.707105 21:0.5 22:0.500002 23:0.5 24:0.499998 25:0.70711 26:1.87168e-06 27:0.707104 28:-9.02293e-07 29:0.705563 30:0.000303372 31:0.708645 32:-0.00182784 33:0.5 34:0.500002 35:0.5 36:0.499998 
-0 0 0 2 1:0.609577 2:0.244324 3:0.526094 4:0.540321 5:0.609577 6:0.244324 7:0.526094 8:0.540321 9:0.610462 10:0.253672 11:0.51914 12:0.541738 13:-1.55156e-06 14:0.707108 15:1.04579e-06 16:0.707105 17:5.06529e-06 18:0.707108 19:7.66295e-06 20:0.707105 21:0.5 22:0.500002 23:0.5 24:0.499998 25:0.70711 26:1.49577e-06 27:0.707104 28:-1.24288e-06 29:0.705718 30:0.000272953 31:0.708491 32:-0.0016454 33:0.5 34:0.500002 35:0.5 36:0.499998 
-0 0 0 2 1:0.609967 2:0.242563 3:0.52208 4:0.544551 5:0.609967 6:0.242563 7:0.52208 8:0.544551 9:0.610921 10:0.251748 11:0.515214 12:0.545851 13:-1.55156e-06 14:0.707108 15:1.04579e-06 16:0.707105 17:5.06531e-06 18:0.707108 19:7.66293e-06 20:0.707105 21:0.5 22:0.500002 23:0.5 24:0.499998 25:0.707109 26:1.18661e-06 27:0.707104 28:-1.52378e-06 29:0.705857 30:0.000245528 31:0.708353 32:-0.00148125 33:0.5 34:0.500002 35:0.5 36:0.499998 
-0 0.205909292969387 0 2 1:0.609783 2:0.244668 3:0.520821 4:0.545021 5:0.609783 6:0.244668 7:0.520821 8:0.545021 9:0.61157 10:0.253266 11:0.51464 12:0.544962 13:-1.55156e-06 14:0.707108 15:1.04579e-06 16:0.707105 17:5.06532e-06 18:0.707108 19:7.66292e-06 20:0.707105 21:0.5 22:0.500002 23:0.5 24:0.499998 25:0.707109 26:9.22424e-07 27:0.707104 28:-1.76535e-06 29:0.705982 30:0.000220957 31:0.708228 32:-0.0013334 33:0.5 34:0.500002 35:0.5 36:0.499998 
-0 0 0 2 1:0.584057 2:0.262138 3:0.552996 4:0.533251 5:0.584057 6:0.262138 7:0.552996 8:0.533251 9:0.587647 10:0.274755 11:0.54428 12:0.531921 13:-1.55156e-06 14:0.707108 15:1.04579e-06 16:0.707105 17:5.06534e-06 18:0.707108 19:7.66291e-06 20:0.707105 21:0.5 22:0.500002 23:0.5 24:0.499998 25:0.707109 26:7.44793e-07 27:0.707105 28:-1.9249e-06 29:0.706095 30:0.000198982 31:0.708116 32:-0.0012002 33:0.5 34:0.500002 35:0.5 36:0.499998 
-0 0 0 2 1:0.584193 2:0.246995 3:0.550321 4:0.543009 5:0.584193 6:0.246995 7:0.550321 8:0.543009 9:0.588481 10:0.25863 11:0.542587 12:0.54074 13:-1.55156e-06 14:0.707108 15:1.04579e-06 16:0.707105 17:5.06535e-06 18:0.707108 19:7.66289e-06 20:0.707105 21:0.5 22:0.500002 23:0.5 24:0.499998 25:0.707109 26:6.11117e-07 27:0.707105 28:-2.0441e-06 29:0.706196 30:0.000179217 31:0.708015 32:-0.00108031 33:0.5 34:0.500002 35:0.5 36:0.499998 
-0 0 0 2 1:0.588792 2:0.250092 3:0.544532 4:0.542461 5:0.588792 6:0.250092 7:0.544532 8:0.542461 9:0.592463 10:0.261297 11:0.536894 12:0.540792 13:-1.55156e-06 14:0.707108 15:1.04579e-06 16:0.707105 17:5.06536e-06 18:0.707108 19:7.66288e-06 20:0.707105 21:0.5 22:0.500002 23:0.5 24:0.499998 25:0.707109 26:4.78889e-07 27:0.707105 28:-2.16476e-06 29:0.706288 30:0.000161428 31:0.707924 32:-0.000972404 33:0.5 34:0.500002 35:0.5 36:0.499998 
-0 0 1.061237486057484 2 1:0.567619 2:0.267147 3:0.570158 4:0.530434 5:0.567619 6:0.267147 7:0.570158 8:0.530434 9:0.572082 10:0.281229 11:0.560596 12:0.52855 13:-1.55156e-06 14:0.707108 15:1.04579e-06 16:0.707105 17:5.06537e-06 18:0.707108 19:7.66287e-06 20:0.707105 21:0.5 22:0.500002 23:0.5 24:0.499998 25:0.707108 26:4.32111e-07 27:0.707105 28:-2.20227e-06 29:0.70637 30:0.000145467 31:0.707843 32:-0.000875242 33:0.5 34:0.500002 35:0.5 36:0.499998 
-0 0 0.3491043970339888 0 1:0.578025 2:0.217908 3:0.580333 4:0.530677 5:0.578025 6:0.217908 7:0.580333 8:0.530677 9:0.587429 10:0.235081 11:0.571105 12:0.522975 13:-0.152894 14:0.740715 15:0.281009 16:0.590761 17:-0.295511 18:0.778873 19:0.185941 20:0.521015 21:0.5 22:0.500002 23:0.5 24:0.499998 25:0.707108 26:2.46991e-07 27:0.707105 28:-2.35433e-06 29:0.706851 30:5.31426e-05 31:0.707363 32:-0.000304447 33:0.5 34:0.500002 35:0.5 36:0.499998 
-0 0 2 0 1:0.54413 2:0.240121 3:0.611972 4:0.521301 5:0.54413 6:0.240121 7:0.611972 8:0.521301 9:0.555531 10:0.259786 11:0.601716 12:0.511697 13:-0.204758 14:0.747115 15:0.451493 16:0.442772 17:-0.468598 18:0.78358 19:0.297493 20:0.279136 21:0.5 22:0.500002 23:0.5 24:0.499998 25:0.707108 26:2.46593e-07 27:0.707105 28:-2.35393e-06 29:0.706877 30:4.84418e-05 31:0.707337 32:-0.000273649 33:0.5 34:0.500002 35:0.5 36:0.499998 
-0.02009668226302557 0 0.159358771222456 0 1:0.524274 2:0.26947 3:0.615922 4:0.52265 5:0.524274 6:0.26947 7:0.615922 8:0.52265 9:0.533326 10:0.287191 11:0.605544 12:0.51614 13:-0.166624 14:0.689728 15:0.699104 16:-0.0881226 17:0.565185 18:-0.485399 19:-0.443932 20:0.497873 21:0.5 22:0.500002 23:0.5 24:0.499998 25:0.707108 26:2.45523e-07 27:0.707105 28:-2.35286e-06 29:0.706971 30:3.141e-05 31:0.707242 32:-0.000159844 33:0.5 34:0.500002 35:0.5 36:0.499998 
-0.04242672851196098 0 0 0 1:0.485727 2:0.307841 3:0.603749 4:0.552078 5:0.485727 6:0.307841 7:0.603749 8:0.552078 9:0.530917 10:0.351834 11:0.581103 12:0.506615 13:-0.0384854 14:0.580986 15:0.776182 16:-0.241898 17:0.528624 18:-0.289354 19:-0.569646 20:0.558868 21:0.5 22:0.500002 23:0.5 24:0.499998 25:0.707108 26:2.45111e-07 27:0.707105 28:-2.35245e-06 29:0.707043 30:1.91451e-05 31:0.707171 32:-7.36856e-05 33:0.5 34:0.500002 35:0.5 36:0.499998 
-0 0.2418760419446971 0 0 1:0.535077 2:0.361674 3:0.527736 4:0.551706 5:0.535077 6:0.361674 7:0.527736 8:0.551706 9:0.545499 10:0.368189 11:0.52389 12:0.540747 13:-0.0283797 14:0.559672 15:0.781139 16:-0.275288 17:0.517932 18:-0.25756 19:-0.585432 20:0.568048 21:0.5 22:0.500002 23:0.5 24:0.499998 25:0.707108 26:2.45047e-07 27:0.707105 28:-2.35239e-06 29:0.707065 30:1.51573e-05 31:0.707148 32:-4.6642e-05 33:0.5 34:0.500002 35:0.5 36:0.499998 
-0.213570571395372 1.380784879529427 0 0 1:0.544861 2:0.37043 3:0.509866 4:0.553122 5:0.544861 6:0.37043 7:0.509866 8:0.553122 9:0.548919 10:0.376267 11:0.505221 12:0.54942 13:-0.15164 14:0.686091 15:0.690066 16:-0.173474 17:-0.477287 18:0.506555 19:0.520943 20:-0.494183 21:0.5 22:0.500002 23:0.5 24:0.499998 25:0.707108 26:2.45003e-07 27:0.707105 28:-2.35234e-06 29:0.707101 30:8.84829e-06 31:0.707113 32:-3.62213e-06 33:0.5 34:0.500002 35:0.5 36:0.499998 
-0 0 0 0.1548479462318491 1:0.517286 2:0.390256 3:0.53717 4:0.539966 5:0.517286 6:0.390256 7:0.53717 8:0.539966 9:0.522905 10:0.39592 11:0.532997 12:0.534539 13:-0.199942 14:0.730486 15:0.647507 16:-0.0845505 17:-0.540713 18:0.543275 19:0.408498 20:-0.495591 21:0.5 22:0.500002 23:0.5 24:0.499998 25:0.707108 26:2.45002e-07 27:0.707105 28:-2.35234e-06 29:0.707105 30:8.35482e-06 31:0.707109 32:1.50746e-06 33:0.5 34:0.500002 35:0.5 36:0.499998 
-0.2152579826074092 0 0 0 1:0.507241 2:0.387033 3:0.545281 4:0.543674 5:0.507241 6:0.387033 7:0.545281 8:0.543674 9:0.515707 10:0.395014 11:0.539628 12:0.535548 13:-0.197851 14:0.728043 15:0.650707 16:-0.0859597 17:0.543824 18:-0.53691 19:-0.408435 20:0.499162 21:0.5 22:0.500002 23:0.5 24:0.499998 25:0.707108 26:2.45002e-07 27:0.707105 28:-2.35234e-06 29:0.707105 30:8.33198e-06 31:0.707108 32:1.90963e-06 33:0.5 34:0.500002 35:0.5 36:0.499998 
-0 0 0.3622480636963821 0 1:0.503163 2:0.383264 3:0.547417 4:0.547969 5:0.503163 6:0.383264 7:0.547417 8:0.547969 9:0.512794 10:0.391664 11:0.541695 12:0.538709 13:-0.201429 14:0.724958 15:0.652838 16:-0.0875488 17:0.548361 18:-0.533005 19:-0.407519 20:0.499133 21:0.5 22:0.500002 23:0.5 24:0.499998 25:0.707108 26:2.45002e-07 27:0.707105 28:-2.35234e-06 29:0.707106 30:8.30932e-06 31:0.707108 32:2.26946e-06 33:0.5 34:0.500002 35:0.5 36:0.499998 
-0 2 0 0 1:0.556152 2:0.386693 3:0.49452 4:0.544622 5:0.556152 6:0.386693 7:0.49452 8:0.544622 9:0.561721 10:0.389061 11:0.492964 12:0.538597 13:-0.0446761 14:0.570152 15:0.773444 16:-0.273341 17:0.472781 18:-0.31695 19:-0.61375 20:0.547112 21:0.5 22:0.500002 23:0.5 24:0.499998 25:0.707108 26:2.45002e-07 27:0.707105 28:-2.35234e-06 29:0.707108 30:7.83231e-06 31:0.707106 32:4.89594e-06 33:0.5 34:0.500002 35:0.5 36:0.499998 
-0 1.369377636096556 0 0 1:0.541725 2:0.388081 3:0.509213 4:0.544636 5:0.541725 6:0.388081 7:0.509213 8:0.544636 9:0.549378 10:0.393523 11:0.50525 12:0.536699 13:-0.049632 14:0.584612 15:0.763847 16:-0.268894 17:0.476431 18:-0.326835 19:-0.599115 20:0.554305 21:0.5 22:0.500002 23:0.5 24:0.499998 25:0.707108 26:2.45002e-07 27:0.707105 28:-2.35234e-06 29:0.707108 30:7.81536e-06 31:0.707106 32:4.91289e-06 33:0.5 34:0.500002 35:0.5 36:0.499998 
-0.3871964346765026 0.1566122379447482 0 0.2872818626598359 1:0.436054 2:0.490346 3:0.448705 4:0.606697 5:0.436054 6:0.490346 7:0.448705 8:0.606697 9:0.451269 10:0.498173 11:0.44046 12:0.595126 13:0.549493 14:0.582772 15:0.587692 16:0.114246 17:-0.296431 18:0.352379 19:0.747966 20:-0.478021 21:0.5 22:0.500002 23:0.5 24:0.499998 25:0.573295 26:-0.157757 27:0.712779 28:0.372009 29:0.717879 30:-0.208203 31:0.564774 32:0.34976 33:0.5 34:0.500002 35:0.5 36:0.499998 
-0 1.358999560951532 0 0 1:0.434216 2:0.483727 3:0.44541 4:0.61569 5:0.434216 6:0.483727 7:0.44541 8:0.61569 9:0.451286 10:0.493226 11:0.435295 12:0.602983 13:0.558436 14:0.587743 15:0.577932 16:0.0932882 17:-0.292153 18:0.330054 19:0.748667 20:-0.495185 21:0.5 22:0.500002 23:0.5 24:0.499998 25:0.569188 26:-0.163395 27:0.711389 28:0.378488 29:0.718428 30:-0.24284 31:0.560327 32:0.333052 33:0.5 34:0.500002 35:0.5 36:0.499998 
-0 0 0.1143784073301642 0 1:0.430615 2:0.469582 3:0.446708 4:0.628105 5:0.430615 6:0.469582 7:0.446708 8:0.628105 9:0.452291 10:0.480759 11:0.435454 12:0.612114 13:0.537378 14:0.587571 15:0.600015 16:0.077252 17:0.320229 18:-0.315939 19:-0.739084 20:0.501388 21:0.5 22:0.500002 23:0.5 24:0.499998 25:0.544507 26:-0.174058 27:0.728558 28:0.377385 29:0.702762 30:-0.226025 31:0.575432 32:0.352017 33:0.5 34:0.500002 35:0.5 36:0.499998 
-0.3218230129158803 0 0 0 1:0.434128 2:0.471173 3:0.435888 4:0.632084 5:0.434128 6:0.471173 7:0.435888 8:0.632084 9:0.455942 10:0.479442 11:0.427972 12:0.615705 13:0.46921 14:0.609774 15:0.63855 16:0.0164908 17:0.346978 18:-0.29826 19:-0.712397 20:0.532107 21:0.5 22:0.500002 23:0.5 24:0.499998 25:0.575576 26:-0.106728 27:0.738805 28:0.333899 29:0.752419 30:-0.192255 31:0.557662 32:0.293116 33:0.5 34:0.500002 35:0.5 36:0.499998 
-0 0 0 0.305819838854591 1:0.440248 2:0.465217 3:0.418121 4:0.644151 5:0.440248 6:0.465217 7:0.418121 8:0.644151 9:0.464382 10:0.473134 11:0.410422 12:0.626137 13:0.410043 14:0.641914 15:0.647711 16:-0.0167752 17:0.369786 18:-0.294772 19:-0.671508 20:0.570478 21:0.5 22:0.500002 23:0.5 24:0.499998 25:0.567104 26:-0.10477 27:0.73762 28:0.351188 29:0.712131 30:-0.185751 31:0.599801 32:0.314013 33:0.5 34:0.500002 35:0.5 36:0.499998 
-0 0 0 0.2004951321896054 1:0.333055 2:0.497765 3:0.450444 4:0.662121 5:0.333055 6:0.497765 7:0.450444 8:0.662121 9:0.366204 10:0.508825 11:0.442293 12:0.641381 13:0.117821 14:0.756315 15:0.562655 16:-0.31229 17:0.336148 18:-0.279209 19:-0.466333 20:0.769143 21:0.5 22:0.500002 23:0.5 24:0.499998 25:0.4928 26:-0.191962 27:0.739802 28:0.415923 29:0.695675 30:-0.310108 31:0.553349 32:0.337156 33:0.5 34:0.500002 35:0.5 36:0.499998 
-0.01931480992184213 0 0 0 1:0.323063 2:0.493207 3:0.459358 4:0.664355 5:0.323063 6:0.493207 7:0.459358 8:0.664355 9:0.356663 10:0.504964 11:0.451234 12:0.643577 13:0.125369 14:0.750884 15:0.564177 16:-0.319625 17:0.326015 18:-0.280106 19:-0.477208 20:0.766503 21:0.5 22:0.500002 23:0.5 24:0.499998 25:0.492733 26:-0.185913 27:0.74814 28:0.403655 29:0.696291 30:-0.299501 31:0.56363 32:0.32833 33:0.5 34:0.500002 35:0.5 36:0.499998 
-0 0.2708095175189988 0 0 1:0.312047 2:0.505435 3:0.469666 4:0.653128 5:0.312047 6:0.505435 7:0.469666 8:0.653128 9:0.345241 10:0.516959 11:0.462078 12:0.632492 13:0.144967 14:0.737133 15:0.575124 16:-0.323809 17:0.328221 18:-0.255972 19:-0.494017 20:0.763345 21:0.5 22:0.500002 23:0.5 24:0.499998 25:0.474129 26:-0.238713 27:0.720124 28:0.44681 29:0.689166 30:-0.375384 31:0.518099 32:0.340162 33:0.5 34:0.500002 35:0.5 36:0.499998 
-0 0 0.3844130816657365 0 1:0.330617 2:0.46771 3:0.400435 4:0.715256 5:0.330617 6:0.46771 7:0.400435 8:0.715256 9:0.364884 10:0.474533 11:0.398427 12:0.694935 13:0.190584 14:0.756199 15:0.587686 16:-0.21556 17:0.338699 18:-0.305683 19:-0.516701 20:0.724473 21:0.5 22:0.500002 23:0.5 24:0.499998 25:0.41496 26:-0.332763 27:0.654977 28:0.536733 29:0.643724 30:-0.520845 31:0.432211 32:0.357118 33:0.5 34:0.500002 35:0.5 36:0.499998 
-0.01315374025095791 0.05018643986224258 0 0 1:0.394254 2:0.400588 3:0.322135 4:0.761788 5:0.394254 6:0.400588 7:0.322135 8:0.761788 9:0.420705 10:0.403557 11:0.321954 12:0.745986 13:0.24341 14:0.73479 15:0.599688 16:-0.203001 17:0.290146 18:-0.332131 19:-0.578523 20:0.68616 21:0.5 22:0.500002 23:0.5 24:0.499998 25:0.392472 26:-0.437354 27:0.577277 28:0.566955 29:-0.620024 30:0.654574 31:-0.320707 32:-0.290257 33:0.5 34:0.500002 35:0.5 36:0.499998 
-0 0.007441202432133312 0.3561949678812518 0 1:0.393791 2:0.406456 3:0.32544 4:0.757503 5:0.393791 6:0.406456 7:0.32544 8:0.757503 9:0.418325 10:0.409795 11:0.324245 12:0.742925 13:0.292608 14:0.728604 15:0.595919 16:-0.168515 17:0.297659 18:-0.306399 19:-0.593412 20:0.682189 21:0.5 22:0.500002 23:0.5 24:0.499998 25:0.403119 26:-0.489051 27:0.529481 28:0.563892 29:-0.599 30:0.691204 31:-0.289921 32:-0.281748 33:0.5 34:0.500002 35:0.5 36:0.499998 
-0.1048015626723257 0 0 0 1:0.24339 2:0.460339 3:0.370185 4:0.769294 5:0.24339 6:0.460339 7:0.370185 8:0.769294 9:0.282328 10:0.470136 11:0.365731 12:0.752 13:0.374133 14:0.76962 15:0.505934 16:-0.108354 17:0.207836 18:-0.343347 19:-0.593927 20:0.697258 21:0.5 22:0.500002 23:0.5 24:0.499998 25:-0.510978 26:0.567491 27:-0.466496 28:-0.44636 29:-0.520816 30:0.620713 31:-0.441879 32:-0.384979 33:0.5 34:0.500002 35:0.5 36:0.499998 
-0 0.5202252454317613 0.05123147054014106 0 1:0.430938 2:0.410105 3:0.261738 4:0.76 5:0.430938 6:0.410105 7:0.261738 8:0.76 9:0.447889 10:0.409719 11:0.263079 12:0.749877 13:0.330773 14:0.590309 15:0.735229 16:-0.0395313 17:-0.322057 18:0.3675 19:0.739088 20:-0.463651 21:0.5 22:0.500002 23:0.5 24:0.499998 25:-0.476306 26:0.667301 27:-0.293515 28:-0.491621 29:0.426137 30:-0.65493 31:0.347925 32:0.518094 33:0.5 34:0.500002 35:0.5 36:0.499998 
-0.1302195475103766 0 0 0 1:0.413261 2:0.446258 3:0.251215 4:0.752967 5:0.413261 6:0.446258 7:0.251215 8:0.752967 9:0.425657 10:0.445277 11:0.253021 12:0.746006 13:0.364616 14:0.58132 15:0.723596 16:-0.0743757 17:-0.276493 18:0.344589 19:0.761635 20:-0.47405 21:0.5 22:0.500002 23:0.5 24:0.499998 25:-0.487998 26:0.664067 27:-0.29273 28:-0.484956 29:0.436573 30:-0.649326 31:0.350108 32:0.51498 33:0.5 34:0.500002 35:0.5 36:0.499998 
-0.1781083999056232 0 0 0 1:0.402236 2:0.44839 3:0.300304 4:0.739574 5:0.402236 6:0.44839 7:0.300304 8:0.739574 9:0.418921 10:0.448627 11:0.30131 12:0.729693 13:0.35165 14:0.599543 15:0.715829 16:-0.0669243 17:-0.277655 18:0.36385 19:0.747648 20:-0.48119 21:0.5 22:0.500002 23:0.5 24:0.499998 25:-0.522363 26:0.650291 27:-0.308863 28:-0.457013 29:-0.460314 30:0.631962 31:-0.379701 32:-0.494532 33:0.5 34:0.500002 35:0.5 36:0.499998 
-0 1.585453446720356 0 0 1:0.532213 2:0.448434 3:0.438094 4:0.568973 5:0.532213 6:0.448434 7:0.438094 8:0.568973 9:0.53313 10:0.449859 11:0.436612 12:0.568128 13:0.400009 14:0.531756 15:0.744527 16:-0.0539186 17:-0.304588 18:0.305334 19:0.788387 20:-0.438683 21:0.5 22:0.500002 23:0.5 24:0.499998 25:0.60494 26:-0.586795 27:0.313734 28:0.437367 29:-0.55633 30:0.645885 31:-0.338763 32:-0.398207 33:0.5 34:0.500002 35:0.5 36:0.499998 
-0 1.100416191746134 0 0 1:0.533597 2:0.455536 3:0.449119 4:0.553221 5:0.533597 6:0.455536 7:0.449119 8:0.553221 9:0.534978 10:0.454593 11:0.4501 12:0.551864 13:0.419651 14:0.515137 15:0.745673 16:-0.0499844 17:-0.298049 18:0.294654 19:0.802061 20:-0.425492 21:0.5 22:0.500002 23:0.5 24:0.499998 25:0.618582 26:-0.579374 27:0.314514 28:0.427509 29:-0.560722 30:0.640898 31:-0.34986 32:-0.390434 33:0.5 34:0.500002 35:0.5 36:0.499998 
-0.3365141095226045 0 0 0 1:0.532575 2:0.447319 3:0.467327 4:0.545779 5:0.532575 6:0.447319 7:0.467327 8:0.545779 9:0.532225 10:0.448954 11:0.465683 12:0.546183 13:0.449248 14:0.452426 15:0.765753 16:-0.0843186 17:-0.285803 18:0.231947 19:0.840546 20:-0.397491 21:0.5 22:0.500002 23:0.5 24:0.499998 25:0.635251 26:-0.584087 27:0.30417 28:0.40346 29:-0.552232 30:0.615685 31:-0.390044 32:-0.404768 33:0.5 34:0.500002 35:0.5 36:0.499998 
-0 0 0.09713149325830356 0 1:0.484519 2:0.477584 3:0.443201 4:0.583719 5:0.484519 6:0.477584 7:0.443201 8:0.583719 9:0.492711 10:0.482551 11:0.437858 12:0.576768 13:0.250179 14:0.587387 15:0.766275 16:0.072176 17:-0.378106 18:0.459595 19:0.711901 20:-0.372834 21:0.5 22:0.500002 23:0.5 24:0.499998 25:0.636452 26:-0.572361 27:0.304509 28:0.417858 29:-0.543646 30:0.561216 31:-0.425697 32:-0.456364 33:0.5 34:0.500002 35:0.5 36:0.499998 
-0 1.101093620220453 0 0 1:0.486476 2:0.479653 3:0.446668 4:0.577721 5:0.486476 6:0.479653 7:0.446668 8:0.577721 9:0.493637 10:0.48537 11:0.440439 12:0.571621 13:0.243249 14:0.586591 15:0.768089 16:0.0823371 17:-0.381344 18:0.467838 19:0.709724 20:-0.363313 21:0.5 22:0.500002 23:0.5 24:0.499998 25:0.641376 26:-0.5714 27:0.301279 28:0.413969 29:0.547708 30:-0.545052 31:0.430326 32:0.466642 33:0.5 34:0.500002 35:0.5 36:0.499998 
-0.1752488183250493 0 0.0248389021882346 0 1:0.461138 2:0.501263 3:0.354107 4:0.640855 5:0.461138 6:0.501263 7:0.354107 8:0.640855 9:0.479358 10:0.499399 11:0.356279 12:0.6276 13:0.383929 14:0.46313 15:0.795653 16:-0.0710284 17:-0.272717 18:0.285498 19:0.840292 20:-0.371518 21:0.5 22:0.500002 23:0.5 24:0.499998 25:-0.576788 26:0.583346 27:-0.310435 28:-0.480264 29:0.487463 30:-0.512213 31:0.432755 32:0.559232 33:0.5 34:0.500002 35:0.5 36:0.499998 
-0 0.2594808186960637 0 0 1:0.463418 2:0.492503 3:0.33911 4:0.65398 5:0.463418 6:0.492503 7:0.33911 8:0.65398 9:0.48236 10:0.490059 11:0.342043 12:0.640451 13:0.385812 14:0.480812 15:0.785748 16:-0.0506838 17:-0.260627 18:0.314051 19:0.835658 20:-0.367588 21:0.5 22:0.500002 23:0.5 24:0.499998 25:-0.563873 26:0.590785 27:-0.30494 28:-0.489931 29:0.478002 30:-0.523697 31:0.422098 32:0.564879 33:0.5 34:0.500002 35:0.5 36:0.499998 
-0 0.9888694567248363 0 0 1:0.417325 2:0.477384 3:0.292562 4:0.715787 5:0.417325 6:0.477384 7:0.292562 8:0.715787 9:0.429107 10:0.476814 11:0.293695 12:0.708702 13:0.460856 14:0.512769 15:0.720586 16:0.0737285 17:-0.279775 18:0.375706 19:0.808306 20:-0.35667 21:0.5 22:0.500002 23:0.5 24:0.499998 25:-0.526893 26:0.616548 27:-0.309467 28:-0.496471 29:-0.485941 30:0.635897 31:-0.346917 32:-0.489024 33:0.5 34:0.500002 35:0.5 36:0.499998 
-0 0 0.03059131785935186 0 1:0.410984 2:0.489406 3:0.274648 4:0.71843 5:0.410984 6:0.489406 7:0.274648 8:0.71843 9:0.419343 10:0.487962 11:0.277057 12:0.713642 13:0.506942 14:0.47794 15:0.704364 16:0.135847 17:-0.270042 18:0.391508 19:0.82474 20:-0.305945 21:0.5 22:0.500002 23:0.5 24:0.499998 25:-0.521613 26:0.622979 27:-0.304457 28:-0.497115 29:-0.475278 30:0.63454 31:-0.350348 32:-0.498724 33:0.5 34:0.500002 35:0.5 36:0.499998 
-0.04510090954706164 0 0.04090310439639618 0 1:0.406641 2:0.491924 3:0.263972 4:0.723168 5:0.406641 6:0.491924 7:0.263972 8:0.723168 9:0.416801 10:0.490294 11:0.266611 12:0.717501 13:0.520894 14:0.466155 15:0.6991 16:0.150425 17:-0.274873 18:0.390247 19:0.827355 20:-0.296032 21:0.5 22:0.500002 23:0.5 24:0.499998 25:-0.514825 26:0.627502 27:-0.302375 28:-0.499765 29:0.470648 30:-0.639625 31:0.345296 32:0.500141 33:0.5 34:0.500002 35:0.5 36:0.499998 
-0 0.07200321833722258 0.0716413980011532 0 1:0.412945 2:0.487568 3:0.250778 4:0.72723 5:0.412945 6:0.487568 7:0.250778 8:0.72723 9:0.422671 10:0.485009 11:0.254899 12:0.721902 13:0.528666 14:0.459575 15:0.691157 16:0.177778 17:-0.298874 18:0.396863 19:0.817227 20:-0.292087 21:0.5 22:0.500002 23:0.5 24:0.499998 25:0.499454 26:-0.627877 27:0.303957 28:0.513737 29:-0.467399 30:0.657727 31:-0.326948 32:-0.491974 33:0.5 34:0.500002 35:0.5 36:0.499998 
-0 0.7233707233624642 0 0 1:0.431003 2:0.482633 3:0.195316 4:0.736989 5:0.431003 6:0.482633 7:0.195316 8:0.736989 9:0.434556 10:0.478627 11:0.202266 12:0.73564 13:0.508416 14:0.551531 15:0.65312 16:0.103737 17:-0.257555 18:0.394213 19:0.786586 20:-0.39943 21:0.5 22:0.500002 23:0.5 24:0.499998 25:0.460747 26:-0.64149 27:0.282523 28:0.544411 29:0.422095 30:-0.663821 31:0.315558 32:0.53066 33:0.5 34:0.500002 35:0.5 36:0.499998 
-0.2624131046738524 0 0 0 1:0.420779 2:0.500472 3:0.216403 4:0.725012 5:0.420779 6:0.500472 7:0.216403 8:0.725012 9:0.424948 10:0.496359 11:0.22353 12:0.723244 13:0.52327 14:0.596693 15:0.605525 16:0.0590396 17:-0.243823 18:0.361524 19:0.762248 20:-0.478361 21:0.5 22:0.500002 23:0.5 24:0.499998 25:0.487738 26:-0.634647 27:0.285875 28:0.526888 29:0.433719 30:-0.650338 31:0.337967 32:0.524143 33:0.5 34:0.500002 35:0.5 36:0.499998 
-0.3150390164574712 0 0 0 1:0.361736 2:0.513808 3:0.175651 4:0.757823 5:0.361736 6:0.513808 7:0.175651 8:0.757823 9:0.519631 10:0.439139 11:0.288997 12:0.673514 13:0.426287 14:0.707318 15:0.557221 16:0.0865198 17:0.256214 18:-0.44006 19:-0.653124 20:0.560474 21:0.5 22:0.500002 23:0.5 24:0.499998 25:-0.51441 26:0.659109 27:-0.246797 28:-0.489949 29:0.429943 30:-0.66044 31:0.33833 32:0.514296 33:0.5 34:0.500002 35:0.5 36:0.499998 
-0 0.5559688629634328 0.1266660293485035 0 1:0.348465 2:0.532363 3:0.16003 4:0.754687 5:0.348465 6:0.532363 7:0.16003 8:0.754687 9:0.535544 10:0.432412 11:0.310803 12:0.655449 13:0.420382 14:0.716 15:0.549896 16:0.0907622 17:0.26408 18:-0.438356 19:-0.639819 20:0.573357 21:0.5 22:0.500002 23:0.5 24:0.499998 25:-0.530414 26:0.664458 27:-0.236839 28:-0.470175 29:0.443085 30:-0.661988 31:0.33466 32:0.503438 33:0.5 34:0.500002 35:0.5 36:0.499998 
-0.2427884931891987 0.7415018788470285 0 0 1:0.397062 2:0.494496 3:0.187142 4:0.750196 5:0.397062 6:0.494496 7:0.187142 8:0.750196 9:0.499798 10:0.443797 11:0.263375 12:0.695614 13:0.424347 14:0.716449 15:0.553514 16:-0.0158901 17:0.230087 18:-0.379667 19:-0.658414 20:0.607786 21:0.5 22:0.500002 23:0.5 24:0.499998 25:0.499768 26:-0.660835 27:0.249219 28:0.501418 29:0.433509 30:-0.674193 31:0.314195 32:0.508739 33:0.5 34:0.500002 35:0.5 36:0.499998 
-0.1282136612136173 0.2221900087128836 0 0 1:0.405673 2:0.499561 3:0.245701 4:0.724913 5:0.405673 6:0.499561 7:0.245701 8:0.724913 9:0.424322 10:0.493658 11:0.255236 12:0.714918 13:0.394499 14:0.733687 15:0.531175 16:-0.154686 17:0.198274 18:-0.305645 19:-0.631239 20:0.684694 21:0.5 22:0.500002 23:0.5 24:0.499998 25:-0.515126 26:0.636794 27:-0.283927 28:-0.498522 29:-0.446382 30:0.682386 31:-0.336549 32:-0.470985 33:0.5 34:0.500002 35:0.5 36:0.499998 
-0.4049744558260646 1.058656524722051 0 0 1:0.41956 2:0.526859 3:0.233113 4:0.701461 5:0.41956 6:0.526859 7:0.233113 8:0.701461 9:0.430632 10:0.522817 11:0.238914 12:0.695801 13:0.365695 14:0.755038 15:0.526461 16:-0.137926 17:0.216485 18:-0.325882 19:-0.603346 20:0.694916 21:0.5 22:0.500002 23:0.5 24:0.499998 25:0.519543 26:-0.629937 27:0.268846 28:0.510859 29:-0.441855 30:0.676203 31:-0.333338 32:-0.48621 33:0.5 34:0.500002 35:0.5 36:0.499998 
-0.0807667404568842 0.2731406131927814 0 0 1:0.350486 2:0.462258 3:0.395579 4:0.712036 5:0.350486 6:0.462258 7:0.395579 8:0.712036 9:0.379034 10:0.471854 11:0.386816 12:0.695744 13:0.0896849 14:0.734752 15:0.599816 16:-0.303838 17:0.344366 18:-0.328866 19:-0.499233 20:0.723896 21:0.5 22:0.500002 23:0.5 24:0.499998 25:-0.578394 26:0.607959 27:-0.358369 28:-0.409168 29:-0.499211 30:0.603474 31:-0.442608 32:-0.436698 33:0.5 34:0.500002 35:0.5 36:0.499998 
-0 0 0.06518867928656882 0 1:0.293095 2:0.458232 3:0.401623 4:0.736762 5:0.293095 6:0.458232 7:0.401623 8:0.736762 9:0.323333 10:0.469352 11:0.392139 12:0.722074 13:0.10893 14:0.715287 15:0.6217 16:-0.299979 17:0.353442 18:-0.306246 19:-0.522929 20:0.712627 21:0.5 22:0.500002 23:0.5 24:0.499998 25:-0.53921 26:0.577993 27:-0.43743 28:-0.428757 29:-0.524157 30:0.600119 31:-0.445719 32:-0.407984 33:0.5 34:0.500002 35:0.5 36:0.499998 
-0 0.301266701900797 0 0 1:0.155695 2:0.342175 3:0.329036 4:0.866262 5:0.155695 6:0.342175 7:0.329036 8:0.866262 9:0.524584 10:0.393847 11:0.366923 12:0.659593 13:0.386347 14:0.662395 15:0.591757 16:0.248581 17:-0.365558 18:0.511339 19:0.60482 20:-0.48897 21:0.5 22:0.500002 23:0.5 24:0.499998 25:-0.521983 26:0.661382 27:-0.297316 28:-0.449122 29:-0.466251 30:0.682015 31:-0.344175 32:-0.446104 33:0.5 34:0.500002 35:0.5 36:0.499998 
-0 0 0.1179655861260568 0 1:0.149965 2:0.343576 3:0.327262 4:0.86739 5:0.149965 6:0.343576 7:0.327262 8:0.86739 9:0.524101 10:0.394677 11:0.369073 12:0.65828 13:0.374403 14:0.677765 15:0.58641 16:0.237865 17:0.369799 18:-0.50501 19:-0.589325 20:0.510793 21:0.5 22:0.500002 23:0.5 24:0.499998 25:-0.524428 26:0.663098 27:-0.296228 28:-0.444437 29:-0.465043 30:0.67594 31:-0.350528 32:-0.451631 33:0.5 34:0.500002 35:0.5 36:0.499998 
-0.07700937020424442 0.1781102083639952 0.007350761361787028 0 1:0.157919 2:0.333945 3:0.326296 4:0.870099 5:0.157919 6:0.333945 7:0.326296 8:0.870099 9:0.53202 10:0.384578 11:0.370218 12:0.657262 13:0.372795 14:0.673707 15:0.592289 16:0.237355 17:0.380525 18:-0.498727 19:-0.587352 20:0.511361 21:0.5 22:0.500002 23:0.5 24:0.499998 25:-0.520338 26:0.660836 27:-0.296243 28:-0.452531 29:-0.457433 30:0.682825 31:-0.349799 32:-0.449606 33:0.5 34:0.500002 35:0.5 36:0.499998 
-0 0 0.03019690040492531 0 1:0.148492 2:0.344157 3:0.320045 4:0.870102 5:0.148492 6:0.344157 7:0.320045 8:0.870102 9:0.524702 10:0.389799 11:0.373003 12:0.658493 13:0.379828 14:0.664905 15:0.593434 16:0.247926 17:-0.366973 18:0.514225 19:0.601469 20:-0.489018 21:0.5 22:0.500002 23:0.5 24:0.499998 25:-0.520166 26:0.658724 27:-0.304585 28:-0.450265 29:-0.469254 30:0.66403 31:-0.353675 32:-0.462362 33:0.5 34:0.500002 35:0.5 36:0.499998 
-0 0.03278912911795498 0 0 1:0.20141 2:0.352394 3:0.359905 4:0.840072 5:0.20141 6:0.352394 7:0.359905 8:0.840072 9:0.51545 10:0.401482 11:0.385979 12:0.651263 13:0.465589 14:0.61279 15:0.574419 16:0.278852 17:-0.320554 18:0.513852 19:0.666315 20:-0.435001 21:0.5 22:0.500002 23:0.5 24:0.499998 25:-0.522524 26:0.638885 27:-0.329649 28:-0.458396 29:-0.492893 30:0.681769 31:-0.340269 32:-0.420077 33:0.5 34:0.500002 35:0.5 36:0.499998 
-0 0 0.1209049544103597 0 1:0.209367 2:0.32663 3:0.49429 4:0.777917 5:0.209367 6:0.32663 7:0.49429 8:0.777917 9:0.50743 10:0.450213 11:0.44145 12:0.587321 13:0.589366 14:0.558304 15:0.498601 16:0.303878 17:-0.258611 18:0.481308 19:0.727376 20:-0.415195 21:0.5 22:0.500002 23:0.5 24:0.499998 25:-0.623715 26:0.625025 27:-0.285204 28:-0.372804 29:-0.51944 30:0.611681 31:-0.41343 32:-0.430238 33:0.5 34:0.500002 35:0.5 36:0.499998 
-0.2695818353868644 0 0 0 1:0.238538 2:0.3477 3:0.483858 4:0.766868 5:0.238538 6:0.3477 7:0.483858 8:0.766868 9:0.507405 10:0.447495 11:0.445401 12:0.586435 13:0.572982 14:0.599918 15:0.484194 16:0.278113 17:-0.215668 18:0.494196 19:0.718498 20:-0.439339 21:0.5 22:0.500002 23:0.5 24:0.499998 25:0.627453 26:-0.624475 27:0.283628 28:0.368631 29:-0.524225 30:0.61525 31:-0.409571 32:-0.422974 33:0.5 34:0.500002 35:0.5 36:0.499998 
-0.2118897758852416 0.05319229141361163 0 0 1:0.239244 2:0.350146 3:0.478963 4:0.768605 5:0.239244 6:0.350146 7:0.478963 8:0.768605 9:0.508544 10:0.446463 11:0.443671 12:0.587546 13:0.565568 14:0.605829 15:0.483738 16:0.28125 17:-0.211232 18:0.503746 19:0.713618 20:-0.438601 21:0.5 22:0.500002 23:0.5 24:0.499998 25:-0.623629 26:0.625565 27:-0.285783 28:-0.371594 29:-0.523926 30:0.622289 31:-0.403726 32:-0.418644 33:0.5 34:0.500002 35:0.5 36:0.499998 
-0 0.2662901524437018 0 0 1:0.239057 2:0.348112 3:0.480157 4:0.768843 5:0.239057 6:0.348112 7:0.480157 8:0.768843 9:0.508845 10:0.445325 11:0.444903 12:0.587217 13:0.553486 14:0.60983 15:0.488447 16:0.288411 17:-0.215729 18:0.514848 19:0.705966 20:-0.435895 21:0.5 22:0.500002 23:0.5 24:0.499998 25:0.623119 26:-0.620188 27:0.290842 28:0.377492 29:-0.533979 30:0.626697 31:-0.391826 32:-0.410596 33:0.5 34:0.500002 35:0.5 36:0.499998 
-0 0 0.4713896308252242 0 1:0.238966 2:0.345392 3:0.477405 4:0.771806 5:0.238966 6:0.345392 7:0.477405 8:0.771806 9:0.514983 10:0.4437 11:0.441871 12:0.585383 13:0.50573 14:0.576467 15:0.579978 16:0.274862 17:-0.268023 18:0.516806 19:0.721318 20:-0.3752 21:0.5 22:0.500002 23:0.5 24:0.499998 25:0.623145 26:-0.615276 27:0.288753 28:0.386972 29:-0.535482 30:0.634531 31:-0.381804 32:-0.406023 33:0.5 34:0.500002 35:0.5 36:0.499998 
-0 0 0.2442274813473904 0 1:0.298473 2:0.403973 3:0.495475 4:0.708678 5:0.298473 6:0.403973 7:0.495475 8:0.708678 9:0.398906 10:0.442653 11:0.481294 12:0.642875 13:0.564189 14:0.528164 15:0.584112 16:0.248088 17:-0.237535 18:0.47296 19:0.776578 20:-0.341779 21:0.5 22:0.500002 23:0.5 24:0.499998 25:0.615949 26:-0.577322 27:0.392383 28:0.365159 29:-0.567988 30:0.587847 31:-0.439371 32:-0.37253 33:0.5 34:0.500002 35:0.5 36:0.499998 
-0 0 1.46707402993117 0 1:0.312689 2:0.397528 3:0.483897 4:0.714171 5:0.312689 6:0.397528 7:0.483897 8:0.714171 9:0.346678 10:0.415225 11:0.472623 12:0.695723 13:0.527207 14:0.480402 15:0.646685 16:0.270306 17:-0.231825 18:0.495628 19:0.801502 20:-0.241256 21:0.5 22:0.500002 23:0.5 24:0.499998 25:0.585786 26:-0.559254 27:0.437301 28:0.39097 29:0.561009 30:-0.556563 31:0.463056 32:0.401354 33:0.5 34:0.500002 35:0.5 36:0.499998 
-0.6557270710947615 -0 0 0 1:0.608549 2:0.418691 3:0.407617 4:0.536856 5:0.608549 6:0.418691 7:0.407617 8:0.536856 9:0.601586 10:0.419384 11:0.407431 12:0.544253 13:0.594328 14:0.514176 15:0.596513 16:-0.163 17:0.243325 18:0.376802 19:0.806131 20:-0.385962 21:0.5 22:0.500002 23:0.5 24:0.499998 25:0.754578 26:-0.286448 27:-0.00896315 28:0.590321 29:-0.561073 30:0.604761 31:0.504644 32:-0.254552 33:0.5 34:0.500002 35:0.5 36:0.499998 
-0 -1.008427559627885 0 0 1:0.601807 2:0.422447 3:0.419301 4:0.532497 5:0.601807 6:0.422447 7:0.419301 8:0.532497 9:0.596316 10:0.426052 11:0.416259 12:0.538159 13:0.609679 14:0.503653 15:0.585382 16:-0.178754 17:0.220039 18:0.339112 19:0.816066 20:-0.413065 21:0.5 22:0.500002 23:0.5 24:0.499998 25:0.726716 26:-0.310227 27:0.0150767 28:0.612712 29:-0.559497 30:0.635466 31:0.464012 32:-0.260461 33:0.5 34:0.500002 35:0.5 36:0.499998 
-0 -0.7151871216362983 0.2100069694281546 0.02362702230376631 1:0.689279 2:0.338385 3:0.306354 4:0.562616 5:0.689279 6:0.338385 7:0.306354 8:0.562616 9:0.668667 10:0.334562 11:0.311906 12:0.586231 13:0.527082 14:0.489628 15:0.654946 16:-0.23129 17:0.0514106 18:-0.206203 19:-0.839122 20:0.500711 21:0.5 22:0.500002 23:0.5 24:0.499998 25:0.719008 26:-0.297289 27:-0.402312 28:0.482485 29:-0.293601 30:0.537544 31:0.769822 32:-0.179495 33:0.5 34:0.500002 35:0.5 36:0.499998 
-0.2480143589218208 -0 0 0 1:0.663726 2:0.378032 3:0.314077 4:0.56384 5:0.663726 6:0.378032 7:0.314077 8:0.56384 9:0.662272 10:0.377427 11:0.314858 12:0.565517 13:0.662153 14:0.451077 15:0.546364 16:-0.244069 17:0.00989772 18:-0.0930199 19:-0.858407 20:0.504368 21:0.5 22:0.500002 23:0.5 24:0.499998 25:0.799389 26:0.0524109 27:-0.432479 28:0.413753 29:-0.186107 30:0.282035 31:0.889621 32:-0.307237 33:0.5 34:0.500002 35:0.5 36:0.499998 
-0.06620427353803147 -0 0 0.003425133153930055 1:0.662734 2:0.38109 3:0.335192 4:0.550637 5:0.662734 6:0.38109 7:0.335192 8:0.550637 9:0.664146 10:0.38001 11:0.335978 12:0.5492 13:0.651887 14:0.440365 15:0.557299 16:-0.265593 17:-0.013453 18:-0.0922239 19:-0.85753 20:0.505921 21:0.5 22:0.500002 23:0.5 24:0.499998 25:0.777239 26:0.0634348 27:-0.470677 28:0.412721 29:-0.139686 30:0.275161 31:0.897845 32:-0.314084 33:0.5 34:0.500002 35:0.5 36:0.499998 
-0.2971621712052184 -0 0 0 1:0.659268 2:0.383911 3:0.337788 4:0.55125 5:0.659268 6:0.383911 7:0.337788 8:0.55125 9:0.659765 10:0.385524 11:0.336242 12:0.550475 13:0.662091 14:0.426911 15:0.554085 16:-0.269022 17:0.0156438 18:0.0767257 19:0.863209 20:-0.498737 21:0.5 22:0.500002 23:0.5 24:0.499998 25:0.773217 26:0.0460808 27:-0.486591 28:0.404031 29:-0.120989 30:0.280951 31:0.905537 32:-0.293991 33:0.5 34:0.500002 35:0.5 36:0.499998 
-0.1853810795421892 -0 0 0 1:0.661301 2:0.383451 3:0.321844 4:0.558625 5:0.661301 6:0.383451 7:0.321844 8:0.558625 9:0.659656 10:0.383628 11:0.321924 12:0.560401 13:0.647585 14:0.43104 15:0.568265 16:-0.268167 17:0.0117565 18:0.0895648 19:0.861483 20:-0.499687 21:0.5 22:0.500002 23:0.5 24:0.499998 25:0.776262 26:0.0697479 27:-0.475983 28:0.407421 29:-0.109881 30:0.27572 31:0.903919 32:-0.307953 33:0.5 34:0.500002 35:0.5 36:0.499998 
-0.04557741617034415 -0 0 0 1:0.625131 2:0.423598 3:0.342505 4:0.558987 5:0.625131 6:0.423598 7:0.342505 8:0.558987 9:0.625279 10:0.425289 11:0.340798 12:0.55858 13:0.497045 14:0.425797 15:0.695445 16:-0.296646 17:-0.0105791 18:0.16786 19:0.854743 20:-0.491045 21:0.5 22:0.500002 23:0.5 24:0.499998 25:0.874133 26:0.143851 27:-0.156162 28:0.436821 29:-0.379604 30:0.272491 31:0.802742 32:-0.370478 33:0.5 34:0.500002 35:0.5 36:0.499998 
-0.4041957677733847 -0 0 0 1:0.604258 2:0.367607 3:0.341526 4:0.618949 5:0.604258 6:0.367607 7:0.341526 8:0.618949 9:0.598627 10:0.368303 11:0.340902 12:0.624327 13:0.558654 14:0.635857 15:0.532314 16:0.0152545 17:0.112138 18:0.510274 19:0.763464 20:-0.379694 21:0.5 22:0.500002 23:0.5 24:0.499998 25:0.743727 26:-0.238702 27:-0.194401 28:0.59338 29:-0.419419 30:0.575831 31:0.644212 32:-0.278385 33:0.5 34:0.500002 35:0.5 36:0.499998 
-0 -0.7798880087230193 0.158368003033651 0.0283549765119644 1:0.581807 2:0.483194 3:0.432927 4:0.490508 5:0.581807 6:0.483194 7:0.432927 8:0.490508 9:0.583356 10:0.482248 11:0.433616 12:0.488989 13:0.524886 14:0.396996 15:0.684806 16:-0.312937 17:-0.0493447 18:0.0964972 19:0.861411 20:-0.496209 21:0.5 22:0.500002 23:0.5 24:0.499998 25:0.656761 26:-0.0867598 27:-0.50172 28:0.556251 29:-0.193158 30:0.418189 31:0.803584 32:-0.37691 33:0.5 34:0.500002 35:0.5 36:0.499998 
-0.06385447053644176 -0 0 0 1:0.588466 2:0.49063 3:0.434142 4:0.473825 5:0.588466 6:0.49063 7:0.434142 8:0.473825 9:0.587656 10:0.492322 11:0.432676 12:0.474417 13:0.493632 14:0.427313 15:0.65916 16:-0.373148 17:0.0100884 18:-0.111553 19:-0.823446 20:0.55623 21:0.5 22:0.500002 23:0.5 24:0.499998 25:0.807532 26:0.207222 27:-0.241542 28:0.496596 29:-0.340884 30:0.24297 31:0.770875 32:-0.480119 33:0.5 34:0.500002 35:0.5 36:0.499998 
-0.5454937537458855 -0 0 0.009639600870008836 1:0.56732 2:0.507932 3:0.433617 4:0.481797 5:0.56732 6:0.507932 7:0.433617 8:0.481797 9:0.56736 10:0.509653 11:0.431899 12:0.481476 13:0.424725 14:0.519369 15:0.644284 16:-0.3671 17:0.0622614 18:-0.183031 19:-0.769166 20:0.609103 21:0.5 22:0.500002 23:0.5 24:0.499998 25:0.800226 26:0.213238 27:-0.121943 28:0.547081 29:0.402428 30:-0.295616 31:-0.702341 32:0.507325 33:0.5 34:0.500002 35:0.5 36:0.499998 
-1.099499241418057 -0 0 0 1:0.569364 2:0.494904 3:0.431428 4:0.494736 5:0.569364 6:0.494904 7:0.431428 8:0.494736 9:0.567894 10:0.494175 11:0.432349 12:0.496348 13:0.439444 14:0.519942 15:0.639164 16:-0.357798 17:0.0598649 18:-0.179576 19:-0.773341 20:0.605072 21:0.5 22:0.500002 23:0.5 24:0.499998 25:0.783526 26:0.210198 27:-0.17448 28:0.558086 29:0.384959 30:-0.281353 31:-0.704389 32:0.525817 33:0.5 34:0.500002 35:0.5 36:0.499998 
-0 -0.3794414776144996 0.1099859030348633 0 1:0.59659 2:0.484529 3:0.379439 4:0.515109 5:0.59659 6:0.484529 7:0.379439 8:0.515109 9:0.594905 10:0.485256 11:0.379017 12:0.516682 13:0.433713 14:0.514826 15:0.682886 16:-0.28375 17:0.0483722 18:-0.251126 19:-0.807528 20:0.531503 21:0.5 22:0.500002 23:0.5 24:0.499998 25:0.765658 26:0.0826388 27:-0.183682 28:0.6109 29:0.432202 30:-0.358101 31:-0.658159 32:0.501789 33:0.5 34:0.500002 35:0.5 36:0.499998 
-0 -0 0 0.03916094678155718 1:0.629571 2:0.430359 3:0.34072 4:0.549856 5:0.629571 6:0.430359 7:0.34072 8:0.549856 9:0.631908 10:0.433928 11:0.336774 12:0.546793 13:0.344904 14:0.607122 15:0.714592 16:-0.0424596 17:0.0668225 18:0.551877 19:0.790655 20:-0.256575 21:0.5 22:0.500002 23:0.5 24:0.499998 25:0.752065 26:-0.218337 27:-0.195738 28:0.590267 29:-0.443871 30:0.549797 31:0.637882 32:-0.306283 33:0.5 34:0.500002 35:0.5 36:0.499998 
-0 -0 0.07990629391043121 0 1:0.625414 2:0.430375 3:0.361994 4:0.54092 5:0.625414 6:0.430375 7:0.361994 8:0.54092 9:0.62837 10:0.435096 11:0.35696 12:0.53705 13:0.364929 14:0.493136 15:0.787813 16:-0.0547289 17:0.0307612 18:0.433294 19:0.867684 20:-0.241732 21:0.5 22:0.500002 23:0.5 24:0.499998 25:0.769357 26:-0.195911 27:-0.16889 28:0.584111 29:-0.51031 30:0.50943 31:0.600014 32:-0.346479 33:0.5 34:0.500002 35:0.5 36:0.499998 
-0 -0 0.1740584353611265 0.03090687871088969 1:0.675976 2:0.323504 3:0.29011 4:0.595179 5:0.675976 6:0.323504 7:0.29011 8:0.595179 9:0.673561 10:0.327955 11:0.286202 12:0.597369 13:0.779644 14:0.461846 15:0.41908 16:0.0567821 17:0.222056 18:0.355399 19:0.856834 20:-0.300363 21:0.5 22:0.500002 23:0.5 24:0.499998 25:0.634342 26:-0.446971 27:-0.0525147 28:0.628545 29:-0.431393 30:0.754461 31:0.468025 32:-0.160129 33:0.5 34:0.500002 35:0.5 36:0.499998 
-0 -0 0 0.007937150343991293 1:0.643897 2:0.302605 3:0.226898 4:0.66509 5:0.643897 6:0.302605 7:0.226898 8:0.66509 9:0.716057 10:0.261167 11:0.26097 12:0.59241 13:0.724595 14:0.403215 15:0.545551 16:0.121462 17:-0.190273 18:0.279757 19:0.886826 20:-0.314757 21:0.5 22:0.500002 23:0.5 24:0.499998 25:0.656067 26:-0.322248 27:-0.494545 28:0.470274 29:-0.242489 30:0.536537 31:0.784982 32:-0.192692 33:0.5 34:0.500002 35:0.5 36:0.499998 
-0 -0.07842299763585109 0 0 1:0.640881 2:0.297328 3:0.170749 4:0.686813 5:0.640881 6:0.297328 7:0.170749 8:0.686813 9:0.751518 10:0.249014 11:0.201006 12:0.576896 13:0.596176 14:0.540539 15:0.575827 16:0.144273 17:-0.247149 18:0.371449 19:0.791151 20:-0.418357 21:0.5 22:0.500002 23:0.5 24:0.499998 25:0.578373 26:-0.502253 27:-0.507367 28:0.394721 29:-0.332763 30:0.616889 31:0.69369 32:-0.165863 33:0.5 34:0.500002 35:0.5 36:0.499998 
-0.1047794649754821 -0.5260541752696026 0.2661896665603897 0.1229916067499403 1:0.672265 2:0.245918 3:0.149076 4:0.682173 5:0.672265 6:0.245918 7:0.149076 8:0.682173 9:0.734615 10:0.220026 11:0.166386 12:0.619874 13:0.551151 14:0.53182 15:0.61874 16:0.174815 17:-0.277023 18:0.409233 19:0.780939 20:-0.381996 21:0.5 22:0.500002 23:0.5 24:0.499998 25:-0.557095 26:0.607507 27:0.435704 28:-0.361583 29:-0.369309 30:0.695647 31:0.603161 32:-0.126025 33:0.5 34:0.500002 35:0.5 36:0.499998 
-0.3391631832554555 -1.416893298127402 0.2546284481362007 0.05134732043842518 1:0.68832 2:0.252984 3:0.177523 4:0.656278 5:0.68832 6:0.252984 7:0.177523 8:0.656278 9:0.70849 10:0.24543 11:0.182479 12:0.636009 13:0.422855 14:0.601996 15:0.659276 16:0.1554 17:-0.265021 18:0.490071 19:0.737031 20:-0.382595 21:0.5 22:0.500002 23:0.5 24:0.499998 25:-0.571421 26:0.769991 27:0.140509 28:-0.246675 29:-0.466518 30:0.804148 31:0.358645 32:0.0841495 33:0.5 34:0.500002 35:0.5 36:0.499998 
-0 -0.403654664378243 0 0 1:0.675883 2:0.37107 3:0.246351 4:0.587196 5:0.675883 6:0.37107 7:0.246351 8:0.587196 9:0.685056 10:0.360174 11:0.254996 12:0.579612 13:0.431472 14:0.615569 15:0.631878 16:0.188778 17:-0.251544 18:0.51777 19:0.722609 20:-0.382722 21:0.5 22:0.500002 23:0.5 24:0.499998 25:0.758965 26:-0.583947 27:0.219049 28:0.187074 29:-0.63651 30:0.754714 31:0.137928 32:0.0789773 33:0.5 34:0.500002 35:0.5 36:0.499998 
-0 -2 0.5609409342298324 0.0923741082349418 1:0.67465 2:0.382735 3:0.259381 4:0.575398 5:0.67465 6:0.382735 7:0.259381 8:0.575398 9:0.680416 10:0.376936 11:0.26373 12:0.570438 13:0.428353 14:0.613005 15:0.631539 16:0.204687 17:-0.256564 18:0.527258 19:0.718681 20:-0.373726 21:0.5 22:0.500002 23:0.5 24:0.499998 25:0.789649 26:-0.486493 27:0.339837 28:0.155853 29:-0.69414 30:0.714857 31:0.0393988 32:0.0748064 33:0.5 34:0.500002 35:0.5 36:0.499998 
-0 -1.366695359389352 0 0 1:0.664327 2:0.387487 3:0.272998 4:0.577923 5:0.664327 6:0.387487 7:0.272998 8:0.577923 9:0.671239 10:0.386695 11:0.272336 12:0.570736 13:0.45487 14:0.605385 15:0.614034 16:0.222631 17:-0.239114 18:0.531107 19:0.725789 20:-0.366034 21:0.5 22:0.500002 23:0.5 24:0.499998 25:0.790137 26:-0.262432 27:0.54749 28:0.0840723 29:0.790734 30:-0.575282 31:0.200416 32:-0.0602009 33:0.5 34:0.500002 35:0.5 36:0.499998 
-0.1223790569955184 -2 0.8390555137766539 0.4640650757535171 1:0.655708 2:0.38044 3:0.279244 4:0.589352 5:0.655708 6:0.38044 7:0.279244 8:0.589352 9:0.665486 10:0.380482 11:0.277439 12:0.579129 13:0.478028 14:0.601467 15:0.600651 16:0.221236 17:-0.232019 18:0.519048 19:0.731751 20:-0.375895 21:0.5 22:0.500002 23:0.5 24:0.499998 25:0.78022 26:-0.211335 27:0.584817 28:0.0677027 29:0.805251 30:-0.528623 31:0.26281 32:-0.0553179 33:0.5 34:0.500002 35:0.5 36:0.499998 
-0.8751145466630035 -0.3538931780574492 0.02405771661381795 0 1:0.646592 2:0.403422 3:0.288669 4:0.579517 5:0.646592 6:0.403422 7:0.288669 8:0.579517 9:0.657864 10:0.379126 11:0.310666 12:0.571808 13:0.590044 14:0.569615 15:0.559112 16:0.121572 17:-0.156899 18:0.407348 19:0.797585 20:-0.416304 21:0.5 22:0.500002 23:0.5 24:0.499998 25:0.880291 26:-0.449199 27:-0.0793475 28:0.13043 29:0.632174 30:-0.542616 31:-0.527712 32:-0.16566 33:0.5 34:0.500002 35:0.5 36:0.499998 
-0 -0 0 0.02575268669336107 1:0.691637 2:0.358661 3:0.274736 4:0.563489 5:0.691637 6:0.358661 7:0.274736 8:0.563489 9:0.693003 10:0.360575 11:0.272721 12:0.561565 13:0.596343 14:0.531482 15:0.598565 16:0.0601802 17:-0.168888 18:0.344075 19:0.827878 20:-0.409521 21:0.5 22:0.500002 23:0.5 24:0.499998 25:0.812666 26:-0.332112 27:-0.476062 28:0.0513774 29:-0.449937 30:0.310911 31:0.827417 32:0.127562 33:0.5 34:0.500002 35:0.5 36:0.499998 
-0 -2 0.2470377621127969 0 1:0.548631 2:0.485936 3:0.423491 4:0.532471 5:0.548631 6:0.485936 7:0.423491 8:0.532471 9:0.551036 10:0.473543 11:0.436071 12:0.530998 13:-0.127851 14:0.765253 15:0.596384 16:0.205833 17:-0.529902 18:0.663374 19:0.302051 20:-0.43348 21:0.5 22:0.500002 23:0.5 24:0.499998 25:0.687482 26:0.431359 27:-0.189321 28:0.55268 29:0.38262 30:-0.0511115 31:-0.601727 32:0.699223 33:0.5 34:0.500002 35:0.5 36:0.499998 
-0 -0.2758465582297654 0 0 1:0.555185 2:0.474657 3:0.416547 4:0.541256 5:0.555185 6:0.474657 7:0.416547 8:0.541256 9:0.556382 10:0.463408 11:0.428034 12:0.540813 13:-0.124388 14:0.763492 15:0.599086 16:0.206649 17:-0.53449 18:0.65575 19:0.29782 20:-0.442285 21:0.5 22:0.500002 23:0.5 24:0.499998 25:0.686794 26:0.436809 27:-0.187636 28:0.549823 29:0.379928 30:-0.0490149 31:-0.602119 32:0.700503 33:0.5 34:0.500002 35:0.5 36:0.499998 
-0 -2 0.2588139035588722 0.02126165819571216 1:0.563825 2:0.456961 3:0.41839 4:0.546112 5:0.563825 6:0.456961 7:0.41839 8:0.546112 9:0.564903 10:0.451374 11:0.423973 12:0.545338 13:-0.122381 14:0.762662 15:0.629749 16:0.0823743 17:0.543674 18:-0.580908 19:-0.340557 20:0.500985 21:0.5 22:0.500002 23:0.5 24:0.499998 25:0.720093 26:0.374267 27:-0.191899 28:0.551874 29:0.439081 30:-0.0561926 31:-0.602135 32:0.664442 33:0.5 34:0.500002 35:0.5 36:0.499998 
-0 -1.216467698789349 0 0 1:0.566943 2:0.432163 3:0.419202 4:0.56221 5:0.566943 6:0.432163 7:0.419202 8:0.56221 9:0.571214 10:0.432872 11:0.418393 12:0.557928 13:-0.0826794 14:0.771904 15:0.627782 16:0.0567242 17:0.507546 18:-0.579027 19:-0.378607 20:0.513597 21:0.5 22:0.500002 23:0.5 24:0.499998 25:0.706075 26:0.37785 27:-0.195436 28:0.56612 29:0.440007 30:-0.0462399 31:-0.585774 32:0.679061 33:0.5 34:0.500002 35:0.5 36:0.499998 
-0 -0.3027912925996615 0.1995230951414333 0.05718096000074438 1:0.485474 2:0.501853 3:0.508977 4:0.503389 5:0.485474 6:0.501853 7:0.508977 8:0.503389 9:0.542542 10:0.572902 11:0.429181 12:0.439585 13:0.108287 14:0.76753 15:0.557253 16:-0.297727 17:0.305606 18:-0.350923 19:-0.478395 20:0.744712 21:0.5 22:0.500002 23:0.5 24:0.499998 25:0.274004 26:0.550012 27:-0.376236 28:0.693437 29:-0.163024 30:-0.275674 31:-0.435954 32:0.841054 33:0.5 34:0.500002 35:0.5 36:0.499998 
-0.02808313864099925 -0 0 0.005912452923781343 1:0.599918 2:0.519635 3:0.289632 4:0.534968 5:0.599918 6:0.519635 7:0.289632 8:0.534968 9:0.598405 10:0.519095 11:0.29077 12:0.536568 13:0.367276 14:0.798303 15:0.445851 16:-0.170405 17:0.116949 18:-0.367909 19:-0.565684 20:0.728675 21:0.5 22:0.500002 23:0.5 24:0.499998 25:0.666074 26:0.250757 27:-0.539572 28:0.449808 29:-0.115977 30:0.125243 31:0.849319 32:-0.499521 33:0.5 34:0.500002 35:0.5 36:0.499998 
-0.2164085548925072 -0 0 0 1:0.597554 2:0.520516 3:0.29097 4:0.536031 5:0.597554 6:0.520516 7:0.29097 8:0.536031 9:0.599142 10:0.520945 11:0.289937 12:0.534399 13:0.382172 14:0.790566 15:0.449244 16:-0.164713 17:0.102501 18:-0.377063 19:-0.580835 20:0.714106 21:0.5 22:0.500002 23:0.5 24:0.499998 25:0.664351 26:0.248858 27:-0.540002 28:0.452886 29:-0.104134 30:0.134792 31:0.849776 32:-0.498866 33:0.5 34:0.500002 35:0.5 36:0.499998 
-0.1728434371116349 -0 0 0 1:0.539154 2:0.530248 3:0.467845 4:0.457461 5:0.539154 6:0.530248 7:0.467845 8:0.457461 9:0.54176 10:0.548232 11:0.449258 12:0.451779 13:0.034186 14:0.764628 15:0.578974 16:-0.281005 17:0.363926 18:-0.377137 19:-0.451595 20:0.722072 21:0.5 22:0.500002 23:0.5 24:0.499998 25:0.957628 26:0.144964 27:0.12737 28:0.213802 29:0.158078 30:0.100683 31:0.937981 32:-0.291662 33:0.5 34:0.500002 35:0.5 36:0.499998 
-0 -1.926500370812526 0 0 1:0.528464 2:0.562546 3:0.464872 4:0.433776 5:0.528464 6:0.562546 7:0.464872 8:0.433776 9:0.52827 10:0.564494 11:0.462902 12:0.433589 13:0.117345 14:0.537176 15:0.670598 16:-0.497966 17:0.37401 18:-0.0500673 19:-0.568848 20:0.730768 21:0.5 22:0.500002 23:0.5 24:0.499998 25:0.83518 26:0.0511243 27:0.54238 28:0.0753989 29:0.407677 30:0.0626181 31:0.892733 32:-0.1814 33:0.5 34:0.500002 35:0.5 36:0.499998 
-0.2492200069143016 -2 0.5173091193007137 0.4709100558636806 1:0.531077 2:0.568193 3:0.460098 4:0.42828 5:0.531077 6:0.568193 7:0.460098 8:0.42828 9:0.530942 10:0.570067 11:0.458182 12:0.428011 13:0.120542 14:0.527985 15:0.678695 16:-0.496059 17:0.384308 18:-0.0357687 19:-0.572245 20:0.723577 21:0.5 22:0.500002 23:0.5 24:0.499998 25:0.812847 26:0.041028 27:0.577872 28:0.060508 29:0.44148 30:0.0566503 31:0.880314 32:-0.164115 33:0.5 34:0.500002 35:0.5 36:0.499998 
-0.4199591620532732 -1.431044666198456 0.7104248820124465 0.5183305098011401 1:0.511906 2:0.58717 3:0.463747 4:0.422046 5:0.511906 6:0.58717 7:0.463747 8:0.422046 9:0.51325 10:0.588246 11:0.462301 12:0.420498 13:-0.109636 14:-0.524362 15:-0.676762 16:0.504993 17:0.393266 18:-0.0237912 19:-0.561577 20:0.727604 21:0.5 22:0.500002 23:0.5 24:0.499998 25:0.79376 26:0.0328883 27:0.605402 28:0.0485031 29:0.471288 30:0.0511997 31:0.867908 32:-0.14833 33:0.5 34:0.500002 35:0.5 36:0.499998 
-0 -0 0 0.001044705166704229 1:0.543632 2:0.537103 3:0.430253 4:0.480487 5:0.543632 6:0.537103 7:0.430253 8:0.480487 9:0.545721 10:0.544098 11:0.422443 12:0.477167 13:0.0875648 14:0.720133 15:0.639818 16:-0.253719 17:0.37791 18:-0.346413 19:-0.52366 20:0.680414 21:0.5 22:0.500002 23:0.5 24:0.499998 25:0.855224 26:0.34025 27:0.0995345 28:0.37804 29:0.0787099 30:-0.0438783 31:-0.831396 32:0.548324 33:0.5 34:0.500002 35:0.5 36:0.499998 
-1.352779365357106 -0 0 0 1:0.548624 2:0.484476 3:0.405825 4:0.547357 5:0.548624 6:0.484476 7:0.405825 8:0.547357 9:0.563906 10:0.489204 11:0.399142 12:0.53233 13:0.052494 14:0.785294 15:0.61604 16:-0.0324446 17:0.37484 18:-0.560044 19:-0.491687 20:0.551443 21:0.5 22:0.500002 23:0.5 24:0.499998 25:0.737739 26:0.474892 27:-0.0090836 28:0.479724 29:0.571651 30:0.0729399 31:-0.46643 32:0.671072 33:0.5 34:0.500002 35:0.5 36:0.499998 
-0 -0 0 0.06331170305072295 1:0.567432 2:0.482735 3:0.392075 4:0.53969 5:0.567432 6:0.482735 7:0.392075 8:0.53969 9:0.578286 10:0.484248 11:0.388989 12:0.528939 13:0.0478335 14:0.784278 15:0.61856 16:0.00169817 17:0.373191 18:-0.589408 19:-0.495614 20:0.517391 21:0.5 22:0.500002 23:0.5 24:0.499998 25:0.743867 26:0.464079 27:0.00344393 28:0.480916 29:0.583535 30:0.0627099 31:-0.461342 32:0.66537 33:0.5 34:0.500002 35:0.5 36:0.499998 
-2 -1.145393591531273 0.05125026099078884 0 1:0.564689 2:0.470488 3:0.396089 4:0.550346 5:0.564689 6:0.470488 7:0.396089 8:0.550346 9:0.578681 10:0.475997 11:0.388709 12:0.536154 13:0.0502874 14:0.78044 15:0.623192 16:0.00410495 17:0.364342 18:-0.598246 19:-0.508086 20:0.501203 21:0.5 22:0.500002 23:0.5 24:0.499998 25:0.750908 26:0.455293 27:-0.0036855 28:0.478364 29:0.590025 30:0.0650719 31:-0.464486 32:0.657183 33:0.5 34:0.500002 35:0.5 36:0.499998 
-0.1620178146346591 -0 0 0.2431314418794873 1:0.593888 2:0.433522 3:0.410768 4:0.539097 5:0.593888 6:0.433522 7:0.410768 8:0.539097 9:0.601305 10:0.436887 11:0.406936 12:0.531004 13:-0.077478 14:0.796423 15:0.597843 16:0.0478731 17:-0.34512 18:0.728315 19:0.494278 20:-0.325789 21:0.5 22:0.500002 23:0.5 24:0.499998 25:0.799348 26:0.322494 27:0.037227 28:0.505623 29:0.749066 30:0.0965796 31:-0.281503 32:0.591886 33:0.5 34:0.500002 35:0.5 36:0.499998 
-0 -1.999232788131091 0.552046589121902 0 1:0.601077 2:0.410852 3:0.407062 4:0.551551 5:0.601077 6:0.410852 7:0.407062 8:0.551551 9:0.609006 10:0.415322 11:0.402392 12:0.542863 13:-0.0774164 14:0.797653 15:0.596132 16:0.048816 17:-0.347237 18:0.727867 19:0.490707 20:-0.329913 21:0.5 22:0.500002 23:0.5 24:0.499998 25:0.772941 26:0.343618 27:0.0444096 28:0.531524 29:0.725076 30:0.0997769 31:-0.271429 32:0.625008 33:0.5 34:0.500002 35:0.5 36:0.499998 
-0.3087081713258041 -0 0 0 1:0.583348 2:0.423707 3:0.405745 4:0.561737 5:0.583348 6:0.423707 7:0.405745 8:0.561737 9:0.593453 10:0.42656 11:0.402431 12:0.55128 13:-0.0141132 14:0.836935 15:0.538364 16:0.0974877 17:-0.329231 18:0.733066 19:0.426195 20:-0.415426 21:0.5 22:0.500002 23:0.5 24:0.499998 25:0.82118 26:0.294167 27:-0.107911 28:0.476954 29:0.596387 30:-0.0467841 31:-0.57472 32:0.558418 33:0.5 34:0.500002 35:0.5 36:0.499998 
-1.020054227611596 -0 0 0 1:0.542351 2:0.510257 3:0.40749 4:0.528625 5:0.542351 6:0.510257 7:0.40749 8:0.528625 9:0.541553 10:0.512024 11:0.405657 12:0.529144 13:0.326326 14:0.644893 15:0.688517 16:-0.0597361 17:-0.255217 18:0.414387 19:0.71792 20:-0.497734 21:0.5 22:0.500002 23:0.5 24:0.499998 25:0.747325 26:0.380866 27:-0.127747 28:0.52927 29:0.477019 30:-0.0633055 31:-0.589293 32:0.648983 33:0.5 34:0.500002 35:0.5 36:0.499998 
-2 -0 0 0 1:0.569973 2:0.468191 3:0.459146 4:0.495089 5:0.569973 6:0.468191 7:0.459146 8:0.495089 9:0.534166 10:0.518959 11:0.411243 12:0.525573 13:0.340462 14:0.634687 15:0.69121 16:-0.0590452 17:-0.24482 18:0.409184 19:0.730581 20:-0.488756 21:0.5 22:0.500002 23:0.5 24:0.499998 25:0.743105 26:0.39303 27:-0.106417 28:0.531034 29:0.485954 30:-0.0576096 31:-0.572171 32:0.658142 33:0.5 34:0.500002 35:0.5 36:0.499998 
-0 -0.1644252358776205 0 0 1:0.604806 2:0.414765 3:0.360457 4:0.576411 5:0.604806 6:0.414765 7:0.360457 8:0.576411 9:0.611313 10:0.417764 11:0.356813 12:0.569609 13:0.15092 14:0.769355 15:0.606296 16:0.133119 17:0.415339 18:-0.54409 19:-0.46676 20:0.559995 21:0.5 22:0.500002 23:0.5 24:0.499998 25:0.767354 26:0.154688 27:-0.356585 28:0.509987 29:-0.327179 30:0.229059 31:0.780345 32:-0.481194 33:0.5 34:0.500002 35:0.5 36:0.499998 
-0 -0.06270975497091028 0 0 1:0.603014 2:0.414103 3:0.363199 4:0.577044 5:0.603014 6:0.414103 7:0.363199 8:0.577044 9:0.610622 10:0.419382 11:0.357165 12:0.56894 13:0.172952 14:0.774945 15:0.589575 16:0.148153 17:0.402494 18:-0.54358 19:-0.46423 20:0.571847 21:0.5 22:0.500002 23:0.5 24:0.499998 25:0.757253 26:0.158325 27:-0.373619 28:0.511772 29:-0.306931 30:0.228379 31:0.786649 32:-0.484582 33:0.5 34:0.500002 35:0.5 36:0.499998 
-0.006602600156851587 -0.6587172076492357 0.3113546254563024 0.09697846738977389 1:0.583791 2:0.401975 3:0.376398 4:0.596597 5:0.583791 6:0.401975 7:0.376398 8:0.596597 9:0.623922 10:0.439618 11:0.333887 12:0.553152 13:0.183682 14:0.787821 15:0.569977 16:0.143966 17:0.402154 18:-0.518064 19:-0.443716 20:0.610735 21:0.5 22:0.500002 23:0.5 24:0.499998 25:0.763632 26:0.154006 27:-0.352359 28:0.518644 29:-0.309785 30:0.246277 31:0.781872 32:-0.481723 33:0.5 34:0.500002 35:0.5 36:0.499998 
-1.011662547965891 -0 0 0 1:0.620009 2:0.479885 3:0.260562 4:0.563388 5:0.620009 6:0.479885 7:0.260562 8:0.563388 9:0.621976 10:0.47927 11:0.260643 12:0.561703 13:0.459193 14:0.841051 15:0.265238 16:0.106881 17:-0.0082242 18:-0.523627 19:-0.530228 20:0.666787 21:0.5 22:0.500002 23:0.5 24:0.499998 25:0.566095 26:0.235391 27:-0.59369 28:0.521211 29:0.0105448 30:-0.18237 31:-0.820256 32:0.542043 33:0.5 34:0.500002 35:0.5 36:0.499998 
-0 -0.2774167609364501 0.1872271982307512 0.08916177400100982 1:0.62889 2:0.462224 3:0.244938 4:0.575197 5:0.62889 6:0.462224 7:0.244938 8:0.575197 9:0.630214 10:0.463123 11:0.243487 12:0.57364 13:0.466381 14:0.836937 15:0.259469 16:0.121249 17:-0.00256534 18:-0.516075 19:-0.533693 20:0.669949 21:0.5 22:0.500002 23:0.5 24:0.499998 25:0.544968 26:0.238795 27:-0.622023 28:0.508993 29:-0.0112187 30:-0.163119 31:-0.826908 32:0.538042 33:0.5 34:0.500002 35:0.5 36:0.499998 
-0 -0 -0 0.9692759356324792 1:0.38171 2:0.28958 3:0.561774 4:0.674427 5:0.38171 6:0.28958 7:0.561774 8:0.674427 9:0.400761 10:0.305748 11:0.552926 12:0.663461 13:-0.0704165 14:0.43353 15:0.31649 16:0.84079 17:-0.236759 18:0.832429 19:0.221515 20:0.449374 21:0.5 22:0.500002 23:0.5 24:0.499998 25:0.57139 26:-0.0729936 27:0.77337 28:0.264734 29:0.816012 30:-0.165345 31:0.508638 32:0.219257 33:0.5 34:0.500002 35:0.5 36:0.499998 
-0 -0 -0 1.246865813583031 1:0.261323 2:0.410613 3:0.618927 4:0.616471 5:0.261323 6:0.410613 7:0.618927 8:0.616471 9:0.284719 10:0.430006 11:0.608158 12:0.603468 13:-0.232297 14:0.65967 15:0.261926 16:0.665032 17:-0.294224 18:0.814325 19:0.189735 20:0.462934 21:0.5 22:0.500002 23:0.5 24:0.499998 25:0.504608 26:-0.0516239 27:0.793815 28:0.335505 29:0.829965 30:-0.210071 31:0.442639 32:0.266643 33:0.5 34:0.500002 35:0.5 36:0.499998 
-0 -0.3898926838540621 -0 0 1:0.374698 2:0.173645 3:0.576827 4:0.704783 5:0.374698 6:0.173645 7:0.576827 8:0.704783 9:0.409708 10:0.212551 11:0.55255 12:0.69401 13:-0.11176 14:0.478322 15:0.370444 16:0.788346 17:-0.262729 18:0.775304 19:0.284064 20:0.499184 21:0.5 22:0.500002 23:0.5 24:0.499998 25:0.540756 26:-0.0410532 27:0.775484 28:0.323298 29:0.728761 30:-0.126174 31:0.602246 32:0.300478 33:0.5 34:0.500002 35:0.5 36:0.499998 
-0.2990548588534375 -1.206625337808787 -0.6457313834981879 0 1:0.377733 2:0.167398 3:0.584683 4:0.69817 5:0.377733 6:0.167398 7:0.584683 8:0.69817 9:0.415152 10:0.204725 11:0.566386 12:0.681867 13:0.161586 14:0.227051 15:0.370386 16:0.886088 17:-0.0570416 18:0.658623 19:0.400053 20:0.63476 21:0.5 22:0.500002 23:0.5 24:0.499998 25:0.691063 26:-0.336798 27:0.591564 28:0.243005 29:0.824501 30:-0.389669 31:0.384336 32:0.143673 33:0.5 34:0.500002 35:0.5 36:0.499998 
-0 -0 -0 0.5707764618396033 1:0.27578 2:0.398316 3:0.621368 4:0.615786 5:0.27578 6:0.398316 7:0.621368 8:0.615786 9:0.299305 10:0.418586 11:0.610015 12:0.602564 13:-0.27621 14:0.730429 15:0.203639 16:0.59052 17:-0.322842 18:0.868589 19:0.116334 20:0.357481 21:0.5 22:0.500002 23:0.5 24:0.499998 25:0.542536 26:0.00244662 27:0.748508 28:0.381293 29:0.792979 30:-0.147548 31:0.475178 32:0.351596 33:0.5 34:0.500002 35:0.5 36:0.499998 
-0 -1.443429044225335 -0 0 1:0.288058 2:0.406002 3:0.614106 4:0.612421 5:0.288058 6:0.406002 7:0.614106 8:0.612421 9:0.309444 10:0.423579 11:0.604343 12:0.599661 13:-0.300843 14:0.72286 15:0.221096 16:0.58145 17:-0.353287 18:0.863921 19:0.120741 20:0.338009 21:0.5 22:0.500002 23:0.5 24:0.499998 25:0.547663 26:0.00966946 27:0.745396 28:0.379942 29:0.792625 30:-0.137502 31:0.476756 32:0.35432 33:0.5 34:0.500002 35:0.5 36:0.499998 
-0 -0.2344110669848603 -0 0.5672422558493674 1:0.430079 2:0.266801 3:0.542727 4:0.670296 5:0.430079 6:0.266801 7:0.542727 8:0.670296 9:0.454149 10:0.289961 11:0.528266 12:0.656206 13:0.0830278 14:0.300549 15:0.328161 16:0.891677 17:-0.0732453 18:0.669091 19:0.330482 20:0.661615 21:0.5 22:0.500002 23:0.5 24:0.499998 25:0.705212 26:-0.293292 27:0.568814 28:0.305133 29:0.830376 30:-0.363452 31:0.362421 32:0.216863 33:0.5 34:0.500002 35:0.5 36:0.499998 
-0 -0.09257951464622843 -0 0 1:0.401911 2:0.36146 3:0.557822 4:0.6298 5:0.401911 6:0.36146 7:0.557822 8:0.6298 9:0.421301 10:0.377178 11:0.548024 12:0.61637 13:0.0250273 14:0.573027 15:0.451823 16:0.683278 17:-0.12355 18:0.71898 19:0.417454 20:0.541788 21:0.5 22:0.500002 23:0.5 24:0.499998 25:0.408446 26:-0.0290634 27:0.684528 28:0.603116 29:0.529852 30:-0.111994 31:0.572931 32:0.615194 33:0.5 34:0.500002 35:0.5 36:0.499998 
-0.2184109671862184 -1.670732520737654 -0.5211125660140992 0.0534179156551848 1:0.436746 2:0.314163 3:0.53124 4:0.654475 5:0.436746 6:0.314163 7:0.53124 8:0.654475 9:0.455199 10:0.330448 11:0.520561 12:0.642351 13:-0.124996 14:0.352938 15:0.436396 16:0.81815 17:-0.387316 18:0.813462 19:0.236751 20:0.363612 21:0.5 22:0.500002 23:0.5 24:0.499998 25:0.512089 26:-0.357133 27:0.411595 28:0.663935 29:-0.653449 30:0.660064 31:-0.0681914 32:-0.364238 33:0.5 34:0.500002 35:0.5 36:0.499998 
-0 -0 -0 0.3965374978723784 1:0.419777 2:0.337685 3:0.552549 4:0.635961 5:0.419777 6:0.337685 7:0.552549 8:0.635961 9:0.437979 10:0.356942 11:0.53857 12:0.625068 13:0.0866794 14:0.310819 15:0.406437 16:0.854803 17:-0.0307601 18:0.538032 19:0.414437 20:0.733361 21:0.5 22:0.500002 23:0.5 24:0.499998 25:0.444791 26:-0.318052 27:0.438042 28:0.713528 29:-0.623738 30:0.714815 31:-0.0259084 32:-0.315149 33:0.5 34:0.500002 35:0.5 36:0.499998 
-0.5334330183798583 -1.029599016687641 -0.730452548966659 0 1:0.415265 2:0.346626 3:0.556977 4:0.630224 5:0.415265 6:0.346626 7:0.556977 8:0.630224 9:0.433427 10:0.364894 11:0.544101 12:0.618827 13:0.0957582 14:0.292326 15:0.422739 16:0.852448 17:-0.00702347 18:0.495168 19:0.44136 20:0.748305 21:0.5 22:0.500002 23:0.5 24:0.499998 25:0.405763 26:-0.26999 27:0.487034 28:0.724748 29:-0.629267 30:0.693299 31:-0.0766072 32:-0.342769 33:0.5 34:0.500002 35:0.5 36:0.499998 
-0.3928410108487129 -0.6805803233676139 -0.4527047181182305 0 1:0.408454 2:0.354475 3:0.562389 4:0.625485 5:0.408454 6:0.354475 7:0.562389 8:0.625485 9:0.426948 10:0.37323 11:0.5491 12:0.613925 13:0.0972029 14:0.285037 15:0.438546 16:0.846748 17:-0.00510945 18:0.480347 19:0.458484 20:0.747685 21:0.5 22:0.500002 23:0.5 24:0.499998 25:0.401962 26:-0.223458 27:0.532582 28:0.710528 29:0.650971 30:-0.629821 31:0.146469 32:0.397629 33:0.5 34:0.500002 35:0.5 36:0.499998 
-0.400428964419427 -0.1801000071741017 -0.5160978224198642 0 1:0.450453 2:0.349611 3:0.526541 4:0.63057 5:0.450453 6:0.349611 7:0.526541 8:0.63057 9:0.464826 10:0.361984 11:0.517957 12:0.620181 13:-0.117997 14:0.0262563 15:0.45247 16:0.883549 17:-0.453465 18:0.787321 19:0.114112 20:0.401838 21:0.5 22:0.500002 23:0.5 24:0.499998 25:0.102235 26:-0.201574 27:0.707831 28:0.669247 29:-0.64659 30:0.669274 31:-0.30561 32:-0.201483 33:0.5 34:0.500002 35:0.5 36:0.499998 
-0 -0 -0.0009260787370714304 0.06524734927769203 1:0.448921 2:0.359642 3:0.525894 4:0.626549 5:0.448921 6:0.359642 7:0.525894 8:0.626549 9:0.463821 10:0.372897 11:0.516279 12:0.615852 13:-0.127297 14:0.0592954 15:0.46904 16:0.871941 17:-0.471239 18:0.789118 19:0.118897 20:0.37562 21:0.5 22:0.500002 23:0.5 24:0.499998 25:0.125581 26:-0.209667 27:0.708755 28:0.661767 29:-0.653456 30:0.662927 31:-0.301827 32:-0.20597 33:0.5 34:0.500002 35:0.5 36:0.499998 
-0.138156296926091 -0 -0.2729757407620969 0 1:0.441699 2:0.365417 3:0.529803 4:0.625045 5:0.441699 6:0.365417 7:0.529803 8:0.625045 9:0.457567 10:0.380296 11:0.51865 12:0.614011 13:-0.161814 14:0.0547731 15:0.514571 16:0.840258 17:-0.528524 18:0.761532 19:0.107838 20:0.359307 21:0.5 22:0.500002 23:0.5 24:0.499998 25:0.127316 26:-0.200178 27:0.721046 28:0.651008 29:0.664948 30:-0.648954 31:0.306531 32:0.206739 33:0.5 34:0.500002 35:0.5 36:0.499998 
-0 -0 -0.01327570086453439 0 1:0.420905 2:0.368954 3:0.542288 4:0.626606 5:0.420905 6:0.368954 7:0.542288 8:0.626606 9:0.43863 10:0.385355 11:0.530296 12:0.614729 13:-0.190272 14:0.366579 15:0.578817 16:0.703127 17:-0.578366 18:0.7832 19:0.191637 20:0.123959 21:0.5 22:0.500002 23:0.5 24:0.499998 25:0.279684 26:-0.201898 27:0.679727 28:0.647291 29:0.677986 30:-0.599999 31:0.283879 32:0.315831 33:0.5 34:0.500002 35:0.5 36:0.499998 
-0 -1.154969553680235 -0 0 1:0.418768 2:0.277386 3:0.54453 4:0.671697 5:0.418768 6:0.277386 7:0.54453 8:0.671697 9:0.442671 10:0.29462 11:0.536891 12:0.654973 13:-0.264762 14:0.604194 15:0.410183 16:0.629763 17:-0.330389 18:0.736043 19:0.353707 20:0.47326 21:0.5 22:0.500002 23:0.5 24:0.499998 25:0.640491 26:-0.306962 27:0.435007 28:0.553457 29:0.744584 30:-0.465008 31:0.212263 32:0.42931 33:0.5 34:0.500002 35:0.5 36:0.499998 
-0.1729798628759635 -0 -0.05038354839132372 0 1:0.127945 2:0.364807 3:0.666942 4:0.636973 5:0.127945 6:0.364807 7:0.666942 8:0.636973 9:0.163803 10:0.394584 11:0.657866 12:0.620229 13:-0.226224 14:0.699772 15:0.119379 16:0.667001 17:-0.250748 18:0.859821 19:0.0505372 20:0.441903 21:0.5 22:0.500002 23:0.5 24:0.499998 25:0.33045 26:0.0410331 27:0.871874 28:0.359103 29:0.773334 30:-0.173914 31:0.520879 32:0.316848 33:0.5 34:0.500002 35:0.5 36:0.499998 
-0 -0 -0.001030195909940327 0 1:0.099419 2:0.366853 3:0.675601 4:0.631742 5:0.099419 6:0.366853 7:0.675601 8:0.631742 9:0.128478 10:0.397642 11:0.65796 12:0.626468 13:-0.387195 14:0.653936 15:0.394863 16:0.516266 17:-0.393479 18:0.779777 19:0.340492 20:0.348119 21:0.5 22:0.500002 23:0.5 24:0.499998 25:0.44342 26:0.016597 27:0.835187 28:0.32491 29:0.78027 30:-0.136026 31:0.534169 32:0.295531 33:0.5 34:0.500002 35:0.5 36:0.499998 
-0.04418917069728499 -0 -0.03556653801152348 0 1:0.167331 2:0.301518 3:0.673362 4:0.653965 5:0.167331 6:0.301518 7:0.673362 8:0.653965 9:0.19242 10:0.331952 11:0.65321 12:0.652762 13:-0.382075 14:0.272419 15:0.514873 16:0.717435 17:-0.632387 18:0.693976 19:0.105649 20:0.327601 21:0.5 22:0.500002 23:0.5 24:0.499998 25:0.605009 26:-0.105964 27:0.757389 28:0.22158 29:0.748903 30:-0.16889 31:0.615196 32:0.179316 33:0.5 34:0.500002 35:0.5 36:0.499998 
-0.306428126624828 -0.1861015149297453 -0.4994779151719302 0 1:0.182505 2:0.295491 3:0.666909 4:0.659249 5:0.182505 6:0.295491 7:0.666909 8:0.659249 9:0.212243 10:0.329767 11:0.645506 12:0.655384 13:-0.425512 14:0.307963 15:0.538894 16:0.658553 17:0.676088 18:-0.667776 19:-0.119884 20:-0.287416 21:0.5 22:0.500002 23:0.5 24:0.499998 25:0.549535 26:-0.0513544 27:0.803923 28:0.221546 29:0.745587 30:-0.109074 31:0.626403 32:0.199556 33:0.5 34:0.500002 35:0.5 36:0.499998 
-0.6334832882487703 -1.673181990872612 -0.885994194345413 0.395963669534072 1:0.175614 2:0.287361 3:0.672283 4:0.659256 5:0.175614 6:0.287361 7:0.672283 8:0.659256 9:0.208441 10:0.325516 11:0.648697 12:0.655579 13:-0.479768 14:0.334238 15:0.552551 16:0.593965 17:0.71922 18:-0.630905 19:-0.134955 20:-0.257815 21:0.5 22:0.500002 23:0.5 24:0.499998 25:0.511042 26:-0.00676908 27:0.829053 28:0.22685 29:0.738045 30:-0.0751272 31:0.635439 32:0.214156 33:0.5 34:0.500002 35:0.5 36:0.499998 
-0 -0.2365537854354536 -0 0 1:0.17952 2:0.293143 3:0.674071 4:0.65381 5:0.17952 6:0.293143 7:0.674071 8:0.65381 9:0.212425 10:0.331141 11:0.651249 12:0.648919 13:-0.42817 14:0.49936 15:0.471683 16:0.587218 17:-0.599308 18:0.716345 19:0.215975 20:0.284666 21:0.5 22:0.500002 23:0.5 24:0.499998 25:0.456084 26:0.00403336 27:0.849054 28:0.266604 29:0.73114 30:-0.0922049 31:0.627965 32:0.250184 33:0.5 34:0.500002 35:0.5 36:0.499998 
-0.5074522246790938 -1.409511025173789 -1.086456368800254 0 1:0.378097 2:0.39068 3:0.564562 4:0.621032 5:0.378097 6:0.39068 7:0.564562 8:0.621032 9:0.389729 10:0.398713 11:0.560125 12:0.612698 13:-0.367533 14:0.731929 15:0.362987 16:0.444342 17:-0.488966 18:0.852403 19:0.166591 20:0.0810513 21:0.5 22:0.500002 23:0.5 24:0.499998 25:0.484637 26:-0.0857071 27:0.661494 28:0.565868 29:0.583034 30:-0.159641 31:0.569021 32:0.557495 33:0.5 34:0.500002 35:0.5 36:0.499998 
-0.2472280387831229 -0 -0.2974876323301229 -0 1:0.36673 2:0.565491 3:0.646868 4:0.356778 5:0.36673 6:0.565491 7:0.646868 8:0.356778 9:0.366402 10:0.584205 11:0.629637 12:0.357785 13:-1.55156e-06 14:0.707108 15:1.04579e-06 16:0.707105 17:6.01375e-06 18:0.707108 19:8.61107e-06 20:0.707105 21:0.5 22:0.500002 23:0.5 24:0.499998 25:0.707108 26:2.45002e-07 27:0.707105 28:-2.35234e-06 29:0.707108 30:8.6111e-06 31:0.707105 32:6.01372e-06 33:0.5 34:0.500002 35:0.5 36:0.499998 
-0.6974443015342497 -0 -0.8820083197697413 -2 1:0.376412 2:0.555408 3:0.645216 4:0.365421 5:0.376412 6:0.555408 7:0.645216 8:0.365421 9:0.377404 10:0.57659 11:0.625929 12:0.365133 13:-0.159439 14:0.696347 15:0.189083 16:0.673742 17:-0.143109 18:0.707756 19:0.203295 20:0.661266 21:0.5 22:0.500002 23:0.5 24:0.499998 25:0.707108 26:2.45002e-07 27:0.707105 28:-2.35234e-06 29:0.707108 30:8.6111e-06 31:0.707105 32:6.01372e-06 33:0.5 34:0.500002 35:0.5 36:0.499998 
-0 -0.7720178903401248 -0 -0.2977010566848329 1:0.374719 2:0.550806 3:0.652985 4:0.36029 5:0.374719 6:0.550806 7:0.652985 8:0.36029 9:0.375402 10:0.569492 11:0.636312 12:0.36036 13:-0.128034 14:0.702037 15:0.151839 16:0.683883 17:-0.129061 18:0.709749 19:0.18334 20:0.667822 21:0.5 22:0.500002 23:0.5 24:0.499998 25:0.707108 26:2.45002e-07 27:0.707105 28:-2.35234e-06 29:0.707108 30:8.6111e-06 31:0.707105 32:6.01372e-06 33:0.5 34:0.500002 35:0.5 36:0.499998 
-0 -2 -0 -0 1:0.562503 2:0.41944 3:0.450797 4:0.551763 5:0.562503 6:0.41944 7:0.450797 8:0.551763 9:0.576883 10:0.421076 11:0.449406 12:0.536596 13:-1.55156e-06 14:0.707108 15:1.0458e-06 16:0.707105 17:4.21226e-06 18:0.707108 19:1.04126e-05 20:0.707105 21:0.5 22:0.500002 23:0.5 24:0.499998 25:0.707108 26:2.45002e-07 27:0.707105 28:-2.35234e-06 29:0.707108 30:8.6111e-06 31:0.707105 32:6.01372e-06 33:0.5 34:0.500002 35:0.5 36:0.499998 
-0 -2 -0 -0 1:0.558849 2:0.413852 3:0.451736 4:0.558882 5:0.558849 6:0.413852 7:0.451736 8:0.558882 9:0.574096 10:0.415754 11:0.450336 12:0.542918 13:-1.55156e-06 14:0.707108 15:1.04579e-06 16:0.707105 17:4.39241e-06 18:0.707108 19:1.02324e-05 20:0.707105 21:0.5 22:0.500002 23:0.5 24:0.499998 25:0.707108 26:2.45002e-07 27:0.707105 28:-2.35234e-06 29:0.707108 30:8.6111e-06 31:0.707105 32:6.01372e-06 33:0.5 34:0.500002 35:0.5 36:0.499998 
-0 -2 -0 -0 1:0.565953 2:0.409113 3:0.443544 4:0.561776 5:0.565953 6:0.409113 7:0.443544 8:0.561776 9:0.579353 10:0.409918 11:0.443083 12:0.547718 13:-1.55156e-06 14:0.707108 15:1.04579e-06 16:0.707105 17:4.55455e-06 18:0.707108 19:1.00703e-05 20:0.707105 21:0.5 22:0.500002 23:0.5 24:0.499998 25:0.707108 26:2.45002e-07 27:0.707105 28:-2.35234e-06 29:0.707108 30:8.6111e-06 31:0.707105 32:6.01372e-06 33:0.5 34:0.500002 35:0.5 36:0.499998 
-0 -2 -0 -0 1:0.565435 2:0.417175 3:0.446614 4:0.55388 5:0.565435 6:0.417175 7:0.446614 8:0.55388 9:0.577649 10:0.416479 11:0.447433 12:0.540991 13:-1.55156e-06 14:0.707108 15:1.04579e-06 16:0.707105 17:4.70047e-06 18:0.707108 19:9.92435e-06 20:0.707105 21:0.5 22:0.500002 23:0.5 24:0.499998 25:0.707108 26:2.45002e-07 27:0.707105 28:-2.35234e-06 29:0.707108 30:8.6111e-06 31:0.707105 32:6.01372e-06 33:0.5 34:0.500002 35:0.5 36:0.499998 
-0 -2 -0 -0 1:0.567632 2:0.412771 3:0.438241 4:0.561568 5:0.567632 6:0.412771 7:0.438241 8:0.561568 9:0.580567 10:0.411379 11:0.439754 12:0.54802 13:-1.55156e-06 14:0.707108 15:1.04579e-06 16:0.707105 17:4.8318e-06 18:0.707108 19:9.79302e-06 20:0.707105 21:0.5 22:0.500002 23:0.5 24:0.499998 25:0.707108 26:2.45002e-07 27:0.707105 28:-2.35234e-06 29:0.707108 30:8.6111e-06 31:0.707105 32:6.01372e-06 33:0.5 34:0.500002 35:0.5 36:0.499998 
-0 -2 -0 -1.967625842558975 1:0.566814 2:0.407953 3:0.435576 4:0.567952 5:0.566814 6:0.407953 7:0.435576 8:0.567952 9:0.579465 10:0.408473 11:0.435341 12:0.554841 13:-1.55156e-06 14:0.707108 15:1.04579e-06 16:0.707105 17:4.94999e-06 18:0.707108 19:9.67482e-06 20:0.707105 21:0.5 22:0.500002 23:0.5 24:0.499998 25:0.707108 26:2.45002e-07 27:0.707105 28:-2.35234e-06 29:0.707108 30:8.6111e-06 31:0.707105 32:6.01372e-06 33:0.5 34:0.500002 35:0.5 36:0.499998 
-0 -1.916712127531034 -0 -0 1:0.569528 2:0.412826 3:0.430958 4:0.565232 5:0.569528 6:0.412826 7:0.430958 8:0.565232 9:0.580238 10:0.41305 11:0.430823 12:0.554171 13:-1.55156e-06 14:0.707108 15:1.04579e-06 16:0.707105 17:5.05637e-06 18:0.707108 19:9.56845e-06 20:0.707105 21:0.5 22:0.500002 23:0.5 24:0.499998 25:0.707108 26:2.45002e-07 27:0.707105 28:-2.35234e-06 29:0.707108 30:8.6111e-06 31:0.707105 32:6.01372e-06 33:0.5 34:0.500002 35:0.5 36:0.499998 
-0 -2 -0 -0 1:0.564374 2:0.410472 3:0.44057 4:0.564705 5:0.564374 6:0.410472 7:0.44057 8:0.564705 9:0.575213 10:0.411965 11:0.439385 12:0.553495 13:-1.55156e-06 14:0.707108 15:1.04579e-06 16:0.707105 17:5.15211e-06 18:0.707108 19:9.47271e-06 20:0.707105 21:0.5 22:0.500002 23:0.5 24:0.499998 25:0.707108 26:2.45002e-07 27:0.707105 28:-2.35234e-06 29:0.707108 30:8.6111e-06 31:0.707105 32:6.01372e-06 33:0.5 34:0.500002 35:0.5 36:0.499998 
-0 -2 -0 -0 1:0.571611 2:0.409828 3:0.434103 4:0.5629 5:0.571611 6:0.409828 7:0.434103 8:0.5629 9:0.582933 10:0.411837 11:0.43227 12:0.55111 13:-1.55156e-06 14:0.707108 15:1.04579e-06 16:0.707105 17:5.23827e-06 18:0.707108 19:9.38654e-06 20:0.707105 21:0.5 22:0.500002 23:0.5 24:0.499998 25:0.707108 26:2.45002e-07 27:0.707105 28:-2.35234e-06 29:0.707108 30:8.6111e-06 31:0.707105 32:6.01372e-06 33:0.5 34:0.500002 35:0.5 36:0.499998 
-0.9189741466581524 -0 -1.287310282719186 -0 1:0.604709 2:0.431229 3:0.382229 4:0.549791 5:0.604709 6:0.431229 7:0.382229 8:0.549791 9:0.616938 10:0.426632 11:0.385353 12:0.537472 13:-1.55156e-06 14:0.707108 15:1.04579e-06 16:0.707105 17:5.9289e-06 18:0.707108 19:8.69592e-06 20:0.707105 21:0.5 22:0.500002 23:0.5 24:0.499998 25:0.707108 26:2.45002e-07 27:0.707105 28:-2.35234e-06 29:0.707108 30:8.6111e-06 31:0.707105 32:6.01372e-06 33:0.5 34:0.500002 35:0.5 36:0.499998 
-0.008486390525490776 -0 -0 -0 1:0.598507 2:0.423698 3:0.387963 4:0.558349 5:0.598507 6:0.423698 7:0.387963 8:0.558349 9:0.61519 10:0.421033 11:0.389105 12:0.541175 13:-1.55156e-06 14:0.707108 15:1.04579e-06 16:0.707105 17:5.93738e-06 18:0.707108 19:8.68743e-06 20:0.707105 21:0.5 22:0.500002 23:0.5 24:0.499998 25:0.707108 26:2.45002e-07 27:0.707105 28:-2.35234e-06 29:0.707108 30:8.6111e-06 31:0.707105 32:6.01372e-06 33:0.5 34:0.500002 35:0.5 36:0.499998 
-0 -0.5070675088248748 -0 -0 1:0.581369 2:0.418452 3:0.436784 4:0.544177 5:0.581369 6:0.418452 7:0.436784 8:0.544177 9:0.597712 10:0.421299 11:0.433662 12:0.526483 13:-1.55156e-06 14:0.707108 15:1.04579e-06 16:0.707105 17:6.00826e-06 18:0.707108 19:8.61655e-06 20:0.707105 21:0.5 22:0.500002 23:0.5 24:0.499998 25:0.707108 26:2.45002e-07 27:0.707105 28:-2.35234e-06 29:0.707108 30:8.6111e-06 31:0.707105 32:6.01372e-06 33:0.5 34:0.500002 35:0.5 36:0.499998 
