svm_type c_svc
kernel_type rbf
gamma 0.5
nr_class 5
total_sv 449
rho 0.446411 1.06465 0.782367 1.28589 0.652501 0.592199 0.223767 -0.470154 -0.546818 -0.158956
label 0 1 2 3 4
nr_sv 77 45 144 83 100
SV
0.2291593699955191 0 0.4184612934313456 0 1:0.364731 2:0.560007 3:0.647151 4:0.366823 5:0.364731 6:0.560007 7:0.647151 8:0.366823 9:0.365507 10:0.580002 11:0.628726 12:0.367023 13:-1.55156e-06 14:0.707108 15:1.04579e-06 16:0.707105 17:6.01375e-06 18:0.707108 19:8.61107e-06 20:0.707105 21:0.5 22:0.500002 23:0.5 24:0.499998 25:0.707108 26:2.45002e-07 27:0.707105 28:-2.35234e-06 29:0.707108 30:8.6111e-06 31:0.707105 32:6.01372e-06 33:0.5 34:0.500002 35:0.5 36:0.499998 
0.5 0 0.5 0 1:0.36673 2:0.565491 3:0.646868 4:0.356778 5:0.36673 6:0.565491 7:0.646868 8:0.356778 9:0.366402 10:0.584205 11:0.629637 12:0.357785 13:-1.55156e-06 14:0.707108 15:1.04579e-06 16:0.707105 17:6.01375e-06 18:0.707108 19:8.61107e-06 20:0.707105 21:0.5 22:0.500002 23:0.5 24:0.499998 25:0.707108 26:2.45002e-07 27:0.707105 28:-2.35234e-06 29:0.707108 30:8.6111e-06 31:0.707105 32:6.01372e-06 33:0.5 34:0.500002 35:0.5 36:0.499998 
0.1057165426576211 0 0.09838327335473238 0.5 1:0.376412 2:0.555408 3:0.645216 4:0.365421 5:0.376412 6:0.555408 7:0.645216 8:0.365421 9:0.377404 10:0.57659 11:0.625929 12:0.365133 13:-0.159439 14:0.696347 15:0.189083 16:0.673742 17:-0.143109 18:0.707756 19:0.203295 20:0.661266 21:0.5 22:0.500002 23:0.5 24:0.499998 25:0.707108 26:2.45002e-07 27:0.707105 28:-2.35234e-06 29:0.707108 30:8.6111e-06 31:0.707105 32:6.01372e-06 33:0.5 34:0.500002 35:0.5 36:0.499998 
0 0.5 0 0.5 1:0.374719 2:0.550806 3:0.652985 4:0.36029 5:0.374719 6:0.550806 7:0.652985 8:0.36029 9:0.375402 10:0.569492 11:0.636312 12:0.36036 13:-0.128034 14:0.702037 15:0.151839 16:0.683883 17:-0.129061 18:0.709749 19:0.18334 20:0.667822 21:0.5 22:0.500002 23:0.5 24:0.499998 25:0.707108 26:2.45002e-07 27:0.707105 28:-2.35234e-06 29:0.707108 30:8.6111e-06 31:0.707105 32:6.01372e-06 33:0.5 34:0.500002 35:0.5 36:0.499998 
0 0.3072465654168398 0 0.5 1:0.381044 2:0.549425 3:0.65 4:0.361162 5:0.381044 6:0.549425 7:0.65 8:0.361162 9:0.382207 10:0.567882 11:0.633592 12:0.360539 13:-0.102675 14:0.705321 15:0.121765 16:0.690763 17:-0.116347 18:0.711153 19:0.165279 20:0.673356 21:0.5 22:0.500002 23:0.5 24:0.499998 25:0.707108 26:2.45002e-07 27:0.707105 28:-2.35234e-06 29:0.707108 30:8.6111e-06 31:0.707105 32:6.01372e-06 33:0.5 34:0.500002 35:0.5 36:0.499998 
0 0 0 0.5 1:0.389261 2:0.54726 3:0.644866 4:0.36487 5:0.389261 6:0.54726 7:0.644866 8:0.36487 9:0.392009 10:0.56407 11:0.63001 12:0.362272 13:-0.082267 14:0.707133 15:0.097563 16:0.695468 17:-0.104853 18:0.7121 19:0.148951 20:0.678037 21:0.5 22:0.500002 23:0.5 24:0.499998 25:0.707108 26:2.45002e-07 27:0.707105 28:-2.35234e-06 29:0.707108 30:8.6111e-06 31:0.707105 32:6.01372e-06 33:0.5 34:0.500002 35:0.5 36:0.499998 
0 0 0 0.2116183841369516 1:0.403754 2:0.547701 3:0.637137 4:0.362026 5:0.403754 6:0.547701 7:0.637137 8:0.362026 9:0.407499 10:0.56268 11:0.623931 12:0.357835 13:-0.0658788 14:0.70806 15:0.0781279 16:0.698718 17:-0.0944699 18:0.712695 19:0.134201 20:0.682005 21:0.5 22:0.500002 23:0.5 24:0.499998 25:0.707108 26:2.45002e-07 27:0.707105 28:-2.35234e-06 29:0.707108 30:8.6111e-06 31:0.707105 32:6.01372e-06 33:0.5 34:0.500002 35:0.5 36:0.499998 
0 0.5 0 0 1:0.557716 2:0.426355 3:0.447299 4:0.554164 5:0.557716 6:0.426355 7:0.447299 8:0.554164 9:0.572526 10:0.431749 11:0.442105 12:0.538842 13:-1.55157e-06 14:0.707108 15:1.0458e-06 16:0.707105 17:3.26799e-06 18:0.707108 19:1.13568e-05 20:0.707105 21:0.5 22:0.500002 23:0.5 24:0.499998 25:0.707108 26:2.45002e-07 27:0.707105 28:-2.35234e-06 29:0.707108 30:8.6111e-06 31:0.707105 32:6.01372e-06 33:0.5 34:0.500002 35:0.5 36:0.499998 
0 0.5 0 0 1:0.555484 2:0.426364 3:0.452411 4:0.552245 5:0.555484 6:0.426364 7:0.452411 8:0.552245 9:0.569049 10:0.430777 11:0.448287 12:0.538194 13:-1.55157e-06 14:0.707108 15:1.0458e-06 16:0.707105 17:3.54257e-06 18:0.707108 19:1.10823e-05 20:0.707105 21:0.5 22:0.500002 23:0.5 24:0.499998 25:0.707108 26:2.45002e-07 27:0.707105 28:-2.35234e-06 29:0.707108 30:8.6111e-06 31:0.707105 32:6.01372e-06 33:0.5 34:0.500002 35:0.5 36:0.499998 
0 0.5 0 0 1:0.560737 2:0.429886 3:0.450276 4:0.545915 5:0.560737 6:0.429886 7:0.450276 8:0.545915 9:0.573339 10:0.432403 11:0.447815 12:0.532702 13:-1.55157e-06 14:0.707108 15:1.0458e-06 16:0.707105 17:3.78969e-06 18:0.707108 19:1.08351e-05 20:0.707105 21:0.5 22:0.500002 23:0.5 24:0.499998 25:0.707108 26:2.45002e-07 27:0.707105 28:-2.35234e-06 29:0.707108 30:8.6111e-06 31:0.707105 32:6.01372e-06 33:0.5 34:0.500002 35:0.5 36:0.499998 
0 0.5 0 0 1:0.566743 2:0.423821 3:0.445182 4:0.548627 5:0.566743 6:0.423821 7:0.445182 8:0.548627 9:0.580392 10:0.424703 11:0.444276 12:0.53422 13:-1.55156e-06 14:0.707108 15:1.0458e-06 16:0.707105 17:4.0121e-06 18:0.707108 19:1.06127e-05 20:0.707105 21:0.5 22:0.500002 23:0.5 24:0.499998 25:0.707108 26:2.45002e-07 27:0.707105 28:-2.35234e-06 29:0.707108 30:8.6111e-06 31:0.707105 32:6.01372e-06 33:0.5 34:0.500002 35:0.5 36:0.499998 
0 0.5 0 0 1:0.562503 2:0.41944 3:0.450797 4:0.551763 5:0.562503 6:0.41944 7:0.450797 8:0.551763 9:0.576883 10:0.421076 11:0.449406 12:0.536596 13:-1.55156e-06 14:0.707108 15:1.0458e-06 16:0.707105 17:4.21226e-06 18:0.707108 19:1.04126e-05 20:0.707105 21:0.5 22:0.500002 23:0.5 24:0.499998 25:0.707108 26:2.45002e-07 27:0.707105 28:-2.35234e-06 29:0.707108 30:8.6111e-06 31:0.707105 32:6.01372e-06 33:0.5 34:0.500002 35:0.5 36:0.499998 
0 0.5 0 0 1:0.558849 2:0.413852 3:0.451736 4:0.558882 5:0.558849 6:0.413852 7:0.451736 8:0.558882 9:0.574096 10:0.415754 11:0.450336 12:0.542918 13:-1.55156e-06 14:0.707108 15:1.04579e-06 16:0.707105 17:4.39241e-06 18:0.707108 19:1.02324e-05 20:0.707105 21:0.5 22:0.500002 23:0.5 24:0.499998 25:0.707108 26:2.45002e-07 27:0.707105 28:-2.35234e-06 29:0.707108 30:8.6111e-06 31:0.707105 32:6.01372e-06 33:0.5 34:0.500002 35:0.5 36:0.499998 
0 0.5 0 0 1:0.565953 2:0.409113 3:0.443544 4:0.561776 5:0.565953 6:0.409113 7:0.443544 8:0.561776 9:0.579353 10:0.409918 11:0.443083 12:0.547718 13:-1.55156e-06 14:0.707108 15:1.04579e-06 16:0.707105 17:4.55455e-06 18:0.707108 19:1.00703e-05 20:0.707105 21:0.5 22:0.500002 23:0.5 24:0.499998 25:0.707108 26:2.45002e-07 27:0.707105 28:-2.35234e-06 29:0.707108 30:8.6111e-06 31:0.707105 32:6.01372e-06 33:0.5 34:0.500002 35:0.5 36:0.499998 
0 0.5 0 0 1:0.565435 2:0.417175 3:0.446614 4:0.55388 5:0.565435 6:0.417175 7:0.446614 8:0.55388 9:0.577649 10:0.416479 11:0.447433 12:0.540991 13:-1.55156e-06 14:0.707108 15:1.04579e-06 16:0.707105 17:4.70047e-06 18:0.707108 19:9.92435e-06 20:0.707105 21:0.5 22:0.500002 23:0.5 24:0.499998 25:0.707108 26:2.45002e-07 27:0.707105 28:-2.35234e-06 29:0.707108 30:8.6111e-06 31:0.707105 32:6.01372e-06 33:0.5 34:0.500002 35:0.5 36:0.499998 
0 0.5 0 0 1:0.567632 2:0.412771 3:0.438241 4:0.561568 5:0.567632 6:0.412771 7:0.438241 8:0.561568 9:0.580567 10:0.411379 11:0.439754 12:0.54802 13:-1.55156e-06 14:0.707108 15:1.04579e-06 16:0.707105 17:4.8318e-06 18:0.707108 19:9.79302e-06 20:0.707105 21:0.5 22:0.500002 23:0.5 24:0.499998 25:0.707108 26:2.45002e-07 27:0.707105 28:-2.35234e-06 29:0.707108 30:8.6111e-06 31:0.707105 32:6.01372e-06 33:0.5 34:0.500002 35:0.5 36:0.499998 
0 0.5 0 0.5 1:0.566814 2:0.407953 3:0.435576 4:0.567952 5:0.566814 6:0.407953 7:0.435576 8:0.567952 9:0.579465 10:0.408473 11:0.435341 12:0.554841 13:-1.55156e-06 14:0.707108 15:1.04579e-06 16:0.707105 17:4.94999e-06 18:0.707108 19:9.67482e-06 20:0.707105 21:0.5 22:0.500002 23:0.5 24:0.499998 25:0.707108 26:2.45002e-07 27:0.707105 28:-2.35234e-06 29:0.707108 30:8.6111e-06 31:0.707105 32:6.01372e-06 33:0.5 34:0.500002 35:0.5 36:0.499998 
0 0.5 0 0 1:0.569528 2:0.412826 3:0.430958 4:0.565232 5:0.569528 6:0.412826 7:0.430958 8:0.565232 9:0.580238 10:0.41305 11:0.430823 12:0.554171 13:-1.55156e-06 14:0.707108 15:1.04579e-06 16:0.707105 17:5.05637e-06 18:0.707108 19:9.56845e-06 20:0.707105 21:0.5 22:0.500002 23:0.5 24:0.499998 25:0.707108 26:2.45002e-07 27:0.707105 28:-2.35234e-06 29:0.707108 30:8.6111e-06 31:0.707105 32:6.01372e-06 33:0.5 34:0.500002 35:0.5 36:0.499998 
0 0.5 0 0.5 1:0.564374 2:0.410472 3:0.44057 4:0.564705 5:0.564374 6:0.410472 7:0.44057 8:0.564705 9:0.575213 10:0.411965 11:0.439385 12:0.553495 13:-1.55156e-06 14:0.707108 15:1.04579e-06 16:0.707105 17:5.15211e-06 18:0.707108 19:9.47271e-06 20:0.707105 21:0.5 22:0.500002 23:0.5 24:0.499998 25:0.707108 26:2.45002e-07 27:0.707105 28:-2.35234e-06 29:0.707108 30:8.6111e-06 31:0.707105 32:6.01372e-06 33:0.5 34:0.500002 35:0.5 36:0.499998 
0 0.5 0 0 1:0.571611 2:0.409828 3:0.434103 4:0.5629 5:0.571611 6:0.409828 7:0.434103 8:0.5629 9:0.582933 10:0.411837 11:0.43227 12:0.55111 13:-1.55156e-06 14:0.707108 15:1.04579e-06 16:0.707105 17:5.23827e-06 18:0.707108 19:9.38654e-06 20:0.707105 21:0.5 22:0.500002 23:0.5 24:0.499998 25:0.707108 26:2.45002e-07 27:0.707105 28:-2.35234e-06 29:0.707108 30:8.6111e-06 31:0.707105 32:6.01372e-06 33:0.5 34:0.500002 35:0.5 36:0.499998 
0 0.5 0 0 1:0.579915 2:0.41483 3:0.422771 4:0.559356 5:0.579915 6:0.41483 7:0.422771 8:0.559356 9:0.590383 10:0.41483 11:0.42259 12:0.548436 13:-1.55156e-06 14:0.707108 15:1.04579e-06 16:0.707105 17:5.31582e-06 18:0.707108 19:9.309e-06 20:0.707105 21:0.5 22:0.500002 23:0.5 24:0.499998 25:0.707108 26:2.45002e-07 27:0.707105 28:-2.35234e-06 29:0.707108 30:8.6111e-06 31:0.707105 32:6.01372e-06 33:0.5 34:0.500002 35:0.5 36:0.499998 
0 0.5 0 0 1:0.573708 2:0.416062 3:0.432401 4:0.557477 5:0.573708 6:0.416062 7:0.432401 8:0.557477 9:0.58503 10:0.418055 11:0.430409 12:0.545635 13:-1.55156e-06 14:0.707108 15:1.04579e-06 16:0.707105 17:5.38561e-06 18:0.707108 19:9.2392e-06 20:0.707105 21:0.5 22:0.500002 23:0.5 24:0.499998 25:0.707108 26:2.45002e-07 27:0.707105 28:-2.35234e-06 29:0.707108 30:8.6111e-06 31:0.707105 32:6.01372e-06 33:0.5 34:0.500002 35:0.5 36:0.499998 
0 0.5 0 0 1:0.576357 2:0.425147 3:0.429035 4:0.550447 5:0.576357 6:0.425147 7:0.429035 8:0.550447 9:0.584718 10:0.425348 11:0.42863 12:0.54172 13:-1.55156e-06 14:0.707108 15:1.04579e-06 16:0.707105 17:5.44843e-06 18:0.707108 19:9.17639e-06 20:0.707105 21:0.5 22:0.500002 23:0.5 24:0.499998 25:0.707108 26:2.45002e-07 27:0.707105 28:-2.35234e-06 29:0.707108 30:8.6111e-06 31:0.707105 32:6.01372e-06 33:0.5 34:0.500002 35:0.5 36:0.499998 
0 0.5 0 0 1:0.590681 2:0.413826 3:0.409712 4:0.558552 5:0.590681 6:0.413826 7:0.409712 8:0.558552 9:0.602503 10:0.413373 11:0.40966 12:0.546161 13:-1.55156e-06 14:0.707108 15:1.04579e-06 16:0.707105 17:5.74336e-06 18:0.707108 19:8.88146e-06 20:0.707105 21:0.5 22:0.500002 23:0.5 24:0.499998 25:0.707108 26:2.45002e-07 27:0.707105 28:-2.35234e-06 29:0.707108 30:8.6111e-06 31:0.707105 32:6.01372e-06 33:0.5 34:0.500002 35:0.5 36:0.499998 
0 0.5 0 0 1:0.589544 2:0.417218 3:0.408355 4:0.558224 5:0.589544 6:0.417218 7:0.408355 8:0.558224 9:0.602546 10:0.415889 11:0.40903 12:0.544673 13:-1.55156e-06 14:0.707108 15:1.04579e-06 16:0.707105 17:5.7704e-06 18:0.707108 19:8.85442e-06 20:0.707105 21:0.5 22:0.500002 23:0.5 24:0.499998 25:0.707108 26:2.45002e-07 27:0.707105 28:-2.35234e-06 29:0.707108 30:8.6111e-06 31:0.707105 32:6.01372e-06 33:0.5 34:0.500002 35:0.5 36:0.499998 
0 0.02330533574592632 0 0 1:0.590609 2:0.418741 3:0.408128 4:0.556118 5:0.590609 6:0.418741 7:0.408128 8:0.556118 9:0.605605 10:0.41849 11:0.407563 12:0.540372 13:-1.55156e-06 14:0.707108 15:1.04579e-06 16:0.707105 17:5.79473e-06 18:0.707108 19:8.83008e-06 20:0.707105 21:0.5 22:0.500002 23:0.5 24:0.499998 25:0.707108 26:2.45002e-07 27:0.707105 28:-2.35234e-06 29:0.707108 30:8.6111e-06 31:0.707105 32:6.01372e-06 33:0.5 34:0.500002 35:0.5 36:0.499998 
0.316194129785519 0 0.5 0 1:0.604709 2:0.431229 3:0.382229 4:0.549791 5:0.604709 6:0.431229 7:0.382229 8:0.549791 9:0.616938 10:0.426632 11:0.385353 12:0.537472 13:-1.55156e-06 14:0.707108 15:1.04579e-06 16:0.707105 17:5.9289e-06 18:0.707108 19:8.69592e-06 20:0.707105 21:0.5 22:0.500002 23:0.5 24:0.499998 25:0.707108 26:2.45002e-07 27:0.707105 28:-2.35234e-06 29:0.707108 30:8.6111e-06 31:0.707105 32:6.01372e-06 33:0.5 34:0.500002 35:0.5 36:0.499998 
0 0 0.05769068405253466 0 1:0.598507 2:0.423698 3:0.387963 4:0.558349 5:0.598507 6:0.423698 7:0.387963 8:0.558349 9:0.61519 10:0.421033 11:0.389105 12:0.541175 13:-1.55156e-06 14:0.707108 15:1.04579e-06 16:0.707105 17:5.93738e-06 18:0.707108 19:8.68743e-06 20:0.707105 21:0.5 22:0.500002 23:0.5 24:0.499998 25:0.707108 26:2.45002e-07 27:0.707105 28:-2.35234e-06 29:0.707108 30:8.6111e-06 31:0.707105 32:6.01372e-06 33:0.5 34:0.500002 35:0.5 36:0.499998 
0 0.5 0 0 1:0.58751 2:0.425153 3:0.427706 4:0.539577 5:0.58751 6:0.425153 7:0.427706 8:0.539577 9:0.602311 10:0.424602 11:0.427463 12:0.523651 13:-1.55156e-06 14:0.707108 15:1.04579e-06 16:0.707105 17:6.00766e-06 18:0.707108 19:8.61716e-06 20:0.707105 21:0.5 22:0.500002 23:0.5 24:0.499998 25:0.707108 26:2.45002e-07 27:0.707105 28:-2.35234e-06 29:0.707108 30:8.6111e-06 31:0.707105 32:6.01372e-06 33:0.5 34:0.500002 35:0.5 36:0.499998 
0 0.5 0 0 1:0.581369 2:0.418452 3:0.436784 4:0.544177 5:0.581369 6:0.418452 7:0.436784 8:0.544177 9:0.597712 10:0.421299 11:0.433662 12:0.526483 13:-1.55156e-06 14:0.707108 15:1.04579e-06 16:0.707105 17:6.00826e-06 18:0.707108 19:8.61655e-06 20:0.707105 21:0.5 22:0.500002 23:0.5 24:0.499998 25:0.707108 26:2.45002e-07 27:0.707105 28:-2.35234e-06 29:0.707108 30:8.6111e-06 31:0.707105 32:6.01372e-06 33:0.5 34:0.500002 35:0.5 36:0.499998 
0 0.5 0 0 1:0.582725 2:0.422832 3:0.434124 4:0.541462 5:0.582725 6:0.422832 7:0.434124 8:0.541462 9:0.597664 10:0.425436 11:0.431111 12:0.525306 13:-1.55156e-06 14:0.707108 15:1.04579e-06 16:0.707105 17:6.00881e-06 18:0.707108 19:8.616e-06 20:0.707105 21:0.5 22:0.500002 23:0.5 24:0.499998 25:0.707108 26:2.45002e-07 27:0.707105 28:-2.35234e-06 29:0.707108 30:8.6111e-06 31:0.707105 32:6.01372e-06 33:0.5 34:0.500002 35:0.5 36:0.499998 
0 0.5 0 0 1:0.578889 2:0.428898 3:0.43688 4:0.538581 5:0.578889 6:0.428898 7:0.43688 8:0.538581 9:0.592747 10:0.429795 11:0.435489 12:0.523714 13:-1.55156e-06 14:0.707108 15:1.04579e-06 16:0.707105 17:6.00931e-06 18:0.707108 19:8.61551e-06 20:0.707105 21:0.5 22:0.500002 23:0.5 24:0.499998 25:0.707108 26:2.45002e-07 27:0.707105 28:-2.35234e-06 29:0.707108 30:8.6111e-06 31:0.707105 32:6.01372e-06 33:0.5 34:0.500002 35:0.5 36:0.499998 
0 0 0 0.5 1:0.580748 2:0.456493 3:0.423051 4:0.52476 5:0.580748 6:0.456493 7:0.423051 8:0.52476 9:0.574765 10:0.451975 11:0.427904 12:0.531284 13:-0.125002 14:0.691855 15:0.23514 16:0.671134 17:-0.1667 18:0.77273 19:0.20386 20:0.57753 21:0.5 22:0.500002 23:0.5 24:0.499998 25:0.697138 26:-0.0135421 27:0.692786 28:0.184016 29:0.806869 30:-0.17012 31:0.556812 32:0.0999113 33:0.5 34:0.500002 35:0.5 36:0.499998 
0 0 0 0.5 1:0.579043 2:0.459226 3:0.421986 4:0.525117 5:0.579043 6:0.459226 7:0.421986 8:0.525117 9:0.573634 10:0.454708 11:0.426834 12:0.531034 13:-0.126665 14:0.693293 15:0.235418 16:0.669238 17:-0.171049 18:0.779821 19:0.202493 20:0.567114 21:0.5 22:0.500002 23:0.5 24:0.499998 25:0.699424 26:-0.00854714 27:0.689807 28:0.186814 29:0.809566 30:-0.174016 31:0.551663 32:0.0999454 33:0.5 34:0.500002 35:0.5 36:0.499998 
0 0 0 0.5 1:0.576545 2:0.464676 3:0.421561 4:0.523411 5:0.576545 6:0.464676 7:0.421561 8:0.523411 9:0.570769 10:0.460017 11:0.426639 12:0.529704 13:-0.130193 14:0.691552 15:0.23755 16:0.669608 17:-0.173733 18:0.772502 19:0.204943 20:0.575374 21:0.5 22:0.500002 23:0.5 24:0.499998 25:0.702493 26:-0.00358128 27:0.68715 28:0.185242 29:0.81069 30:-0.174499 31:0.550591 32:0.0958193 33:0.5 34:0.500002 35:0.5 36:0.499998 
0 0 0 0.09626503690013906 1:0.571706 2:0.427883 3:0.424905 4:0.556349 5:0.571706 6:0.427883 7:0.424905 8:0.556349 9:0.570871 10:0.426971 11:0.425816 12:0.55721 13:-0.163513 14:0.565476 15:0.250724 16:0.768529 17:-0.185613 18:0.687258 19:0.235466 20:0.66165 21:0.5 22:0.500002 23:0.5 24:0.499998 25:0.49023 26:-0.2992 27:0.697268 28:0.428919 29:0.634224 30:-0.303275 31:0.565251 32:0.431596 33:0.5 34:0.500002 35:0.5 36:0.499998 
0 0 0 0.5 1:0.566334 2:0.429622 3:0.42845 4:0.557783 5:0.566334 6:0.429622 7:0.42845 8:0.557783 9:0.567669 10:0.429485 11:0.428572 12:0.556435 13:-0.170373 14:0.561771 15:0.249058 16:0.770296 17:-0.183437 18:0.671293 19:0.241927 20:0.676157 21:0.5 22:0.500002 23:0.5 24:0.499998 25:0.491373 26:-0.297281 27:0.699438 28:0.425398 29:0.633784 30:-0.301989 31:0.569414 32:0.427654 33:0.5 34:0.500002 35:0.5 36:0.499998 
0 0 0 0.5 1:0.572722 2:0.433326 3:0.425402 4:0.550682 5:0.572722 6:0.433326 7:0.425402 8:0.550682 9:0.570752 10:0.431814 11:0.426938 12:0.552723 13:-0.159103 14:0.54757 15:0.259398 16:0.779466 17:-0.192392 18:0.6586 19:0.235336 20:0.688367 21:0.5 22:0.500002 23:0.5 24:0.499998 25:0.481978 26:-0.295628 27:0.708961 28:0.421516 29:0.619092 30:-0.300527 31:0.587354 32:0.425938 33:0.5 34:0.500002 35:0.5 36:0.499998 
0 0 0 0.5 1:0.574579 2:0.435261 3:0.427004 4:0.545962 5:0.574579 6:0.435261 7:0.427004 8:0.545962 9:0.571124 10:0.434982 11:0.427383 12:0.549501 13:-0.159895 14:0.544096 15:0.260999 16:0.781199 17:-0.190265 18:0.660297 19:0.240072 20:0.685691 21:0.5 22:0.500002 23:0.5 24:0.499998 25:0.476348 26:-0.288356 27:0.714901 28:0.422918 29:0.615893 30:-0.303426 31:0.594117 32:0.419088 33:0.5 34:0.500002 35:0.5 36:0.499998 
0 0 0 0.5 1:0.574232 2:0.434891 3:0.42733 4:0.546367 5:0.574232 6:0.434891 7:0.42733 8:0.546367 9:0.571397 10:0.43519 11:0.427123 12:0.549255 13:-0.158104 14:0.54046 15:0.262227 16:0.783673 17:-0.181388 18:0.651858 19:0.249199 20:0.692878 21:0.5 22:0.500002 23:0.5 24:0.499998 25:0.48222 26:-0.290179 27:0.710472 28:0.422481 29:0.584274 30:-0.309245 31:0.624389 32:0.416089 33:0.5 34:0.500002 35:0.5 36:0.499998 
0 0 0 0.5 1:0.587576 2:0.436203 3:0.410814 4:0.543796 5:0.587576 6:0.436203 7:0.410814 8:0.543796 9:0.585567 10:0.432637 11:0.414406 12:0.546081 13:-0.171609 14:0.642007 15:0.310222 16:0.679808 17:-0.250444 18:0.804469 19:0.250929 20:0.476594 21:0.5 22:0.500002 23:0.5 24:0.499998 25:0.576204 26:-0.307967 27:0.612094 28:0.445519 29:0.712571 30:-0.345589 31:0.457748 32:0.404075 33:0.5 34:0.500002 35:0.5 36:0.499998 
0 0 0 0.5 1:0.590134 2:0.435045 3:0.413057 4:0.540243 5:0.590134 6:0.435045 7:0.413057 8:0.540243 9:0.586813 10:0.43251 11:0.41571 12:0.543848 13:-0.169521 14:0.640355 15:0.307659 16:0.683047 17:-0.250366 18:0.808834 19:0.246392 20:0.471589 21:0.5 22:0.500002 23:0.5 24:0.499998 25:0.578452 26:-0.30608 27:0.610462 28:0.446144 29:0.706606 30:-0.34914 31:0.464974 32:0.403248 33:0.5 34:0.500002 35:0.5 36:0.499998 
0 0 0 0.5 1:0.587577 2:0.43587 3:0.409486 4:0.545061 5:0.587577 6:0.43587 7:0.409486 8:0.545061 9:0.58474 10:0.432585 11:0.412864 12:0.548173 13:-0.169265 14:0.640426 15:0.305896 16:0.683835 17:-0.24713 18:0.804313 19:0.247285 20:0.480477 21:0.5 22:0.500002 23:0.5 24:0.499998 25:0.571423 26:-0.307538 27:0.615763 28:0.446915 29:0.710356 30:-0.348402 31:0.459825 32:0.403203 33:0.5 34:0.500002 35:0.5 36:0.499998 
0 0 0 0.5 1:0.588273 2:0.435203 3:0.411107 4:0.543621 5:0.588273 6:0.435203 7:0.411107 8:0.543621 9:0.585771 10:0.433151 11:0.413256 12:0.546326 13:-0.173615 14:0.646759 15:0.303632 16:0.677767 17:-0.239524 18:0.787648 19:0.254717 20:0.507304 21:0.5 22:0.500002 23:0.5 24:0.499998 25:0.572901 26:-0.307464 27:0.615246 28:0.445784 29:0.710206 30:-0.347946 31:0.46139 32:0.40207 33:0.5 34:0.500002 35:0.5 36:0.499998 
0 0 0 0.5 1:0.582347 2:0.436339 3:0.408571 4:0.550954 5:0.582347 6:0.436339 7:0.408571 8:0.550954 9:0.579585 10:0.434889 11:0.410157 12:0.553827 13:-0.188215 14:0.562828 15:0.276955 16:0.755709 17:-0.221048 18:0.683831 19:0.251906 20:0.648118 21:0.5 22:0.500002 23:0.5 24:0.499998 25:0.506636 26:-0.295685 27:0.678418 28:0.44231 29:0.637663 30:-0.30837 31:0.554316 32:0.437067 33:0.5 34:0.500002 35:0.5 36:0.499998 
0 0 0 0.5 1:0.584616 2:0.445146 3:0.411704 4:0.539045 5:0.584616 6:0.445146 7:0.411704 8:0.539045 9:0.579787 10:0.443066 11:0.414088 12:0.544124 13:-0.193708 14:0.650992 15:0.303379 16:0.668317 17:-0.213109 18:0.776492 19:0.285274 20:0.519869 21:0.5 22:0.500002 23:0.5 24:0.499998 25:0.60056 26:-0.230219 27:0.643681 28:0.414731 29:0.756281 30:-0.336773 31:0.450596 32:0.334046 33:0.5 34:0.500002 35:0.5 36:0.499998 
0 0 0 0.5 1:0.58454 2:0.446703 3:0.409473 4:0.539538 5:0.58454 6:0.446703 7:0.409473 8:0.539538 9:0.580459 10:0.443633 11:0.4128 12:0.543924 13:-0.191592 14:0.65211 15:0.304529 16:0.667314 17:-0.216502 18:0.79358 19:0.279889 20:0.494995 21:0.5 22:0.500002 23:0.5 24:0.499998 25:0.612367 26:-0.234532 27:0.631383 28:0.413952 29:0.750928 30:-0.329405 31:0.458225 32:0.342972 33:0.5 34:0.500002 35:0.5 36:0.499998 
0 0 0 0.5 1:0.583713 2:0.446773 3:0.408611 4:0.541027 5:0.583713 6:0.446773 7:0.408611 8:0.541027 9:0.579315 10:0.443514 11:0.412151 12:0.54573 13:-0.184791 14:0.658734 15:0.31139 16:0.659514 17:-0.227943 18:0.79949 19:0.276173 20:0.482272 21:0.5 22:0.500002 23:0.5 24:0.499998 25:0.615807 26:-0.23886 27:0.627629 28:0.412079 29:0.758514 30:-0.321765 31:0.448201 32:0.346756 33:0.5 34:0.500002 35:0.5 36:0.499998 
0 0 0 0.5 1:0.58193 2:0.448742 3:0.407059 4:0.542486 5:0.58193 6:0.448742 7:0.407059 8:0.542486 9:0.578275 10:0.445209 11:0.410843 12:0.546439 13:-0.183068 14:0.662243 15:0.313781 16:0.655333 17:-0.234839 18:0.796494 19:0.274686 20:0.484762 21:0.5 22:0.500002 23:0.5 24:0.499998 25:0.619023 26:-0.240975 27:0.6248 28:0.410325 29:0.760342 30:-0.327191 31:0.444909 32:0.341879 33:0.5 34:0.500002 35:0.5 36:0.499998 
0 0 0 0.5 1:0.569235 2:0.441573 3:0.422116 4:0.550276 5:0.569235 6:0.441573 7:0.422116 8:0.550276 9:0.56955 10:0.440017 11:0.423652 12:0.550016 13:-0.158938 14:0.649954 15:0.280499 16:0.6882 17:-0.181407 18:0.771201 19:0.265235 20:0.549537 21:0.5 22:0.500002 23:0.5 24:0.499998 25:0.588236 26:-0.242956 27:0.632518 28:0.441442 29:0.737144 30:-0.353103 31:0.450243 32:0.359468 33:0.5 34:0.500002 35:0.5 36:0.499998 
0 0 0 0.5 1:0.567063 2:0.433289 3:0.421497 4:0.5595 5:0.567063 6:0.433289 7:0.421497 8:0.5595 9:0.568984 10:0.433213 11:0.421533 12:0.557579 13:-0.151147 14:0.644985 15:0.278084 16:0.695571 17:-0.178205 18:0.776397 19:0.260171 20:0.545675 21:0.5 22:0.500002 23:0.5 24:0.499998 25:0.57886 26:-0.243166 27:0.640837 28:0.441723 29:0.73575 30:-0.357602 31:0.452131 32:0.355485 33:0.5 34:0.500002 35:0.5 36:0.499998 
0 0 0 0.5 1:0.572798 2:0.440882 3:0.416665 4:0.551286 5:0.572798 6:0.440882 7:0.416665 8:0.551286 9:0.572783 10:0.43817 11:0.419365 12:0.551416 13:-0.153759 14:0.65067 15:0.277838 16:0.689777 17:-0.184333 18:0.780347 19:0.256385 20:0.539766 21:0.5 22:0.500002 23:0.5 24:0.499998 25:0.572673 26:-0.258834 27:0.626543 28:0.460972 29:0.722946 30:-0.375667 31:0.444814 32:0.371974 33:0.5 34:0.500002 35:0.5 36:0.499998 
0 0 0 0.02491875634018326 1:0.576234 2:0.443767 3:0.414672 4:0.546875 5:0.576234 6:0.443767 7:0.414672 8:0.546875 9:0.574806 10:0.440256 11:0.418231 12:0.548503 13:-0.153525 14:0.650727 15:0.278325 16:0.68958 17:-0.18578 18:0.779322 19:0.255633 20:0.541105 21:0.5 22:0.500002 23:0.5 24:0.499998 25:0.582703 26:-0.25036 27:0.626043 28:0.453703 29:0.730353 30:-0.363777 31:0.445037 32:0.369044 33:0.5 34:0.500002 35:0.5 36:0.499998 
0 0.5 0 0 1:0.614133 2:0.395489 3:0.396815 4:0.555847 5:0.614133 6:0.395489 7:0.396815 8:0.555847 9:0.612148 10:0.392632 11:0.399563 12:0.558089 13:-0.144777 14:0.577077 15:0.187996 16:0.78146 17:-0.174791 18:0.66828 19:0.15827 20:0.70555 21:0.5 22:0.500002 23:0.5 24:0.499998 25:0.602217 26:-0.276022 27:0.579267 28:0.474969 29:0.763551 30:-0.421338 31:0.339419 32:0.352503 33:0.5 34:0.500002 35:0.5 36:0.499998 
0 0.5 0 0 1:0.614828 2:0.392412 3:0.394648 4:0.558795 5:0.614828 6:0.392412 7:0.394648 8:0.558795 9:0.613739 10:0.39043 11:0.396543 12:0.560038 13:-0.140684 14:0.5782 15:0.186771 16:0.781671 17:-0.17606 18:0.657328 19:0.151528 20:0.716912 21:0.5 22:0.500002 23:0.5 24:0.499998 25:0.600124 26:-0.280343 27:0.576572 28:0.478355 29:0.759291 30:-0.425115 31:0.340679 32:0.355939 33:0.5 34:0.500002 35:0.5 36:0.499998 
0.414804003062298 0.3955516771607696 0.0734909848251952 0 1:0.627741 2:0.397086 3:0.379723 4:0.551429 5:0.627741 6:0.397086 7:0.379723 8:0.551429 9:0.623302 10:0.39191 11:0.38485 12:0.55659 13:-0.124187 14:0.575782 15:0.191806 16:0.785025 17:-0.191516 18:0.681407 19:0.128651 20:0.694589 21:0.5 22:0.500002 23:0.5 24:0.499998 25:0.594573 26:-0.292003 27:0.563949 28:0.493131 29:0.742497 30:-0.433068 31:0.346775 32:0.375362 33:0.5 34:0.500002 35:0.5 36:0.499998 
0 0.5 0 0.5 1:0.616223 2:0.385454 3:0.389742 4:0.565505 5:0.616223 6:0.385454 7:0.389742 8:0.565505 9:0.614591 10:0.386149 11:0.389143 12:0.567217 13:-0.120143 14:0.56507 15:0.199382 16:0.791522 17:-0.203736 18:0.664051 19:0.119154 20:0.709458 21:0.5 22:0.500002 23:0.5 24:0.499998 25:0.61301 26:-0.268698 27:0.58373 28:0.459652 29:0.762826 30:-0.397041 31:0.366904 32:0.354734 33:0.5 34:0.500002 35:0.5 36:0.499998 
0 0 0 0.5 1:0.569717 2:0.455103 3:0.43253 4:0.530304 5:0.569717 6:0.455103 7:0.43253 8:0.530304 9:0.56561 10:0.451914 11:0.43587 12:0.534673 13:-0.168297 14:0.655292 15:0.303632 16:0.670877 17:-0.226339 18:0.804276 19:0.258472 20:0.484875 21:0.5 22:0.500002 23:0.5 24:0.499998 25:0.536218 26:-0.217553 27:0.730031 28:0.363588 29:0.64913 30:-0.245952 31:0.630174 32:0.347877 33:0.5 34:0.500002 35:0.5 36:0.499998 
0 0 0 0.5 1:0.566711 2:0.457965 3:0.436303 4:0.527964 5:0.566711 6:0.457965 7:0.436303 8:0.527964 9:0.563079 10:0.454603 11:0.439783 12:0.531854 13:-0.177481 14:0.65856 15:0.303526 16:0.665336 17:-0.226038 18:0.80349 19:0.262557 20:0.484122 21:0.5 22:0.500002 23:0.5 24:0.499998 25:0.538847 26:-0.215054 27:0.730982 28:0.359249 29:0.643753 30:-0.246782 31:0.639469 32:0.340236 33:0.5 34:0.500002 35:0.5 36:0.499998 
0 0 0 0.1744517249641337 1:0.567226 2:0.456217 3:0.439368 4:0.526381 5:0.567226 6:0.456217 7:0.439368 8:0.526381 9:0.56255 10:0.45409 11:0.441667 12:0.531291 13:-0.186459 14:0.662586 15:0.297509 16:0.66159 17:-0.223123 18:0.801474 19:0.26246 20:0.488846 21:0.5 22:0.500002 23:0.5 24:0.499998 25:0.541667 26:-0.214065 27:0.72859 28:0.360458 29:0.636575 30:-0.250479 31:0.647006 32:0.336771 33:0.5 34:0.500002 35:0.5 36:0.499998 
0 0 0 0.5 1:0.56838 2:0.456643 3:0.438009 4:0.525899 5:0.56838 6:0.456643 7:0.438009 8:0.525899 9:0.564684 10:0.454374 11:0.440413 12:0.529824 13:-0.193189 14:0.655596 15:0.288866 16:0.670395 17:-0.221141 18:0.810814 19:0.252765 20:0.479362 21:0.5 22:0.500002 23:0.5 24:0.499998 25:0.534129 26:-0.215534 27:0.735484 28:0.356812 29:0.630792 30:-0.250458 31:0.654066 32:0.334021 33:0.5 34:0.500002 35:0.5 36:0.499998 
0 0 0 0.5 1:0.561064 2:0.446834 3:0.4443 4:0.536791 5:0.561064 6:0.446834 7:0.4443 8:0.536791 9:0.55874 10:0.446735 11:0.444448 12:0.539169 13:-0.184097 14:0.649782 15:0.294367 16:0.676196 17:-0.217589 18:0.767384 19:0.266862 20:0.540889 21:0.5 22:0.500002 23:0.5 24:0.499998 25:0.5208 26:-0.218106 27:0.742745 28:0.359899 29:0.629445 30:-0.24079 31:0.650466 32:0.350304 33:0.5 34:0.500002 35:0.5 36:0.499998 
0 0 0 0.5 1:0.559233 2:0.439173 3:0.446686 4:0.543007 5:0.559233 6:0.439173 7:0.446686 8:0.543007 9:0.558292 10:0.440409 11:0.445484 12:0.543961 13:-0.18274 14:0.64285 15:0.289327 16:0.685303 17:-0.217117 18:0.768862 19:0.260069 20:0.542288 21:0.5 22:0.500002 23:0.5 24:0.499998 25:0.521354 26:-0.224503 27:0.739264 28:0.362322 29:0.626278 30:-0.243406 31:0.649509 32:0.355905 33:0.5 34:0.500002 35:0.5 36:0.499998 
0 0 0 0.5 1:0.558226 2:0.437333 3:0.447007 4:0.54526 5:0.558226 6:0.437333 7:0.447007 8:0.54526 9:0.558801 10:0.438899 11:0.445474 12:0.544668 13:-0.179996 14:0.636757 15:0.289404 16:0.691655 17:-0.219654 18:0.773717 19:0.255566 20:0.536471 21:0.5 22:0.500002 23:0.5 24:0.499998 25:0.514537 26:-0.22369 27:0.743551 28:0.363794 29:0.634887 30:-0.252192 31:0.641956 32:0.348154 33:0.5 34:0.500002 35:0.5 36:0.499998 
0 0 0 0.5 1:0.575291 2:0.429925 3:0.424835 4:0.551107 5:0.575291 6:0.429925 7:0.424835 8:0.551107 9:0.574882 10:0.428558 11:0.426181 12:0.55156 13:-0.166871 14:0.616073 15:0.261889 16:0.723894 17:-0.169254 18:0.716163 19:0.26345 20:0.623745 21:0.5 22:0.500002 23:0.5 24:0.499998 25:0.596103 26:-0.222822 27:0.645668 28:0.422048 29:0.748011 30:-0.328287 31:0.4612 32:0.346413 33:0.5 34:0.500002 35:0.5 36:0.499998 
0.01182863292245079 0 0.0120729376576918 0 1:0.578442 2:0.433936 3:0.425319 4:0.54425 5:0.578442 6:0.433936 7:0.425319 8:0.54425 9:0.57625 10:0.434047 11:0.425292 12:0.546503 13:-0.137533 14:0.541236 15:0.291048 16:0.776814 17:-0.126175 18:0.661543 19:0.320414 20:0.666165 21:0.5 22:0.500002 23:0.5 24:0.499998 25:0.530899 26:-0.190788 27:0.708136 28:0.424605 29:0.62398 30:-0.173017 31:0.603477 32:0.465327 33:0.5 34:0.500002 35:0.5 36:0.499998 
0 0 0 0.5 1:0.590204 2:0.439439 3:0.412176 4:0.537274 5:0.590204 6:0.439439 7:0.412176 8:0.537274 9:0.586665 10:0.437264 11:0.414532 12:0.541099 13:-0.168161 14:0.686008 15:0.267223 16:0.65552 17:-0.222695 18:0.818882 19:0.221238 20:0.480514 21:0.5 22:0.500002 23:0.5 24:0.499998 25:0.593659 26:-0.307066 27:0.574484 28:0.47249 29:0.732002 30:-0.42826 31:0.382931 32:0.366238 33:0.5 34:0.500002 35:0.5 36:0.499998 
0 0 0 0.5 1:0.591337 2:0.440295 3:0.41342 4:0.534364 5:0.591337 6:0.440295 7:0.41342 8:0.534364 9:0.586974 10:0.438564 11:0.415411 12:0.539033 13:-0.168258 14:0.686765 15:0.269747 16:0.653666 17:-0.228252 18:0.826454 19:0.219578 20:0.465468 21:0.5 22:0.500002 23:0.5 24:0.499998 25:0.597615 26:-0.301501 27:0.576677 28:0.468399 29:0.74581 30:-0.430754 31:0.365332 32:0.353203 33:0.5 34:0.500002 35:0.5 36:0.499998 
0 0 0 0.5 1:0.592474 2:0.439068 3:0.412213 4:0.535046 5:0.592474 6:0.439068 7:0.412213 8:0.535046 9:0.587683 10:0.437308 11:0.414261 12:0.540165 13:-0.167481 14:0.691747 15:0.268276 16:0.649203 17:-0.232654 18:0.83165 19:0.214717 20:0.456209 21:0.5 22:0.500002 23:0.5 24:0.499998 25:0.611378 26:-0.27861 27:0.587327 28:0.451265 29:0.773217 30:-0.414076 31:0.347666 32:0.331367 33:0.5 34:0.500002 35:0.5 36:0.499998 
0 0 0 0.5 1:0.593762 2:0.437841 3:0.412337 4:0.534529 5:0.593762 6:0.437841 7:0.412337 8:0.534529 9:0.587925 10:0.435514 11:0.414994 12:0.540788 13:-0.166885 14:0.697218 15:0.268482 16:0.643393 17:-0.238114 18:0.830553 19:0.212564 20:0.456398 21:0.5 22:0.500002 23:0.5 24:0.499998 25:0.620627 26:-0.261482 27:0.595617 28:0.437824 29:0.790925 30:-0.3992 31:0.338193 32:0.317336 33:0.5 34:0.500002 35:0.5 36:0.499998 
0 0 0 0.5 1:0.594353 2:0.435872 3:0.411631 4:0.536022 5:0.594353 6:0.435872 7:0.411631 8:0.536022 9:0.589326 10:0.434286 11:0.413512 12:0.541385 13:-0.167621 14:0.702211 15:0.265292 16:0.63908 17:-0.235638 18:0.833912 19:0.210882 20:0.45232 21:0.5 22:0.500002 23:0.5 24:0.499998 25:0.623418 26:-0.252732 27:0.598856 28:0.434567 29:0.799314 30:-0.394219 31:0.329205 32:0.31195 33:0.5 34:0.500002 35:0.5 36:0.499998 
0 0.5 0 0.5 1:0.595863 2:0.430645 3:0.411937 4:0.538332 5:0.595863 6:0.430645 7:0.411937 8:0.538332 9:0.592035 10:0.429779 11:0.413016 12:0.542404 13:-0.161785 14:0.704318 15:0.265525 16:0.638168 17:-0.236093 18:0.833853 19:0.209504 20:0.452833 21:0.5 22:0.500002 23:0.5 24:0.499998 25:0.626149 26:-0.25252 27:0.596969 28:0.433358 29:0.800435 30:-0.392885 31:0.328236 32:0.31178 33:0.5 34:0.500002 35:0.5 36:0.499998 
0 0.1044483228392303 0 0.5 1:0.596205 2:0.431444 3:0.411838 4:0.537387 5:0.596205 6:0.431444 7:0.411838 8:0.537387 9:0.592703 10:0.43052 11:0.412959 12:0.541129 13:-0.165398 14:0.705609 15:0.263279 16:0.636744 17:-0.227069 18:0.830248 19:0.214249 20:0.461763 21:0.5 22:0.500002 23:0.5 24:0.499998 25:0.615476 26:-0.266788 27:0.588881 28:0.450813 29:0.782451 30:-0.407498 31:0.336693 32:0.329171 33:0.5 34:0.500002 35:0.5 36:0.499998 
0.496572768171532 0.5 0.5 0.5 1:0.593162 2:0.431941 3:0.415857 4:0.53726 5:0.593162 6:0.431941 7:0.415857 8:0.53726 9:0.590905 10:0.432237 11:0.415719 12:0.539611 13:-0.165873 14:0.701766 15:0.267613 16:0.639057 17:-0.221753 18:0.825215 19:0.22289 20:0.469218 21:0.5 22:0.500002 23:0.5 24:0.499998 25:0.60156 26:-0.2824 27:0.583859 28:0.466352 29:0.766643 30:-0.426539 31:0.339152 32:0.339557 33:0.5 34:0.500002 35:0.5 36:0.499998 
0 0 0.3416672911288725 0.5 1:0.594168 2:0.432286 3:0.413486 4:0.537702 5:0.594168 6:0.432286 7:0.413486 8:0.537702 9:0.591296 10:0.431248 11:0.414667 12:0.540782 13:-0.163141 14:0.697731 15:0.267215 16:0.644323 17:-0.219114 18:0.822596 19:0.222995 20:0.474972 21:0.5 22:0.500002 23:0.5 24:0.499998 25:0.596437 26:-0.288473 27:0.583339 28:0.469853 29:0.759005 30:-0.430804 31:0.346313 32:0.344074 33:0.5 34:0.500002 35:0.5 36:0.499998 
0.09181678871277829 0 0.5 0 1:0.603647 2:0.435651 3:0.401594 4:0.533424 5:0.603647 6:0.435651 7:0.401594 8:0.533424 9:0.598373 10:0.432329 11:0.405244 12:0.539276 13:-0.154744 14:0.697566 15:0.264315 16:0.64776 17:-0.211082 18:0.818329 19:0.22218 20:0.486229 21:0.5 22:0.500002 23:0.5 24:0.499998 25:0.594208 26:-0.297091 27:0.575451 28:0.476979 29:0.744487 30:-0.431476 31:0.36051 32:0.36 33:0.5 34:0.500002 35:0.5 36:0.499998 
0 0 0 0.5 1:0.582471 2:0.414525 3:0.4135 4:0.563838 5:0.582471 6:0.414525 7:0.4135 8:0.563838 9:0.581699 10:0.415754 11:0.412307 12:0.564604 13:-0.181027 14:0.572169 15:0.214308 16:0.770664 17:-0.195139 18:0.691795 19:0.197807 20:0.666493 21:0.5 22:0.500002 23:0.5 24:0.499998 25:0.598133 26:-0.220775 27:0.633439 28:0.438463 29:0.738079 30:-0.329717 31:0.461901 32:0.364929 33:0.5 34:0.500002 35:0.5 36:0.499998 
-0.1137820025721583 0 0 0 1:0.55194 2:0.44636 3:0.436872 4:0.552511 5:0.55194 6:0.44636 7:0.436872 8:0.552511 9:0.556584 10:0.447131 11:0.436028 12:0.547877 13:0.749272 14:0.423353 15:0.505613 16:0.0609895 17:0.679242 18:0.368119 19:0.63059 20:-0.0739907 21:0.5 22:0.500002 23:0.5 24:0.499998 25:0.569988 26:0.626718 27:0.0705491 28:0.526651 29:0.520361 30:0.5717 31:-0.0970381 32:0.62687 33:0.5 34:0.500002 35:0.5 36:0.499998 
-0 0.1702165648904174 0.1251698206028846 0 1:0.563461 2:0.429844 3:0.387071 4:0.589849 5:0.563461 6:0.429844 7:0.387071 8:0.589849 9:0.568581 10:0.429545 11:0.387226 12:0.585032 13:0.779247 14:0.401765 15:0.464732 16:0.124029 17:0.759467 18:0.350536 19:0.546739 20:0.0375669 21:0.5 22:0.500002 23:0.5 24:0.499998 25:0.564553 26:0.57245 27:-0.0548576 28:0.592091 29:0.492691 30:0.493983 31:-0.240288 32:0.674906 33:0.5 34:0.500002 35:0.5 36:0.499998 
-0.1102202349600605 0.5 0.5 0.3919205480788137 1:0.563295 2:0.429629 3:0.390679 4:0.587781 5:0.563295 6:0.429629 7:0.390679 8:0.587781 9:0.567418 10:0.430523 11:0.389613 12:0.583857 13:0.786538 14:0.396004 15:0.45743 16:0.123678 17:0.768008 18:0.364549 19:0.522582 20:0.0646205 21:0.5 22:0.500002 23:0.5 24:0.499998 25:0.563372 26:0.567764 27:-0.0568587 28:0.597514 29:0.48413 30:0.479507 31:-0.262028 32:0.683398 33:0.5 34:0.500002 35:0.5 36:0.499998 
-0 0.04768281390051556 0 0 1:0.517766 2:0.506837 3:0.478841 4:0.495728 5:0.517766 6:0.506837 7:0.478841 8:0.495728 9:0.519908 10:0.500156 11:0.485409 12:0.49388 13:0.548514 14:0.365491 15:0.710036 16:-0.247787 17:0.513728 18:0.302448 19:0.728339 20:-0.337833 21:0.5 22:0.500002 23:0.5 24:0.499998 25:0.665101 26:0.64577 27:-0.00389644 28:0.374975 29:0.598265 30:0.652313 31:-0.135003 32:0.445355 33:0.5 34:0.500002 35:0.5 36:0.499998 
-0 0 0.5 0 1:0.517306 2:0.50619 3:0.475729 4:0.499848 5:0.517306 6:0.50619 7:0.475729 8:0.499848 9:0.518457 10:0.499037 11:0.482869 12:0.499 13:0.550105 14:0.360271 15:0.710344 16:-0.250999 17:0.504329 18:0.301053 19:0.736758 20:-0.334975 21:0.5 22:0.500002 23:0.5 24:0.499998 25:0.666345 26:0.643158 27:-0.00384563 28:0.377249 29:0.606185 30:0.638982 31:-0.136828 32:0.453343 33:0.5 34:0.500002 35:0.5 36:0.499998 
-0.04929079295480068 0.5 0.1217155446335698 0.3390850346364981 1:0.511996 2:0.497524 3:0.481465 4:0.50845 5:0.511996 6:0.497524 7:0.481465 8:0.50845 9:0.516118 10:0.491389 11:0.487541 12:0.504444 13:0.559131 14:0.350952 15:0.705756 16:-0.257127 17:0.505792 18:0.293641 19:0.738492 20:-0.335527 21:0.5 22:0.500002 23:0.5 24:0.499998 25:0.653863 26:0.649522 27:-0.0118718 28:0.387869 29:0.606962 30:0.633824 31:-0.127467 32:0.462185 33:0.5 34:0.500002 35:0.5 36:0.499998 
-0 0 0.5 0 1:0.565962 2:0.4598 3:0.420126 4:0.540152 5:0.565962 6:0.4598 7:0.420126 8:0.540152 9:0.568982 10:0.463301 11:0.416372 12:0.536886 13:0.685746 14:0.590708 15:0.404003 16:-0.13266 17:-0.21479 18:-0.334183 19:-0.766375 20:0.504832 21:0.5 22:0.500002 23:0.5 24:0.499998 25:0.825344 26:0.493357 27:-0.124066 28:0.244977 29:0.471639 30:0.156914 31:-0.68858 32:0.528008 33:0.5 34:0.500002 35:0.5 36:0.499998 
-0 0.4140694474925935 0.5 0 1:0.562986 2:0.454784 3:0.425915 4:0.542969 5:0.562986 6:0.454784 7:0.425915 8:0.542969 9:0.567111 10:0.459377 11:0.42106 12:0.538579 13:0.688935 14:0.580744 15:0.410738 16:-0.139277 17:-0.21229 18:-0.322326 19:-0.77348 20:0.502761 21:0.5 22:0.500002 23:0.5 24:0.499998 25:0.817479 26:0.514115 27:-0.0955721 28:0.24141 29:0.463744 30:0.154741 31:-0.679962 32:0.546488 33:0.5 34:0.500002 35:0.5 36:0.499998 
-0 0.02601775955598773 0.5 0 1:0.560034 2:0.453214 3:0.430493 4:0.543723 5:0.560034 6:0.453214 7:0.430493 8:0.543723 9:0.565026 10:0.457808 11:0.425645 12:0.538501 13:0.700604 14:0.557665 15:0.423792 16:-0.136254 17:0.211191 18:0.307487 19:0.791103 20:-0.484775 21:0.5 22:0.500002 23:0.5 24:0.499998 25:0.804099 26:0.51885 27:-0.119987 28:0.264239 29:0.458443 30:0.158768 31:-0.671418 32:0.560197 33:0.5 34:0.500002 35:0.5 36:0.499998 
-0 0 0.5 0 1:0.56424 2:0.461396 3:0.422929 4:0.538403 5:0.56424 6:0.461396 7:0.422929 8:0.538403 9:0.567542 10:0.463872 11:0.420201 12:0.53493 13:0.704782 14:0.562915 15:0.413083 16:-0.125584 17:0.216076 18:0.31527 19:0.787824 20:-0.482959 21:0.5 22:0.500002 23:0.5 24:0.499998 25:0.797126 26:0.516498 27:-0.126163 28:0.286186 29:0.464372 30:0.15413 31:-0.660065 32:0.570015 33:0.5 34:0.500002 35:0.5 36:0.499998 
-0 0 0.1679117867279512 0 1:0.567799 2:0.464032 3:0.419075 4:0.535402 5:0.567799 6:0.464032 7:0.419075 8:0.535402 9:0.569724 10:0.465848 11:0.417088 12:0.533327 13:0.717966 14:0.554481 15:0.407053 16:-0.10669 17:0.223613 18:0.318846 19:0.794459 20:-0.466014 21:0.5 22:0.500002 23:0.5 24:0.499998 25:0.803106 26:0.527678 27:-0.0797731 28:0.264979 29:0.474533 30:0.153048 31:-0.65281 32:0.570293 33:0.5 34:0.500002 35:0.5 36:0.499998 
-0.05903963653926229 0.1009746056739559 0 0.1263573560744317 1:0.647636 2:0.329044 3:0.313448 4:0.611595 5:0.647636 6:0.329044 7:0.313448 8:0.611595 9:0.648589 10:0.326492 11:0.315868 12:0.610706 13:0.806707 14:0.469396 15:0.265103 16:-0.242097 17:0.558024 18:0.279816 19:0.640051 20:-0.447936 21:0.5 22:0.500002 23:0.5 24:0.499998 25:0.949418 26:0.222558 27:-0.108973 28:0.192866 29:0.909443 30:0.146502 31:-0.301567 32:0.245984 33:0.5 34:0.500002 35:0.5 36:0.499998 
-0.06478928518844376 0.08898025658134461 0 0.1059249528104417 1:0.481955 2:0.560894 3:0.499199 4:0.451572 5:0.481955 6:0.560894 7:0.499199 8:0.451572 9:0.483994 10:0.556005 11:0.504079 12:0.450013 13:0.479259 14:0.751819 15:0.419081 16:-0.17161 17:0.417669 18:0.740186 19:0.470971 20:-0.236356 21:0.5 22:0.500002 23:0.5 24:0.499998 25:0.62721 26:0.715596 27:-0.108994 28:0.287489 29:0.548534 30:0.56833 31:-0.323083 32:0.521276 33:0.5 34:0.500002 35:0.5 36:0.499998 
-0.1257804169894782 0.1775282640948975 0 0.2034125821847579 1:0.546758 2:0.449058 3:0.429052 4:0.561531 5:0.546758 6:0.449058 7:0.429052 8:0.561531 9:0.553149 10:0.452632 11:0.425247 12:0.555261 13:0.843178 14:0.481206 15:0.239697 16:-0.00608524 17:0.852658 18:0.453868 19:0.257594 20:-0.0249638 21:0.5 22:0.500002 23:0.5 24:0.499998 25:0.685246 26:0.699593 27:-0.0688534 28:0.190438 29:0.663373 30:0.694137 31:-0.131602 32:0.24656 33:0.5 34:0.500002 35:0.5 36:0.499998 
-0.03922774233742211 0 0 0 1:0.530815 2:0.533786 3:0.447392 4:0.482855 5:0.530815 6:0.533786 7:0.447392 8:0.482855 9:0.526401 10:0.533943 11:0.447807 12:0.48711 13:0.506089 14:0.700189 15:0.42399 16:-0.271739 17:-0.2452 18:-0.488239 19:-0.613001 20:0.570727 21:0.5 22:0.500002 23:0.5 24:0.499998 25:0.954745 26:0.28357 27:-0.00257375 28:0.0896845 29:0.790757 30:0.185233 31:-0.535022 32:0.232688 33:0.5 34:0.500002 35:0.5 36:0.499998 
-0.2165353404709301 0.5 0.5 0.5 1:0.563108 2:0.483335 3:0.453541 4:0.493555 5:0.563108 6:0.483335 7:0.453541 8:0.493555 9:0.561018 10:0.487231 11:0.449988 12:0.495355 13:0.609191 14:0.766232 15:0.162167 16:-0.124405 17:0.577125 18:0.72154 19:0.270686 20:-0.270253 21:0.5 22:0.500002 23:0.5 24:0.499998 25:0.856086 26:0.293299 27:-0.285343 28:0.315707 29:-0.634276 30:-0.118674 31:0.641871 32:-0.414261 33:0.5 34:0.500002 35:0.5 36:0.499998 
-0 0.5 0.5 0.1320650747838778 1:0.566927 2:0.482572 3:0.453029 4:0.49039 5:0.566927 6:0.482572 7:0.453029 8:0.49039 9:0.563823 10:0.4859 11:0.450161 12:0.493316 13:0.612876 14:0.765615 15:0.155969 16:-0.117861 17:0.59487 18:0.714557 19:0.257684 20:-0.262939 21:0.5 22:0.500002 23:0.5 24:0.499998 25:0.852607 26:0.295573 27:-0.288892 28:0.31975 29:-0.628566 30:-0.118222 31:0.644439 32:-0.419078 33:0.5 34:0.500002 35:0.5 36:0.499998 
-0 0.1990789471739163 0.5 0 1:0.566522 2:0.482986 3:0.452744 4:0.490714 5:0.566522 6:0.482986 7:0.452744 8:0.490714 9:0.564321 10:0.485921 11:0.450158 12:0.492726 13:0.619331 14:0.763141 15:0.147926 16:-0.110282 17:0.604521 18:0.708548 19:0.253595 20:-0.261157 21:0.5 22:0.500002 23:0.5 24:0.499998 25:0.842896 26:0.302121 27:-0.29652 28:0.332152 29:-0.624793 30:-0.124036 31:0.638774 32:-0.431529 33:0.5 34:0.500002 35:0.5 36:0.499998 
-0.3235750290691934 0.5 0.5 0.5 1:0.568784 2:0.480551 3:0.453164 4:0.4901 5:0.568784 6:0.480551 7:0.453164 8:0.4901 9:0.565224 10:0.485376 11:0.448922 12:0.493357 13:0.625605 14:0.758999 15:0.144446 16:-0.108048 17:0.614441 18:0.712656 19:0.239157 20:-0.239558 21:0.5 22:0.500002 23:0.5 24:0.499998 25:0.839506 26:0.304575 27:-0.302387 28:0.333205 29:-0.626946 30:-0.131048 31:0.634939 32:-0.431993 33:0.5 34:0.500002 35:0.5 36:0.499998 
-0 0 0.0642946997541671 0 1:0.538264 2:0.461594 3:0.454621 4:0.539001 5:0.538264 6:0.461594 7:0.454621 8:0.539001 9:0.549554 10:0.470099 11:0.445787 12:0.527513 13:0.748586 14:0.507289 15:0.284422 16:-0.318405 17:-0.538287 18:-0.307806 19:-0.592894 20:0.513789 21:0.5 22:0.500002 23:0.5 24:0.499998 25:0.66946 26:0.673366 27:-0.211829 28:0.231365 29:0.452802 30:0.445669 31:-0.536674 32:0.555276 33:0.5 34:0.500002 35:0.5 36:0.499998 
-0.1693174056383708 0.5 0 0.3854757738509022 1:0.537948 2:0.46096 3:0.455807 4:0.538859 5:0.537948 6:0.46096 7:0.455807 8:0.538859 9:0.548998 10:0.470153 11:0.446313 12:0.5276 13:0.747754 14:0.512707 15:0.264084 16:-0.329022 17:-0.54552 18:-0.306682 19:-0.575573 20:0.526375 21:0.5 22:0.500002 23:0.5 24:0.499998 25:0.668354 26:0.681106 27:-0.207718 28:0.21506 29:0.449116 30:0.455853 31:-0.536786 32:0.549867 33:0.5 34:0.500002 35:0.5 36:0.499998 
-0 0.01808920781464605 0 0.1792448076129624 1:0.537566 2:0.464115 3:0.453201 4:0.53873 5:0.537566 6:0.464115 7:0.453201 8:0.53873 9:0.54985 10:0.47251 11:0.444368 12:0.526248 13:0.747473 14:0.514737 15:0.259175 16:-0.330391 17:-0.541251 18:-0.30209 19:-0.577005 20:0.531841 21:0.5 22:0.500002 23:0.5 24:0.499998 25:0.675006 26:0.677543 27:-0.217878 28:0.194506 29:0.447771 30:0.462617 31:-0.550094 32:0.531867 33:0.5 34:0.500002 35:0.5 36:0.499998 
-0.0613993758535379 0 0 0 1:0.539625 2:0.460223 3:0.458849 4:0.535216 5:0.539625 6:0.460223 7:0.458849 8:0.535216 9:0.550918 10:0.470673 11:0.448149 12:0.523563 13:0.745765 14:0.520337 15:0.249713 16:-0.332758 17:-0.538445 18:-0.300579 19:-0.573235 20:0.539565 21:0.5 22:0.500002 23:0.5 24:0.499998 25:0.672331 26:0.681025 27:-0.212106 28:0.197954 29:0.448309 30:0.463309 31:-0.544094 32:0.53696 33:0.5 34:0.500002 35:0.5 36:0.499998 
-0 0 0.3331545476627129 0 1:0.543187 2:0.435305 3:0.442329 4:0.565511 5:0.543187 6:0.435305 7:0.442329 8:0.565511 9:0.538257 10:0.423237 11:0.454348 12:0.569841 13:0.4565 14:0.781743 15:0.405553 16:-0.126543 17:0.219644 18:0.636628 19:0.569756 20:-0.470998 21:0.5 22:0.500002 23:0.5 24:0.499998 25:0.863864 26:0.358696 27:-0.120704 28:0.332426 29:0.691497 30:0.147679 31:-0.531659 32:0.46622 33:0.5 34:0.500002 35:0.5 36:0.499998 
-0 0 0.426301311432985 0 1:0.484556 2:0.417003 3:0.481385 4:0.599652 5:0.484556 6:0.417003 7:0.481385 8:0.599652 9:0.49014 10:0.417161 11:0.482172 12:0.594348 13:0.433543 14:0.811175 15:0.367439 16:-0.137926 17:0.228849 18:0.668854 19:0.520191 20:-0.479231 21:0.5 22:0.500002 23:0.5 24:0.499998 25:0.870571 26:0.306192 27:-0.137496 28:0.359788 29:0.707884 30:0.104732 31:-0.52507 32:0.460687 33:0.5 34:0.500002 35:0.5 36:0.499998 
-0.1000732837346295 0.3627767427034111 0 0.02465871363776396 1:0.488495 2:0.413585 3:0.482051 4:0.598287 5:0.488495 6:0.413585 7:0.482051 8:0.598287 9:0.493966 10:0.414232 11:0.482291 12:0.593132 13:0.429457 14:0.818292 15:0.3557 16:-0.139436 17:0.230762 18:0.675014 19:0.507647 20:-0.483114 21:0.5 22:0.500002 23:0.5 24:0.499998 25:0.876477 26:0.296217 27:-0.145102 28:0.350697 29:0.70973 30:0.100215 31:-0.534369 32:0.447984 33:0.5 34:0.500002 35:0.5 36:0.499998 
-0 0 0.5 0 1:0.485433 2:0.411727 3:0.483515 4:0.600873 5:0.485433 6:0.411727 7:0.483515 8:0.600873 9:0.493009 10:0.414917 11:0.481418 12:0.594157 13:0.452464 14:0.790408 15:0.393842 16:-0.124179 17:0.228253 18:0.651166 19:0.55474 20:-0.464917 21:0.5 22:0.500002 23:0.5 24:0.499998 25:0.864774 26:0.311053 27:-0.145316 28:0.366462 29:0.700493 30:0.107162 31:-0.527505 32:0.468577 33:0.5 34:0.500002 35:0.5 36:0.499998 
-0 0 0.1254670813539724 0 1:0.519502 2:0.411162 3:0.461689 4:0.589837 5:0.519502 6:0.411162 7:0.461689 8:0.589837 9:0.525934 10:0.410907 11:0.462682 12:0.583502 13:0.399185 14:0.810054 15:0.389556 16:-0.180859 17:0.210106 18:0.670149 19:0.51668 20:-0.489691 21:0.5 22:0.500002 23:0.5 24:0.499998 25:0.864982 26:0.329163 27:-0.163815 28:0.341501 29:0.741454 30:0.178028 31:-0.474631 32:0.439633 33:0.5 34:0.500002 35:0.5 36:0.499998 
-0 0 0.07986843592189981 0 1:0.492908 2:0.435045 3:0.497096 4:0.56628 5:0.492908 6:0.435045 7:0.497096 8:0.56628 9:0.500139 10:0.433689 11:0.499421 12:0.558886 13:0.182428 14:0.915198 15:0.318335 16:-0.166722 17:-0.0138626 18:-0.733306 19:-0.36664 20:0.572403 21:0.5 22:0.500002 23:0.5 24:0.499998 25:0.852863 26:0.388306 27:-0.0715687 28:0.341646 29:0.771014 30:0.240629 31:-0.37153 32:0.457822 33:0.5 34:0.500002 35:0.5 36:0.499998 
-0.2865794666927547 0.3240067531367991 0.5 0.08172562152791767 1:0.475183 2:0.433988 3:0.513889 4:0.567251 5:0.475183 6:0.433988 7:0.513889 8:0.567251 9:0.485703 10:0.435301 11:0.514255 12:0.55691 13:0.150677 14:0.918923 15:0.319869 16:-0.174816 17:0.0150804 18:-0.732676 19:-0.35326 20:0.581521 21:0.5 22:0.500002 23:0.5 24:0.499998 25:0.845539 26:0.415327 27:-0.0609241 28:0.329933 29:0.762551 30:0.26323 31:-0.370357 32:0.460503 33:0.5 34:0.500002 35:0.5 36:0.499998 
-0 0.5 0.5 0.5 1:0.480229 2:0.43726 3:0.509444 4:0.564491 5:0.480229 6:0.43726 7:0.509444 8:0.564491 9:0.488771 10:0.436939 11:0.511051 12:0.55589 13:0.144256 14:0.922135 15:0.317273 16:-0.167913 17:0.0210966 18:-0.736174 19:-0.347889 20:0.580152 21:0.5 22:0.500002 23:0.5 24:0.499998 25:0.846708 26:0.418722 27:-0.0675448 28:0.32124 29:0.760781 30:0.26913 31:-0.377741 32:0.453975 33:0.5 34:0.500002 35:0.5 36:0.499998 
-0 0.5 0.5 0 1:0.483479 2:0.438681 3:0.509018 4:0.560988 5:0.483479 6:0.438681 7:0.509018 8:0.560988 9:0.490298 10:0.438024 11:0.510661 12:0.554047 13:0.145222 14:0.921321 15:0.318102 16:-0.169966 17:0.0199649 18:-0.735603 19:-0.349113 20:0.580181 21:0.5 22:0.500002 23:0.5 24:0.499998 25:0.841152 26:0.422121 27:-0.0696231 28:0.330803 29:0.757214 30:0.271643 31:-0.372841 32:0.462413 33:0.5 34:0.500002 35:0.5 36:0.499998 
-0 0 0.5 0 1:0.490523 2:0.45054 3:0.504946 4:0.549027 5:0.490523 6:0.45054 7:0.504946 8:0.549027 9:0.495823 10:0.447989 11:0.508101 12:0.543414 13:0.155745 14:0.918718 15:0.322312 16:-0.166779 17:0.0169514 18:-0.727757 19:-0.357567 20:0.585002 21:0.5 22:0.500002 23:0.5 24:0.499998 25:0.848951 26:0.410964 27:-0.0741147 28:0.32388 29:0.761109 30:0.26176 31:-0.383307 32:0.453068 33:0.5 34:0.500002 35:0.5 36:0.499998 
-0 0 0.5 0 1:0.494558 2:0.452255 3:0.502031 4:0.546665 5:0.494558 6:0.452255 7:0.502031 8:0.546665 9:0.499961 10:0.450956 11:0.503867 12:0.541106 13:0.151654 14:0.924611 15:0.311532 16:-0.158254 17:0.0182333 18:-0.732232 19:-0.346003 20:0.586333 21:0.5 22:0.500002 23:0.5 24:0.499998 25:0.864605 26:0.398591 27:-0.0705689 28:0.297665 29:0.771249 30:0.253761 31:-0.397109 32:0.427884 33:0.5 34:0.500002 35:0.5 36:0.499998 
-0 0 0.5 0 1:0.525399 2:0.450523 3:0.442838 4:0.569982 5:0.525399 6:0.450523 7:0.442838 8:0.569982 9:0.535272 10:0.453607 11:0.439795 12:0.560629 13:0.519713 14:0.733223 15:0.41414 16:-0.144122 17:0.292459 18:0.600991 19:0.596725 20:-0.444068 21:0.5 22:0.500002 23:0.5 24:0.499998 25:0.93993 26:0.117162 27:-0.201746 28:0.249206 29:0.721239 30:-0.0196603 31:-0.635597 32:0.274671 33:0.5 34:0.500002 35:0.5 36:0.499998 
-0 0 0.2525129367324976 0 1:0.550126 2:0.430266 3:0.41466 4:0.583344 5:0.550126 6:0.430266 7:0.41466 8:0.583344 9:0.560808 10:0.433725 11:0.411026 12:0.573092 13:0.51804 14:0.753466 15:0.368857 16:-0.166939 17:0.305373 18:0.605281 19:0.557825 20:-0.478763 21:0.5 22:0.500002 23:0.5 24:0.499998 25:0.939752 26:0.0930159 27:-0.216724 28:0.247476 29:0.714382 30:-0.0396255 31:-0.64789 32:0.261393 33:0.5 34:0.500002 35:0.5 36:0.499998 
-0 0 0.5 0 1:0.563272 2:0.418527 3:0.404244 4:0.586641 5:0.563272 6:0.418527 7:0.404244 8:0.586641 9:0.573935 10:0.422645 11:0.399885 12:0.576247 13:0.53238 14:0.751154 15:0.359061 16:-0.153017 17:0.315558 18:0.603388 19:0.559264 20:-0.472832 21:0.5 22:0.500002 23:0.5 24:0.499998 25:0.93854 26:0.0909801 27:-0.214186 28:0.254931 29:0.706251 30:-0.0484526 31:-0.654173 32:0.266307 33:0.5 34:0.500002 35:0.5 36:0.499998 
-0.2393106502353806 0.5 0 0.09138959099484095 1:0.573061 2:0.407789 3:0.382633 4:0.599084 5:0.573061 6:0.407789 7:0.382633 8:0.599084 9:0.584188 10:0.411051 11:0.378994 12:0.588324 13:0.533261 14:0.764521 15:0.320809 16:-0.167994 17:0.34179 18:0.616413 19:0.520063 20:-0.482441 21:0.5 22:0.500002 23:0.5 24:0.499998 25:0.939164 26:0.0893892 27:-0.193049 28:0.269654 29:0.687443 30:-0.0698722 31:-0.66837 32:0.275358 33:0.5 34:0.500002 35:0.5 36:0.499998 
-0 0.3239208051930689 0 0.5 1:0.574229 2:0.409077 3:0.382268 4:0.597317 5:0.574229 6:0.409077 7:0.382268 8:0.597317 9:0.584778 10:0.412107 11:0.378852 12:0.587089 13:0.547531 14:0.761802 15:0.304248 16:-0.165229 17:0.351766 18:0.60569 19:0.518283 20:-0.490696 21:0.5 22:0.500002 23:0.5 24:0.499998 25:0.93861 26:0.0808366 27:-0.19489 28:0.272938 29:0.686049 30:-0.078821 31:-0.669557 32:0.273527 33:0.5 34:0.500002 35:0.5 36:0.499998 
-0.1204379980507352 0.5 0.1403311401899341 0.4472101018901826 1:0.583036 2:0.409965 3:0.374596 4:0.593023 5:0.583036 6:0.409965 7:0.374596 8:0.593023 9:0.592779 10:0.412356 11:0.371694 12:0.583454 13:0.541694 14:0.773438 15:0.279532 16:-0.173847 17:-0.356633 18:-0.611117 19:-0.494352 20:0.50494 21:0.5 22:0.500002 23:0.5 24:0.499998 25:0.93705 26:0.0835534 27:-0.1925 28:0.279106 29:0.685576 30:-0.0800391 31:-0.667162 32:0.280134 33:0.5 34:0.500002 35:0.5 36:0.499998 
-0 0 0.5 0 1:0.591629 2:0.410964 3:0.367667 4:0.588137 5:0.591629 6:0.410964 7:0.367667 8:0.588137 9:0.599576 10:0.411766 11:0.366358 12:0.580292 13:0.53282 14:0.779295 15:0.275155 16:-0.181914 17:-0.356364 18:-0.61867 19:-0.482299 20:0.507583 21:0.5 22:0.500002 23:0.5 24:0.499998 25:0.9339 26:0.0895679 27:-0.203881 28:0.279717 29:0.680996 30:-0.0735256 31:-0.670805 32:0.284356 33:0.5 34:0.500002 35:0.5 36:0.499998 
-0.08673357402056012 0.0566488130654013 0 0 1:0.600075 2:0.422437 3:0.359322 4:0.576493 5:0.600075 6:0.422437 7:0.359322 8:0.576493 9:0.606209 10:0.420832 11:0.360366 12:0.570568 13:0.521019 14:0.790018 15:0.262259 16:-0.188764 17:-0.353656 18:-0.627686 19:-0.463862 20:0.515529 21:0.5 22:0.500002 23:0.5 24:0.499998 25:0.936537 26:0.0837523 27:-0.201275 28:0.27454 29:0.68973 30:-0.0735577 31:-0.664745 32:0.277445 33:0.5 34:0.500002 35:0.5 36:0.499998 
-0 0 0.5 0 1:0.567555 2:0.452986 3:0.398946 4:0.559935 5:0.567555 6:0.452986 7:0.398946 8:0.559935 9:0.567152 10:0.450258 11:0.401804 12:0.560499 13:0.481749 14:0.765237 15:0.394349 16:-0.163767 17:-0.227591 18:-0.587605 19:-0.579479 20:0.516843 21:0.5 22:0.500002 23:0.5 24:0.499998 25:0.870254 26:0.332813 27:-0.170434 28:0.320697 29:0.666729 30:0.12657 31:-0.58469 32:0.444512 33:0.5 34:0.500002 35:0.5 36:0.499998 
-0 0 0.5 0 1:0.562713 2:0.457916 3:0.40756 4:0.554583 5:0.562713 6:0.457916 7:0.40756 8:0.554583 9:0.561435 10:0.455284 11:0.410363 12:0.555976 13:0.493213 14:0.754336 15:0.401682 16:-0.16239 17:-0.231355 18:-0.576474 19:-0.592522 20:0.512904 21:0.5 22:0.500002 23:0.5 24:0.499998 25:0.870172 26:0.336106 27:-0.163021 28:0.321336 29:0.665602 30:0.125414 31:-0.583738 32:0.447767 33:0.5 34:0.500002 35:0.5 36:0.499998 
-0 0 0.4665946128046505 0 1:0.557207 2:0.466514 3:0.418978 4:0.544373 5:0.557207 6:0.466514 7:0.418978 8:0.544373 9:0.555794 10:0.464654 11:0.420979 12:0.545863 13:0.498616 14:0.747105 15:0.40775 16:-0.164183 17:-0.238794 18:-0.574153 19:-0.59821 20:0.505441 21:0.5 22:0.500002 23:0.5 24:0.499998 25:0.873841 26:0.337097 27:-0.143522 28:0.319638 29:0.667895 30:0.118721 31:-0.581474 32:0.44912 33:0.5 34:0.500002 35:0.5 36:0.499998 
-0.07766548370175662 -0.2528045649158255 0.194225301822565 0 1:0.485306 2:0.325534 3:0.605855 4:0.539857 5:0.485306 6:0.325534 7:0.605855 8:0.539857 9:0.507364 10:0.353317 11:0.589252 12:0.520126 13:-2.35235e-06 14:0.707108 15:2.45001e-07 16:0.707105 17:5.75143e-06 18:0.707108 19:8.87338e-06 20:0.707105 21:0.5 22:0.500002 23:0.5 24:0.499998 25:0.740773 26:0.161547 27:-0.0740363 28:0.647824 29:-0.351817 30:0.44752 31:0.656088 32:-0.495479 33:0.5 34:0.500002 35:0.5 36:0.499998 
-0 -0.1538910255385289 0 0 1:0.450673 2:0.305203 3:0.700197 4:0.462027 5:0.450673 6:0.305203 7:0.700197 8:0.462027 9:0.484802 10:0.427834 11:0.617727 12:0.447592 13:-2.35235e-06 14:0.707108 15:2.45001e-07 16:0.707105 17:6.01265e-06 18:0.707108 19:8.61216e-06 20:0.707105 21:0.5 22:0.500002 23:0.5 24:0.499998 25:0.667131 26:0.400547 27:0.0757587 28:0.623505 29:0.427455 30:-0.304015 31:-0.51777 32:0.675849 33:0.5 34:0.500002 35:0.5 36:0.499998 
-0 -0 0 0.5 1:0.455031 2:0.265669 3:0.725251 4:0.443145 5:0.455031 6:0.265669 7:0.725251 8:0.443145 9:0.492497 10:0.486411 11:0.569834 12:0.442877 13:-0.175196 14:0.463406 15:0.379754 16:0.781248 17:-0.297558 18:0.708557 19:0.293881 20:0.568367 21:0.5 22:0.500002 23:0.5 24:0.499998 25:0.680808 26:0.391087 27:0.152159 28:0.600332 29:0.472828 30:-0.323549 31:-0.512919 32:0.639268 33:0.5 34:0.500002 35:0.5 36:0.499998 
-0 -0 0 0.002545694545304361 1:0.457224 2:0.270312 3:0.723454 4:0.441011 5:0.457224 6:0.270312 7:0.723454 8:0.441011 9:0.490967 10:0.488693 11:0.568126 12:0.444257 13:-0.18162 14:0.489738 15:0.371548 16:0.767544 17:-0.28067 18:0.68953 19:0.30374 20:0.594571 21:0.5 22:0.500002 23:0.5 24:0.499998 25:0.681112 26:0.390194 27:0.157314 28:0.599239 29:0.475667 30:-0.325263 31:-0.512252 32:0.636823 33:0.5 34:0.500002 35:0.5 36:0.499998 
-0 -0 0.1735877070712069 0.1472664219053632 1:0.45951 2:0.297412 3:0.66202 4:0.511982 5:0.45951 6:0.297412 7:0.66202 8:0.511982 9:0.48495 10:0.35195 11:0.627959 12:0.496611 13:-0.236957 14:0.433112 15:0.383096 16:0.780706 17:-0.424837 18:0.827 19:0.149749 20:0.336392 21:0.5 22:0.500002 23:0.5 24:0.499998 25:0.741355 26:0.28282 27:-0.0420672 28:0.607154 29:0.376751 30:-0.347835 31:-0.639871 32:0.572393 33:0.5 34:0.500002 35:0.5 36:0.499998 
-0 -0 0 0.3897922617371711 1:0.490739 2:0.27591 3:0.620943 4:0.545416 5:0.490739 6:0.27591 7:0.620943 8:0.545416 9:0.505813 10:0.301141 11:0.606075 12:0.534922 13:-0.402628 14:0.667318 15:0.312084 16:0.543306 17:-0.460868 18:0.665186 19:0.258784 20:0.527408 21:0.5 22:0.500002 23:0.5 24:0.499998 25:0.764617 26:0.150279 27:-0.071773 28:0.622596 29:-0.403927 30:0.405962 31:0.653172 32:-0.495383 33:0.5 34:0.500002 35:0.5 36:0.499998 
-0 -0 0.3987419728652518 0 1:0.5947 2:0.249447 3:0.521534 4:0.558668 5:0.5947 6:0.249447 7:0.521534 8:0.558668 9:0.598404 10:0.260199 11:0.513923 12:0.556859 13:-0.360637 14:0.772791 15:0.239549 16:0.464059 17:-0.397602 18:0.679638 19:0.225178 20:0.573846 21:0.5 22:0.500002 23:0.5 24:0.499998 25:0.786965 26:0.142955 27:-0.190822 28:0.569066 29:-0.316762 30:0.371166 31:0.745244 32:-0.454432 33:0.5 34:0.500002 35:0.5 36:0.499998 
-0 -0 0 0.5 1:0.523747 2:0.273643 3:0.573627 4:0.567239 5:0.523747 6:0.273643 7:0.573627 8:0.567239 9:0.533723 10:0.289145 11:0.56394 12:0.559917 13:-0.405035 14:0.722487 15:0.252306 16:0.500301 17:-0.437641 18:0.671028 19:0.235243 20:0.55032 21:0.5 22:0.500002 23:0.5 24:0.499998 25:0.743405 26:0.108576 27:-0.0521062 28:0.65791 29:-0.402582 30:0.462545 31:0.627131 32:-0.480298 33:0.5 34:0.500002 35:0.5 36:0.499998 
-0 -0 0 0.5 1:0.501938 2:0.271948 3:0.588614 4:0.572395 5:0.501938 6:0.271948 7:0.588614 8:0.572395 9:0.514453 10:0.289775 11:0.578013 12:0.563266 13:-0.417493 14:0.712183 15:0.248247 16:0.506822 17:-0.436663 18:0.666135 19:0.242443 20:0.553905 21:0.5 22:0.500002 23:0.5 24:0.499998 25:0.733535 26:0.105005 27:-0.027057 28:0.670946 29:-0.41769 30:0.474386 31:0.603606 32:-0.485955 33:0.5 34:0.500002 35:0.5 36:0.499998 
-0 -0 0 0.2219696350480347 1:0.534657 2:0.246035 3:0.586501 4:0.55644 5:0.534657 6:0.246035 7:0.586501 8:0.55644 9:0.544956 10:0.261849 11:0.577654 12:0.548429 13:-0.405045 14:0.717236 15:0.25198 16:0.507954 17:-0.447819 18:0.666403 19:0.224794 20:0.552117 21:0.5 22:0.500002 23:0.5 24:0.499998 25:0.661001 26:0.267738 27:0.189735 28:0.674829 29:0.533226 30:-0.40108 31:-0.434273 32:0.605155 33:0.5 34:0.500002 35:0.5 36:0.499998 
-0 -0 0 0.5 1:0.529639 2:0.249624 3:0.590594 4:0.55531 5:0.529639 6:0.249624 7:0.590594 8:0.55531 9:0.540816 10:0.265623 11:0.581965 12:0.54615 13:-0.409269 14:0.713869 15:0.25517 16:0.507719 17:-0.450977 18:0.666099 19:0.228305 20:0.54846 21:0.5 22:0.500002 23:0.5 24:0.499998 25:0.665107 26:0.270582 27:0.20025 28:0.666572 29:0.535304 30:-0.404864 31:-0.442624 32:0.594659 33:0.5 34:0.500002 35:0.5 36:0.499998 
-0 -0 0 0.1802590796387551 1:0.524028 2:0.282492 3:0.579349 4:0.556729 5:0.524028 6:0.282492 7:0.579349 8:0.556729 9:0.538064 10:0.292829 11:0.575712 12:0.541566 13:-0.38755 14:0.700636 15:0.294663 16:0.52162 17:-0.405166 18:0.666627 19:0.284363 20:0.557303 21:0.5 22:0.500002 23:0.5 24:0.499998 25:0.706481 26:0.23159 27:0.0750915 28:0.664539 29:0.635278 30:-0.163696 31:-0.318081 32:0.684434 33:0.5 34:0.500002 35:0.5 36:0.499998 
-0 -0 0.3001659911492658 0 1:0.590824 2:0.398398 3:0.419168 4:0.562587 5:0.590824 6:0.398398 7:0.419168 8:0.562587 9:0.589397 10:0.398661 11:0.418915 12:0.564085 13:-0.399708 14:0.815778 15:0.220718 16:0.354999 17:-0.498493 18:0.679945 19:0.18276 20:0.505745 21:0.5 22:0.500002 23:0.5 24:0.499998 25:0.671272 26:0.403106 27:-0.0456452 28:0.620335 29:0.519725 30:-0.032508 31:-0.427288 32:0.73909 33:0.5 34:0.500002 35:0.5 36:0.499998 
-0 -0.07698495905222408 0.5 0 1:0.597016 2:0.396309 3:0.402668 4:0.569535 5:0.597016 6:0.396309 7:0.402668 8:0.569535 9:0.595561 10:0.396438 11:0.402563 12:0.57104 13:-0.387772 14:0.826638 15:0.212463 16:0.348082 17:-0.50705 18:0.676576 19:0.161254 20:0.509061 21:0.5 22:0.500002 23:0.5 24:0.499998 25:0.66778 26:0.417429 27:-0.0593797 28:0.61343 29:0.507267 30:-0.0196101 31:-0.438334 32:0.741727 33:0.5 34:0.500002 35:0.5 36:0.499998 
-0 -0.053171423134076 0 0.2980030379337068 1:0.604927 2:0.389367 3:0.38559 4:0.577735 5:0.604927 6:0.389367 7:0.38559 8:0.577735 9:0.603482 10:0.389435 11:0.385559 12:0.579218 13:-0.48723 14:0.258929 15:0.822067 16:-0.140599 17:0.691038 18:-0.211366 19:-0.660041 20:0.205272 21:0.5 22:0.500002 23:0.5 24:0.499998 25:0.659234 26:0.436287 27:-0.0701451 28:0.608394 29:0.491605 30:-0.00547687 31:-0.444785 32:0.748639 33:0.5 34:0.500002 35:0.5 36:0.499998 
-0 -0 0.2230595828737454 0 1:0.60967 2:0.380482 3:0.376094 4:0.584884 5:0.60967 6:0.380482 7:0.376094 8:0.584884 9:0.60833 10:0.381018 11:0.375603 12:0.586244 13:-0.51161 14:0.427096 15:0.745439 16:0.0128425 17:0.716215 18:-0.410314 19:-0.551779 20:0.119239 21:0.5 22:0.500002 23:0.5 24:0.499998 25:0.676968 26:0.445114 27:-0.115446 28:0.574683 29:0.484114 30:0.0286897 31:-0.48708 32:0.726336 33:0.5 34:0.500002 35:0.5 36:0.499998 
-0 -0 0.5 0 1:0.611171 2:0.381749 3:0.366667 4:0.588467 5:0.611171 6:0.381749 7:0.366667 8:0.588467 9:0.60978 10:0.382153 11:0.366316 12:0.589864 13:-0.50148 14:0.408808 15:0.762427 16:-0.0100082 17:0.709957 18:-0.386316 19:-0.573356 20:0.134104 21:0.5 22:0.500002 23:0.5 24:0.499998 25:0.680964 26:0.448009 27:-0.119318 28:0.566868 29:0.483304 30:0.0329301 31:-0.494334 32:0.72178 33:0.5 34:0.500002 35:0.5 36:0.499998 
-0 -0 0.5 0 1:0.613437 2:0.381585 3:0.361608 4:0.589345 5:0.613437 6:0.381585 7:0.361608 8:0.589345 9:0.612368 10:0.3826 11:0.36065 12:0.590385 13:-0.495446 14:0.383786 15:0.778126 16:-0.0419743 17:0.707704 18:-0.353086 19:-0.591693 20:0.156155 21:0.5 22:0.500002 23:0.5 24:0.499998 25:0.674585 26:0.452247 27:-0.118116 28:0.571364 29:0.478364 30:0.0330609 31:-0.490086 32:0.727936 33:0.5 34:0.500002 35:0.5 36:0.499998 
-0 -0.4982062194211451 0.5 0 1:0.611418 2:0.373936 3:0.356985 4:0.599084 5:0.611418 6:0.373936 7:0.356985 8:0.599084 9:0.611991 10:0.372593 11:0.358308 12:0.598546 13:-0.487471 14:0.376286 15:0.786403 16:-0.048495 17:0.703172 18:-0.343813 19:-0.601337 20:0.160422 21:0.5 22:0.500002 23:0.5 24:0.499998 25:0.677924 26:0.460685 27:-0.108993 28:0.562413 29:0.478499 30:0.033391 31:-0.492443 32:0.72624 33:0.5 34:0.500002 35:0.5 36:0.499998 
-0 -0 0.1939908478697525 0 1:0.620227 2:0.362924 3:0.356333 4:0.597186 5:0.620227 6:0.362924 7:0.356333 8:0.597186 9:0.621346 10:0.3638 11:0.355448 12:0.596016 13:-0.482201 14:0.376509 15:0.789583 16:-0.0477723 17:0.704122 18:-0.342907 19:-0.600142 20:0.162654 21:0.5 22:0.500002 23:0.5 24:0.499998 25:0.674252 26:0.460921 27:-0.10738 28:0.566926 29:0.478079 30:0.0332177 31:-0.487429 32:0.729897 33:0.5 34:0.500002 35:0.5 36:0.499998 
-0 -0 0.5 0 1:0.614708 2:0.361105 3:0.366578 4:0.597795 5:0.614708 6:0.361105 7:0.366578 8:0.597795 9:0.614652 10:0.359623 11:0.368023 12:0.597857 13:-0.448317 14:0.534754 15:0.701146 16:0.146435 17:0.673687 18:-0.442484 19:-0.589956 20:0.0480289 21:0.5 22:0.500002 23:0.5 24:0.499998 25:0.661792 26:0.463041 27:-0.0946199 28:0.581956 29:0.468099 30:0.0141183 31:-0.477289 32:0.743559 33:0.5 34:0.500002 35:0.5 36:0.499998 
-0 -0.1328879659784448 0.5 0 1:0.611584 2:0.364674 3:0.37749 4:0.592013 5:0.611584 6:0.364674 7:0.37749 8:0.592013 9:0.610524 10:0.363663 11:0.378465 12:0.593105 13:-0.385879 14:0.631356 15:0.603496 16:0.297118 17:0.64297 18:-0.516895 19:-0.563057 20:-0.0487471 21:0.5 22:0.500002 23:0.5 24:0.499998 25:0.660892 26:0.455799 27:-0.0952581 28:0.588554 29:0.468572 30:0.00681905 31:-0.475702 32:0.74438 33:0.5 34:0.500002 35:0.5 36:0.499998 
-0 -0.5 0.5 0.3569672896878388 1:0.610079 2:0.368005 3:0.381068 4:0.589205 5:0.610079 6:0.368005 7:0.381068 8:0.589205 9:0.60998 10:0.366528 11:0.382493 12:0.589306 13:-0.323131 14:0.688135 15:0.505361 16:0.408248 17:0.606198 18:-0.576574 19:-0.530855 20:-0.1352 21:0.5 22:0.500002 23:0.5 24:0.499998 25:0.661598 26:0.447811 27:-0.0928905 28:0.594243 29:0.463284 30:-0.0143238 31:-0.481361 32:0.743945 33:0.5 34:0.500002 35:0.5 36:0.499998 
-0 -0.5 0.5 0 1:0.610683 2:0.367579 3:0.378786 4:0.590317 5:0.610683 6:0.367579 7:0.378786 8:0.590317 9:0.609909 10:0.366323 11:0.380001 12:0.591116 13:-0.266055 14:0.719181 15:0.416097 16:0.48873 17:-0.566128 18:0.623689 19:0.495766 20:0.211489 21:0.5 22:0.500002 23:0.5 24:0.499998 25:0.673921 26:0.439702 27:-0.0792656 28:0.588396 29:0.469819 30:-0.0346454 31:-0.489615 32:0.733722 33:0.5 34:0.500002 35:0.5 36:0.499998 
-0 -0 0.5 0 1:0.610909 2:0.36649 3:0.374093 4:0.593742 5:0.610909 6:0.36649 7:0.374093 8:0.593742 9:0.61073 10:0.365028 11:0.375517 12:0.593928 13:-0.216764 14:0.73437 15:0.339008 16:0.546614 17:-0.524787 18:0.660305 19:0.459563 20:0.278205 21:0.5 22:0.500002 23:0.5 24:0.499998 25:0.674429 26:0.438229 27:-0.0635734 28:0.590813 29:0.465987 30:-0.0588188 31:-0.491683 32:0.733242 33:0.5 34:0.500002 35:0.5 36:0.499998 
-0 -0 0.5 0 1:0.606995 2:0.372308 3:0.37685 4:0.592392 5:0.606995 6:0.372308 7:0.37685 8:0.592392 9:0.608093 10:0.371353 11:0.377778 12:0.591273 13:-0.175437 14:0.740207 15:0.274374 16:0.588247 17:-0.483615 18:0.688292 19:0.423508 20:0.33617 21:0.5 22:0.500002 23:0.5 24:0.499998 25:0.668279 26:0.431771 27:-0.0526379 28:0.603494 29:0.466803 30:-0.0747162 31:-0.481106 32:0.738275 33:0.5 34:0.500002 35:0.5 36:0.499998 
-0 -0 0.09246824903518464 0 1:0.61167 2:0.303712 3:0.475958 4:0.554151 5:0.61167 6:0.303712 7:0.475958 8:0.554151 9:0.585635 10:0.38997 11:0.395527 12:0.59035 13:-0.141392 14:0.740798 15:0.22113 16:0.618327 17:-0.4436 18:0.709286 19:0.388467 20:0.386299 21:0.5 22:0.500002 23:0.5 24:0.499998 25:0.688897 26:0.397731 27:-0.00597938 28:0.605967 29:0.500935 30:-0.120598 31:-0.472947 32:0.714732 33:0.5 34:0.500002 35:0.5 36:0.499998 
-0.2954789874824125 -0 0 0 1:0.565731 2:0.41832 3:0.421733 4:0.571925 5:0.565731 6:0.41832 7:0.421733 8:0.571925 9:0.572396 10:0.419276 11:0.420796 12:0.565245 13:-0.000278565 14:0.707228 15:0.000434513 16:0.706985 17:-0.0251157 18:0.715801 19:0.0220158 20:0.697505 21:0.5 22:0.500002 23:0.5 24:0.499998 25:0.702566 26:0.119056 27:0.206627 28:0.670471 29:0.620222 30:-0.423356 31:-0.389382 32:0.533363 33:0.5 34:0.500002 35:0.5 36:0.499998 
-0.5 -0 0 0.09912674936613823 1:0.569861 2:0.419966 3:0.415983 4:0.570829 5:0.569861 6:0.419966 7:0.415983 8:0.570829 9:0.575214 10:0.420416 11:0.415487 12:0.565465 13:-0.000223161 14:0.707204 15:0.000347821 16:0.707009 17:-0.0226049 18:0.714973 19:0.0198154 20:0.698505 21:0.5 22:0.500002 23:0.5 24:0.499998 25:0.697126 26:0.119938 27:0.209617 28:0.675049 29:0.618769 30:-0.426325 31:-0.383469 32:0.536958 33:0.5 34:0.500002 35:0.5 36:0.499998 
-0.5 -0 0 0.5 1:0.571189 2:0.419773 3:0.413508 4:0.571441 5:0.571189 6:0.419773 7:0.413508 8:0.571441 9:0.576188 10:0.420592 11:0.412627 12:0.566435 13:-0.000178901 14:0.707185 15:0.000278404 16:0.707029 17:-0.020345 18:0.71422 19:0.0178347 20:0.699398 21:0.5 22:0.500002 23:0.5 24:0.499998 25:0.698106 26:0.119751 27:0.215783 28:0.67212 29:0.623097 30:-0.425574 31:-0.38166 32:0.533828 33:0.5 34:0.500002 35:0.5 36:0.499998 
-0.5 -0 0 0.5 1:0.572412 2:0.417894 3:0.411125 4:0.57331 5:0.572412 6:0.417894 7:0.411125 8:0.57331 9:0.577099 10:0.418656 11:0.410306 12:0.568624 13:-0.000143503 14:0.707169 15:0.000222861 16:0.707044 17:-0.0183111 18:0.713536 19:0.0160518 20:0.700195 21:0.5 22:0.500002 23:0.5 24:0.499998 25:0.698504 26:0.12124 27:0.220323 28:0.669963 29:0.621418 30:-0.430377 31:-0.387672 32:0.527566 33:0.5 34:0.500002 35:0.5 36:0.499998 
-0 -0.07135373453823698 0 0 1:0.579657 2:0.410698 3:0.414273 4:0.568948 5:0.579657 6:0.410698 7:0.414273 8:0.568948 9:0.585471 10:0.411311 11:0.413613 12:0.563002 13:-3.88842e-05 14:0.707124 15:5.90724e-05 16:0.707089 17:-0.00973226 18:0.710584 19:0.00853237 20:0.703493 21:0.5 22:0.500002 23:0.5 24:0.499998 25:0.718173 26:0.133351 27:0.14215 28:0.668011 29:0.579203 30:-0.415756 31:-0.447774 32:0.5396 33:0.5 34:0.500002 35:0.5 36:0.499998 
-0 -0.1716713210092316 0.1963093714272983 0 1:0.700606 2:0.186574 3:0.50475 4:0.468582 5:0.700606 6:0.186574 7:0.50475 8:0.468582 9:0.697843 10:0.193309 11:0.499978 12:0.475046 13:-1.55363e-06 14:0.707108 15:1.04787e-06 16:0.707105 17:-8.1123e-05 18:0.707139 19:8.08702e-05 20:0.707075 21:0.5 22:0.500002 23:0.5 24:0.499998 25:0.780867 26:0.343727 27:-0.329226 28:0.404609 29:0.133252 30:-0.161793 31:-0.836892 32:0.505647 33:0.5 34:0.500002 35:0.5 36:0.499998 
-0 -0.1998563576219999 0 0 1:0.696438 2:0.163086 3:0.517618 4:0.46952 5:0.696438 6:0.163086 7:0.517618 8:0.46952 9:0.694417 10:0.170186 11:0.512696 12:0.475357 13:-1.55262e-06 14:0.707108 15:1.04685e-06 16:0.707105 17:-5.77334e-05 18:0.707131 19:6.10632e-05 20:0.707083 21:0.5 22:0.500002 23:0.5 24:0.499998 25:0.807973 26:0.332906 27:-0.322788 28:0.36354 29:-0.170598 30:0.122874 31:0.853176 32:-0.477378 33:0.5 34:0.500002 35:0.5 36:0.499998 
-0 -0.1765481624379038 0 0 1:0.701269 2:0.169417 3:0.52497 4:0.451581 5:0.701269 6:0.169417 7:0.52497 8:0.451581 9:0.697548 10:0.178264 11:0.518766 12:0.461011 13:-1.55199e-06 14:0.707108 15:1.04623e-06 16:0.707105 17:-3.60248e-05 18:0.707123 19:4.28105e-05 20:0.707091 21:0.5 22:0.500002 23:0.5 24:0.499998 25:0.810846 26:0.320284 27:-0.312136 28:0.377516 29:-0.1933 30:0.134632 31:0.847074 32:-0.476419 33:0.5 34:0.500002 35:0.5 36:0.499998 
-0 -0.03363458679029782 0 0 1:0.700668 2:0.177308 3:0.525638 4:0.448699 5:0.700668 6:0.177308 7:0.525638 8:0.448699 9:0.696821 10:0.18555 11:0.519833 12:0.458023 13:-1.55191e-06 14:0.707108 15:1.04614e-06 16:0.707105 17:-3.19179e-05 18:0.707121 19:3.92936e-05 20:0.707092 21:0.5 22:0.500002 23:0.5 24:0.499998 25:0.812717 26:0.311507 27:-0.309906 28:0.382639 29:-0.195562 30:0.144133 31:0.847529 32:-0.471885 33:0.5 34:0.500002 35:0.5 36:0.499998 
-0 -0 0.1494166498974646 0 1:0.698592 2:0.17854 3:0.487435 4:0.492442 5:0.698592 6:0.17854 7:0.487435 8:0.492442 9:0.696777 10:0.184286 11:0.483277 12:0.496975 13:-1.55156e-06 14:0.707108 15:1.04579e-06 16:0.707105 17:2.02492e-06 18:0.707109 19:1.07033e-05 20:0.707104 21:0.5 22:0.500002 23:0.5 24:0.499998 25:0.788503 26:0.249178 27:-0.374478 28:0.419451 29:-0.112657 30:0.217447 31:0.865609 32:-0.436744 33:0.5 34:0.500002 35:0.5 36:0.499998 
-0 -0 0.3528079955369028 0 1:0.687565 2:0.179201 3:0.485541 4:0.509305 5:0.687565 6:0.179201 7:0.485541 8:0.509305 9:0.685142 10:0.187368 11:0.479377 12:0.515433 13:-1.55156e-06 14:0.707108 15:1.04579e-06 16:0.707105 17:2.84891e-06 18:0.707109 19:9.87933e-06 20:0.707105 21:0.5 22:0.500002 23:0.5 24:0.499998 25:0.810837 26:0.227186 27:-0.351741 28:0.408912 29:-0.118973 30:0.232171 31:0.875798 32:-0.406103 33:0.5 34:0.500002 35:0.5 36:0.499998 
-0 -0.01811381307844299 0 0 1:0.66874 2:0.158377 3:0.54497 4:0.480324 5:0.66874 6:0.158377 7:0.54497 8:0.480324 9:0.669254 10:0.168881 11:0.538542 12:0.48327 13:-1.55156e-06 14:0.707108 15:1.04579e-06 16:0.707105 17:4.86901e-06 18:0.707108 19:7.85923e-06 20:0.707105 21:0.5 22:0.500002 23:0.5 24:0.499998 25:0.790612 26:0.338702 27:-0.311493 28:0.403962 29:0.167685 30:-0.155333 31:-0.833053 32:0.503762 33:0.5 34:0.500002 35:0.5 36:0.499998 
-0 -0.08622283273261197 0 0 1:0.696882 2:0.166523 3:0.573771 4:0.396754 5:0.696882 6:0.166523 7:0.573771 8:0.396754 9:0.692869 10:0.173461 11:0.569069 12:0.407436 13:-1.55156e-06 14:0.707108 15:1.04579e-06 16:0.707105 17:4.98935e-06 18:0.707108 19:7.73889e-06 20:0.707105 21:0.5 22:0.500002 23:0.5 24:0.499998 25:0.767976 26:0.442697 27:-0.238618 28:0.396602 29:0.212957 30:-0.0954412 31:-0.775484 32:0.586656 33:0.5 34:0.500002 35:0.5 36:0.499998 
-0 -0.112172903089823 0.1398422840988048 0 1:0.65553 2:0.19545 3:0.630659 4:0.366536 5:0.65553 6:0.19545 7:0.630659 8:0.366536 9:0.651323 10:0.20381 11:0.625431 12:0.378254 13:-1.55156e-06 14:0.707108 15:1.04579e-06 16:0.707105 17:5.00381e-06 18:0.707108 19:7.72443e-06 20:0.707105 21:0.5 22:0.500002 23:0.5 24:0.499998 25:0.886473 26:0.328814 27:0.138823 28:0.294576 29:0.0188416 30:-0.0840665 31:-0.851797 32:0.51674 33:0.5 34:0.500002 35:0.5 36:0.499998 
-0 -0 0.2583835865270399 0 1:0.578475 2:0.227615 3:0.703208 4:0.345045 5:0.578475 6:0.227615 7:0.703208 8:0.345045 9:0.574677 10:0.237289 11:0.697354 12:0.356563 13:-1.55156e-06 14:0.707108 15:1.04579e-06 16:0.707105 17:5.02906e-06 18:0.707108 19:7.69918e-06 20:0.707105 21:0.5 22:0.500002 23:0.5 24:0.499998 25:0.81904 26:0.117632 27:0.551571 28:0.105382 29:0.316588 30:0.0548729 31:0.884872 32:-0.337287 33:0.5 34:0.500002 35:0.5 36:0.499998 
-0 -0.04455573319829256 0 0 1:0.632426 2:0.0900165 3:0.616353 4:0.460482 5:0.632426 6:0.0900165 7:0.616353 8:0.460482 9:0.63137 10:0.0968646 11:0.611299 12:0.467229 13:-1.55156e-06 14:0.707108 15:1.04579e-06 16:0.707105 17:5.06187e-06 18:0.707108 19:7.66637e-06 20:0.707105 21:0.5 22:0.500002 23:0.5 24:0.499998 25:0.708104 26:0.000878624 27:0.706107 28:0.000784712 29:0.676595 30:0.00573901 31:0.735505 32:-0.0349172 33:0.5 34:0.500002 35:0.5 36:0.499998 
-0.5 -0 0 0 1:0.621378 2:0.192648 3:0.533905 4:0.540112 5:0.621378 6:0.192648 7:0.533905 8:0.540112 9:0.623096 10:0.202268 11:0.527321 12:0.541083 13:-1.55156e-06 14:0.707108 15:1.04579e-06 16:0.707105 17:5.06511e-06 18:0.707108 19:7.66314e-06 20:0.707105 21:0.5 22:0.500002 23:0.5 24:0.499998 25:0.707115 26:6.65102e-06 27:0.707098 28:3.37989e-06 29:0.704196 30:0.000571096 31:0.709997 32:-0.00343684 33:0.5 34:0.500002 35:0.5 36:0.499998 
-0.5 -0 0 0 1:0.624037 2:0.199629 3:0.527399 4:0.540904 5:0.624037 6:0.199629 7:0.527399 8:0.540904 9:0.624918 10:0.207071 11:0.522112 12:0.542215 13:-1.55156e-06 14:0.707108 15:1.04579e-06 16:0.707105 17:5.06514e-06 18:0.707108 19:7.6631e-06 20:0.707105 21:0.5 22:0.500002 23:0.5 24:0.499998 25:0.707114 26:5.31925e-06 27:0.7071 28:2.18287e-06 29:0.704488 30:0.00051393 31:0.709709 32:-0.00309347 33:0.5 34:0.500002 35:0.5 36:0.499998 
-0.5 -0 0 0 1:0.626236 2:0.213221 3:0.521751 4:0.538647 5:0.626236 6:0.213221 7:0.521751 8:0.538647 9:0.626833 10:0.221988 11:0.51536 12:0.540561 13:-1.55156e-06 14:0.707108 15:1.04579e-06 16:0.707105 17:5.06517e-06 18:0.707108 19:7.66307e-06 20:0.707105 21:0.5 22:0.500002 23:0.5 24:0.499998 25:0.707113 26:4.25383e-06 27:0.707101 28:1.22526e-06 29:0.704751 30:0.000462575 31:0.709449 32:-0.00278435 33:0.5 34:0.500002 35:0.5 36:0.499998 
-0.5 -0 0 0 1:0.622528 2:0.213217 3:0.5226 4:0.542113 5:0.622528 6:0.213217 7:0.5226 8:0.542113 9:0.622762 10:0.222477 11:0.515645 12:0.544777 13:-1.55156e-06 14:0.707108 15:1.04579e-06 16:0.707105 17:5.0652e-06 18:0.707108 19:7.66304e-06 20:0.707105 21:0.5 22:0.500002 23:0.5 24:0.499998 25:0.707112 26:3.45207e-06 27:0.707102 28:5.09743e-07 29:0.704987 30:0.000416335 31:0.709216 32:-0.00250616 33:0.5 34:0.500002 35:0.5 36:0.499998 
-0.5 -0 0 0 1:0.617918 2:0.228064 3:0.522211 4:0.54172 5:0.617918 6:0.228064 7:0.522211 8:0.54172 9:0.618881 10:0.237188 11:0.515534 12:0.543096 13:-1.55156e-06 14:0.707108 15:1.04579e-06 16:0.707105 17:5.06523e-06 18:0.707108 19:7.66301e-06 20:0.707105 21:0.5 22:0.500002 23:0.5 24:0.499998 25:0.707111 26:2.80644e-06 27:0.707102 28:-6.68863e-08 29:0.7052 30:0.000374697 31:0.709005 32:-0.00225581 33:0.5 34:0.500002 35:0.5 36:0.499998 
-0.5 -0 0 0 1:0.615714 2:0.237156 3:0.522403 4:0.540137 5:0.615714 6:0.237156 7:0.522403 8:0.540137 9:0.615824 10:0.2453 11:0.516198 12:0.542336 13:-1.55156e-06 14:0.707108 15:1.04579e-06 16:0.707105 17:5.06525e-06 18:0.707108 19:7.66299e-06 20:0.707105 21:0.5 22:0.500002 23:0.5 24:0.499998 25:0.70711 26:2.31523e-06 27:0.707103 28:-5.02903e-07 29:0.705391 30:0.000337171 31:0.708816 32:-0.00203055 33:0.5 34:0.500002 35:0.5 36:0.499998 
-0.5 -0 0 0.4922380877904943 1:0.608696 2:0.242894 3:0.527414 4:0.540672 5:0.608696 6:0.242894 7:0.527414 8:0.540672 9:0.609207 10:0.251839 11:0.52066 12:0.542546 13:-1.55156e-06 14:0.707108 15:1.04579e-06 16:0.707105 17:5.06527e-06 18:0.707108 19:7.66297e-06 20:0.707105 21:0.5 22:0.500002 23:0.5 24:0.499998 25:0.70711 26:1.87168e-06 27:0.707104 28:-9.02293e-07 29:0.705563 30:0.000303372 31:0.708645 32:-0.00182784 33:0.5 34:0.500002 35:0.5 36:0.499998 
-0.5 -0 0 0.5 1:0.609577 2:0.244324 3:0.526094 4:0.540321 5:0.609577 6:0.244324 7:0.526094 8:0.540321 9:0.610462 10:0.253672 11:0.51914 12:0.541738 13:-1.55156e-06 14:0.707108 15:1.04579e-06 16:0.707105 17:5.06529e-06 18:0.707108 19:7.66295e-06 20:0.707105 21:0.5 22:0.500002 23:0.5 24:0.499998 25:0.70711 26:1.49577e-06 27:0.707104 28:-1.24288e-06 29:0.705718 30:0.000272953 31:0.708491 32:-0.0016454 33:0.5 34:0.500002 35:0.5 36:0.499998 
-0.5 -0 0 0.5 1:0.609967 2:0.242563 3:0.52208 4:0.544551 5:0.609967 6:0.242563 7:0.52208 8:0.544551 9:0.610921 10:0.251748 11:0.515214 12:0.545851 13:-1.55156e-06 14:0.707108 15:1.04579e-06 16:0.707105 17:5.06531e-06 18:0.707108 19:7.66293e-06 20:0.707105 21:0.5 22:0.500002 23:0.5 24:0.499998 25:0.707109 26:1.18661e-06 27:0.707104 28:-1.52378e-06 29:0.705857 30:0.000245528 31:0.708353 32:-0.00148125 33:0.5 34:0.500002 35:0.5 36:0.499998 
-0.5 -0 0 0.5 1:0.609783 2:0.244668 3:0.520821 4:0.545021 5:0.609783 6:0.244668 7:0.520821 8:0.545021 9:0.61157 10:0.253266 11:0.51464 12:0.544962 13:-1.55156e-06 14:0.707108 15:1.04579e-06 16:0.707105 17:5.06532e-06 18:0.707108 19:7.66292e-06 20:0.707105 21:0.5 22:0.500002 23:0.5 24:0.499998 25:0.707109 26:9.22424e-07 27:0.707104 28:-1.76535e-06 29:0.705982 30:0.000220957 31:0.708228 32:-0.0013334 33:0.5 34:0.500002 35:0.5 36:0.499998 
-0.5 -0 0 0.5 1:0.584057 2:0.262138 3:0.552996 4:0.533251 5:0.584057 6:0.262138 7:0.552996 8:0.533251 9:0.587647 10:0.274755 11:0.54428 12:0.531921 13:-1.55156e-06 14:0.707108 15:1.04579e-06 16:0.707105 17:5.06534e-06 18:0.707108 19:7.66291e-06 20:0.707105 21:0.5 22:0.500002 23:0.5 24:0.499998 25:0.707109 26:7.44793e-07 27:0.707105 28:-1.9249e-06 29:0.706095 30:0.000198982 31:0.708116 32:-0.0012002 33:0.5 34:0.500002 35:0.5 36:0.499998 
-0.5 -0 0 0.5 1:0.584193 2:0.246995 3:0.550321 4:0.543009 5:0.584193 6:0.246995 7:0.550321 8:0.543009 9:0.588481 10:0.25863 11:0.542587 12:0.54074 13:-1.55156e-06 14:0.707108 15:1.04579e-06 16:0.707105 17:5.06535e-06 18:0.707108 19:7.66289e-06 20:0.707105 21:0.5 22:0.500002 23:0.5 24:0.499998 25:0.707109 26:6.11117e-07 27:0.707105 28:-2.0441e-06 29:0.706196 30:0.000179217 31:0.708015 32:-0.00108031 33:0.5 34:0.500002 35:0.5 36:0.499998 
-0.5 -0 0 0.5 1:0.588792 2:0.250092 3:0.544532 4:0.542461 5:0.588792 6:0.250092 7:0.544532 8:0.542461 9:0.592463 10:0.261297 11:0.536894 12:0.540792 13:-1.55156e-06 14:0.707108 15:1.04579e-06 16:0.707105 17:5.06536e-06 18:0.707108 19:7.66288e-06 20:0.707105 21:0.5 22:0.500002 23:0.5 24:0.499998 25:0.707109 26:4.78889e-07 27:0.707105 28:-2.16476e-06 29:0.706288 30:0.000161428 31:0.707924 32:-0.000972404 33:0.5 34:0.500002 35:0.5 36:0.499998 
-0.5 -0 0 0.5 1:0.567619 2:0.267147 3:0.570158 4:0.530434 5:0.567619 6:0.267147 7:0.570158 8:0.530434 9:0.572082 10:0.281229 11:0.560596 12:0.52855 13:-1.55156e-06 14:0.707108 15:1.04579e-06 16:0.707105 17:5.06537e-06 18:0.707108 19:7.66287e-06 20:0.707105 21:0.5 22:0.500002 23:0.5 24:0.499998 25:0.707108 26:4.32111e-07 27:0.707105 28:-2.20227e-06 29:0.70637 30:0.000145467 31:0.707843 32:-0.000875242 33:0.5 34:0.500002 35:0.5 36:0.499998 
-0.5 -0 0 0 1:0.593726 2:0.239927 3:0.548912 4:0.537234 5:0.593726 6:0.239927 7:0.548912 8:0.537234 9:0.597143 10:0.252743 11:0.540156 12:0.536444 13:-1.55156e-06 14:0.707108 15:1.04579e-06 16:0.707105 17:5.06538e-06 18:0.707108 19:7.66286e-06 20:0.707105 21:0.5 22:0.500002 23:0.5 24:0.499998 25:0.707108 26:3.44113e-07 27:0.707105 28:-2.28286e-06 29:0.706444 30:0.000130928 31:0.707769 32:-0.00078797 33:0.5 34:0.500002 35:0.5 36:0.499998 
-0.5 -0 0 0 1:0.606972 2:0.22325 3:0.538072 4:0.540577 5:0.606972 6:0.22325 7:0.538072 8:0.540577 9:0.60968 10:0.235739 11:0.529421 12:0.540768 13:-1.55156e-06 14:0.707108 15:1.04579e-06 16:0.707105 17:5.06539e-06 18:0.707108 19:7.66286e-06 20:0.707105 21:0.5 22:0.500002 23:0.5 24:0.499998 25:0.707108 26:2.99003e-07 27:0.707105 28:-2.32205e-06 29:0.70651 30:0.000117964 31:0.707703 32:-0.000709304 33:0.5 34:0.500002 35:0.5 36:0.499998 
-0.5 -0 0 0 1:0.617207 2:0.210052 3:0.53317 4:0.539132 5:0.617207 6:0.210052 7:0.53317 8:0.539132 9:0.618647 10:0.22087 11:0.525496 12:0.540692 13:-1.55156e-06 14:0.707108 15:1.04579e-06 16:0.707105 17:5.06539e-06 18:0.707108 19:7.66285e-06 20:0.707105 21:0.5 22:0.500002 23:0.5 24:0.499998 25:0.707108 26:2.54485e-07 27:0.707105 28:-2.36182e-06 29:0.70657 30:0.000106194 31:0.707643 32:-0.000638607 33:0.5 34:0.500002 35:0.5 36:0.499998 
-0.5 -0 0 0 1:0.622187 2:0.199147 3:0.530496 4:0.540182 5:0.622187 6:0.199147 7:0.530496 8:0.540182 9:0.62429 10:0.209012 11:0.523836 12:0.540529 13:-1.55156e-06 14:0.707108 15:1.04579e-06 16:0.707105 17:5.0654e-06 18:0.707108 19:7.66284e-06 20:0.707105 21:0.5 22:0.500002 23:0.5 24:0.499998 25:0.707108 26:2.52588e-07 27:0.707105 28:-2.35993e-06 29:0.706624 30:9.58238e-05 31:0.707589 32:-0.000574756 33:0.5 34:0.500002 35:0.5 36:0.499998 
-0.5 -0 0 0 1:0.625574 2:0.19364 3:0.529813 4:0.538942 5:0.625574 6:0.19364 7:0.529813 8:0.538942 9:0.627286 10:0.203958 11:0.522723 12:0.540069 13:-1.55156e-06 14:0.707108 15:1.04579e-06 16:0.707105 17:5.06541e-06 18:0.707108 19:7.66284e-06 20:0.707105 21:0.5 22:0.500002 23:0.5 24:0.499998 25:0.707108 26:2.51071e-07 27:0.707105 28:-2.35841e-06 29:0.706672 30:8.65272e-05 31:0.707541 32:-0.000517255 33:0.5 34:0.500002 35:0.5 36:0.499998 
-0.5 -0 0 0 1:0.618036 2:0.201704 3:0.535113 4:0.539445 5:0.618036 6:0.201704 7:0.535113 8:0.539445 9:0.618905 10:0.210368 11:0.528897 12:0.541267 13:-1.55156e-06 14:0.707108 15:1.04579e-06 16:0.707105 17:5.06541e-06 18:0.707108 19:7.66283e-06 20:0.707105 21:0.5 22:0.500002 23:0.5 24:0.499998 25:0.707108 26:2.49857e-07 27:0.707105 28:-2.3572e-06 29:0.706716 30:7.81652e-05 31:0.707497 32:-0.000465498 33:0.5 34:0.500002 35:0.5 36:0.499998 
-0.5 -0 0 0 1:0.613889 2:0.198895 3:0.545548 4:0.534751 5:0.613889 6:0.198895 7:0.545548 8:0.534751 9:0.617394 10:0.208098 11:0.540021 12:0.532821 13:-1.55156e-06 14:0.707108 15:1.04579e-06 16:0.707105 17:5.06542e-06 18:0.707108 19:7.66283e-06 20:0.707105 21:0.5 22:0.500002 23:0.5 24:0.499998 25:0.707108 26:2.48886e-07 27:0.707105 28:-2.35623e-06 29:0.706755 30:7.08364e-05 31:0.707458 32:-0.00041872 33:0.5 34:0.500002 35:0.5 36:0.499998 
-0.2950780523799543 -0 0 0 1:0.621509 2:0.186755 3:0.535476 4:0.540476 5:0.621509 6:0.186755 7:0.535476 8:0.540476 9:0.624322 10:0.196528 11:0.529234 12:0.539917 13:-1.55156e-06 14:0.707108 15:1.04579e-06 16:0.707105 17:5.06542e-06 18:0.707108 19:7.66282e-06 20:0.707105 21:0.5 22:0.500002 23:0.5 24:0.499998 25:0.707108 26:2.48109e-07 27:0.707105 28:-2.35545e-06 29:0.70679 30:6.42827e-05 31:0.707423 32:-0.000376578 33:0.5 34:0.500002 35:0.5 36:0.499998 
-0.5 -0 0 0.5 1:0.578025 2:0.217908 3:0.580333 4:0.530677 5:0.578025 6:0.217908 7:0.580333 8:0.530677 9:0.587429 10:0.235081 11:0.571105 12:0.522975 13:-0.152894 14:0.740715 15:0.281009 16:0.590761 17:-0.295511 18:0.778873 19:0.185941 20:0.521015 21:0.5 22:0.500002 23:0.5 24:0.499998 25:0.707108 26:2.46991e-07 27:0.707105 28:-2.35433e-06 29:0.706851 30:5.31426e-05 31:0.707363 32:-0.000304447 33:0.5 34:0.500002 35:0.5 36:0.499998 
-0.5 -0 0 0.5 1:0.54413 2:0.240121 3:0.611972 4:0.521301 5:0.54413 6:0.240121 7:0.611972 8:0.521301 9:0.555531 10:0.259786 11:0.601716 12:0.511697 13:-0.204758 14:0.747115 15:0.451493 16:0.442772 17:-0.468598 18:0.78358 19:0.297493 20:0.279136 21:0.5 22:0.500002 23:0.5 24:0.499998 25:0.707108 26:2.46593e-07 27:0.707105 28:-2.35393e-06 29:0.706877 30:4.84418e-05 31:0.707337 32:-0.000273649 33:0.5 34:0.500002 35:0.5 36:0.499998 
-0 -0 0 0.5 1:0.51864 2:0.256907 3:0.63377 4:0.513173 5:0.51864 6:0.256907 7:0.63377 8:0.513173 9:0.530753 10:0.275732 11:0.624527 12:0.502233 13:-0.219919 14:0.744589 15:0.548621 16:0.310222 17:-0.549848 18:0.749378 19:0.36254 20:0.0682967 21:0.5 22:0.500002 23:0.5 24:0.499998 25:0.707108 26:2.46275e-07 27:0.707105 28:-2.35361e-06 29:0.7069 30:4.42612e-05 31:0.707314 32:-0.00024588 33:0.5 34:0.500002 35:0.5 36:0.499998 
-0 -0 0 0.5 1:0.505642 2:0.267202 3:0.643985 4:0.508145 5:0.505642 6:0.267202 7:0.643985 8:0.508145 9:0.518504 10:0.285934 11:0.635123 12:0.495998 13:-0.22341 14:0.738833 15:0.601996 16:0.204485 17:-0.582002 18:0.704344 19:0.395748 20:-0.0924963 21:0.5 22:0.500002 23:0.5 24:0.499998 25:0.707108 26:2.4602e-07 27:0.707105 28:-2.35336e-06 29:0.706921 30:4.05184e-05 31:0.707293 32:-0.000220868 33:0.5 34:0.500002 35:0.5 36:0.499998 
-0 -0 0 0.5 1:0.526806 2:0.268456 3:0.620507 4:0.515149 5:0.526806 6:0.268456 7:0.620507 8:0.515149 9:0.53367 10:0.280546 11:0.613903 12:0.509522 13:-0.218727 14:0.732103 15:0.632757 16:0.125707 17:-0.590947 18:0.66059 19:0.412647 20:-0.210059 21:0.5 22:0.500002 23:0.5 24:0.499998 25:0.707108 26:2.45817e-07 27:0.707105 28:-2.35316e-06 29:0.706939 30:3.71275e-05 31:0.707274 32:-0.00019838 33:0.5 34:0.500002 35:0.5 36:0.499998 
-0 -0 0 0.2016851945762901 1:0.542913 2:0.264448 3:0.601514 4:0.522966 5:0.542913 6:0.264448 7:0.601514 8:0.522966 9:0.547233 10:0.273896 11:0.595813 12:0.520119 13:-0.208255 14:0.723814 15:0.65446 16:0.0663646 17:-0.591438 18:0.618754 19:0.423706 20:-0.296342 21:0.5 22:0.500002 23:0.5 24:0.499998 25:0.707108 26:2.45654e-07 27:0.707105 28:-2.35299e-06 29:0.706956 30:3.40923e-05 31:0.707257 32:-0.000178124 33:0.5 34:0.500002 35:0.5 36:0.499998 
-0 -0.03139122398035252 0 0 1:0.524274 2:0.26947 3:0.615922 4:0.52265 5:0.524274 6:0.26947 7:0.615922 8:0.52265 9:0.533326 10:0.287191 11:0.605544 12:0.51614 13:-0.166624 14:0.689728 15:0.699104 16:-0.0881226 17:0.565185 18:-0.485399 19:-0.443932 20:0.497873 21:0.5 22:0.500002 23:0.5 24:0.499998 25:0.707108 26:2.45523e-07 27:0.707105 28:-2.35286e-06 29:0.706971 30:3.141e-05 31:0.707242 32:-0.000159844 33:0.5 34:0.500002 35:0.5 36:0.499998 
-0 -0.02986010030520115 0 0 1:0.485727 2:0.307841 3:0.603749 4:0.552078 5:0.485727 6:0.307841 7:0.603749 8:0.552078 9:0.530917 10:0.351834 11:0.581103 12:0.506615 13:-0.0384854 14:0.580986 15:0.776182 16:-0.241898 17:0.528624 18:-0.289354 19:-0.569646 20:0.558868 21:0.5 22:0.500002 23:0.5 24:0.499998 25:0.707108 26:2.45111e-07 27:0.707105 28:-2.35245e-06 29:0.707043 30:1.91451e-05 31:0.707171 32:-7.36856e-05 33:0.5 34:0.500002 35:0.5 36:0.499998 
-0 -0 0.4282867291599011 0 1:0.535077 2:0.361674 3:0.527736 4:0.551706 5:0.535077 6:0.361674 7:0.527736 8:0.551706 9:0.545499 10:0.368189 11:0.52389 12:0.540747 13:-0.0283797 14:0.559672 15:0.781139 16:-0.275288 17:0.517932 18:-0.25756 19:-0.585432 20:0.568048 21:0.5 22:0.500002 23:0.5 24:0.499998 25:0.707108 26:2.45047e-07 27:0.707105 28:-2.35239e-06 29:0.707065 30:1.51573e-05 31:0.707148 32:-4.6642e-05 33:0.5 34:0.500002 35:0.5 36:0.499998 
-0 -0.2168324761449058 0.5 0 1:0.544861 2:0.37043 3:0.509866 4:0.553122 5:0.544861 6:0.37043 7:0.509866 8:0.553122 9:0.548919 10:0.376267 11:0.505221 12:0.54942 13:-0.15164 14:0.686091 15:0.690066 16:-0.173474 17:-0.477287 18:0.506555 19:0.520943 20:-0.494183 21:0.5 22:0.500002 23:0.5 24:0.499998 25:0.707108 26:2.45003e-07 27:0.707105 28:-2.35234e-06 29:0.707101 30:8.84829e-06 31:0.707113 32:-3.62213e-06 33:0.5 34:0.500002 35:0.5 36:0.499998 
-0 -0 0.5 0 1:0.540404 2:0.371655 3:0.516358 4:0.550645 5:0.540404 6:0.371655 7:0.516358 8:0.550645 9:0.545597 10:0.378785 11:0.510765 12:0.545862 13:-0.161094 14:0.697928 15:0.68133 16:-0.150779 17:-0.493531 18:0.516119 19:0.496578 20:-0.493416 21:0.5 22:0.500002 23:0.5 24:0.499998 25:0.707108 26:2.45003e-07 27:0.707105 28:-2.35234e-06 29:0.707102 30:8.7761e-06 31:0.707112 32:-2.70701e-06 33:0.5 34:0.500002 35:0.5 36:0.499998 
-0 -0 0.01131562898303537 0 1:0.53358 2:0.381084 3:0.521179 4:0.546297 5:0.53358 6:0.381084 7:0.521179 8:0.546297 9:0.538731 10:0.386575 11:0.517025 12:0.541308 13:-0.161599 14:0.694575 15:0.685591 16:-0.146344 17:-0.499787 18:0.512042 19:0.496349 20:-0.491593 21:0.5 22:0.500002 23:0.5 24:0.499998 25:0.707108 26:2.45003e-07 27:0.707105 28:-2.35234e-06 29:0.707102 30:8.69005e-06 31:0.707111 32:-1.90447e-06 33:0.5 34:0.500002 35:0.5 36:0.499998 
-0 -0.2181040456235702 0 0.4502938605522498 1:0.507241 2:0.387033 3:0.545281 4:0.543674 5:0.507241 6:0.387033 7:0.545281 8:0.543674 9:0.515707 10:0.395014 11:0.539628 12:0.535548 13:-0.197851 14:0.728043 15:0.650707 16:-0.0859597 17:0.543824 18:-0.53691 19:-0.408435 20:0.499162 21:0.5 22:0.500002 23:0.5 24:0.499998 25:0.707108 26:2.45002e-07 27:0.707105 28:-2.35234e-06 29:0.707105 30:8.33198e-06 31:0.707108 32:1.90963e-06 33:0.5 34:0.500002 35:0.5 36:0.499998 
-0 -0 0 0.5 1:0.503163 2:0.383264 3:0.547417 4:0.547969 5:0.503163 6:0.383264 7:0.547417 8:0.547969 9:0.512794 10:0.391664 11:0.541695 12:0.538709 13:-0.201429 14:0.724958 15:0.652838 16:-0.0875488 17:0.548361 18:-0.533005 19:-0.407519 20:0.499133 21:0.5 22:0.500002 23:0.5 24:0.499998 25:0.707108 26:2.45002e-07 27:0.707105 28:-2.35234e-06 29:0.707106 30:8.30932e-06 31:0.707108 32:2.26946e-06 33:0.5 34:0.500002 35:0.5 36:0.499998 
-0 -0 0.5 0 1:0.542092 2:0.36911 3:0.514458 4:0.552474 5:0.542092 6:0.36911 7:0.514458 8:0.552474 9:0.550793 10:0.37486 11:0.510689 12:0.543418 13:-0.0359032 14:0.567197 15:0.773555 16:-0.280377 17:0.472952 18:-0.303939 19:-0.613182 20:0.554928 21:0.5 22:0.500002 23:0.5 24:0.499998 25:0.707108 26:2.45002e-07 27:0.707105 28:-2.35234e-06 29:0.707108 30:7.98175e-06 31:0.707106 32:4.74649e-06 33:0.5 34:0.500002 35:0.5 36:0.499998 
-0 -0 0.1902787377698044 0 1:0.559059 2:0.374463 3:0.495972 4:0.548856 5:0.559059 6:0.374463 7:0.495972 8:0.548856 9:0.566863 10:0.377845 11:0.49388 12:0.540354 13:-0.0448941 14:0.564657 15:0.77833 16:-0.270831 17:0.475392 18:-0.314109 19:-0.617913 20:0.541777 21:0.5 22:0.500002 23:0.5 24:0.499998 25:0.707108 26:2.45002e-07 27:0.707105 28:-2.35234e-06 29:0.707108 30:7.85114e-06 31:0.707106 32:4.87711e-06 33:0.5 34:0.500002 35:0.5 36:0.499998 
-0 -0 0.5 0 1:0.556152 2:0.386693 3:0.49452 4:0.544622 5:0.556152 6:0.386693 7:0.49452 8:0.544622 9:0.561721 10:0.389061 11:0.492964 12:0.538597 13:-0.0446761 14:0.570152 15:0.773444 16:-0.273341 17:0.472781 18:-0.31695 19:-0.61375 20:0.547112 21:0.5 22:0.500002 23:0.5 24:0.499998 25:0.707108 26:2.45002e-07 27:0.707105 28:-2.35234e-06 29:0.707108 30:7.83231e-06 31:0.707106 32:4.89594e-06 33:0.5 34:0.500002 35:0.5 36:0.499998 
-0 -0 0.5 0 1:0.541725 2:0.388081 3:0.509213 4:0.544636 5:0.541725 6:0.388081 7:0.509213 8:0.544636 9:0.549378 10:0.393523 11:0.50525 12:0.536699 13:-0.049632 14:0.584612 15:0.763847 16:-0.268894 17:0.476431 18:-0.326835 19:-0.599115 20:0.554305 21:0.5 22:0.500002 23:0.5 24:0.499998 25:0.707108 26:2.45002e-07 27:0.707105 28:-2.35234e-06 29:0.707108 30:7.81536e-06 31:0.707106 32:4.91289e-06 33:0.5 34:0.500002 35:0.5 36:0.499998 
-0 -0 0.5 0 1:0.547023 2:0.395744 3:0.499903 4:0.542448 5:0.547023 6:0.395744 7:0.499903 8:0.542448 9:0.553378 10:0.397593 11:0.498884 12:0.535544 13:-0.0637583 14:0.594863 15:0.760745 16:-0.251673 17:0.48819 18:-0.343287 19:-0.586914 20:0.547134 21:0.5 22:0.500002 23:0.5 24:0.499998 25:0.707108 26:2.45002e-07 27:0.707105 28:-2.35234e-06 29:0.707108 30:7.8001e-06 31:0.707106 32:4.92814e-06 33:0.5 34:0.500002 35:0.5 36:0.499998 
-0 -0.38856711662573 0.438129038821126 0 1:0.436054 2:0.490346 3:0.448705 4:0.606697 5:0.436054 6:0.490346 7:0.448705 8:0.606697 9:0.451269 10:0.498173 11:0.44046 12:0.595126 13:0.549493 14:0.582772 15:0.587692 16:0.114246 17:-0.296431 18:0.352379 19:0.747966 20:-0.478021 21:0.5 22:0.500002 23:0.5 24:0.499998 25:0.573295 26:-0.157757 27:0.712779 28:0.372009 29:0.717879 30:-0.208203 31:0.564774 32:0.34976 33:0.5 34:0.500002 35:0.5 36:0.499998 
-0.1919786294833954 -0 0 0 1:0.437611 2:0.478863 3:0.446544 4:0.616268 5:0.437611 6:0.478863 7:0.446544 8:0.616268 9:0.455052 10:0.489693 11:0.434909 12:0.603309 13:0.554927 14:0.57023 15:0.591827 16:0.12898 17:-0.297659 18:0.360452 19:0.754719 20:-0.460295 21:0.5 22:0.500002 23:0.5 24:0.499998 25:0.561273 26:-0.163486 27:0.71606 28:0.381449 29:0.687856 30:-0.22965 31:0.595262 32:0.34609 33:0.5 34:0.500002 35:0.5 36:0.499998 
-0 -0 0.5 0 1:0.434216 2:0.483727 3:0.44541 4:0.61569 5:0.434216 6:0.483727 7:0.44541 8:0.61569 9:0.451286 10:0.493226 11:0.435295 12:0.602983 13:0.558436 14:0.587743 15:0.577932 16:0.0932882 17:-0.292153 18:0.330054 19:0.748667 20:-0.495185 21:0.5 22:0.500002 23:0.5 24:0.499998 25:0.569188 26:-0.163395 27:0.711389 28:0.378488 29:0.718428 30:-0.24284 31:0.560327 32:0.333052 33:0.5 34:0.500002 35:0.5 36:0.499998 
-0 -0.333504143468179 0 0 1:0.434128 2:0.471173 3:0.435888 4:0.632084 5:0.434128 6:0.471173 7:0.435888 8:0.632084 9:0.455942 10:0.479442 11:0.427972 12:0.615705 13:0.46921 14:0.609774 15:0.63855 16:0.0164908 17:0.346978 18:-0.29826 19:-0.712397 20:0.532107 21:0.5 22:0.500002 23:0.5 24:0.499998 25:0.575576 26:-0.106728 27:0.738805 28:0.333899 29:0.752419 30:-0.192255 31:0.557662 32:0.293116 33:0.5 34:0.500002 35:0.5 36:0.499998 
-0.2327239231437346 -0 0 0 1:0.440248 2:0.465217 3:0.418121 4:0.644151 5:0.440248 6:0.465217 7:0.418121 8:0.644151 9:0.464382 10:0.473134 11:0.410422 12:0.626137 13:0.410043 14:0.641914 15:0.647711 16:-0.0167752 17:0.369786 18:-0.294772 19:-0.671508 20:0.570478 21:0.5 22:0.500002 23:0.5 24:0.499998 25:0.567104 26:-0.10477 27:0.73762 28:0.351188 29:0.712131 30:-0.185751 31:0.599801 32:0.314013 33:0.5 34:0.500002 35:0.5 36:0.499998 
-0 -0 0.01358405149811792 0 1:0.437592 2:0.469434 3:0.421513 4:0.640681 5:0.437592 6:0.469434 7:0.421513 8:0.640681 9:0.459997 10:0.476852 11:0.414319 12:0.623983 13:0.414881 14:0.637273 15:0.648211 16:-0.0397443 17:0.358998 18:-0.279958 19:-0.680752 20:0.573864 21:0.5 22:0.500002 23:0.5 24:0.499998 25:0.583804 26:-0.10814 27:0.72767 28:0.343475 29:0.744121 30:-0.214467 31:0.563423 32:0.287824 33:0.5 34:0.500002 35:0.5 36:0.499998 
-0 -0 0 0.1366775630783653 1:0.464632 2:0.399613 3:0.334342 4:0.71599 5:0.464632 6:0.399613 7:0.334342 8:0.71599 9:0.491797 10:0.404708 11:0.329632 12:0.696914 13:0.30432 14:0.693678 15:0.652032 16:-0.0324868 17:0.386062 18:-0.345656 19:-0.607217 20:0.6023 21:0.5 22:0.500002 23:0.5 24:0.499998 25:0.479655 26:-0.163095 27:0.727825 28:0.46217 29:0.683304 30:-0.299517 31:0.541197 32:0.387931 33:0.5 34:0.500002 35:0.5 36:0.499998 
-0.3031187168494064 -0 0.1084609923868965 0 1:0.333055 2:0.497765 3:0.450444 4:0.662121 5:0.333055 6:0.497765 7:0.450444 8:0.662121 9:0.366204 10:0.508825 11:0.442293 12:0.641381 13:0.117821 14:0.756315 15:0.562655 16:-0.31229 17:0.336148 18:-0.279209 19:-0.466333 20:0.769143 21:0.5 22:0.500002 23:0.5 24:0.499998 25:0.4928 26:-0.191962 27:0.739802 28:0.415923 29:0.695675 30:-0.310108 31:0.553349 32:0.337156 33:0.5 34:0.500002 35:0.5 36:0.499998 
-0 -0.01175143898955684 0 0 1:0.323063 2:0.493207 3:0.459358 4:0.664355 5:0.323063 6:0.493207 7:0.459358 8:0.664355 9:0.356663 10:0.504964 11:0.451234 12:0.643577 13:0.125369 14:0.750884 15:0.564177 16:-0.319625 17:0.326015 18:-0.280106 19:-0.477208 20:0.766503 21:0.5 22:0.500002 23:0.5 24:0.499998 25:0.492733 26:-0.185913 27:0.74814 28:0.403655 29:0.696291 30:-0.299501 31:0.56363 32:0.32833 33:0.5 34:0.500002 35:0.5 36:0.499998 
-0 -0 0.06875835098773868 0 1:0.312047 2:0.505435 3:0.469666 4:0.653128 5:0.312047 6:0.505435 7:0.469666 8:0.653128 9:0.345241 10:0.516959 11:0.462078 12:0.632492 13:0.144967 14:0.737133 15:0.575124 16:-0.323809 17:0.328221 18:-0.255972 19:-0.494017 20:0.763345 21:0.5 22:0.500002 23:0.5 24:0.499998 25:0.474129 26:-0.238713 27:0.720124 28:0.44681 29:0.689166 30:-0.375384 31:0.518099 32:0.340162 33:0.5 34:0.500002 35:0.5 36:0.499998 
-0 -0 0 0.06069793705329822 1:0.391102 2:0.403093 3:0.314698 4:0.765193 5:0.391102 6:0.403093 7:0.314698 8:0.765193 9:0.420202 10:0.405761 11:0.31515 12:0.747977 13:0.283106 14:0.741599 15:0.583749 16:-0.170641 17:0.280831 18:-0.327851 19:-0.584847 20:0.686732 21:0.5 22:0.500002 23:0.5 24:0.499998 25:0.390156 26:-0.391566 27:0.612954 28:0.564572 29:0.631808 30:-0.610394 31:0.358821 32:0.315414 33:0.5 34:0.500002 35:0.5 36:0.499998 
-0 -0.01527368057601806 0.05671170374064799 0.02348105376651595 1:0.394254 2:0.400588 3:0.322135 4:0.761788 5:0.394254 6:0.400588 7:0.322135 8:0.761788 9:0.420705 10:0.403557 11:0.321954 12:0.745986 13:0.24341 14:0.73479 15:0.599688 16:-0.203001 17:0.290146 18:-0.332131 19:-0.578523 20:0.68616 21:0.5 22:0.500002 23:0.5 24:0.499998 25:0.392472 26:-0.437354 27:0.577277 28:0.566955 29:-0.620024 30:0.654574 31:-0.320707 32:-0.290257 33:0.5 34:0.500002 35:0.5 36:0.499998 
-0 -0 0 0.2773686678589111 1:0.393791 2:0.406456 3:0.32544 4:0.757503 5:0.393791 6:0.406456 7:0.32544 8:0.757503 9:0.418325 10:0.409795 11:0.324245 12:0.742925 13:0.292608 14:0.728604 15:0.595919 16:-0.168515 17:0.297659 18:-0.306399 19:-0.593412 20:0.682189 21:0.5 22:0.500002 23:0.5 24:0.499998 25:0.403119 26:-0.489051 27:0.529481 28:0.563892 29:-0.599 30:0.691204 31:-0.289921 32:-0.281748 33:0.5 34:0.500002 35:0.5 36:0.499998 
-0 -0.1055076043786018 0 0 1:0.24339 2:0.460339 3:0.370185 4:0.769294 5:0.24339 6:0.460339 7:0.370185 8:0.769294 9:0.282328 10:0.470136 11:0.365731 12:0.752 13:0.374133 14:0.76962 15:0.505934 16:-0.108354 17:0.207836 18:-0.343347 19:-0.593927 20:0.697258 21:0.5 22:0.500002 23:0.5 24:0.499998 25:-0.510978 26:0.567491 27:-0.466496 28:-0.44636 29:-0.520816 30:0.620713 31:-0.441879 32:-0.384979 33:0.5 34:0.500002 35:0.5 36:0.499998 
-0 -0 0.4557661370810911 0 1:0.430938 2:0.410105 3:0.261738 4:0.76 5:0.430938 6:0.410105 7:0.261738 8:0.76 9:0.447889 10:0.409719 11:0.263079 12:0.749877 13:0.330773 14:0.590309 15:0.735229 16:-0.0395313 17:-0.322057 18:0.3675 19:0.739088 20:-0.463651 21:0.5 22:0.500002 23:0.5 24:0.499998 25:-0.476306 26:0.667301 27:-0.293515 28:-0.491621 29:0.426137 30:-0.65493 31:0.347925 32:0.518094 33:0.5 34:0.500002 35:0.5 36:0.499998 
-0 -0.1301148489209878 0 0 1:0.413261 2:0.446258 3:0.251215 4:0.752967 5:0.413261 6:0.446258 7:0.251215 8:0.752967 9:0.425657 10:0.445277 11:0.253021 12:0.746006 13:0.364616 14:0.58132 15:0.723596 16:-0.0743757 17:-0.276493 18:0.344589 19:0.761635 20:-0.47405 21:0.5 22:0.500002 23:0.5 24:0.499998 25:-0.487998 26:0.664067 27:-0.29273 28:-0.484956 29:0.436573 30:-0.649326 31:0.350108 32:0.51498 33:0.5 34:0.500002 35:0.5 36:0.499998 
-0 -0.17908808356846 0.05094929465200918 0 1:0.402236 2:0.44839 3:0.300304 4:0.739574 5:0.402236 6:0.44839 7:0.300304 8:0.739574 9:0.418921 10:0.448627 11:0.30131 12:0.729693 13:0.35165 14:0.599543 15:0.715829 16:-0.0669243 17:-0.277655 18:0.36385 19:0.747648 20:-0.48119 21:0.5 22:0.500002 23:0.5 24:0.499998 25:-0.522363 26:0.650291 27:-0.308863 28:-0.457013 29:-0.460314 30:0.631962 31:-0.379701 32:-0.494532 33:0.5 34:0.500002 35:0.5 36:0.499998 
-0 -0 0.5 0 1:0.532213 2:0.448434 3:0.438094 4:0.568973 5:0.532213 6:0.448434 7:0.438094 8:0.568973 9:0.53313 10:0.449859 11:0.436612 12:0.568128 13:0.400009 14:0.531756 15:0.744527 16:-0.0539186 17:-0.304588 18:0.305334 19:0.788387 20:-0.438683 21:0.5 22:0.500002 23:0.5 24:0.499998 25:0.60494 26:-0.586795 27:0.313734 28:0.437367 29:-0.55633 30:0.645885 31:-0.338763 32:-0.398207 33:0.5 34:0.500002 35:0.5 36:0.499998 
-0 -0 0.5 0 1:0.533597 2:0.455536 3:0.449119 4:0.553221 5:0.533597 6:0.455536 7:0.449119 8:0.553221 9:0.534978 10:0.454593 11:0.4501 12:0.551864 13:0.419651 14:0.515137 15:0.745673 16:-0.0499844 17:-0.298049 18:0.294654 19:0.802061 20:-0.425492 21:0.5 22:0.500002 23:0.5 24:0.499998 25:0.618582 26:-0.579374 27:0.314514 28:0.427509 29:-0.560722 30:0.640898 31:-0.34986 32:-0.390434 33:0.5 34:0.500002 35:0.5 36:0.499998 
-0 -0 0.5 0 1:0.539868 2:0.44793 3:0.452085 4:0.550927 5:0.539868 6:0.44793 7:0.452085 8:0.550927 9:0.54156 10:0.448071 11:0.451965 12:0.549247 13:0.424448 14:0.499802 15:0.752479 16:-0.0617743 17:-0.296418 18:0.277682 19:0.811491 20:-0.420132 21:0.5 22:0.500002 23:0.5 24:0.499998 25:0.616549 26:-0.584342 27:0.312201 28:0.425375 29:-0.556499 30:0.63429 31:-0.357527 32:-0.400198 33:0.5 34:0.500002 35:0.5 36:0.499998 
-0 -0 0.5 0 1:0.544699 2:0.446058 3:0.456556 4:0.54396 5:0.544699 6:0.446058 7:0.456556 8:0.54396 9:0.545898 10:0.444879 11:0.457733 12:0.542732 13:0.429646 14:0.491044 15:0.755313 16:-0.0615033 17:-0.295074 18:0.27226 19:0.817327 20:-0.413257 21:0.5 22:0.500002 23:0.5 24:0.499998 25:0.626269 26:-0.590136 27:0.299749 28:0.411919 29:-0.551462 30:0.627332 31:-0.371262 32:-0.405597 33:0.5 34:0.500002 35:0.5 36:0.499998 
-0 -0.3376746488115311 0 0 1:0.532575 2:0.447319 3:0.467327 4:0.545779 5:0.532575 6:0.447319 7:0.467327 8:0.545779 9:0.532225 10:0.448954 11:0.465683 12:0.546183 13:0.449248 14:0.452426 15:0.765753 16:-0.0843186 17:-0.285803 18:0.231947 19:0.840546 20:-0.397491 21:0.5 22:0.500002 23:0.5 24:0.499998 25:0.635251 26:-0.584087 27:0.30417 28:0.40346 29:-0.552232 30:0.615685 31:-0.390044 32:-0.404768 33:0.5 34:0.500002 35:0.5 36:0.499998 
-0 -0 0 0.429631819641038 1:0.484519 2:0.477584 3:0.443201 4:0.583719 5:0.484519 6:0.477584 7:0.443201 8:0.583719 9:0.492711 10:0.482551 11:0.437858 12:0.576768 13:0.250179 14:0.587387 15:0.766275 16:0.072176 17:-0.378106 18:0.459595 19:0.711901 20:-0.372834 21:0.5 22:0.500002 23:0.5 24:0.499998 25:0.636452 26:-0.572361 27:0.304509 28:0.417858 29:-0.543646 30:0.561216 31:-0.425697 32:-0.456364 33:0.5 34:0.500002 35:0.5 36:0.499998 
