svm_type c_svc
kernel_type rbf
gamma 0.5
nr_class 5
total_sv 274
rho 0.613041 0.557652 -0.103283 -0.154372 -0.0953101 -0.632012 -0.683335 -0.605143 -0.638446 -0.0476558
label 1 2 3 4 0
nr_sv 25 124 80 17 28
SV
0.5 0.3257992142335794 0.1978884222441798 0.1799567570529618 1:0.563295 2:0.429629 3:0.390679 4:0.587781 5:0.563295 6:0.429629 7:0.390679 8:0.587781 9:0.567418 10:0.430523 11:0.389613 12:0.583857 13:0.786538 14:0.396004 15:0.45743 16:0.123678 17:0.768008 18:0.364549 19:0.522582 20:0.0646205 21:0.5 22:0.500002 23:0.5 24:0.499998 25:0.563372 26:0.567764 27:-0.0568587 28:0.597514 29:0.48413 30:0.479507 31:-0.262028 32:0.683398 33:0.5 34:0.500002 35:0.5 36:0.499998 37:0.503399 38:0.442314 39:0.476134 40:0.569425 41:0.601177 42:0.457971 43:0.452313 44:0.473563 45:0.5 46:0.500002 47:0.5 48:0.499998 49:0.613737 50:-0.450631 51:-0.370348 52:0.532072 53:0.52599 54:-0.417551 55:-0.404217 56:0.620962 57:0.5 58:0.500002 59:0.5 60:0.499998 
0.3867048535902816 0.4840606253795602 0.2510886309369921 0.1766254179848053 1:0.511996 2:0.497524 3:0.481465 4:0.50845 5:0.511996 6:0.497524 7:0.481465 8:0.50845 9:0.516118 10:0.491389 11:0.487541 12:0.504444 13:0.559131 14:0.350952 15:0.705756 16:-0.257127 17:0.505792 18:0.293641 19:0.738492 20:-0.335527 21:0.5 22:0.500002 23:0.5 24:0.499998 25:0.653863 26:0.649522 27:-0.0118718 28:0.387869 29:0.606962 30:0.633824 31:-0.127467 32:0.462185 33:0.5 34:0.500002 35:0.5 36:0.499998 37:0.430894 38:0.509515 39:0.550306 40:0.501885 41:0.515319 42:0.502401 43:0.553914 44:0.418591 45:0.5 46:0.500002 47:0.5 48:0.499998 49:0.668447 50:-0.366536 51:-0.279162 52:0.583865 53:0.548538 54:-0.272215 55:-0.386417 56:0.6897 57:0.5 58:0.500002 59:0.5 60:0.499998 
0.2315204731352164 0 0 0 1:0.562986 2:0.454784 3:0.425915 4:0.542969 5:0.562986 6:0.454784 7:0.425915 8:0.542969 9:0.567111 10:0.459377 11:0.42106 12:0.538579 13:0.688935 14:0.580744 15:0.410738 16:-0.139277 17:-0.21229 18:-0.322326 19:-0.77348 20:0.502761 21:0.5 22:0.500002 23:0.5 24:0.499998 25:0.817479 26:0.514115 27:-0.0955721 28:0.24141 29:0.463744 30:0.154741 31:-0.679962 32:0.546488 33:0.5 34:0.500002 35:0.5 36:0.499998 37:0.475132 38:0.459358 39:0.50991 40:0.550665 41:0.578026 42:0.464616 43:0.497689 44:0.449805 45:0.5 46:0.500002 47:0.5 48:0.499998 49:0.620333 50:-0.454619 51:-0.365271 52:0.524485 53:0.512161 54:-0.39058 55:-0.432439 56:0.630979 57:0.5 58:0.500002 59:0.5 60:0.499998 
0.5 0.5 0.2916090347002577 0.2349367685743382 1:0.627415 2:0.379385 3:0.337479 4:0.590361 5:0.627415 6:0.379385 7:0.337479 8:0.590361 9:0.62522 10:0.374663 11:0.342293 12:0.592927 13:0.734635 14:0.504875 15:0.392784 16:-0.226127 17:0.454204 18:0.333274 19:0.698332 20:-0.441543 21:0.5 22:0.500002 23:0.5 24:0.499998 25:0.920082 26:0.335517 27:-0.0773309 28:0.186809 29:0.890748 30:0.309011 31:-0.233315 32:0.238001 33:0.5 34:0.500002 35:0.5 36:0.499998 37:0.530624 38:0.3927 39:0.420492 40:0.622424 41:0.66165 42:0.41415 43:0.38313 44:0.493873 45:0.5 46:0.500002 47:0.5 48:0.499998 49:-0.553562 50:0.558075 51:0.41347 52:-0.459527 53:0.431987 54:-0.469878 55:-0.50666 56:0.579566 57:0.5 58:0.500002 59:0.5 60:0.499998 
0.5 0.5 0.5 0.5 1:0.632972 2:0.36738 3:0.326891 4:0.59793 5:0.632972 6:0.36738 7:0.326891 8:0.59793 9:0.630561 10:0.363192 11:0.331189 12:0.600664 13:0.756965 14:0.493111 15:0.371038 16:-0.214887 17:0.454359 18:0.309906 19:0.710086 20:-0.439652 21:0.5 22:0.500002 23:0.5 24:0.499998 25:0.925665 26:0.319394 27:-0.0790524 28:0.186771 29:0.895861 30:0.292809 31:-0.237048 32:0.235593 33:0.5 34:0.500002 35:0.5 36:0.499998 37:0.552775 38:0.385397 39:0.407732 40:0.616169 41:0.663571 42:0.400988 43:0.379747 44:0.504653 45:0.5 46:0.500002 47:0.5 48:0.499998 49:-0.554634 50:0.566469 51:0.42036 52:-0.441351 53:0.41311 54:-0.464841 55:-0.521812 56:0.583931 57:0.5 58:0.500002 59:0.5 60:0.499998 
0.1292920169282858 0.1914131722205067 0.07109460680489375 0.1009400115566109 1:0.642612 2:0.329619 3:0.317609 4:0.614431 5:0.642612 6:0.329619 7:0.317609 8:0.614431 9:0.643951 10:0.327467 11:0.319655 12:0.613117 13:0.809803 14:0.458457 15:0.286584 16:-0.227828 17:0.533066 18:0.266882 19:0.673611 20:-0.436878 21:0.5 22:0.500002 23:0.5 24:0.499998 25:0.944321 26:0.241501 27:-0.108646 28:0.195274 29:0.909036 30:0.190799 31:-0.282008 32:0.240254 33:0.5 34:0.500002 35:0.5 36:0.499998 37:0.579896 38:0.369536 39:0.377368 40:0.620288 41:0.673741 42:0.374125 43:0.361754 44:0.524631 45:0.5 46:0.500002 47:0.5 48:0.499998 49:0.585194 50:-0.542723 51:-0.371963 52:0.473965 53:0.430059 54:-0.417671 55:-0.508385 56:0.618179 57:0.5 58:0.500002 59:0.5 60:0.499998 
0 0 0.02089071374076375 0 1:0.644521 2:0.321576 3:0.32326 4:0.613747 5:0.644521 6:0.321576 7:0.32326 8:0.613747 9:0.643998 10:0.320096 11:0.32469 12:0.614314 13:0.809021 14:0.465235 15:0.262789 16:-0.244916 17:0.574012 18:0.28381 19:0.62776 20:-0.442583 21:0.5 22:0.500002 23:0.5 24:0.499998 25:0.94703 26:0.22072 27:-0.11914 28:0.200557 29:0.904068 30:0.137536 31:-0.313448 32:0.255921 33:0.5 34:0.500002 35:0.5 36:0.499998 37:0.580027 38:0.369374 39:0.374497 40:0.621999 41:0.681002 42:0.375407 43:0.355554 44:0.518543 45:0.5 46:0.500002 47:0.5 48:0.499998 49:0.576065 50:-0.541419 51:-0.378802 52:0.481169 53:0.448322 54:-0.438804 55:-0.493969 56:0.602041 57:0.5 58:0.500002 59:0.5 60:0.499998 
0.08121921235925675 0 0 0 1:0.484421 2:0.56159 3:0.49188 4:0.456078 5:0.484421 6:0.56159 7:0.49188 8:0.456078 9:0.484842 10:0.555559 11:0.498146 12:0.456216 13:0.493893 14:0.746057 15:0.41336 16:-0.16912 17:0.354773 18:0.744283 19:0.511627 20:-0.241696 21:0.5 22:0.500002 23:0.5 24:0.499998 25:0.654221 26:0.681722 27:-0.158368 28:0.286654 29:0.557266 30:0.538077 31:-0.377544 32:0.507334 33:0.5 34:0.500002 35:0.5 36:0.499998 37:0.343791 38:0.515996 39:0.603054 40:0.501878 41:0.504359 42:0.536216 43:0.574039 44:0.358571 45:0.5 46:0.500002 47:0.5 48:0.499998 49:0.645137 50:-0.437533 51:-0.339779 52:0.526226 53:0.478374 54:-0.329071 55:-0.445643 56:0.681376 57:0.5 58:0.500002 59:0.5 60:0.499998 
0.3514881904684172 0.2897927176651569 0.1104357154652102 0.1521875330570902 1:0.481955 2:0.560894 3:0.499199 4:0.451572 5:0.481955 6:0.560894 7:0.499199 8:0.451572 9:0.483994 10:0.556005 11:0.504079 12:0.450013 13:0.479259 14:0.751819 15:0.419081 16:-0.17161 17:0.417669 18:0.740186 19:0.470971 20:-0.236356 21:0.5 22:0.500002 23:0.5 24:0.499998 25:0.62721 26:0.715596 27:-0.108994 28:0.287489 29:0.548534 30:0.56833 31:-0.323083 32:0.521276 33:0.5 34:0.500002 35:0.5 36:0.499998 37:0.341775 38:0.518086 39:0.605348 40:0.498328 41:0.506216 42:0.540281 43:0.572672 44:0.351978 45:0.5 46:0.500002 47:0.5 48:0.499998 49:0.623622 50:-0.406767 51:-0.359308 52:0.562614 53:0.561408 54:-0.386077 55:-0.379879 56:0.625666 57:0.5 58:0.500002 59:0.5 60:0.499998 
0 0.1419558649065084 0 0 1:0.542945 2:0.440549 3:0.433961 4:0.568159 5:0.542945 6:0.440549 7:0.433961 8:0.568159 9:0.550678 10:0.446901 11:0.427416 12:0.560668 13:0.844344 14:0.478134 15:0.241803 16:0.0013861 17:0.851993 18:0.446342 19:0.272354 20:-0.0266329 21:0.5 22:0.500002 23:0.5 24:0.499998 25:0.683443 26:0.699934 27:-0.066386 28:0.196446 29:0.653692 30:0.701846 31:-0.131539 32:0.250592 33:0.5 34:0.500002 35:0.5 36:0.499998 37:0.461355 38:0.438005 39:0.523219 40:0.567049 41:0.59867 42:0.477189 43:0.474355 44:0.434595 45:0.5 46:0.500002 47:0.5 48:0.499998 49:0.647237 50:-0.462108 51:-0.332467 52:0.506958 53:0.4723 54:-0.345763 55:-0.452245 56:0.672945 57:0.5 58:0.500002 59:0.5 60:0.499998 
0.1255541985516769 0 0.1152007118456652 0.1713268901190027 1:0.546758 2:0.449058 3:0.429052 4:0.561531 5:0.546758 6:0.449058 7:0.429052 8:0.561531 9:0.553149 10:0.452632 11:0.425247 12:0.555261 13:0.843178 14:0.481206 15:0.239697 16:-0.00608524 17:0.852658 18:0.453868 19:0.257594 20:-0.0249638 21:0.5 22:0.500002 23:0.5 24:0.499998 25:0.685246 26:0.699593 27:-0.0688534 28:0.190438 29:0.663373 30:0.694137 31:-0.131602 32:0.24656 33:0.5 34:0.500002 35:0.5 36:0.499998 37:0.452828 38:0.436265 39:0.52697 40:0.571771 41:0.603563 42:0.476995 43:0.474339 44:0.428007 45:0.5 46:0.500002 47:0.5 48:0.499998 49:0.653505 50:-0.443036 51:-0.324257 52:0.521064 53:0.490066 54:-0.339999 55:-0.431073 56:0.677061 57:0.5 58:0.500002 59:0.5 60:0.499998 
0.03831356976984066 0.1367360662819663 0.03665149467281126 0.09869705692348213 1:0.530815 2:0.533786 3:0.447392 4:0.482855 5:0.530815 6:0.533786 7:0.447392 8:0.482855 9:0.526401 10:0.533943 11:0.447807 12:0.48711 13:0.506089 14:0.700189 15:0.42399 16:-0.271739 17:-0.2452 18:-0.488239 19:-0.613001 20:0.570727 21:0.5 22:0.500002 23:0.5 24:0.499998 25:0.954745 26:0.28357 27:-0.00257375 28:0.0896845 29:0.790757 30:0.185233 31:-0.535022 32:0.232688 33:0.5 34:0.500002 35:0.5 36:0.499998 37:0.38036 38:0.486563 39:0.574327 40:0.537336 41:0.549262 42:0.523069 43:0.523685 44:0.387897 45:0.5 46:0.500002 47:0.5 48:0.499998 49:0.640916 50:-0.433867 51:-0.327222 52:0.542136 53:0.520812 54:-0.367953 55:-0.39846 56:0.659239 57:0.5 58:0.500002 59:0.5 60:0.499998 
0.5 0.5 0.2491723978618111 0.264632825373065 1:0.563108 2:0.483335 3:0.453541 4:0.493555 5:0.563108 6:0.483335 7:0.453541 8:0.493555 9:0.561018 10:0.487231 11:0.449988 12:0.495355 13:0.609191 14:0.766232 15:0.162167 16:-0.124405 17:0.577125 18:0.72154 19:0.270686 20:-0.270253 21:0.5 22:0.500002 23:0.5 24:0.499998 25:0.856086 26:0.293299 27:-0.285343 28:0.315707 29:-0.634276 30:-0.118674 31:0.641871 32:-0.414261 33:0.5 34:0.500002 35:0.5 36:0.499998 37:0.422038 38:0.471992 39:0.539997 40:0.554536 41:0.57027 42:0.493408 43:0.506233 44:0.418413 45:0.5 46:0.500002 47:0.5 48:0.499998 49:0.624996 50:-0.467101 51:-0.354099 52:0.515568 53:0.500338 54:-0.403354 55:-0.421507 56:0.639765 57:0.5 58:0.500002 59:0.5 60:0.499998 
0.05388379261568525 0.3985420161232791 0 0 1:0.566927 2:0.482572 3:0.453029 4:0.49039 5:0.566927 6:0.482572 7:0.453029 8:0.49039 9:0.563823 10:0.4859 11:0.450161 12:0.493316 13:0.612876 14:0.765615 15:0.155969 16:-0.117861 17:0.59487 18:0.714557 19:0.257684 20:-0.262939 21:0.5 22:0.500002 23:0.5 24:0.499998 25:0.852607 26:0.295573 27:-0.288892 28:0.31975 29:-0.628566 30:-0.118222 31:0.644439 32:-0.419078 33:0.5 34:0.500002 35:0.5 36:0.499998 37:0.421442 38:0.469913 39:0.540262 40:0.556494 41:0.57049 42:0.494992 43:0.503019 44:0.420115 45:0.5 46:0.500002 47:0.5 48:0.499998 49:0.627489 50:-0.475 51:-0.347605 52:0.509708 53:0.494951 54:-0.3988 55:-0.4305 56:0.640821 57:0.5 58:0.500002 59:0.5 60:0.499998 
0.5 0.4415711385830939 0.01542588195126524 0 1:0.566522 2:0.482986 3:0.452744 4:0.490714 5:0.566522 6:0.482986 7:0.452744 8:0.490714 9:0.564321 10:0.485921 11:0.450158 12:0.492726 13:0.619331 14:0.763141 15:0.147926 16:-0.110282 17:0.604521 18:0.708548 19:0.253595 20:-0.261157 21:0.5 22:0.500002 23:0.5 24:0.499998 25:0.842896 26:0.302121 27:-0.29652 28:0.332152 29:-0.624793 30:-0.124036 31:0.638774 32:-0.431529 33:0.5 34:0.500002 35:0.5 36:0.499998 37:0.420761 38:0.47056 39:0.539358 40:0.557338 41:0.57013 42:0.494404 43:0.503018 44:0.421295 45:0.5 46:0.500002 47:0.5 48:0.499998 49:0.629587 50:-0.482335 51:-0.339806 52:0.505475 53:0.477706 54:-0.382601 55:-0.44939 56:0.65074 57:0.5 58:0.500002 59:0.5 60:0.499998 
0.5 0.1296365152040828 0.5 0.5 1:0.568784 2:0.480551 3:0.453164 4:0.4901 5:0.568784 6:0.480551 7:0.453164 8:0.4901 9:0.565224 10:0.485376 11:0.448922 12:0.493357 13:0.625605 14:0.758999 15:0.144446 16:-0.108048 17:0.614441 18:0.712656 19:0.239157 20:-0.239558 21:0.5 22:0.500002 23:0.5 24:0.499998 25:0.839506 26:0.304575 27:-0.302387 28:0.333205 29:-0.626946 30:-0.131048 31:0.634939 32:-0.431993 33:0.5 34:0.500002 35:0.5 36:0.499998 37:0.421598 38:0.467069 39:0.541605 40:0.557464 41:0.570644 42:0.496609 43:0.500315 44:0.421224 45:0.5 46:0.500002 47:0.5 48:0.499998 49:0.628777 50:-0.481659 51:-0.342305 52:0.505441 53:0.475354 54:-0.380682 55:-0.451463 56:0.652151 57:0.5 58:0.500002 59:0.5 60:0.499998 
0.5 0.5 0.4142800121531782 0.2542911148965132 1:0.537566 2:0.464115 3:0.453201 4:0.53873 5:0.537566 6:0.464115 7:0.453201 8:0.53873 9:0.54985 10:0.47251 11:0.444368 12:0.526248 13:0.747473 14:0.514737 15:0.259175 16:-0.330391 17:-0.541251 18:-0.30209 19:-0.577005 20:0.531841 21:0.5 22:0.500002 23:0.5 24:0.499998 25:0.675006 26:0.677543 27:-0.217878 28:0.194506 29:0.447771 30:0.462617 31:-0.550094 32:0.531867 33:0.5 34:0.500002 35:0.5 36:0.499998 37:0.431883 38:0.466945 39:0.529157 40:0.561634 41:0.590072 42:0.489872 43:0.488332 44:0.41638 45:0.5 46:0.500002 47:0.5 48:0.499998 49:0.611425 50:-0.435168 51:-0.352619 52:0.55897 53:0.572613 54:-0.42463 55:-0.365956 56:0.59823 57:0.5 58:0.500002 59:0.5 60:0.499998 
0.1732090864776289 0.2231166588251898 0 0.1142538024352596 1:0.539625 2:0.460223 3:0.458849 4:0.535216 5:0.539625 6:0.460223 7:0.458849 8:0.535216 9:0.550918 10:0.470673 11:0.448149 12:0.523563 13:0.745765 14:0.520337 15:0.249713 16:-0.332758 17:-0.538445 18:-0.300579 19:-0.573235 20:0.539565 21:0.5 22:0.500002 23:0.5 24:0.499998 25:0.672331 26:0.681025 27:-0.212106 28:0.197954 29:0.448309 30:0.463309 31:-0.544094 32:0.53696 33:0.5 34:0.500002 35:0.5 36:0.499998 37:0.431177 38:0.467971 39:0.528656 40:0.561793 41:0.589154 42:0.488031 43:0.490707 44:0.417049 45:0.5 46:0.500002 47:0.5 48:0.499998 49:0.611842 50:-0.431769 51:-0.354841 52:0.559744 53:0.573585 54:-0.427536 55:-0.361341 56:0.598036 57:0.5 58:0.500002 59:0.5 60:0.499998 
0.0007156381818402481 0 0 0 1:0.488495 2:0.413585 3:0.482051 4:0.598287 5:0.488495 6:0.413585 7:0.482051 8:0.598287 9:0.493966 10:0.414232 11:0.482291 12:0.593132 13:0.429457 14:0.818292 15:0.3557 16:-0.139436 17:0.230762 18:0.675014 19:0.507647 20:-0.483114 21:0.5 22:0.500002 23:0.5 24:0.499998 25:0.876477 26:0.296217 27:-0.145102 28:0.350697 29:0.70973 30:0.100215 31:-0.534369 32:0.447984 33:0.5 34:0.500002 35:0.5 36:0.499998 37:0.56355 38:0.508971 39:0.468304 40:0.45172 41:0.542839 42:0.465998 43:0.509785 44:0.477798 45:0.5 46:0.500002 47:0.5 48:0.499998 49:0.537848 50:-0.335466 51:-0.471731 52:0.612905 53:0.610829 54:-0.481462 55:-0.348974 56:0.52278 57:0.5 58:0.500002 59:0.5 60:0.499998 
0.4466081570151775 0.5 0.360902638324904 0.3475456794285774 1:0.480229 2:0.43726 3:0.509444 4:0.564491 5:0.480229 6:0.43726 7:0.509444 8:0.564491 9:0.488771 10:0.436939 11:0.511051 12:0.55589 13:0.144256 14:0.922135 15:0.317273 16:-0.167913 17:0.0210966 18:-0.736174 19:-0.347889 20:0.580152 21:0.5 22:0.500002 23:0.5 24:0.499998 25:0.846708 26:0.418722 27:-0.0675448 28:0.32124 29:0.760781 30:0.26913 31:-0.377741 32:0.453975 33:0.5 34:0.500002 35:0.5 36:0.499998 37:0.53281 38:0.548577 39:0.475513 40:0.434815 41:0.498749 42:0.487883 43:0.53688 44:0.47432 45:0.5 46:0.500002 47:0.5 48:0.499998 49:0.536941 50:-0.300918 51:-0.446156 52:0.649683 53:0.615248 54:-0.471755 55:-0.30488 56:0.553142 57:0.5 58:0.500002 59:0.5 60:0.499998 
0.5 0.1756117746944275 0 0 1:0.483479 2:0.438681 3:0.509018 4:0.560988 5:0.483479 6:0.438681 7:0.509018 8:0.560988 9:0.490298 10:0.438024 11:0.510661 12:0.554047 13:0.145222 14:0.921321 15:0.318102 16:-0.169966 17:0.0199649 18:-0.735603 19:-0.349113 20:0.580181 21:0.5 22:0.500002 23:0.5 24:0.499998 25:0.841152 26:0.422121 27:-0.0696231 28:0.330803 29:0.757214 30:0.271643 31:-0.372841 32:0.462413 33:0.5 34:0.500002 35:0.5 36:0.499998 37:0.532065 38:0.54753 39:0.47731 40:0.435079 41:0.497357 42:0.489636 43:0.535755 44:0.475247 45:0.5 46:0.500002 47:0.5 48:0.499998 49:0.540053 50:-0.304549 51:-0.44192 52:0.648305 53:0.618073 54:-0.467233 55:-0.306278 56:0.553057 57:0.5 58:0.500002 59:0.5 60:0.499998 
0.3088411382921566 0.139605976606092 0 0 1:0.573061 2:0.407789 3:0.382633 4:0.599084 5:0.573061 6:0.407789 7:0.382633 8:0.599084 9:0.584188 10:0.411051 11:0.378994 12:0.588324 13:0.533261 14:0.764521 15:0.320809 16:-0.167994 17:0.34179 18:0.616413 19:0.520063 20:-0.482441 21:0.5 22:0.500002 23:0.5 24:0.499998 25:0.939164 26:0.0893892 27:-0.193049 28:0.269654 29:0.687443 30:-0.0698722 31:-0.66837 32:0.275358 33:0.5 34:0.500002 35:0.5 36:0.499998 37:0.61554 38:0.457588 39:0.409251 40:0.494205 41:0.577766 42:0.392814 43:0.472051 44:0.537635 45:0.5 46:0.500002 47:0.5 48:0.499998 49:0.505392 50:-0.412028 51:-0.505735 52:0.564839 53:0.592411 54:-0.544533 55:-0.380269 56:0.455992 57:0.5 58:0.500002 59:0.5 60:0.499998 
0.5 0.5 0.3542895837830938 0.3366086363030075 1:0.574229 2:0.409077 3:0.382268 4:0.597317 5:0.574229 6:0.409077 7:0.382268 8:0.597317 9:0.584778 10:0.412107 11:0.378852 12:0.587089 13:0.547531 14:0.761802 15:0.304248 16:-0.165229 17:0.351766 18:0.60569 19:0.518283 20:-0.490696 21:0.5 22:0.500002 23:0.5 24:0.499998 25:0.93861 26:0.0808366 27:-0.19489 28:0.272938 29:0.686049 30:-0.078821 31:-0.669557 32:0.273527 33:0.5 34:0.500002 35:0.5 36:0.499998 37:0.619977 38:0.453741 39:0.412751 40:0.489269 41:0.581352 42:0.393064 43:0.470653 44:0.534805 45:0.5 46:0.500002 47:0.5 48:0.499998 49:0.510283 50:-0.412963 51:-0.504637 52:0.560727 53:0.593535 54:-0.543534 55:-0.381553 56:0.454649 57:0.5 58:0.500002 59:0.5 60:0.499998 
0.4647970727650074 0.4821008200018639 0.3175232210805877 0.1616250603347651 1:0.583036 2:0.409965 3:0.374596 4:0.593023 5:0.583036 6:0.409965 7:0.374596 8:0.593023 9:0.592779 10:0.412356 11:0.371694 12:0.583454 13:0.541694 14:0.773438 15:0.279532 16:-0.173847 17:-0.356633 18:-0.611117 19:-0.494352 20:0.50494 21:0.5 22:0.500002 23:0.5 24:0.499998 25:0.93705 26:0.0835534 27:-0.1925 28:0.279106 29:0.685576 30:-0.0800391 31:-0.667162 32:0.280134 33:0.5 34:0.500002 35:0.5 36:0.499998 37:0.61907 38:0.445684 39:0.413914 40:0.496783 41:0.590943 42:0.394368 43:0.46244 44:0.53048 45:0.5 46:0.500002 47:0.5 48:0.499998 49:0.50893 50:-0.416359 51:-0.507526 52:0.556824 53:0.592508 54:-0.5474 55:-0.383867 56:0.449371 57:0.5 58:0.500002 59:0.5 60:0.499998 
0.08151819029630079 0.06290336300639918 0 0.1268510211492062 1:0.600075 2:0.422437 3:0.359322 4:0.576493 5:0.600075 6:0.422437 7:0.359322 8:0.576493 9:0.606209 10:0.420832 11:0.360366 12:0.570568 13:0.521019 14:0.790018 15:0.262259 16:-0.188764 17:-0.353656 18:-0.627686 19:-0.463862 20:0.515529 21:0.5 22:0.500002 23:0.5 24:0.499998 25:0.936537 26:0.0837523 27:-0.201275 28:0.27454 29:0.68973 30:-0.0735577 31:-0.664745 32:0.277445 33:0.5 34:0.500002 35:0.5 36:0.499998 37:0.614233 38:0.445045 39:0.411669 40:0.505154 41:0.591399 42:0.39218 43:0.461969 44:0.532003 45:0.5 46:0.500002 47:0.5 48:0.499998 49:0.512315 50:-0.430964 51:-0.495579 52:0.553358 53:0.59258 54:-0.540172 55:-0.38788 56:0.454547 57:0.5 58:0.500002 59:0.5 60:0.499998 
-0.4046697674958945 0 0 0 1:0.585278 2:0.292577 3:0.506638 4:0.561397 5:0.585278 6:0.292577 7:0.506638 8:0.561397 9:0.597607 10:0.312629 11:0.49244 12:0.55012 13:-2.45595e-06 14:0.707108 15:3.48606e-07 16:0.707106 17:-0.000140746 18:0.707182 19:0.000262351 20:0.707031 21:0.5 22:0.500002 23:0.5 24:0.499998 25:0.745651 26:0.261392 27:-0.196928 28:0.58043 29:0.230384 30:-0.352094 31:-0.736002 32:0.530334 33:0.5 34:0.500002 35:0.5 36:0.499998 37:0.480637 38:0.48338 39:0.422144 40:0.5976 41:0.621752 42:0.435609 43:0.44452 44:0.475469 45:0.5 46:0.500002 47:0.5 48:0.499998 49:0.520556 50:-0.486546 51:-0.392088 52:0.58186 53:0.543882 54:-0.465784 55:-0.413898 56:0.562073 57:0.5 58:0.500002 59:0.5 60:0.499998 
-0 0.1897381694340521 0 0 1:0.576187 2:0.271508 3:0.513505 4:0.574983 5:0.576187 6:0.271508 7:0.513505 8:0.574983 9:0.59268 10:0.298033 11:0.495151 12:0.56101 13:-2.35237e-06 14:0.707108 15:2.45018e-07 16:0.707105 17:2.978e-06 18:0.707109 19:1.21526e-05 20:0.707104 21:0.5 22:0.500002 23:0.5 24:0.499998 25:0.733478 26:0.231372 27:-0.20531 28:0.605248 29:0.241534 30:-0.371225 31:-0.72236 32:0.531084 33:0.5 34:0.500002 35:0.5 36:0.499998 37:0.496983 38:0.477626 39:0.41418 40:0.59442 41:0.634318 42:0.432056 43:0.430858 44:0.474689 45:0.5 46:0.500002 47:0.5 48:0.499998 49:0.518089 50:-0.476729 51:-0.417276 52:0.574625 53:0.530645 54:-0.467108 55:-0.427571 56:0.56339 57:0.5 58:0.500002 59:0.5 60:0.499998 
-0 0.1015153144603722 0.06829289444288242 0.1304935843766179 1:0.581794 2:0.267155 3:0.508574 4:0.575757 5:0.581794 6:0.267155 7:0.508574 8:0.575757 9:0.596358 10:0.29348 11:0.489905 12:0.564109 13:-2.35236e-06 14:0.707108 15:2.45015e-07 16:0.707105 17:3.24364e-06 18:0.707109 19:1.17605e-05 20:0.707104 21:0.5 22:0.500002 23:0.5 24:0.499998 25:0.72914 26:0.239929 27:-0.188846 28:0.612475 29:0.249139 30:-0.375144 31:-0.710801 32:0.540332 33:0.5 34:0.500002 35:0.5 36:0.499998 37:0.502028 38:0.476721 39:0.405738 40:0.596725 41:0.633296 42:0.42133 43:0.434945 44:0.481912 45:0.5 46:0.500002 47:0.5 48:0.499998 49:0.517211 50:-0.485228 51:-0.417027 52:0.568449 53:0.52847 54:-0.47141 55:-0.431987 56:0.558462 57:0.5 58:0.500002 59:0.5 60:0.499998 
-0.449344355764531 0.1714817046899298 0.1539570442781137 0.2372932540814195 1:0.485306 2:0.325534 3:0.605855 4:0.539857 5:0.485306 6:0.325534 7:0.605855 8:0.539857 9:0.507364 10:0.353317 11:0.589252 12:0.520126 13:-2.35235e-06 14:0.707108 15:2.45001e-07 16:0.707105 17:5.75143e-06 18:0.707108 19:8.87338e-06 20:0.707105 21:0.5 22:0.500002 23:0.5 24:0.499998 25:0.740773 26:0.161547 27:-0.0740363 28:0.647824 29:-0.351817 30:0.44752 31:0.656088 32:-0.495479 33:0.5 34:0.500002 35:0.5 36:0.499998 37:0.429446 38:0.532876 39:0.487577 40:0.542114 41:0.572535 42:0.491711 43:0.505596 44:0.418087 45:0.5 46:0.500002 47:0.5 48:0.499998 49:0.567742 50:-0.386716 51:-0.366475 52:0.627547 53:0.566854 54:-0.384581 55:-0.368787 56:0.628308 57:0.5 58:0.500002 59:0.5 60:0.499998 
-0.1064265653401235 0 0 0 1:0.450673 2:0.305203 3:0.700197 4:0.462027 5:0.450673 6:0.305203 7:0.700197 8:0.462027 9:0.484802 10:0.427834 11:0.617727 12:0.447592 13:-2.35235e-06 14:0.707108 15:2.45001e-07 16:0.707105 17:6.01265e-06 18:0.707108 19:8.61216e-06 20:0.707105 21:0.5 22:0.500002 23:0.5 24:0.499998 25:0.667131 26:0.400547 27:0.0757587 28:0.623505 29:0.427455 30:-0.304015 31:-0.51777 32:0.675849 33:0.5 34:0.500002 35:0.5 36:0.499998 37:0.330439 38:0.566737 39:0.566605 40:0.498577 41:0.498183 42:0.541115 43:0.576864 44:0.355297 45:0.5 46:0.500002 47:0.5 48:0.499998 49:0.616423 50:-0.336235 51:-0.265517 52:0.660658 53:0.596541 54:-0.297664 55:-0.311018 56:0.67735 57:0.5 58:0.500002 59:0.5 60:0.499998 
-0 0 0.2607004050538697 0 1:0.446362 2:0.278085 3:0.727122 4:0.441274 5:0.446362 6:0.278085 7:0.727122 8:0.441274 9:0.483439 10:0.49446 11:0.572848 12:0.440047 13:-0.163194 14:0.494203 15:0.34754 16:0.779966 17:-0.261902 18:0.709563 19:0.280756 20:0.59085 21:0.5 22:0.500002 23:0.5 24:0.499998 25:0.684001 26:0.381563 27:0.15599 28:0.601847 29:0.478374 30:-0.328856 31:-0.513174 32:0.63219 33:0.5 34:0.500002 35:0.5 36:0.499998 37:0.293314 38:0.568031 39:0.599313 40:0.4818 41:0.470353 42:0.555065 43:0.600903 44:0.331039 45:0.5 46:0.500002 47:0.5 48:0.499998 49:0.646408 50:-0.323899 51:-0.233471 52:0.650182 53:0.611555 54:-0.273399 55:-0.293847 56:0.681841 57:0.5 58:0.500002 59:0.5 60:0.499998 
-0 0.07116786178333633 0 0 1:0.45951 2:0.297412 3:0.66202 4:0.511982 5:0.45951 6:0.297412 7:0.66202 8:0.511982 9:0.48495 10:0.35195 11:0.627959 12:0.496611 13:-0.236957 14:0.433112 15:0.383096 16:0.780706 17:-0.424837 18:0.827 19:0.149749 20:0.336392 21:0.5 22:0.500002 23:0.5 24:0.499998 25:0.741355 26:0.28282 27:-0.0420672 28:0.607154 29:0.376751 30:-0.347835 31:-0.639871 32:0.572393 33:0.5 34:0.500002 35:0.5 36:0.499998 37:0.382368 38:0.563985 39:0.518741 40:0.516356 41:0.549584 42:0.517795 43:0.538529 44:0.373941 45:0.5 46:0.500002 47:0.5 48:0.499998 49:0.583324 50:-0.329691 51:-0.332457 52:0.663708 53:0.586549 54:-0.330424 55:-0.331823 56:0.660813 57:0.5 58:0.500002 59:0.5 60:0.499998 
-0 0.07678061488248476 0 0 1:0.474632 2:0.283208 3:0.646003 4:0.526496 5:0.474632 6:0.283208 7:0.646003 8:0.526496 9:0.491491 10:0.314876 11:0.627291 12:0.515553 13:-0.365561 14:0.530109 15:0.398009 16:0.653405 17:-0.504446 18:0.765424 19:0.193855 20:0.349399 21:0.5 22:0.500002 23:0.5 24:0.499998 25:0.733508 26:0.278032 27:-0.0750171 28:0.615659 29:0.370075 30:-0.335006 31:-0.637735 32:0.586608 33:0.5 34:0.500002 35:0.5 36:0.499998 37:0.428043 38:0.570441 39:0.47512 40:0.5154 41:0.556999 42:0.497984 43:0.5298 44:0.401343 45:0.5 46:0.500002 47:0.5 48:0.499998 49:0.558037 50:-0.336348 51:-0.366856 52:0.663989 53:0.579576 54:-0.3535 55:-0.34996 56:0.64549 57:0.5 58:0.500002 59:0.5 60:0.499998 
-0 0.01267589713730568 0 0 1:0.490739 2:0.27591 3:0.620943 4:0.545416 5:0.490739 6:0.27591 7:0.620943 8:0.545416 9:0.505813 10:0.301141 11:0.606075 12:0.534922 13:-0.402628 14:0.667318 15:0.312084 16:0.543306 17:-0.460868 18:0.665186 19:0.258784 20:0.527408 21:0.5 22:0.500002 23:0.5 24:0.499998 25:0.764617 26:0.150279 27:-0.071773 28:0.622596 29:-0.403927 30:0.405962 31:0.653172 32:-0.495383 33:0.5 34:0.500002 35:0.5 36:0.499998 37:0.455732 38:0.554821 39:0.456258 40:0.525652 41:0.581478 42:0.485671 43:0.503177 44:0.415717 45:0.5 46:0.500002 47:0.5 48:0.499998 49:0.544714 50:-0.355209 51:-0.39328 52:0.649956 53:0.575637 54:-0.380591 55:-0.368532 56:0.622877 57:0.5 58:0.500002 59:0.5 60:0.499998 
-0 0.1886425123421294 0 0 1:0.557108 2:0.189014 3:0.557103 4:0.586123 5:0.557108 6:0.189014 7:0.557103 8:0.586123 9:0.568143 10:0.203351 11:0.550066 12:0.577312 13:-0.338457 14:0.75572 15:0.224928 16:0.513558 17:-0.361719 18:0.685432 19:0.216116 20:0.593832 21:0.5 22:0.500002 23:0.5 24:0.499998 25:0.795811 26:0.156744 27:-0.153642 28:0.564368 29:-0.350889 30:0.359785 31:0.730615 32:-0.462206 33:0.5 34:0.500002 35:0.5 36:0.499998 37:0.52247 38:0.547595 39:0.334903 40:0.561254 41:0.624609 42:0.425527 43:0.446261 44:0.479209 45:0.5 46:0.500002 47:0.5 48:0.499998 49:0.449492 50:-0.415493 51:-0.446924 52:0.652367 53:0.555673 54:-0.45058 55:-0.408242 56:0.567049 57:0.5 58:0.500002 59:0.5 60:0.499998 
-0.1821081329347636 0.1606504807456381 0 0.1532997148756648 1:0.5947 2:0.249447 3:0.521534 4:0.558668 5:0.5947 6:0.249447 7:0.521534 8:0.558668 9:0.598404 10:0.260199 11:0.513923 12:0.556859 13:-0.360637 14:0.772791 15:0.239549 16:0.464059 17:-0.397602 18:0.679638 19:0.225178 20:0.573846 21:0.5 22:0.500002 23:0.5 24:0.499998 25:0.786965 26:0.142955 27:-0.190822 28:0.569066 29:-0.316762 30:0.371166 31:0.745244 32:-0.454432 33:0.5 34:0.500002 35:0.5 36:0.499998 37:0.493501 38:0.540379 39:0.38279 40:0.563843 41:0.62177 42:0.442271 43:0.456518 44:0.457591 45:0.5 46:0.500002 47:0.5 48:0.499998 49:0.485971 50:-0.424612 51:-0.405881 52:0.647146 53:0.567188 54:-0.436038 55:-0.389642 56:0.579955 57:0.5 58:0.500002 59:0.5 60:0.499998 
-0 0.1180271093508678 0.2630771548921572 0 1:0.501938 2:0.271948 3:0.588614 4:0.572395 5:0.501938 6:0.271948 7:0.588614 8:0.572395 9:0.514453 10:0.289775 11:0.578013 12:0.563266 13:-0.417493 14:0.712183 15:0.248247 16:0.506822 17:-0.436663 18:0.666135 19:0.242443 20:0.553905 21:0.5 22:0.500002 23:0.5 24:0.499998 25:0.733535 26:0.105005 27:-0.027057 28:0.670946 29:-0.41769 30:0.474386 31:0.603606 32:-0.485955 33:0.5 34:0.500002 35:0.5 36:0.499998 37:0.462983 38:0.547761 39:0.438364 40:0.541703 41:0.593545 42:0.477563 43:0.484094 44:0.430455 45:0.5 46:0.500002 47:0.5 48:0.499998 49:0.534726 50:-0.385621 51:-0.382829 52:0.647153 53:0.565595 54:-0.387985 55:-0.380963 56:0.62003 57:0.5 58:0.500002 59:0.5 60:0.499998 
-0 0 0.07130803028356729 0.006072309937821247 1:0.529639 2:0.249624 3:0.590594 4:0.55531 5:0.529639 6:0.249624 7:0.590594 8:0.55531 9:0.540816 10:0.265623 11:0.581965 12:0.54615 13:-0.409269 14:0.713869 15:0.25517 16:0.507719 17:-0.450977 18:0.666099 19:0.228305 20:0.54846 21:0.5 22:0.500002 23:0.5 24:0.499998 25:0.665107 26:0.270582 27:0.20025 28:0.666572 29:0.535304 30:-0.404864 31:-0.442624 32:0.594659 33:0.5 34:0.500002 35:0.5 36:0.499998 37:0.455487 38:0.565441 39:0.410311 40:0.551772 41:0.59005 42:0.473641 43:0.482422 44:0.441331 45:0.5 46:0.500002 47:0.5 48:0.499998 49:0.508857 50:-0.399804 51:-0.370064 52:0.666539 53:0.563814 54:-0.383386 55:-0.388629 56:0.619755 57:0.5 58:0.500002 59:0.5 60:0.499998 
-0 0 0.06030175923485209 0 1:0.524028 2:0.282492 3:0.579349 4:0.556729 5:0.524028 6:0.282492 7:0.579349 8:0.556729 9:0.538064 10:0.292829 11:0.575712 12:0.541566 13:-0.38755 14:0.700636 15:0.294663 16:0.52162 17:-0.405166 18:0.666627 19:0.284363 20:0.557303 21:0.5 22:0.500002 23:0.5 24:0.499998 25:0.706481 26:0.23159 27:0.0750915 28:0.664539 29:0.635278 30:-0.163696 31:-0.318081 32:0.684434 33:0.5 34:0.500002 35:0.5 36:0.499998 37:0.475486 38:0.569036 39:0.423072 40:0.520693 41:0.556195 42:0.467271 43:0.524499 44:0.444078 45:0.5 46:0.500002 47:0.5 48:0.499998 49:0.534544 50:-0.360861 51:-0.398841 52:0.651895 53:0.57733 54:-0.403969 55:-0.355254 56:0.614242 57:0.5 58:0.500002 59:0.5 60:0.499998 
-0.04501481377036129 0 0 0 1:0.600578 2:0.391845 3:0.417565 4:0.558035 5:0.600578 6:0.391845 7:0.417565 8:0.558035 9:0.599024 10:0.391887 11:0.417531 12:0.559699 13:-0.391539 14:0.817092 15:0.226609 16:0.357361 17:-0.478356 18:0.679175 19:0.1947 20:0.521526 21:0.5 22:0.500002 23:0.5 24:0.499998 25:0.679356 26:0.386504 27:-0.0352341 28:0.622774 29:0.532097 30:-0.0478804 31:-0.423839 32:0.731397 33:0.5 34:0.500002 35:0.5 36:0.499998 37:0.427631 38:0.478593 39:0.513424 40:0.569628 41:0.601789 42:0.479411 43:0.481532 44:0.419692 45:0.5 46:0.500002 47:0.5 48:0.499998 49:0.586331 50:-0.453516 51:-0.324889 52:0.587356 53:0.579862 54:-0.405713 55:-0.380442 56:0.595332 57:0.5 58:0.500002 59:0.5 60:0.499998 
-0.5 0.2408486872940199 0.004178337782243725 0.1790084879652838 1:0.597016 2:0.396309 3:0.402668 4:0.569535 5:0.597016 6:0.396309 7:0.402668 8:0.569535 9:0.595561 10:0.396438 11:0.402563 12:0.57104 13:-0.387772 14:0.826638 15:0.212463 16:0.348082 17:-0.50705 18:0.676576 19:0.161254 20:0.509061 21:0.5 22:0.500002 23:0.5 24:0.499998 25:0.66778 26:0.417429 27:-0.0593797 28:0.61343 29:0.507267 30:-0.0196101 31:-0.438334 32:0.741727 33:0.5 34:0.500002 35:0.5 36:0.499998 37:0.42856 38:0.470637 39:0.516477 40:0.57279 41:0.616687 42:0.4802 43:0.46994 44:0.410196 45:0.5 46:0.500002 47:0.5 48:0.499998 49:0.588679 50:-0.463907 51:-0.319349 52:0.579882 53:0.580212 54:-0.403075 55:-0.390814 56:0.590042 57:0.5 58:0.500002 59:0.5 60:0.499998 
-0.5 0.5 0.2557628297168714 0.2067545816076673 1:0.604927 2:0.389367 3:0.38559 4:0.577735 5:0.604927 6:0.389367 7:0.38559 8:0.577735 9:0.603482 10:0.389435 11:0.385559 12:0.579218 13:-0.48723 14:0.258929 15:0.822067 16:-0.140599 17:0.691038 18:-0.211366 19:-0.660041 20:0.205272 21:0.5 22:0.500002 23:0.5 24:0.499998 25:0.659234 26:0.436287 27:-0.0701451 28:0.608394 29:0.491605 30:-0.00547687 31:-0.444785 32:0.748639 33:0.5 34:0.500002 35:0.5 36:0.499998 37:0.44057 38:0.455417 39:0.514035 40:0.578153 41:0.624209 42:0.476839 43:0.457975 44:0.416229 45:0.5 46:0.500002 47:0.5 48:0.499998 49:0.588862 50:-0.474043 51:-0.329655 52:0.565554 53:0.567765 54:-0.419614 55:-0.395117 56:0.58775 57:0.5 58:0.500002 59:0.5 60:0.499998 
-0 0 0.1013850297213266 0.08146638058413185 1:0.600232 2:0.392439 3:0.387711 4:0.579131 5:0.600232 6:0.392439 7:0.387711 8:0.579131 9:0.598798 10:0.392695 11:0.387491 12:0.580588 13:-0.512478 14:0.339722 15:0.785183 16:-0.0737789 17:0.713766 18:-0.304946 19:-0.608016 20:0.16692 21:0.5 22:0.500002 23:0.5 24:0.499998 25:0.658123 26:0.442781 27:-0.0790752 28:0.603793 29:0.487393 30:0.00571233 31:-0.449251 32:0.748725 33:0.5 34:0.500002 35:0.5 36:0.499998 37:-0.381633 38:0.67884 39:0.559431 40:-0.283848 41:-0.294064 42:0.508808 43:0.717566 44:-0.373817 45:0.5 46:0.500002 47:0.5 48:0.499998 49:0.590831 50:-0.478953 51:-0.31806 52:0.566004 53:0.572526 54:-0.409234 55:-0.402263 56:0.585599 57:0.5 58:0.500002 59:0.5 60:0.499998 
-0 0.04785102662624922 0 0 1:0.60967 2:0.380482 3:0.376094 4:0.584884 5:0.60967 6:0.380482 7:0.376094 8:0.584884 9:0.60833 10:0.381018 11:0.375603 12:0.586244 13:-0.51161 14:0.427096 15:0.745439 16:0.0128425 17:0.716215 18:-0.410314 19:-0.551779 20:0.119239 21:0.5 22:0.500002 23:0.5 24:0.499998 25:0.676968 26:0.445114 27:-0.115446 28:0.574683 29:0.484114 30:0.0286897 31:-0.48708 32:0.726336 33:0.5 34:0.500002 35:0.5 36:0.499998 37:-0.368592 38:0.685289 39:0.563055 40:-0.278366 41:-0.283251 42:0.514752 43:0.722275 44:-0.364852 45:0.5 46:0.500002 47:0.5 48:0.499998 49:0.577063 50:-0.495617 51:-0.324717 52:0.562068 53:0.565853 54:-0.4106 55:-0.427336 56:0.573238 57:0.5 58:0.500002 59:0.5 60:0.499998 
-0 0.5 0 0 1:0.611171 2:0.381749 3:0.366667 4:0.588467 5:0.611171 6:0.381749 7:0.366667 8:0.588467 9:0.60978 10:0.382153 11:0.366316 12:0.589864 13:-0.50148 14:0.408808 15:0.762427 16:-0.0100082 17:0.709957 18:-0.386316 19:-0.573356 20:0.134104 21:0.5 22:0.500002 23:0.5 24:0.499998 25:0.680964 26:0.448009 27:-0.119318 28:0.566868 29:0.483304 30:0.0329301 31:-0.494334 32:0.72178 33:0.5 34:0.500002 35:0.5 36:0.499998 37:-0.360845 38:0.683648 39:0.569214 40:-0.280021 41:-0.287493 42:0.517683 43:0.725433 44:-0.350856 45:0.5 46:0.500002 47:0.5 48:0.499998 49:0.575411 50:-0.502055 51:-0.32297 52:0.559047 53:0.567846 54:-0.408673 55:-0.435432 56:0.566512 57:0.5 58:0.500002 59:0.5 60:0.499998 
-0 0.5 0 0 1:0.613437 2:0.381585 3:0.361608 4:0.589345 5:0.613437 6:0.381585 7:0.361608 8:0.589345 9:0.612368 10:0.3826 11:0.36065 12:0.590385 13:-0.495446 14:0.383786 15:0.778126 16:-0.0419743 17:0.707704 18:-0.353086 19:-0.591693 20:0.156155 21:0.5 22:0.500002 23:0.5 24:0.499998 25:0.674585 26:0.452247 27:-0.118116 28:0.571364 29:0.478364 30:0.0330609 31:-0.490086 32:0.727936 33:0.5 34:0.500002 35:0.5 36:0.499998 37:-0.366634 38:0.683935 39:0.569813 40:-0.270417 41:-0.283342 42:0.514008 43:0.726325 44:-0.357723 45:0.5 46:0.500002 47:0.5 48:0.499998 49:0.580553 50:-0.503802 51:-0.323567 52:0.551767 53:0.561675 54:-0.413437 55:-0.434107 56:0.570213 57:0.5 58:0.500002 59:0.5 60:0.499998 
-0.07704378256335281 0.5 0 0 1:0.611418 2:0.373936 3:0.356985 4:0.599084 5:0.611418 6:0.373936 7:0.356985 8:0.599084 9:0.611991 10:0.372593 11:0.358308 12:0.598546 13:-0.487471 14:0.376286 15:0.786403 16:-0.048495 17:0.703172 18:-0.343813 19:-0.601337 20:0.160422 21:0.5 22:0.500002 23:0.5 24:0.499998 25:0.677924 26:0.460685 27:-0.108993 28:0.562413 29:0.478499 30:0.033391 31:-0.492443 32:0.72624 33:0.5 34:0.500002 35:0.5 36:0.499998 37:-0.367213 38:0.68769 39:0.566995 40:-0.265996 41:-0.281216 42:0.507949 43:0.732385 44:-0.355692 45:0.5 46:0.500002 47:0.5 48:0.499998 49:0.576908 50:-0.503913 51:-0.33597 52:0.548063 53:0.561978 54:-0.433718 55:-0.420423 56:0.565079 57:0.5 58:0.500002 59:0.5 60:0.499998 
-0 0.4147828136125044 0 0 1:0.620227 2:0.362924 3:0.356333 4:0.597186 5:0.620227 6:0.362924 7:0.356333 8:0.597186 9:0.621346 10:0.3638 11:0.355448 12:0.596016 13:-0.482201 14:0.376509 15:0.789583 16:-0.0477723 17:0.704122 18:-0.342907 19:-0.600142 20:0.162654 21:0.5 22:0.500002 23:0.5 24:0.499998 25:0.674252 26:0.460921 27:-0.10738 28:0.566926 29:0.478079 30:0.0332177 31:-0.487429 32:0.729897 33:0.5 34:0.500002 35:0.5 36:0.499998 37:-0.359535 38:0.686226 39:0.571919 40:-0.269699 41:-0.274508 42:0.508683 43:0.734329 44:-0.355877 45:0.5 46:0.500002 47:0.5 48:0.499998 49:0.57022 50:-0.514759 51:-0.337701 52:0.543903 53:0.55046 54:-0.429263 55:-0.442402 56:0.563034 57:0.5 58:0.500002 59:0.5 60:0.499998 
-0 0.5 0 0 1:0.614708 2:0.361105 3:0.366578 4:0.597795 5:0.614708 6:0.361105 7:0.366578 8:0.597795 9:0.614652 10:0.359623 11:0.368023 12:0.597857 13:-0.448317 14:0.534754 15:0.701146 16:0.146435 17:0.673687 18:-0.442484 19:-0.589956 20:0.0480289 21:0.5 22:0.500002 23:0.5 24:0.499998 25:0.661792 26:0.463041 27:-0.0946199 28:0.581956 29:0.468099 30:0.0141183 31:-0.477289 32:0.743559 33:0.5 34:0.500002 35:0.5 36:0.499998 37:-0.343718 38:0.701083 39:0.568056 40:-0.260102 41:-0.253241 42:0.505627 43:0.747359 44:-0.348804 45:0.5 46:0.500002 47:0.5 48:0.499998 49:0.562837 50:-0.513411 51:-0.335819 52:0.55394 53:0.558733 54:-0.428713 55:-0.437706 56:0.55896 57:0.5 58:0.500002 59:0.5 60:0.499998 
-0 0.5 0 0 1:0.611584 2:0.364674 3:0.37749 4:0.592013 5:0.611584 6:0.364674 7:0.37749 8:0.592013 9:0.610524 10:0.363663 11:0.378465 12:0.593105 13:-0.385879 14:0.631356 15:0.603496 16:0.297118 17:0.64297 18:-0.516895 19:-0.563057 20:-0.0487471 21:0.5 22:0.500002 23:0.5 24:0.499998 25:0.660892 26:0.455799 27:-0.0952581 28:0.588554 29:0.468572 30:0.00681905 31:-0.475702 32:0.74438 33:0.5 34:0.500002 35:0.5 36:0.499998 37:-0.317652 38:0.703657 39:0.586164 40:-0.245716 41:-0.237251 42:0.51397 43:0.757994 44:-0.324023 45:0.5 46:0.500002 47:0.5 48:0.499998 49:0.569999 50:-0.506291 51:-0.330594 52:0.556308 53:0.549696 54:-0.421574 55:-0.435502 56:0.574846 57:0.5 58:0.500002 59:0.5 60:0.499998 
-0.2919909173068064 0.5 0.1333153454226982 0.09577728001637807 1:0.610079 2:0.368005 3:0.381068 4:0.589205 5:0.610079 6:0.368005 7:0.381068 8:0.589205 9:0.60998 10:0.366528 11:0.382493 12:0.589306 13:-0.323131 14:0.688135 15:0.505361 16:0.408248 17:0.606198 18:-0.576574 19:-0.530855 20:-0.1352 21:0.5 22:0.500002 23:0.5 24:0.499998 25:0.661598 26:0.447811 27:-0.0928905 28:0.594243 29:0.463284 30:-0.0143238 31:-0.481361 32:0.743945 33:0.5 34:0.500002 35:0.5 36:0.499998 37:-0.318512 38:0.706123 39:0.582872 40:-0.245358 41:-0.235359 42:0.510682 43:0.759969 44:-0.32597 45:0.5 46:0.500002 47:0.5 48:0.499998 49:0.571405 50:-0.501138 51:-0.330353 52:0.559665 53:0.545425 54:-0.418001 55:-0.434086 56:0.582543 57:0.5 58:0.500002 59:0.5 60:0.499998 
-0.1280409664208384 0.5 0.08591916631416287 0.04105625460844763 1:0.610683 2:0.367579 3:0.378786 4:0.590317 5:0.610683 6:0.367579 7:0.378786 8:0.590317 9:0.609909 10:0.366323 11:0.380001 12:0.591116 13:-0.266055 14:0.719181 15:0.416097 16:0.48873 17:-0.566128 18:0.623689 19:0.495766 20:0.211489 21:0.5 22:0.500002 23:0.5 24:0.499998 25:0.673921 26:0.439702 27:-0.0792656 28:0.588396 29:0.469819 30:-0.0346454 31:-0.489615 32:0.733722 33:0.5 34:0.500002 35:0.5 36:0.499998 37:-0.324805 38:0.704827 39:0.578906 40:-0.250178 41:-0.238086 42:0.506178 43:0.758746 44:-0.33377 45:0.5 46:0.500002 47:0.5 48:0.499998 49:0.572133 50:-0.50211 51:-0.331031 52:0.557645 53:0.538311 54:-0.419591 55:-0.434953 56:0.58735 57:0.5 58:0.500002 59:0.5 60:0.499998 
-0 0.5 0 0 1:0.610909 2:0.36649 3:0.374093 4:0.593742 5:0.610909 6:0.36649 7:0.374093 8:0.593742 9:0.61073 10:0.365028 11:0.375517 12:0.593928 13:-0.216764 14:0.73437 15:0.339008 16:0.546614 17:-0.524787 18:0.660305 19:0.459563 20:0.278205 21:0.5 22:0.500002 23:0.5 24:0.499998 25:0.674429 26:0.438229 27:-0.0635734 28:0.590813 29:0.465987 30:-0.0588188 31:-0.491683 32:0.733242 33:0.5 34:0.500002 35:0.5 36:0.499998 37:-0.325918 38:0.701703 39:0.580351 40:-0.254131 41:-0.240673 42:0.508771 43:0.755213 44:-0.335979 45:0.5 46:0.500002 47:0.5 48:0.499998 49:0.565105 50:-0.499635 51:-0.339971 52:0.561641 53:0.553122 54:-0.428603 55:-0.425846 56:0.573595 57:0.5 58:0.500002 59:0.5 60:0.499998 
-0 0.5 0 0 1:0.606995 2:0.372308 3:0.37685 4:0.592392 5:0.606995 6:0.372308 7:0.37685 8:0.592392 9:0.608093 10:0.371353 11:0.377778 12:0.591273 13:-0.175437 14:0.740207 15:0.274374 16:0.588247 17:-0.483615 18:0.688292 19:0.423508 20:0.33617 21:0.5 22:0.500002 23:0.5 24:0.499998 25:0.668279 26:0.431771 27:-0.0526379 28:0.603494 29:0.466803 30:-0.0747162 31:-0.481106 32:0.738275 33:0.5 34:0.500002 35:0.5 36:0.499998 37:-0.322123 38:0.702889 39:0.582765 40:-0.250138 41:-0.236219 42:0.504777 43:0.760833 44:-0.332465 45:0.5 46:0.500002 47:0.5 48:0.499998 49:0.56646 50:-0.49268 51:-0.339023 52:0.566968 53:0.56257 54:-0.428247 55:-0.415133 56:0.572524 57:0.5 58:0.500002 59:0.5 60:0.499998 
-0 0.5 0 0 1:0.61167 2:0.303712 3:0.475958 4:0.554151 5:0.61167 6:0.303712 7:0.475958 8:0.554151 9:0.585635 10:0.38997 11:0.395527 12:0.59035 13:-0.141392 14:0.740798 15:0.22113 16:0.618327 17:-0.4436 18:0.709286 19:0.388467 20:0.386299 21:0.5 22:0.500002 23:0.5 24:0.499998 25:0.688897 26:0.397731 27:-0.00597938 28:0.605967 29:0.500935 30:-0.120598 31:-0.472947 32:0.714732 33:0.5 34:0.500002 35:0.5 36:0.499998 37:-0.316477 38:0.702589 39:0.589103 40:-0.243248 41:-0.235476 42:0.508987 43:0.762631 44:-0.322301 45:0.5 46:0.500002 47:0.5 48:0.499998 49:0.587849 50:-0.472243 51:-0.321926 52:0.572524 53:0.561515 54:-0.40298 55:-0.406416 56:0.597606 57:0.5 58:0.500002 59:0.5 60:0.499998 
-0 0.04781843140700674 0 0 1:0.597179 2:0.288954 3:0.492675 4:0.563164 5:0.597179 6:0.288954 7:0.492675 8:0.563164 9:0.588442 10:0.337723 11:0.448506 12:0.581826 13:-0.11365 14:0.738657 15:0.177742 16:0.640216 17:-0.405386 18:0.724676 19:0.355003 20:0.429512 21:0.5 22:0.500002 23:0.5 24:0.499998 25:0.697929 26:0.366703 27:0.0105148 28:0.615072 29:0.514469 30:-0.155954 31:-0.471739 32:0.698901 33:0.5 34:0.500002 35:0.5 36:0.499998 37:-0.310278 38:0.709913 39:0.584001 40:-0.242268 41:-0.225703 42:0.507709 43:0.766332 44:-0.322527 45:0.5 46:0.500002 47:0.5 48:0.499998 49:0.577204 50:-0.454536 51:-0.354492 52:0.578418 53:0.567161 54:-0.431098 55:-0.381508 56:0.589011 57:0.5 58:0.500002 59:0.5 60:0.499998 
-0 0 0.02815216186374414 0.03509380584744535 1:0.569861 2:0.419966 3:0.415983 4:0.570829 5:0.569861 6:0.419966 7:0.415983 8:0.570829 9:0.575214 10:0.420416 11:0.415487 12:0.565465 13:-0.000223161 14:0.707204 15:0.000347821 16:0.707009 17:-0.0226049 18:0.714973 19:0.0198154 20:0.698505 21:0.5 22:0.500002 23:0.5 24:0.499998 25:0.697126 26:0.119938 27:0.209617 28:0.675049 29:0.618769 30:-0.426325 31:-0.383469 32:0.536958 33:0.5 34:0.500002 35:0.5 36:0.499998 37:-0.285215 38:0.704193 39:0.611158 40:-0.221924 41:-0.239889 42:0.572103 43:0.736034 44:-0.270935 45:0.5 46:0.500002 47:0.5 48:0.499998 49:0.612063 50:-0.420006 51:-0.340645 52:0.577005 53:0.570572 54:-0.404017 55:-0.359667 56:0.617946 57:0.5 58:0.500002 59:0.5 60:0.499998 
-0 0 0 0.5 1:0.571189 2:0.419773 3:0.413508 4:0.571441 5:0.571189 6:0.419773 7:0.413508 8:0.571441 9:0.576188 10:0.420592 11:0.412627 12:0.566435 13:-0.000178901 14:0.707185 15:0.000278404 16:0.707029 17:-0.020345 18:0.71422 19:0.0178347 20:0.699398 21:0.5 22:0.500002 23:0.5 24:0.499998 25:0.698106 26:0.119751 27:0.215783 28:0.67212 29:0.623097 30:-0.425574 31:-0.38166 32:0.533828 33:0.5 34:0.500002 35:0.5 36:0.499998 37:-0.285581 38:0.702993 39:0.613315 40:-0.219291 41:-0.237292 42:0.576214 43:0.732622 44:-0.273742 45:0.5 46:0.500002 47:0.5 48:0.499998 49:0.609652 50:-0.423798 51:-0.339497 52:0.577461 53:0.572094 54:-0.403858 55:-0.363182 56:0.614577 57:0.5 58:0.500002 59:0.5 60:0.499998 
-0 0.04568603947380324 0 0 1:0.573493 2:0.40245 3:0.432569 4:0.567471 5:0.573493 6:0.40245 7:0.432569 8:0.567471 9:0.581374 10:0.406941 11:0.428383 12:0.559367 13:-2.06741e-05 14:0.707116 15:3.07472e-05 16:0.707097 17:-0.00709513 18:0.709656 19:0.00622077 20:0.704485 21:0.5 22:0.500002 23:0.5 24:0.499998 25:0.699325 26:0.155766 27:0.0498451 28:0.695843 29:0.504478 30:-0.413485 31:-0.486869 32:0.580939 33:0.5 34:0.500002 35:0.5 36:0.499998 37:-0.269909 38:0.711944 39:0.60603 40:-0.230245 41:-0.235465 42:0.578876 43:0.736513 44:-0.258858 45:0.5 46:0.500002 47:0.5 48:0.499998 49:0.599759 50:-0.430124 51:-0.335769 52:0.58527 53:0.568385 54:-0.404503 55:-0.366603 56:0.615563 57:0.5 58:0.500002 59:0.5 60:0.499998 
-0 0.3504971920713491 0.02166900717675622 0 1:0.668957 2:0.223625 3:0.492099 4:0.510223 5:0.668957 6:0.223625 7:0.492099 8:0.510223 9:0.66881 10:0.233046 11:0.485555 12:0.512464 13:-1.56146e-06 14:0.707108 15:1.05569e-06 16:0.707105 17:-0.000175388 18:0.707173 19:0.000160469 20:0.707041 21:0.5 22:0.500002 23:0.5 24:0.499998 25:0.789122 26:0.308878 27:-0.281551 28:0.450123 29:-0.170994 30:0.22317 31:0.82021 32:-0.498208 33:0.5 34:0.500002 35:0.5 36:0.499998 37:-0.144543 38:0.766963 39:0.585533 40:-0.219149 41:-0.148911 42:0.612693 43:0.756104 44:-0.175325 45:0.5 46:0.500002 47:0.5 48:0.499998 49:0.480644 50:-0.514966 51:-0.367334 52:0.607336 53:0.526863 54:-0.462941 55:-0.42889 56:0.569346 57:0.5 58:0.500002 59:0.5 60:0.499998 
-0.02873167918058165 0.5 0.07930052898073113 0.2254625751081659 1:0.67118 2:0.233928 3:0.495936 4:0.49884 5:0.67118 6:0.233928 7:0.495936 8:0.49884 9:0.6706 10:0.241773 11:0.490513 12:0.501237 13:-1.55948e-06 14:0.707108 15:1.05371e-06 16:0.707105 17:-0.000157334 18:0.707166 19:0.000145196 20:0.707047 21:0.5 22:0.500002 23:0.5 24:0.499998 25:0.795147 26:0.313613 27:-0.259196 28:0.449673 29:-0.173435 30:0.23242 31:0.818145 32:-0.496528 33:0.5 34:0.500002 35:0.5 36:0.499998 37:-0.15611 38:0.762953 39:0.584553 40:-0.227662 41:-0.1542 42:0.607747 43:0.755346 44:-0.190574 45:0.5 46:0.500002 47:0.5 48:0.499998 49:0.484584 50:-0.508726 51:-0.357728 52:0.615148 53:0.534124 54:-0.450949 55:-0.426171 56:0.574226 57:0.5 58:0.500002 59:0.5 60:0.499998 
-0.008483477109359856 0.2641474760527933 0.04497872868909839 0 1:0.68038 2:0.213601 3:0.501257 4:0.490101 5:0.68038 6:0.213601 7:0.501257 8:0.490101 9:0.680538 10:0.221643 11:0.496052 12:0.491603 13:-1.5579e-06 14:0.707108 15:1.05213e-06 16:0.707105 17:-0.000141063 18:0.70716 19:0.000131474 20:0.707053 21:0.5 22:0.500002 23:0.5 24:0.499998 25:0.780437 26:0.329267 27:-0.306826 28:0.434004 29:0.136382 30:-0.204 31:-0.82742 32:0.505133 33:0.5 34:0.500002 35:0.5 36:0.499998 37:-0.152979 38:0.771351 39:0.577685 40:-0.218849 41:-0.147653 42:0.607316 43:0.758572 44:-0.184212 45:0.5 46:0.500002 47:0.5 48:0.499998 49:0.479138 50:-0.518148 51:-0.359725 52:0.610366 53:0.530809 54:-0.457553 55:-0.431855 56:0.567792 57:0.5 58:0.500002 59:0.5 60:0.499998 
-0.1539398513891018 0 0 0 1:0.70099 2:0.156669 3:0.519023 4:0.463338 5:0.70099 6:0.156669 7:0.519023 8:0.463338 9:0.697633 10:0.164517 11:0.513286 12:0.471995 13:-1.55224e-06 14:0.707108 15:1.04647e-06 16:0.707105 17:-4.57461e-05 18:0.707126 19:5.09724e-05 20:0.707087 21:0.5 22:0.500002 23:0.5 24:0.499998 25:0.806603 26:0.338289 27:-0.31255 28:0.370493 29:-0.181325 30:0.124097 31:0.845823 32:-0.486112 33:0.5 34:0.500002 35:0.5 36:0.499998 37:-0.0143016 38:0.811293 39:0.58091 40:-0.0643627 41:0.0030268 42:0.631157 43:0.772848 44:-0.065863 45:0.5 46:0.500002 47:0.5 48:0.499998 49:0.433526 50:-0.55621 51:-0.355523 52:0.613424 53:0.495611 54:-0.471387 55:-0.469852 56:0.558035 57:0.5 58:0.500002 59:0.5 60:0.499998 
-0.1369362000722341 0.14212515134728 0.06522251800925588 0 1:0.65553 2:0.19545 3:0.630659 4:0.366536 5:0.65553 6:0.19545 7:0.630659 8:0.366536 9:0.651323 10:0.20381 11:0.625431 12:0.378254 13:-1.55156e-06 14:0.707108 15:1.04579e-06 16:0.707105 17:5.00381e-06 18:0.707108 19:7.72443e-06 20:0.707105 21:0.5 22:0.500002 23:0.5 24:0.499998 25:0.886473 26:0.328814 27:0.138823 28:0.294576 29:0.0188416 30:-0.0840665 31:-0.851797 32:0.51674 33:0.5 34:0.500002 35:0.5 36:0.499998 37:-0.0905062 38:0.833296 39:0.535718 40:-0.102143 41:-0.0561741 42:0.637125 43:0.758582 44:-0.124374 45:0.5 46:0.500002 47:0.5 48:0.499998 49:0.44271 50:-0.514166 51:-0.268341 52:0.683838 53:0.52674 54:-0.409296 55:-0.415155 56:0.618602 57:0.5 58:0.500002 59:0.5 60:0.499998 
-0.04767498946479766 0.3249992066232985 0.1109658877830806 0.08806460486637535 1:0.554322 2:0.225755 3:0.720998 4:0.349176 5:0.554322 6:0.225755 7:0.720998 8:0.349176 9:0.552691 10:0.236498 11:0.71514 12:0.356619 13:-1.55156e-06 14:0.707108 15:1.04579e-06 16:0.707105 17:5.03597e-06 18:0.707108 19:7.69227e-06 20:0.707105 21:0.5 22:0.500002 23:0.5 24:0.499998 25:0.784265 26:0.0757468 27:0.612034 28:0.0678576 29:0.402354 30:0.0452549 31:0.871026 32:-0.278166 33:0.5 34:0.500002 35:0.5 36:0.499998 37:-0.167719 38:0.822189 39:0.525877 40:-0.139026 41:-0.118277 42:0.626518 43:0.748343 44:-0.182944 45:0.5 46:0.500002 47:0.5 48:0.499998 49:0.441642 50:-0.464274 51:-0.296504 52:0.708158 53:0.545175 54:-0.388649 55:-0.388956 56:0.632811 57:0.5 58:0.500002 59:0.5 60:0.499998 
-0.09041669252154602 0 0 0 1:0.632426 2:0.0900165 3:0.616353 4:0.460482 5:0.632426 6:0.0900165 7:0.616353 8:0.460482 9:0.63137 10:0.0968646 11:0.611299 12:0.467229 13:-1.55156e-06 14:0.707108 15:1.04579e-06 16:0.707105 17:5.06187e-06 18:0.707108 19:7.66637e-06 20:0.707105 21:0.5 22:0.500002 23:0.5 24:0.499998 25:0.708104 26:0.000878624 27:0.706107 28:0.000784712 29:0.676595 30:0.00573901 31:0.735505 32:-0.0349172 33:0.5 34:0.500002 35:0.5 36:0.499998 37:-0.0879746 38:0.816933 39:0.556972 40:-0.121092 41:-0.0494698 42:0.622441 43:0.768222 44:-0.141264 45:0.5 46:0.500002 47:0.5 48:0.499998 49:0.376789 50:-0.568072 51:-0.382463 52:0.623736 53:0.485112 54:-0.493252 55:-0.480139 56:0.539292 57:0.5 58:0.500002 59:0.5 60:0.499998 
-0 0 0.09514952722698494 0 1:0.626213 2:0.114136 3:0.582126 4:0.505925 5:0.626213 6:0.114136 7:0.582126 8:0.505925 9:0.623357 10:0.120112 11:0.576247 12:0.514723 13:-1.55156e-06 14:0.707108 15:1.04579e-06 16:0.707105 17:5.06392e-06 18:0.707108 19:7.66433e-06 20:0.707105 21:0.5 22:0.500002 23:0.5 24:0.499998 25:0.707275 26:0.000148553 27:0.706938 28:0.000130636 29:0.694228 30:0.00248448 31:0.719594 32:-0.0150247 33:0.5 34:0.500002 35:0.5 36:0.499998 37:0.0194386 38:0.812395 39:0.581497 40:-0.0387058 41:0.028807 42:0.633902 43:0.7722 44:-0.0323444 45:0.5 46:0.500002 47:0.5 48:0.499998 49:0.387633 50:-0.573844 51:-0.40336 52:0.598118 53:0.481936 54:-0.506295 55:-0.488538 56:0.52224 57:0.5 58:0.500002 59:0.5 60:0.499998 
-0 0 0 0.5 1:0.609577 2:0.244324 3:0.526094 4:0.540321 5:0.609577 6:0.244324 7:0.526094 8:0.540321 9:0.610462 10:0.253672 11:0.51914 12:0.541738 13:-1.55156e-06 14:0.707108 15:1.04579e-06 16:0.707105 17:5.06529e-06 18:0.707108 19:7.66295e-06 20:0.707105 21:0.5 22:0.500002 23:0.5 24:0.499998 25:0.70711 26:1.49577e-06 27:0.707104 28:-1.24288e-06 29:0.705718 30:0.000272953 31:0.708491 32:-0.0016454 33:0.5 34:0.500002 35:0.5 36:0.499998 37:-0.0677938 38:0.784175 39:0.614929 40:-0.0483354 41:-0.0425663 42:0.622736 43:0.777066 44:-0.0809708 45:0.5 46:0.500002 47:0.5 48:0.499998 49:0.497253 50:-0.522889 51:-0.388455 52:0.573087 53:0.535585 54:-0.483634 55:-0.430819 56:0.541887 57:0.5 58:0.500002 59:0.5 60:0.499998 
-0 0 0 0.3835700443262864 1:0.609967 2:0.242563 3:0.52208 4:0.544551 5:0.609967 6:0.242563 7:0.52208 8:0.544551 9:0.610921 10:0.251748 11:0.515214 12:0.545851 13:-1.55156e-06 14:0.707108 15:1.04579e-06 16:0.707105 17:5.06531e-06 18:0.707108 19:7.66293e-06 20:0.707105 21:0.5 22:0.500002 23:0.5 24:0.499998 25:0.707109 26:1.18661e-06 27:0.707104 28:-1.52378e-06 29:0.705857 30:0.000245528 31:0.708353 32:-0.00148125 33:0.5 34:0.500002 35:0.5 36:0.499998 37:-0.062086 38:0.78234 39:0.618012 40:-0.0463645 41:-0.0408237 42:0.627553 43:0.774027 44:-0.0734368 45:0.5 46:0.500002 47:0.5 48:0.499998 49:0.496581 50:-0.526311 51:-0.390315 52:0.569261 53:0.5346 54:-0.488087 55:-0.431303 56:0.538471 57:0.5 58:0.500002 59:0.5 60:0.499998 
-0 0 0 0.5 1:0.609783 2:0.244668 3:0.520821 4:0.545021 5:0.609783 6:0.244668 7:0.520821 8:0.545021 9:0.61157 10:0.253266 11:0.51464 12:0.544962 13:-1.55156e-06 14:0.707108 15:1.04579e-06 16:0.707105 17:5.06532e-06 18:0.707108 19:7.66292e-06 20:0.707105 21:0.5 22:0.500002 23:0.5 24:0.499998 25:0.707109 26:9.22424e-07 27:0.707104 28:-1.76535e-06 29:0.705982 30:0.000220957 31:0.708228 32:-0.0013334 33:0.5 34:0.500002 35:0.5 36:0.499998 37:-0.0613319 38:0.779192 39:0.621873 40:-0.0487022 41:-0.0405399 42:0.626589 43:0.774729 44:-0.0744224 45:0.5 46:0.500002 47:0.5 48:0.499998 49:0.500679 50:-0.525031 51:-0.390121 52:0.566982 53:0.533203 54:-0.486949 55:-0.43173 56:0.540541 57:0.5 58:0.500002 59:0.5 60:0.499998 
-0 0 0 0.5 1:0.584057 2:0.262138 3:0.552996 4:0.533251 5:0.584057 6:0.262138 7:0.552996 8:0.533251 9:0.587647 10:0.274755 11:0.54428 12:0.531921 13:-1.55156e-06 14:0.707108 15:1.04579e-06 16:0.707105 17:5.06534e-06 18:0.707108 19:7.66291e-06 20:0.707105 21:0.5 22:0.500002 23:0.5 24:0.499998 25:0.707109 26:7.44793e-07 27:0.707105 28:-1.9249e-06 29:0.706095 30:0.000198982 31:0.708116 32:-0.0012002 33:0.5 34:0.500002 35:0.5 36:0.499998 37:-0.090075 38:0.7796 39:0.615343 40:-0.0739165 41:-0.0654734 42:0.621548 43:0.773942 44:-0.102005 45:0.5 46:0.500002 47:0.5 48:0.499998 49:0.512564 50:-0.504063 51:-0.368956 52:0.589126 53:0.551167 54:-0.465963 55:-0.409335 56:0.558156 57:0.5 58:0.500002 59:0.5 60:0.499998 
-0 0 0 0.5 1:0.584193 2:0.246995 3:0.550321 4:0.543009 5:0.584193 6:0.246995 7:0.550321 8:0.543009 9:0.588481 10:0.25863 11:0.542587 12:0.54074 13:-1.55156e-06 14:0.707108 15:1.04579e-06 16:0.707105 17:5.06535e-06 18:0.707108 19:7.66289e-06 20:0.707105 21:0.5 22:0.500002 23:0.5 24:0.499998 25:0.707109 26:6.11117e-07 27:0.707105 28:-2.0441e-06 29:0.706196 30:0.000179217 31:0.708015 32:-0.00108031 33:0.5 34:0.500002 35:0.5 36:0.499998 37:-0.081467 38:0.783953 39:0.612661 40:-0.0585474 41:-0.0545387 42:0.624052 43:0.773992 44:-0.0923077 45:0.5 46:0.500002 47:0.5 48:0.499998 49:0.501957 50:-0.506788 51:-0.387026 52:0.584308 53:0.539674 54:-0.47412 55:-0.421632 56:0.553342 57:0.5 58:0.500002 59:0.5 60:0.499998 
-0 0 0 0.5 1:0.588792 2:0.250092 3:0.544532 4:0.542461 5:0.588792 6:0.250092 7:0.544532 8:0.542461 9:0.592463 10:0.261297 11:0.536894 12:0.540792 13:-1.55156e-06 14:0.707108 15:1.04579e-06 16:0.707105 17:5.06536e-06 18:0.707108 19:7.66288e-06 20:0.707105 21:0.5 22:0.500002 23:0.5 24:0.499998 25:0.707109 26:4.78889e-07 27:0.707105 28:-2.16476e-06 29:0.706288 30:0.000161428 31:0.707924 32:-0.000972404 33:0.5 34:0.500002 35:0.5 36:0.499998 37:-0.0721625 38:0.78033 39:0.617782 40:-0.0649867 41:-0.051552 42:0.624981 43:0.774043 44:-0.0871709 45:0.5 46:0.500002 47:0.5 48:0.499998 49:0.499316 50:-0.503198 51:-0.392886 52:0.585761 53:0.541875 54:-0.476129 55:-0.419968 56:0.550726 57:0.5 58:0.500002 59:0.5 60:0.499998 
-0 0 0 0.5 1:0.567619 2:0.267147 3:0.570158 4:0.530434 5:0.567619 6:0.267147 7:0.570158 8:0.530434 9:0.572082 10:0.281229 11:0.560596 12:0.52855 13:-1.55156e-06 14:0.707108 15:1.04579e-06 16:0.707105 17:5.06537e-06 18:0.707108 19:7.66287e-06 20:0.707105 21:0.5 22:0.500002 23:0.5 24:0.499998 25:0.707108 26:4.32111e-07 27:0.707105 28:-2.20227e-06 29:0.70637 30:0.000145467 31:0.707843 32:-0.000875242 33:0.5 34:0.500002 35:0.5 36:0.499998 37:-0.0982972 38:0.774114 39:0.619307 40:-0.086855 41:-0.0748381 42:0.623259 43:0.770442 44:-0.111204 45:0.5 46:0.500002 47:0.5 48:0.499998 49:0.519234 50:-0.486583 51:-0.370753 52:0.596804 53:0.551341 54:-0.450457 55:-0.410055 56:0.570058 57:0.5 58:0.500002 59:0.5 60:0.499998 
-0 0 0 0.5 1:0.593726 2:0.239927 3:0.548912 4:0.537234 5:0.593726 6:0.239927 7:0.548912 8:0.537234 9:0.597143 10:0.252743 11:0.540156 12:0.536444 13:-1.55156e-06 14:0.707108 15:1.04579e-06 16:0.707105 17:5.06538e-06 18:0.707108 19:7.66286e-06 20:0.707105 21:0.5 22:0.500002 23:0.5 24:0.499998 25:0.707108 26:3.44113e-07 27:0.707105 28:-2.28286e-06 29:0.706444 30:0.000130928 31:0.707769 32:-0.00078797 33:0.5 34:0.500002 35:0.5 36:0.499998 37:-0.0825101 38:0.778454 39:0.620037 40:-0.052497 41:-0.0493849 42:0.626985 43:0.77154 44:-0.0957981 45:0.5 46:0.500002 47:0.5 48:0.499998 49:0.501552 50:-0.505519 51:-0.393709 52:0.581282 53:0.531959 54:-0.467729 55:-0.435945 56:0.555158 57:0.5 58:0.500002 59:0.5 60:0.499998 
-0 0 0.0297808272428748 0 1:0.505642 2:0.267202 3:0.643985 4:0.508145 5:0.505642 6:0.267202 7:0.643985 8:0.508145 9:0.518504 10:0.285934 11:0.635123 12:0.495998 13:-0.22341 14:0.738833 15:0.601996 16:0.204485 17:-0.582002 18:0.704344 19:0.395748 20:-0.0924963 21:0.5 22:0.500002 23:0.5 24:0.499998 25:0.707108 26:2.4602e-07 27:0.707105 28:-2.35336e-06 29:0.706921 30:4.05184e-05 31:0.707293 32:-0.000220868 33:0.5 34:0.500002 35:0.5 36:0.499998 37:-0.113415 38:0.785017 39:0.593761 40:-0.135397 41:-0.092193 42:0.613657 43:0.771507 44:-0.140364 45:0.5 46:0.500002 47:0.5 48:0.499998 49:0.494016 50:-0.427924 51:-0.383341 52:0.652594 53:0.562003 54:-0.416513 55:-0.392901 56:0.596907 57:0.5 58:0.500002 59:0.5 60:0.499998 
-0.1986005408001968 0 0.15010284689558 0 1:0.524274 2:0.26947 3:0.615922 4:0.52265 5:0.524274 6:0.26947 7:0.615922 8:0.52265 9:0.533326 10:0.287191 11:0.605544 12:0.51614 13:-0.166624 14:0.689728 15:0.699104 16:-0.0881226 17:0.565185 18:-0.485399 19:-0.443932 20:0.497873 21:0.5 22:0.500002 23:0.5 24:0.499998 25:0.707108 26:2.45523e-07 27:0.707105 28:-2.35286e-06 29:0.706971 30:3.141e-05 31:0.707242 32:-0.000159844 33:0.5 34:0.500002 35:0.5 36:0.499998 37:-0.10984 38:0.773736 39:0.614336 40:-0.108896 41:-0.079587 42:0.613122 43:0.774293 44:-0.134972 45:0.5 46:0.500002 47:0.5 48:0.499998 49:0.512285 50:-0.4493 51:-0.392079 52:0.618035 53:0.54802 54:-0.435236 55:-0.406497 56:0.587369 57:0.5 58:0.500002 59:0.5 60:0.499998 
-0.2080472054016444 0.200796518210699 0 0 1:0.544861 2:0.37043 3:0.509866 4:0.553122 5:0.544861 6:0.37043 7:0.509866 8:0.553122 9:0.548919 10:0.376267 11:0.505221 12:0.54942 13:-0.15164 14:0.686091 15:0.690066 16:-0.173474 17:-0.477287 18:0.506555 19:0.520943 20:-0.494183 21:0.5 22:0.500002 23:0.5 24:0.499998 25:0.707108 26:2.45003e-07 27:0.707105 28:-2.35234e-06 29:0.707101 30:8.84829e-06 31:0.707113 32:-3.62213e-06 33:0.5 34:0.500002 35:0.5 36:0.499998 37:-0.141427 38:0.736806 39:0.657058 40:-0.0734226 41:-0.0898388 42:0.604162 43:0.778188 44:-0.146082 45:0.5 46:0.500002 47:0.5 48:0.499998 49:0.565252 50:-0.452667 51:-0.411704 52:0.553247 53:0.547639 54:-0.447391 55:-0.417788 56:0.570426 57:0.5 58:0.500002 59:0.5 60:0.499998 
-0 0.04670327745299079 0 0 1:0.518571 2:0.383547 3:0.536614 4:0.544079 5:0.518571 6:0.383547 7:0.536614 8:0.544079 9:0.525641 10:0.390454 11:0.531623 12:0.537237 13:-0.19709 14:0.730609 15:0.647614 16:-0.0892319 17:-0.534186 18:0.54578 19:0.415805 20:-0.493837 21:0.5 22:0.500002 23:0.5 24:0.499998 25:0.707108 26:2.45002e-07 27:0.707105 28:-2.35234e-06 29:0.707104 30:8.49504e-06 31:0.707109 32:6.50758e-07 33:0.5 34:0.500002 35:0.5 36:0.499998 37:-0.159175 38:0.736125 39:0.649529 40:-0.104376 41:-0.113433 42:0.605291 43:0.770778 44:-0.163271 45:0.5 46:0.500002 47:0.5 48:0.499998 49:0.573647 50:-0.423325 51:-0.399623 52:0.576218 53:0.557371 54:-0.42669 55:-0.396152 56:0.591893 57:0.5 58:0.500002 59:0.5 60:0.499998 
-0 0.5 0.1564744583535481 0.2290814403851669 1:0.517286 2:0.390256 3:0.53717 4:0.539966 5:0.517286 6:0.390256 7:0.53717 8:0.539966 9:0.522905 10:0.39592 11:0.532997 12:0.534539 13:-0.199942 14:0.730486 15:0.647507 16:-0.0845505 17:-0.540713 18:0.543275 19:0.408498 20:-0.495591 21:0.5 22:0.500002 23:0.5 24:0.499998 25:0.707108 26:2.45002e-07 27:0.707105 28:-2.35234e-06 29:0.707105 30:8.35482e-06 31:0.707109 32:1.50746e-06 33:0.5 34:0.500002 35:0.5 36:0.499998 37:-0.17372 38:0.737723 39:0.644726 40:-0.099577 41:-0.115353 42:0.596431 43:0.773733 44:-0.179726 45:0.5 46:0.500002 47:0.5 48:0.499998 49:0.577144 50:-0.421002 51:-0.394728 52:0.577799 53:0.559219 54:-0.421726 55:-0.393957 56:0.595164 57:0.5 58:0.500002 59:0.5 60:0.499998 
-0.03126320994510288 0 0 0 1:0.55798 2:0.361062 3:0.504645 4:0.551022 5:0.55798 6:0.361062 7:0.504645 8:0.551022 9:0.564985 10:0.365149 11:0.502071 12:0.543491 13:-0.034986 14:0.558707 15:0.779456 16:-0.281197 17:0.471112 18:-0.300476 19:-0.621955 20:0.548579 21:0.5 22:0.500002 23:0.5 24:0.499998 25:0.707108 26:2.45002e-07 27:0.707105 28:-2.35234e-06 29:0.707108 30:7.87207e-06 31:0.707106 32:4.85618e-06 33:0.5 34:0.500002 35:0.5 36:0.499998 37:-0.126223 38:0.756445 39:0.637949 40:-0.0698526 41:-0.0798769 42:0.613777 43:0.774002 44:-0.133483 45:0.5 46:0.500002 47:0.5 48:0.499998 49:0.549372 50:-0.471958 51:-0.405133 52:0.557954 53:0.534496 54:-0.461387 55:-0.417258 56:0.57213 57:0.5 58:0.500002 59:0.5 60:0.499998 
-0 0.06222509112794294 0 0 1:0.556152 2:0.386693 3:0.49452 4:0.544622 5:0.556152 6:0.386693 7:0.49452 8:0.544622 9:0.561721 10:0.389061 11:0.492964 12:0.538597 13:-0.0446761 14:0.570152 15:0.773444 16:-0.273341 17:0.472781 18:-0.31695 19:-0.61375 20:0.547112 21:0.5 22:0.500002 23:0.5 24:0.499998 25:0.707108 26:2.45002e-07 27:0.707105 28:-2.35234e-06 29:0.707108 30:7.83231e-06 31:0.707106 32:4.89594e-06 33:0.5 34:0.500002 35:0.5 36:0.499998 37:-0.14664 38:0.749223 39:0.641583 40:-0.0743907 41:-0.0922335 42:0.607555 43:0.774222 44:-0.151494 45:0.5 46:0.500002 47:0.5 48:0.499998 49:0.564546 50:-0.465495 51:-0.394466 52:0.555876 53:0.545383 54:-0.450759 55:-0.411346 56:0.574603 57:0.5 58:0.500002 59:0.5 60:0.499998 
-0 0.5 0 0 1:0.541725 2:0.388081 3:0.509213 4:0.544636 5:0.541725 6:0.388081 7:0.509213 8:0.544636 9:0.549378 10:0.393523 11:0.50525 12:0.536699 13:-0.049632 14:0.584612 15:0.763847 16:-0.268894 17:0.476431 18:-0.326835 19:-0.599115 20:0.554305 21:0.5 22:0.500002 23:0.5 24:0.499998 25:0.707108 26:2.45002e-07 27:0.707105 28:-2.35234e-06 29:0.707108 30:7.81536e-06 31:0.707106 32:4.91289e-06 33:0.5 34:0.500002 35:0.5 36:0.499998 37:-0.15713 38:0.743043 39:0.64511 40:-0.0838508 41:-0.107202 42:0.60872 43:0.770886 44:-0.153955 45:0.5 46:0.500002 47:0.5 48:0.499998 49:0.5748 50:-0.45512 51:-0.38808 52:0.558448 53:0.549482 54:-0.441043 55:-0.404224 56:0.583227 57:0.5 58:0.500002 59:0.5 60:0.499998 
-0 0.3430884162097186 0 0 1:0.547023 2:0.395744 3:0.499903 4:0.542448 5:0.547023 6:0.395744 7:0.499903 8:0.542448 9:0.553378 10:0.397593 11:0.498884 12:0.535544 13:-0.0637583 14:0.594863 15:0.760745 16:-0.251673 17:0.48819 18:-0.343287 19:-0.586914 20:0.547134 21:0.5 22:0.500002 23:0.5 24:0.499998 25:0.707108 26:2.45002e-07 27:0.707105 28:-2.35234e-06 29:0.707108 30:7.8001e-06 31:0.707106 32:4.92814e-06 33:0.5 34:0.500002 35:0.5 36:0.499998 37:-0.157495 38:0.743296 39:0.644935 40:-0.082252 41:-0.103431 42:0.602341 43:0.77533 44:-0.159218 45:0.5 46:0.500002 47:0.5 48:0.499998 49:0.575302 50:-0.450763 51:-0.394515 52:0.556954 53:0.546953 54:-0.439762 55:-0.40689 56:0.584715 57:0.5 58:0.500002 59:0.5 60:0.499998 
-0 0.5 0 0.1600280679397957 1:0.55379 2:0.376323 3:0.497461 4:0.551571 5:0.55379 6:0.376323 7:0.497461 8:0.551571 9:0.560351 10:0.380831 11:0.494213 12:0.544727 13:-0.0663235 14:0.603878 15:0.757885 16:-0.237789 17:0.496381 18:-0.35139 19:-0.576536 20:0.545653 21:0.5 22:0.500002 23:0.5 24:0.499998 25:0.707108 26:2.45002e-07 27:0.707105 28:-2.35234e-06 29:0.707108 30:7.78638e-06 31:0.707106 32:4.94187e-06 33:0.5 34:0.500002 35:0.5 36:0.499998 37:-0.232958 38:0.657236 39:0.711532 40:-0.086561 41:-0.146389 42:0.585578 43:0.76519 44:-0.223949 45:0.5 46:0.500002 47:0.5 48:0.499998 49:0.645076 50:-0.364128 51:-0.423344 52:0.521601 53:0.580468 54:-0.425095 55:-0.362696 56:0.592286 57:0.5 58:0.500002 59:0.5 60:0.499998 
-0 0 0 0.1034851133452326 1:0.431474 2:0.491407 3:0.449613 4:0.608439 5:0.431474 6:0.491407 7:0.449613 8:0.608439 9:0.448383 10:0.50003 11:0.440547 12:0.595685 13:0.552818 14:0.584482 15:0.584088 16:0.107771 17:-0.293034 18:0.34643 19:0.748931 20:-0.482928 21:0.5 22:0.500002 23:0.5 24:0.499998 25:0.556796 26:-0.148164 27:0.726914 28:0.373659 29:0.708812 30:-0.205985 31:0.577465 32:0.34884 33:0.5 34:0.500002 35:0.5 36:0.499998 37:-0.230475 38:0.654182 39:0.715154 40:-0.0864957 41:-0.145945 42:0.59121 43:0.762771 44:-0.217605 45:0.5 46:0.500002 47:0.5 48:0.499998 49:0.643715 50:-0.364291 51:-0.425525 52:0.521394 53:0.579348 54:-0.429206 55:-0.361889 56:0.59091 57:0.5 58:0.500002 59:0.5 60:0.499998 
-0.09267730282217188 0 0 0 1:0.436665 2:0.488026 3:0.449758 4:0.607348 5:0.436665 6:0.488026 7:0.449758 8:0.607348 9:0.452925 10:0.497041 11:0.440186 12:0.595017 13:0.563492 14:0.586374 15:0.57011 16:0.11669 17:-0.289593 18:0.34643 19:0.747453 20:-0.487275 21:0.5 22:0.500002 23:0.5 24:0.499998 25:0.561122 26:-0.15285 27:0.721856 28:0.375103 29:0.706461 30:-0.212575 31:0.578741 32:0.34754 33:0.5 34:0.500002 35:0.5 36:0.499998 37:-0.225563 38:0.658496 39:0.712907 40:-0.0852524 41:-0.143109 42:0.59221 43:0.763709 44:-0.213436 45:0.5 46:0.500002 47:0.5 48:0.499998 49:0.640866 50:-0.37101 51:-0.42395 52:0.521449 53:0.578152 54:-0.427507 55:-0.367649 56:0.589755 57:0.5 58:0.500002 59:0.5 60:0.499998 
-0 0.3044951212725865 0 0 1:0.43575 2:0.48705 3:0.449928 4:0.608661 5:0.43575 6:0.48705 7:0.449928 8:0.608661 9:0.452521 10:0.497038 11:0.439202 12:0.596053 13:0.569261 14:0.581673 15:0.568237 16:0.121267 17:-0.28835 18:0.34687 19:0.75087 20:-0.482421 21:0.5 22:0.500002 23:0.5 24:0.499998 25:0.57361 26:-0.155966 27:0.709972 28:0.377607 29:0.695782 30:-0.221563 31:0.5906 32:0.343495 33:0.5 34:0.500002 35:0.5 36:0.499998 37:-0.227181 38:0.660132 39:0.711226 40:-0.0822993 41:-0.1433 42:0.586773 43:0.767046 44:-0.216339 45:0.5 46:0.500002 47:0.5 48:0.499998 49:0.639495 50:-0.371757 51:-0.42429 52:0.522323 53:0.578787 54:-0.429673 55:-0.367358 56:0.587737 57:0.5 58:0.500002 59:0.5 60:0.499998 
-0 0 0 0.01779009588584373 1:0.436489 2:0.484637 3:0.449193 4:0.610598 5:0.436489 6:0.484637 7:0.449193 8:0.610598 9:0.452648 10:0.494894 11:0.438095 12:0.59855 13:0.569668 14:0.574897 15:0.573985 16:0.124554 17:-0.28852 18:0.350212 19:0.755471 20:-0.472621 21:0.5 22:0.500002 23:0.5 24:0.499998 25:0.5591 26:-0.152678 27:0.720539 28:0.380682 29:0.686357 30:-0.222979 31:0.600685 32:0.344051 33:0.5 34:0.500002 35:0.5 36:0.499998 37:-0.232194 38:0.661233 39:0.709606 40:-0.0729089 41:-0.138975 42:0.583905 43:0.767594 44:-0.22481 45:0.5 46:0.500002 47:0.5 48:0.499998 49:0.638643 50:-0.371595 51:-0.427009 52:0.521264 53:0.577765 54:-0.430795 55:-0.368931 56:0.586935 57:0.5 58:0.500002 59:0.5 60:0.499998 
-0.0661637339344319 0.1815070614983931 0.00841782158252633 0.08064564077217139 1:0.430615 2:0.469582 3:0.446708 4:0.628105 5:0.430615 6:0.469582 7:0.446708 8:0.628105 9:0.452291 10:0.480759 11:0.435454 12:0.612114 13:0.537378 14:0.587571 15:0.600015 16:0.077252 17:0.320229 18:-0.315939 19:-0.739084 20:0.501388 21:0.5 22:0.500002 23:0.5 24:0.499998 25:0.544507 26:-0.174058 27:0.728558 28:0.377385 29:0.702762 30:-0.226025 31:0.575432 32:0.352017 33:0.5 34:0.500002 35:0.5 36:0.499998 37:-0.206477 38:0.660419 39:0.716839 40:-0.0857689 41:-0.135734 42:0.590141 43:0.771131 44:-0.196637 45:0.5 46:0.500002 47:0.5 48:0.499998 49:0.632541 50:-0.380612 51:-0.43134 52:0.518626 53:0.58036 54:-0.43339 55:-0.381067 56:0.574581 57:0.5 58:0.500002 59:0.5 60:0.499998 
-0.02456967775151642 0.1727330083539851 0.09346011055129443 0.0292366003010742 1:0.468963 2:0.411364 3:0.317671 4:0.7141 5:0.468963 6:0.411364 7:0.317671 8:0.7141 9:0.494543 10:0.414185 11:0.314983 12:0.696178 13:0.304427 14:0.691557 15:0.652012 16:-0.0628715 17:0.373025 18:-0.331906 19:-0.615343 20:0.609954 21:0.5 22:0.500002 23:0.5 24:0.499998 25:0.479048 26:-0.183653 27:0.712031 28:0.47937 29:0.681161 30:-0.326979 31:0.522012 32:0.395738 33:0.5 34:0.500002 35:0.5 36:0.499998 37:-0.0807054 38:0.650657 39:0.755057 40:-0.00453359 41:0.000785396 42:0.608704 43:0.784384 44:-0.119249 45:0.5 46:0.500002 47:0.5 48:0.499998 49:0.56414 50:-0.473199 51:-0.508109 52:0.446826 53:-0.515269 54:0.521489 55:0.465629 56:-0.495718 57:0.5 58:0.500002 59:0.5 60:0.499998 
-0.0344587560397096 0 0 0 1:0.4847 2:0.434609 3:0.275377 4:0.707353 5:0.4847 6:0.434609 7:0.275377 8:0.707353 9:0.504567 10:0.431565 11:0.278949 12:0.693795 13:0.285191 14:0.702252 15:0.641127 16:-0.120272 17:0.334205 18:-0.332925 19:-0.616997 20:0.629907 21:0.5 22:0.500002 23:0.5 24:0.499998 25:0.479737 26:-0.162296 27:0.710972 28:0.487884 29:0.691977 30:-0.317781 31:0.506751 32:0.40421 33:0.5 34:0.500002 35:0.5 36:0.499998 37:-0.0881825 38:0.628699 39:0.771595 40:0.040047 41:0.0216491 42:0.609731 43:0.784708 44:-0.109512 45:0.5 46:0.500002 47:0.5 48:0.499998 49:0.580019 50:-0.495188 51:-0.508566 52:0.399659 53:-0.503113 54:0.529104 55:0.478657 56:-0.487661 57:0.5 58:0.500002 59:0.5 60:0.499998 
-0 0 0.05466326121001063 0 1:0.479689 2:0.415311 3:0.245123 4:0.733028 5:0.479689 6:0.415311 7:0.245123 8:0.733028 9:0.501538 10:0.412224 11:0.248691 12:0.718807 13:0.294254 14:0.715255 15:0.613339 16:-0.160124 17:0.310827 18:-0.304691 19:-0.605109 20:0.666628 21:0.5 22:0.500002 23:0.5 24:0.499998 25:0.363895 26:-0.167088 27:0.730912 28:0.552657 29:0.599612 30:-0.352352 31:0.554182 32:0.457379 33:0.5 34:0.500002 35:0.5 36:0.499998 37:-0.0598063 38:0.613468 39:0.785795 40:0.0510527 41:0.0454451 42:0.613296 43:0.784033 44:-0.0842336 45:0.5 46:0.500002 47:0.5 48:0.499998 49:0.571081 50:-0.519785 51:-0.513268 52:0.374496 53:-0.490485 54:0.525521 55:0.507044 56:-0.47556 57:0.5 58:0.500002 59:0.5 60:0.499998 
-0.07395693116748067 0.1380170679858662 0.01424164710473435 0.07620107125577369 1:0.476944 2:0.416803 3:0.244123 4:0.734305 5:0.476944 6:0.416803 7:0.244123 8:0.734305 9:0.502103 10:0.413028 11:0.248559 12:0.717996 13:0.305281 14:0.709999 15:0.613371 16:-0.16273 17:0.31025 18:-0.292851 19:-0.610872 20:0.666947 21:0.5 22:0.500002 23:0.5 24:0.499998 25:0.381779 26:-0.161011 27:0.72957 28:0.544103 29:0.605315 30:-0.334957 31:0.558231 32:0.458013 33:0.5 34:0.500002 35:0.5 36:0.499998 37:-0.0641742 38:0.61453 39:0.784208 40:0.0570309 41:0.0509105 42:0.609302 43:0.785745 44:-0.0936197 45:0.5 46:0.500002 47:0.5 48:0.499998 49:0.570848 50:-0.51526 51:-0.517234 52:0.375644 53:-0.490693 54:0.537157 55:0.498243 56:-0.471632 57:0.5 58:0.500002 59:0.5 60:0.499998 
-0.16119910168724 0 0 0 1:0.4286 2:0.397891 3:0.277057 4:0.76238 5:0.4286 6:0.397891 7:0.277057 8:0.76238 9:0.45513 10:0.401174 11:0.273524 12:0.746392 13:0.281982 14:0.711696 15:0.616275 16:-0.184876 17:0.286749 18:-0.32027 19:-0.614071 20:0.661906 21:0.5 22:0.500002 23:0.5 24:0.499998 25:0.399772 26:-0.178041 27:0.70039 28:0.56386 29:0.660683 30:-0.401877 31:0.462451 32:0.433741 33:0.5 34:0.500002 35:0.5 36:0.499998 37:-0.0845519 38:0.598362 39:0.796696 40:0.00939407 41:0.022455 42:0.60421 43:0.785617 44:-0.131275 45:0.5 46:0.500002 47:0.5 48:0.499998 49:0.585436 50:-0.480876 51:-0.508395 52:0.409339 53:0.51203 54:-0.509091 55:-0.481519 56:0.496781 57:0.5 58:0.500002 59:0.5 60:0.499998 
-0 0 0 0.09516171906875116 1:0.323063 2:0.493207 3:0.459358 4:0.664355 5:0.323063 6:0.493207 7:0.459358 8:0.664355 9:0.356663 10:0.504964 11:0.451234 12:0.643577 13:0.125369 14:0.750884 15:0.564177 16:-0.319625 17:0.326015 18:-0.280106 19:-0.477208 20:0.766503 21:0.5 22:0.500002 23:0.5 24:0.499998 25:0.492733 26:-0.185913 27:0.74814 28:0.403655 29:0.696291 30:-0.299501 31:0.56363 32:0.32833 33:0.5 34:0.500002 35:0.5 36:0.499998 37:-0.258109 38:0.619053 39:0.729657 40:-0.133244 41:-0.17718 42:0.550175 43:0.772052 44:-0.264294 45:0.5 46:0.500002 47:0.5 48:0.499998 49:0.675993 50:-0.310761 51:-0.403662 52:0.532465 53:0.596395 54:-0.368862 55:-0.336488 56:0.628514 57:0.5 58:0.500002 59:0.5 60:0.499998 
-0 0 0 0.1331031217709724 1:0.312047 2:0.505435 3:0.469666 4:0.653128 5:0.312047 6:0.505435 7:0.469666 8:0.653128 9:0.345241 10:0.516959 11:0.462078 12:0.632492 13:0.144967 14:0.737133 15:0.575124 16:-0.323809 17:0.328221 18:-0.255972 19:-0.494017 20:0.763345 21:0.5 22:0.500002 23:0.5 24:0.499998 25:0.474129 26:-0.238713 27:0.720124 28:0.44681 29:0.689166 30:-0.375384 31:0.518099 32:0.340162 33:0.5 34:0.500002 35:0.5 36:0.499998 37:-0.281097 38:0.621288 39:0.718605 40:-0.136354 41:-0.184792 42:0.536729 43:0.767129 44:-0.298809 45:0.5 46:0.500002 47:0.5 48:0.499998 49:0.676183 50:-0.285833 51:-0.400493 52:0.548344 53:0.603388 54:-0.3593 55:-0.320539 56:0.635673 57:0.5 58:0.500002 59:0.5 60:0.499998 
-0 0.4931963845818881 0 0 1:0.307629 2:0.506451 3:0.469058 4:0.654871 5:0.307629 6:0.506451 7:0.469058 8:0.654871 9:0.340888 10:0.517192 11:0.462782 12:0.634145 13:0.145695 14:0.734994 15:0.577601 16:-0.323936 17:0.327538 18:-0.257547 19:-0.497563 20:0.760802 21:0.5 22:0.500002 23:0.5 24:0.499998 25:0.475881 26:-0.256553 27:0.707364 28:0.455361 29:0.679938 30:-0.390616 31:0.514306 32:0.347264 33:0.5 34:0.500002 35:0.5 36:0.499998 37:-0.275279 38:0.618443 39:0.720951 40:-0.148252 41:-0.190633 42:0.549456 43:0.762246 44:-0.284145 45:0.5 46:0.500002 47:0.5 48:0.499998 49:0.673211 50:-0.284038 51:-0.398993 52:0.553998 53:0.606817 54:-0.361915 55:-0.317883 56:0.63225 57:0.5 58:0.500002 59:0.5 60:0.499998 
-0 0.3101492766203495 0.09388549529696666 0 1:0.306446 2:0.506718 3:0.46401 4:0.658804 5:0.306446 6:0.506718 7:0.46401 8:0.658804 9:0.339932 10:0.516011 11:0.459878 12:0.637723 13:0.15163 14:0.736718 15:0.581631 16:-0.309775 17:0.323251 18:-0.273985 19:-0.506749 20:0.750764 21:0.5 22:0.500002 23:0.5 24:0.499998 25:0.460945 26:-0.282044 27:0.688218 28:0.484083 29:0.665112 30:-0.428097 31:0.493701 32:0.361412 33:0.5 34:0.500002 35:0.5 36:0.499998 37:-0.270005 38:0.618822 39:0.722096 40:-0.150778 41:-0.191451 42:0.555046 43:0.76151 44:-0.27454 45:0.5 46:0.500002 47:0.5 48:0.499998 49:0.67187 50:-0.280989 51:-0.404785 52:0.552978 53:0.6063 54:-0.36808 55:-0.316815 56:0.629719 57:0.5 58:0.500002 59:0.5 60:0.499998 
-0.0453949450917217 0 0.06825498668429464 0 1:0.391102 2:0.403093 3:0.314698 4:0.765193 5:0.391102 6:0.403093 7:0.314698 8:0.765193 9:0.420202 10:0.405761 11:0.31515 12:0.747977 13:0.283106 14:0.741599 15:0.583749 16:-0.170641 17:0.280831 18:-0.327851 19:-0.584847 20:0.686732 21:0.5 22:0.500002 23:0.5 24:0.499998 25:0.390156 26:-0.391566 27:0.612954 28:0.564572 29:0.631808 30:-0.610394 31:0.358821 32:0.315414 33:0.5 34:0.500002 35:0.5 36:0.499998 37:-0.102648 38:0.587847 39:0.800915 40:-0.0493388 41:-0.0286369 42:0.596478 43:0.788246 44:-0.148532 45:0.5 46:0.500002 47:0.5 48:0.499998 49:0.603754 50:-0.421185 51:-0.510354 52:0.444548 53:0.536045 54:-0.486028 55:-0.452955 56:0.520831 57:0.5 58:0.500002 59:0.5 60:0.499998 
-0.08997281163217698 0.1267535154190683 0.1091445192484047 0.03997703552093318 1:0.394254 2:0.400588 3:0.322135 4:0.761788 5:0.394254 6:0.400588 7:0.322135 8:0.761788 9:0.420705 10:0.403557 11:0.321954 12:0.745986 13:0.24341 14:0.73479 15:0.599688 16:-0.203001 17:0.290146 18:-0.332131 19:-0.578523 20:0.68616 21:0.5 22:0.500002 23:0.5 24:0.499998 25:0.392472 26:-0.437354 27:0.577277 28:0.566955 29:-0.620024 30:0.654574 31:-0.320707 32:-0.290257 33:0.5 34:0.500002 35:0.5 36:0.499998 37:-0.111939 38:0.590867 39:0.797684 40:-0.0452421 41:-0.0264099 42:0.587098 43:0.792076 44:-0.165028 45:0.5 46:0.500002 47:0.5 48:0.499998 49:0.606798 50:-0.418865 51:-0.507335 52:0.446049 53:0.540215 54:-0.481303 55:-0.452016 56:0.521725 57:0.5 58:0.500002 59:0.5 60:0.499998 
-0 0.5 0 0 1:0.373778 2:0.447209 3:0.338482 4:0.738731 5:0.373778 6:0.447209 7:0.338482 8:0.738731 9:0.40056 10:0.449088 11:0.339885 12:0.722737 13:0.382091 14:0.701537 15:0.585272 16:-0.138957 17:0.277836 18:-0.270632 19:-0.64136 20:0.661984 21:0.5 22:0.500002 23:0.5 24:0.499998 25:0.463599 26:-0.564538 27:0.435005 28:0.526444 29:-0.537176 30:0.689405 31:-0.319657 32:-0.366036 33:0.5 34:0.500002 35:0.5 36:0.499998 37:-0.145496 38:0.579678 39:0.799311 40:-0.0624994 41:-0.0562099 42:0.593278 43:0.781798 44:-0.183451 45:0.5 46:0.500002 47:0.5 48:0.499998 49:0.629131 50:-0.381613 51:-0.497991 52:0.45888 53:0.553285 54:-0.47066 55:-0.419916 56:0.544082 57:0.5 58:0.500002 59:0.5 60:0.499998 
-0.1636377499159794 0.2413860162254161 0.07250847941115823 0.1063389649492916 1:0.375373 2:0.444028 3:0.33497 4:0.741438 5:0.375373 6:0.444028 7:0.33497 8:0.741438 9:0.400859 10:0.445748 11:0.336376 12:0.726273 13:0.390002 14:0.694076 15:0.589867 16:-0.134959 17:0.281709 18:-0.265426 19:-0.648601 20:0.655367 21:0.5 22:0.500002 23:0.5 24:0.499998 25:0.478999 26:-0.580376 27:0.413057 28:0.512939 29:-0.519042 30:0.685245 31:-0.334866 32:-0.385874 33:0.5 34:0.500002 35:0.5 36:0.499998 37:-0.143271 38:0.57444 39:0.803734 40:-0.0591962 41:-0.0573398 42:0.59756 43:0.780938 44:-0.172539 45:0.5 46:0.500002 47:0.5 48:0.499998 49:0.632385 50:-0.381601 51:-0.501896 52:0.450078 53:0.549771 54:-0.47151 55:-0.422135 56:0.54519 57:0.5 58:0.500002 59:0.5 60:0.499998 
-0 0.09779367417367181 0.0185333169718762 0.0227157338653001 1:0.239518 2:0.434915 3:0.38007 4:0.780402 5:0.239518 6:0.434915 7:0.38007 8:0.780402 9:0.266071 10:0.438283 11:0.386363 12:0.766706 13:0.362469 14:0.765904 15:0.522176 16:-0.0966448 17:0.220546 18:-0.359326 19:-0.596163 20:0.683253 21:0.5 22:0.500002 23:0.5 24:0.499998 25:-0.518626 26:0.564986 27:-0.47385 28:-0.432763 29:-0.523416 30:0.60032 31:-0.459904 32:-0.392608 33:0.5 34:0.500002 35:0.5 36:0.499998 37:-0.174731 38:0.523357 39:0.813405 40:-0.184223 41:-0.143797 42:0.580287 43:0.769392 44:-0.225001 45:0.5 46:0.500002 47:0.5 48:0.499998 49:0.661316 50:-0.253964 51:-0.495538 52:0.502598 53:0.590215 54:-0.410976 55:-0.364387 56:0.59158 57:0.5 58:0.500002 59:0.5 60:0.499998 
-0.06618786863668832 0.3410342079720732 0.08023785344458659 0.09689837802339364 1:0.412797 2:0.430158 3:0.288386 4:0.749264 5:0.412797 6:0.430158 7:0.288386 8:0.749264 9:0.435271 10:0.429362 11:0.291408 12:0.73571 13:0.363945 14:0.59281 15:0.715608 16:-0.0634472 17:-0.316202 18:0.331137 19:0.737948 20:-0.49578 21:0.5 22:0.500002 23:0.5 24:0.499998 25:-0.504228 26:0.655565 27:-0.305418 28:-0.47192 29:0.445629 30:-0.640336 31:0.370614 32:0.504013 33:0.5 34:0.500002 35:0.5 36:0.499998 37:-0.0804158 38:0.550412 39:0.830941 40:0.0108095 41:0.00494581 42:0.612797 43:0.785519 44:-0.0861086 45:0.5 46:0.500002 47:0.5 48:0.499998 49:0.610624 50:-0.411754 51:-0.562092 52:0.376365 53:-0.513327 54:0.529868 55:0.472145 56:-0.482508 57:0.5 58:0.500002 59:0.5 60:0.499998 
-0.03093857398909049 0.3233733885518223 0.08982265487237481 0.01161544120891937 1:0.430938 2:0.410105 3:0.261738 4:0.76 5:0.430938 6:0.410105 7:0.261738 8:0.76 9:0.447889 10:0.409719 11:0.263079 12:0.749877 13:0.330773 14:0.590309 15:0.735229 16:-0.0395313 17:-0.322057 18:0.3675 19:0.739088 20:-0.463651 21:0.5 22:0.500002 23:0.5 24:0.499998 25:-0.476306 26:0.667301 27:-0.293515 28:-0.491621 29:0.426137 30:-0.65493 31:0.347925 32:0.518094 33:0.5 34:0.500002 35:0.5 36:0.499998 37:-0.0565947 38:0.538655 39:0.839969 40:0.0331521 41:0.0281821 42:0.619318 43:0.782627 44:-0.0560872 45:0.5 46:0.500002 47:0.5 48:0.499998 49:0.600388 50:-0.441516 51:-0.569632 52:0.346579 53:-0.500521 54:0.543537 55:0.493976 56:-0.458294 57:0.5 58:0.500002 59:0.5 60:0.499998 
-0.1689888101781022 0 0.08572765089063702 0.1082035270901528 1:0.422919 2:0.429636 3:0.24767 4:0.758428 5:0.422919 6:0.429636 7:0.24767 8:0.758428 9:0.434377 10:0.428933 11:0.248995 12:0.751887 13:0.346865 14:0.590178 15:0.726538 16:-0.0593037 17:-0.279944 18:0.368381 19:0.754854 20:-0.46489 21:0.5 22:0.500002 23:0.5 24:0.499998 25:-0.478221 26:0.665222 27:-0.290912 28:-0.49412 29:0.43085 30:-0.662724 31:0.339516 32:0.509798 33:0.5 34:0.500002 35:0.5 36:0.499998 37:-0.0549777 38:0.512956 39:0.856049 40:0.0321621 41:0.0243505 42:0.623759 43:0.780063 44:-0.0428256 45:0.5 46:0.500002 47:0.5 48:0.499998 49:0.612442 50:-0.425498 51:-0.578714 52:0.330085 53:-0.496805 54:0.540631 55:0.493401 56:-0.466324 57:0.5 58:0.500002 59:0.5 60:0.499998 
-0.131404865925275 0.0785275086431562 0 0 1:0.402236 2:0.44839 3:0.300304 4:0.739574 5:0.402236 6:0.44839 7:0.300304 8:0.739574 9:0.418921 10:0.448627 11:0.30131 12:0.729693 13:0.35165 14:0.599543 15:0.715829 16:-0.0669243 17:-0.277655 18:0.36385 19:0.747648 20:-0.48119 21:0.5 22:0.500002 23:0.5 24:0.499998 25:-0.522363 26:0.650291 27:-0.308863 28:-0.457013 29:-0.460314 30:0.631962 31:-0.379701 32:-0.494532 33:0.5 34:0.500002 35:0.5 36:0.499998 37:-0.0938458 38:0.538505 39:0.837372 40:-0.00367093 41:-0.0176129 42:0.617757 43:0.781595 44:-0.0847024 45:0.5 46:0.500002 47:0.5 48:0.499998 49:0.628097 50:-0.407764 51:-0.546587 52:0.374787 53:0.524167 54:-0.515931 55:-0.461488 56:0.496077 57:0.5 58:0.500002 59:0.5 60:0.499998 
-0 0 0 0.0651210956046806 1:0.392484 2:0.490887 3:0.387603 4:0.674351 5:0.392484 6:0.490887 7:0.387603 8:0.674351 9:0.412346 10:0.49391 11:0.385669 12:0.661274 13:0.363645 14:0.524397 15:0.762142 16:-0.109131 17:-0.294264 18:0.286556 19:0.791522 20:-0.452534 21:0.5 22:0.500002 23:0.5 24:0.499998 25:-0.57639 26:0.584345 27:-0.361004 28:-0.44271 29:-0.539091 30:0.590647 31:-0.400183 32:-0.447628 33:0.5 34:0.500002 35:0.5 36:0.499998 37:-0.146232 38:0.576985 39:0.800184 40:-0.0735523 41:-0.086874 42:0.608339 43:0.775114 44:-0.146883 45:0.5 46:0.500002 47:0.5 48:0.499998 49:0.642555 50:-0.33872 51:-0.51069 52:0.459987 53:0.562404 54:-0.460957 55:-0.408345 56:0.551792 57:0.5 58:0.500002 59:0.5 60:0.499998 
-0 0.2152786069732498 0.07722595818170341 0 1:0.393577 2:0.49264 3:0.390097 4:0.670989 5:0.393577 6:0.49264 7:0.390097 8:0.670989 9:0.413282 10:0.495241 11:0.388771 12:0.657869 13:0.361988 14:0.525586 15:0.762428 16:-0.106898 17:-0.295098 18:0.289287 19:0.790727 20:-0.451642 21:0.5 22:0.500002 23:0.5 24:0.499998 25:-0.578318 26:0.581399 27:-0.362613 28:-0.442758 29:-0.541925 30:0.589427 31:-0.400284 32:-0.445719 33:0.5 34:0.500002 35:0.5 36:0.499998 37:-0.152225 38:0.582943 39:0.795121 40:-0.0691921 41:-0.0849954 42:0.606608 43:0.775147 44:-0.154757 45:0.5 46:0.500002 47:0.5 48:0.499998 49:0.641942 50:-0.340531 51:-0.506661 52:0.463943 53:0.564488 54:-0.46003 55:-0.406595 56:0.55173 57:0.5 58:0.500002 59:0.5 60:0.499998 
-0 0.4061285921387724 0 0 1:0.532213 2:0.448434 3:0.438094 4:0.568973 5:0.532213 6:0.448434 7:0.438094 8:0.568973 9:0.53313 10:0.449859 11:0.436612 12:0.568128 13:0.400009 14:0.531756 15:0.744527 16:-0.0539186 17:-0.304588 18:0.305334 19:0.788387 20:-0.438683 21:0.5 22:0.500002 23:0.5 24:0.499998 25:0.60494 26:-0.586795 27:0.313734 28:0.437367 29:-0.55633 30:0.645885 31:-0.338763 32:-0.398207 33:0.5 34:0.500002 35:0.5 36:0.499998 37:-0.141159 38:0.676682 39:0.722564 40:-0.00879693 41:-0.0537634 42:0.592636 43:0.78863 44:-0.154771 45:0.5 46:0.500002 47:0.5 48:0.499998 49:0.592159 50:-0.441969 51:-0.453507 52:0.49834 53:0.555234 54:-0.460499 55:-0.435628 56:0.538409 57:0.5 58:0.500002 59:0.5 60:0.499998 
-0 0.5 0 0 1:0.533597 2:0.455536 3:0.449119 4:0.553221 5:0.533597 6:0.455536 7:0.449119 8:0.553221 9:0.534978 10:0.454593 11:0.4501 12:0.551864 13:0.419651 14:0.515137 15:0.745673 16:-0.0499844 17:-0.298049 18:0.294654 19:0.802061 20:-0.425492 21:0.5 22:0.500002 23:0.5 24:0.499998 25:0.618582 26:-0.579374 27:0.314514 28:0.427509 29:-0.560722 30:0.640898 31:-0.34986 32:-0.390434 33:0.5 34:0.500002 35:0.5 36:0.499998 37:-0.149366 38:0.67643 39:0.720937 40:-0.01955 41:-0.0650104 42:0.58968 43:0.788578 44:-0.161851 45:0.5 46:0.500002 47:0.5 48:0.499998 49:0.60066 50:-0.439291 51:-0.440254 52:0.502401 53:0.56251 54:-0.450809 55:-0.428745 56:0.544547 57:0.5 58:0.500002 59:0.5 60:0.499998 
-0 0.2444704749486309 0 0 1:0.539868 2:0.44793 3:0.452085 4:0.550927 5:0.539868 6:0.44793 7:0.452085 8:0.550927 9:0.54156 10:0.448071 11:0.451965 12:0.549247 13:0.424448 14:0.499802 15:0.752479 16:-0.0617743 17:-0.296418 18:0.277682 19:0.811491 20:-0.420132 21:0.5 22:0.500002 23:0.5 24:0.499998 25:0.616549 26:-0.584342 27:0.312201 28:0.425375 29:-0.556499 30:0.63429 31:-0.357527 32:-0.400198 33:0.5 34:0.500002 35:0.5 36:0.499998 37:-0.153415 38:0.680735 39:0.716261 40:-0.00577208 41:-0.057548 42:0.593649 43:0.785149 44:-0.166762 45:0.5 46:0.500002 47:0.5 48:0.499998 49:0.598508 50:-0.445774 51:-0.439634 52:0.499795 53:0.554086 54:-0.448051 55:-0.435832 56:0.549809 57:0.5 58:0.500002 59:0.5 60:0.499998 
-0.21031101732694 0.4108442879270538 0 0 1:0.544705 2:0.435515 3:0.448075 4:0.559332 5:0.544705 6:0.435515 7:0.448075 8:0.559332 9:0.543529 10:0.436687 11:0.446863 12:0.560531 13:0.459429 14:0.367134 15:0.801738 16:-0.106555 17:-0.285162 18:0.167738 19:0.878943 20:-0.343519 21:0.5 22:0.500002 23:0.5 24:0.499998 25:0.620673 26:-0.599478 27:0.28942 28:0.41428 29:-0.536838 30:0.620447 31:-0.381244 32:-0.426033 33:0.5 34:0.500002 35:0.5 36:0.499998 37:-0.119331 38:0.687927 39:0.715637 40:-0.0195179 41:-0.0514776 42:0.60387 43:0.784616 44:-0.130649 45:0.5 46:0.500002 47:0.5 48:0.499998 49:0.580547 50:-0.460008 51:-0.442689 52:0.505355 53:0.549356 54:-0.449776 55:-0.45131 56:0.540582 57:0.5 58:0.500002 59:0.5 60:0.499998 
-0 0 0.1308718731350767 0.09416728210441488 1:0.478775 2:0.46151 3:0.410209 4:0.624109 5:0.478775 6:0.46151 7:0.410209 8:0.624109 9:0.54523 10:0.434082 11:0.444091 12:0.563099 13:0.478629 14:0.294067 15:0.8168 16:-0.131441 17:-0.296969 18:0.0956001 19:0.89892 20:-0.307592 21:0.5 22:0.500002 23:0.5 24:0.499998 25:0.617617 26:-0.602761 27:0.287493 28:0.415424 29:-0.535484 30:0.621278 31:-0.378221 32:-0.429208 33:0.5 34:0.500002 35:0.5 36:0.499998 37:-0.121354 38:0.683727 39:0.719492 40:-0.0110839 41:-0.0459135 42:0.607229 43:0.782179 44:-0.131757 45:0.5 46:0.500002 47:0.5 48:0.499998 49:0.581339 50:-0.462578 51:-0.445001 52:0.50004 53:0.550293 54:-0.454008 55:-0.452181 56:0.535338 57:0.5 58:0.500002 59:0.5 60:0.499998 
-0 0.1423769347399525 0 0 1:0.484737 2:0.464584 3:0.485151 4:0.560197 5:0.484737 6:0.464584 7:0.485151 8:0.560197 9:0.495924 10:0.47088 11:0.479348 12:0.550052 13:0.240234 14:0.57108 15:0.780364 16:0.084776 17:-0.389233 18:0.460247 19:0.717759 20:-0.348558 21:0.5 22:0.500002 23:0.5 24:0.499998 25:0.657056 26:-0.557913 27:0.319816 28:0.393354 29:0.551754 30:-0.486711 31:0.472159 32:0.485536 33:0.5 34:0.500002 35:0.5 36:0.499998 37:-0.166653 38:0.676169 39:0.714294 40:-0.0693194 41:-0.11829 42:0.619655 43:0.762489 44:-0.143688 45:0.5 46:0.500002 47:0.5 48:0.499998 49:0.611028 50:-0.37611 51:-0.438462 52:0.541237 53:0.581361 54:-0.446655 55:-0.375531 56:0.567005 57:0.5 58:0.500002 59:0.5 60:0.499998 
-0 0.5 0 0 1:0.456353 2:0.500244 3:0.367069 4:0.637776 5:0.456353 6:0.500244 7:0.367069 8:0.637776 9:0.476063 10:0.499374 11:0.368196 12:0.623234 13:0.380068 14:0.465146 15:0.795068 16:-0.0839878 17:-0.278869 18:0.27627 19:0.835953 20:-0.383522 21:0.5 22:0.500002 23:0.5 24:0.499998 25:0.587161 26:-0.57932 27:0.312127 28:0.471389 29:0.493533 30:-0.511954 31:0.440742 32:0.547791 33:0.5 34:0.500002 35:0.5 36:0.499998 37:-0.138706 38:0.609593 39:0.780327 40:-0.0157253 41:-0.075812 42:0.626689 43:0.770076 44:-0.0921797 45:0.5 46:0.500002 47:0.5 48:0.499998 49:0.632444 50:-0.406369 51:-0.485717 52:0.446046 53:0.555792 54:-0.478733 55:-0.422598 56:0.532279 57:0.5 58:0.500002 59:0.5 60:0.499998 
-0.1493405770969392 0.4512165378939271 0.1137866550259814 0.06025422745871453 1:0.461138 2:0.501263 3:0.354107 4:0.640855 5:0.461138 6:0.501263 7:0.354107 8:0.640855 9:0.479358 10:0.499399 11:0.356279 12:0.6276 13:0.383929 14:0.46313 15:0.795653 16:-0.0710284 17:-0.272717 18:0.285498 19:0.840292 20:-0.371518 21:0.5 22:0.500002 23:0.5 24:0.499998 25:-0.576788 26:0.583346 27:-0.310435 28:-0.480264 29:0.487463 30:-0.512213 31:0.432755 32:0.559232 33:0.5 34:0.500002 35:0.5 36:0.499998 37:-0.128593 38:0.602584 39:0.787524 40:-0.0127181 41:-0.0674318 42:0.630264 43:0.768969 44:-0.0831123 45:0.5 46:0.500002 47:0.5 48:0.499998 49:0.630213 50:-0.408371 51:-0.494579 52:0.437557 53:0.551125 54:-0.483081 55:-0.429917 56:0.527319 57:0.5 58:0.500002 59:0.5 60:0.499998 
-0 0.03134695582293358 0 0 1:0.45056 2:0.491683 3:0.319993 4:0.67294 5:0.45056 6:0.491683 7:0.319993 8:0.67294 9:0.464984 10:0.489613 11:0.322752 12:0.663249 13:0.402968 14:0.524526 15:0.749876 16:-0.0132328 17:-0.254531 18:0.357203 19:0.812349 20:-0.384329 21:0.5 22:0.500002 23:0.5 24:0.499998 25:0.543253 26:-0.588305 27:0.317858 28:0.50768 29:0.478181 30:-0.560026 31:0.399789 32:0.545786 33:0.5 34:0.500002 35:0.5 36:0.499998 37:-0.112755 38:0.582081 39:0.805275 40:-0.000768566 41:-0.0402625 42:0.624537 43:0.775582 44:-0.0824954 45:0.5 46:0.500002 47:0.5 48:0.499998 49:0.628075 50:-0.409345 51:-0.514521 52:0.416205 53:0.54274 54:-0.491577 55:-0.445254 56:0.5153 57:0.5 58:0.500002 59:0.5 60:0.499998 
-0.213944814334092 0 0.04203536856582603 0 1:0.446646 2:0.490114 3:0.309004 4:0.681772 5:0.446646 6:0.490114 7:0.309004 8:0.681772 9:0.460237 10:0.487994 11:0.311888 12:0.672881 13:0.422131 14:0.531323 15:0.734477 16:0.00671399 17:-0.260422 18:0.361936 19:0.806121 20:-0.389039 21:0.5 22:0.500002 23:0.5 24:0.499998 25:0.536283 26:-0.594294 27:0.3145 28:0.510202 29:0.486537 30:-0.594365 31:0.37101 32:0.521885 33:0.5 34:0.500002 35:0.5 36:0.499998 37:-0.11074 38:0.576178 39:0.809768 40:0.00552233 41:-0.0319163 42:0.62322 43:0.776971 44:-0.0830269 45:0.5 46:0.500002 47:0.5 48:0.499998 49:0.629372 50:-0.406414 51:-0.522114 52:0.407572 53:0.538695 54:-0.49653 55:-0.447124 56:0.513171 57:0.5 58:0.500002 59:0.5 60:0.499998 
-0.03249961335481472 0.05547134481615065 0.02992338334061436 0.03201913802721407 1:0.410984 2:0.489406 3:0.274648 4:0.71843 5:0.410984 6:0.489406 7:0.274648 8:0.71843 9:0.419343 10:0.487962 11:0.277057 12:0.713642 13:0.506942 14:0.47794 15:0.704364 16:0.135847 17:-0.270042 18:0.391508 19:0.82474 20:-0.305945 21:0.5 22:0.500002 23:0.5 24:0.499998 25:-0.521613 26:0.622979 27:-0.304457 28:-0.497115 29:-0.475278 30:0.63454 31:-0.350348 32:-0.498724 33:0.5 34:0.500002 35:0.5 36:0.499998 37:-0.0983215 38:0.521377 39:0.847598 40:-0.00877565 41:-0.0248678 42:0.614986 43:0.783833 44:-0.0823413 45:0.5 46:0.500002 47:0.5 48:0.499998 49:0.643464 50:-0.370996 51:-0.551545 52:0.379624 53:0.538692 54:-0.502027 55:-0.451426 56:0.503979 57:0.5 58:0.500002 59:0.5 60:0.499998 
-0.1685202995831612 0.2523256466270042 0.1289708423195528 0.149867662612881 1:0.406641 2:0.491924 3:0.263972 4:0.723168 5:0.406641 6:0.491924 7:0.263972 8:0.723168 9:0.416801 10:0.490294 11:0.266611 12:0.717501 13:0.520894 14:0.466155 15:0.6991 16:0.150425 17:-0.274873 18:0.390247 19:0.827355 20:-0.296032 21:0.5 22:0.500002 23:0.5 24:0.499998 25:-0.514825 26:0.627502 27:-0.302375 28:-0.499765 29:0.470648 30:-0.639625 31:0.345296 32:0.500141 33:0.5 34:0.500002 35:0.5 36:0.499998 37:-0.0949624 38:0.517679 39:0.850285 40:-0.00251063 41:-0.016929 42:0.615839 43:0.783611 44:-0.0800577 45:0.5 46:0.500002 47:0.5 48:0.499998 49:0.643582 50:-0.375681 51:-0.554101 52:0.370996 53:0.53428 54:-0.502033 55:-0.456065 56:0.504493 57:0.5 58:0.500002 59:0.5 60:0.499998 
-0.07447983344470895 0.05685609126464777 0.06350820845733647 0.0782224716231875 1:0.412945 2:0.487568 3:0.250778 4:0.72723 5:0.412945 6:0.487568 7:0.250778 8:0.72723 9:0.422671 10:0.485009 11:0.254899 12:0.721902 13:0.528666 14:0.459575 15:0.691157 16:0.177778 17:-0.298874 18:0.396863 19:0.817227 20:-0.292087 21:0.5 22:0.500002 23:0.5 24:0.499998 25:0.499454 26:-0.627877 27:0.303957 28:0.513737 29:-0.467399 30:0.657727 31:-0.326948 32:-0.491974 33:0.5 34:0.500002 35:0.5 36:0.499998 37:-0.0924906 38:0.519075 39:0.849509 40:0.018496 41:0.00481619 42:0.614949 43:0.784331 44:-0.0814895 45:0.5 46:0.500002 47:0.5 48:0.499998 49:0.639927 50:-0.389218 51:-0.55669 52:0.359304 53:0.525839 54:-0.509038 55:-0.462868 56:0.500127 57:0.5 58:0.500002 59:0.5 60:0.499998 
-0 0.3107399436635938 0.1015172167087737 0 1:0.43239 2:0.479843 3:0.222054 4:0.730399 5:0.43239 6:0.479843 7:0.222054 8:0.730399 9:0.438114 10:0.476078 11:0.228195 12:0.727553 13:0.49369 14:0.471674 15:0.706571 16:0.185882 17:-0.313238 18:0.416594 19:0.803028 20:-0.288925 21:0.5 22:0.500002 23:0.5 24:0.499998 25:0.472294 26:-0.628415 27:0.297272 28:0.541906 29:0.448903 30:-0.66582 31:0.309492 32:0.509298 33:0.5 34:0.500002 35:0.5 36:0.499998 37:-0.0669542 38:0.517456 39:0.852361 40:0.0351628 41:0.0274282 42:0.617824 43:0.783655 44:-0.058523 45:0.5 46:0.500002 47:0.5 48:0.499998 49:0.623317 50:-0.404071 51:-0.573735 52:0.34501 53:-0.510887 54:0.525234 55:0.482717 56:-0.479696 57:0.5 58:0.500002 59:0.5 60:0.499998 
-0.05869024612963571 0 0 0.1089150158530452 1:0.439559 2:0.472856 3:0.205163 4:0.735597 5:0.439559 6:0.472856 7:0.205163 8:0.735597 9:0.442633 10:0.468767 11:0.212144 12:0.73439 13:0.483161 14:0.480907 15:0.707933 16:0.184702 17:-0.318062 18:0.421547 19:0.795896 20:-0.296115 21:0.5 22:0.500002 23:0.5 24:0.499998 25:0.458096 26:-0.631138 27:0.291323 28:0.554025 29:0.437763 30:-0.669521 31:0.300541 32:0.519404 33:0.5 34:0.500002 35:0.5 36:0.499998 37:-0.0579454 38:0.52787 39:0.845779 40:0.0515146 41:0.0411202 42:0.612504 43:0.787678 44:-0.0520702 45:0.5 46:0.500002 47:0.5 48:0.499998 49:0.612586 50:-0.424926 51:-0.573778 52:0.339051 53:-0.503049 54:0.535654 55:0.49124 56:-0.467654 57:0.5 58:0.500002 59:0.5 60:0.499998 
-0.04818230631024447 0 0.1291027192082145 0 1:0.442734 2:0.47237 3:0.194698 4:0.736848 5:0.442734 6:0.47237 7:0.194698 8:0.736848 9:0.44451 10:0.467737 11:0.202855 12:0.736534 13:0.483209 14:0.490286 15:0.70422 16:0.17379 17:-0.323505 18:0.414352 19:0.790418 20:-0.314478 21:0.5 22:0.500002 23:0.5 24:0.499998 25:0.454336 26:-0.636177 27:0.283462 28:0.555434 29:0.428997 30:-0.665562 31:0.300927 32:0.531443 33:0.5 34:0.500002 35:0.5 36:0.499998 37:-0.0494314 38:0.526376 39:0.847134 40:0.0533709 41:0.0467454 42:0.614052 43:0.786557 44:-0.0456395 45:0.5 46:0.500002 47:0.5 48:0.499998 49:0.606851 50:-0.433626 51:-0.575122 52:0.336059 53:-0.499765 54:0.540641 55:0.496158 56:-0.460184 57:0.5 58:0.500002 59:0.5 60:0.499998 
-0 0.03921941219820956 0 0.057257151231858 1:0.411858 2:0.507671 3:0.208858 4:0.727338 5:0.411858 6:0.507671 7:0.208858 8:0.727338 9:0.41398 10:0.504132 11:0.215387 12:0.726691 13:0.536269 14:0.580131 15:0.608563 16:0.0742628 17:-0.244855 18:0.362793 19:0.773291 20:-0.458746 21:0.5 22:0.500002 23:0.5 24:0.499998 25:0.484201 26:-0.634135 27:0.289864 28:0.528584 29:0.43559 30:-0.650183 31:0.335915 32:0.524103 33:0.5 34:0.500002 35:0.5 36:0.499998 37:-0.0895617 38:0.504705 39:0.856494 40:0.0605799 41:0.0351176 42:0.617047 43:0.783792 44:-0.0607509 45:0.5 46:0.500002 47:0.5 48:0.499998 49:0.63646 50:-0.412744 51:-0.56059 52:0.332113 53:-0.516493 54:0.526993 55:0.474743 56:-0.479722 57:0.5 58:0.500002 59:0.5 60:0.499998 
-0.1688922943665704 0.5 0.06070249076882198 0.05826513605486372 1:0.420779 2:0.500472 3:0.216403 4:0.725012 5:0.420779 6:0.500472 7:0.216403 8:0.725012 9:0.424948 10:0.496359 11:0.22353 12:0.723244 13:0.52327 14:0.596693 15:0.605525 16:0.0590396 17:-0.243823 18:0.361524 19:0.762248 20:-0.478361 21:0.5 22:0.500002 23:0.5 24:0.499998 25:0.487738 26:-0.634647 27:0.285875 28:0.526888 29:0.433719 30:-0.650338 31:0.337967 32:0.524143 33:0.5 34:0.500002 35:0.5 36:0.499998 37:-0.087932 38:0.498913 39:0.860018 40:0.0610228 41:0.0355173 42:0.620721 43:0.781338 44:-0.0543686 45:0.5 46:0.500002 47:0.5 48:0.499998 49:0.635741 50:-0.408343 51:-0.564964 52:0.33152 53:-0.516128 54:0.52789 55:0.476284 56:-0.477596 57:0.5 58:0.500002 59:0.5 60:0.499998 
-0.1004801668263072 0.2254017857889641 0.1171356680726928 0.1102135395313797 1:0.426472 2:0.488442 3:0.218775 4:0.729167 5:0.426472 6:0.488442 7:0.218775 8:0.729167 9:0.433117 10:0.484594 11:0.22503 12:0.725906 13:0.506708 14:0.616164 15:0.602363 16:0.0273462 17:0.231032 18:-0.357307 19:-0.752475 20:0.50273 21:0.5 22:0.500002 23:0.5 24:0.499998 25:0.480981 26:-0.63954 27:0.285787 28:0.527229 29:0.428595 30:-0.647472 31:0.338303 32:0.531637 33:0.5 34:0.500002 35:0.5 36:0.499998 37:-0.0770931 38:0.515666 39:0.851519 40:0.0553275 41:0.0333653 42:0.620091 43:0.782109 44:-0.0517659 45:0.5 46:0.500002 47:0.5 48:0.499998 49:0.62809 50:-0.415856 51:-0.565181 52:0.336358 53:-0.508406 54:0.534182 55:0.476086 56:-0.479076 57:0.5 58:0.500002 59:0.5 60:0.499998 
-0.07440975916269815 0.1948371729309196 0.002754710392576839 0.011259721681395 1:0.361736 2:0.513808 3:0.175651 4:0.757823 5:0.361736 6:0.513808 7:0.175651 8:0.757823 9:0.519631 10:0.439139 11:0.288997 12:0.673514 13:0.426287 14:0.707318 15:0.557221 16:0.0865198 17:0.256214 18:-0.44006 19:-0.653124 20:0.560474 21:0.5 22:0.500002 23:0.5 24:0.499998 25:-0.51441 26:0.659109 27:-0.246797 28:-0.489949 29:0.429943 30:-0.66044 31:0.33833 32:0.514296 33:0.5 34:0.500002 35:0.5 36:0.499998 37:-0.0543242 38:0.581265 39:0.809899 40:0.0569601 41:0.0445665 42:0.618141 43:0.7827 44:-0.057404 45:0.5 46:0.500002 47:0.5 48:0.499998 49:0.591003 50:-0.471441 51:-0.543979 52:0.364068 53:-0.497373 54:0.538095 55:0.489612 56:-0.472603 57:0.5 58:0.500002 59:0.5 60:0.499998 
-0.2190347662349357 0.5 0.269363737747297 0.2233649382996523 1:0.348465 2:0.532363 3:0.16003 4:0.754687 5:0.348465 6:0.532363 7:0.16003 8:0.754687 9:0.535544 10:0.432412 11:0.310803 12:0.655449 13:0.420382 14:0.716 15:0.549896 16:0.0907622 17:0.26408 18:-0.438356 19:-0.639819 20:0.573357 21:0.5 22:0.500002 23:0.5 24:0.499998 25:-0.530414 26:0.664458 27:-0.236839 28:-0.470175 29:0.443085 30:-0.661988 31:0.33466 32:0.503438 33:0.5 34:0.500002 35:0.5 36:0.499998 37:-0.0562631 38:0.618876 39:0.781349 40:0.0576231 41:0.0395219 42:0.6082 43:0.789637 44:-0.0707411 45:0.5 46:0.500002 47:0.5 48:0.499998 49:0.577875 50:-0.49173 51:-0.526718 52:0.383184 53:-0.496518 54:0.528622 55:0.493917 56:-0.479661 57:0.5 58:0.500002 59:0.5 60:0.499998 
-0.05350478987021381 0.161423180882415 0.01325371345693468 0.008320538769628882 1:0.397062 2:0.494496 3:0.187142 4:0.750196 5:0.397062 6:0.494496 7:0.187142 8:0.750196 9:0.499798 10:0.443797 11:0.263375 12:0.695614 13:0.424347 14:0.716449 15:0.553514 16:-0.0158901 17:0.230087 18:-0.379667 19:-0.658414 20:0.607786 21:0.5 22:0.500002 23:0.5 24:0.499998 25:0.499768 26:-0.660835 27:0.249219 28:0.501418 29:0.433509 30:-0.674193 31:0.314195 32:0.508739 33:0.5 34:0.500002 35:0.5 36:0.499998 37:-0.0529239 38:0.606095 39:0.790656 40:0.068634 41:0.0515419 42:0.607076 43:0.790131 44:-0.0670497 45:0.5 46:0.500002 47:0.5 48:0.499998 49:0.572739 50:-0.498787 51:-0.530233 52:0.376875 53:-0.492479 54:0.532254 55:0.50079 56:-0.472631 57:0.5 58:0.500002 59:0.5 60:0.499998 
-0.1060901778869412 0.2968121452902525 0.1163863905865146 0.09260221577636014 1:0.404893 2:0.47908 3:0.212999 4:0.749116 5:0.404893 6:0.47908 7:0.212999 8:0.749116 9:0.463139 10:0.453644 11:0.253725 12:0.717867 13:0.417285 14:0.721253 15:0.547501 16:-0.0768766 17:0.208952 18:-0.350903 19:-0.655914 20:0.63481 21:0.5 22:0.500002 23:0.5 24:0.499998 25:0.495645 26:-0.657665 27:0.26725 28:0.50039 29:-0.437518 30:0.679065 31:-0.318866 32:-0.495755 33:0.5 34:0.500002 35:0.5 36:0.499998 37:-0.072698 38:0.57404 39:0.813462 40:0.0589191 41:0.0442264 42:0.610669 43:0.786505 44:-0.0808558 45:0.5 46:0.500002 47:0.5 48:0.499998 49:0.598381 50:-0.482245 51:-0.524372 52:0.366625 53:-0.506722 54:0.52049 55:0.490897 56:-0.480981 57:0.5 58:0.500002 59:0.5 60:0.499998 
-0.1684730420992162 0.1916504711072998 0.0705133695786245 0.06560384123455563 1:0.405673 2:0.499561 3:0.245701 4:0.724913 5:0.405673 6:0.499561 7:0.245701 8:0.724913 9:0.424322 10:0.493658 11:0.255236 12:0.714918 13:0.394499 14:0.733687 15:0.531175 16:-0.154686 17:0.198274 18:-0.305645 19:-0.631239 20:0.684694 21:0.5 22:0.500002 23:0.5 24:0.499998 25:-0.515126 26:0.636794 27:-0.283927 28:-0.498522 29:-0.446382 30:0.682386 31:-0.336549 32:-0.470985 33:0.5 34:0.500002 35:0.5 36:0.499998 37:-0.100057 38:0.516747 39:0.849582 40:0.0342166 41:0.0183201 42:0.618557 43:0.780809 44:-0.0859581 45:0.5 46:0.500002 47:0.5 48:0.499998 49:0.641047 50:-0.406984 51:-0.544364 52:0.356498 53:0.524882 54:-0.509174 55:-0.461108 56:0.502614 57:0.5 58:0.500002 59:0.5 60:0.499998 
-0 0.02637682390270282 0 0 1:0.419801 2:0.522521 3:0.230582 4:0.705387 5:0.419801 6:0.522521 7:0.230582 8:0.705387 9:0.429258 10:0.518008 11:0.23753 12:0.700703 13:0.359043 14:0.756929 15:0.526753 16:-0.143802 17:0.220753 18:-0.321996 19:-0.598037 20:0.699956 21:0.5 22:0.500002 23:0.5 24:0.499998 25:0.514648 26:-0.629847 27:0.273094 28:0.513664 29:-0.440803 30:0.674748 31:-0.334038 32:-0.488699 33:0.5 34:0.500002 35:0.5 36:0.499998 37:-0.102562 38:0.514701 39:0.848728 40:0.064997 41:0.0313657 42:0.620935 43:0.780373 44:-0.0668933 45:0.5 46:0.500002 47:0.5 48:0.499998 49:0.641534 50:-0.415341 51:-0.549363 52:0.337827 53:-0.516288 54:0.518624 55:0.465899 56:-0.497407 57:0.5 58:0.500002 59:0.5 60:0.499998 
-0.2014924289308488 0.5 0.1806175948380165 0.1569488609670502 1:0.41956 2:0.526859 3:0.233113 4:0.701461 5:0.41956 6:0.526859 7:0.233113 8:0.701461 9:0.430632 10:0.522817 11:0.238914 12:0.695801 13:0.365695 14:0.755038 15:0.526461 16:-0.137926 17:0.216485 18:-0.325882 19:-0.603346 20:0.694916 21:0.5 22:0.500002 23:0.5 24:0.499998 25:0.519543 26:-0.629937 27:0.268846 28:0.510859 29:-0.441855 30:0.676203 31:-0.333338 32:-0.48621 33:0.5 34:0.500002 35:0.5 36:0.499998 37:-0.107069 38:0.5093 39:0.85088 40:0.0717852 41:0.0316978 42:0.622641 43:0.77947 44:-0.0611523 45:0.5 46:0.500002 47:0.5 48:0.499998 49:0.645709 50:-0.408368 51:-0.552881 52:0.332593 53:-0.517209 54:0.521667 55:0.463591 56:-0.495421 57:0.5 58:0.500002 59:0.5 60:0.499998 
-0.1011060866849283 0.3837010271465254 0.1136637566694732 0.09358972116153949 1:0.289695 2:0.432934 3:0.412344 4:0.747407 5:0.289695 6:0.432934 7:0.412344 8:0.747407 9:0.320604 10:0.443661 11:0.405645 12:0.732004 13:0.088637 14:0.722294 15:0.627239 16:-0.277498 17:0.363909 18:-0.337715 19:-0.518513 20:0.696177 21:0.5 22:0.500002 23:0.5 24:0.499998 25:-0.541326 26:0.59 27:-0.436852 28:-0.409912 29:-0.518454 30:0.578002 31:-0.461187 32:-0.429447 33:0.5 34:0.500002 35:0.5 36:0.499998 37:-0.152923 38:0.555651 39:0.803364 40:-0.14991 41:-0.111759 42:0.593889 43:0.77068 44:-0.202137 45:0.5 46:0.500002 47:0.5 48:0.499998 49:0.655891 50:-0.269026 51:-0.49081 52:0.506495 53:0.586642 54:-0.409596 55:-0.369978 56:0.59262 57:0.5 58:0.500002 59:0.5 60:0.499998 
